{"state_size": 5, "hidden_layers": [128, 64, 32], "action_size": 100, "weights": [[[0.5597751206450093, 0.14542121961496537, -0.027704941858255144, -0.010022618873582878, -0.0356463303390504, -0.20089933575381858, -0.09319575059554037, 0.40802197951000796, 0.06301021328282302, 0.4975945304690387, 0.14593361789292134, -0.029511539294650085, -0.20155392734100544, 0.4815747111833593, 0.15292035686293615, 0.10155497216100642, 0.11341827121028877, -0.04330695538558315, 0.5149823148473315, 0.3796410576031332, -0.19135210669009364, -0.13749798867263338, 0.30296117765861724, 0.42879918577070286, 0.4166536910221731, 0.47496385053535145, 0.524831389012283, 0.5485999921417752, 0.24517043146782047, 0.05666150204423079, 0.20261692138552276, 0.1454296930299737, -0.08579599881085812, 0.5191231899109704, -0.0886774618449412, -0.22107772955500216, -0.12092729087828394, -0.13969788437462893, -0.04208125369149038, 0.1897528878164169, -0.0844310496361278, 0.22613261811820926, 0.13346498026261172, -0.18277112109156068, -0.20715843793863095, 0.3155294909913386, 0.19103212652952184, 0.6163086967100135, 0.31470439570524367, -0.09959505167843904, 0.329699215657141, 0.4051875236892803, -0.15678481602048625, 0.015191306557588075, 0.21608397618790864, 0.44976116291550067, -0.1130495849561649, 0.25934033415150726, -0.06736778638615448, 0.023314787531218517, 0.34788851821501476, -0.05903646730742209, 0.28276403224822466, -0.0935788434553272, 0.05079227415678333, 0.4706659196152835, 0.009776746669554914, 0.03722082341124858, -0.13362417963816758, 0.4014311333751726, 0.2263753338367797, 0.2803554270180724, 0.3055807614401318, -0.19768990298526076, -0.06788260121631416, 0.4389470472665287, 0.2918354172475496, 0.34312390601659926, 0.31187284687693195, 0.5833588896415047, 0.3029316295818438, 0.3985502514356647, -0.14760029055328455, 0.48246323146490777, -0.2148746171648806, -0.08104901723731919, 0.5060303291772879, 0.28414474496372866, -0.07301981316041592, 0.22368958725552954, 0.2673946337344802, -0.12702434350873054, 0.48506193278374243, 0.2224884680194813, 0.11790141683991755, -0.0025555727525711906, 0.16466284816897428, 0.2987848306364985, 0.31666445233763, 0.4473915789729058, 0.19583007085649087, 0.36210346349920747, 0.005597398548892574, 0.22343644540696808, 0.4825481258888944, 0.07295012277631188, -0.01740961324199575, 0.02263465107264498, 0.14296609609132224, 0.3646051224750424, 0.4150901422964315, 0.3994519908845946, 0.410776910022657, 0.38385450302135, 0.05551056998845811, -0.09351383619039225, 0.24961833188732116, 0.3297767508859865, 0.25451872265658454, 0.31638668364698375, 0.1062685851467558, 0.2016801836235891, 0.2828973508577705, 0.43164857967838743, 0.5470327589192756, 0.18833103834468926, 0.16863426493786343, 0.5296947249220764], [0.11701879431539068, 0.21260848035620905, -0.1147218775687444, -0.13151394347324005, 0.06297589830987343, 0.12279613856315481, -0.1305743438244318, 0.1299166960792304, -0.17566026941721552, 0.16529013802933284, 0.004648947957241738, -0.1758300605574028, -0.012628612748051243, 0.07709533281117893, 0.0765349748630688, 0.11496652878667403, -0.16176499826465351, 0.102502268630868, 0.2640419531116287, 0.10980333377596711, -0.10962505702158427, 0.006304876451325353, -0.1754286802569774, -0.1422397779593843, 0.1038268469689166, -0.03422865993585286, 0.07738571755789429, 0.12570141188997747, 0.05870225646479925, 0.023778568774255715, 0.22228288277659114, 0.09996307168357908, 0.04947869561634681, 0.21153448196153202, 0.17618718103971961, 0.12306696849205523, 0.05509534051217982, -0.10076395534996922, -0.17913153622440206, 0.16662707287391815, -0.0005354429182924114, -0.05292629072843723, 0.18739693296127247, 0.12181389739222367, 0.1016687206630442, -0.007241718811014269, -0.11101810616312718, 0.23620765448063846, -0.03900988456249614, 0.1758570452483332, 0.061051677447333114, 0.14951572631207954, 0.07556480512306665, -0.011751377520834827, 0.22455027338632733, 0.03694137519859968, 0.19792024522760596, 0.18696727225418447, -0.14242899452918995, 0.010568461081586822, 0.0892005354684474, 0.0819856853908663, 0.22950267863403678, -0.06822434178085848, 0.0340121845794538, -0.03212261616281421, 0.07925262366013, -0.11867425725081245, -0.0896758383722412, 0.22115783522276417, 0.12063100752759896, 0.13132796012920173, -0.08061154367273878, 0.13234650027446274, -0.17979935136571468, -0.01428177729342525, 0.13725312257557026, 0.14699677433452363, 0.15278129246893207, -0.09018328588446185, -0.04492133191831525, 0.1029248348696742, -0.05161854217944911, 0.004923827317665688, 0.1442989918192135, 0.04248257670679985, 0.18091635735735673, 0.07260470044088413, 0.006132935506062892, 0.21665491121890784, 0.1626183098716053, 0.19920334539477533, -0.06963061307730177, -0.03302760062889486, 0.09391859676482103, -0.15945566181399806, -0.09208266140639342, -0.08496828219582662, -0.07801309366890817, 0.21937238938446402, 0.23633102927999516, -0.13071020187868954, -0.14652974552675282, -0.03145110530589508, 0.02567231670148457, -0.21223446605376992, -0.02859443615672211, -0.08866213562409775, 0.17374861701952946, -0.11730107620358891, -0.024022787990579438, -0.07759198955480805, -0.12377228031050784, 0.045944515361378335, 0.07100767890607902, -0.13218993969366943, 0.16513989533179163, 0.027887523897713557, -0.07745166327825781, -0.05494997349823087, -0.11257345052620608, -0.07445219577324709, 0.1388827448595965, 0.25698171285259497, 0.21488427152530504, -0.15567209042809627, 0.014907572941809425, -0.05093491216589267], [0.32360733004053305, 0.4148434014468238, 0.12546614724724253, 0.019552531698960034, 0.04672645041841827, 0.18642822428178882, -0.05960414771970868, 0.3109619806953691, -0.17922006058503845, -0.0028443286740992856, 0.38870351459076063, -0.19275559543481788, 0.045941716784317715, 0.35583161297841576, 0.17563226124878387, 0.3787345400530496, 0.2603574003096944, 0.10276163176684382, -0.007579177642349852, 0.28424323078852937, -0.05922374163677366, -0.12161326599488236, -0.08796895078859727, 0.38497864605734516, 0.08179711811868177, 0.42885717227501957, 0.3735082534454535, 0.41892431957476767, 0.04614995556756513, -0.20991460186620514, 0.14527373522929088, 0.002494871465897038, 0.14368174067440825, 0.24552348454946718, 0.16844912816381913, 0.1381688889578661, 0.09948336931213905, 0.036577748714572644, -0.17437080183146192, -0.1960826643975928, -0.15828293775526078, 0.36435286736683875, 0.326370311479187, 0.07981949651734685, 0.08640612432449143, 0.11018723129876225, -0.001712118540426027, 0.3244015620909157, 0.19411543893878982, -0.14456083834734287, 0.0777793822157319, 0.08160312779802191, -0.06476310720830518, -0.20677259172607007, 0.24286474255651314, 0.23485984575746727, -0.014484771609866554, 0.19079169546995745, 0.060497566572729394, -0.08815599053648485, 0.2985973239988898, 0.03901734237249311, 0.24527279348543377, 0.051560047208141585, -0.0544762472948049, 0.14785163485606753, -0.19758710825496117, -0.18940382187702046, 0.08860324513134657, 0.358930535170184, 0.35208177595293805, 0.41705877806175157, 0.16836714654334983, -0.09706477823371616, 0.1576270481552229, 0.07870616085894457, 0.4156471837363476, 0.34796296294977186, 0.1451266513679499, 0.18888072567529243, 0.12860927003239553, 0.006545742640688357, -0.1675280751136562, 0.18426316529034223, 0.14222110025628337, -0.1051861723211359, 0.40525294148545027, -0.016402194972766657, 0.16883601274182586, 0.29236099170318613, 0.21775781146765505, -0.21193683601979355, 0.4973947649249749, 0.13592186452492303, -0.034421581075174075, -0.16703917135888763, 0.2880339408694767, 0.08552245773372581, 0.309546227966713, 0.12801500703851468, 0.260256957956205, 0.07169193309161011, 0.003939402029294936, 0.22766351404326415, 0.19092428547364176, 0.041269359098927, -0.13914638136712876, -0.20951312841598396, 0.02291780299016047, 0.2812115442988386, 0.17750813187890796, 0.31348354210001034, 0.0894268992573705, 0.09238914709215591, 0.17547292714019977, -0.16364819631174013, 0.38972912936196774, 0.30582106984649876, 0.03654894435721412, 0.3485723638192711, 0.22853108662806296, 0.260810969107028, -0.006084262921596197, 0.39901312934205285, 0.2658547555556366, 0.09641220868953411, 0.36953276884761127, 0.4054756161243733], [0.507558635200304, 0.4022540544764055, -0.215024949417999, -0.06876368745088549, -0.1266491444167718, -0.15267396496667548, 0.04211877810777123, 0.03610832855407792, 0.07380662491993366, 0.37911524169187516, 0.38563307937940916, 0.12584252754645867, -0.19158138770601005, 0.12182892941010495, 0.4046584062765993, 0.31983937409093766, 0.2464227062868004, 0.001382832202916102, 0.38089631382603467, 0.10589951896025046, 0.004396467868061804, 0.1447494061706757, 0.37538400562606106, 0.4294282673201023, 0.24084268128590422, 0.527410389456756, 0.5228767213336166, 0.3002895374802432, 0.10579774502751582, -0.15497611118896304, 0.41982896744261144, -0.1433578814052719, -0.04535451618381152, 0.3255170254255025, -0.015627814904680837, 0.12222717957887526, -0.1488617122451104, -0.17687129566493398, -0.019533114228358378, -0.18165779992177816, -0.18782434572512374, 0.48215213962942655, 0.18517033655720838, -0.2105895158570538, 0.05189212365885906, 0.20640363726810995, -0.0796206991806993, 0.619273106239084, 0.2730334774091856, -0.19548541038236134, 0.15878003125515905, 0.5755664145740518, -0.10755368383767383, -0.18817776609804696, 0.39775615547531296, 0.2881971990853745, -0.13551933873905506, 0.4110034203818315, -0.12112562481140372, -0.14230904790235405, 0.19129125594884808, 0.024980482152822385, 0.12843666750859697, 0.09876763192655989, -0.14125383384610501, 0.43023912721416696, -0.0782467323944381, -0.19233446382810546, 0.1004151161041307, 0.400411257692657, 0.3432626725301432, 0.1596368353847867, -0.059288904775065085, 0.10386081918723308, -0.190876641091762, 0.22507430972196338, 0.5221718856793708, 0.06573996144384679, 0.46226484250341254, 0.2271175443510444, 0.49676354615045104, 0.41630819150459225, 0.01353578831037483, 0.3430791836930137, 0.037237584522421735, 0.1477383099547017, 0.39337482670618584, -0.012494671014084729, -0.2075000650718975, 0.3443981190863097, 0.4404428198250662, -0.1638619273086359, 0.5565523940135372, 0.3140934047387873, -0.13832796605909908, -0.0959182331350787, 0.10284961882766558, 0.214602457805999, 0.43409639630774016, 0.4678118769030438, 0.3663810458531443, 0.39931611263363415, -0.035872399709662356, 0.41571234617259417, 0.2761173044781544, -0.10911107671095459, 0.08353333442298537, -0.1505697050614912, -0.13675086060621922, 0.19183045358891454, 0.45079341153976554, 0.47549990222098143, 0.06460510769852967, 0.37331880107630605, 0.4120856206937562, 0.08859056506440935, 0.39556067529837974, 0.357830032143269, -0.006106846145457786, 0.4517860435441999, 0.40994429411374145, 0.09802941614860383, 0.045499069571342664, 0.40832755021072664, 0.5348254801811909, 0.24825366395144954, 0.4630725158696792, 0.5258880590545518], [0.2182954463904367, 0.3985741880455847, -0.06268006548806056, 0.0031821960100487973, 0.014883558141556456, -0.05292358923906007, -0.011966403424834626, 0.36015542424662506, -0.1172447546760118, 0.4408848377110515, 0.2900060525602088, -0.08454456111735809, -0.15671951219979371, 0.14499178409111402, 0.572417133287976, 0.33775311094656385, 0.37497584827635827, -0.13866830570890323, 0.3510685878239411, 0.5147072106226392, -0.15061060483808944, -0.044252020631738775, 0.19141271621788492, 0.34853296424977465, 0.635586292924692, 0.6628707040057676, 0.6531215716619939, 0.48557729200846667, 0.3338206734791274, -0.12067209242469171, 0.4417448383619595, -0.008652910514986204, 0.05521574875616203, 0.3768425998097688, -0.20366455478812723, -0.10972896007977591, -0.1266820377784419, -0.16243410000478103, -0.10547526778514656, -0.1263906595146261, -0.17597056400511618, 0.5606298541601218, 0.5447994173934073, -0.01593490975472145, -0.15924862658789932, 0.21505356402865333, -0.1497579056334439, 0.3382861243886571, -0.04217078511970114, -0.12640099640694136, -0.028785988692355408, 0.5065488113892699, 0.11069391938159788, -0.1788226568472726, 0.19125509316164885, 0.5297267414494029, -0.021285499962800436, 0.4629169224771866, -0.06311261451440509, -0.12320609950717944, 0.657087872070235, -0.0990631979917489, -0.040486201586285964, -0.11402978873057812, 0.07249818483826002, 0.5121867672852425, -0.11374342690152307, -0.08481127980925371, -0.07550071590108096, 0.4509947383183435, 0.298895692900533, 0.4453877527448611, -0.17043663735468645, -0.19111765311803283, -0.13243136666633362, 0.5467994139521751, 0.28900630813022427, 0.28925761070002853, 0.3810051233650912, 0.12457523794016256, 0.5729397760336302, 0.15198644250391433, -0.06839143566538158, 0.46662295675906024, 0.011408467125971699, -0.057679858163283554, 0.6427142137353477, -0.009018467765559994, -0.09619411568707817, 0.3872318893849219, 0.4577881058689926, -0.16436023003196926, 0.6144803931588911, 0.5271687942686583, -0.1603760373358162, 0.1839340661819718, 0.5400636047661448, 0.16414652687674935, 0.048203639278362034, 0.25926886779334357, 0.532087174647803, 0.4923474427442817, -0.13829115792001198, 0.01380837215017983, 0.3534187378197761, -0.08702042905619144, 0.016814625438023978, 0.0003974368693937146, -0.06838223977622551, 0.49206268237714307, 0.5420391318944148, 0.29993039113473635, 0.45169525100453234, 0.531965137881316, 0.17545263660226504, -0.19301990014348974, 0.44154024174457646, 0.03620547853290651, -0.0730846628344643, 0.35781544791126874, 0.0843372359575414, 0.39227264496215536, 0.31739408356476023, 0.12101079915839717, 0.4529155505297806, 0.317989102467139, 0.589974799242271, 0.348961492213491]], [[0.6105699232291519, 0.11093471372841134, -0.013107502873844129, 0.28151362758366716, 0.025764713307421694, -0.12637145466331084, 0.09679438698049256, 0.617443200798345, -0.04606205236198116, -0.028618483477539564, -0.019155926716906496, 0.5625923421036267, 0.5668028581274849, 0.10471105833385566, -0.16076532464516963, 0.606241797507163, 0.5634713712978376, 0.018435502101039874, 0.7218180361033149, 0.6460152686605745, -0.10817544092259855, 0.07654545286874949, 0.6746637120961225, 0.6370216428241633, 0.10138227989399393, -0.061782090391355515, 0.42302121955040695, 0.5594364650897785, 0.7434210505931087, 0.6180159750104948, 1.725907535632543, 0.6121799151835157, 0.008540791917622192, 0.5265255655605474, 0.3800417497058082, 0.6247961360705363, 0.14298463643221596, 0.48176782763573334, 0.5766961252419489, -0.06922717270005009, 0.26251819057920567, 0.5076526560598873, 0.5481929297349213, 0.6932888889976974, 0.5368874592159887, 2.077874444623349, 0.37779246424588, 0.3994993160850612, 0.7152235125772057, 0.16222794085597456, -0.013345102989471364, -0.09681955845250462, -0.13495208223424654, -0.05685158336088926, -0.12770834249213808, 0.07672040511743436, 0.3051862966312152, 0.740205104582172, -0.12111050461515939, 0.4589979975167615, 0.7205681885240154, 0.5123484521737298, 0.39430220291766904, 0.09216531264192959], [0.5233582944330201, -0.023339391507437975, -0.001471187494033882, 0.21970213579411355, 0.14132971851489873, 0.1664107510756312, -0.06396560592404864, 0.2109896315239829, 0.008478676505263044, -0.14412709902232376, 0.10856265696096648, 0.512109617343027, 0.4807580513620904, -0.12392598479276515, 0.0524985511499485, 0.34603447501350104, 0.3404320491897129, -0.0019508765850773067, 0.3187547900094003, 0.47220720748712275, 0.13776976188891185, -0.06587998723902723, 0.22947420540897942, 0.22059969664040965, 0.045762312549301846, -0.03978490022009302, 0.1914217497841831, 0.34274909187031877, 0.5873914974479363, 0.3455612389300743, 1.4971003207746205, 0.45612646770133236, -0.152976477598192, 0.5521769820435437, 0.40388685302467053, 0.5390129769943365, -0.0738870422365039, 0.2764289497065091, 0.44332752523115104, 0.11812562850656746, 0.2193981312974195, 0.6024418802362642, 0.3850786854718039, 0.3773159141029968, 0.30982173973004057, 1.6781651497967658, 0.3795721669439991, 0.25274127562279514, 0.364993798218635, -0.0433508206326042, 0.14120498598776696, 0.17157047387224963, -0.1282051013304347, 0.11507775174985505, 0.024552025628151397, -0.15174794753945225, 0.4496338385750398, 0.5733349417372743, 0.11321492191565712, 0.4570147002922542, 0.5446715057184507, 0.4897415243378651, 0.24003582183264896, 0.0710901789405411], [-0.0380986738376736, 0.1654376061047829, 0.046099598287443255, -0.06786371353552755, 0.053364089542834475, -0.048717702506961974, -0.011011069702953707, -0.09828884910279924, -0.02473631743797547, -0.15883799301017457, 0.09755338984740616, 0.15488331504249234, -0.05773477243742278, 0.08241736664668656, -0.1542822959496003, -0.11289889713222775, -0.011063738399795934, -0.072198106474397, -0.0564616173455402, -0.019878361414489353, -0.09160366595883529, -0.060628580634891176, -0.05961570044280208, -0.02629926547615918, 0.13386550306240871, 0.13623908219734718, 0.17630946175984685, -0.10380935629204087, 0.13862163838771013, -0.15041249501725307, 0.0053282538061400235, -0.05463640942084444, -0.06276890859508324, 0.022388000273655784, -0.09463524543190407, -0.012808957483802461, 0.035645847523911284, -0.05137601994008935, 0.02975037667110461, 0.001137843348779477, -0.15462462803165253, -0.006700768884711161, 0.1645320916667857, -0.00463347329308006, 0.12171035954126583, -0.0850631592147108, 0.025059681591382322, -0.1553941387861564, -0.11469979039123933, -0.034759232990307115, -0.13916349578533938, -0.15646988975915888, 0.1530881572727564, 0.0828100292533234, 0.03422623774735564, 0.019909969292684182, -0.159691790485219, -0.05039963509421473, 0.1294104488883546, 0.02256437907761698, 0.04051623449664464, -0.024021330293457446, -0.06679674202482483, 0.0609063882972227], [-0.08185188751162309, 0.016248096505655146, 0.09257298606016037, 0.11000745410317544, 0.0880668069392442, 0.17676857183837094, -0.04275217908115089, -0.06778608747533467, -0.06393882955381218, 0.004487130167607406, 0.0787007433373392, 0.05225406690833467, 0.01940608671078151, 0.14477190345407778, -0.09753657706099303, 0.06446419216397037, 0.04512094227267482, 0.15368920742084466, -0.07365138347581338, -0.07861050748530349, -0.02031198798912269, -0.08401553621335903, 0.04007977795409588, -0.08343866343470578, 0.0882276040588921, -0.1434379935965818, -0.006136138529985365, -0.025193479351635923, -0.06740558223758485, -0.0299058992286212, -0.10484523246255323, 0.0038067803181073, 0.009452550865024223, -0.16467881270481835, -0.04352950708131368, 0.13716529073254896, 0.019472007671431785, -0.13014501154705213, 0.0579101289204805, 0.0016626266633590625, -0.026654072626352512, -0.023327243562774914, 0.1336303919246353, 0.11083789011866017, 0.1573729357811522, 0.08602604627084501, 0.007246609572848396, -0.17609416059225153, 0.1220878442401804, -0.10939007222801034, -0.13616680369572193, -0.09749770668853645, 0.16546123525101816, 0.11879650584793061, -0.11187603122743937, 0.052115547891025654, 0.14784507700051094, -0.15515859080154756, -0.07719732933607304, 0.04744190928929268, -0.1392595586771859, -0.16926128762295437, -0.11337874187527612, -0.049505248917986355], [-0.048296810925965966, 0.0004492347297170851, 0.009919843741933554, 0.17211594223279927, 0.05609969139323272, -0.09040568358641113, 0.02985844748596634, -0.11704156231604326, 0.1277847020053923, 0.13968445667367738, -0.027638934130771176, -0.030403096162327822, -0.10942983827265675, -0.14999654282824298, 0.07408950141676998, 0.029891058893841492, 0.10777839120853357, 0.054289506995489026, -0.13866601629411976, 0.07143395792507344, -0.04124848266038132, -0.16412689300703281, 0.1511367889694726, 0.01718217024619826, -0.07035538208915215, -0.07425014064621234, 0.04922618592433051, -0.1381130370610757, 0.007081457244937783, -0.02585166593507579, -0.12411398147592484, -0.028320595544566004, -0.14021759378264245, -0.0903345019115727, -0.09762269496510849, -0.07458585452230541, -0.15146008050226295, -0.13515265002885368, 0.1565894620716157, 0.02729834483311283, -0.07479182580454773, -0.1689706822620148, 0.03152205954223965, -0.09421472964308959, -0.16851861452957237, 0.012796159344063363, -0.013348252245618905, -0.12453894895293227, -0.1572279903358523, -0.020317631546635434, 0.02774057128247223, -0.1450235832722101, 0.014146300594141292, -0.1521878309149705, -0.132427651184756, -0.15921801497734409, 0.05718628963936094, -0.15336172056486133, 0.1261640453319998, -0.02135850882768333, -0.04632003436605782, 0.0007572124996279945, -0.1296051518011848, -0.06667521101320467], [-0.15550124296507853, 0.014564533184331152, -0.09510192603959985, 0.08057775012129312, 0.15393763042140754, 0.10525525370611885, -0.15993633821849373, 0.08522755801783323, 0.06095255284548637, -0.14405417020911565, 0.05364007240177221, -0.07735611676212692, -0.17253073684387588, 0.16790071121806696, 0.027963777440816545, -0.12537616345542557, 0.019794971607575103, -0.05659933789928846, -0.003369194806874442, 0.08256937075882101, -0.01707793799450269, -0.15809555459262056, 0.13897115407049154, 0.10694467319345795, -0.05993990279883393, 0.055846152561018575, -0.12249695273355689, 0.07718871933319318, 0.17186717680612815, 0.08303122974118936, 0.06939446625888149, -0.018788749037651545, -0.019190243976069693, 0.12587061185588014, 0.15819572767485074, -0.1586190629411798, -0.12426075751262183, -0.12749249346975594, -0.14671743499626336, -0.003388621646609191, 0.036443600253359194, 0.07521464359838861, -0.018659561605921804, 0.11462526764059162, -0.16025359144941131, -0.13325207330527383, 0.1365363467626206, -0.08651326701210847, -0.1018705156030288, -0.021727804370028386, -0.147530156480628, -0.11380499645171006, 0.08868605786862868, 0.07735155328477525, -0.13269438217699936, 0.0021412941664687435, -0.16388043000411523, 0.017178459076592108, -0.0323273992911769, 0.09407743937122762, -0.04999854094474617, -0.1178092267769154, -0.09665285683152722, 0.14227645014158044], [0.12990562017484067, -0.12944406541519446, -0.10509545207522988, 0.06282652851011841, 0.10456197883889287, -0.034587718526237654, 0.024015601113954232, 0.03990143178317715, 0.11531163212456894, -0.16723882970742293, 0.022643129821946495, -0.0634715062626805, -0.01531589684438217, 0.1263239626457374, -0.15404457701510682, -0.07744229825373303, 0.12305869571102265, -0.026628021519905953, -0.11281527514727319, 0.10863195001552481, 0.13647973803642358, -0.1317979447950275, 0.12110077344634443, -0.03304860801228712, 0.017210631376164603, 0.16125527669504439, 0.13961708105649326, 0.1530706289243133, -0.026086087222377263, -0.17397490559143722, -0.00032327291018782733, 0.03599324161388748, -0.09098821708353483, -0.11433179952448108, 0.11542046827197419, 0.056874363221184, 0.01642531431975605, 0.16561353401828025, -0.14056789551515875, 0.13080111748099457, 0.10317083624525228, -0.016633086708773753, -0.15581845928332547, -0.03135069158038925, -0.09522537222636418, 0.1653809478623479, 0.09747708094849092, 0.14515514538982652, 0.01800986384840486, -0.020937521841132595, -0.0390614679911242, -0.14577391027495146, 0.10682711076876608, -0.07948268948330475, 0.0648274944231145, -0.11348593979722296, -0.09045030705851882, 0.11036762796155278, 0.04089886788223113, 0.10629934106770536, 0.10105081834568594, 0.022732775397830085, 0.045351783586609046, 0.10067955739457876], [0.17245147932548663, -0.17373817676252848, 0.012936774066493434, 0.11504916581211252, -0.028997850596671006, -0.11466427111655271, 0.08088325237534943, 0.40679760462371906, -0.045894128179103766, -0.07535532190935681, 0.06444248090475513, 0.15776587844571857, 0.29395013388019486, 0.1727145636033178, -0.039041302958196245, 0.2546112364068872, 0.3462128098046352, -0.09118388932122755, 0.13444123290303364, 0.32248981207888794, 0.14726824457500293, -0.03050892454750575, 0.3726495275363356, 0.2150545402726771, -0.12122693235362686, -0.1558987921362121, 0.17318165923491594, 0.21165650536263367, 0.17198913036295535, 0.15663365592286285, 0.9375526742206325, 0.33160145606914826, 0.11578369173944061, 0.23618137109860718, 0.3279184574275791, 0.44510572237916934, -0.08032996176737228, 0.3023771762879358, 0.15378601696534103, 0.07302594023016687, 0.27631859506182777, 0.15908607548693907, 0.1506142163634739, 0.2605279740039689, 0.19967484728547583, 1.3842360909221663, 0.24490267945133506, 0.35015880453276904, 0.18465017046639573, 0.0320788645697235, -0.05542982472239433, 0.14777833221521655, -0.0064840280958466945, -0.0008043797918605364, 0.11445463138746184, -0.02139042409388825, 0.14771023174914175, 0.3957173243470393, -0.01203650465457974, 0.34177038051586006, 0.19327407226090307, 0.2638424605226839, 0.2767616384035465, 0.13794835387384516], [0.1473896318037041, 0.16482566885827166, -0.08708023435653171, 0.1380771449644507, 0.008265352465802196, -0.1174414573325893, -0.1654058678901021, 0.07104256275576272, 0.08723382680814726, 0.04955485842018317, -0.13927137450492122, -0.1755663759765129, -0.08072816274309115, 0.0009917636202204372, -0.04015426792959001, 0.021633565058986365, -0.1479396584797041, -0.08987681486985614, -0.16872409034688549, 0.15660187671284756, -0.03349562874477165, 0.08013159700460229, 0.14950028398014578, 0.17182305464372058, -0.007829446190067202, 0.12547127741218808, -0.11999139441420505, -0.03219240213954124, -0.016294279244281902, 0.066801156111072, 0.06319786594208564, 0.004373364631921275, -0.12373534152654589, -0.05408835033588515, -0.13486837030503654, -0.17472702157530104, 0.03207206995806183, 0.044445441503398395, -0.16902933958302122, 0.06645691269589021, -0.09534301667199625, 0.11445788573864836, 0.0903138010631367, 0.02533281793568233, 0.07468861075341422, -0.14556217597463864, 0.012845652132610649, 0.08563034830633283, -0.13273488393321195, 0.054051224503663065, -0.06646133431903777, 0.04802167189500914, -0.01819258776494731, -0.09817168745606354, 0.15706243310958382, 0.16281590542986482, -0.14820196741866784, -0.06272724721024613, -0.03494987301658217, -0.12482397644755026, -0.042840902196647504, 0.0830650727777235, -0.05332769193404834, 0.12418835254653152], [0.26857883887719375, 0.0973426155370011, 0.04328845576216117, 0.21038156508590167, -0.16038336824583185, -0.13492716781179595, -0.07280141400858624, 0.43729124459698326, 0.06691153588983076, 0.0031631565346181, -0.16820388664845218, 0.2789408306043529, 0.25832999111836114, 0.041505907520372115, -0.03892093715342779, 0.47466334222554724, 0.28076229512389134, -0.1609977807476365, 0.5873839781392783, 0.38987367994632344, 0.06017483827908326, 0.1413455033876901, 0.5166278114823134, 0.5490846575313982, -0.09678340372915771, -0.13704433691076082, 0.21500713222964812, 0.20606883019288685, 0.35574003216261535, 0.2885760587679555, 1.5472516323953596, 0.5370417316885202, -0.15723050750697073, 0.604149806556136, 0.19712250869022652, 0.40816655022649256, -0.14456830120860295, 0.42991307714222743, 0.5388012350433643, 0.0924661724907724, 0.17826141331872014, 0.5931922934345019, 0.4808365368070064, 0.5288995217736815, 0.38490895437104405, 1.5017564544998179, 0.5107108550627771, 0.5201980384662602, 0.45821325057410495, -0.09343963477393986, 0.058725205155921445, 0.1499869974515168, 0.07456498061089709, -0.10842327733695808, -0.040963217936031665, 0.009759842792995577, 0.3211871511850241, 0.4832542328839952, 0.04750217896088497, 0.6097252060201787, 0.3192581222413428, 0.38653672674909395, 0.3925461231085284, -0.10714152547223607], [0.18541845815399385, 0.14114419965146524, 0.17568254279256004, 0.20420610255097735, -0.16434014421874152, -0.06711327143322333, 0.14703043467397903, 0.4714691873776122, -0.16233157502190623, 0.09582153250657718, 0.062311000469634975, 0.16915907813181233, 0.4828480293971456, -0.1292276829914831, -0.08312388168187314, 0.39461616529913984, 0.25599711113560214, 0.11361872551054623, 0.4134898886253357, 0.3776554437866156, 0.044890865014454086, -0.08049642009311009, 0.4743847754444051, 0.28478453730412584, -0.006683969515678505, 0.0626714306140687, 0.36301836048924735, 0.20431986847747594, 0.3387702646692326, 0.4890289667876873, 1.2870084727962643, 0.38526528281077804, -0.15801094026241372, 0.2561109153604673, 0.2299812631204944, 0.3413573946569464, -0.04966771696886457, 0.4233849137859825, 0.291979027666249, 0.026345932611471435, 0.398488402919076, 0.4708984247425125, 0.41864442496134274, 0.20128352690075615, 0.42746467799868143, 1.3932489094262948, 0.19099610691102922, 0.4244762965467393, 0.3100296455771158, -0.0003782536307374851, 0.015096966387437738, 0.1401817492417574, -0.13086368914313207, 0.04062906873169303, -0.025316014445306123, 0.13197353182607222, 0.3090838335198331, 0.4011164822034213, 0.16196397016899108, 0.3964249339023607, 0.2607416461979269, 0.2965936684637723, 0.07532773061405193, -0.05784297184877196], [0.001975251136662276, -0.06641130371315129, -0.03845539111369911, 0.02035063791946423, -0.008636225938983444, -0.10494059876157218, 0.0915956377285074, -0.020182676030982033, 0.04512859439268663, -0.001422750544757323, -0.16051932273666467, 0.10692214588063034, 0.011175302134052822, -0.1405191470869136, 0.15762091756925692, -0.05192805030856906, 0.17003190839428897, -0.007695970475465497, 0.14378797363530396, 0.08469246494093799, -0.14515850953291218, -0.06288019786161238, 0.03976543171505398, -0.13241056695469938, 0.15575897733967928, 0.0371331911095929, 0.04307807169510075, -0.11675100321403085, -0.154550345734951, -0.011660513343167839, 0.1733456047384674, -0.05667038860578462, 0.08788892129442924, 0.006203336279628324, -0.05020855752059611, 0.11211779943598862, -0.05210558200661412, -0.05818460818225525, 0.16311995456851522, 0.1107450007222873, 0.019668333112466074, 0.09438715499510017, -0.07528454771493122, 0.08462940451023279, -0.0970485950643182, -0.13307276728108217, -0.09727366360625528, 0.15901196362878303, -0.11727766382663231, -0.09249859023041407, -0.1696414830061539, 0.1532597734766509, -0.12679132322110692, -0.03065723964888073, -6.945974572256097e-05, 0.057552180998128616, 0.05852946384827973, 0.08997385305995229, 0.08637831097750567, 0.11566650814092425, -0.013469696911181134, 0.07664837079539807, -0.02194569489321671, -0.08279808759933685], [-0.09074151747855594, 0.15514515945869925, 0.14303648038753522, -0.010481740155672742, 0.01016423068977701, -0.13823825444868215, 0.14355701387147127, -0.06948092717194874, 0.09508606778420584, -0.11157867951387054, 0.13833418082481683, 0.15709455104009426, -0.008985352513028871, -0.00012982808459588435, 0.1429915135344674, -0.17108742659478493, 0.10518493910630874, 0.05855681136030089, -0.1094041493961956, 0.07225589473134983, -0.16918070316911815, 0.1046961164251484, -0.12092209190527577, 0.1580599096903312, -0.04527956940366798, 0.04136356015220191, 0.09677010087852841, 0.057204327460577215, 0.07299877850857348, -0.004089609485683654, 0.16915184482081494, -0.17371529739510033, -0.024866014058179037, -0.071837128676413, -0.1601837639082171, -0.046079501833169945, -0.12515833931681447, 0.09464924059406496, 0.07980212000220446, -0.07700764300742016, 0.09185697374978505, -0.16518732106654865, -0.07153411860491252, 0.013642827156881476, -0.16380794246770847, -0.025171901143636183, 0.17459233344947564, -0.06032299068285081, -0.11374176588446921, 0.11786248230997473, -0.1535399892371909, -0.12398329125396976, -0.1339955223440318, -0.04860933721108143, -0.15157146935613988, 0.10431385483525349, 0.05893337593017062, 0.05883350111099464, -0.13556367864295377, -0.03457050872948114, -0.040877054114794004, 0.15669362332431078, 0.10884587543959237, 0.08977523721593308], [0.18884144432721023, -0.12049171374967547, 0.10343182097504997, 0.11482986318801641, -0.05779449433415001, 0.15985765568914556, -0.1046940043594621, 0.418747487006404, -0.15814740720273832, -0.14132173432635686, 0.11282152295780348, 0.1702710481340462, 0.29644104614628247, -0.01117184857700107, 0.03853197138300746, 0.4240930748249298, 0.3089117245002178, -0.06299751313086362, 0.23836757126435615, 0.2998261244520009, 0.01012037213967607, 0.1172177533274984, 0.24157155934180008, 0.4391626890885337, -0.02477304770285179, -0.11279126446576927, 0.3283616812453812, 0.14975762537268855, 0.3867080171963195, 0.18605465962017492, 1.16399637969003, 0.41536262606646995, -0.050139529328034865, 0.2623840390305611, 0.25557405890353585, 0.24848635731139027, 0.15667795906632656, 0.2215937460295757, 0.367397565880836, -0.06424408269782252, 0.266492845490724, 0.45543649055426144, 0.3020015274280467, 0.4262353531129364, 0.29930037283062155, 1.2810073460455456, 0.36534432039629067, 0.23901276173003627, 0.4450169207713878, -0.06312901202751307, 0.04683185712689922, -0.03471121734868793, 0.1229733607639262, -0.08552452127961654, 0.12915979281361376, -0.04094847788128758, 0.27340779044337765, 0.463002491666802, -0.17507445095770055, 0.21293446403556826, 0.28120703556196674, 0.28761566622555707, 0.24145769207125323, 0.17437348727790894], [0.5030823078969013, 0.05685293808539241, 0.009271675101070742, 0.1956953787422602, 0.026760219694394783, -0.1456034900943254, -0.16694000111812435, 0.2932213670032765, -0.17599415423576206, 0.16320383653534545, -0.09843674453060623, 0.46319616782051276, 0.47940109005088793, -0.08232485929380777, -0.1442250446104468, 0.39213095535298637, 0.4927365531252378, 0.11854940105392864, 0.4198208930080851, 0.4521203385440009, 0.08450878049403435, -0.1372986056896883, 0.3684451955230188, 0.32912863045523444, 0.09272153411503756, -0.011872253487194166, 0.35361719927432167, 0.20515767905126056, 0.45451763951711976, 0.5451870827342455, 1.469370878075157, 0.5189578149130589, -0.08157472152742828, 0.5352365320311328, 0.46841960484580925, 0.5534292235245144, 0.12810150005445256, 0.5217039614087506, 0.3288895607236604, -0.11372460680135121, 0.1343550513514896, 0.6420249040353914, 0.31511047003533377, 0.35787689540549106, 0.5544560718335165, 1.7352533308588565, 0.21885562182450777, 0.39493714329565366, 0.5374177167367031, -0.12331850875111869, -0.06964377466365518, 0.13395961369698953, -0.0750900117121326, -0.16338194100528067, 0.012306039174343947, -0.02147759368248059, 0.4869057774637716, 0.457793369638273, 0.053322276954579216, 0.5539942472286088, 0.43164790075089887, 0.412117766142143, 0.3726636096371859, 0.1450619883024298], [0.1534672479871824, -0.16356327252391603, 0.17504565992011942, 0.14669368233798977, -0.14190995500631776, -0.010345211487806873, -0.1460836416461247, 0.2776615491460034, -0.06819530484360237, -0.1336644890584204, 0.12977309738477769, 0.20348354087747536, 0.3442387810532571, 0.11854503720447249, 0.081413313117803, 0.13566883399643068, 0.26000779973476373, 0.004909633789217724, 0.16323363087450352, 0.18979738278125083, -0.17163385806661516, -0.047322472813642796, 0.1107063575654095, 0.4431421025681024, -0.013578407639464472, -0.11635262183443852, 0.34210413089614466, 0.366033895572205, 0.18114757483928032, 0.30070614838092846, 1.0509290771869109, 0.23816957134249542, 0.09600865469207256, 0.4686907870760114, 0.15255678823579236, 0.3848248822729219, -0.004327201273905706, 0.36983520007856574, 0.3992959301900473, -0.021523637598448865, 0.11999565406012772, 0.15001122717121665, 0.2424433184354264, 0.28470636553986184, 0.2308166688847431, 1.3429039463836667, 0.1366072646873214, 0.1559144400266598, 0.161211171975455, -0.13636685338177906, -0.010253264135394374, -0.10309956428793893, -0.03720349851177801, 0.06017571675877081, -0.09147909575589075, -0.1216338164566591, 0.14259810067246312, 0.3665881171001857, 0.08336591956220668, 0.4088522577016185, 0.47175431644055, 0.444907225887193, 0.18341069994818995, -0.004633562265935559], [0.26870683609724455, 0.007190610332908354, 0.047223707651634333, 0.06412572070605094, -0.1436918024854854, 0.11735186861004335, -0.07753603550883124, 0.3790753903037727, 0.05119067208352843, 0.050306733875852994, 0.02706734782783543, 0.16778868350395817, 0.36746562353454226, -0.06693370454273823, -0.027273679450354915, 0.2096827635448422, 0.0770793201703816, -0.07436257297596487, 0.3984877614681587, 0.08282521186254516, -0.14767748242340284, 0.08247131701653333, 0.08098994392606212, 0.17224281978369352, 0.1760610050361053, 0.0898968935442178, 0.3050609588534303, 0.0921936705803813, 0.18313458887323972, 0.32717070174223517, 0.9595176679423718, 0.12043385109092303, 0.07424816696696965, 0.20026554287363904, 0.2771493817590972, 0.22798459637839877, 0.05989789444979199, 0.16170380612427607, 0.25032788811845863, -0.05629512529495566, 0.25617081178879186, 0.17584633086394177, 0.31934496930340095, 0.3406484603647588, 0.2949279746625739, 1.1254730608772558, 0.3700234881087935, 0.2313257360900781, 0.15119198150501797, 0.15109843511950508, -0.14219905525672705, -0.012573871075418158, -0.14778504716039895, -0.061546635716451255, 0.141542666552228, 0.0767667251928155, 0.3514920219732297, 0.2508252399576096, -0.13125845257805385, 0.2840590356971552, 0.2707406284576598, 0.37859965294190456, 0.17461860051661868, -0.06993629501824679], [0.08823344528016415, 0.0187895869267173, -0.010128140828231907, 0.11859214573860434, 0.0354706088532761, 0.021887889640241714, -0.04245528253065754, 0.08546237010572928, -0.0875654467336851, 0.11140913567266295, -0.16064311594445344, -0.05096633360093347, 0.14407535507401528, -0.128184805470895, 0.10168365190765669, 0.13956962764683034, -0.10242568850604573, -0.010145296685758642, 0.1572013523372788, 0.0007982984925838622, -0.05843387407111353, 0.10524032124429542, -0.10994395410523854, 0.11218476154178893, 0.0961838840808998, 0.001720539316973645, -0.007145692557054096, -0.14165242427736516, 0.15628468860381006, 0.002850399353247284, -0.1552958629533906, -0.13098247778805036, -0.16431036066954258, 0.011551486894238886, -0.05453854698887897, -0.07199807654675143, -0.0002650858076542195, -0.08964413889929453, -0.05741808938255753, -0.08202205179192952, -0.0637650154565239, 0.005897463024262072, 0.12366971735217304, -0.1371277714194737, -0.16477550445600767, -0.1477634024259977, 0.17680404963384244, 0.01841554705357476, 0.12548534608578277, 0.12792579219443098, 0.0930701488957836, -0.05990839963749012, 0.04642674706000649, -0.044821115043444416, -0.098184635081973, 0.03714356609580269, -0.08631735292991292, -0.09980827685477346, 0.005116606247388059, 0.01587080851775549, 0.06395228721016843, 0.11811769126576373, -0.13211805745466543, -0.16855615437278176], [0.4747246745006647, -0.11549948015334875, 0.15897155744246536, 0.19013466058163203, -0.011982245243667844, -0.09483160353428287, -0.03141832715208762, 0.25337531556496107, -0.1039950565725748, -0.15181693970124116, -0.0984780536893307, 0.23559478884999802, 0.5423923457104552, -0.026127453138445306, 0.12752369890966583, 0.45695599611347615, 0.49884833142945223, 0.07367147677414013, 0.43308696847019634, 0.47483191265696645, -0.12580940170161473, -0.17871149964184335, 0.5229905860082756, 0.5203159806145788, -0.12111412451520229, -0.02160046668987502, 0.26872895717485057, 0.4282542330507215, 0.52728775971719, 0.31386129958162334, 1.5150387792744777, 0.5157564885261557, 0.012279032597082379, 0.44856268664021837, 0.21240881930825994, 0.5677444771278927, 0.1628960456528553, 0.48159837321362264, 0.34233354538267746, -0.09209316764566612, 0.2420324354961222, 0.38652575680785994, 0.17134055607029147, 0.47334946114688137, 0.31623939128634093, 1.658973209819524, 0.37400653087781877, 0.48616091311402143, 0.33754337164841974, 0.03400622415224919, 0.1242396604466375, 0.03275008859872769, -0.10865048908988509, 0.05101408534603045, 0.14071762737727275, -0.08395700968487484, 0.4982315839530064, 0.4277379200662901, 0.017176224714187338, 0.3969315664228614, 0.37057238224695666, 0.22962093672532286, 0.10484448468425332, 0.024454767922105686], [0.43053612687616283, 0.012393102458900636, -0.0361117871907852, 0.23102944500568978, -0.10606349639634662, 0.11696612680467777, 0.152276272298563, 0.35181431199203106, -0.10067661857851846, 0.039057746237219415, 0.16262525882355625, 0.516382087650889, 0.4826001357719035, -0.011432417956768137, 0.0338833182746201, 0.3801450088913637, 0.42551463333338724, 0.10185106810350907, 0.2867288084842041, 0.4256037869394861, 0.13431076223454735, -0.01821759666581509, 0.4526277291968269, 0.19115591160392686, -0.004084435353131645, -0.11497449165237147, 0.4245668745479998, 0.1551281133772517, 0.5320221852092614, 0.33403553437101763, 1.3771395220841591, 0.49315758154084455, -0.11027049308475324, 0.22721877750073016, 0.47429803757716227, 0.30261470754578945, 0.129748725979371, 0.266424336745418, 0.34432901869952715, -0.11566360197461541, 0.385505740229364, 0.537390110825856, 0.38669482481408557, 0.3792047978860811, 0.33869795481305476, 1.6305605206740204, 0.33571106733437217, 0.3157193764215178, 0.3769181650608958, -0.0036756480377316825, -0.14003611416375938, -0.07635206141718472, -0.0782488038868574, 0.10062132875184665, -0.07652530907174074, -0.040881572852282805, 0.37166935811524904, 0.2982919927658979, -0.05698662335647249, 0.40505081359801065, 0.47552085808981015, 0.2552241728687944, 0.25713633604382913, 0.05381929943833941], [-0.13435276044259448, 0.04497532548476438, -0.1309281719231638, 0.11439492729616654, -0.0056149880424344045, -0.01968752358445111, -0.04991670832098713, -0.040434049776917697, 0.047222963642729654, 0.09484050704814287, -0.07826414084248556, -0.16546991790239024, 0.003469239650746636, -0.033491470857066885, 0.16746859102774544, 0.11821800010209108, 0.024007494024913284, -0.00494811828228528, 0.1764500600136463, -0.11867616169658485, -0.14677711706239335, 0.05711543121655832, -0.1648827416409773, -0.07029373012980814, 0.16455686918982362, 0.07618766500642457, -0.04899940237825809, -0.05627474781385508, -0.08030672707037362, 0.09700036468901532, -0.059302879513282974, -0.048930200384476846, -0.087080771032927, 0.1318934418495221, -0.15651393187427176, 0.003854342718168091, -0.10678455262385853, -0.0864444735925699, -0.056320842014998235, 0.16581542750407482, 0.045151718607477964, 0.029634759472118605, -0.0805190523991532, 0.1560334179478636, -0.13412089559267615, -0.147729361889206, 0.07363980278044349, 0.1022420494006395, -0.1237265743973225, -0.16985413243970973, 0.024421337200023097, -0.17560022920393895, 0.14480703330341618, -0.07412762490611162, 0.11319614948550347, -0.14095352627002075, 0.11309680406356223, 0.08577765428814257, 0.017273817162962835, -0.15601234102360317, 0.12065245504855823, 0.011451848003926762, 0.012329368357933274, -0.09855798914067355], [0.17426486735993338, -0.0213647254483105, 0.15186275559481824, 0.04548932127439026, 0.16236883920994946, -0.1691738903297918, -0.014522876451704664, -0.02202957457930574, -0.07367699675345257, -0.13414694502119684, 0.0630443013877991, 0.13910563071095164, 0.13091132042524758, 0.023102661521715973, -0.03336754493612071, -0.031563876251806816, 0.040216370993076456, 0.046061851699542355, -0.1431987652163879, 0.05700411761285579, -0.10655530410446334, 0.16695100673245208, 0.10187678199072206, 0.07157273884144788, 0.09581041882640431, 0.015727818546890537, -0.15803289777429835, -0.11348480643644103, -0.051002710177684873, 0.030429119107019065, -0.082919663240335, 0.027977079412248446, 0.07580403106887837, 0.002647878489276917, 0.10184972930501832, 0.056265906475717165, -0.01878741056442318, 0.07615348888091503, 0.086968914461271, -0.15887214391196827, 0.1184836461597241, 0.12612562175442396, 0.15558233720819234, 0.04383924217683949, 0.03201088030158458, -0.17146185219807492, 0.1500568925340159, -0.1034617883253916, 0.04113277841236268, 0.10359762452886326, 0.12481071662548518, -0.06790344107317536, 0.15077468559932425, 0.03366502574308883, 0.039548606437274425, 0.03993352287790786, 0.012849675069258576, 0.0996121558786269, -0.16956848759755092, -0.15536282959672168, -0.10264040859899881, 0.045134656810431745, 0.059847673566355425, 0.014319951515691903], [0.17638255362872485, -0.13880306733741338, -0.0548174308389079, 0.09094221490198477, 0.11460731722818264, 0.0017780935459915173, -0.02455993138651644, 0.18339706623532315, -0.1331990966948346, 0.17233032692695752, -0.08930800761958485, 0.17686654399942014, 0.2380305845548002, -0.09819930064898456, 0.13908966339683668, -0.059347475256866934, 0.16498143355211886, -0.16415895998543725, 0.007337322450358947, -0.05059240526524785, -0.06441500043198428, -0.04279789087072449, 0.21182801490729908, -0.04576238347933854, -0.17225134734178205, 0.009676733403273153, 0.007196328454622083, -0.04960217241045072, -0.04212751188781292, -0.053956341520663066, 0.5140264278927302, 0.053243925871928895, -0.009057948067392463, -0.02201125667098538, 0.24305197300964543, 0.02073555076107406, 0.10281548679198596, 0.25419608949830647, 0.162358712353521, -0.02644222464898872, -0.017662196822791746, 0.10533625526267705, 0.1429812560703036, 0.18950656409149863, 0.18726049290546032, 0.9059978279479879, 0.2577003649144011, 0.17353250261128872, 0.07548112074324888, -0.11508078048079831, -0.10169993512438665, 0.10938785493886652, -0.15777951081166613, -0.05990406206157584, 0.037363097937773065, 0.007516324020815646, 0.007640169549138665, 0.15957652167323066, -0.16136499441649446, 0.26840547304330603, 0.03300642277129979, 0.08052387660889583, 0.11685981889047838, 0.15464914743374922], [0.5792206904869722, 0.1371512972522809, 0.03967263463873652, 0.17910151514029127, 0.12273524053743562, 0.014623515087439157, -0.13379356241530607, 0.3175791326121532, -0.03354782132405096, 0.05162946910997637, 0.16918895830384292, 0.4938220150054672, 0.5304465591232882, -0.1550945050696591, 0.10673944807859223, 0.2925320208342964, 0.3138386787590266, 0.16938731564986592, 0.534497482926111, 0.34580798134974333, -0.1463667679095467, -0.06524396881387433, 0.35198819354319855, 0.3410459830467032, -0.12534410757377598, -0.01668075147086687, 0.3248576457235818, 0.4630480891041633, 0.5133195265693692, 0.5523113402443828, 1.5485771882076576, 0.6130720988907844, 0.05150708682475508, 0.6048372995388261, 0.5226494268401113, 0.5485297595472188, 0.04798716546731871, 0.3676438655645349, 0.6458315802313069, 0.11059253890256555, 0.28932478399569295, 0.48934588330671536, 0.2765029556689578, 0.4792293793446879, 0.601635291283983, 1.8967984765082198, 0.2956648766908814, 0.3699173025106437, 0.517811780238938, -0.12882195494033677, 0.12245619212005168, 0.051694835139369566, -0.0036112771179361847, 0.07265325008706273, 0.170733303182083, 0.09801874487904691, 0.4860011165524153, 0.6740421581296295, -0.0005556814019455898, 0.6480886833926195, 0.5751733411802386, 0.3126119919487357, 0.4187327797783933, 0.17147546884860018], [0.5069588580781245, -0.040704444573795844, 0.15892419813261768, 0.11750734095823671, 0.07500610675451522, 0.09583213206261595, 0.1222652138943486, 0.34845960619156746, -0.08726445982063152, -0.12681647543382482, -0.0239780720642212, 0.5791940914503783, 0.3245876997491167, 0.12647429134951096, -0.09360909183120028, 0.31696799263179676, 0.4478037162931948, 0.08257500584895522, 0.5169944938176466, 0.3953173206638535, -0.1216876882480694, -0.1480060041580613, 0.43494847386192215, 0.574852797582237, -0.10555241501623644, -0.03419213119901118, 0.5192881088633515, 0.4676612644609346, 0.580759746181965, 0.582460296221513, 1.5785116189441275, 0.6836206417866751, 0.02349718715950372, 0.3973139113310836, 0.4429545457540003, 0.6468882598965405, 0.06517479021019759, 0.32729702501219715, 0.420671506218148, 0.1296310595842997, 0.3211667752792696, 0.692606869145853, 0.23142106697594791, 0.6767882633103072, 0.32675982897344047, 1.7310011756782775, 0.428154224381305, 0.4673554125617375, 0.4338352400528962, -0.09498989860389438, 0.0031660329102984885, 0.08434840766682825, 0.08299957429098012, 0.043948051212514126, 0.14803200843519546, -0.046575321696796235, 0.35467834303885937, 0.7096361696066261, 0.11427804943081339, 0.6897929559029697, 0.42512687458476384, 0.5940691756111994, 0.14715706551478178, -0.07742342398685813], [0.5513430968893319, -0.16097207611130426, -0.049396494507481736, 0.2596213427937935, 0.0012546256042559568, 0.04447424500137634, -0.054299468737118106, 0.55848683514085, -0.09683491770134227, 0.04254009021134558, -0.11427632702850651, 0.7326114109464722, 0.5171790570686864, -0.15767752914474864, -0.046830443022270046, 0.625153193301795, 0.6857476810239963, -0.07130398351541074, 1.0073072474123186, 0.8138325536908483, -0.0483678678728927, 0.026380284123103812, 0.6904152001907583, 0.5929687448685633, 0.06532767641080804, -0.11613027333066585, 0.520808406979746, 0.45778972949635505, 0.7971800538895341, 0.9254819460904041, 1.7949266690827708, 0.8977241135492952, -0.12068105225002679, 0.8719208351129802, 0.6297282655120772, 0.7410543560293795, 0.17612828002210765, 0.5821163839837497, 0.8589869149655317, 0.010333060758994355, 0.5046081006595694, 0.879662085752004, 0.3777569921797352, 0.7896837639042064, 0.7667761937931578, 2.314857742158386, 0.5041337945287973, 0.6294661028073066, 0.9144688825534596, -0.09462502003295434, 0.10746614153400688, -0.1670913334456725, 0.1038012151848143, -0.09526340781491931, 0.0052654856502303005, -0.09780363882883761, 0.6931187885354645, 0.8416827654226414, 0.05122373129305734, 0.8866298399356701, 0.8264474836437513, 0.7377585538676058, 0.49197944306224956, -0.1692939158154169], [0.6443628055949612, 0.08819590473574423, -0.17658149258879738, 0.44844217137612424, -0.02960208852183378, 0.01491262378932229, -0.05974730724350401, 0.5920879698866556, 0.16468067877152867, 0.00010493146879320125, -0.00986176784126902, 0.6723798594243601, 0.7530146429636556, 0.10461385452471597, 0.015757479172199135, 0.6546413674597492, 0.5875352669819985, 0.046687278876037255, 0.8601947004810265, 0.6689720887444607, 0.08682520227751411, -0.009280388911204597, 0.666123627304911, 0.804660613790919, 0.028784978973375237, 0.1114194408272516, 0.7415025655424913, 0.5486165183788537, 0.8317925093113837, 0.875117395566977, 1.9781541866087466, 0.898867700220486, -0.0629994566077639, 0.9427021436009441, 0.5897857681299642, 0.8138724206522988, -0.090790631037297, 0.8391481016752121, 0.5497842739224653, -0.027063160015436925, 0.4630711589423881, 0.9632648108088823, 0.44619604939353236, 0.8291484628118865, 0.6473385251519491, 2.3294558280062776, 0.5541190002942306, 0.5311671201433371, 0.7784119739593985, 0.022867201616765254, 0.0006196397051246028, -0.11698881904553782, -0.14986372294168337, -0.07990026187014004, -0.14246100032475106, -0.08054765270053627, 0.6188775198177677, 0.9318965474129958, -0.05621369643840518, 0.8115272453449781, 0.9798972468233792, 0.5943892293942811, 0.37458445624468234, 0.05185175945499443], [0.5057691632281672, -0.11627926316656999, -0.17443738246608215, 0.44330993407854474, 0.03859224715452423, 0.0297833768662836, 0.107424274656265, 0.5861110461418965, -0.1103478047289927, -0.1404731353869237, -0.14677761060308095, 0.5734403214872442, 0.7923217881145413, 0.10107304374416079, 0.03742862183614301, 0.6721642074280544, 0.7688007117384524, -0.15972379865161973, 0.8871487844737495, 0.725549498645622, 0.08965141923931454, -0.16328119012062237, 0.6196618562336719, 0.48470074697338955, -0.09276606352502988, -0.07978740371803861, 0.6946421603220233, 0.3655074345623888, 0.7748042426111507, 0.7001543475661615, 2.000749511438697, 0.8697933565682411, 0.09577085938942068, 0.8883432802375185, 0.4680820843106433, 0.7485608689129514, 0.025954998452585976, 0.7635638566535622, 0.655751885653458, 0.11283831479077482, 0.3935850932720015, 0.8752417076691471, 0.4751181428715833, 0.6485361817059866, 0.6427936737446834, 2.3648595113377273, 0.5986618765551449, 0.6998815407274478, 0.6527164584194823, -0.0020178171639042286, -0.06553116993076073, 0.15992298734697144, 0.16790730676737511, -0.018025913494896083, 0.02380971057288822, -0.03306996923915462, 0.6609993128175576, 0.8596691910992093, -0.06192854561792817, 0.8353709722740891, 0.9042653041479555, 0.4608814348306464, 0.2487869202351476, -0.1102539950024348], [0.12767097704029434, -0.13186182440691344, -0.14626719536599572, 0.23061847280275827, -0.1755876416053501, -0.09846541580483419, -0.15338671911008148, -0.009410825312199661, -0.10635806758558139, -0.0765524614288986, -0.12751476275659768, 0.1724182376236938, 0.19701809061283881, 0.09488770113544945, 0.06385631128140506, 0.28712852885154266, 0.2921909224189961, -0.09468137932405468, 0.09202173731474954, 0.2209093317351689, -0.0038033124365660096, -0.015401995195640578, 0.25820263114743186, 0.20454260800832857, -0.05948750087833542, -0.14297842647315515, 0.27636545570109133, 0.05783109828463891, 0.257059164455614, 0.0056169253499749145, 0.8743976796499101, 0.1883147371370693, -0.03590998663926387, 0.04647654687459167, -0.038982308655668124, 0.2617720465104743, 0.11566510659244791, 0.1795154830308356, 0.21488049582197277, 0.09409783771308702, 0.05946035430504257, 0.13693892346069242, 0.09240746645683719, -0.028513389613142995, 0.2624479679942983, 1.0262814419093704, 0.28351786419428743, -0.027575195755301297, 0.15037554942512787, -0.16938953326540235, 0.07125577156292914, 0.050390944336041854, -0.1504578630277822, 0.08224868651222975, 0.08891974015457807, -0.06775128735751369, 0.09132720685625002, 0.0370753964287433, -0.07141118074655356, 0.20198552765919292, 0.08071628540462374, 0.2041158373132716, 0.1440003763590718, -0.08630206610053112], [0.06402777290607325, -0.10034103675979456, 0.027882584879574845, 0.08394617589600342, 0.025785730869492596, -0.16940075501149574, -0.09644190680480007, -0.05165805409918192, -0.03421969123850471, 0.10715549195613969, 0.0924817378385612, 0.1534773785935429, -0.08391072805224434, 0.1490266948136256, 0.019090983183620014, 0.12794064847389838, -0.15663120455046944, 0.07872513042178611, 0.13777485368030654, -0.03442025974406493, -0.15490449325903535, -0.1733719794504809, -0.08684115068330883, 0.05322314127396224, -0.041952602624198254, -0.058080704076752504, 0.10033281549096226, 0.16138462654220723, 0.1538912030949093, 0.13959801906592714, 0.047556680157542, -0.044774142426009106, 0.16972357736100005, -0.025749145823514646, -0.11641264597461218, 0.06423860309155133, -0.044634442072469055, -0.15271161814256196, 0.1511206046627019, -0.09803913889476791, 0.12847588609233854, -0.14001668039764809, 0.094862863092014, 0.10014741541210762, -0.03917628924533928, 0.07695912956361042, -0.15079041261944304, 0.06317294145158256, 0.04429532208686554, -0.14690260012957204, -0.08135153439659637, 0.05988387220748417, 0.05342365557407874, 0.08789457015514132, 0.062439471258499274, 0.1527417030621355, 0.034397720267260234, -0.10263486488998373, 0.14833463410673467, 0.11408357797530841, 0.17617077446146287, 0.12441759489087759, -0.040111691453583675, 0.16036520710924848], [0.363822560859335, 0.05372066305950214, 0.012215160032668038, 0.323531598627169, 0.07268818094431446, 0.008211934666165148, 0.1526607721375491, 0.41407019154207997, 0.11277224481965128, -0.07894500157265935, 0.019014933680396667, 0.13929917728373684, 0.38246295331591856, -0.07506284672025008, -0.12161081427064879, 0.17338195249825702, 0.17166158304505721, -0.062157920402499484, 0.38512579630002225, 0.26080918207175824, 0.03373299986153635, -0.026676153413926172, 0.4428239634426801, 0.24229211455085184, 0.0552792159047686, 0.030599901233186157, 0.15764900679970498, 0.35222516424992373, 0.4470884787293084, 0.3066811568797608, 1.1475637853145257, 0.16636855473954873, 0.08758828754043999, 0.44862469474908734, 0.16359093312202358, 0.4182274089262141, -0.00923723947398905, 0.47171281780365953, 0.4002654826606687, 0.016881742226494037, 0.24799412424931036, 0.1901959206118963, 0.3398028485687173, 0.44679442658600105, 0.3381524243516368, 1.2530298191493157, 0.18059309977291718, 0.2387943175643967, 0.4214238952749357, -0.04947607575134788, 0.0627265990452184, -0.0023260439791994436, 0.17170982424316297, -0.1079627056333412, -0.08932594693257065, -0.1208626705049054, 0.2522445568485739, 0.17912713950308254, -0.16599814535068078, 0.3947479614008041, 0.2687608172034163, 0.24208224124469854, 0.296537364149189, 0.10186702679168777], [-0.17411839319447409, -0.11091694439157389, 0.1766321256422527, 0.08523755654444809, 0.06025853753481418, -0.05820884827866669, -0.011872014141272343, -0.08229517379073024, 0.07652385119573532, 0.0843002912629954, 0.07722173193439438, -0.04038051333246043, -0.0949866002759171, -0.004054225779267812, 0.10962151692557867, -0.1208829066719848, -0.12992450426153146, -0.07902180261958366, -0.01140560139908751, 0.10739926867401163, 0.10430673392078585, 0.03156090465545863, -0.1368297924104144, 0.15184985874054985, -0.15600272200233484, -0.15744564364809344, 0.02302018408707672, 0.15079431527564222, -0.15172648103766487, -0.002556464879779442, 0.01895993046859283, -0.05706393400184198, -0.08827843467732616, -0.17302673884103306, 0.01209833592803496, 0.008987761889675929, -0.09934863339143533, -0.014751420070342086, 0.05746374674212751, 0.11684677428136671, 0.07752147490053782, -0.16113928652547865, 0.04948281662839048, -0.14919463222170343, -0.17279700646636698, -0.0021556442549619265, -0.125302362248411, -0.04704105590155165, -0.08223065269110973, -0.02167963453493199, -0.0017435163796845066, -0.09883001147276788, 0.07936781302204673, 0.04846693678575281, -0.15093199460512904, -0.01100889276959427, 0.010831645559196749, 0.17662887902433574, -0.07939700602953112, -0.076621990528112, -0.022724740371668474, 0.08228154038129523, -0.12413936194813023, -0.08496271343290794], [-0.16003851762403073, -0.1279427473945586, 0.1345906024054788, -0.038265119978065636, 0.08162649188422294, -0.10714046612052064, 0.08616527307792801, -0.024225768564942893, -0.04929858096909445, 0.13827128409561903, -0.10143505611051384, 0.07588182455538106, -0.1182904001597986, -0.02507155782938375, 0.01575321471792268, -0.04963423507887465, 0.07667637967998817, 0.03888718322081386, -0.10736458659715227, -0.0794099296782105, 0.0998737666312296, 0.025849708239426984, -0.0761056094937782, -0.03701884420067041, 0.005332178246776565, -0.16518951876772694, -0.09752432356134064, 0.081233252451002, -0.06641788666632031, -0.04658541855462172, -0.09443825219347128, 0.10847352348547755, -0.00479689887426224, 0.04505164807008561, 0.04337043741421754, -0.002539096650531805, -0.1620918258471533, -0.10772704575922576, 0.014848675636120238, 0.035587139814383904, 0.09870077796907738, 0.07523981919299341, 0.1737529082079678, -0.10753541894416728, 0.10381699664192282, 0.12265835518685138, -0.04229622911939287, 0.0779179310090076, -0.07639909533194628, -0.11046353446164643, 0.14542140039502646, -0.056568094534348884, -0.12570455911656134, 0.1418656701169916, -0.03379143931422099, 0.059562369120253394, 0.15094223725536446, -0.0071924547932997185, 2.7244817324568582e-05, 0.013255744191078587, -0.1637308710943007, -0.11861946558610173, 0.01543951257712468, -0.010871604021847864], [0.39580718647298374, 0.08941466520308508, -0.10102645164002143, 0.2192877656067965, 0.11789707339328231, 0.05089408095125552, -0.02725152551284146, 0.5606801507288739, -0.05366500541614316, -0.1466685594025576, -0.06923749148558114, 0.5287295239052316, 0.5012573798039655, -0.1538361866671571, 0.016261443177498863, 0.3568219199478059, 0.4797180071793249, -0.1548566263898763, 0.6437247099552739, 0.5777723123985534, 0.1564290335390143, 0.11390497729493732, 0.3337207290892721, 0.37935551529339806, -0.03931347825067727, 0.05768019475450449, 0.4542001719052722, 0.29852715156797527, 0.504052379737655, 0.6461575279745393, 1.6643243224452429, 0.47749779334277553, -0.04385454912965189, 0.4757748643418861, 0.5815320527804788, 0.592202846476201, 0.09209802873310599, 0.6102616838479797, 0.3313111191967527, -0.0334107501062763, 0.4011952447957239, 0.48014075385518007, 0.3488525912322863, 0.533430831913527, 0.3111406273890368, 1.8894427149224462, 0.2620423590341888, 0.5469438910528472, 0.6660513028160955, 0.020850937785956536, -0.049950529599331245, -0.12559850506324668, -0.121348653418009, -0.016083657542302062, 0.0057920181164952955, 0.1004328110114441, 0.24172089264223198, 0.5034604441250741, 0.0096538435628046, 0.4423529067301589, 0.6900614138777477, 0.3536997646912867, 0.22586861008394152, 0.04776226171763637], [-0.16173642796138119, -0.08992897494263787, -0.07346639317797403, 0.004308233646280609, 0.02384434217160467, -0.008555247027527524, -0.08004979997479526, -0.12861855395476515, 0.12493134543195614, 0.1541505946589706, 0.011926258349648777, -0.10259835612942603, 0.12019115523054279, -0.07991111202507417, -0.057069918537029724, -0.050650582891401175, -0.13975917568873658, 0.16125229976820518, -0.09710754774891954, 0.07172451363390153, 0.0802727412742392, -0.10957660746342203, 0.04457714126689562, -0.07063408662729873, 0.054978787380662544, -0.09964905565971273, 0.09095028738240701, 0.08990609487919007, 0.08952722369340385, -0.06326512517909985, 0.0005062075456693211, -0.10487637115821316, -0.11195338018028421, -0.1710991310336459, -0.0694407677264786, -0.007218077486480639, 0.0029900221506944658, 0.11256665031162619, -0.08906909704541567, 0.03530737629295614, -0.1134279604495825, 0.12171034914001228, 0.10395930260210966, -0.006130364818744729, -0.05599651299835362, 0.03492270391090137, -0.10364789607881192, 0.00919937843649977, -0.10132000573677706, -0.09880917130977272, 0.12868546920906773, 0.04109015211570585, 0.0173191948119627, -0.09008196013813646, -0.09484662120224412, -0.010816581144760806, 0.06431867692540494, 0.1680065408557842, 0.07195036669725212, -0.1584590684710866, -0.020155879943686523, -0.06255338137510155, 0.05311705023366885, -0.08656465275810349], [0.06055608016850225, -0.14315014981616558, 0.0067279346445758, -0.15990872260178848, 0.15213561174199133, 0.09967691230636651, -0.05440612282884817, 0.10128639133829466, 0.10095566910194989, 0.043458588440742074, -0.08311356194932684, -0.09285384022360609, 0.028416140624555056, 0.05365966650902637, 0.16009382772404682, -0.13057618327791382, -0.09286754431076398, 0.0992216269265579, -0.0034432543692554636, 0.12138640845461772, 0.15183564495222915, -0.04665990082110502, 0.027882926156793237, 0.12407988501404771, -0.039233369945915086, 0.035663518859548764, -0.1636150530550019, 0.041521095090402124, 0.09031419000803899, 0.019784020248653254, 0.10979017925631486, -0.17475528720476238, 0.041062511754357184, -0.07983512810789942, -0.14837814273440525, 0.12040989380959623, -0.0524650132520116, -0.062232927356600264, 0.15060263529802137, -0.13907827612152757, 0.03201088144955953, -0.1647781529245126, -0.006113199553010974, 0.03867202665721235, 0.09369864401024633, -0.045483265611860266, -0.0340089546318315, -0.06975188885373165, -0.15832875530951418, 0.1728725712357493, -0.15512894911028702, -0.13834617169755306, 0.1470780861459626, -0.016713754316207596, -0.11707227410266371, 0.050029152463203025, -0.14069692247281562, -0.13460400417959223, -0.005014252114028857, 0.08920325061642298, -0.07950923428408516, -0.14072055806562317, -0.09696636607654066, 0.1495322040367271], [0.0026332875886710683, -0.003052054203904586, 0.13281331846959013, 0.1347698635181647, 0.09263080142801164, -0.09179352220201123, -0.036783704034156456, 0.0411408716581082, -0.054031083013656805, -0.0013762764534575589, -0.03394227492923857, 0.1383482202453051, 0.01700726464106056, 0.0808692230594826, 0.1209710114419614, 0.14151024526944353, 0.15486573606239454, 0.08921071747558576, 0.17166845746041462, -0.14992352862112915, 0.1462130852072758, -0.08760133973083911, -9.447123167857785e-05, 0.12396311623611414, 0.01931702898973134, 0.05622936267790782, -0.02200132019343881, 0.05089701225620777, -0.1730131802687659, 0.11809910733810788, 0.1733372889351076, -0.11403043437815788, 0.053162167513849196, -0.07433141504389103, -0.09208813461693978, -0.16072336877958146, 0.13606778466093464, 0.0686814393144018, 0.055229807098889694, -0.02772605839997233, -0.15401893321945592, -0.05382615876286942, 0.13504128410501567, -0.09977665586310343, 0.13598329827194475, 0.03908101765800065, 0.15652233718960154, -0.0412267586774788, 0.03722000932038297, -0.06371387919813327, -0.03756798379602069, -0.054935970361358125, -0.07455418252413347, -0.03996587409324001, 0.01937027977290512, -0.06839227911969482, 0.03383227960724339, 0.1732851024053844, 0.10859198295372999, 0.05025740825834679, 0.14394128068870257, 0.1392645965872308, -0.12896936475488768, -0.12042549805043191], [-0.07905802011571433, -0.01586008840715694, -0.1132177501777159, -0.01592445310557733, 0.024312047154586264, -0.12191414659026029, 0.03126990169763316, -0.07126721187454439, 0.007411777488251531, -0.028896846871738102, -0.10583525210255505, -0.14033194941866667, -0.05309289045650181, -0.1356701322983606, 0.17121536090643838, 0.1005325182592903, 0.12780967828378484, -0.13886652593684928, 0.1640819827536256, 0.16283929459363664, -0.14248256482353208, -0.057255541007888475, 0.08330188834105176, 0.007494133513100187, 0.07787855074440284, 0.16855652106707905, 0.12612793308305606, 0.12020575442721212, -0.160216663550846, -0.14871632004897142, 0.08218656978099462, -0.0100113939127153, 0.16036065084589393, 0.022369758142251506, -0.1446601393068349, -0.06599198904088625, -0.027169279553732884, -0.05484660939388328, 0.03889808832387057, -0.07957705912620894, 0.0023977971541218057, 0.17287971551788098, 0.025419929452016182, -0.042162157388660276, -0.03486479626993991, -0.04993220071658758, 0.13091749454873172, 0.04366335404559063, 0.1345846415568985, 0.13673590451552473, -0.04854408261749396, -0.08310395975462978, 0.002900459026584229, 0.058412880186270166, 0.025537580528490506, 0.009165894375348288, -0.12845800543798913, -0.1432287481613334, -0.05868207601097436, 0.05041306560704992, 0.12708630481365588, -0.0514731025164705, 0.17294289818121836, -0.14164165726585964], [-0.06695541240352493, 0.03084440241355027, 0.00391533743326325, -0.08440653597018186, 0.008560744275594168, -0.15473472844409983, -0.12552299172751671, -0.17312405333416458, -0.06906650592589929, 0.04865863568827464, -0.08970547655039807, -0.012352277483873075, 0.08465975551156393, 0.044472041797997935, -0.09116533765470501, -0.046124707970142426, 0.10973317731542934, 0.1008256138467006, 0.03435063379986705, -0.14596811487058953, 0.04277763711490892, 0.04903497825328057, 0.013513933280072304, -0.16993478407591525, 0.07345157154094492, -0.1613617205455511, 0.1657998675824688, -0.011957332412805055, 0.09306438755549593, -0.03605672772886323, 0.05520266727679338, -0.014628663547763265, 0.07088609615045377, -0.10811668175373897, 0.1670274410075703, 0.0024381994290754994, 0.06168785263959306, -0.1056796220047322, -0.10731028933104843, 0.12197178261064792, -0.13804250329590856, 0.09380133199547389, 0.1706974011231356, -0.17606590236768446, 0.12896199171965936, -0.07256616088030934, -0.08209075244654052, 0.11149057482683503, 0.10632245572948537, 0.12580443766045282, 0.09471749481769928, -0.10751323763547926, 0.1142245748174884, 0.01965404022076675, 0.14896345499705574, -0.03436172681540195, 0.09694998742469366, 0.0514990341768925, 0.08645833809428363, 0.12247003243908852, -0.11286011667648613, -0.048837208468712756, -0.019094130593966002, -0.13374081589892872], [-0.11477593136899288, 0.03418361824598112, 0.1349389458700008, -0.1541406489316455, 0.09896521987594441, 0.1388955303680002, -0.10183732280145029, 0.05008405856404692, 0.10014232977671653, 0.07048882437746473, 0.16606898113754107, -0.10904352060905038, 0.04170482241041439, 0.03918977565611714, -0.02794272820772528, -0.11921142110394448, 0.1276474586528963, -0.13673767977505286, -0.1586560656673372, -0.06336457178896708, 0.05959209222127081, 0.15122008487133662, 0.16420188371117, -0.0313039937491718, 0.04928517750088257, 0.039338211295808334, 0.00321972836785565, 0.09448663785898978, -0.0927655358372948, 0.012886919337493233, -0.1758322334395308, 0.09337980547548669, 0.03335536743536879, -0.03194421274327984, 0.025439365405627135, 0.0695318136009428, -0.06264293098039359, -0.11739616126372139, 0.16940895805039297, 0.08636190791244218, 0.1132978889684166, 0.0077042571566271435, -0.11883706081080438, -0.022801737289101433, -0.13282719328646797, -0.018138449939950427, 0.015955087522442644, -0.11376208558922735, 0.15503566637707714, -0.16503619091307806, -0.1479079042359474, -0.09424288190679511, -0.045868155752621514, 0.17393617477142687, -0.07226013837740496, 0.13589974387831635, -0.010536987750880246, 0.08072330417856181, -0.06407411064225416, -0.11166918957476138, -0.09688793834970592, 0.10245825069234114, 0.09086012085278707, -0.041531532184157144], [0.1693371187126271, 0.14815598655844267, -0.04411006664464681, 0.15059691352080892, 0.134150466634518, 0.08432141958963221, -0.11050982094280373, 0.06594836458278006, -0.13054431386969334, -0.16934346472902495, 0.057346064112090867, -0.10414532386696117, -0.1641753375813989, 0.04198879183620702, 0.05986363579192522, 0.0007068389732057534, -0.10242174263593021, 0.07112947005930076, 0.014049958098294707, -0.1271059538182198, -0.16560198211338045, -0.043225258861915056, 0.08019741481862322, 0.03858284451981919, 0.012191388888700222, -0.012966833464584243, -0.13676631012939924, -0.06193791146818722, -0.05460100874907545, 0.055836397668988985, 0.13868150836603163, -0.06282743612264598, -0.03316394726822913, 0.03176784504283686, -0.10027577819553174, -0.1366502113102041, 0.12011535758723371, -0.06875510641229918, -0.07081949070468038, -0.004176165157878942, 0.12830523350545706, 0.1518851613781527, -0.02403087589980943, 0.0893915957427733, 0.17013554374188541, 0.05652186451520061, 0.12041990415083662, 0.08032362443090998, -0.13869077946210043, 0.05434302819840217, 0.06890703100227263, 0.10131366607315764, -0.06721929907544345, 0.02744825774632595, -0.040688317434686094, -0.11668757599895213, 0.08760643408951721, -0.09111394772916408, 0.06817621104843191, 0.13605786854652466, -0.06310733088387815, -0.07272149381852064, 0.0552957959245573, 0.13170303019051446], [0.44448876438508544, -0.01743575151533843, -0.09384886531200577, 0.05302559929209756, 0.11776216064660744, -0.08937251573647928, 0.090484127255861, 0.5613010370138644, 0.12075827020243593, -0.05981370463428065, -0.0047713267588887776, 0.5998375281763778, 0.5510983180157317, -0.12646807622974524, -0.1735139019171492, 0.3249042009991696, 0.6522000280169701, 0.12250745854789083, 0.6833053699751327, 0.6198565600711418, -0.08881203308043176, 0.07774333442517681, 0.44894722942595766, 0.34387899365904073, -0.03905855073761066, -0.036129027831375074, 0.4812998550048906, 0.4321602231993009, 0.6347259309939149, 0.4886418445510282, 1.5364586225287322, 0.4817129000246927, 0.13407821162435843, 0.4482544503194483, 0.5600072678532603, 0.5640879483744096, 0.10437846246950824, 0.5622806858936881, 0.3394578397167566, -0.16651325332023117, 0.29376483974725587, 0.7335641227157316, 0.27849901248157516, 0.5930133040371633, 0.6479324393178104, 1.6724350890214326, 0.3597542517038186, 0.571319459778128, 0.5810767708652899, -0.10139925531093157, -0.08121144279796585, -0.1576089850552896, -0.002986020055996186, 0.13507383779376375, 0.1692385115564701, -0.08559793784162095, 0.41644886545215987, 0.49756839718298307, 0.12004718167464297, 0.4872161118598991, 0.629692421938128, 0.6432934711654469, 0.41575302538072034, 0.16014419097419627], [0.3193963388758349, -0.16039156015649436, -0.010784587452222827, 0.15303086184746492, -0.027800538454978027, 0.1633835959518265, -0.14710319039658412, 0.3928763198021081, 0.034875125954482555, 0.16151021696637155, 0.016934995384557228, 0.393136880360953, 0.46397626777006923, -0.15840769212900538, 0.049959197156525054, 0.21691731069504563, 0.3632750714000213, 0.14481388294663355, 0.36480718789098604, 0.18308525312439664, -0.09516305721920175, 0.09529376244189294, 0.3091232848731477, 0.22558621430697365, -0.14886653623437837, -0.0904069856628601, 0.18625877228237306, 0.35560305281802357, 0.45075724645625687, 0.29696632469805656, 1.3164858200976528, 0.2851685283674586, -0.16893088805954518, 0.542782787173553, 0.4733923242233477, 0.36526854635692335, -0.038496613090580445, 0.31798874213040634, 0.40590679534918855, -0.1184613444856262, 0.3485429179967336, 0.3974759693200481, 0.23771254855860455, 0.4820490019173525, 0.34393239477054344, 1.553237070710609, 0.3798279740223109, 0.3597310995062493, 0.26815774207980253, -0.08960687050326559, 0.15462869392835307, 0.15979969420761006, 0.06198494382831918, -0.07613898897381105, -0.13163408623839962, 0.16548340256705904, 0.43983840939498936, 0.42503722187566656, 0.025536467143289266, 0.27622763579920545, 0.46304837430365603, 0.3544763577227907, 0.03955055679578406, -0.07986083862905766], [0.012548439488706375, 0.09001956385845658, -0.029016200076405596, -0.14195213819870556, -0.16956704361270103, 0.046230011527502224, -0.15020492999128088, -0.13998257240538411, 0.14741288455069615, 0.09362682232998173, -0.15002750426699502, -0.12986105729716255, 0.17331633533146826, 0.11552234900360256, 0.09527876580782194, 0.07390614793198971, -0.09881428519532216, -0.10012496507959397, -0.07511678256748035, -0.058104082569117796, 0.08175644734940954, -0.09653673671780433, -0.16125213889593, -0.16281382699053976, 0.09589507947604006, 0.0017906214720607438, -0.1605603520490228, 0.12673346615902006, -0.10829333682361407, 0.11458315262250326, 0.14588368324307935, 0.13909983734074535, 0.06418907038279556, -0.12157843510327564, 0.048086957635204625, 0.06425433563397157, -0.04033986954725219, 0.1460155656626357, -0.04201874263420213, 0.03182916370599573, -0.09599894784796714, -0.11688920777660747, -0.055323627102767975, 0.153564864855216, -0.053450362230702445, 0.022392130846934838, -0.11620025374070825, -0.042902487257763466, 0.15378696374588832, 0.025780025435126724, 0.13799320605267237, 0.15840289421932705, -0.09159566938166584, -0.09062779879277602, 0.08996282675415004, 0.029057159092935214, -0.060884817128343385, 0.004150439093662306, -0.04243455163008969, 0.07951199904161985, 0.06847357772207138, -0.03913843502240624, 0.14395742365940953, -0.07707987985119985], [0.11054791487603069, -0.10088947555873737, -0.09407604337319195, 0.1273961049149663, -0.0646197313257076, 0.008832953174152752, 0.14849578752052003, -0.06858010147871717, 0.12502475046630682, 0.005729791141193069, -0.14543427870078568, -0.11441062487248554, -0.10166276040489569, 0.03992971690704927, 0.1599339974433062, -0.029299585197721356, -0.024843159397881814, 0.09965483531474725, -0.08996745417872665, -0.1523959101109553, -0.06833418348751019, 0.04300944573146656, -0.09118719808901977, 0.15335999607341752, -0.021250353913848413, -0.16025602709251405, 0.1280162183360418, 0.023587641216328586, -0.15792723342984094, -0.14294900341022437, -0.08315180831326542, 0.04125950109352566, 0.04550463532167817, 0.06325481746308004, -0.008187161641622726, 0.12847570100479414, -0.025707421119686047, -0.07630869023468849, 0.12774566326730027, -0.022525621445317695, -0.1658049830848854, 0.0004830783469227107, -0.09463650108875742, 0.050987970074348105, -0.10759837505916446, -0.1271651407622508, -0.15144153061214444, 0.05257297653935289, 0.05324288876646502, -0.11199986657000317, -0.1479430174126571, -0.13926892965188065, 0.08183585730882811, 0.11913823629727519, -0.12306129122884679, -0.09250747492825936, -0.003445006458365374, -0.14866279086584688, -0.028057880232136928, 0.15043770241963886, 0.021132819344405418, -0.1370267163156289, -0.04052159203283248, 0.0895950684570376], [-0.04638576518252514, -0.08594239922735258, 0.05905902487426806, -0.10394004506151343, -0.1618045963229903, -0.06996888736254853, 0.01779803305955604, 0.0854577158095922, -0.17110224231260146, 0.06426998905126088, -0.05704508611798027, 0.04056100176239871, 0.2576541600698331, -0.018627683266136896, -0.09162868712483649, -0.00579427117092477, 0.18769759679620615, 0.0007391765594287871, 0.21039061577360682, 0.06981557789500607, 0.0930614932156144, -0.10625098248139492, 0.001409652327128354, 0.2517003279335108, 0.10328650556699313, -0.03547546157778492, 0.2240286056214695, 0.1391248521373211, 0.27412349240289713, 0.21339044795766074, 0.6590427123646956, -0.024524466060325337, 0.10478510611322253, -0.01728153857456409, 0.07713253703723315, 0.054631599205591685, 0.1027903928054911, 0.08291389138008955, 0.11365550547276233, -0.1207107927356175, 0.14776102679260775, 0.00016765607617286041, 0.24299555124856118, 0.3015009038814367, 0.1209091608197319, 0.7816187386073057, -0.014164163607707607, -0.012020707062979728, 0.13489680842899868, -0.10534320660550138, -0.00896647552575397, -0.004214188834348487, -0.02685026918273742, -0.09024732369102145, 0.16708106639112144, -0.1287979701616105, 0.16397329585128048, 0.2885375738068211, 0.06172947859721888, 0.08963925815760089, -0.01577113552989432, 0.08577359594542934, 0.16156069115406843, -0.13004033958472808], [-0.01214760148151711, 0.0642138307670888, 0.11804392008666395, 0.13069402136567268, 0.02088585927460492, 0.01396664269493067, 0.0966051727447882, -0.0914749490161915, 0.11579085960714389, 0.05440983418151854, 0.13980799472782943, 0.08320578604908573, -0.12773591351281924, 0.1466087857171108, -0.12197053867488211, 0.039766712634141055, 0.13757607391804036, 0.14494995003734204, -0.036001098328021786, 0.14891831638161926, -0.01887255008671466, 0.09036213794967744, 0.07270396666138802, 0.11719871992784327, -0.0297265102398788, 0.012613040611888476, -0.020361360027749038, 0.00879557544176182, -0.09866841993714366, -0.024112755782255985, 0.015595554656095944, -0.05881728350771108, 0.09644058799269636, -0.056485941885701385, 0.1267552019102788, 0.14749756220680518, -0.0020173110110601744, 0.1409830568454639, -0.10524889836174199, -0.11819143402888274, -0.02998147994067923, 0.02675378945175563, -0.058547630297474285, -0.021088012868866145, -0.10982445221971086, -0.13036259885340754, 0.04702056546833383, 0.11784280440005328, 0.09109690944452252, 0.15883135160393128, -0.03736480966754718, -0.15120370155029447, 0.12850236237842924, -0.06916579001528744, 0.10574217519118542, -0.16093138238531063, -0.07681933303261355, -0.013086308744130857, 0.10678807661218934, 0.0705363648876332, 0.06339066613710781, 0.06506481208037383, -0.13870745960254507, 0.09097313059093451], [0.7748195206578173, 0.08940181120349767, -0.15070046007750704, 0.4372066028262223, 0.12450052564930422, 0.013350712150917892, 0.038732850548796646, 0.7666637904520855, -0.11507117578174048, -0.14137690314130358, 0.06976733316197756, 0.6438603124554961, 0.5373215992587465, -0.13084783664127092, -0.10243108993267076, 0.7250049220726827, 0.8030422930024114, -0.11369327076162018, 0.9737204816660211, 0.5658205724224498, -0.014224932762261088, -0.1784587885177463, 0.7762413981201303, 0.7421998468345711, -0.13451152911175127, 0.04311465601214166, 0.7211067607397544, 0.5800182219054199, 0.9345740863738227, 0.684294549421716, 1.9356053270312379, 0.8211452925785775, 0.07640373645419499, 0.7877394915491581, 0.6653453813214997, 0.906237276824038, -0.017398161376041332, 0.6728389570347965, 0.8592441305640567, 0.05488191028695248, 0.4841305864700817, 0.9141665800575277, 0.44585087100463866, 0.6948729436088045, 0.6447160076643207, 2.38830643060668, 0.45813079959413633, 0.7514819826511913, 0.7264934196975256, 0.08078180986495573, -0.17663294407915703, -0.1337475097837476, -0.04948151277708554, 0.002157547179545464, -0.03376139069784484, -0.09632176713794652, 0.4716433818014711, 0.9605645074058168, -0.17413037487229335, 0.9310274281312153, 0.8524346484711479, 0.790117471015115, 0.4848085235501573, -0.14938385663217454], [0.05730159954043599, 0.1048036062597126, -0.17425574798774915, -0.11996506131866096, -0.015880317108117974, 0.10868128034299494, -0.028884911616750594, 0.1061275020161666, -0.05828047043688281, -0.07658792461864222, -0.0018733880070253839, -0.013382227269821804, 0.09503801085154044, -0.12345224565993225, 0.08046535800206614, -0.007751911256681705, -0.05413287403501687, 0.07483894877384545, -0.04384287481459074, -0.03553218513837748, -0.05390678448082387, 0.1360790508683202, 0.21696670999057519, 0.15241032826625514, -0.0857317838499546, 0.03349347699864145, 0.19698514524723318, 0.03173240114147265, -0.09681112532048596, 0.04152587494299, 0.6142037724190197, 0.03328676140731649, -0.1430923387837334, 0.12684958533207427, 0.2141358017972271, -0.03609452546826756, 0.044972830317293544, 0.07640342011341021, 0.16893226391723223, 0.16188780895219754, -0.07453038920478085, 0.19283716592168346, -0.11216758262835404, 0.0742951333921794, -0.045390741841377404, 0.6753135381270037, 0.1157477143848349, -0.07261680836248878, 0.1314312123497853, 0.04596123905151081, 0.017400077485550614, 0.006596594737099587, -0.003255032863161339, -0.17034895830198069, 0.03752763990627009, -0.09003883421283025, 0.22276483474574368, 0.1817249026190282, -0.15192041363004188, -0.08649778855806654, 0.10318891942360607, -0.11583222416663201, 0.14521052920110936, 0.09187277782968209], [0.0025552850364604085, 0.003611153495660019, -0.1323888221930487, -0.17562911320898805, -0.14584779354587696, 0.07527071198229032, 0.052352695313805875, 0.02851411073686319, 0.09925429569635855, -0.04359526243456269, -0.13354510646999804, -0.03746964456277141, -0.010599737031849271, -0.015748385362019945, 0.08380543656482378, -0.04249234516264841, 0.13464172759739737, 0.030465760815276854, -0.014871669989501873, -0.09104313613556125, 0.05984991058743727, -0.08406617206740157, 0.03293300416749215, 0.06724688994852396, -0.14760225804818483, 0.09800437721379421, -0.03267390721876384, -0.10388645404443343, -0.06522807239077627, 0.0019034131499059137, -0.1542856321890754, 0.13457991084854473, -0.062075419315737845, -0.010778090369485599, 0.11642765971700711, -0.10512689739391914, -0.12057217900770856, 0.1483663133517549, 0.093266219311858, 0.07341751539046334, -0.0796005096224496, -0.16761670006496426, 0.17043215583398333, 0.034006851743206695, 0.014601267824909087, 0.033892003992265024, 0.05281468757282906, 0.12263966025792325, 0.12324073339280164, 0.17668781058766744, -0.04608135563785698, -0.10468173649837037, -0.05854111217171194, -0.0051481869255200485, 0.06544946721369962, -0.11436547010801157, -0.1584184342520929, -0.04391516606061033, 0.0796937824379085, 0.12329124483755818, -0.14304611612297316, -0.17263502445211837, 0.11803226978277129, -0.05900033639729234], [0.09709592827377228, 0.17201313138310717, 0.10796327137407483, 0.2234827805994688, -0.11218705182869254, -0.13291461900613866, -0.005627012134208148, -0.07958233213180022, 0.09194199669381362, -0.04244183882777269, -0.16736531367114973, 0.2047326181869527, 0.08670106438908398, -0.0522310163798152, -0.031000622809100986, 0.09513992936153365, -0.05738359492118388, -0.06220845507991217, 0.1614100907948397, -0.0026710513360960727, 0.025351506536905242, -0.15664350137574376, -0.03049656632372703, 0.14641683307579545, -0.10349729751076495, -0.02464847101825333, -0.07321432719476542, 0.10680117945425432, 0.11080461825455618, 0.16828626937271945, 0.7673531273940126, -0.009019838386600532, 0.05058493156899782, 0.24289169992051368, -0.10210967489755512, -0.008714668827116804, -0.0074440983126717875, 0.21195857754292424, -0.02446461129860666, -0.13600081917087864, 0.21505381168661802, 0.2005820421154892, 0.20791309929083368, 0.22247144453066403, 0.19566152751596477, 0.8601522546301468, 0.10196112502710353, 0.17695581813015648, -0.05631433496295087, -0.060215340929759956, 0.171695441058391, 0.026568287680175662, -0.013957445609857344, -0.08721931337106281, -0.07296608481484086, -0.07937702768719627, 0.21719731722460334, 0.04604492861227707, 0.06965705289096054, 0.21381329298105656, 0.010965094446754056, -0.10343569884717432, 0.15818332054684536, 0.17198521675723735], [0.5514345440930253, -0.006055769239180948, -0.04237293207372958, 0.16588364592076846, -0.12321938913048533, -0.10390069729243338, 0.11683689600819358, 0.3431788462257907, -0.11451116085058491, -0.13501170335188478, 0.116501095936382, 0.7143897033756488, 0.6663050389119245, -0.10837434788890979, -0.006673392053637706, 0.373884322384797, 0.583873332527864, 0.08345841880841148, 0.7389513548629938, 0.671577257360034, 0.05564468477542084, -0.0564039437903882, 0.4186719063783582, 0.4367568000993251, -0.13897031360687317, 0.016286416429337716, 0.6550644071025249, 0.29744831522906895, 0.662571332230725, 0.7442182416022274, 1.8343010788901069, 0.6808120835710951, 0.02538707541921839, 0.7635716360309077, 0.5189210553287309, 0.5523189909064217, 0.1501977236419151, 0.4994642444998533, 0.6048394685971652, -0.0053593847657991455, 0.5267063212580589, 0.8080048159636419, 0.38244135524535433, 0.6920585297915232, 0.4279199674501883, 2.0404346641161433, 0.4790461432476569, 0.5498407196572903, 0.7633035450490551, -0.014794601203834662, 0.06870682730761629, 0.10924037877836698, 0.17421662817954722, 0.019346762548934728, 0.09499754216593578, 0.05045845668110652, 0.38076266288518285, 0.643540126379835, 0.103650844353077, 0.5829133448284141, 0.7652062851643957, 0.4236657684048701, 0.30813197344701243, 0.043391582504995], [-0.1533805393691871, 0.02367042770483882, 0.004646706943284895, -0.11885135146980576, -0.10727063783774682, -0.10780432223985367, -0.13660447194138314, 0.0004679421467721941, -0.07755882340780469, 0.12424819381272637, -0.027091743176726246, -0.06991126240941765, -0.006400612330287983, 0.04667331379990328, 0.17583013067006945, -0.09649912532818135, 0.07258627418743284, -0.09457282692940075, -0.1278985597412295, -0.06104679569307866, -0.05239622787165441, -0.136042364886279, 0.16668289785756024, 0.09070094066868402, -0.04314147667419352, 0.06607820892474146, 0.10468508045841539, -0.052737451410861606, 0.10058891957121331, 0.08654125313972798, -0.07098871694386279, 0.1472817970854407, -0.07917897388442756, -0.040084684256712695, -0.08410212472819191, 0.08436993947531692, -0.05719800048600687, 0.17138547833055084, 0.03639346725814974, -0.1656532035348932, -0.16897078111540165, 0.08292065475955816, 0.0335760649823638, 0.03370939908619736, -0.10616777367520581, 0.016752058634350475, -0.05067342477303736, -0.10205994778532389, -0.07399095886875974, 0.10782423387662846, -0.13093742774213604, -0.08584422038819538, -0.1378815404306482, -0.12293267546388521, 0.133678196604291, 0.13957992422063462, -0.003869131609462661, -0.06719160169886722, 0.04536593038460369, 0.07350956541836486, -0.14728130316437987, 0.16100822667226883, 0.07567896927317493, -0.033679537639369816], [0.06325593858675191, -0.04455101388686411, 0.04063767317355654, -0.08027662628842243, -0.17389273038436512, -0.1345520742694915, 0.0774274296297883, -0.03327097014827046, -0.008066837982127095, -0.10472160906032092, 0.004839680172328803, -0.08833091168543472, 0.15170839990836418, 0.04054206300450891, -0.07661516066656927, 0.11354698282345052, -0.049283707902382096, 0.1254334841665408, 0.07815279702536906, 0.03402531498311276, 0.0762055987447802, 0.04645329968022194, -0.08672959451099857, 0.14527641229150642, -0.11883513844411098, 0.16187085988675295, -0.10928326208575344, -0.08225506109338088, 0.13909485543399233, -0.10539254468446689, 0.11657478886701886, -0.023725910995156085, -0.08443115974574895, 0.10781001562883177, -0.07190517671210091, -0.06386554616895496, -0.09339110151426042, 0.12114834262007038, 0.07225852164021618, 0.03366107491767903, -0.052742694027902076, -0.1091553650578657, 0.14517609875035978, 0.06698316900360654, -0.07106112358896388, -0.03111710435993073, 0.029693016563063446, 0.00437643252420461, 0.08778873986567773, -0.07153140698681326, 0.14142313230316242, 0.10977912227668882, -0.16375203298206387, -0.019003080908240294, -0.11888425051469279, 0.048012591930808146, 0.056330497982868294, -0.1459506062379543, -0.04924063012391161, 0.0233832656543512, 0.06008475897033222, -0.1396256150093051, 0.05178616890298551, 0.06675282176878108], [0.3177984627810729, 0.04432015022449376, -0.046791349940638854, 0.13061610764819315, -0.024124596207183033, -0.12839485286037758, 0.09254482861323632, 0.2143110912736796, -0.12586776990421875, -0.05612539793162846, -0.020832180049817905, 0.36219055243403525, 0.3194485878004943, 0.15509378922231734, 0.14766007754219687, 0.2409853806504298, 0.05626597629926581, -0.03539713866163813, 0.1744018812075333, 0.1471164663151932, -0.031209056139041482, -0.033891396074457444, 0.39878944409756417, 0.3364811355268927, 0.051249999065522786, 0.07209965261241397, 0.2847397055416257, 0.3058929086543069, 0.39128075247746424, 0.19217907146664148, 1.0467610814500632, 0.3401520079514953, -0.04194263341404694, 0.3998041898505436, 0.2701595099454565, 0.08984151007270683, 0.041364722381334235, 0.1699133346906171, 0.36650644465067145, -0.06902653203117855, 0.09917686388736383, 0.10312918289769851, 0.2266407251871032, 0.09504359756792707, 0.13756258943024735, 1.107186037258593, 0.10312604414310067, 0.3580989690831517, 0.14850354919515346, -0.1226643892409318, 0.09079812378722832, -0.04757506542178927, -0.15638516330885863, -0.02534357033170408, -0.14753456040513926, -0.0411034219411959, 0.33604510349185585, 0.34616556697149786, -0.015864629958185644, 0.3270238058694524, 0.11528679783289997, 0.2153523804775952, 0.051691928793397075, -0.0015889632621180483], [0.4645581119830902, -0.11126500969676388, 0.1757139756635225, 0.29336021835432086, 0.06942508022921386, -0.1565584220816808, -0.11306247747784165, 0.5720145635981184, 0.1490583767509198, -0.04678114041334222, 0.06017523964863686, 0.28982177184390984, 0.5724834443046958, -0.10992659084802499, -0.12156105969852171, 0.3484173212122131, 0.48104181628429926, -0.17524327447750743, 0.5338657114817447, 0.36493928621774635, 0.13855121949853133, -0.1419489972107134, 0.467423598445363, 0.35317327535489546, -0.16327348922639218, -0.012368720044469617, 0.5227311231014959, 0.17560662619271067, 0.5039199118975248, 0.6542836936298029, 1.4827902155490724, 0.4624503397824144, -0.12498722418266414, 0.3539126112278626, 0.2544228111580021, 0.4477100913271492, -0.10212929414751944, 0.6113257903467781, 0.36265048650268544, -0.09480391712740793, 0.3947538285701541, 0.5520086264338, 0.4641635221161932, 0.6180191272671134, 0.45321388706947213, 1.8105683629822735, 0.2188547687219704, 0.3121086965409025, 0.6362687419943005, -0.14532660417595958, -0.06749184274428967, 0.0034518238123028566, -0.11591084013672233, -0.032036641660636724, 0.03772418067259456, -0.03292107740757272, 0.21729237557213793, 0.5276520441624006, -0.17752931242756273, 0.5101125427758408, 0.4302495394273362, 0.40115484012407504, 0.3503267760342122, -0.08060725953032863], [-0.07321532449589423, 0.11660443613348684, -0.10883108003012738, 0.16647237700744486, -0.104996085383914, 0.08038399340461458, -0.06702048962802523, 0.05568716105284929, 0.06598863681353806, -0.1300061497849078, 0.02294090379552549, 0.13027439046366293, 0.030648422187109198, -0.08557512867055657, -0.030643813023292138, 0.09757872422594685, -0.15667456973846805, -0.043520530308351596, 0.13412683143114676, -0.10150794437898242, 0.01761766750795088, -0.1586581453975405, 0.034306693964931995, 0.09604494825818058, -0.03802048956233864, 0.009217678475070656, -0.03883240634055668, 0.12386183290796585, -0.14271665508949197, 0.0740921226047305, -0.135376166652956, -0.025189574230941453, 0.13408192373315583, -0.12890200471023924, -0.11525025118007948, 0.16817808028308465, 0.15542733757778301, 0.15894522150235238, 0.13634910610424825, -0.10307426649275302, -0.025140847616100304, -0.15778718794345983, 0.17299015975252427, 0.05197706232911764, -0.12792451439676505, -0.10976079174532646, -0.15463843102945546, -0.10755102014678684, -0.16759587669592058, -0.05488169563991449, 0.164299475359286, 0.14848943967275433, -0.01190151668415998, 0.06547180171462189, -0.10797491667562233, -0.025314686851840823, -0.10771619313322268, -0.08537446899987008, 0.07776770256042595, -0.17268542730941377, -0.09466721007103408, -0.038451895873574865, -0.1240917494037398, -0.11738848165902761], [0.5242385371861094, -0.0019459764646790987, -0.029797568825155746, 0.34526643805794377, 0.15767960998992506, -0.13291642670598205, 0.030922075318933765, 0.36610559970677525, -0.10174160764751412, -0.1488623798170647, 0.11619022380997787, 0.2578774471812051, 0.34676429236378437, 0.06852005058849939, -0.13526151958369748, 0.4122079910329659, 0.29261304643165853, -0.1543237191675362, 0.44371036116347007, 0.307291834897483, 0.1644177484362578, -0.010962892244219088, 0.3975523369116779, 0.537782765848192, -0.12362117738112965, -0.06907575487451595, 0.29057423759917766, 0.24979958962283472, 0.46014316526814303, 0.4448076906829507, 1.4547364209759555, 0.3454909051161644, -0.15664479072615625, 0.5986508141470546, 0.49669229190557496, 0.28872236449084443, 0.1046062099116856, 0.4483682876116897, 0.3975022888075168, 0.10035855639448621, 0.3128398916328038, 0.6084834139995121, 0.4593312787997572, 0.6003019647785213, 0.33263200855128006, 1.4462333282044266, 0.3958788055548873, 0.4162707987696722, 0.518966457001518, -0.01030417695550509, -0.10888948786242517, -0.049876663239428604, 0.02620922802544659, 0.05084752819148411, 0.008080755325491601, 0.06524383197332714, 0.23900849640975982, 0.4869468034804788, 0.1617304374408962, 0.4513332992139111, 0.3711039238090227, 0.2816263758216483, 0.28236433512034564, 0.09208498420018332], [-0.04870000073580075, -0.11160774282850716, 0.12079529395340574, -0.1400370377554772, 0.05204546008997557, -0.132352185886789, -0.04677797514282872, 0.17566891001982646, 0.09707258279350253, 0.08900593696753892, 0.0680687928054832, -0.1469643157796786, -0.13087229600224592, -0.08708861116957939, -0.11371790415270493, -0.095191922532848, -0.15182988347776136, 0.1546344339590863, 0.07584247319444645, -0.04434012985123137, -0.08982153924073025, -0.15637133136077971, 0.12429522943790802, 0.0066156851697593, 0.1065884560782008, -0.0871151483052891, 0.09574211148172176, 0.027088240944939224, 0.11005119637219965, 0.10950570970403553, 0.09333702659890056, -0.0036387718780685196, 0.055210578924004966, -0.1552673521677237, -0.07549716628813986, 0.13070804893369478, -0.019210129134347137, -0.15273005203922718, -0.09123763299774192, 0.0994027761774389, 0.11384806171464648, -0.004927192355906412, -0.03186657578905294, 0.16037705140784134, -0.12079835971303203, -0.14232125815229635, -0.0506263569221157, 0.11903261774426657, -0.049258170479542146, 0.04957615867466278, 0.11745073912825457, 0.1299922675248095, -0.11452374309700597, -0.056771253731547136, 0.15690177213965642, 0.0280005897532008, 0.11460441210842712, 0.05123708127589294, 0.00292830948140152, 0.0730614895729205, 0.12443945770750173, 0.14843814405595743, 0.10375225292893389, -0.09568432456629747], [-0.16224717084971751, -0.15657405183165313, 0.07648378422021221, 0.11690275209156384, -0.11618483307593587, 0.06396744017225642, -0.025791653729366232, -0.11046741014242929, 0.02679957555519849, -0.08032553015393444, 0.13697484179836303, 0.1304907568244749, 0.04099468190801753, 0.07336802658731748, -0.06700340248769852, 0.08432406949819457, 0.03593996235302685, 0.01829103472079366, 0.008619838698540883, -0.15921267569674416, 0.009263649608034358, -0.1669804153314424, -0.0382661683194378, 0.03738793066844559, -0.14830104288524493, -0.1197675958557996, -0.015036737231624048, -0.14397507002837756, 0.13118811920601844, 0.03207169101620802, -0.1118045566375433, 0.06046599612239151, 0.067118272807531, -0.03100967597931814, -0.09985558299372709, -0.13265457135956243, -0.07822365322177577, 0.0055835887881215684, -0.07409143818743791, 0.11197710640721523, 0.14972697813675215, -0.06887637984102242, 0.1393657789707217, 0.010100323102728681, -0.10617835551722513, -0.0040600598095467955, -0.041040742766259714, 0.04947175409009111, -0.09648977718170401, 0.07577860007124662, 0.036334033725380216, 0.1485885874370306, -0.10412848432103707, -0.1539879739384794, -0.12441298725518286, -0.16136261448712844, 0.11631324641230004, 0.01668650867253879, -0.053801693797975295, -0.04150014214289302, -0.05862717976784601, 0.031355614342335136, 0.15321008158976449, 0.14021658086968122], [0.470487016544198, 0.05472682390087363, -0.11341575432284091, 0.2322620929743727, -0.09723142436702713, 0.014447851357285822, -0.14756938728251942, 0.5347461220710266, 0.06524718955917183, 0.011580821056371926, 0.1378614205264592, 0.39846635002631847, 0.5027059456304861, 0.05765343697412151, 0.17589007413792254, 0.580352608778538, 0.5168247205045406, 0.16538567546659402, 0.6409192292375208, 0.5984180754133566, -0.0938895106860678, 0.15855427413784703, 0.48503247240069447, 0.5881533660050835, 0.02755838456033763, -0.052199387823637054, 0.5701552829013321, 0.31155109611604725, 0.5908771201262151, 0.6974868918624539, 1.6086188699007422, 0.6672949212781245, -0.010944000021015171, 0.7369126121630023, 0.48111571115352436, 0.7865364313859231, 0.0030659593494508086, 0.4669161052616341, 0.5420569811783229, -0.11288106450997284, 0.48877180568571055, 0.7490535738457846, 0.34955963194089035, 0.6053121160925292, 0.5182652906421532, 1.8419821029567893, 0.5592731278872589, 0.45154776459331125, 0.4899347634126633, 0.1312900652700091, -0.011624159156307184, 0.1384167028244759, -0.14124764645322835, -0.05284460557507044, -0.07742297129638351, 0.14230264201171525, 0.38311782528913185, 0.664162555604906, -0.026990243402633347, 0.6119494597991046, 0.6712025768993846, 0.6568335086037451, 0.16518844244842054, 0.008872718129439627], [-0.0914832425103264, 0.05822503911936635, -0.007400781801249284, 0.11188376454782033, 0.10865623106069558, -0.13888291427176952, 0.10727094757720608, -0.06995520678540533, -0.11875113581492269, -0.06629621294653634, -0.04404487987155087, -0.14385826520887465, -0.10073188455638184, -0.006133006585664125, 0.040571680643844255, 0.15200278249229426, 0.08075391888419296, 0.02650165851491787, -0.1363001260295525, 0.06120410542223727, -0.16288000126141783, 0.10507644186167572, -0.07684248125413344, -0.010892608261301394, 0.11087007745193009, -0.11865055303082636, 0.021530605080856722, -0.041495776208115044, -0.07149914588048369, -0.07435776546799348, -0.06414077378978218, -0.10637752469796354, 0.04814756955666383, -0.01551253060065732, 0.16239379459097603, 0.14569333573553517, 0.05104279054245092, 0.17146285958835794, -0.1030648187862468, 0.11011370652789224, -0.1367196237024982, 0.00945476184362924, -0.09438609499057045, -0.05220355584013644, -0.025567201645968696, -0.09068110772494925, 0.10387807590520538, -0.04056209630693547, 0.16513281644261846, 0.14286448562981538, -0.11962221837919865, -0.14788006988368535, -0.147506233378878, 0.0807533621348583, 0.05762911460860015, -0.08122784340494481, 0.03375085317681996, -0.03926611242305929, -0.03791836500013493, -0.026852394024760824, 0.14609134183778583, -0.016389131457929623, 0.14172737461873205, 0.1559191934913999], [0.08362463732551861, 0.15309995022194667, 0.16146939352738068, 0.1027467749172161, 0.14031545426087183, 0.15809112715831333, 0.04079788266577158, -0.09018539691707705, -0.1239940243067366, -0.05701709724718343, -0.035251805150810306, -0.10831459125745052, 0.08973075740292624, -0.14497571960168543, 0.023916249276071222, 0.1972827557613702, -0.06381915424535126, 0.07973022017118334, 0.13374843946337492, 0.08846285486908981, 0.08717893505277378, -0.07782446905719895, -0.06967769057164888, 0.0002431110528846119, -0.06422393909529216, -0.07420410569425821, 0.0015172860866979414, -0.045069816145183655, -0.04879468731738347, 0.1559360288060239, 0.3389807739366289, -0.03189205468220639, -0.15464527705084632, 0.21793280419278224, 0.04053496263497863, -0.01363630603387854, -0.017525312298042495, 0.19855327194705666, -0.046105178081005366, -0.049680495372903324, 0.051873942627869485, 0.1279455598490236, 0.12580799243718058, -0.06765582696078881, 0.08038806022057501, 0.43303491845134295, -0.05080735887032331, 0.06491696863618979, 0.09516127185716441, -0.012181306847118045, 0.1300475226982071, 0.06640861569516876, 0.13764166892007998, -0.11826712003794584, -0.16990613657478787, 0.11024290745971269, 0.10478325911802039, 0.2045673666257853, -0.034875919508409195, 0.22052073087011695, 0.008915744656009892, 0.05423405603866231, -0.07964805884065496, 0.13517868333818697], [-0.03632752147692252, -0.018094754478365793, -0.08010722853281109, -0.1181286833104777, -0.018339949865339215, -0.07367436321102186, 0.03864418106562107, -0.09925375390686823, 0.10307313436156354, 0.03720232480114005, 0.11454982560217539, 0.16934756966208991, -0.04124155513114917, -0.15473062154891717, -0.15492237292855784, -0.15199318944630869, -0.17338728491950187, -0.04976248917906645, 0.04024462091782523, 0.1772596097072926, 0.1226959762289042, -0.010900105648229417, 0.08389742266958958, -0.00908500043744895, 0.06894352292572173, 0.10241305455290237, -0.0493287497921486, 0.09879729624396562, -0.13371579207317497, 0.059854190406572, 0.07800834639890696, -0.0696354154522875, 