{"state_size": 5, "hidden_layers": [128, 64, 32], "action_size": 100, "weights": [[[0.047391202676159296, -0.011799663542915492, -0.08254577975256869, -0.09843364335391139, -0.007297158979235777, 0.15563795494811336, 0.11434315798001823, -0.008783291795328685, 0.0045660205961330445, 0.03767125292269504, -0.030519011599720522, -0.1338298538111098, -0.1820048834447352, 0.09334078975807657, 0.029557576202596466, 0.02316070814836546, -0.19506869589738704, -0.07927866712810025, -0.08504902849197271, -0.09708486218542314, -0.02824797352684639, 0.0697939694485949, 0.1631230642680751, 0.025815239358861014, -0.18927387886981736, -0.16117426780348937, -0.1338974467806031, -0.12061670639967981, 0.05764495047171697, -0.0549904923996927, -0.10700734118031084, 0.062356669762091414, 0.03478305455727499, -0.0827953576699128, -0.033692975905052894, 0.09862030700440699, -0.04800409418694124, 0.1312622878207747, 0.15032128632355923, 0.019925256543848045, 0.15471676979107102, 0.16943356082890063, 0.10693246421294898, 0.16331566556784985, -0.20992665722460285, 0.09669931425653187, 0.07339304876628128, -0.045103210916986186, -0.1199212289795892, -0.02740506991990907, 0.10417345390933022, -0.18726402536188788, 0.061309769316124044, 0.017427761603975533, -0.01951811528027184, -0.10800251279953393, -0.1786705170841408, 0.14878620963000588, 0.061988057265682135, -0.005970120853860944, -0.1670189760937682, 0.03443238639178068, 0.05533909386199577, 0.12243997315896862, 0.08432877641454133, 0.04677694100897524, 0.10981087611768296, -0.07978679486090377, -0.03786504092015411, -0.056684055626118134, -0.14145695653233117, 0.06073410532791159, 0.02291738781234513, 0.09518129541070758, 0.04235410794225338, 0.10040545482544865, -0.20753385012924877, 0.16230921848268454, 0.11979448706370985, -0.1658342182810239, -0.036395569973352984, 0.17034016406965827, 0.12963912259642757, -0.0649976428344496, -0.14371472472495153, 0.1514191696271968, -0.050108689184942795, -0.11593427725888125, -0.05293771174000184, -0.14165094529911093, -0.00407872472824606, -0.05205169476556254, 0.09841181279402707, -0.07083759952787164, 0.08753148828712062, -0.07098023262011294, -0.01670592236668697, 0.20675483230197914, 0.06562610620061245, 0.1044638305570714, 0.17093284162764363, 0.03993556433151507, 0.1211315483538966, -0.06597038313330367, -0.023618386808965917, 0.06788038130587679, 0.10743068474715632, -0.015729032824751948, 0.10317702883401862, 0.10442011685271749, -0.1652140325997643, -0.022445604962820526, 0.09446822492748655, -0.08574223670531543, 0.1498202234592019, -0.18033723307598545, -0.14892034316006514, 0.004029049396220369, -0.12129352664188223, -0.06228587867361124, 0.10327707508540784, 0.1604631235555725, -0.09822182783204637, -0.0471575997529626, 0.09563961475284057, -0.09764707416924102, 0.011732673817996309, -0.18562048167569736], [0.1260758545500103, -0.01204299640040832, 0.03934100699553244, 0.17889183055472827, -0.19407778667260311, -0.16251942387218363, -0.05381937511957516, 0.20907714142999154, 0.20808924957039945, -0.12689701908466844, -0.2052143932345829, -0.09543163254825152, 0.14882954250465477, 0.10936578312860262, -0.16481477002767497, 0.07876828229578889, -0.05666488538029157, 0.11699461177847717, -0.06281985317510247, -0.20371944482834636, -0.1534701990367921, -0.1601737310809703, -0.09506723471557803, 0.17043539789417114, -0.11583763138747837, 0.04881710740888049, 0.005655846506368772, 0.19915692585650785, 0.12298969038231557, 0.14999976388842343, -0.0475431164493049, 0.07580497694538547, -0.08619585843293985, 0.06391333780129446, 0.0500349338249638, -0.17592809925756261, 0.18491552567104744, -0.1322805573013906, -0.19421506527998358, -0.035766016181561784, 0.179064810166589, -0.11765013546867018, -0.06161163290669222, 0.20353643462739193, 0.04492513939882073, -0.01839230369316725, -0.07798594951142696, 0.19370978566803487, 0.008264871194165913, -0.07320237248887498, 0.14744313660003566, 0.18511399571611523, 0.10669191383602881, 0.188054989476292, 0.015258258897943305, -0.024795685617370077, 0.052484701929144756, 0.07221082115111807, -0.07128760592950611, -0.08653392488406633, -0.05590784010704408, -0.19765581268934057, 0.16177842898367745, 0.0480393450949441, -0.21045059830028817, -0.04640567806914036, 0.01260626504975582, 0.025555534748182524, -0.17512645038664928, 0.1478520909996379, -0.15413136441175185, 0.19392559274180585, -0.018693897020905202, 0.14551644774535155, -0.10232747269394812, 0.08336152606072668, 0.10408292275164349, -0.1607860185356549, -0.20150172581799936, 0.14735044142314577, 0.05559410732035574, 0.09090999932855974, -0.11655835577693542, -0.13987643561056956, -0.17707488098404306, -0.13175334253824372, 0.15444334806604357, -0.11337253174468244, 0.16032480783729344, -0.20853066868585038, 0.18841095736276936, -0.17549459085548832, -0.12975360735409064, 0.01847858524929541, 0.018663214100938214, -0.027655069086111678, -0.007948743471444003, 0.15121302384430527, -0.13103988848990766, 0.006958922478594309, -0.021024211344531977, -0.19132961405549725, 0.0746442128246369, 0.07792478091156682, 0.16344699824468015, -0.14754098824531384, -0.15644810073760546, 0.16193032104177385, 0.0996874183012751, -0.07190492233231675, -0.1465376916365813, 0.17247427681396274, 0.15033963742471348, 0.11687921168254686, -0.15712973741321162, -0.16007105105389904, 0.17673933510869536, -0.14684420704891082, -0.15144666553447814, -0.1379270956937548, -0.21047685539849473, 0.1695062254503227, -0.19030478891164704, 0.07866171827780515, 0.20835744579512197, 0.05511662664816533, 0.1494478164176428, -0.18392805109598107], [-0.03274280608000767, 0.03179327890559741, 0.19220698569617953, 0.15788249074216298, 0.21077443799096912, -0.1556627119191782, 0.023340366075295937, 0.0493397062341892, -0.12609821655824352, -0.017715336395358588, -0.21216047580313108, -0.15892906245246047, -0.1544654701332309, -0.18228888870264276, -0.053150457611003156, -0.019360299321303898, -0.04446017430332599, -0.09087407170071977, -0.08464009569165556, -0.07805794937306268, -0.04625488391934577, 0.021423296962403936, -0.13279086537303625, 0.12955021930852287, -0.18745065863879892, 0.20109831715372106, -0.1767056673602145, -0.14533658959393042, -0.030873013110991908, 0.1902995860571223, 0.06129089409098053, 0.0970405418904625, 0.11611726921240577, -0.1863814866764836, -0.11448160666659975, -0.12351070728864917, -0.031149754133019264, 0.20851427987250562, -0.14059565556097425, -0.13632154940549773, -0.10416034229351415, 0.02352150430205497, 0.035049412470615, 0.09849454510369525, -0.13990335200806475, -0.04674250456612723, 0.14015356149714034, -0.06496421110695925, -0.18835254056123374, 0.012615233130262304, -0.0545708533615738, 0.13383183939190432, -0.09334206718552167, 0.1656264694811435, -0.14684313353303477, -0.022172584006333793, 0.05899885197000179, 0.03860726279856228, 0.08849814857261243, -0.10586361767848493, 0.06259868503432992, 0.12291596992556887, 0.01803104884784669, 0.10124272244124356, -0.17334840547821956, -0.0221116243579974, -0.1348541430714856, 0.1349148251359028, 0.1410363303455231, 0.11360715421644967, 0.03669046498537483, -0.03611369258723195, -0.07469610277254647, -0.17059000418382197, -0.12134775306481835, -0.0768881507626123, 0.11122453250022694, 0.011585312873235306, -0.08297360235283902, -0.1776583553505412, 0.06529664064770468, 0.18564435262680323, -0.0545255231743503, 0.09950468556078378, 0.13457721571388517, 0.049947468665223704, 0.20340262699783648, -0.02276974303347093, 0.15060446897128182, -0.12339362366555102, 0.20796348634671397, 0.175697073889455, -0.20351796927861404, -0.018751085141079094, -0.012000348567213465, 0.17359516781454135, 0.1336762328996837, 0.015458768299956531, 0.17547891487347103, -0.20248479180953421, -0.05941375362808715, 0.0029215415966269104, -0.15865708512517446, 0.06831359529313025, 0.09189794914520183, 0.025084327482668926, 0.11431387679287558, -0.034354433709872866, -0.04399802115667604, 0.1426502097118374, -0.13372318827370439, -0.17454406414060877, 0.061634651039430215, 0.17230140242209754, -0.15003518170575225, -0.04139714857576937, -0.017286175891254585, 0.03840500271717742, -0.03545995212855669, -0.12479874738639438, -0.1913785327583961, -0.028368289563084972, -0.04424056321707093, -0.017392629677980095, 0.06172159952487752, -0.03742846906383118, -0.10429959837803673, -0.03518468700007413], [-0.04002733205729108, 0.043345534409531844, -0.13809511911974806, 0.057981082922543434, -0.07327394653756332, -0.03726318220845526, -0.18699025032604902, 0.11642309275498387, -0.05810659247823057, -0.005001797011884749, 0.18986140358083334, 0.10517014624127319, 0.1651691872744702, 0.19109754686839572, 0.05996422175694582, -0.1770102003877726, -0.12002089541449444, 0.05933714788571223, -0.1861838438642685, -0.18159081342257533, -0.18158872441174007, 0.2077331319935946, -0.06324162337718578, 0.15213366144209, -0.0774773866617923, 0.09729399317571677, 0.037409329100647926, 0.07377989720846523, -0.1630840364047999, -0.12037034091521777, -0.042080013738343615, 0.14941695515052172, 0.0578126787533865, 0.20496695989267835, -0.11875500633265479, -0.013451784892630181, 0.0195275937903977, -0.0947882223472916, -0.015737348803303325, 0.07924166000741953, -0.08306562861250935, -0.03944253155626208, -0.11581532889615181, 0.0008132851270975757, 0.16391049670027238, 0.018435855084590017, -0.017114006982234788, -0.06672311355161002, -0.10544881148997062, -0.16666075636966537, 0.07794335229120106, 0.057899767355145605, 0.004638158918718036, 0.20358541842191605, 0.1812466063370477, -0.13290069257012085, 0.07342799510677314, -0.07836619449999997, 0.09390399497745808, 0.1628350173007426, -0.041211896556897956, -0.12316745774061381, 0.12901289226844148, -0.00045954329766311494, 0.1318587085615646, -0.15814078813381394, 0.12780299276325097, -0.16756040676191417, -0.17550260345407062, 0.16018131608464725, 0.061385514900681705, -0.18954282843199088, 0.1051925211319988, -0.055482597637479154, 0.14352587350129642, -0.048718653154749, 0.1522325718672689, 0.056040904222367745, -0.09491808852421241, -0.17712323146644496, -0.0869810676335669, -0.029636090269519005, -0.0467114763736012, 0.20153465450979288, -0.07340960611354419, 0.00912366906759672, -0.14012254397744534, -0.026546425900971587, -0.18316049258227163, -0.013733030875794139, -0.04162178544236988, 0.10372659677307927, 0.08560827504668823, 0.05753745031435378, -0.1607171195078737, -0.16928983681804438, -0.1275212435898355, -0.04395197135723356, 0.05844568497312697, -0.172528956265147, 0.14044104907763857, 0.05505616666435042, 0.18933657785983346, 0.19783324787613876, 0.0029446197696408475, -0.012307133983544527, 0.12346776818870062, 0.07674209859019891, -0.07242501621056428, 0.11766066009234517, -0.08484089481659504, -0.1546426851076354, 0.07000021237102766, -0.04796166945018407, -0.12503649651131943, -0.11432147607096763, -0.1666564428616364, -0.05708998949567276, 0.028924564226362325, -0.02646513870968986, 0.1492600067930213, -0.12321225806444919, 0.1588832924890247, -0.0020547409456144884, 0.18330112490446263, 0.12597428505475297, -0.16902793948544587, -0.12188421337286576], [0.07812299553677884, -0.01561530622664514, 0.0359540569153866, -0.09776032540580848, 0.0391468625737825, -0.16399812468792402, -0.14279726241561103, -0.14215557904713438, 0.06427277267008469, 0.1578602846137951, 0.20048570578528652, 0.18482743274388222, 0.0778084677952618, 0.16107170367129517, 0.03795724378005517, -0.060503276228938, 0.17007538690772364, -0.025950594314717135, 0.027619896310697757, -0.20586008568241218, 0.11469529861387584, -0.05127649911590088, 0.1566320462175122, -0.1391424959750013, 0.06501316183191853, 0.10098334618808015, 0.033906277675387037, 0.10993535194635604, 0.18078331954968863, -0.08288004706522731, 0.1082194429473265, 0.01891949974867305, 0.19679176612546778, 0.19080769489171784, 0.04425459578561575, 0.2116877712874976, -0.044748841446688975, -0.20689507778398564, 0.19669821163469062, -0.03314675627873236, 0.17438638673957121, -0.14511691450449193, -0.057252963068149455, 0.04040051390455942, -0.1579488998821746, 0.058734675545839325, 0.16737072571571607, 0.1439317679005374, -0.06864256691614062, -0.060510721374970794, -0.20353295379869438, 0.05971525602474087, -0.02298260829084953, 0.06865468084506353, -0.1490623610846122, 0.031023053389399848, -0.033560029596119006, 0.13084824551894036, -0.14079203047822575, 0.14263886827088823, 0.1823488043970523, 0.2012112689440656, -0.16953526708654582, 0.19952423263067465, 0.12376219523803682, 0.1903362804555632, 0.18082706148111716, 0.06513477769149371, 0.18343961313827792, -0.07114256855017902, 0.14657247123268644, 0.13529828657451748, 0.11873049721810024, -0.039213066972971666, -0.16334760091477585, -0.1153390028995627, 0.03758031774470141, -0.17581561402266874, 0.0137709497439404, -0.08040678738725168, 0.044834022377193604, 0.0808943954561943, 0.06674968658843049, -0.0636082320382829, -0.03240661123501623, -0.16277861908383623, -0.16605129910132677, -0.06461411620173857, 0.09470168026483618, -0.1401286835076274, -0.021130938981544455, -0.09217127058908926, 0.028794342773102072, -0.030454572050706813, -0.10627318122837727, -0.19212750483305627, -0.19054518349380498, -0.046233593921500615, 0.010680653172379975, -0.062188167322034194, 0.03045463675408217, 0.07035209903845464, -0.1897457582291583, -0.18831298685412606, -0.012079485961566697, 0.06661364967667116, -0.06191802459844622, 0.02895389219799391, 0.170095410486633, -0.12026965354423307, -0.0992431679558801, -0.025830396105740616, -0.18009618030062222, 0.019042147070127222, -0.0823428049010129, -0.048765052574268386, -0.007282572996727743, -0.07181094701850405, 0.14975630488951702, -0.15158954754644205, 0.025309983747801426, -0.14783297794432493, -0.19455830564335566, 0.15556073256036732, -0.008007755780630644, -0.20015094019087848, -0.012103610317686697, -0.023146378962105918]], [[-0.08000507369242907, -0.04911014476208587, -0.16682185301573996, -0.17216136060166426, -0.12115239726176097, -0.173260264714506, -0.01881357302790301, -0.07577938144557317, -0.14987566690343873, -0.11070325663775178, 0.17321382174745076, 0.024821598650646287, 0.15730539570876947, 0.05441338773003829, 0.09295004370906859, 0.08718693621618172, -0.0532368760205657, -0.11047720090389572, -0.10790229277824027, -0.040016479764479945, 0.1665736861800588, 0.15299650914794669, -0.01652471712783741, -0.010643799779972152, -0.055553490088059335, -0.048052609051313276, 0.13985170949351663, -0.10597984417501896, 0.09300365613459802, 0.05230419463496828, -0.0967817224501052, 0.04604212932273965, 0.006331642391241443, 0.12175172475831697, 0.14109314827277816, 0.049779059528913865, 0.02472821649489455, -0.09470639159585705, -0.08481895208822064, -0.03857301456501496, -0.12405210434300751, -0.019293818621528323, -0.009173030993461595, 0.15886454341586528, -0.08567443102410247, -0.09826957399521183, -0.009362704477923181, -0.06549146729077925, -0.13909202329916137, 0.011266168019839564, -0.1092090383823842, 0.1055170806446048, 0.025553181997215457, -0.11634635729354534, 0.09617408017884671, -0.06632770405917573, 0.11169271098090398, -0.05430876737529795, -0.012860317110926828, 0.0005431011117051642, 0.1011051926252616, 0.16768511152830076, 0.03548152622747064, 0.01725180518827182], [0.10517367599968644, 0.062339752010447114, 0.16862539340613925, 0.04515958390779006, -0.07305222880024441, -0.1464148433749862, -0.028028258581381485, -0.15752615786321666, 0.13828881279095623, 0.04366676969433698, 0.07131582162658821, -0.10860916123488507, 0.11628591339484312, -0.059143686527107886, -0.04658059627617574, -0.14336234781203044, -0.17600936428459632, 0.07489531244921846, 0.10619008782122633, 0.10333029551388917, 0.07918841432361942, -0.08946782586726561, -0.08895530994948705, -0.05771947434191686, 0.036158972065347315, 0.1299357817172526, -0.051951415984721014, 0.0016200131928768434, 0.02664411404949643, 0.04594004173466419, -0.10537456525931874, -0.03296941289388468, 0.04519056960054334, -0.14360014003775698, 0.1521651792787037, -0.16452578664344203, 0.10238918156134934, -0.07297070300361068, 0.10658167257181088, 0.14283939435979284, -0.15820698633787922, -0.1648807244111084, -0.07270542775748809, 0.09991398689251177, 0.05675974500067343, 0.17408277007302977, -0.04590281700831572, -0.1321005119975668, -0.07133140953795697, -0.0836805058935076, 0.14465361859066198, 0.1358749142608616, -0.16873628887321127, 0.14005138607222492, 0.027342890669210432, 0.004887925807442637, -0.11106111559396517, -0.13265653855389553, 0.0889791029564377, -0.15407637804873375, -0.15515991085437852, 0.04468249036835624, 0.15890776618480998, 0.09326178025559927], [0.10809755198246332, 0.11858428143070979, 0.10938876835949526, 0.1371792626664218, 0.13587806142257217, -0.1642029057300798, 0.14011550162422062, -0.06440444721510324, -0.13691950903532832, 0.1113090668588388, 0.03518179151207847, 0.03481289943467533, 0.14782255251350143, -0.04689796432399307, -0.12544983605257096, -0.03354217348809106, 0.14993010642390636, 0.1400239652756958, 0.06383843445647297, -0.14922509927669314, 0.055388213855098754, 0.08892209926285852, 0.14465047208840134, -0.1342204180599329, 0.10827083857152447, -0.11450263057877066, -0.046331482714686206, 0.16394606924603647, 0.06605741043499652, 0.07216525841748056, -0.13944285707654713, -0.1696967340455304, -0.02416960497017443, -0.003937343631590286, 0.15854972824353766, 0.16069279273717493, -0.08963919557057792, 0.14077853319020103, -0.16885398641189178, 0.17211639818392013, -0.1758128962301753, -0.07969091657960527, -0.12268285833014929, -0.12092566663072968, 0.06179747551618639, -0.17296192144120057, 0.062126550928623375, -0.04167765307466449, -0.08893235675845398, -0.029891165351493415, 0.06062117787645268, -0.04551900042348075, 0.08409894437080526, 0.16893459747632775, 0.04026258508300991, 0.07533787100008285, -0.14156994252875163, 0.027240453191248154, -0.12594685901587557, 0.13817346388854712, -0.04321952920716371, -0.16325892116479182, 0.17580573024967047, -0.1499735930742813], [0.14018028991807632, -0.09631482458830001, 0.06499120681083885, 0.014756929292740934, 0.008209183016119947, -0.07268564733733023, -0.05094901666235413, -0.06658278447120143, -0.17105340112814418, -0.02991058866382884, -0.0993824495379684, -0.15337702637790396, -0.06245067100565002, -0.11513976919987579, -0.004031732715502073, 0.08146728641147949, -0.15188274705991792, 0.07970827494871999, 0.07985614648380476, 0.12643952327336014, -0.05940018269633787, -0.1604320434336321, -0.03550360100696054, -0.13633735715231082, -0.15503733099011485, 0.15406077920979575, -0.12921038680267188, 0.14146062303029344, 0.10212816591658966, 0.1628792259279433, -0.11060817760330555, 0.1273306477334604, 0.08160565899192157, -0.10309044952594332, -0.07837166384824672, -0.14580623562440462, -0.03274496840092666, -0.09357454904983108, -0.07134895293184133, 0.12902408192275633, -0.07997394531574176, -0.13985440366750226, 0.03963718475257209, 0.1568016885012287, 0.02415581477349359, 0.08851289385127595, -0.09573463502607114, -0.09782395801111424, -0.05848433222060653, -0.11335464987634544, 0.094105476194454, 0.15874612388497542, 0.14241637438093965, 0.1632550049499846, 0.004390834998910511, -0.11889867684779096, 0.15606429168286767, -0.049418211899917686, -0.027634806828277094, -0.10064462066605251, 0.11246591228176131, -0.10328945219007614, 0.14249624684251874, -0.022967047802138374], [0.0858959366293223, -0.025153007171332006, 0.05649559731503148, -0.09548952284234415, 0.07590835585254388, 0.019296017514404046, 0.0028253179474092564, -0.02632588544211889, -0.0947918275381989, -0.14129463119562116, 0.09927257649345589, 0.17562681832172447, 0.0614659156292274, 0.10463425893400444, 0.09884450068747129, -0.14542860608208233, -0.05924637279590188, 0.1363346360659869, 0.12140868128393614, -0.032014851622546685, 0.11771995739244476, 0.15601190459465, 0.04799635347142909, 0.001259777538854756, 0.02463739317530687, -0.08981905941871411, 0.031381222540667775, -0.1643100992773335, 0.1297639046710428, 0.04010834336999458, 0.040627156815175175, 0.14215896300307615, -0.1157710161569743, -0.02887207005646547, 0.012345895377352145, -0.0011752047395132848, 0.0726677870601536, 0.0840848302302907, 0.14284732512233347, 0.10202493174735729, -0.06354887557717945, -0.12607025038996994, -0.1263542045300551, -0.024620564520755034, -0.042051478181304655, 0.09987254847393764, -0.08962607372775777, 0.13671605269443082, -0.12901239515614196, 7.500793461263577e-05, 0.10872705022229913, -0.14690730839618077, -0.08548929888672677, -0.006519249388573151, 0.16794707991645602, -0.014294673071056963, 0.16142578364866755, 0.06202046254395993, 0.0949410913259435, -0.04792419184116947, 0.02542405332207015, -0.11305589572173334, 0.02228510449726831, 0.10085249068808862], [-0.12777344159427262, -0.010122262198910485, 0.004682385577573339, 0.05647055886329225, 0.08430358323227907, -0.0498072965536662, -0.051783377421130386, 0.09509280015486024, -0.1760285245174586, -0.119307683013852, -0.05210057130569182, 0.07920068878789419, -0.009088337321587786, 0.08546470080749682, -0.14067578194891603, -0.026820718527497907, 0.044084187285433715, 0.16267936615981146, -0.0683597935377083, 0.14260068478222776, 0.07426768816343185, -0.012106235422565845, 0.09563086103151267, 0.011892473930199654, -0.024039552747054313, -0.05846516012955732, 0.15844092842944077, -0.09642002354845232, 0.16109498612490483, 0.05228065401911769, 0.17451125345857618, 0.006283662975231556, 0.01460511526589161, 0.12726974042365227, -0.056175369573003404, 0.012043085429898653, -0.01452500253088758, -0.029262896632621105, 0.1720341862761714, 0.05697062738546401, -0.16715731780694196, -0.03932043798517891, 0.11638586641822149, -0.019734222900855247, -0.05083336447093776, 0.04419857092521978, 0.07713451935775095, 0.04834980235556039, -0.08046316656700042, -0.08924843189612273, -0.09000808568959617, 0.07635172538502824, -0.14098577495334347, -0.07166568876065238, -0.0804535155711155, 0.11985797271789136, 0.04339372776565355, -0.08030998775582598, 0.161675061888506, 0.015491474000439126, 0.08223460463858043, -0.11697438978731962, 0.12449146170539158, 0.10174172658902988], [0.021256039124799314, -0.1148924121885958, 0.013931001513519031, -0.018821326028106322, -0.01792507555130704, 0.04715408050619929, 0.05055630956878743, -0.06400967734793732, 0.1039591417348881, -0.09008311702197551, 0.018922587381992678, 0.013827042468562561, -0.10379794033129407, -0.13976751561292583, 0.17211085643893412, 0.008209398566454862, -0.09350197590831094, 0.12812410815226002, -0.12803833074572019, -0.15378670497853097, 0.102687622307531, -0.015654302213008592, 0.0029435242854509713, 0.1667819359005924, -0.0279065354193562, -0.011905020892880203, -0.10984154274998091, 0.026390680115460363, 0.003741333449941958, -0.021082337252185362, 0.08467701741237602, 0.008962804412444542, 0.11114818446616878, -0.05410117781463912, 0.08152400941766744, 0.09018125645158101, 0.04190410959538954, -0.1261179154182401, -0.03516665152677706, -0.048879215810296806, -0.16336798515188627, -0.0860160243001974, 0.02596340028811253, -0.150882397757172, -0.08152762730219851, 0.1696086828515536, -0.044240014534730726, 0.008844844476150499, -0.02752415558057711, 0.1369186757441934, -0.10508390015028081, 0.09277748455841137, -0.047758259147253096, -0.025649418073998204, -0.10155753507647804, -0.06022919500129806, 0.10593612927047316, 0.09100524552765935, 0.05083354613154903, 0.10112331222444307, 0.025723263569677024, 0.15639634469584887, 0.16403392509186107, -0.08523979765929315], [0.15687822870684412, 0.13987874521661262, 0.13841985033122273, 0.1705254646466837, -0.015399296827648928, -0.06292080452093089, -0.07757222934062209, -0.1459049665122939, 0.01936694433654126, 0.10845495585255774, -0.11574424304013736, -0.06855206112446115, 0.029622119411307907, -0.015454791283405767, 0.11990789926956061, -0.06957362200177512, -0.13922081049115292, -0.040328594770837334, -0.13791856950817327, 0.14475199110154843, 0.10324049047696991, -0.11244104076073218, -0.01004067746014423, 0.11351309397288875, -0.12319925406492732, -0.12987429796903127, -0.1311616680230525, 0.06395821835537362, 0.05118059357761709, -0.10677891874762331, -0.018210818744966294, 0.13155472290698628, -0.163494390302777, -0.013151728283730348, -0.08034194406105404, 0.10029341252945481, -0.14987035983007613, 0.15670878582279366, 0.053159276603579664, -0.11149534343593122, 0.16815146080335822, -0.10823121724712063, -0.006332404065135634, -0.13871263175649354, 0.08127808601664652, 0.06753716830210282, 0.05940973878790771, 0.1647458354233571, -0.03247315527444861, -0.15828459725812227, -0.02688967540153392, -0.023151970005648337, 0.065513198003775, -0.15947921372878113, 0.09479383239371626, -0.0752914458731444, 0.07806546180005232, -0.06152410550887796, 0.058402124960759264, -0.1537816246717163, -0.16340296817402486, 0.011239695310168734, 0.011083369869115262, -0.04148720040186968], [-0.15590348135730442, 0.16818617379090295, -0.08439071294354533, 0.11837436496014223, 0.12154949116926025, 0.11845283643299517, -0.0746540740329587, -0.15739853613387353, 0.12870815050406947, 0.018420019165536258, 0.11680478347499582, 0.07030958763565534, -0.0049379916685481995, -0.08297956336052499, 0.03455973602376733, -0.14309225280035082, -0.12335200038056506, 0.038134665310598476, -0.1268494225926231, -0.08354896016455939, -0.0943115149141916, -0.12902553588833568, -0.14365690350110907, 0.03675213164464941, 0.11261226108252012, 0.012970816554653547, -0.011187538323533114, 0.16448550828960584, 0.09500948212133417, -0.0021265493384376014, 0.15965242586468234, 0.11009370953668698, -0.02182044051821067, -0.04398337585116484, 0.1587338687525879, 0.13742975632376273, -0.11607754922459437, 0.04269817946897683, 0.15673620692664295, -0.1711781543033254, -0.12196034368852243, 0.058867868459700046, -0.004315707508504629, 0.023245387858595895, -0.13923380901174687, -0.06937296642132021, -0.0741846376522245, -0.08598036074279641, 0.015699604662568922, 0.11524595686085186, 0.1312418784614353, -0.10904755281884389, -0.1138360577143515, 0.10175782408937692, 0.018411067966171445, 0.03636300812471797, -0.11316068505685012, -0.16105962230673201, 0.052814066412416455, 0.1704856374350361, 0.025761770138745255, -0.006148491241960892, -0.16325926116803777, 0.044241864932851156], [0.012583657188554809, 0.04369285765446315, -0.062272354874367136, -0.033303130086736396, -0.08276237557407351, -0.09010973799342736, 0.1396808960114753, 0.017200939262231034, -0.07028216534434668, 0.003537158484288623, 0.02553930337524531, -0.11282325899153973, 0.0118975030994875, 0.016578877899125127, -0.14356894257370936, -0.1717367036640445, 0.16143709488093472, 0.13999345325023074, -0.17481625668835668, 0.02183191259456757, 0.0571456264431162, -0.12217409945348003, -0.004028303894562042, -0.0005229047237180762, -0.05633414545834761, 0.06946990758306458, -0.1715906790167998, 0.13908972055212995, -0.04228557822672374, 0.17195426423400326, 0.12486112330031883, -0.1509119663855301, 0.04806636103379379, -0.049704786999587545, 0.014039097073558026, 0.0668374344311014, 0.09884977850037995, -0.12904660375517893, -0.15949688147987137, -0.05183797412543201, -0.09834018696545459, -0.014191547115640364, 0.022334486396529542, 0.11195157750453141, 0.006929861811642246, 0.06691803773198779, 0.03778431834513588, 0.03373165946140439, 0.1693696705442689, 0.004277753865496997, 0.06868880486228801, 0.0019039802998227103, -0.08018350205929041, -0.09523994097526609, 0.05566427622500406, 0.16781617057517306, 0.09090685728774228, -0.07639369945057255, 0.11281456940853442, 0.06843708806350549, 0.15182758588153336, 0.08356813059773284, 0.04018924764817339, 0.10463222406194275], [-0.03411700824470826, 0.08668432250353374, 0.02874139125603483, 0.16371870528336477, -0.008777662923473456, -0.16247622890023206, 0.05704803919641539, 0.061201332239011245, -0.06842227962065452, 0.04996019877532497, -0.10227625818196015, 0.04911411088704101, 0.0989247676961621, 0.018819799070627558, 0.11766146078221877, -0.06811816192019372, -0.040029354808732764, 0.09473796995093035, 0.08667055007384103, -0.1362760715106936, -0.11885882658716679, 0.09617742240840507, 0.049470582262248416, -0.128201397744271, 0.056488353220520475, 0.07099601710003511, -0.11820127736404246, 0.009552972595732932, -0.1296619099276578, -0.17165374165418984, 0.046603586091102316, -0.11782907858288033, 0.11094550028072116, -0.09095433948300939, 0.09498053731142399, -0.02319449289344297, -0.12229614097303936, -0.024794417553495013, 0.14906941463103396, 0.006498082084430231, 0.07787117037749222, -0.13203107956212579, 0.005672405347260892, 0.0016413696600172945, 0.08094184892997769, -0.06486265244817573, -0.08629207383086641, -0.15774302749584912, -0.15890413382564966, 0.028240583831961062, 0.048957038600676565, 0.04360571424841237, 0.10321981864488614, 0.051525609515819526, -0.04348639574892315, 0.03162869123987658, 0.08916076486569018, -0.09717106548915147, 0.02336117413477833, 0.1566690762981891, 0.0029887121456569077, 0.07887515638116871, -0.15627034039380192, -0.1267093642757625], [-0.035116112513736114, 0.1739124029062843, 0.04112535335591965, -0.08514224642424402, 0.1581700932309901, -0.12166506743246715, 0.12125427816567733, -0.10603219773644884, 0.15519254523168557, -0.14310177681040068, 0.1588046576072836, -0.12552340768556142, -0.0009161042257229696, 0.13834675474858085, -0.08403910081349056, -0.17662601241204465, -0.04091431990172839, 0.10224416842720463, -0.10320723995359529, -0.06576383458262418, -0.0007965436568126375, -0.138595011078079, 0.019005059587852778, 0.0802852705802102, 0.016500725753819983, 0.16711565109542928, -0.15749603718284172, 0.146043559696356, -0.15784494417238162, 0.16594868853304687, -0.13044881959141652, -0.13225269638023368, 0.15550181153194545, 0.08344397373099487, 0.0336081913070351, 0.17471429754045784, -0.06995804725508763, -0.11639810707241863, 0.1614283831885164, 0.03366859183586605, 0.02592222201678771, -0.009551933059242013, -0.15494475021309936, -0.040351201874209736, 0.10505991599255199, -0.16997156198403537, 0.11792262948464968, 0.1559814548925908, -0.11053916824754045, 0.13505974416334263, -0.06178814961552139, -0.018096432466568523, 0.06277518779169633, 0.12503679197955006, -0.14008021301200976, 0.04043908176625699, 0.055804565693203176, -0.022001228322625854, -0.0730972715197351, -0.057352710954578355, 0.05157527784818694, -0.10916690994872447, 0.006911862896989501, 0.05559598289083836], [-0.16753124994784988, -0.1303117580582472, -0.1216387389212416, -0.07958320264012822, -0.07103733460956588, 0.013341207471115585, 0.16125181031529032, 0.024560266646691833, -0.14931604534879392, 0.09348549353506654, -0.17391749758693553, 0.06629609132567665, 0.01172035692321758, -0.07504791339173655, 0.0010009777654884089, -0.034865906015391114, 0.10197350522117588, 0.10696523070442607, 0.05006476846262986, 0.008753963500408319, -0.07942861700844313, 0.07405303371401414, -0.12913253977948155, -0.1689854980822443, -0.018672585892044773, 0.162746541515005, 0.0669571679028931, 0.023085046563767867, -0.1652983902589767, -0.11419475620687014, 0.1411581370873819, -0.13825684691192303, -0.052900181062983276, 0.16005258162577504, 0.17245269156930484, 0.0070445123685089935, -0.0022554105594512334, 0.0749379665869834, -0.11805938453935304, 0.16943788791620013, -0.1213118668309196, -0.16276302703488194, 0.023795236506577805, 0.029963616437752583, 0.10140181367305154, 0.059106792855965484, 0.09798746971857383, 0.026492786648024624, -0.1740065686204747, -0.05831550640362818, -0.08215727206039905, 0.007357981817991379, -0.011442821531133546, -0.009579410430712365, -0.07556934813080833, 0.0356228468601404, 0.03409222541071228, -0.031041843773119693, 0.14092640696588585, -0.04815528076431323, -0.16367260704528702, 0.0026881321656811526, -0.15618333742584212, 0.06573745625238832], [-0.09046167561361351, -0.07334586389015965, -0.06209149902876683, -0.016226292460899683, -0.09043279443098863, 0.08827184502527216, 0.15578466423458154, -0.11732459601622476, -0.09254210759244544, -0.14340616169666986, -0.06243954252232417, -0.15670536412298244, 0.05276064731157124, -0.1493383109961936, 0.11738071624566185, 0.04199527401835077, 0.12811886156865035, 0.1054824910363219, -0.0695631188719095, 0.06854472662071769, -0.05842436864173258, -0.028106951181180635, 0.12082630111088943, 0.04391640146591835, -0.15003939767230362, -0.1422136742110058, 0.13894504720491832, -0.1364775416803115, 0.09627948096675146, 0.1648636023330678, 0.06415869250204724, -0.042575631367235245, 0.0694449287776487, 0.021028173194699157, 0.07818328696173833, -0.08614027700677203, -0.04942570420655058, -0.012725847863367029, 0.06396878133202503, 0.0641634118779229, -0.11611674074792395, 0.05659362973211121, -0.12372052355200094, 0.11298715193816225, 0.09503296960890989, -0.07304584073050288, 0.03912838776696541, 0.158993083646271, -0.08993661950194591, -0.00018896853551864134, -0.05586626622444845, 0.031426600308772146, -0.005347739544965313, -0.14954258964459244, -0.012432172064562635, -0.13154976109391633, 0.12175138434165074, 0.16415970057513787, -0.009735229672640552, -0.03226286771001513, -0.08711561110689903, 0.04484434193317838, 0.013082171529052194, 0.02377658041852874], [0.015824663101528108, 0.043287209941224786, -0.1089278006872947, -0.17614726395150027, -0.0931225756754574, 0.08119637451885807, -0.09833759328069429, -0.15129995634601476, -0.033653087369581294, 0.04614835710484859, 0.10812439713202142, -0.16499168340977635, -0.03952957909328786, -0.061118942385167754, -0.1670914058509225, 0.1721627173321306, 0.12401004699942328, 0.05354389924187237, -0.061457100032078535, -0.0631491269963339, 0.04191216711294429, 0.14158447736690474, -0.038635845873584845, 0.17168613400047064, 0.15090905599565013, -0.1690665404912773, -0.05099780162898765, -0.06806624294135034, -0.008266265277660084, -0.16379803049244748, -0.13774212640453157, 0.16924825432274876, -0.1529301115554065, -0.017243230106251423, -0.024061720881679693, 0.024098034524757454, -0.16611439203097303, 0.03548280469636808, 0.048405189827975315, 0.12642593514787384, -0.07301258153223247, 0.11694492965895031, -0.16664729453980337, -0.16463656643823538, 0.16557159163061447, 0.040438320918257276, -0.02271421059021322, -0.16299277115020397, 0.0188417677024146, 0.1157316873016675, 0.15376269755441108, 0.03422483956837447, -0.090428795851732, 0.11450164445140856, 0.021528142934603842, -0.16177071486423744, 0.1689267366806146, -0.14523411697384933, -0.0972606690979156, 0.08456667346863032, 0.05284710866411185, -0.1081631665414835, 0.08117106116399578, -0.10902707484276879], [0.06489423747883363, -0.01163179080017826, 0.15465069141527996, 0.17502615567511012, -0.15483515093181655, 0.17141091701757896, -0.0953764614883495, 0.1402653046925568, 0.17376054917794811, -0.12143212031007218, 0.11544381348515168, -0.15043141299026702, 0.010861785134125751, -0.04379857247590438, -0.10212999049641756, 0.17075106614249166, 0.13472022947968568, 0.03340464231964643, -0.045219977217120566, -0.1380273362518503, 0.010088419218825195, 0.04009750307674942, 0.13672277763834503, 0.0955056340996133, 0.14844868127457242, 0.048004151339980955, 0.032098358919199765, 0.11318614248479217, 0.16965449050146572, -0.12710752693655247, 0.11245079463228139, 0.160332614454157, -0.08961802738937759, 0.12260502246897229, -0.11325840168837958, -0.15862689579062333, 0.16688336302318904, 0.03131839806171727, 0.1212134921407351, 0.005085749167021675, -0.04898683185641689, 0.07261710797355098, 0.082118793325791, 0.07752903286487275, 0.03916281634382912, 0.09058314624852434, -0.15432753828723697, 0.03318967356400196, -0.08229881537554809, -0.07242805461092047, 0.164156473757731, -0.026020658784138534, -0.07381048762445722, -0.04501391766582599, 0.07156303623849519, -0.12259739115749876, 0.017757698406345168, -0.16450537469374338, -0.02925786158353816, -0.14618586105629355, -0.04498549646574357, 0.008341144352581098, 0.061709901928474836, -0.04541268317695038], [-0.09845728941452618, 0.10905866075591145, 0.06782442149023116, -0.012371491236252152, -0.06864851082757113, 0.029590842641262244, 0.025898711877621577, 0.0416579047521066, 0.11148924119612161, 0.1344195610615751, -0.1397615186552067, 0.1333952383652444, -0.06794349963757003, 0.003803464937214285, -0.1151419530789842, 0.12533452339788598, -0.07337547254864578, 0.1638824761888236, -0.17651776489293902, 0.01136843320182451, 0.0018447033983057973, -0.15656259979616716, 0.007906392888377717, 0.057511560775493714, 0.14780171184246707, -0.05019315284388911, 0.1617596958990747, -0.1709266415087927, -0.1007389478013751, -0.02906369941777629, 0.1301919062463239, -0.061854863246290595, 0.08781138878184046, 0.10899632520698015, -0.07746536012983415, 0.07884974110408063, -0.11637013810553902, 0.014809571147173406, -0.1135030196801416, -0.02106573548358128, -0.031171876901737196, -0.1547674948538838, -0.07695402377570136, -0.10965112256577195, 0.15428506224465205, -0.09363343705874407, 0.004964101696581041, 0.15108408515652408, -0.023679955969731596, 0.1751596706468025, -0.059558684874477776, -0.020112747552535736, 0.062259046545441066, -0.12452028662129355, 0.05640830811958205, 0.03883968296624488, 0.10347815659033496, 0.11479943740293005, 0.0767639750179034, 0.17218980543471316, 0.11870813536612743, 0.14849253218463235, 0.02533637082843282, 0.10055827502350621], [-0.025670111192620526, -0.11720224897546058, 0.09222560211332817, -0.1484570195654819, -0.15726580699211307, -0.007179569508306033, -0.009805020151637256, 0.03815585935421795, -0.025166301048583334, 0.0864097927243748, 0.08569083051055396, -0.11819505103120015, 0.024606501806076264, -0.1131182305732512, -0.05723028539011772, -0.017544605430834387, 0.024628837936715803, -0.16770252632893357, 0.07249414547248778, -0.05640710042712631, -0.05008973481710144, -0.14918653585022879, -0.012166523665491619, 0.16469749771621436, 0.013797858273837893, 0.09830513635323931, -0.08143621397909666, -0.025373059997867375, -0.07033693749109146, -0.14056010610962907, 0.00037197575611405687, 0.14400620004528877, -0.16482763912808465, -0.14855006171727594, 0.14896068612658683, 0.08635944995832975, 0.006628426497094414, -0.08116270272741083, -0.033377948130388135, 0.025816424719313003, 0.09319215672688566, 0.17223043209847774, 0.0032666697286547475, 0.09451257443076458, -0.16194529392953846, 0.0898826681111626, -0.11895436659152858, -0.07337581307093421, 0.1548585844930844, -0.09895872185190187, -0.08222493092841746, -0.03665639655238173, -0.0647360026589534, 0.06836442028826029, -0.0917468006538201, 0.07870058669363875, -0.0023143466813894953, -0.006812873756151111, 0.020230859973887433, 0.013982897607419775, 0.11955599201446712, 0.0014146948925084224, 0.07852825935912763, 0.14804992431406963], [-0.10445676737714502, -0.11502082094925889, -0.13371715830738687, -0.04573098930878491, -0.11355894712624567, 0.02902766793544606, -0.138400220401431, 0.17526077935175285, 0.02557560683202842, -0.050388323480252246, -0.13027453182830112, -0.15389618008583322, -0.14986738874355346, -0.1578439995538072, 0.0502345340713416, -0.12726846576481393, 0.04160054313351336, 0.003703194607050958, -0.024789572901328494, 0.13332102450022232, -0.08677417935747761, 0.13685269341616768, -0.057015223304864984, -0.11744784699060709, 0.04569215639698242, 0.09367512278259096, -0.17561417766518383, 0.08646389281714548, 0.07698952234113474, -0.012874146031727207, 0.06333182694792129, -0.10147179857334532, 0.01757068672642247, 0.11801058003021132, 0.014856591621111442, 0.03219945599758919, -0.11596085408288447, 0.11538705592589435, -0.10905373929772888, -0.06755955181377588, -0.08285271320014985, 0.015260353071135435, -0.1510323859882365, 0.025944859064438663, -0.16104802274675617, -0.10484901525773967, 0.1573417812687017, -0.020774648552391944, 0.11519993046947216, -0.00847400529425682, -0.12017802582863833, -0.10131171710556063, 0.11115602758342716, 0.007292264879684179, -0.1590915251404973, -0.071834751472007, 0.14362386976779748, -0.10952786192424187, -0.1367108143822303, -0.15270355488493137, 0.017005181118040696, 0.16227359992700058, 0.00960118000858734, 0.04453011768613359], [0.01152539909771913, 0.15508213220449077, 0.16013201570075822, 0.14744647908678585, 0.0706071964300409, 0.10003726927960496, 0.020831426763982752, -0.15715018853945087, -0.03855046986194524, -0.02781466520884293, -0.09509095830046366, 0.14742800410231946, 0.010940788281577934, 0.013224603886039965, 0.15348858808481755, -0.06549602635419881, -0.004610297087947385, 0.10196972637831256, 0.07700751463309727, -0.09064783412616281, -0.03794192140368602, -0.06744308010586134, 0.007371686550942419, 0.021860708894101466, -0.012350505546516427, -0.16359703978832502, -0.016644089647450316, 0.13956800431582653, -0.14210630130752105, 0.14004349049647588, 0.01238411738285497, -0.0019612276898222925, 0.017736981662808238, 0.06717895595048853, 0.1637206622007392, -0.023860357418693967, -0.0934882614303735, -0.14021954523528346, -0.1420535453712956, 0.03614464084916949, 0.15203543181475873, -0.006469855335822006, -0.1350553557050204, -0.16108116152798693, 0.1320172557797691, 0.09213928175867672, -0.1670112725388468, 0.14224560408738404, 0.09228868263766413, -0.036646733404978094, 0.1537447463489349, -0.06855457849736384, -0.007649198279145231, 0.04574775123401209, -0.14130056803640872, -0.13584753041787512, 0.144292355507064, 0.16264404025035176, 0.05774935814657284, -0.1145339670423749, 0.06148944855204161, -0.010562643582496978, 0.1663163108646086, -0.08062993139424196], [0.113825202192498, 0.01582592269707345, -0.03719162260092537, 0.13979458518644353, 0.168456002553847, -0.12065545260819584, -0.09319439014904866, 0.03777536403725832, -0.018356230717321835, -0.09123144854802966, -0.03406904089764192, 0.11281334137126173, -0.010731116498216741, 0.08896720912739878, -0.13349477175065644, 0.0281392844069799, -0.11716092632749435, -0.1500846257483036, -0.13279706946826134, 0.10849587199682259, -0.0328222236200625, 0.12683635356520304, 0.13322173161364306, -0.11632786512270249, -0.02179216915383436, -0.03236727749126277, -0.17472016307936675, -0.06757138355148386, 0.020279259603316724, -0.15981557232316831, -0.035837284659120804, 0.025684194413835293, 0.07965803654914921, 0.1160756753333357, 0.12366823715562489, 0.05334393057354904, -0.10212874733842779, 0.011581353411360018, -0.13482550701912854, -0.04448062185271128, -0.16334639999353517, -0.14201113790391418, -0.1325894250264034, -0.0178233931528384, 0.09319173135954134, 0.16307919958464653, 0.1489231225470379, -0.0702770203011012, -0.16925533936015352, 0.03732159671900887, 0.022627989780581087, -0.07221933869949657, -0.06557152020933425, -0.10227338743450949, -0.13603898069439327, 0.12425989268753126, -0.16031676949020093, -0.1689941971280657, -0.1017191262187726, 0.15266416266678387, 0.09166651153465585, 0.101270286520923, 0.1279939628695644, 0.09948796051491064], [-0.02421685110164634, 0.17456551894515862, 0.14344522517100577, 0.05569814747309459, -0.05921478509634068, 0.10436719079799829, 0.10489329978130817, -0.14512179663485333, 0.005020845342610699, -0.12865306404954407, 0.07928322981205253, -0.11769910127698059, 0.1516264948634527, 0.1703347487572253, -0.043448727154930825, 0.1678479128098461, 0.04683230721717463, 0.07119687703483527, -0.08290770358617264, -0.09921808919143035, -0.14215029834976156, 0.16297663439117036, 0.013836340147557049, 0.0005373433627541557, 0.13090525419876187, 0.12430500113401417, -0.08597248410694638, -0.05813383213979544, -0.12600011217656096, 0.16014787760728422, 0.16859794763680122, -0.042319574273555954, -0.07963809031534863, -0.12286724975100397, -0.03623136836070817, -0.07377013214660497, 0.026168378089017418, -0.09922471235150664, -0.05500869193448704, 0.0999426792900106, 0.1020472077764551, 0.054867713350565665, -0.1670896977214595, -0.016925022579877352, -0.05304040985313912, -0.030755113139391305, 0.1493470256441686, -0.004193447508770803, 0.06103932150643886, -0.11100316671585293, 0.05960985266909021, 0.011864898746512531, -0.036169460611891496, 0.09330625293653375, 0.11870616346577027, -0.15185052380825104, 0.0006020321494327798, 0.06425061567788573, -0.09356653001161908, -0.04756503984807775, -0.08156466487234457, 0.0003399261153782744, 0.1394154283570674, 0.06831210789074899], [-0.06628271392641673, -0.05494819475142913, -0.061017189757114225, 0.03332743318481834, 0.14245280573263838, 0.1555818035538256, -0.042347569163706224, 0.1755170250402518, 0.17322929047080657, 0.1297031663586467, -0.12426728650363679, -0.09738616810193138, -0.05853938899560845, 0.08342487509501503, -0.10312032361318015, 0.034574057704031304, -0.0634006527088019, -0.13443401321411114, 0.11730491451296857, 0.005295610703160593, 0.007398894727310462, 0.12528459425198274, -0.17479872356910242, 0.05475640710729471, -0.17644144592872707, -0.056175982417136866, 0.1430024797760399, 0.1331234003022329, -0.1489078194331395, -0.15572684841572157, 0.1491266724205638, 0.104400156174334, 0.14398032939730918, 0.1303627326917236, 0.17227429929205046, -0.028633943970435265, -0.13108458184566893, -0.026508141157678855, 0.1435105051973643, 0.13279769840529948, 0.07750416718164617, -0.16630397074147296, 0.02664384258077545, 0.026210845842039754, -0.04065734957230782, 0.01920100259575233, -0.07208740325810574, 0.11319536333554027, -0.11327842272292418, 0.05302059958897548, 0.13868070741434751, 0.15748344034493822, -0.11386952862391765, -0.09421831049600733, 0.04911085824817546, -0.08416503764066893, -0.09716720506039396, 0.15720736297468993, -0.09293726371708023, 0.014566985053315145, -0.06882256373271065, 0.06988793283896584, -0.11345762033695146, -0.11350120626208919], [-0.06334038033434586, 0.01395504195799421, 0.05297006882090167, -0.10731965549673873, 0.1655499628782298, -0.14533379823300577, -0.11829984579940571, 0.05227841281010112, -0.044808750725328125, -0.09065458137124446, -0.008846904514686551, -0.005877154386838779, -0.019342307501898054, -0.10984841726877083, -0.0068268921380608095, 0.17613389431332707, 0.018107579321552984, 0.17552527031167547, 0.050886657783437234, -0.04360666111876955, -0.014349757250135979, -0.07063452505562745, -0.16329969982952625, 0.044526868282112664, -0.15326583052723913, 0.11214809301816263, 0.16943178555175356, -0.14121817006682036, -0.09880788465339865, -0.10647256585724484, 0.1181281313047521, -0.027680699889943518, 0.15163164004558402, -0.06831905381341095, 0.04716088864175772, -0.04965329592933602, -0.025894117598568057, -0.07635984347819884, 0.13363892443013162, 0.14496763514684238, -0.11351612933113919, 0.13432432860070712, -0.01950374614216789, 0.12691271121545353, 0.10583689495630981, 0.09610867062744696, 0.09594065866074294, 0.0955174529197888, 0.010279620823999054, 0.13318776884513192, 0.030222527320212977, -0.05254736506320541, -0.045801022843094175, -0.04075963704487012, 0.05248402454786405, -0.012128169688279206, -0.0455824810653384, -0.12172644277430607, -0.06035996850629171, -0.07225566760967525, -0.0015546508029140038, -0.07877510759918507, -0.10119573951365311, 0.051893257852196055], [-0.02298659928333524, 0.11699574977020609, 0.0067086286064422795, -0.021978734682940364, -0.04116866641490033, 0.0346322807004554, -0.10230853535039915, -0.11773229665373464, 0.058725576657859886, -0.12460703174261294, -0.018877606598888402, -0.06303373090456603, 0.12012120776893377, 0.15309010661319947, -0.11936440243770605, -0.042817879295508184, 0.13466691175431095, -0.1556586090584937, -0.05164981756031953, 0.1555162599205012, 0.15609993325469942, 0.11823446481441782, 0.05554922179334498, 0.13984916340727935, -0.11220679822496797, -0.13842344250888247, -0.1553473675076754, 0.08333592854856532, -0.000581586606377027, -0.04961651939469769, -0.09730554838836189, 0.00531659156787484, 0.03929715599717679, -0.0403914294455912, -0.0703928571565843, 0.09747699904191422, -0.14289259818294528, 0.06287093102932212, -0.0442499193079846, 0.13836639987913393, -0.03568208822000929, -0.09320038931026392, -0.10807229671377638, 0.002934343396805622, -0.05116337889164274, 0.03083602785945902, 0.11298686023654383, -0.01686102310027729, 0.012985877589346606, -0.1175723810699268, -0.10598844393890927, -0.11379220937846839, -0.1571988211048666, -0.022678164634899856, 0.08464471955568317, 0.009519401234816724, -0.12294616914223452, 0.1001902959431791, -0.021532176954677823, -0.0027148584441925223, 0.09041615198333844, -0.09913625229042387, -0.09712850181450715, 0.05226789108817958], [0.05040738674090328, 0.10152488185791525, -0.1369556164239676, 0.09925142131061249, 0.08859875239695528, 0.02013099192602863, 0.0629375852857567, 0.004650554131184524, -0.02085561888518734, -0.06903128452266334, 0.004660722792653575, -0.04241626675238774, 0.11595378725689358, 0.0870389909612034, 0.09429009401058681, 0.015626757178962183, 0.03185933575788826, 0.09232876709155849, 0.041150200030916795, 0.03231867088063648, 0.12254266363951287, 0.027436646250342325, -0.011849744075106621, 0.0758154896395429, -0.1209898448745052, -0.012970412801159726, 0.07708519898043478, 0.16785865645269604, -0.1279259568363604, -0.07808585992748904, -0.07877243420278231, -0.07663176299640502, 0.07002193524719084, 0.09306343708627537, 0.1530440234173643, -0.15395724815960618, -0.02762955455266812, -0.06166833794231294, -0.14284969124792238, 0.0001981282946383555, 0.07049953174444928, -0.15659456666594135, 0.021175127049566478, 0.014184868530568495, -0.15284062496139683, -0.12744152761806257, 0.10733150217689129, -0.06921073952804423, 0.01527902857563052, 0.019968221985668645, -0.1165674757082727, -0.044983698864447696, -0.08378107972207738, -0.0437247512307129, 0.14027383779200953, -0.15322457097676026, 0.17148226343234707, -0.16345157604060678, -0.05092607175805619, 0.05611620669117203, -0.0783956517385892, 0.007517225802309831, -0.11352588141552727, 0.015177094018198053], [0.01056747716691564, -0.027987109821794632, 0.1119130113369177, 0.10485758542850616, -0.10970603651972202, -0.12608008265796597, -0.08437027888636534, -0.008290336963401678, 0.058255278822255965, -0.15272487838943485, -0.16352240678733437, 0.10688620574157295, -0.1179515890182729, -0.17050653989693848, -0.043169752288708396, 0.1372361443767243, 0.17130118775530723, -0.10618059647535298, -0.14908544598680562, -0.12640754348433123, 0.0618351418711932, 0.10984688050866581, -0.06714702406169663, 0.10028895830023535, 0.10961290861919937, -0.0583629994727894, 0.13047874743852264, 0.11812885259849222, 0.07918986275185949, -0.14125278955047327, -0.012401476374161407, -0.08979952957643753, 0.1734306358921868, -0.09016895183424803, 0.10641073963542089, -0.15929105652081715, -0.10531026935588828, 0.07549264793486463, -0.06190108180644062, -0.011457760103139626, -0.028497555946259606, 0.02675659248301332, -0.12459078889194085, -0.016883978489115437, 0.0712219216777927, -0.13288627640263428, 0.01823861362646831, 0.02802579840339825, 0.12976254729025935, 0.09696318961019976, 0.11617748735993985, -0.058946916135720145, -0.09131372546220136, 0.097267781611836, 0.007532635685223332, 0.13699994941330557, 0.07746720226416587, 0.022311091339559302, 0.15769409583077063, 0.07051368514668266, 0.01108876916323262, 0.06711656611063917, 0.06272049014018849, 0.09088424345377931], [0.04995686055740231, 0.10608772335903961, 0.13691203520184783, -0.11651338304928271, 0.17576265819967243, 0.11315024948184968, -0.04169825313962758, 0.08404605496043187, 0.02715155460064145, -0.004732781797486626, 0.06373628741215688, -0.16180177105378576, -0.09070334193907904, 0.010797276625700819, -0.1638331203936997, -0.013819986857056528, -0.005865167157727547, -0.12149544844368212, -0.03303904523311893, 0.052827851703405225, 0.1459039981541272, -0.1730604775255306, 0.0993272009304216, 0.06551506644406421, -0.04108441548143598, -0.06710703691628472, 0.12916821787948915, 0.07995345343273237, -0.1298704334446496, -0.031445039889653324, -0.16836876148408703, -0.06372833954122278, -0.05165381165700319, 0.10588128477584896, -0.14942096025256604, -0.00861578901430134, -0.02186103464669898, 0.08779669588253178, 0.06403569345616134, 0.09739339976104554, -0.0724232004729656, -0.03914901322167516, -0.013294294912522861, -0.06515177351012282, -0.033914872363556114, 0.0881776017279988, 0.06856495181546615, -0.015291976493573589, 0.12552200299638835, 0.126559484134582, 0.1609881776313162, 0.13783503563495472, -0.11559578235534697, -0.08680029803576071, -0.15972753439305298, 0.1628161052953876, 0.030161530892143084, 0.06762226054066944, -0.11587032599220445, 0.00030993041753263654, 0.035091232403173606, -0.05621710276440558, 0.05343822542323043, 0.14024569200236783], [-0.037219287902889864, 0.17516281929928326, -0.11999845802261497, 0.1450142785303757, -0.009100059370626107, 0.1683651509509325, 0.009170470907049035, 0.16437336625718652, -0.16696211361822885, 0.06854247249828628, -0.05489052068108847, -0.09477576326903908, 0.01250539089105475, -0.09241852993959815, -0.17276946739275822, 0.12739283264208826, -0.08143242608174257, 0.02104327369558995, -0.10908867258925208, 0.10801227724802727, 0.09827988971281752, 0.12449875918088714, 0.15696387376797508, 0.12501586000952006, -0.011381118444751004, 0.09526299438431822, -0.138840011988689, -0.005248710502118636, 0.03827531116359012, -0.15316160948986657, 0.17043434504766095, -0.16784992283415823, 0.17523328583043005, -0.13822179681512173, -0.05360923160917488, 0.03456803808212408, 0.02493678756840136, -0.1741293416418552, 0.16775081908091521, 0.10688333059638064, -0.12117522271059006, 0.06085488160806038, 0.08431291981570431, -0.09778573512256107, -0.01818614137820677, 0.06383730789355788, -0.12031947674175916, 0.003637044593805008, 0.15460191000031862, 0.04842114754158268, -0.16024180069802488, 0.0861822310313066, -0.13309452570939886, -0.13195456394595945, 0.005826369373388001, -0.005561194812004535, -0.12107546822890607, 0.09664266835247895, -0.11766177897188257, 0.04358643549639609, -0.15688068667747468, 0.016541881968585862, 0.09661451862377576, 0.06502673632901912], [0.13596995538921577, 0.11417023910135918, 0.05986648186644192, 0.03125084507024506, 0.08678437742864839, 0.05534179631385516, 0.03793986783383391, -0.13957074416749032, -0.09162539905548837, -0.0890905761835965, -0.10033927486568191, 0.11041643685400707, 0.007555404534269311, 0.03178290811680384, -0.034627852245388085, -0.1428597825530346, -0.10616637873168314, 0.01817067794916316, 0.012084030889529584, 0.17220512044608863, -0.04521328794077051, 0.012928278731710235, -0.03778785839380089, -0.02215529407572664, 0.03498422179854785, 0.15944043468583077, 0.06615890583480499, 0.044221562181821605, 0.13022548420559002, -0.04730145138386688, 0.1032640694436858, 0.05089369588542561, 0.09581454005196591, -0.018391839543609845, -0.027700169638168987, -0.1678568910928143, 0.07298007593949477, 0.13640048306555128, -0.07556015154198976, -0.15292849032716266, -0.12463441888336069, 0.13996548559287483, 0.16080852203203436, -0.009872937985246077, -0.0286067660552487, 0.09317608693113524, 0.05974878047990184, -0.1765198646108932, -0.029246243688990176, -0.12973708547810928, -0.07903099159272549, -0.04104196371811336, -0.11044443369584248, -0.169599255622546, -0.08288101412831275, -0.03235975250122372, 0.03728379474242724, 0.04209725137043635, -0.14265896825291036, 0.0871759764245151, -0.12603001681386675, 0.15134380250495746, -0.17122545102504208, 0.1079215966982929], [0.07344376310350545, -0.0929201277334059, 0.08366445487745632, -0.04385366607958868, -0.10299565939667238, -0.01873427895157745, -0.07172067067830311, -0.07514446795120146, -0.020068473211390027, 0.01649433002454511, -0.13514617261089545, 0.04666479452066635, 0.16459273010439693, -0.02878202582759226, -0.15087664215572846, -0.01550402078598827, -0.09239396736313879, -0.16076046779122313, -0.10054212870462016, 0.05613089223356524, -0.08615633724205762, 0.10666256983783728, -0.15620671943337844, -0.060483081809036776, 0.1511558318833783, -0.11458634052885967, 0.07447235662587667, -0.02752037009846108, 0.1608812102230728, 0.16623799652584142, 0.09352679893149218, 0.05365241922400174, 0.17215021925804816, -0.017360807432143806, 0.06977165800836851, -0.12356933152991285, 0.04449277806534029, 0.10906899071181678, -0.08507232728564731, 0.15670498937853966, 0.1434834796540157, 0.11231686734471039, 0.055995352810216045, -0.044586011988389684, -0.13862293545871557, 0.11766972021529545, -0.11932731447277373, -0.08584399688328563, -0.1468893116529326, 0.17119515497314786, 0.08538123976338452, -0.08151446125041023, 0.1390709382520565, 0.16059638475015117, -0.07771664018918244, 0.17007707186946613, 0.04627936771995701, 0.06763873839647022, 0.10209230667847233, -0.12724451771252157, -0.14638889709163544, -0.13043718040220434, 0.01827475122215247, 0.08998505579656267], [-0.10272813325553268, -0.07075444841486667, 0.05090473737210545, -0.03965228204553965, -0.04366815310735228, -0.048407256313100056, -0.10701128449516566, 0.1398943956200067, 0.1659592526573397, 0.04806707557887173, 0.005643575416789899, 0.11883541210381146, -0.15729167556854187, 0.06403087273434604, 0.14795821360101158, 0.11019161255835849, -0.12564553396187486, 0.07634691506448414, 0.0874871181491261, 0.008847075354983297, -0.034128004327126836, 0.11820627501037696, -0.0011742329869627057, -0.11014400830214631, -0.03710898917640191, -0.09954040206205725, -0.11783766255077327, -0.12071940280373145, -0.12513082243838053, 0.11979321750567597, 0.14424864521483, 0.17252244472332234, 0.06814151207718855, 0.005526312811767333, -0.13727461137816643, -0.06170926526145214, 0.04962971112752436, 0.023032332558836716, -0.12597310237223477, -0.09627193572812148, -0.034530277502658996, 0.07318753973699092, 0.1647912413311183, -0.09678813294223601, 0.08944587102612246, -0.10578570374753977, -0.13801242843734104, -0.07349736157295098, 0.08099303875347054, -0.06583377358932715, 0.10747393043031454, 0.0756665273375802, 0.17353347616756323, 0.16866525799911206, 0.1511390949280579, 0.03854675173095939, -0.020607309329424, -0.1468137074609371, 0.0582210894307797, 0.16836781474547183, 0.08948838369476061, -0.10278033023638285, 0.11510547821823483, 0.09865445882703432], [-0.01450268295482618, 0.1681805956922011, -0.07838128672953823, -0.035521198999974336, 0.03092451512397057, -0.17141287157138432, -0.1282081313391938, 0.1426821171199734, 0.1621172234596582, -0.030293386004771133, -0.09609199858526216, 0.0799849052721022, -0.06164098982155071, 0.10768724440511243, -0.10415525576919657, 0.14636510325831378, 0.09848348327978199, 0.08146428567470033, -0.018881553197719975, 0.11663184028321098, 0.026865170996010324, 0.07649243092663136, -0.1540251747046619, 0.06774710046588117, 0.1510900898790539, -0.03141397560629433, -0.10757762202773556, 0.025941294098718877, 0.019066958807741063, -0.16996301522802798, 0.08651066747171733, -0.14896669805338691, -0.05944782005203768, -0.08544722205818842, 0.026620344239883863, 0.004381506004264006, -0.14834044276904157, -0.10917141532342627, 0.12710567896841649, 0.006847715487967125, 0.004052379197011404, -0.12501967189031446, 0.08046131462277373, 0.043566759698747404, -0.08895153878169328, 0.07463035843115409, 0.05074301885571872, 0.1340017109374567, 0.13030593205210175, -0.1396060718716753, 0.09378449431665997, -0.09941148095849722, -0.098892607843756, -0.09848887108066753, 0.02887985703166414, 0.012055192778278172, -0.0897551473337183, -0.09089712030473523, 0.15908151185340208, -0.12869697438792024, 0.016540139946681465, -0.01551856402027446, -0.02096610123760126, 0.12225573622542292], [0.006085074183278416, 0.09953891997579668, -0.03501948868703603, 0.1420171144474264, -0.05219909590574981, -0.13765972966008455, 0.026451636232957928, 0.13138215226853822, 0.09137513841538736, -0.02101451822214712, 0.10750345092737136, -0.1161573476968819, 0.007227740187437961, -0.03436386427219523, -0.06491600322641715, -0.17376519045462777, 0.07602902793802215, 0.1124392198528489, 0.10838294322614919, 0.07107825333619079, 0.026173941707776704, -0.04406886170543343, 0.08849107971196894, -0.10651920736426315, 0.008651502308885839, 0.10367852135167295, -0.15833613505949007, -0.095123392540934, -0.06874782719476538, -0.009769876016911544, -0.11435674303761492, 0.10635481037646133, -0.030516400033450547, -0.17241696258733646, -0.1259165556288713, 0.13698771387023048, 0.14691665065751194, -0.1200672781641135, -0.10761278395010875, 0.0788445124857569, 0.05855258568347382, -0.1607412158859974, 0.12737794937087893, 0.028324665983724878, -0.11688998706207984, -0.1734314828291081, 0.16696785935535974, 0.04110319360146315, 0.004135315414415338, -0.03364871904971329, -0.12330761385072468, -0.0834034072912836, 0.17602876226602351, 0.018572730883497923, -0.018325496217314087, 0.044099456564207204, 0.04732744542700414, -0.13452599600279969, -0.1603937864940572, 0.11784248104342483, -0.1744715912754958, -0.079948255603237, -0.13907334141626942, 0.009735701720436352], [0.15317778686391162, -0.00037209301410904763, 0.10667035004680939, -0.12342276891046865, -0.11426491342109878, -0.1366953405415502, 0.051747539441684726, -0.002672801498881536, -0.023521439609134057, -0.14065320848327267, -0.15885126076525788, -0.11200433532621942, -0.07021747858110824, -0.07599818058167887, 0.05970487375560615, -0.04542553717894691, -0.07655394654951207, 0.04280409220029868, -0.0766136395023965, 0.08682558299065797, -0.07630202949345431, 0.025452472986892526, 0.03213033349549299, 0.13520635260127065, -0.12829103238495762, 0.1464129103986265, -0.09389870226915988, -0.08213489674788077, 0.07645471534839585, -0.1549970302338435, -0.12719647813595206, -0.028708184759004968, -0.0015295237483748752, 0.01029074080943506, -0.06612207231984031, -0.042727156440683624, 0.16843344068257313, 0.04880428461249173, 0.01115405126492977, -0.051760364106156156, 0.049771595256866086, -0.08726045457664292, -0.07298739817598923, 0.108693127021281, 0.07776053994777588, 0.05819016043643613, -0.038561715026772636, 0.12067300571359105, 0.1541233815617323, -0.11945113769798131, 0.006571737492178883, -0.1530021294844, 0.14970343652990872, -0.0642810085929188, -0.12314520378004438, -0.11575911800171887, -0.03355505933868607, -0.09526366151662799, -0.05080076007911835, 0.15931099141256153, -0.1680228831130722, 0.08687475230810625, -0.058886037178486936, 0.031089666693227876], [0.05527157508104022, 0.07337437465583413, -0.025746013530363505, 0.05910295289298082, -0.08041115076473862, 0.06304725193476432, -0.045085486765169845, -0.17285711325709557, -0.13855383033919455, 0.1258723378953343, -0.1686672288754537, -0.13021512880392874, 0.06214381250027703, -0.16400471995338373, -0.13282957709723056, -0.13839646974795172, -0.05069183739608276, -0.1497271518063353, 0.14037877700627746, 0.07641723317577696, 0.027569560922112955, 0.06891228504475486, 0.013935698280169983, -0.01270787894463074, 0.12482772681566501, 0.06815124139541803, -0.14345441506588466, 0.09956296610029569, -0.09992978114830868, -0.08369183726232825, 0.04104070870371798, -0.017181761198602943, -0.06781251415232253, 0.03790562983499477, -0.12427061635764286, -0.06967804275648301, 0.16373872030476966, 0.1270403406363982, -0.05319121015913911, -0.07213771512725316, 0.018119576956513752, -0.0482309911966275, -0.0567388711142852, -0.11347517177553237, -0.15987995390135998, -0.1585930720006622, 0.1086683193263782, -0.012226894004302252, -0.00992753966241486, -0.008399224657133934, 0.029983613888809206, 0.11870104820725437, -0.13192882076334986, -0.0004766626350050096, -0.010989128596177056, 0.07688609886564235, 0.14693614614464914, 0.07170582156315847, -0.03794463256520678, -0.0027539003213065774, 0.006911053595424516, 0.16426020210538345, -0.0035019455183614434, 0.05097686763071595], [-0.02504422189102154, 0.05632104033932564, 0.11181968736676992, -0.08400759778080999, 0.14319732983981273, -0.09008907502022448, 0.1280165555466445, -0.05160428284946464, -0.06342129820451771, 0.06604351237481648, -0.12013978836216632, 0.05268562606826768, -0.05564803263226137, 0.09559893648975562, -0.006070150366698612, -0.16245050980386694, -0.07643865597287305, 0.04501206699739099, -0.1478250210002038, 0.0326177716942484, 0.053912464369114454, -0.08573964981274232, -0.040700947352595995, -0.15970035329437068, 0.030325404319649113, -0.0932243332377925, -0.051645013009254254, -0.0922636122458011, 0.0303710535141688, -0.14240106045366666, -0.025199668743670967, 0.04854045002530674, -0.11534602945529263, -0.10072078860102449, -0.022440236813024317, 0.0583679721780862, 0.15607081880051274, 0.10060782545665067, 0.022814362745066347, 0.03667442766240564, -0.16686279615363825, -0.13158584537199602, -0.08455782478254253, 0.14516692521392852, -0.003620794098804808, 0.1238264560819313, -0.14082809196631838, 0.042027947072745986, -0.09780841260147281, 0.0895091386400034, -0.05143322833009595, 0.07375832780528133, 0.11308453965480789, 0.11058734361221603, -0.034152657505960804, -0.009857799109938198, -0.12287664321899643, 0.0605671583203026, 0.09217009361734593, -0.10582506893320733, 0.042584116798636634, -0.07374347563409492, -0.08134433388717323, -0.07383408734979967], [0.08690662095282217, 0.07777883048799657, -0.13385410841492457, -0.01601086274727194, 0.12634479357420506, 0.012307794326585235, 0.015581384816904697, 0.0386293849444965, -0.12517970041920962, 0.1191506902850932, -0.06677430644205662, -0.14178614581649368, -0.11079412188466843, -0.006101501247486041, 0.1509950649251012, -0.09893525623207672, -0.05248131697309018, 0.027020970528298764, 0.1243809479019535, -0.09015987723928338, 0.008428004788808558, 0.17154400640764028, -0.0796964873557071, -0.04921761942827471, 0.13323466045261356, -0.0701590576351588, 0.109882954140445, -0.021125130061776427, 0.1155781744098868, -0.11293825366843553, -0.012633172857612925, -0.13726390204882255, 0.12396748765544413, 0.16727334095122634, 0.01745459424553444, -0.11189838341652242, 0.1496609962766478, -0.08161626046032944, -0.057392677197894294, 0.06731194098894544, 0.08160911513492032, -0.1127678922322167, -0.030935858339094947, 0.08440830934062363, 0.15421987615068644, 0.02792146173561777, 0.05642469999125172, 0.0677467262590777, 0.008230350021440723, -0.1363450981509854, 0.0787442559425551, 0.0925146094199478, -0.1483551373753667, -0.14290409928984227, -0.10305697464567772, 0.07651742376377849, 0.06797761884405694, -0.12410925463935478, 0.08906171826037854, -0.13477157630146105, 0.01276196233756785, -0.1608752412804617, 0.1592389584378219, -0.042125898529851796], [-0.08255120929260808, 0.06979261204568629, 0.16183300120391414, 0.048453912212092554, 0.10572273580640515, -0.08875476574581095, -0.058571754395503356, -0.10723063271336432, -0.09262464243365609, 0.10123790416071468, -0.04301305964431621, 0.0537599971629269, -0.07648471661878006, -0.0857878100845772, -0.13777559463252104, 0.06915997165574166, -0.16126844280369876, 0.023257404801699518, -0.05810236255005098, -0.13834322652240863, 0.024831555360335055, 0.10121628895196645, -0.020264370411097844, -0.015453611028752173, 0.15353277593522346, -0.10801271158845627, -0.14556274729943147, -0.00325961893958166, 0.11694916629193094, -0.07388436837968917, 0.04533875123082146, -0.04749301665518404, -0.12106471324296389, 0.0752131385627922, 0.011326384006330487, 0.09045788496666862, 0.1307115598552863, 0.1760614520479127, -0.0013638948374807042, -0.09302747688623662, 0.04744076146383647, -0.16209794568143532, -0.004375812929463506, -0.08686593771899384, -0.05293881030430569, -0.05781201201813202, -0.17650739755235687, -0.03466286120789039, 0.03398370188158483, 0.06345596339481283, 0.10878551969972557, 0.02145702428116794, 0.12386648483497734, -0.01743095931428107, -0.08264053475171639, 0.11815085503685002, 0.12057183007322556, -0.06544855023077398, -0.09075305190495486, -0.010949180576568487, 0.09006992405957623, 0.1361051868455011, -0.03225898731459617, 0.14717200438443315], [-0.11585427453464908, -0.11573522557596624, -0.13911810865034688, 0.05854591990349137, 0.09670112591904537, -0.12171568484230452, 0.01771144118898458, -0.05522723322834902, -0.12437964050513672, 0.009726635544817064, 0.09519601872333427, 0.0055499669399191875, 0.13219881426537008, 0.1009879953762585, -0.065287109728808, -0.01480915504143491, -0.09632936113798211, -0.005409585805284094, 0.15047760392155504, 0.08694168601999175, -0.09506814255392013, 0.13247491904262484, -0.10051171809172, 0.09601668769241531, -0.1407391701528266, 0.08277395855735803, 0.17258752027501836, 0.1400368637073459, -0.01563122714114537, 0.009452327632859163, 0.008542667432996557, -0.09253444914794141, 0.13070355117412813, -0.041877657953150405, 0.08529123685720909, -0.031889762031252766, -0.0939049515691651, 0.07924527633235348, 0.038157537004970245, -0.08209849735900032, -0.10227510062533682, 0.08352134352724296, 0.13900962685157334, 0.04476736551249161, -0.17475628874654597, 0.05904682299516609, 0.17556882144611596, 0.150284554165078, 0.028546651873163027, 0.1591548409602003, -0.07975764097048432, -0.11515938071956397, 0.13166407706882302, 0.1535346549004575, -0.029834644736256296, -0.1269089742552764, 0.0992775957159815, -0.03744878829531306, -0.038192791382729546, -0.11574295430260306, 0.16497466360506116, 0.03248188146513713, -0.0361375757011172, -0.07116437319111768], [-0.06885687563684374, -0.014402310605728566, 0.15901414773261327, -0.11082816503517993, -0.11609715952136337, -0.03577427005010589, 0.05346993764466468, 0.11097717522272676, 0.04898146953845061, -0.16789499220187507, -0.03710852142224471, -0.08901901594285205, -0.17283240948764061, -0.13577343819235796, -0.16445560912976967, 0.010778990228293706, 0.16323121006588912, -0.06273042710284654, 0.005890301308470736, -0.025288958501739803, -0.08117818948384663, 0.1698339513335012, -0.16592912160324433, 0.09817717660100642, 0.006516536912558094, -0.05748961563235804, -0.03794718471113118, 0.01571149559604919, -0.06414999700273769, -0.06759025571884793, 0.13803973662541605, -0.08492068049447474, 0.06358009647460504, -0.1310106628957522, -0.17419137358370987, 0.017238290753350947, 0.15329038775162804, -0.145347593190563, -0.07396160271530816, 0.11148867454311127, -0.10338445807428544, -0.17300226397428295, -0.16693763766926956, -0.03240328749693036, -0.057168638360590836, 0.1699248841167341, -0.08945914753666612, -0.07288280736436667, -0.14992399443475507, 0.03485030819028346, -0.07676615814509406, 0.15858318133702962, 0.04355818240730333, 0.02905898334110074, -0.03438985545323322, 0.033885918284871176, -0.09872964484470467, 0.04805897280800589, -0.01349218015919581, 0.01637831141512361, 0.10043272319915295, -0.09026512166253123, -0.09700501411334746, -0.014637309504023819], [0.14852955395711312, 0.12772184945808804, -0.09673158850757134, -0.1543238907562867, 0.07393661318591652, 0.11487312271864557, 0.17374237510632726, 0.054811588203974776, 0.1684887308799703, 0.13724638657504104, -0.16494424245667663, -0.15261874554387664, 0.13714324676871262, -0.14820339996848314, 0.16136444423661359, 0.14892378349641264, -0.06657929788121293, -0.02034155867792339, 0.11658497377582541, 0.12068911462536851, -0.16569779752575667, 0.07151530628347266, -0.17176996126195285, -0.10023645312587796, 0.04990764631643016, -0.0999152714531073, 0.0767706250380811, -0.14899642063033058, -0.04030058266595954, -0.041284145051248396, 0.037389203169749995, -0.014709376211329684, 0.06578107454008154, 0.03642534707552443, -0.09550625923070569, 0.08728314640631449, 0.012885017387805198, 0.1151359231265903, -0.06795054567510073, 0.1658777773590118, 0.16931414377218929, 0.06347968579603644, -0.14688384537836216, 0.13844880836708653, 0.03646460143829552, -0.1531081633830931, -0.024362739521694033, -0.08279837337712707, 0.16158690269701992, -0.14862086231372387, -0.1153147289230892, -0.14833889641914225, 0.16681762888738397, -0.17144907943745172, 0.011256465527573483, 0.05263687884626386, 0.08944315024534681, 0.12301395693058739, 0.03923180311058678, 0.058184624289014476, -0.17349192841651365, 0.0256341044160367, 0.14218219752117303, -0.15813737656856505], [0.10373402835309944, 0.01464565329222624, 0.13284053606585547, 0.16025227810570272, -0.002304047392110098, 0.11426766469244805, 0.16607144251729186, 0.0008783312805996368, -0.15008990815085327, 0.05960763603452418, -0.14320242014638548, -0.1397510176479209, -0.08362989112420527, -0.11313418380596268, -0.08188941829867763, -0.1702375894153134, -0.1144710952284375, -0.051473737861263164, 0.09640402408749951, 0.12020801796897262, 0.023275425500090152, 0.016958709519632582, -0.16123755457583466, -0.16528493939199518, 0.021754852336826, -0.12338700195260839, -0.007860629829564064, -0.01910544328972465, 0.11280637114586575, -0.05651279204396344, -0.1633211227287465, -0.0010026696539240886, 0.1393557066190475, 0.1522779758432031, -0.07953414347868873, -0.16701940576632962, 0.11731664583594067, 0.01783741354754259, -0.11990194872511105, -0.1760927201671021, -0.15905307944162236, -0.15622223058951032, 0.13988170356365, -0.03030826714933904, 0.12161108914984059, -0.006881568813864702, 0.13397198273204092, -0.06688576571136759, 0.1714043027373491, 0.11812341458770323, 0.06289701319051333, -0.05726353520643021, 0.007846462249183644, -0.147750283411933, -0.029228567727108714, -0.057670535635835185, -0.01687258429876462, -0.02692798970062607, 0.12114478266075368, -0.17502217315115076, -0.05878349705878949, -0.03705714195261624, -0.12109976394422459, 0.17529700180637317], [-0.14780899502154965, -0.09195738018043391, -0.028605000292728368, -0.10461308304863684, -0.06082755246047532, 0.014846482354066742, 0.014099713531752463, -0.11617075462579073, -0.13142701552897781, 0.14114052787415257, -0.0557285139882059, 0.1215012912209075, -0.045375158490192795, -0.07039224134808346, 0.011237599908316855, 0.09302584460489846, -0.0990955282144602, 0.04182908575679738, -0.12045136759359161, -0.10251037223688454, -0.15297900297238057, -0.10403674525304012, -0.11998118870702197, -0.07224891204169105, -0.03679021246265045, 0.03982116885825464, 0.09526720878745856, -0.012068213591791822, 0.013062949573890842, -0.06139134814728739, -0.03765668109876942, -0.12662281605772166, 0.11753043994323688, -0.03552011553860859, 0.033308579254170634, -0.08422676410464185, 0.09726011334441287, 0.021922403019163372, 0.09810860765919696, -0.07702896508694897, 0.03834299018761787, -0.024790197982218834, -0.08576587718152805, -0.06307527770497955, 0.143118718160792, 0.057427027609792375, 0.04511673550412794, -0.0718714407776709, 0.1337983918383886, -0.04104440887769707, -0.12464627789984294, 0.17165208086782247, -0.11469915502742017, -0.16921519873587224, 0.06340030944987664, -0.1727029562960257, -0.033149988479925244, -0.08153446225779372, 0.08442559361397503, -0.08213626572881232, -0.024119441674097658, -0.0689628422640326, 0.03263558384841839, -0.03568999213973319], [0.016001994102495642, -0.09333222932704506, -0.09870682816590971, -0.13858336787725123, 0.03362893574824061, -0.07173191321741244, 0.09176810460970944, -0.03386477533795687, -0.04300868442459513, 0.05130865197881984, -0.0900652231961443, 0.12177065312336469, -0.09857286566599606, 0.07817923211263503, 0.1329324299207342, -0.0605440032722641, 0.013125789896969386, -0.08783936604171254, -0.15881245303445837, 0.05697487322565503, 0.1431166565923662, 0.06251518055267125, 0.046010778411756076, 0.030749740956228566, 0.12646165809429147, -0.03923221090150131, -0.0434336421559155, 0.031462332394461806, 0.02961996094437666, -0.1755888959458133, 0.029838006675316275, 0.010148440042014345, -0.06803697092964126, 0.11922118510965038, 0.04400974609395136, 0.06995926048162243, -0.0857592401939797, 0.10658448388998046, -0.07775858129079562, -0.08252205163207262, 0.07164281865614669, -0.05562146720203985, -0.0850870454409073, 0.0066542956788177565, -0.12378887226921799, -0.03933043304641268, -0.09802941661671011, -0.12420778723555592, -0.17083457148611822, 0.14700580415153494, -0.0990368783530947, 0.14730375523049447, -0.15040982767092076, 0.12407084986075076, -0.14842535881032098, -0.05209688888657793, 0.01637496565118024, -0.09153606707886842, -0.1365426784640706, 0.02516456981023915, -0.12037818737155741, -0.10625323069347525, -0.1267482707965087, -0.009134237228855951], [-0.10434711127263194, -0.02893864992477183, -0.14227572447556305, -0.16662051305523395, -0.02553627846205908, -0.13725811397412074, 0.1510971158932368, -0.12784184183820116, 0.037588722878842316, -0.0647830397731156, -0.028603000410425492, 0.1419021861423461, 0.08854748745374631, 0.14333668813303654, 0.1486369568477842, 0.02362840584222551, -0.1091454451882283, 0.07760711745007674, 0.08554222728375901, -0.057438739525053656, 0.13372949446214982, 0.07631160152888178, 0.11229033111030517, 0.07436255177385101, -0.020088476017577094, 0.03160937981775412, -0.029942618145911287, 0.14815047404980125, -0.14281465677831542, -0.0659947233829267, -0.020536877498420453, 0.0832077317102842, 0.053270286756915905, 0.0710692328564285, 0.13159091858997005, 0.11907950576755545, -0.044347400892427544, -0.16905307587796264, 0.13692031137925512, 0.16798946090552525, -0.13572232389991945, 0.15019507611325517, -0.15526003439659175, 0.1458979483073529, 0.10526006146701228, 0.10839356287447169, -0.02430566780311925, 0.15087280417448942, -0.15577186466235188, 0.01613561632615607, 0.03458464365058864, -0.10325538507839287, -0.11773177201789842, -0.14962151428305773, -0.15033777744438945, -0.12117879276663801, -0.08436610646012815, -0.1150309119020757, -0.00987836621503785, -0.07669577511593645, -0.00025418729642021076, 0.02954139474270854, 0.004029566877125357, -0.12018252316073899], [0.17021135565087506, 0.07383990171928113, 0.08923691913253211, 0.13827384270391369, -0.05452888158306682, 0.046933345109029544, -0.09682668037879977, 0.02271495685796469, 0.17382614114128278, -0.10897842513544051, 0.09388453453421587, -0.1465082266658806, 0.12843693557923316, -0.16239949262136472, 0.1315845385329659, -0.02810786517434179, 0.09311960549889409, -0.09604775842861808, 0.06814394180557554, 0.09486364312580449, -0.015399613672352312, -0.05065467301037082, 0.10508311505194604, -0.16245385422949166, -0.020305889145195506, 0.11620982872044375, -0.02943372615719314, 0.08467459513267543, 0.10276830939661699, -0.1535656857443395, 0.06653118994367829, -0.02293187531367806, 0.013782986800690337, 0.07247029667318466, -0.16437990670110755, -0.06843199125439567, 0.16812234553935143, 0.019228148801740924, -0.14403739007592803, 0.05272578602023019, -0.11930905474877171, -0.10027286628583111, 0.0410848980298499, 0.02529224608026881, 0.020804027702845628, -0.07485668598838338, 0.09203925257701728, -0.03636110427180602, 0.015702459905964958, 0.04663666282409867, 0.13978551778830625, -0.17162517302978902, -0.12488707244841876, 0.05347786150380074, 0.1176412444128416, -0.11295502493974902, -0.15195698313670794, -0.058216868359089555, -0.00553094285732598, -0.053138165751475314, -0.06383060104460912, -0.03411550201357643, 0.028882953950865015, -0.08075480971610269], [-0.15525544373661077, -0.09995204196242537, 0.011349231868473123, -0.005851149783485649, 0.1716515670881871, -0.02001685974956774, -0.00991394889637882, -0.030329906046180122, -0.06938988211124146, 0.08747233750074951, -0.17127647637315258, -0.07399524526806926, 0.0848472436641585, -0.14411698275996862, 0.08501226536522308, -0.13309010679832758, 0.11760639315622573, -0.011092775521304613, 0.011333841872331912, -0.15728659918253088, -0.017827827385504647, 0.13614881092718611, -0.1727483912445048, 0.15347888287768066, 0.06973156819604427, -0.10269704984104992, 0.1444596557940879, 0.0561127465496796, 0.10276260717957023, 0.027728683062203992, -0.13156524187231242, -0.11665667306632972, -0.12763836809032963, -0.12592392104102426, 0.015104709599187909, -0.06630142990810081, -0.10587857922302987, 0.16094560346525402, -0.09666254544148756, 0.159472621373642, -0.12786864612656496, -0.1638057789394192, -0.04586736703232516, -0.042337980765299654, 0.16776319616266072, -0.03129421433666185, 0.06501471066494113, -0.010294801490867532, -0.0027516321439413284, -0.06997375190490732, -0.12345905501215779, 0.06410454842524091, 0.09108164124267995, -0.11352122754456127, 0.07384734272774958, -0.039609390086936876, -0.04267614953098766, 0.017356742243437445, -0.09072753889757944, 0.07702515745724742, 0.03289206190759253, 0.15222965550336606, 0.010992417940591498, -0.03106264502018526], [-0.13492155751978196, -0.15227083791814516, 0.17077260067229985, 0.0970323035769923, -0.08478052492082129, 0.10635142088445768, -0.001987459182792445, -0.0375228057311387, 0.16881838208856717, 0.04451442443793477, -0.06016552479789708, 0.08481272227202555, 0.03850564887813007, -0.003229530194515051, 0.1317920375742941, 0.1541498957586472, -0.11178433387907713, -0.09336376177665834, -0.029691989542452446, 0.06213509809896872, 0.06321414912094075, -0.11570410216560553, -0.14347066952773296, 0.1654652923971708, 0.0760234496213317, -0.1440511399738529, -0.1276596162123733, -0.02035138808031789, -0.10595582813973536, -0.06338258353235447, -0.14019420386277204, 0.15321659184768313, 0.16504273624636315, 0.09817527428484538, 0.09183134684444452, 0.08311737496831142, -0.12812681334590242, -0.12653754060209133, 0.06915014370672032, -0.0837851722234143, 0.07270824939454379, -0.14637052679856472, 0.06218727663486284, -0.12921910751384402, 0.11291353419371206, -0.127469420638262, 0.05010708659402341, -0.022420188715312428, -0.15895873445282982, -0.006569957154315215, 0.029201208460191197, -0.08366877488046541, -0.11331135994484397, -0.01719259238312104, -0.0356514076833675, 0.015031663685506458, 0.06406580130846457, -0.056307387582161764, 0.0455375637478341, 0.043041266232491854, 0.0074002650601307784, 0.05745693410374367, -0.13910638264061853, 0.03337342695964027], [-0.13798012162051287, -0.009167864838222767, -0.15970956314153278, -0.17365532223506214, -0.17305011192791334, -0.004994604423019272, -0.11852568503669725, 0.10257621748358417, -0.11066388082801874, 0.0008829565790892946, -0.1510254554443152, -0.03835557178546575, 0.00924088990517824, -0.16822190102523377, -0.13016248793444551, 0.11312751124248119, -0.16976064043531888, 0.011463229578759282, 0.09980893804864835, 0.11091178331702731, 0.13010787443017421, 0.14795497958660594, -0.03716521730462957, -0.03429461440332143, 0.17321606112837698, -0.17201793700174894, 0.07321436875970255, 0.15835365284570316, 0.007927996848757002, 0.013277789129024664, -0.022054886211283015, -0.022528046533868917, -0.11614354006548935, -0.12426387312647608, 0.009134762303908917, -0.129757893865234, 0.16802537777581325, -0.010760455695123183, 0.01155321566201678, -0.13269635659221818, 0.10093687274609867, -0.016521417453788156, -0.14379317982317408, 0.12469856550872646, 0.09817228791090135, -0.000662481557329897, 0.10834585284865769, 0.02412639574401465, -0.14008083641401353, 0.0025322066773242613, 0.04162796299106111, 0.01334625606009171, 0.07669826314895281, -0.14479855377464218, 0.08940791346489887, 0.10176148713092034, -0.114242470038766, 0.12780650177389738, -0.09026335298691596, 0.11426385175009515, -0.11660011312863847, -0.1542486415515158, -0.16175277670669158, 0.17280547521630577], [0.11099875067435258, 0.11913725686442378, 0.0383174564377964, -0.14089604164673117, 0.03290807493121664, -0.07223983617021076, -0.05720363051547685, -0.1021323363874316, -0.11893410477238475, 0.023820561962127867, 0.020946262478546765, -0.04646622208338394, -0.11827597911447726, -0.12777847308015622, -0.08081064710979592, 0.15958820407507204, 0.04036799896699443, -0.030536684441984378, 0.1475821919826993, 0.12860851887191946, -0.1749919207290139, 0.13537285710111174, 0.0007995167434058317, -0.1129330225286601, -0.06750530817449041, -0.06560030744817216, -0.1105519003786251, -0.0956547681552846, 0.11417356572374784, -0.005718341499743566, -0.04867734043709425, 0.15034081496841536, -0.11658319463909632, -0.021352957152975194, -0.0653114265445636, -0.13988155609606145, -0.09081488876696497, -0.15619558530295663, -0.16120031644779972, 0.13785016287176194, -0.03596112893563432, -0.04605025779896621, 0.10850586377310151, -0.09995386620599567, -0.020606697154550584, 0.12445659460560163, -0.14995140884740762, -0.06946403803676109, -0.13307629178431368, 0.16351559532434654, -0.05155017854017929, 0.042039969365087526, -0.02554897623180538, 0.15330646377396204, 0.11861917280905758, 0.015683855864392027, 0.09514354128371875, -0.031938220448060134, 0.08974045773433892, -0.04862306234830845, -0.11382452821830921, 0.14542130947420237, 0.11271817232950768, 0.02979009675345254], [-0.12825401504990946, 0.14241601752572833, 0.1519608264154734, 0.10206108783576356, 0.13216562333276763, 0.037238415501894384, -0.055018882436645426, 0.08875091899741865, -0.02237232232003321, 0.011555294493523134, -0.07144869820011225, -0.05790705386644178, -0.13849511904594888, -0.039080946380857184, -0.0010572218222572038, -0.14422012639976162, -0.12551566015390025, 0.10827930267618542, 0.12664782310921172, -0.08849783519400427, -0.04555571115727372, 0.012962166115060104, 0.12288144542564156, -0.06466854563914529, 0.08910517110255753, 0.03844120414075826, -0.1480619816842479, 0.09061371456810623, 0.15257446985033143, -0.024740315551701968, 0.03321467908367911, -0.027152362683274922, -0.14478116296432383, -0.16219300798450076, 0.13669679555871486, 0.137450030929757, 0.11407899924707822, 0.08968706188424155, 0.027414569610697007, -0.17508632062432117, 0.09521449633758983, 0.03090062957259511, 0.03298874368256424, -0.02781374645886195, -0.04706187279562102, -0.16752108235744598, 0.08304310080590485, -0.1339537229830837, -0.00719517014391408, -0.1690666875145195, 0.051429830090949896, 0.1619391767432061, -0.024949646451850632, -0.12302913322320919, -0.11622679786911512, 0.030842486745122938, -0.1740682915089145, 0.05012047247838322, -0.1308152621772256, -0.12825427659669728, 0.016560802045949202, 0.0072487455386240985, -0.1310082932674909, 0.14764827400974728], [0.09968364443396657, -0.17036438457691364, -0.03009847333784219, 0.02334659522227441, -0.1528311930895842, 0.10639851979930741, -0.05698474681489835, -0.061477334518058285, 0.05525840776694612, 0.049103448802547994, 0.035472573002229314, -0.15870517270408577, -0.10283639192162465, -0.062032634753473107, 0.13143166993526148, -0.08311665657083217, 0.06089034015791526, 0.01548319344074119, 0.08518039360473359, -0.13462969614212875, 0.037092701594695306, 0.07790943363748598, 0.1189583773638111, 0.0869950625667433, 0.02555396962116941, 0.1255960518204256, 0.06633977300130858, -0.04899836738371036, 0.04308749928565497, -0.020017710201427934, 0.03321978057772768, 0.15327380679308755, -0.10056334605278232, -0.09098147016759286, 0.1670062192755617, 0.0771972181309247, 0.14602666442375736, -0.16172478157884257, 0.12751939263200746, -0.13902263090878952, -0.1397060948992232, 0.035921551637775176, 0.09024761398110737, -0.0507770897864121, -0.03318732401184276, -0.09113785403889631, 0.06297785303506998, -0.03350831816946654, 0.07085497502058048, 0.14543880954868435, -0.08462770966107686, -0.1020781621807792, 0.15161656809154242, 0.07662343535424496, 0.008930728113353091, -0.09938790271436267, 0.03935108449930172, -0.10642315367956806, 0.03073370791102664, 0.060440517871417715, -0.026169137323025476, -0.11571867020724276, 0.15883203371180302, 0.03044735118341391], [0.13605834708820866, 0.16687439585731734, 0.15018367786953946, 0.05927770530097867, 0.12242463070913792, 0.07080112725800677, -0.06363449953482761, 0.1636812518552781, 0.09078419205325332, -0.10439406188397783, 0.14411661249626492, 0.004181599187390084, -0.0746650654452766, -0.11077717571661384, 0.1027537581372213, -0.048403470737712465, 0.16241488496440376, -0.14328494498932579, -0.06482121082371992, 0.1629317425553703, -0.03321005346336017, 0.11818169702357575, -0.09459767415477507, -0.15396983276173623, 0.1213731332177411, 0.05781445057713473, -0.16956353418084416, -0.053297027228932974, 0.10303271829307467, 0.080560184221129, -0.13099081700301501, 0.0797637297286718, 0.055282232850724006, 0.05373386199333106, 0.13039020501121243, -0.05419976562024515, 0.06441859265532435, 0.11563216142124058, 0.16370345954166837, 0.14640241476819355, -0.07274973457993887, 0.17566862939027034, 0.07249532106689961, 0.1440750500823664, 0.1297036524600124, -0.02301945731541799, 0.025637873644331545, -0.05189665492762533, 0.15373614663535087, -0.17181895930672555, -0.15117973183503733, -0.05008147727563967, -0.030859811395340886, -0.0031368775202657295, 0.05354390343355459, -0.03891082122045967, -0.16567129934403893, -0.17653732810784198, 0.04355132520436985, 0.14327704730159932, 0.10713897477297465, 0.15371276077855112, 0.06683123694775062, 0.1354494851574527], [-0.00103779798283829, 0.17208542919374956, 0.05912816351655746, 0.15026316397103082, -0.10589060593210492, -0.13099896303680422, -0.0028057260378301697, -0.06400569116118385, 0.029879655332203194, -0.019600790101508697, -0.12086913885366021, 0.12228368895382905, -0.10190724749331116, -0.11736925323502255, -0.05920575736171959, -0.04677959585719979, 0.15399828180682426, 0.05373856531827736, -0.14619770530284282, 0.049240379209498135, 0.05508044095081113, -0.1659723943221953, 0.008534518338332464, -0.09861647809722067, 0.06530008962240093, 0.17614617135006344, -0.15342625406915084, -0.17542317448115646, 0.007722885971065768, -0.015311461131506636, 0.0017907209978278275, -0.15466957002061846, 0.12394881551046802, 0.058657819332142896, 0.022102369417418073, -0.12108072098258668, 0.039281101115479534, -0.011079675452369736, -0.06642549082378593, -0.051321570767195, 0.10810769840012811, -0.050708521443694796, -0.008524111118395237, 0.12198189261324313, 0.04195292918011299, 0.09223501500127293, 0.017725339242136904, 0.10294390387120486, 0.004185647592856067, 0.10286731538544344, 0.041439108473563996, -0.0049897753640889, 0.03921111759809512, 0.12047461304430182, 0.1590890069099065, -0.08445381185658805, 0.0890666931900938, -0.07824069840407408, 0.17217801033957972, -0.05657034394006063, -0.15564470182610668, -0.02391879532272033, -0.15639753242741733, 0.10054658832476862], [0.060990256083108374, 0.11684708353938775, -0.06977761968104294, -0.06077468109075181, 0.12896625091541805, -0.052610390794065015, 0.03766996548932319, 0.012420063660347234, 0.14542884759773644, -0.07532829615457354, 0.1267097641614521, 0.09023865961559305, 0.1145540059998877, 0.08968639276235044, 0.013503815982153389, 0.08694146335165533, -0.03463223507936468, -0.11237131603047557, 0.03418772215576937, 0.15365409179225517, 0.0720516668075424, -0.05920541163502283, 0.03786581696971558, 0.06269613364921323, 0.12367301458212707, -0.09106201009086322, 0.015106545138526273, 0.11099329445809022, -0.13330817124934202, -0.1425608496969444, -0.033502490188137536, -0.12564550047585693, -0.07370983708736804, 0.11946207750132071, -0.10006890661907639, 0.06382403645858262, -0.10720195740561282, 0.1674378685718277, 0.005186839082204949, 0.17029962993904252, -0.1652708498324066, -0.1251493301303841, 0.16610810348066654, -0.041918958049392774, -0.0951404034877522, 0.006078799793250683, 0.170116706644565, 0.05173578469766721, 0.03498355493524116, 0.04949881155206969, -0.07783164817732875, -0.1444496335997642, -0.10307282602207277, 0.03231026463754791, -0.0026948129339728, 0.09997178516460109, 0.023135067831179447, 0.14652128414444163, 0.09065559651898483, -0.005757919759198882, 0.11582235764976004, -0.06871917324464934, -0.023877761376359025, -0.024350367515100925], [0.16139085534309625, -0.010380843753597213, 0.15135930817078616, 0.08775203793247385, 0.05797962110144425, 0.054135203230752965, 0.00778288973338534, 0.1192826691986735, -0.014706830433841134, 0.06101565751088689, -0.16307843029161334, 0.0029567933422639525, 0.019235048047189868, 0.07356187337633993, -0.08990265135658294, 0.008617115308035356, -0.0016087943284865402, 0.12023129847859512, 0.12817453521355773, 0.04185429810174909, 0.05122122312302821, 0.10410342567140887, 0.0018084824050087767, -0.15153980397869496, 0.04311079791215758, -0.0899030009587469, 0.04195393816229251, -0.07581648999385956, 0.081046635504576, -0.0790538795615235, -0.09707482880592977, -0.09469681967240429, -0.09406577555576368, 0.024321192898725086, 0.009405592003774887, -0.003763317524073162, -0.01532601063649705, 0.17493238863318447, -0.12476303470336125, 0.08189964856519996, 0.14927762433613953, 0.09213307612083507, -0.024936750654698553, -0.0579300394804302, -0.15533839646669326, -0.17242717614325517, -0.07379594217105546, 0.025402481959724554, -0.028150276478730196, -0.025925602865355724, 0.02959005177454982, 0.02480347004210301, 0.15653659757125107, -0.07918036185343276, -0.1450321728470001, 0.12191812975472119, 0.04512101229718393, 0.019932521743654785, 0.10959590516542592, 0.06050889051997299, -0.1577391205760949, 0.14673685867801847, -0.08181998772309039, -0.1378291587320298], [0.011984210212359625, 0.029396892823979455, -0.0018217671660259946, 0.03706351959745702, 0.13527908120285095, -0.15621111734345225, 0.08406698019532124, 0.07725039758145795, 0.1487607367696947, 0.09005871958709859, 0.07156651770956178, 0.13313581705649527, -0.13836530752874188, -0.062018983817620166, -0.06610424233198461, 0.04261044849668263, 0.086967009371375, 0.017008269465089317, -0.0236742106009471, 0.17592614908209891, 0.1544188016256542, -0.03705071776502319, -0.007731385518504506, -0.17463266694931318, 0.13259013298123787, 0.10645550603816595, 0.027836429089427545, 0.059361555596059656, 0.09422355356761722, 0.15843427091103648, -0.1553063068836092, 0.054992922896471536, -0.028303245749374248, 0.06987589241479555, -0.052203835112728574, 0.13239431013192388, 0.001366137983689305, 0.020671212985119564, 0.16356734063075168, -0.15135495741016397, 0.17394374949274172, 0.1358468679660365, -0.1094544786424959, -0.06911200464222134, -0.05399092412606011, 0.10160512227078819, 0.13220838649701772, 0.014235334840228342, -0.03610879030228142, 0.04480177105653787, 0.14368527201439113, 0.024016335021397862, -0.15646312316005367, -0.14135970534819675, -0.015924627597320492, 0.09976828031904723, -0.03681173881157802, 0.13328471588866134, -0.09085332713750917, 0.1545003966924183, 0.07704388447604302, -0.047159855245634985, -0.11315450982376211, 0.17240629456451767], [0.13619007804715197, 0.08411291281201895, -0.013967682652442307, -0.035965228929786645, -0.13024477598564013, -0.1126289708682847, 0.019685080414600833, -0.10360893888453611, 0.09765998596398212, 0.1715437673934894, 0.11575735102086236, -0.14964043528928678, -0.09871894714518785, -0.005882357221735718, 0.04608044017656624, 0.10643267797430177, 0.14464266067584278, 0.05827994239286332, 0.1242452888496133, 0.12604273414590464, -0.04686930726361917, -0.08857054902108656, 0.04197262164117657, 0.10890215614153678, -0.06306770688446282, -0.01011089898945743, -0.08471693412413603, 0.036458042191855305, -0.10093996662317856, 0.16336360441986994, -0.11179333562458725, -0.10829807628306819, 0.056559206665377094, -0.12782026198794258, -0.04415131704755452, -0.0375537067213567, -0.15746000348255587, -0.1579195731677484, -0.039796514944109816, -0.1470426433770765, 0.05274264028724646, -0.07079347212763712, -0.17531508890090228, -0.14028717101351007, -0.06321877235946212, 0.14414012241433358, -0.08964217737831529, 0.060334607141279584, -0.13342904161554486, -0.11358546935432351, -0.1277044903733053, 0.0748009476939098, -0.07044183741432627, 0.047845432775988156, 0.08258145099806258, -0.12026927117271521, -0.1328404868398701, -0.05703352781482052, -0.12588192435303114, 0.16417929049818658, -0.06944405691001643, -0.1106024134082718, -0.09594261466941578, 0.08781609729177205], [-0.09734211221040165, 0.042447230466957565, 0.005768624008347959, 0.049552286771268626, -0.07382546965696181, 0.012150559108742116, 0.08742415492626004, 0.027394343947201142, -0.08390809473335638, 0.14721418896646332, -0.07158792629150236, 0.006910880875472314, -0.08359982658567416, 0.13760541187269246, 0.1587761644589194, 0.02115145103831734, 0.009026495238729332, -0.13340998397917964, 0.007444133028002564, -0.14781201963714533, 0.1192137333077729, -0.04200111767997204, 0.1760358926613908, 0.06199679084005413, -0.12209552326996319, 0.12452393933249001, -0.07469176859864753, 0.03380326589078486, -0.07698987273240239, 0.16926946057534265, -0.045456523039224914, 0.046903920112869375, 0.0005167343346797411, -0.13268354595073617, -0.06389646589728189, 0.040567046422541934, -0.12892767781327097, -0.09115715028290285, 0.17202899943905678, 0.041331681712257186, -0.06215736175620486, -0.16447350519564494, -0.08196730873227487, 0.08831275089796095, 0.17374525559333873, -0.02095016074100356, -0.14862840432053864, -0.1513867821062901, 0.1553998408054411, 0.0802653409709827, 0.07250458406445569, -0.04717045819734454, -0.0290749201006808, 0.06966828982068726, -0.12735640658836486, -0.10478126347935576, 0.11951383894751273, -0.04244854514812593, 0.097506191084817, 0.0044604421399221505, -0.12601758879145164, -0.09471579988621957, -0.11424524106861533, 0.02726817972906851], [-0.07727303369396828, -0.16922573840653954, -0.11560627592383517, -0.12639856604685618, 0.08054502043216924, 0.13885034006249733, -0.1189959492974785, -0.007858269268379188, 0.0024274908596282336, 0.007219101632282048, -0.10076197943884994, -0.13381664446753674, -0.15020360616067163, 0.05201180814825723, 0.09316847174532736, -0.12141731948889951, -0.02280344093715752, -0.12478270243523196, 0.018582267114288648, -0.048658878242916495, -0.1321673531773149, -0.12692935382248516, -0.07689697688907526, -0.1677384092775793, 0.10099569852197798, -0.10831803088113671, -0.043280754168125074, 0.048645056652901586, -0.07729740625546992, 0.16112656599384464, -0.019539184111078887, -0.05154670881269288, -0.1418767108583128, 0.0985911452386146, -0.004045885017386341, 0.033325168142537796, 0.029704229846737283, 0.04694552186965745, 0.13978737317821574, -0.07068774520726277, -0.15696700551253767, -0.08257607080859346, -0.058017481631816546, 0.0903920234792476, 0.10740598787515264, 0.08098967778106356, -0.1652160931996727, -0.07263934439332594, -0.021757672282232982, 0.11699622399730505, -0.07973307998937805, 0.03643502743476049, -0.12196295795497925, 0.018042723402145272, -0.02147299377611546, 0.08309640899809687, -0.16938070340532696, 0.10293984870931991, 0.004233532973135449, -0.16404465704343402, -0.06133112839633978, -0.07587920049544883, -0.012808845084668952, 0.004679673927573636], [-0.07759733141914082, -0.06806390251912647, -0.0547214891620952, 0.047121398378047935, 0.05222670357634224, -0.00997947596701812, -0.02716567528330884, -0.032419066780421335, -0.11707911197156956, -0.1306926365009789, 0.15153786923402546, -0.1502439112362603, 0.031062524041304846, -0.031709475363643325, -0.0275249141488824, 0.11634428330002052, 0.1392484121596218, -0.012801441347384269, -0.11983534768078569, -0.1200846288075823, -0.036816515366251676, -0.11317510961632826, -0.05171177271763177, 0.04873388492661665, 0.071900950262106, -0.029867790980211906, 0.025400345638215333, 0.01948282622954383, 0.12873472835849561, 0.11771934306574708, 0.0797513697529788, 0.04757157803321074, -0.1021740173426881, 0.15998738979587182, 0.03129627075356496, -0.002047770684119655, 0.09080228587967461, 0.17480775610785873, -0.04133020875429491, 0.12465893694364803, 0.13291812063854305, -0.16061765202419737, -0.04409401941567527, -0.04465106439044428, 0.13051453895586804, -0.1491468388413753, -0.07946782892087297, 0.1490671954715221, -0.13674074991291488, -0.1477244609788242, 0.03841875336186368, -0.09120058235846146, 0.16266870009462617, 0.060699977420843765, 0.10405293867358842, -0.009310722249356704, 0.06596185529034916, -0.12965553692197074, -0.14743336391470246, -0.0012224412291583916, -0.16482092153613434, 0.09913786890992216, 0.04116565506594502, 0.15097098892882485], [-0.052354364589451516, 0.10528693715928855, 0.10379148637913398, -0.031638053997135034, 0.17156462915203527, 0.12364855559869038, 0.03335282897111659, -0.015151325950651995, 0.15686429691004547, -0.006407586095059731, 0.09755068364634942, -0.12360560187102163, -0.09382855226025599, 0.005221384380834165, 0.05512023911933058, -0.04360399993850823, 0.07332904245330277, 0.04394677267888279, -0.11602734209366045, 0.07280842568536423, -0.09052159902018166, 0.015576074437698735, 