{"state_size": 5, "hidden_layers": [128, 64, 32], "action_size": 100, "weights": [[[0.04854906290469512, -0.0025641497174740376, -0.08964078953268938, -0.09502455513233035, -0.004467214238997419, 0.15583804474164192, 0.11352137745764401, 0.0033548047432385036, 0.004954155295464518, 0.03693367735101161, -0.02245214465955966, -0.1366815540901674, -0.18014661121706257, 0.09191169999688988, 0.028941762322144807, 0.02316070814836546, -0.19005918895540042, -0.07927866712810025, -0.08497467382941067, -0.09708486218542314, -0.025701947420511514, 0.06088079586578049, 0.16372228214959217, 0.03485441138869726, -0.18941487807520252, -0.1620829423988401, -0.13349649730820815, -0.1223324349920806, 0.053752930693151714, -0.0607790819136226, -0.11446430044595904, 0.049214935929360715, 0.0340788600201163, -0.08727676760701734, -0.03382894715978756, 0.09095859889143232, -0.04800409418694124, 0.12917842955426803, 0.14516904934607733, 0.01985031143507179, 0.1432460385681036, 0.16759264739460966, 0.10916387578479633, 0.17092689506543474, -0.20992665722460285, 0.09642142061910967, 0.07019929724236068, -0.04511489505119843, -0.1199212289795892, -0.02740506991990907, 0.10499718247826226, -0.18395456309129382, 0.06163884582236869, 0.02199625552658406, -0.019306232033759304, -0.108073821582788, -0.1786705170841408, 0.14714313687309383, 0.06904502362770973, -0.006658754141376885, -0.1597061142264966, 0.035886160485150816, 0.06824779503500783, 0.12782686968723808, 0.09171239412256302, 0.04238906798454923, 0.0944988447219433, -0.08738253858403355, -0.0408621828736384, -0.05579838820236363, -0.14512456246145158, 0.06273773032214144, 0.024598805045056567, 0.0950961568555273, 0.04228053952371819, 0.09910016594345346, -0.2054062168180355, 0.16252465351675208, 0.1195100496707969, -0.1658342182810239, -0.028647664308336023, 0.15834676884270957, 0.1245085113421261, -0.05705623486809087, -0.14907122076092336, 0.16609282412326318, -0.05870309355959676, -0.11593427725888125, -0.042229699339537595, -0.14165094529911093, 0.004430807091492756, -0.05019035288452572, 0.09915010330863613, -0.07083759952787164, 0.08695463426116215, -0.05639984999555004, -0.01974274004618651, 0.19559309597219007, 0.06488201474185894, 0.1044638305570714, 0.17964759427978633, 0.038879682788998046, 0.12067104541889148, -0.06733712489742281, -0.03650054307653968, 0.06795813171033975, 0.11121986554839712, -0.01752404011878137, 0.1001792792095932, 0.10923866105542784, -0.1652140325997643, -0.022445604962820526, 0.0903381817032693, -0.08338892585951621, 0.1498202234592019, -0.18033723307598545, -0.14892034316006514, 0.004896948826221518, -0.12336258447471025, -0.06228587867361124, 0.10537548155167563, 0.1602620263671183, -0.09822182783204637, -0.05244860525897367, 0.10016761758116365, -0.09764707416924102, 0.011732673817996309, -0.18562048167569736], [0.12623540509817371, -0.01007674895468161, 0.03767095517282721, 0.1798194939898397, -0.19378188227818346, -0.16248841300314243, -0.053940299553635745, 0.21138758302498348, 0.20814289923896842, -0.12725167663981102, -0.203793559079714, -0.09595871721227196, 0.1491523098068131, 0.10920997528511242, -0.16492413466048012, 0.07876828229578889, -0.05590245568240863, 0.11699461177847717, -0.06281028375464838, -0.20371944482834636, -0.15305000181092263, -0.16219068344169446, -0.09552525898487677, 0.17218349621514986, -0.1158579450902062, 0.048389940788296316, 0.005714970238132687, 0.19885506725420987, 0.12183898874372089, 0.1487536144131091, -0.049465858762459396, 0.07297619676397601, -0.08652602010015029, 0.0631296678245943, 0.05001379408422976, -0.1779636583263743, 0.18491552567104744, -0.13260795364822417, -0.1955832737861095, -0.035780368993776145, 0.17661228700914275, -0.11788060033818314, -0.060975476481636745, 0.20532894085514858, 0.04492513939882073, -0.018512924857113797, -0.07856092301358573, 0.1936626534772106, 0.008264871194165913, -0.07320237248887498, 0.14756409106547214, 0.1859073464498078, 0.10675257413556247, 0.18889710650070524, 0.01529737494036628, -0.024808018085157483, 0.052484701929144756, 0.07184197724345197, -0.06969408569190996, -0.08681569422559564, -0.053998084570656774, -0.19746241831203296, 0.1641595352938513, 0.04920257092265906, -0.20938154793398328, -0.04766268756688881, 0.008760259185774506, 0.0239336920909115, -0.17564436023706573, 0.14801578020545714, -0.15512741413126155, 0.1948485668997625, -0.018551227670273774, 0.14550074572082608, -0.10234536596149339, 0.08318215952163387, 0.10461575623743942, -0.16049346207772136, -0.20152302775243813, 0.14735044142314577, 0.05695023397568625, 0.0881354653631755, -0.1178266942656884, -0.13820037494350762, -0.17815828409704912, -0.12860168870844907, 0.15288329444867071, -0.11337253174468244, 0.16267615940442226, -0.20853066868585038, 0.19019096860096432, -0.1756119256651726, -0.12959411707125726, 0.01847858524929541, 0.01872260709768364, -0.024946530212415198, -0.008239009112879952, 0.14873018181767503, -0.1312199884575381, 0.006958922478594309, -0.01895240720215632, -0.19131302976182346, 0.07452725340045499, 0.07775330260612266, 0.1605882167779613, -0.14771012667106942, -0.1556913450180548, 0.16160869761678387, 0.09873171165063775, -0.0710353970792319, -0.1465376916365813, 0.17247427681396274, 0.14976338343569173, 0.1171689653322439, -0.15712973741321162, -0.16007105105389904, 0.17673933510869536, -0.14673710077795446, -0.15239798237383, -0.1379270956937548, -0.2100732109682478, 0.16922212140937476, -0.19030478891164704, 0.07734865837675199, 0.20913555723029634, 0.05511662664816533, 0.1494478164176428, -0.18392805109598107], [-0.0298903820625373, 0.05112739350673139, 0.17906894605261978, 0.16415898894480513, 0.2138206169657963, -0.1555501863632178, 0.02197773503560908, 0.07389390488660579, -0.12568190274159677, -0.020610683236668873, -0.1976515580736058, -0.1645029031167808, -0.15113750156575986, -0.18414136537709194, -0.053601848247708805, -0.019360299321303898, -0.03495089657971256, -0.09087407170071977, -0.08452526264922623, -0.07805794937306268, -0.04126679016992386, 0.0015853426057381773, -0.13577898255081675, 0.1465957931458058, -0.1876860679707102, 0.1987036794067684, -0.1760213918627329, -0.14840980336368723, -0.043482848796626845, 0.1780786795580855, 0.04305891881860912, 0.06775275988645679, 0.11271560103992165, -0.19382624171551752, -0.11473299335695605, -0.1441767946806736, -0.031149754133019264, 0.20450605352346002, -0.15559405406283852, -0.13634917945544128, -0.12775689703345697, 0.02059880034580947, 0.041160978045188985, 0.1153756047338003, -0.13990335200806475, -0.04901334554272065, 0.13668469305818695, -0.06526584076252948, -0.18835254056123374, 0.012615233130262304, -0.05394692726731012, 0.14059536937864736, -0.09310715323787412, 0.17776967436261876, -0.14675777894044703, -0.022320573614672906, 0.05899885197000179, 0.03531344638921676, 0.1060446324625012, -0.10706623126221071, 0.08022665623940733, 0.1263051246391993, 0.04464847946101903, 0.11462517374345453, -0.16214624658542504, -0.032580735387866495, -0.16839042849642913, 0.11810728062068226, 0.13597479603442977, 0.11466406334403281, 0.02678332935015624, -0.027034072393569523, -0.07385785946850922, -0.17062403110700997, -0.12138835707081708, -0.07824784806111416, 0.11592772053193359, 0.013127643351255927, -0.08321095553787002, -0.1776583553505412, 0.07979210461647325, 0.16087926812467937, -0.06643827545734003, 0.1160197548232207, 0.12325684615058576, 0.07928039298372351, 0.1852703602947281, -0.02276974303347093, 0.17430124860990198, -0.12339362366555102, 0.22700405347832384, 0.17677369746399094, -0.20282074212733953, -0.018751085141079094, -0.0124879447176427, 0.20316193617438855, 0.1295079005303853, -0.009075468282499858, 0.17194362735795668, -0.20248479180953421, -0.039867364010535054, -0.0016270284617056867, -0.15885669785008988, 0.06617849227748787, 0.06527901641811915, 0.023464158042023692, 0.11957946914597384, -0.03765664071043545, -0.05136834815828916, 0.1520157725080292, -0.13372318827370439, -0.17454406414060877, 0.053648777201518866, 0.17666245257969787, -0.15003518170575225, -0.04139714857576937, -0.017286175891254585, 0.03940112939970457, -0.043273335746948194, -0.12479874738639438, -0.18918755073776428, -0.028699646820150842, -0.04424056321707093, -0.029778968732494852, 0.07069048751862396, -0.03742846906383118, -0.10429959837803673, -0.03518468700007413], [-0.039324651142001794, 0.04688903489063843, -0.1412062373397502, 0.06010275751549321, -0.07105062602399821, -0.03714569143478572, -0.18701911009855765, 0.12117318329758696, -0.05767840345515555, -0.005712097301613172, 0.193967534242433, 0.10337092941690378, 0.16667978556823204, 0.19048885510534244, 0.059614364724273186, -0.1770102003877726, -0.11817448801138027, 0.05933714788571223, -0.18608585922407875, -0.18159081342257533, -0.1806180023501635, 0.2048270207095757, -0.06159718055954222, 0.15636609806492904, -0.07766194854730707, 0.09731228338262328, 0.0378855118503875, 0.0723760273982251, -0.16341507055710724, -0.12240995045802992, -0.04469949335342099, 0.14608128367121845, 0.057657906619958274, 0.20185731389326497, -0.11889612026551159, -0.015740188230683877, 0.0195275937903977, -0.09556004823213042, -0.016599306274774163, 0.07918896049649952, -0.0873948096282422, -0.04042140236831365, -0.11444632493855537, 0.0042821053204800275, 0.16391049670027238, 0.018595801299824376, -0.018946184172627705, -0.06684794299536083, -0.10544881148997062, -0.16666075636966537, 0.0784841830072617, 0.059308404348981617, 0.004910283434845647, 0.20498674080707605, 0.18140051517369923, -0.13299757075494884, 0.07342799510677314, -0.07954842427170411, 0.09588945567049431, 0.16230998338615046, -0.03934508991173898, -0.12251612621300885, 0.13453188100016614, 0.0010336124785762962, 0.13513297386387715, -0.15969376786858647, 0.121151284337518, -0.17038255353563259, -0.17692356425239816, 0.16157148558640833, 0.06055448794929558, -0.1901639537178722, 0.10623875422862229, -0.055545284613512984, 0.14346466410432643, -0.04907193410453715, 0.15308455534578766, 0.055853389024773395, -0.09504712725036532, -0.17712323146644496, -0.08367518675176829, -0.03388776989584354, -0.048638195747359066, 0.20559059934426818, -0.07525601655612416, 0.015109796296371153, -0.14356773555194396, -0.026546425900971587, -0.1792087441059638, -0.013733030875794139, -0.037997319397612694, 0.10494704883341623, 0.08631626222533291, 0.05753745031435378, -0.1607395459635408, -0.16363849973487785, -0.12837428408317184, -0.047839374753202185, 0.05886202110708585, -0.172528956265147, 0.14299220657178158, 0.05526857753359676, 0.18886995878398938, 0.19708353393127334, -0.00218021252896449, -0.011586297334297554, 0.1256412195169003, 0.07583566282738723, -0.07342660909560181, 0.12001054022052421, -0.08484089481659504, -0.1546426851076354, 0.06881605323784823, -0.04602753897359154, -0.12503649651131943, -0.11432147607096763, -0.1666564428616364, -0.05693379138752355, 0.028270540351870783, -0.02646513870968986, 0.15104425108724034, -0.12308750048411411, 0.1588832924890247, -0.0036547170278826884, 0.18515479915184044, 0.12597428505475297, -0.16902793948544587, -0.12188421337286576], [0.08486393653070394, -0.018781241378537362, 0.019430565837947018, -0.09694745338188414, 0.04677347113289566, -0.16398036675319322, -0.1429018999969119, -0.129894276975548, 0.06965739897870402, 0.16023874524184312, 0.23108090395182626, 0.16833527038758705, 0.0950604632017191, 0.15453805883723018, 0.03981453197302368, -0.060503276228938, 0.19165402024037315, -0.025950594314717135, 0.03345866872601994, -0.20586008568241218, 0.12544707532915234, -0.05656763572876586, 0.19255195572604036, -0.1311258725843299, 0.060172221623506925, 0.10879894250084997, 0.04548490856688418, 0.09523305353148602, 0.20942911547561666, -0.08548039883766693, 0.1228230558620044, 0.037187390061937, 0.201474551751503, 0.16484052710402233, 0.041902589136644824, 0.22159719141786854, -0.044748841446688975, -0.20912324955234865, 0.21142379553141533, -0.03313722813530608, 0.1846195396991637, -0.14623607428158597, -0.05499661899480183, 0.042261249520065894, -0.1579488998821746, 0.06924039995488185, 0.16578802958764022, 0.1438978250246539, -0.06864256691614062, -0.060510721374970794, -0.20358813947724136, 0.048885681021335795, -0.022782382771941664, 0.07012437746749395, -0.14904319365915453, 0.028885044308291953, -0.033560029596119006, 0.12831164640707834, -0.13421817444136128, 0.1500578584249598, 0.1729787040454648, 0.20473043960287407, -0.15557639176606322, 0.19147343910274248, 0.15036028706990529, 0.2061246765189028, 0.19654368986313303, 0.07534797186179973, 0.17907729786001533, -0.06478126815695845, 0.1570163888812247, 0.11061539835844701, 0.13115702310074123, -0.03922195888003355, -0.16335308695986595, -0.11546935218100743, 0.03926271498142614, -0.17535142299260653, 0.008018111887705695, -0.08040678738725168, 0.057542360882603054, 0.09117041099498788, 0.07555272634600357, -0.0606162201107561, -0.03773193151113529, -0.1511312823434159, -0.1759334666490493, -0.06461411620173857, 0.08137119822389026, -0.1401286835076274, -0.020268294184294686, -0.08600624634869698, 0.029548319975047907, -0.030454572050706813, -0.10628556219563132, -0.17685832445886093, -0.19190134843276602, -0.04960715004050494, 0.027255911772410817, -0.062188167322034194, 0.011024702499753895, 0.06845216357185085, -0.1901382007468018, -0.18891149136098417, -0.015574493958849935, 0.07214253468161584, -0.061571958853196294, 0.02286526419791823, 0.17839771943487162, -0.11367105466257027, -0.0992431679558801, -0.025830396105740616, -0.18308573330873634, 0.031091422432609626, -0.0823428049010129, -0.048765052574268386, -0.007282572996727743, -0.07166308540029424, 0.17063953724281725, -0.15158954754644205, 0.03168690205387625, -0.14807405893845033, -0.19455830564335566, 0.16365693306879894, -0.003991592723062474, -0.20015094019087848, -0.012103610317686697, -0.023146378962105918]], [[-0.0804014615180594, -0.05000361903758993, -0.1666527572618902, -0.1729453238763835, -0.12096230456438159, -0.17326002592791254, -0.018892145934417546, -0.0754010981678637, -0.1502701667434553, -0.11029879368241571, 0.17365876191476576, 0.024821598650646287, 0.15639155142340774, 0.05441338773003829, 0.09275893510317273, 0.08814520112212429, -0.05548581546088361, -0.11132316825243073, -0.10787814412245748, -0.04054774400001831, 0.16708698454821477, 0.15702282868853923, -0.01653904126144386, -0.010643799779972152, -0.05523628243650137, -0.046068184353727934, 0.13989548740078306, -0.10326360503203247, 0.09335993416820568, 0.05227922654053317, -0.09135966214964929, 0.04608667472902699, 0.007803830256896891, 0.12294260763964306, 0.14138409266746993, 0.04778809607811088, 0.023938212808677053, -0.09515697415122976, -0.08349948059115717, -0.03774128994206229, -0.12391793975418725, -0.019297611657034076, -0.009163441943793751, 0.15886454341586528, -0.08540059165142537, -0.09826957399521183, -0.00936039610261714, -0.06500306509233296, -0.13874175201691963, 0.013466419839452034, -0.10915997507834178, 0.10546384109885609, 0.025553181997215457, -0.11634635729354534, 0.09713188264406389, -0.06681998941415934, 0.11282009122512686, -0.05430876737529795, -0.012886937970050511, 0.0024555005786184338, 0.1011051926252616, 0.16850755486424723, 0.03548152622747064, 0.018639803026554883], [0.10472300132264309, 0.0641054288339547, 0.16788259771899822, 0.0445008918516512, -0.07210449532220425, -0.14641465037176324, -0.02804717969015022, -0.15740614572108502, 0.13821289038513898, 0.04364360971510149, 0.07304765330183241, -0.10860916123488507, 0.11620805585891043, -0.059143686527107886, -0.04684258338152902, -0.14476573702710313, -0.1762267228533025, 0.07394609800761542, 0.10624355939195143, 0.10388443957493361, 0.07741887418299905, -0.092406671606863, -0.08896034871167051, -0.05771947434191686, 0.03452928387549126, 0.1294621985835806, -0.05170063562067002, 0.00022997669271893493, 0.027118221183174484, 0.0459326658418316, -0.10703464340964122, -0.032880460695252606, 0.0445953422744459, -0.14385402328137625, 0.15326702923980806, -0.1646392943480913, 0.10198269384773459, -0.07343057280766531, 0.10716579119323066, 0.14280078610551458, -0.15823033976919007, -0.16488184071615566, -0.07336707960293436, 0.09991398689251177, 0.05686803858110432, 0.17408277007302977, -0.04590179223741459, -0.1316826837044122, -0.07091381124234666, -0.08347014380219978, 0.1444862924554048, 0.1358749142608616, -0.16873628887321127, 0.14005138607222492, 0.027371466076690793, 0.004897964673048578, -0.11138846510226576, -0.13265653855389553, 0.08878623657019963, -0.1558641950445975, -0.15515991085437852, 0.04487691092630781, 0.15890776618480998, 0.09294350367794157], [0.10667806417414129, 0.1231943893492833, 0.10790047437806989, 0.13511820024630825, 0.1385101999034368, -0.1642029057300798, 0.14011550162422062, -0.06408595025728495, -0.13720615753018453, 0.1114025548027593, 0.0405096057219631, 0.03481289943467533, 0.146913759122002, -0.04689796432399307, -0.1261483069105366, -0.03734154522459783, 0.1488640335974141, 0.13728131516569608, 0.06389044997946887, -0.14798865984133866, 0.0503542576358248, 0.08207589748818196, 0.14465055954069103, -0.1342204180599329, 0.1038418311024848, -0.11522083375090843, -0.045330922515005735, 0.16102695690457214, 0.06733624434144414, 0.0721544008114122, -0.14301848059857394, -0.1696285031409923, -0.025625909588160394, -0.004056995291657573, 0.16166792176814754, 0.1599495728958784, -0.09090193419197265, 0.13912555386068617, -0.1668627496266965, 0.17220426572547815, -0.17612694196375966, -0.07967826847491039, -0.12429371371089595, -0.12092566663072968, 0.06236385466077545, -0.17296192144120057, 0.062126550928623375, -0.04032526765789172, -0.08742868375799796, -0.028666565173034522, 0.06004524589757668, -0.045534613200636946, 0.08409894437080526, 0.16893459747632775, 0.040937817855164926, 0.07523812696877918, -0.14232387300495455, 0.027240453191248154, -0.12659985328171908, 0.13356952992749527, -0.04321952920716371, -0.16255568024508216, 0.17580573024967047, -0.1505085398036175], [0.1387993159054342, -0.09092843856504737, 0.06260563510436351, 0.012916119056428876, 0.010909711246845895, -0.07268539429566277, -0.050955877655640046, -0.06647997939594998, -0.17130641257791246, -0.029914491983119042, -0.09390872612614827, -0.15337702637790396, -0.06254621218475008, -0.11513976919987579, -0.0049270283018416055, 0.07698819979582891, -0.15221495605577917, 0.07735747125398135, 0.08006760057545301, 0.12817086812558084, -0.0647016971978114, -0.16977334672978384, -0.035505608520026606, -0.13633735715231082, -0.15993415978795714, 0.15230919859330888, -0.12835224993952862, 0.1368640819797592, 0.10323929986123484, 0.1628742896100996, -0.1171550270410391, 0.12766199589319305, 0.07954855718974127, -0.10405565165380319, -0.07510069604732181, -0.14580799773210962, -0.033702008954305, -0.09473940706546931, -0.06992698756003798, 0.12874591872163038, -0.08023839275037553, -0.1398317684132565, 0.03773433260678553, 0.1568016885012287, 0.02439041952181565, 0.08851289385127595, -0.09573522914111565, -0.09674685478167933, -0.05727629716230179, -0.11356914224817148, 0.09364772698618504, 0.15874612388497542, 0.14241637438093965, 0.1632550049499846, 0.0043150825307032474, -0.11889613875667399, 0.15484108683421255, -0.049418211899917686, -0.028307530672110195, -0.10642544721785684, 0.11246591228176131, -0.10340890008486156, 0.14249624684251874, -0.02407914744887206], [0.08340671451335326, -0.018013411464718136, 0.05422426134700448, -0.09925423183560036, 0.08033174868389464, 0.019296017514404046, 0.002792484963192107, -0.025603436628865328, -0.09545805007145435, -0.14105537044488514, 0.10783663733367192, 0.17562681832172447, 0.05994823948352424, 0.10463425893400444, 0.09737133332186385, -0.15112281335822508, -0.062005181307273935, 0.13153994585442563, 0.12161544018570945, -0.030435319452721123, 0.11038235545095774, 0.14681436746623494, 0.04799453442266152, 0.001259777538854756, 0.01787573654323339, -0.0901068295583062, 0.032863309370013076, -0.167819725856989, 0.13205629018278697, 0.040093225798917664, 0.03775843897120872, 0.14245798511156027, -0.1172935107543433, -0.028625943688200928, 0.01770128805394748, -0.0032368056823612857, 0.07006824292874304, 0.08144448479994644, 0.14662368455824992, 0.1025242565743888, -0.06382055483928692, -0.12605443190233181, -0.12893695541710973, -0.024620564520755034, -0.04104089019248564, 0.09987254847393764, -0.08962555034922882, 0.139159693798039, -0.12659484632996085, 0.003024511225898871, 0.10785348532184394, -0.1469388075719756, -0.08548929888672677, -0.006519249388573151, 0.16961431624729645, -0.01458534184538435, 0.16089532975018336, 0.06202046254395993, 0.09396591375882306, -0.054315064118853264, 0.02542405332207015, -0.11145964314484219, 0.02228510449726831, 0.10059414294819415], [-0.12777344159427262, -0.010119409853556388, 0.004682748722577353, 0.05647055886329225, 0.08430358323227907, -0.04980713074408855, -0.051783377421130386, 0.09509280015486024, -0.17602990123896387, -0.119307683013852, -0.05210055080035592, 0.07920068878789419, -0.009088337321587786, 0.08546470080749682, -0.14068089852771012, -0.02682013872234846, 0.04409031302823824, 0.16267536359036933, -0.0683597935377083, 0.1426035843621996, 0.07426768816343185, -0.012113393940953123, 0.09563086103151267, 0.011892473930199654, -0.024035650477948506, -0.058467959124180485, 0.15844092842944077, -0.09642375755517509, 0.16109498612490483, 0.052280190385874295, 0.17451249826351384, 0.006280534408413162, 0.014606637685957729, 0.12726982157677774, -0.056178156890322135, 0.012043085429898653, -0.014524618053080814, -0.029262896632621105, 0.17202872022278726, 0.05697040366788281, -0.16715689432288983, -0.03931746371909938, 0.11638169814940029, -0.019734222900855247, -0.05083510341367501, 0.04419857092521978, 0.07713404978223593, 0.048348652952660366, -0.0804670805536022, -0.08924843189612273, -0.09000808568959617, 0.07635172538502824, -0.14098577495334347, -0.07166568876065238, -0.080455596331329, 0.11985797271789136, 0.04339433137651772, -0.08030998775582598, 0.16167844282948837, 0.015491474000439126, 0.08223460463858043, -0.11697495186311521, 0.12449146170539158, 0.10174172658902988], [0.021235114396741712, -0.11467382453967466, 0.01370376115663136, -0.018829515290838553, -0.017755982260646456, 0.04715408050619929, 0.05055630956878743, -0.06400967734793732, 0.10393209173827224, -0.09008311702197551, 0.01899460445258426, 0.013827042468562561, -0.10379794033129407, -0.13976751561292583, 0.17198681444303204, 0.00798658958523325, -0.09350283123418275, 0.1280531780490053, -0.12803386477688197, -0.15368584986288664, 0.10272599742953985, -0.016072702768287744, 0.0029435242854509713, 0.1667819359005924, -0.02798471638674281, -0.011863940070263363, -0.10991990077834662, 0.02608893099522802, 0.003723152544105402, -0.021082337252185362, 0.08472421049782679, 0.00895551700009356, 0.11107631283513342, -0.05419650061660934, 0.08173884725339157, 0.09018125645158101, 0.04179195665758637, -0.1261179154182401, -0.035132667074496145, -0.04889631269596205, -0.16325315976013377, -0.08601358354248072, 0.02580510972645028, -0.150882397757172, -0.0815382700990278, 0.1696086828515536, -0.044240014534730726, 0.008905752395796475, -0.027578160164422424, 0.1369186396074478, -0.10508089518848934, 0.09277748455841137, -0.047758259147253096, -0.025649418073998204, -0.10165512393101236, -0.06022919500129806, 0.10591602020148831, 0.09100524552765935, 0.05091944989819684, 0.1010310497649744, 0.025723263569677024, 0.15624837596427715, 0.16403392509186107, -0.08518446605239746], [0.1562418729948465, 0.14228072007729864, 0.13682786144736553, 0.16971746572109792, -0.014210607361477126, -0.0629199388099568, -0.0776030666771517, -0.14588970608859952, 0.019166030720463894, 0.10845495585255774, -0.11348650537479194, -0.06855206112446115, 0.029622119411307907, -0.015454791283405767, 0.11930404469493054, -0.07149220100792733, -0.1395450170731697, -0.041529409605536256, -0.13770262862588487, 0.14576303311142697, 0.1012149839550785, -0.11679886313660763, -0.010051031254373842, 0.11351309397288875, -0.12533108804692744, -0.13059536300810845, -0.13108243548140108, 0.061641348715758965, 0.05160030380557241, -0.10680405798691964, -0.02103996844837914, 0.13190695567063043, -0.16432845902758364, -0.013872887352505919, -0.07881748807263458, 0.10028215209216078, -0.15030170518663535, 0.15649665835773757, 0.053775351560349495, -0.11160618082870834, 0.16822688484759626, -0.10820260997365166, -0.007268274831141732, -0.13871263175649354, 0.08126990930782278, 0.06753716830210282, 0.05940655372432355, 0.16516415270399584, -0.032166264965825545, -0.15860819902996695, -0.02697170445516699, -0.023151970005648337, 0.065513198003775, -0.15947921372878113, 0.09432511776496742, -0.0752914458731444, 0.07761408911850105, -0.06152410550887796, 0.058247557270179225, -0.15635232601194585, -0.16340296817402486, 0.010883316567481028, 0.011083369869115262, -0.04191197221076556], [-0.15590348135730442, 0.1672558847213767, -0.08436988532489005, 0.1182115223732427, 0.12127108799444226, 0.11845283643299517, -0.07466683248469196, -0.15728443550676335, 0.12853612170898546, 0.01873844648795935, 0.11669802691714644, 0.07030958763565534, -0.005269417666688226, -0.08297956336052499, 0.03455973602376733, -0.14221839620342028, -0.12440608446732788, 0.03814170422625179, -0.1268494225926231, -0.08392888068177418, -0.09351720279930317, -0.12619020964421346, -0.14365805698961445, 0.03675213164464941, 0.1132078829702308, 0.014051839136042741, -0.011199064624018755, 0.16624072714176827, 0.09500948212133417, -0.0021349955488948794, 0.16252101436710925, 0.11009370953668698, -0.020862029937155486, -0.04331070939116577, 0.15861710747322671, 0.13632760376366598, -0.11630497726434179, 0.04269817946897683, 0.15713551145530022, -0.17074667177319944, -0.12195666427979922, 0.058867868459700046, -0.004291886420894199, 0.023245387858595895, -0.1392237286638494, -0.06937296642132021, -0.0741846376522245, -0.08597608865717568, 0.015698292901192297, 0.11607125663531574, 0.13138041565567157, -0.1090896743794415, -0.1138360577143515, 0.10175782408937692, 0.01880653090433851, 0.03595050972337366, -0.11255347396346929, -0.16105962230673201, 0.05281732039117552, 0.17199749111465773, 0.025761770138745255, -0.00600651664979535, -0.16325926116803777, 0.04508922544174526], [0.01195817311795096, 0.04167888007418903, -0.06127619352798962, -0.03475146223570809, -0.08259162401376381, -0.09010965203813866, 0.13953871179273164, 0.01786226563902599, -0.07104416298598447, 0.004359138952150129, 0.026220863935194468, -0.11282325899153973, 0.010042851551144476, 0.016578877899125127, -0.143841077043688, -0.1696094900994055, 0.15713231947014175, 0.13880932898178336, -0.17481024775779316, 0.02051128309454824, 0.058409531108249424, -0.11357670875568575, -0.004053164880706438, -0.0005229047237180762, -0.05538986572724165, 0.07334411830303572, -0.17132973623279268, 0.14486007566352835, -0.041636118240030724, 0.1719133085278746, 0.1354520940870392, -0.15089436042418156, 0.051033749291229134, -0.04719991030384267, 0.01443587797377886, 0.0630045844710692, 0.09730819174079328, -0.1298140330055567, -0.1570190100108404, -0.05023660704362367, -0.09818545011312525, -0.014210325863061233, 0.0226749340113343, 0.11195157750453141, 0.0075098173428804335, 0.06691803773198779, 0.03779224272204304, 0.034628408780800965, 0.17004482439289748, 0.008406074762529123, 0.06874855447975896, 0.0017949029671819672, -0.08018350205929041, -0.09523994097526609, 0.05792043431132662, 0.16683883829563892, 0.09320659000256733, -0.07639369945057255, 0.11272234068168513, 0.07250359954814106, 0.15182758588153336, 0.08515839433634446, 0.04018924764817339, 0.10728136738223422], [-0.03411700824470826, 0.08082494884570494, 0.029744102489558496, 0.16325144714479536, -0.01048332331431322, -0.16247622890023206, 0.0568441710374374, 0.06176467533235733, -0.06925438306823296, 0.051114909498454014, -0.10463677962713905, 0.04911411088704101, 0.09716920826030209, 0.018819799070627558, 0.11769863558743623, -0.06285478262856072, -0.04500869067815491, 0.09491105835012614, 0.08667055007384103, -0.13861637659033277, -0.11373666122086151, 0.11174719140180502, 0.049429796612029474, -0.128201397744271, 0.060604304253530486, 0.07659762546362812, -0.11867542336295094, 0.018655525334302824, -0.12987192019535668, -0.17170228542321175, 0.06267188846607032, -0.11782286033253392, 0.11589319918873474, -0.08777645279263853, 0.09331645126754431, -0.02810970714976389, -0.12316532562647871, -0.024766755882809036, 0.15071878685239296, 0.00859608498703464, 0.07809936282730574, -0.1320463514788849, 0.006606798737179689, 0.0016413696600172945, 0.08118269175303702, -0.06486265244817573, -0.08627250207069335, -0.1577231460694341, -0.15910551514012308, 0.032784145773140344, 0.04951361446456318, 0.0434578172586922, 0.10321981864488614, 0.051525609515819526, -0.04164789635959977, 0.030238477674831933, 0.09252242550556065, -0.09717106548915147, 0.02357119424127937, 0.16506766022701852, 0.0029887121456569077, 0.07995479683876931, -0.15627034039380192, -0.12277178111534981], [-0.035116112513736114, 0.17121841338191043, 0.04137763907355611, -0.08562097548294935, 0.15742415966449072, -0.12166506743246715, 0.12114841706784768, -0.1057620238438837, 0.15458622125950106, -0.1422062050894922, 0.15837145035603373, -0.12552340768556142, -0.002118265518199728, 0.13834675474858085, -0.08403412578212327, -0.1740410335973413, -0.044039269445245, 0.10231148270535254, -0.10320723995359529, -0.06680155270590696, 0.0014332127814685525, -0.13036029898597803, 0.018988923400831217, 0.0802852705802102, 0.01815251444385584, 0.17028663046235556, -0.157536621884175, 0.15105050991765911, -0.15785195570774915, 0.16591898494038876, -0.12217091506815654, -0.13225269638023368, 0.1582077822897846, 0.08531482768619275, 0.0332154876231335, 0.1715584555798782, -0.07072632774941151, -0.11639810707241863, 0.16265976299496548, 0.03491362109420508, 0.02600243400026791, -0.009551933059242013, -0.1547151144313481, -0.040351201874209736, 0.10515568519154565, -0.16997156198403537, 0.1179301742945394, 0.1560355863631692, -0.11056104040603416, 0.13740249862507853, -0.06147153421572322, -0.018217607297636145, 0.06277518779169633, 0.12503679197955006, -0.13892314678432635, 0.0393506031933594, 0.057647056714209804, -0.022001228322625854, -0.07305216638471615, -0.05301282591013846, 0.05157527784818694, -0.10878691970006905, 0.006911862896989501, 0.05797569527313704], [-0.16753124994784988, -0.13158899628498422, -0.12161591724439608, -0.07981963990588804, -0.07143004833643717, 0.013341207471115585, 0.16119471451245435, 0.02470204194723721, -0.1495604058327737, 0.09393130765740494, -0.1740086377587395, 0.06629609132567665, 0.011291934002280537, -0.07504791339173655, 0.001005408236500554, -0.033644762780777854, 0.10048926287094781, 0.10699295748559294, 0.05006476846262986, 0.008239755443189258, -0.07835673389925422, 0.07799100452833004, -0.12914411058541028, -0.1689854980822443, -0.017867157278746, 0.16425129759920243, 0.06694721084366605, 0.025521475466840783, -0.1652983902589767, -0.11420877451138525, 0.14513982794200234, -0.13825684691192303, -0.05156519328989453, 0.1609642701995456, 0.1722791058929676, 0.005496308745775029, -0.0025888061540890765, 0.0749379665869834, -0.117468043836938, 0.17006143555257844, -0.12129115596479077, -0.16276310906748576, 0.02383925955875852, 0.029963616437752583, 0.10139582613106878, 0.059106792855965484, 0.09799419642051932, 0.026503407232011625, -0.17401171358768938, -0.05718348089592841, -0.08197440030332381, 0.007302157077468875, -0.011442821531133546, -0.009579410430712365, -0.07502157354326655, 0.03506488544946986, 0.03497398779186355, -0.031041843773119693, 0.1409206775080433, -0.046043594912546934, -0.16367260704528702, 0.0028706206126582695, -0.15618333742584212, 0.06691880656588496], [-0.09048062816452858, -0.07811571488719907, -0.06062122837842383, -0.016627688443398264, -0.09158783198360744, 0.0882731404253131, 0.1554876275036061, -0.11693049888398893, -0.09340936513648478, -0.1425253777898247, -0.0646680717877382, -0.15670536412298244, 0.05131203296795375, -0.1493383109961936, 0.11731703563752041, 0.04637137423551888, 0.12360732350079626, 0.1059805286892247, -0.06948145738931251, 0.06678038873991228, -0.054423053538538484, -0.015362706233976562, 0.12076205211046649, 0.04391640146591835, -0.14674722627073208, -0.1376364289989038, 0.13860167132917262, -0.12893930194344033, 0.09613571240759763, 0.16477825496695384, 0.07726020547121089, -0.04240171346320804, 0.07337550646185631, 0.023461991979785865, 0.07672345914453603, -0.08981720764998938, -0.050253359685276416, -0.012646482860844707, 0.06556951238602605, 0.06584016258898583, -0.11560149507026905, 0.05657269916193724, -0.12237409366695493, 0.11298715193816225, 0.09512944697234754, -0.07304584073050288, 0.039143752049767826, 0.15920305102311905, -0.09009254484285906, 0.0030990953693517498, -0.05542002424291352, 0.031310222785038554, -0.005347739544965313, -0.14954258964459244, -0.010837234468879249, -0.13256694981803413, 0.12475763104259509, 0.16415970057513787, -0.009461716691605893, -0.025528829083130773, -0.08711561110689903, 0.045465028640720995, 0.013082171529052194, 0.02694919103548355], [0.015823640609551128, 0.04248022413101543, -0.1088004375103628, -0.17627490177612068, -0.09331132930842778, 0.08119652936495496, -0.09839333284313415, -0.151229093439604, -0.0338176946297179, 0.04636292341952831, 0.10788377498152055, -0.16499168340977635, -0.03979829355710528, -0.061118942385167754, -0.16708022596702782, 0.1729108973250454, 0.12314019437484783, 0.05358988376350933, -0.061457100032078535, -0.06343871172907245, 0.04255957064796624, 0.14389861255851386, -0.038647608857265266, 0.17168613400047064, 0.1514295879808522, -0.16817995932306495, -0.05102560425287306, -0.06666142913454456, -0.008270420772842738, -0.16381313916229506, -0.13540102025357453, 0.16924991235316708, -0.15218916276117192, -0.016752139302798744, -0.02424737228958362, 0.023290352366744087, -0.1662964090890282, 0.03548280469636808, 0.0487416571545107, 0.12677865072735367, -0.07295360080245153, 0.11694261846509314, -0.1665305427360438, -0.16463656643823538, 0.16557609293221007, 0.040438320918257276, -0.022710759867804235, -0.16296417118888631, 0.018842687734508177, 0.11635366781744214, 0.1538471090140173, 0.034196930428881986, -0.090428795851732, 0.11450164445140856, 0.02184180776067932, -0.16201816939294236, 0.16946585856594432, -0.14523411697384933, -0.09722454739776541, 0.08579601942866015, 0.05284710866411185, -0.1080723627022547, 0.08117106116399578, -0.10838329532043063], [0.06489423747883363, -0.01163179080017826, 0.15465069141527996, 0.17502615567511012, -0.15483515093181655, 0.17141091701757896, -0.0953764614883495, 0.1402653046925568, 0.17376054917794811, -0.12143212031007218, 0.11544381348515168, -0.15043141299026702, 0.010861785134125751, -0.04379857247590438, -0.10212999049641756, 0.17075106614249166, 0.13472022947968568, 0.03340464231964643, -0.045219977217120566, -0.1380273362518503, 0.010088419218825195, 0.04009750307674942, 0.13672277763834503, 0.0955056340996133, 0.14844868127457242, 0.048004151339980955, 0.032098358919199765, 0.11318614248479217, 0.16965449050146572, -0.12710752693655247, 0.11245079463228139, 0.160332614454157, -0.08961802738937759, 0.12260502246897229, -0.11325840168837958, -0.15862689579062333, 0.16688336302318904, 0.03131839806171727, 0.1212134921407351, 0.005085749167021675, -0.04898683185641689, 0.07261710797355098, 0.082118793325791, 0.07752903286487275, 0.03916281634382912, 0.09058314624852434, -0.15432753828723697, 0.03318967356400196, -0.08229881537554809, -0.07242805461092047, 0.164156473757731, -0.026020658784138534, -0.07381048762445722, -0.04501391766582599, 0.07156303623849519, -0.12259739115749876, 0.017757698406345168, -0.16450537469374338, -0.02925786158353816, -0.14618586105629355, -0.04498549646574357, 0.008341144352581098, 0.061709901928474836, -0.04541268317695038], [-0.09845424554934211, 0.10462957849449933, 0.06855101341702488, -0.01257586116250125, -0.07012175146372307, 0.029590842641262244, 0.025879543760342925, 0.04213766640164551, 0.1109953102265408, 0.13524098021802994, -0.14160942708084154, 0.1333952383652444, -0.06933393233422377, 0.003803464937214285, -0.1151419530789842, 0.1292716668699516, -0.07675325623228375, 0.16389319365078972, -0.17651776489293902, 0.009544417273368003, 0.005892825667815918, -0.14506383279967625, 0.007906392888377717, 0.057511560775493714, 0.15101349443601464, -0.04618892245881267, 0.1613345887007519, -0.1642761845791526, -0.10096269994363957, -0.02909468729948718, 0.14213488702414293, -0.061854863246290595, 0.09149648541275127, 0.11138832852379146, -0.0787499713167579, 0.07530036145887134, -0.11685417404278221, 0.01487506028463912, -0.11252182483791807, -0.01962070803761321, -0.03115303093193547, -0.1547674948538838, -0.0763499458369902, -0.10965112256577195, 0.15449997806253785, -0.09363343705874407, 0.004964101696581041, 0.15100682908544752, -0.023894307520272384, 0.1787124818667308, -0.0591233609572756, -0.02021995852507696, 0.062259046545441066, -0.12452028662129355, 0.05770843986926632, 0.03778413615656217, 0.10581901748107542, 0.11479943740293005, 0.07689776633914971, 0.17844976773357413, 0.11870813536612743, 0.14947875311385506, 0.02533637082843282, 0.10336535709463], [-0.025670111192620526, -0.11720224897546058, 0.09222560211332817, -0.1484570195654819, -0.15726580699211307, -0.007179569508306033, -0.009805020151637256, 0.03815585935421795, -0.025166301048583334, 0.0864097927243748, 0.08569083051055396, -0.11819505103120015, 0.024606501806076264, -0.1131182305732512, -0.05723028539011772, -0.017544605430834387, 0.024628837936715803, -0.16770252632893357, 0.07249414547248778, -0.05640710042712631, -0.05008973481710144, -0.14918653585022879, -0.012166523665491619, 0.16469749771621436, 0.013797858273837893, 0.09830513635323931, -0.08143621397909666, -0.025373059997867375, -0.07033693749109146, -0.14056010610962907, 0.00037197575611405687, 0.14400620004528877, -0.16482763912808465, -0.14855006171727594, 0.14896068612658683, 0.08635944995832975, 0.006628426497094414, -0.08116270272741083, -0.033377948130388135, 0.025816424719313003, 0.09319215672688566, 0.17223043209847774, 0.0032666697286547475, 0.09451257443076458, -0.16194529392953846, 0.0898826681111626, -0.11895436659152858, -0.07337581307093421, 0.1548585844930844, -0.09895872185190187, -0.08222493092841746, -0.03665639655238173, -0.0647360026589534, 0.06836442028826029, -0.0917468006538201, 0.07870058669363875, -0.0023143466813894953, -0.006812873756151111, 0.020230859973887433, 0.013982897607419775, 0.11955599201446712, 0.0014146948925084224, 0.07852825935912763, 0.14804992431406963], [-0.10445676737714502, -0.11520662035558497, -0.13371715830738687, -0.045747320016586886, -0.11364308025264704, 0.02902766793544606, -0.138400220401431, 0.17530143360770103, 0.025541215416851296, -0.050281353744738556, -0.13027453182830112, -0.15389618008583322, -0.14993286110550358, -0.1578439995538072, 0.0502345340713416, -0.1270854003977863, 0.041354669727641985, 0.003703194607050958, -0.024789572901328494, 0.13328003082946036, -0.0866269594262532, 0.13745845832220283, -0.057015223304864984, -0.11744784699060709, 0.04579551831570091, 0.09391555065216779, -0.17561417766518383, 0.08691013355156377, 0.07698952234113474, -0.012874146031727207, 0.06394210519712805, -0.10147179857334532, 0.017779669023687605, 0.11817981310628853, 0.014855654926389352, 0.03193402561991556, -0.11601759656419405, 0.11538705592589435, -0.10895354208734064, -0.06744589411188547, -0.08285271320014985, 0.015260353071135435, -0.1510323859882365, 0.025944859064438663, -0.16108087518293918, -0.10484901525773967, 0.1573417812687017, -0.020774648552391944, 0.11519993046947216, -0.008284758319893566, -0.12011453761583686, -0.101325345618093, 0.11115602758342716, 0.007292264879684179, -0.15904289188262544, -0.07197865193324153, 0.14376077695130082, -0.10952786192424187, -0.1367108143822303, -0.15235668680332054, 0.017005181118040696, 0.16228142537666362, 0.00960118000858734, 0.04476431099142185], [0.01152539909771913, 0.15508213220449077, 0.16013201570075822, 0.14744647908678585, 0.0706071964300409, 0.10003726927960496, 0.020831426763982752, -0.15715018853945087, -0.03855046986194524, -0.02781466520884293, -0.09509095830046366, 0.14742800410231946, 0.010940788281577934, 0.013224603886039965, 0.15348858808481755, -0.06549602635419881, -0.004610297087947385, 0.10196972637831256, 0.07700751463309727, -0.09064783412616281, -0.03794192140368602, -0.06744308010586134, 0.007371686550942419, 0.021860708894101466, -0.012350505546516427, -0.16359703978832502, -0.016644089647450316, 0.13956800431582653, -0.14210630130752105, 0.14004349049647588, 0.01238411738285497, -0.0019612276898222925, 0.017736981662808238, 0.06717895595048853, 0.1637206622007392, -0.023860357418693967, -0.0934882614303735, -0.14021954523528346, -0.1420535453712956, 0.03614464084916949, 0.15203543181475873, -0.006469855335822006, -0.1350553557050204, -0.16108116152798693, 0.1320172557797691, 0.09213928175867672, -0.1670112725388468, 0.14224560408738404, 0.09228868263766413, -0.036646733404978094, 0.1537447463489349, -0.06855457849736384, -0.007649198279145231, 0.04574775123401209, -0.14130056803640872, -0.13584753041787512, 0.144292355507064, 0.16264404025035176, 0.05774935814657284, -0.1145339670423749, 0.06148944855204161, -0.010562643582496978, 0.1663163108646086, -0.08062993139424196], [0.11382788346800195, 0.012935714025921384, -0.03669837473211121, 0.13969529010766452, 0.16749476001595132, -0.12065545260819584, -0.09320281699352274, 0.03809765592353929, -0.018681210831915474, -0.09069771129869378, -0.035325645394066726, 0.11281334137126173, -0.011616681178909204, 0.08896720912739878, -0.13349477175065644, 0.03070707046975229, -0.11932792019431383, -0.15007795098967647, -0.13279706946826134, 0.10731483333955014, -0.030185198593944522, 0.13429542268386843, 0.13322173161364306, -0.11632786512270249, -0.019687451491174342, -0.029777483986516185, -0.17501547582744617, -0.06325582570652469, 0.02012347750195477, -0.1598356964042589, -0.028086673829949775, 0.025684194413835293, 0.08203063136297735, 0.11762769080609192, 0.1228203913627602, 0.05108751091541919, -0.10242030800846154, 0.011631477219899919, -0.13420974010002115, -0.043547880374717435, -0.16332805052595312, -0.14201113790391418, -0.1321665997011485, -0.0178233931528384, 0.09333020691471752, 0.16307919958464653, 0.1489231225470379, -0.07032641730016508, -0.1694070446179753, 0.039616369772681646, 0.02292019810248581, -0.07229032117781176, -0.06557152020933425, -0.10227338743450949, -0.13521591730638616, 0.12356697635270349, -0.15881613752236165, -0.1689941971280657, -0.10162446735245806, 0.1567340212802034, 0.09166651153465585, 0.10191071502092133, 0.1279939628695644, 0.101296380646542], [-0.02531176285652229, 0.17697821339781036, 0.1427604882831206, 0.05461758533636332, -0.057764408416183154, 0.10436855960753262, 0.10475589981729606, -0.14512143288808182, 0.004567239885694449, -0.12861910900425164, 0.08191077083454161, -0.11769910127698059, 0.15154668749736055, 0.1703347487572253, -0.04437333997476956, 0.16582087226206343, 0.04579988083238672, 0.07029949073927068, -0.08260690861496765, -0.09856219004623934, -0.14422523802678938, 0.15932645153554684, 0.013801455059264533, 0.0005373433627541557, 0.12872935999232757, 0.1237632476906185, -0.08558807112885762, -0.05980480757770751, -0.12548970128580886, 0.1600993699472563, 0.1667221744463685, -0.041831465801237595, -0.08028793831328485, -0.12332246830214531, -0.03454807252824811, -0.07393539478583633, 0.025519087805389692, -0.09973293100832097, -0.05405008092114127, 0.09991095763940672, 0.10204461908027339, 0.054897012000290374, -0.1675567814956204, -0.016925022579877352, -0.053033179028117036, -0.030755113139391305, 0.14934990672340565, -0.0035093462970872146, 0.06163682918938655, -0.11104816011925968, 0.05944168150813075, 0.01186352095454105, -0.036169460611891496, 0.09330625293653375, 0.11897619615097164, -0.15185828083846944, 0.0005432489752886347, 0.06425061567788573, -0.09387566119804583, -0.05005254195416086, -0.08156466487234457, 5.774784098572229e-05, 0.1394154283570674, 0.06789969293991012], [-0.06660600492989169, -0.059095701682883583, -0.059492303532393466, 0.03230020896125698, 0.14172058929101675, 0.15558222389287255, -0.04249279612021256, 0.17626745264455843, 0.17243827768162695, 0.13065721632100058, -0.125406177001946, -0.09738616810193138, -0.06043406432414072, 0.08342487509501503, -0.10330379660045369, 0.038515314247804674, -0.06823869812272561, -0.13515609370030932, 0.11731400960513884, 0.003185017564761029, 0.01106117023706635, 0.1382946766539407, -0.17482443969122352, 0.05475640710729471, -0.17351341640452245, -0.05104398520879611, 0.14280363182083494, 0.14121643146873145, -0.1486216860656544, -0.1557759794393194, 0.1638994138210687, 0.10441371136026512, 0.1481872080688572, 0.1334859629428321, 0.1717560961271605, -0.033113252332598486, -0.13251758163415409, -0.02691095219724168, 0.14575047968997223, 0.13474585854742469, 0.07783362792878708, -0.16630535734553373, 0.027469834106607742, 0.026210845842039754, -0.04015447097850033, 0.01920100259575233, -0.07208451892086315, 0.11379617788417017, -0.11305915523477142, 0.057906702127488184, 0.13899149119430917, 0.1573624427443817, -0.11386952862391765, -0.09421831049600733, 0.051553562588412885, -0.08532014298842976, -0.0940901059411138, 0.15720736297468993, -0.0927181265970635, 0.021338580070617667, -0.06882256373271065, 0.07168922452925577, -0.11345762033695146, -0.10998078230889269], [-0.06550211949762573, 0.021937759216792113, 0.04947519717303681, -0.11013294055205713, 0.16970010670864552, -0.14533232984876338, -0.11838329930772155, 0.05247345775821587, -0.045341970650241405, -0.09066843859197843, -0.0009343106598417418, -0.005877154386838779, -0.019450205202133898, -0.10984841726877083, -0.008407949928997368, 0.16956815254070143, 0.017141573546218147, 0.17193734047261477, 0.05131520799983558, -0.0409528144972569, -0.02186758996868306, -0.0842589464596103, -0.16332248177314568, 0.044526868282112664, -0.1604210273743438, 0.10976796920738131, 0.1705082654822941, -0.14784521703949682, -0.0971260386619087, -0.10652248851274082, 0.10923821988957336, -0.026994875013089434, 0.14872298248458882, -0.06981698605238378, 0.05216331136056425, -0.04971229767094434, -0.027505696377800325, -0.07802758746090091, 0.13594042985265817, 0.1446477747190029, -0.11367102969016925, 0.1343728515824714, -0.022250121844696026, 0.12691271121545353, 0.10607995453653761, 0.09610867062744696, 0.09593810726224251, 0.09720579918200808, 0.011962685302606533, 0.13296399298750783, 0.02959747842301144, -0.05254736506320541, -0.045801022843094175, -0.04075963704487012, 0.05235762352801841, -0.012120436864656045, -0.047092483157674614, -0.12172644277430607, -0.061186793342801186, -0.0806065007764936, -0.0015546508029140038, -0.0789793160087743, -0.10119573951365311, 0.050371217190032694], [-0.02298659928333524, 0.11662928688494195, 0.0067086286064422795, -0.02199443419774947, -0.04131566365964317, 0.0346322807004554, -0.10230853535039915, -0.1176415511797612, 0.05863612332142241, -0.12439373833059258, -0.018877606598888402, -0.06303373090456603, 0.1199681003903278, 0.15309010661319947, -0.11936440243770605, -0.04245597132196111, 0.13419023782529613, -0.1556586090584937, -0.05164981756031953, 0.15543491267281806, 0.15636968141905191, 0.11941004880021226, 0.05554922179334498, 0.13984916340727935, -0.11202404627554956, -0.13795230789613894, -0.1553473675076754, 0.08418088004380375, -0.000581586606377027, -0.049618422281199594, -0.0961316199546285, 0.00531659156787484, 0.039697751915063466, -0.04007050170430273, -0.07039637294305591, 0.09696647830156373, -0.14301346627468542, 0.06287093102932212, -0.044053800028619125, 0.13858408073408182, -0.03568208822000929, -0.09320038931026392, -0.10807229671377638, 0.002934343396805622, -0.051203267437150896, 0.03083602785945902, 0.11298686023654383, -0.01686102310027729, 0.012985877589346606, -0.11721361547223066, -0.10585985238238149, -0.11382301260829354, -0.1571988211048666, -0.022678164634899856, 0.08473565304840819, 0.009222154770157516, -0.12268315756829215, 0.1001902959431791, -0.021532176954677823, -0.002046033670347527, 0.09041615198333844, -0.09910514092791427, -0.09712850181450715, 0.052689960077781914], [0.0479763379731799, 0.10644487975381631, -0.1383479960080856, 0.09541905770864507, 0.09226798344767626, 0.020131053375072868, 0.06278893754564256, 0.005489198137669021, -0.02180470644536679, -0.06845085350855978, 0.012217910738253722, -0.04241626675238774, 0.11381488153453441, 0.0870389909612034, 0.09298382440734802, 0.011988060603645921, 0.027413582340342926, 0.08801459191749811, 0.04136287979148043, 0.033055568721623345, 0.11671177776752127, 0.023806173395015274, -0.011877222371779341, 0.0758154896395429, -0.12631511935829742, -0.011556957202469702, 0.0785525595474377, 0.1675895495576711, -0.12574246317913354, -0.0781229805411719, -0.07680843903057395, -0.07629120228257555, 0.07014571202360215, 0.09432072719255333, 0.15740130987377113, -0.1574280783297096, -0.030316492218627283, -0.06406010143133736, -0.13853378194810848, 0.0013247032450212919, 0.07025904246580272, -0.1566037287677538, 0.01941077515680428, 0.014184868530568495, -0.15175498807714188, -0.12744152761806257, 0.10734556656529934, -0.06678227233837901, 0.017678846989569175, 0.02402218161425748, -0.11725165258871836, -0.04505881611443188, -0.08378107972207738, -0.0437247512307129, 0.14264466536454787, -0.15389069931408192, 0.17211985508509856, -0.16345157604060678, -0.051953644603332905, 0.052477752191734575, -0.0783956517385892, 0.009427550162434026, -0.11352588141552727, 0.016064325878567227], [0.01056747716691564, -0.028288271824874995, 0.1119130113369177, 0.10481941533978986, -0.10982725318054976, -0.12608008265796597, -0.08437027888636534, -0.008227182995513912, 0.05820360809395107, -0.15256716630276113, -0.16352240678733437, 0.10688620574157295, -0.11803884392314165, -0.17050653989693848, -0.043169752288708396, 0.13753054346479512, 0.17090989758147315, -0.10618059647535298, -0.14908544598680562, -0.1265018753015566, 0.06208164705265718, 0.11082467818744819, -0.06714702406169663, 0.10028895830023535, 0.109792491079189, -0.057980609265891075, 0.13047874743852264, 0.11881411546136748, 0.07918986275185949, -0.14125286563678585, -0.011410106943104015, -0.08979952957643753, 0.17376914423332457, -0.08990823417118374, 0.10639880273955181, -0.15970704419419168, -0.10539582279913061, 0.07549264793486463, -0.0617448408144126, -0.011278308153871689, -0.028497555946259606, 0.02675659248301332, -0.12459078889194085, -0.016883978489115437, 0.0711853875371691, -0.13288627640263428, 0.01823861362646831, 0.02802579840339825, 0.12976254729025935, 0.09725964401834629, 0.11626667859519567, -0.05896587295681903, -0.09131372546220136, 0.097267781611836, 0.00764029036109504, 0.13678960330801015, 0.07768543807044778, 0.022311091339559302, 0.15769409583077063, 0.07106389937924397, 0.01108876916323262, 0.06714486014015959, 0.06272049014018849, 0.09123401747330881], [0.04995686055740231, 0.10490992547738244, 0.13694957287446435, -0.11672988589834324, 0.17542376882861255, 0.11315024948184968, -0.041761244474039894, 0.08418876980508463, 0.026830583862148694, -0.004238768477217082, 0.0636861168370715, -0.16180177105378576, -0.09126586926125693, 0.010797276625700819, -0.16382952188989855, -0.012650518548976877, -0.007376112909663517, -0.12146339333034145, -0.03303904523311893, 0.05241580649687109, 0.1468217352757019, -0.16927333479968557, 0.09931583490075224, 0.06551506644406421, -0.04042568157671183, -0.06560075501212663, 0.12916729391005, 0.08233784956449972, -0.1298703392304436, -0.031461449723804664, -0.1645961347810373, -0.06372833954122278, -0.050395323660459165, 0.10678140125692447, -0.14951880058563777, -0.010145711949743334, -0.022263426416296115, 0.08779669588253178, 0.0646547861240752, 0.09801984360478873, -0.0723937543935686, -0.03914901322167516, -0.013233772207479906, -0.06515177351012282, -0.03390886417807923, 0.0881776017279988, 0.06857040907293102, -0.015279543379679334, 0.12551518524513808, 0.12761543196408895, 0.1611764125620011, 0.13776539614008707, -0.11559578235534697, -0.08680029803576071, -0.15920782924486077, 0.1622077383012649, 0.03103324996749883, 0.06762226054066944, -0.11587591631375474, 0.0023250128292823836, 0.035091232403173606, -0.05608788494745779, 0.05343822542323043, 0.14140595754214474], [-0.03809123611000335, 0.1728884742270401, -0.1191475429165994, 0.1431151834625358, -0.00883282647323822, 0.1683651509509325, 0.009074033726463123, 0.16526577233060064, -0.16783677534101865, 0.06956506019943577, -0.053714308122428944, -0.09477576326903908, 0.010124884506939992, -0.09241852993959815, -0.1731491613083594, 0.12980951047759562, -0.08666443812458766, 0.019144603875896615, -0.10908746798432872, 0.10639597745975088, 0.09969239259545097, 0.1347737141124866, 0.15695215914752897, 0.12501586000952006, -0.01037091924306035, 0.10007797041660627, -0.13856425561403965, 0.0016914476635923824, 0.039079812320309146, -0.15319442408830655, 0.18357906352117817, -0.1678487178932885, 0.17883526474420258, -0.13506450606709297, -0.05290954971009946, 0.029714495498919167, 0.023004094628532173, -0.17524002496620877, 0.1708392222062587, 0.10887318144203789, -0.1210580274738817, 0.06084934134080727, 0.08444147809309586, -0.09778573512256107, -0.017357834311669748, 0.06383730789355788, -0.12031553134400816, 0.004791238850765744, 0.15548302651267665, 0.05389922912009883, -0.1601929651972016, 0.08605126694317132, -0.13309452570939886, -0.13195456394595945, 0.008526946240010299, -0.006793274742803965, -0.11838486787609215, 0.09664266835247895, -0.11778798092572607, 0.04842907588966636, -0.15688068667747468, 0.018655140691566766, 0.09661451862377576, 0.06835078039227246], [0.13456302467899822, 0.11983207884009757, 0.05734687616948821, 0.029335630223496906, 0.08961840505906195, 0.05534179631385516, 0.03793986783383391, -0.13944966386910063, -0.09184084828287775, -0.08909306707290354, -0.0945068793403409, 0.11041643685400707, 0.007373236759615381, 0.03178290811680384, -0.03549062107653963, -0.14765419353485357, -0.10633101944915449, 0.01555448384723975, 0.01223276807636394, 0.1740304736886189, -0.050858163800609035, 0.003048379548212177, -0.03778785839380089, -0.02215529407572664, 0.029838612383874023, 0.15767075639204647, 0.06707750378033468, 0.039408711936545056, 0.13137003922621912, -0.04730213694927561, 0.09642120192040506, 0.05111036617285601, 0.09356242050345945, -0.019297565909239374, -0.024233963037292965, -0.16787543469222116, 0.07196360094910802, 0.1349743352151763, -0.0740713218803034, -0.15316496208383149, -0.12496276993156503, 0.13999516717971122, 0.15866394431726652, -0.009872937985246077, -0.028312249160107033, 0.09317608693113524, 0.05974878047990184, -0.17536760761985673, -0.02790720696138953, -0.12977592675162236, -0.07957704855312522, -0.04104196371811336, -0.11044443369584248, -0.169599255622546, -0.08296120516325232, -0.03235881457580508, 0.03591951571308094, 0.04209725137043635, -0.1433335954407655, 0.08113345194033253, -0.12603001681386675, 0.15127878030040837, -0.17122545102504208, 0.10677857280243014], [0.07302176727320346, -0.09407161286148734, 0.08436547491648849, -0.044957814570241804, -0.10288980868320789, -0.01873427895157745, -0.07175774320286563, -0.07468014376572825, -0.020518844470878532, 0.0170844144624356, -0.13434117928879902, 0.04666479452066635, 0.16314048297224057, -0.02878202582759226, -0.15104202090276564, -0.014186178457195062, -0.09529011068924682, -0.1616393328996546, -0.10054212870462016, 0.055169697648221584, -0.08558469796018917, 0.11241500469864252, -0.156209398575585, -0.060483081809036776, 0.15165013607230574, -0.11200838365980116, 0.07477507789317385, -0.02366215515808993, 0.16139031608252222, 0.16621622429604668, 0.10039145875006619, 0.05365241922400174, 0.1741505859726431, -0.015571429777167032, 0.07019948220785105, -0.12626424178756596, 0.04338559264590947, 0.10845178734457056, -0.0832546622638877, 0.1577753419791988, 0.14346329355213688, 0.11231962806696662, 0.05619577651767004, -0.044586011988389684, -0.1381413481454196, 0.11766972021529545, -0.11932731447277373, -0.08521913850323182, -0.146410456205568, 0.1741761307816441, 0.08534862373819185, -0.08158942191398935, 0.1390709382520565, 0.16059638475015117, -0.0760561433050222, 0.16938614455283202, 0.04778569505891385, 0.06763873839647022, 0.10199815501013218, -0.12468817229755955, -0.14638889709163544, -0.1292421056214689, 0.01827475122215247, 0.0917925784231252], [-0.10539140776403821, -0.06465892897331868, 0.04909754978904484, -0.04318464179901455, -0.03960464671110303, -0.048405653806789205, -0.10723040774126269, 0.14037852966890804, 0.16494362267725074, 0.04836706432710583, 0.01320102306607693, 0.11883541210381146, -0.15861084483691484, 0.06403087273434604, 0.14610457958891812, 0.10535130084215426, -0.12914321382127725, 0.07250554943906354, 0.08794736781906376, 0.010254652976201758, -0.04021740659803999, 0.11088221281337488, -0.0012229845987818237, -0.11014400830214631, -0.042973873278421136, -0.09950819358547068, -0.1166244506564596, -0.12336318621819624, -0.12323780043427808, 0.1197214905577904, 0.14252998509127504, 0.1732590880188889, 0.06709502016958517, 0.005562269045476299, -0.13256525989149684, -0.06362292936909197, 0.04722870644069321, 0.020980227740816017, -0.12232910507450463, -0.09570990642869658, -0.03457841508693606, 0.07323044045973169, 0.1630613671722478, -0.09678813294223601, 0.0901328267722278, -0.10578570374753977, -0.13800670537999063, -0.07122991781687815, 0.0830740122628314, -0.06360927317778715, 0.10681004073288701, 0.0756334447253228, 0.17353347616756323, 0.16866525799911206, 0.15268509779543707, 0.038291366007020225, -0.020485860790067662, -0.1468137074609371, 0.05737101107667228, 0.16286321553694533, 0.08948838369476061, -0.10199542620374394, 0.11510547821823483, 0.098568643930776], [-0.017397537185843547, 0.1717884761466081, -0.07912978553919359, -0.04021543356368749, 0.03480449211290209, -0.1714120061657002, -0.12849145803145706, 0.143892968893517, 0.1605622579337905, -0.029192844320411863, -0.08836350114065795, 0.0799849052721022, -0.0648393337149619, 0.10768724440511243, -0.10586716013789788, 0.1440354719946456, 0.09116034703577056, 0.0765107219476727, -0.018580706967550948, 0.11658956379619152, 0.02221899932432561, 0.07831750128599378, -0.1540788962685951, 0.06774710046588117, 0.14648176992233847, -0.027457838103884052, -0.10611586011132734, 0.029311632421967326, 0.021570766873587, -0.1700486787953239, 0.09560524622495105, -0.1484849041763772, -0.05743904297060751, -0.08273224188796645, 0.03137125812765208, -0.0013927505164632633, -0.15211708456417827, -0.11201993446552094, 0.13295555562611427, 0.008979947089822948, 0.0041077751903014345, -0.12502088638491268, 0.07896007374519019, 0.043566759698747404, -0.08762439603884205, 0.07463035843115409, 0.050756058418598926, 0.13700088619949502, 0.13298651887477164, -0.13307629378774372, 0.09318969730479065, -0.09955616822030908, -0.098892607843756, -0.09848887108066753, 0.03260958622214725, 0.010782975190395169, -0.08749500544355909, -0.09089712030473523, 0.1581778822491867, -0.129640640674079, 0.016540139946681465, -0.01287989225663316, -0.02096610123760126, 0.12488775560516412], [0.006085074183278416, 0.09659218433214299, -0.03456172793578268, 0.14149250671287908, -0.052895654280678696, -0.13765965208882597, 0.026237038613162893, 0.13162983888872506, 0.09066212903420909, -0.02008459042273992, 0.10685508106955026, -0.1161573476968819, 0.005966139901415031, -0.03436386427219523, -0.06488663264138993, -0.1709703181395792, 0.07254615635407724, 0.11262687610890605, 0.10838294322614919, 0.07007135086703517, 0.028442326744780737, -0.035268118171971265, 0.08844656060412395, -0.10651920736426315, 0.010383279991400885, 0.10711253996584555, -0.1583735467042979, -0.08971617382651731, -0.06874920832079266, -0.009818443798482126, -0.10558021702060472, 0.10636137974606705, -0.027693480630122905, -0.17050916040639935, -0.12645494205831492, 0.13374382297310836, 0.14606026183524218, -0.12006714896559997, -0.10618267283047851, 0.08021674558681019, 0.058762203436191145, -0.16076255940495612, 0.1278029103328374, 0.028324665983724878, -0.11682589575230473, -0.1734314828291081, 0.16698966612973426, 0.041224179675189064, 0.004145601673161404, -0.03131257803084692, -0.12297821602737946, -0.08352948072512303, 0.17602876226602351, 0.018572730883497923, -0.017117610783820784, 0.043020174293756125, 0.04940445570449402, -0.13452599600279969, -0.1602917320065324, 0.1224807095393954, -0.1744715912754958, -0.07967311383154045, -0.13907334141626942, 0.012279641853477446], [0.15317778686391162, -0.0006678212071267538, 0.10667035004680939, -0.12344523754286381, -0.11437668425370817, -0.1366953405415502, 0.051747539441684726, -0.0026083130338111896, -0.023591071829952435, -0.14049177882999167, -0.15885126076525788, -0.11200433532621942, -0.07033767248401754, -0.07599818058167887, 0.05970487375560615, -0.04513241417008036, -0.07694242068100804, 0.04280409220029868, -0.0766136395023965, 0.08674650544066653, -0.07607543510003853, 0.026406529760101435, 0.03213033349549299, 0.13520635260127065, -0.12813196122135853, 0.14678995418708768, -0.09389870226915988, -0.08146886463837152, 0.07645471534839585, -0.15499904416807778, -0.12624225552664214, -0.028708184759004968, -0.0012068549551494108, 0.010546109186727336, -0.06612927012376177, -0.043130959036744465, 0.16833796147305338, 0.04880428461249173, 0.011311256879313112, -0.05159071670712652, 0.049771595256866086, -0.08726045457664292, -0.07298739817598923, 0.108693127021281, 0.0777323057394885, 0.05819016043643613, -0.038561715026772636, 0.12067300571359105, 0.1541233815617323, -0.11916443024356786, 0.006663223672834822, -0.15302477580364296, 0.14970343652990872, -0.0642810085929188, -0.1230572529549908, -0.11597767330781893, -0.03334467042470098, -0.09526366151662799, -0.05080076007911835, 0.15984561545281012, -0.1680228831130722, 0.08690132611659515, -0.058886037178486936, 0.03142460024410154], [0.055199562006020185, 0.06730431803894477, -0.023812619223678843, 0.058548601422242594, -0.08200353099745372, 0.06304741907515359, -0.04526943424841426, -0.17221302133865246, -0.13947606684788602, 0.12703327679902046, -0.1712697143788508, -0.13021512880392874, 0.05994029438337234, -0.16400471995338373, -0.13284852162432528, -0.13288043458251417, -0.056040499497987374, -0.149646487625618, 0.14037877700627746, 0.07391974986310196, 0.03277281618262635, 0.08547428814696832, 0.013903275636271363, -0.01270787894463074, 0.12908585399603215, 0.07419021242488111, -0.14394174521453226, 0.10941415743066692, -0.100081092433489, -0.08374730600149967, 0.058385025369096136, -0.017175252932563324, -0.06277079133167567, 0.04136640807645341, -0.12586295887367516, -0.07452459123896096, 0.16255187344968447, 0.1269791049936437, -0.051150198636832685, -0.06994000985908788, 0.018541137864840785, -0.04824822050813463, -0.05527586802610254, -0.11347517177553237, -0.15944484421096972, -0.1585930720006622, 0.10867773401401679, -0.011941146708919943, -0.010033022605671843, -0.0034502264489152767, 0.030511815093900427, 0.11854999469326287, -0.13192882076334986, -0.0004766626350050096, -0.008724037047119314, 0.07553168714376443, 0.15058869701553498, 0.07170582156315847, -0.03760125111994665, 0.005957896439080752, 0.006911053595424516, 0.1656101062202063, -0.0035019455183614434, 0.0551557936299491], [-0.02504422189102154, 0.05632104033932564, 0.11181968736676992, -0.08400759778080999, 0.14319732983981273, -0.09008907502022448, 0.1280165555466445, -0.05160428284946464, -0.06342129820451771, 0.06604351237481648, -0.12013978836216632, 0.05268562606826768, -0.05564803263226137, 0.09559893648975562, -0.006070150366698612, -0.16245050980386694, -0.07643865597287305, 0.04501206699739099, -0.1478250210002038, 0.0326177716942484, 0.053912464369114454, -0.08573964981274232, -0.040700947352595995, -0.15970035329437068, 0.030325404319649113, -0.0932243332377925, -0.051645013009254254, -0.0922636122458011, 0.0303710535141688, -0.14240106045366666, -0.025199668743670967, 0.04854045002530674, -0.11534602945529263, -0.10072078860102449, -0.022440236813024317, 0.0583679721780862, 0.15607081880051274, 0.10060782545665067, 0.022814362745066347, 0.03667442766240564, -0.16686279615363825, -0.13158584537199602, -0.08455782478254253, 0.14516692521392852, -0.003620794098804808, 0.1238264560819313, -0.14082809196631838, 0.042027947072745986, -0.09780841260147281, 0.0895091386400034, -0.05143322833009595, 0.07375832780528133, 0.11308453965480789, 0.11058734361221603, -0.034152657505960804, -0.009857799109938198, -0.12287664321899643, 0.0605671583203026, 0.09217009361734593, -0.10582506893320733, 0.042584116798636634, -0.07374347563409492, -0.08134433388717323, -0.07383408734979967], [0.08489449111027096, 0.08579059613818854, -0.13770936393508867, -0.01865139261919811, 0.13039766148971219, 0.012308571613317332, 0.01557229062663215, 0.03870192635659554, -0.12563500341653616, 0.1191507114375234, -0.058898675206843394, -0.14178614581649368, -0.11086145024386805, -0.006101501247486041, 0.1494084824484671, -0.10571212953576971, -0.05289618614836827, 0.023537451759642176, 0.12474289911361787, -0.0875249866362998, 0.0012642372672136378, 0.15757209562649216, -0.0796964873557071, -0.04921761942827471, 0.1262261366682785, -0.07263248273194851, 0.11091556067162016, -0.02813633164981041, 0.1171052779772904, -0.11295233668017018, -0.021858337473826657, -0.1367271105856373, 0.12090411180342055, 0.16574186803551427, 0.022590281279048923, -0.11189838341652242, 0.14805695682631512, -0.08341475778051323, -0.055418082425755556, 0.06692135421178101, 0.08137256405735221, -0.11269864959842789, -0.034065298720271496, 0.08440830934062363, 0.15446876291646025, 0.02792146173561777, 0.05641533628498937, 0.06926456824866103, 0.009782246782940077, -0.13665726732368982, 0.07805718055403428, 0.0925146094199478, -0.1483551373753667, -0.14290409928984227, -0.10336912893782396, 0.07651742376377849, 0.06625469758401295, -0.12410925463935478, 0.0883264624314514, -0.14307147088367914, 0.01276196233756785, -0.16135321744112585, 0.1592389584378219, -0.043664297935708266], [-0.08273050582167625, 0.06417103925367819, 0.1638712079976889, 0.04776891650700818, 0.10437137918601552, -0.0887543342244811, -0.05876289369655838, -0.10656038801049113, -0.09354060485155508, 0.10234978264605543, -0.04525580886289816, 0.0537599971629269, -0.07859816719983968, -0.0857878100845772, -0.13786871168734732, 0.07431415908054326, -0.16656221513279143, 0.023206186924356272, -0.058102569912271036, -0.14081788680627252, 0.029694373293500064, 0.11707129554942232, -0.020299188576991152, -0.015453611028752173, 0.15753085456087446, -0.1021708679239826, -0.14591769300404486, 0.006296467304564478, 0.11692274424755125, -0.07394446929049013, 0.06218660819798064, -0.04748728024843946, -0.1161883921122798, 0.07864122903721339, 0.010000270388313677, 0.08570032249699651, 0.1294490220999468, 0.17590438445154977, 0.0007365133161671764, -0.09089472691042272, 0.04783578119813744, -0.16211016831352656, -0.0029688586732363625, -0.08686593771899384, -0.05250572087163039, -0.05781201201813202, -0.17650045147718452, -0.034276234905917094, 0.03398956084714806, 0.06838293156322726, 0.10925953051345509, 0.021313119383854277, 0.12386648483497734, -0.01743095931428107, -0.08016680719170725, 0.11684914873308234, 0.12414937029700207, -0.06544855023077398, -0.09045850389646862, -0.0026583048231659267, 0.09006992405957623, 0.13761073359761744, -0.03225898731459617, 0.15117097540823088], [-0.11585427453464908, -0.11573113520791967, -0.139117855736267, 0.05854592916469409, 0.09670112591904537, -0.12171560311734905, 0.017710950400061876, -0.05522723322834902, -0.12438206055600694, 0.009726635544817064, 0.09519602228517711, 0.0055499669399191875, 0.13219881426537008, 0.1009879953762585, -0.06528920725898375, -0.014808717221048408, -0.09632661706077666, -0.005414710695532086, 0.15047760392155504, 0.08694322743149242, -0.09506819687578695, 0.13246960680247105, -0.10051177526565855, 0.09601668769241531, -0.1407371838721098, 0.08277362774017505, 0.17258752027501836, 0.14003422911959307, -0.01563122714114537, 0.00945096228287247, 0.00854396332747401, -0.09253523017410975, 0.13070452157606052, -0.041877657953150405, 0.08528985068137757, -0.031889762031252766, -0.09390347920412667, 0.07924527633235348, 0.03815403545426647, -0.08209673046552034, -0.1022760231565723, 0.08352402047322961, 0.1390072074362644, 0.04476736551249161, -0.17475704126828648, 0.05904682299516609, 0.17556950518670786, 0.1502843270154566, 0.028544588869368656, 0.1591548409602003, -0.07975764097048432, -0.11515938071956397, 0.13166407706882302, 0.1535346549004575, -0.02983604571772961, -0.1269089742552764, 0.09927810872273587, -0.03744878829531306, -0.038190647587097414, -0.11574350754104537, 0.16497466360506116, 0.03248056035238725, -0.0361375757011172, -0.07116437319111768], [-0.06950716056317047, -0.01755472878186469, 0.16020465549431992, -0.1120798515082201, -0.11628654851461358, -0.035773579144777246, 0.053282773315514606, 0.11161666681170837, 0.048044594901128716, -0.16693711764171323, -0.037293133753077884, -0.08901901594285205, -0.1748166511073097, -0.13577343819235796, -0.1648567697231811, 0.013790110154691684, 0.15829650699868708, -0.06359225425505739, 0.005971925543377862, -0.026888528023566602, -0.07871088201210114, 0.18077988602638295, -0.165963834352714, 0.09817717660100642, 0.008358733354633916, -0.05284008119969702, -0.03797406694291247, 0.02270592143192856, -0.0637926534346781, -0.0676523833536111, 0.150926171098923, -0.08478185300007038, 0.0671705209792631, -0.12827064197621701, -0.17423938406788272, 0.013079822752248189, 0.15178793153877998, -0.14594677373863335, -0.07149708322463617, 0.11328753585919203, -0.10306906697307237, -0.1729985046323431, -0.1662196399118201, -0.03240328749693036, -0.056691608714552824, 0.1699248841167341, -0.08945511133895001, -0.07209017366996752, -0.14946615134678612, 0.03925054638440991, -0.0765302392178995, 0.15845930337134237, 0.04355818240730333, 0.02905898334110074, -0.0321534911405158, 0.032780482253818605, -0.09591679810447447, 0.04805897280800589, -0.013411258585113332, 0.02175001165591342, 0.10043272319915295, -0.08889351791112374, -0.09700501411334746, -0.01142753292500324], [0.14813003203794936, 0.12876153012911262, -0.09751661951471584, -0.15468677717299362, 0.07448730335002678, 0.114873963788356, 0.17372887954807975, 0.054811588203974776, 0.16827759108749069, 0.13724638657504104, -0.16408480722413787, -0.15261874554387664, 0.13714324676871262, -0.14820339996848314, 0.16077863816869434, 0.14799141162768867, -0.06680928199171532, -0.02084636588350142, 0.11677678465220895, 0.12107485258932509, -0.1660084414431912, 0.0696897761984722, -0.17177263650697416, -0.10023645312587796, 0.04913493664420948, -0.10013882218054251, 0.0766274271772724, -0.15005233770162046, -0.04022029219283888, -0.04130487789132185, 0.036834179044233716, -0.0144224325331799, 0.06547466088908972, 0.03606380561758116, -0.0946337363572923, 0.08728314640631449, 0.01254310916799881, 0.11502907458205996, -0.06772409919246196, 0.16586040869321292, 0.16942311493765316, 0.06352648268298991, -0.1473788322504672, 0.13844880836708653, 0.036453689416427563, -0.1531081633830931, -0.024372268280311155, -0.08261514306859047, 0.1615617221473435, -0.14861032649568548, -0.11537409410223413, -0.14833889641914225, 0.16681762888738397, -0.17144907943745172, 0.010988390565209998, 0.05263687884626386, 0.08940506705444061, 0.12301395693058739, 0.03931074427546125, 0.05725327036170643, -0.17349192841651365, 0.025287579500159856, 0.14218219752117303, -0.1582912694580828], [0.1032760453994177, 0.016776710747107057, 0.13169955852009177, 0.15957317752795236, -0.0011945809573359, 0.11426782846172531, 0.16607093990190214, 0.0009277886027700751, -0.15018230660719215, 0.059606954697442906, -0.14123709498338302, -0.1397510176479209, -0.08364343973069492, -0.11313418380596268, -0.08228706389486899, -0.17203469364803312, -0.11453594618552303, -0.05252389036088047, 0.09647246563207931, 0.12098883359585562, 0.021476928289276546, 0.013215320055116506, -0.16123755457583466, -0.16528493939199518, 0.01993458126011536, -0.12396347713796282, -0.007688321763032609, -0.020970039151750035, 0.1132279729276586, -0.05651264480737491, -0.16551816354888307, -0.0009119592728025222, 0.13851149108396063, 0.15187555964432453, -0.07811225873665181, -0.1670205703372487, 0.11680022057608176, 0.017305927652670947, -0.1193412927432528, -0.17615102366375168, -0.1590108646396191, -0.15620448400540446, 0.13892261455709906, -0.03030826714933904, 0.12167631237587871, -0.006881568813864702, 0.13396944403230387, -0.06648378356372546, 0.17175104114159992, 0.1181542910900442, 0.06270337213385811, -0.05726353520643021, 0.007846462249183644, -0.147750283411933, -0.02940937595100452, -0.057670535635835185, -0.017326295824091408, -0.02692798970062607, 0.12106493747070295, -0.17710397218894686, -0.05878349705878949, -0.03712315591211871, -0.12109976394422459, 0.1749769416830657], [-0.15088745045061513, -0.08393975880678535, -0.03158156050585874, -0.10896750186104621, -0.05557825804278038, 0.014848200083396056, 0.013891654614158115, -0.11538113187766745, -0.1324982685570489, 0.14141659886982666, -0.04628762355735252, 0.1215012912209075, -0.0468909763321493, -0.07039224134808346, 0.009178111803803837, 0.08662656449800389, -0.10299392102174465, 0.036395987315987, -0.11999389460420119, -0.10042085629040508, -0.16102887447647649, -0.11439267031781067, -0.12002541744262869, -0.07224891204169105, -0.044543690497339195, 0.03972804563753069, 0.0966181824160943, -0.016079370684165317, 0.015591965360408636, -0.06146632437127519, -0.040104828009348795, -0.12589290375602566, 0.11598332593902536, -0.03557107225879193, 0.039455601075195815, -0.08661682195751333, 0.09419312939507939, 0.019065961215471956, 0.10262471637241463, -0.076362214770656, 0.038430419803099566, -0.02474996566501967, -0.08859739787052873, -0.06307527770497955, 0.14400330069824627, 0.057427027609792375, 0.04511579508119413, -0.06902115542711544, 0.136370576303229, -0.03789944791868299, -0.12549992096411516, 0.17161539041921572, -0.11469915502742017, -0.16921519873587224, 0.06491899358051172, -0.17301677457718817, -0.03335960301640535, -0.08153446225779372, 0.08350693104665587, -0.08930908212291719, -0.024119441674097658, -0.06761362203460235, 0.03263558384841839, -0.03577405941518448], [0.016001994102495642, -0.09333222932704506, -0.09870682816590971, -0.13858336787725123, 0.03362893574824061, -0.07173191321741244, 0.09176810460970944, -0.03386477533795687, -0.04300868442459513, 0.05130865197881984, -0.0900652231961443, 0.12177065312336469, -0.09857286566599606, 0.07817923211263503, 0.1329324299207342, -0.0605440032722641, 0.013125789896969386, -0.08783936604171254, -0.15881245303445837, 0.05697487322565503, 0.1431166565923662, 0.06251518055267125, 0.046010778411756076, 0.030749740956228566, 0.12646165809429147, -0.03923221090150131, -0.0434336421559155, 0.031462332394461806, 0.02961996094437666, -0.1755888959458133, 0.029838006675316275, 0.010148440042014345, -0.06803697092964126, 0.11922118510965038, 0.04400974609395136, 0.06995926048162243, -0.0857592401939797, 0.10658448388998046, -0.07775858129079562, -0.08252205163207262, 0.07164281865614669, -0.05562146720203985, -0.0850870454409073, 0.0066542956788177565, -0.12378887226921799, -0.03933043304641268, -0.09802941661671011, -0.12420778723555592, -0.17083457148611822, 0.14700580415153494, -0.0990368783530947, 0.14730375523049447, -0.15040982767092076, 0.12407084986075076, -0.14842535881032098, -0.05209688888657793, 0.01637496565118024, -0.09153606707886842, -0.1365426784640706, 0.02516456981023915, -0.12037818737155741, -0.10625323069347525, -0.1267482707965087, -0.009134237228855951], [-0.10491527568011322, -0.02934652373800843, -0.14203561251376126, -0.16753217069298015, -0.02507205593102303, -0.13725746650706294, 0.1509860392875485, -0.12752061026884284, 0.03710998976646306, -0.06440962531352329, -0.027815415357791935, 0.1419021861423461, 0.08771939850746507, 0.14333668813303654, 0.14822584235788824, 0.024170462424042458, -0.11144277654828304, 0.07678642744376869, 0.08564672037602936, -0.05789980945683226, 0.13402641063722, 0.07952615727048216, 0.11226741283040455, 0.07436255177385101, -0.02005494164416398, 0.03338218236883708, -0.029833848686347312, 0.1504453035411917, -0.1424203723584444, -0.06603202190225839, -0.0157138914102855, 0.08337678666832675, 0.05453761901068773, 0.07208201524664601, 0.13221362585805008, 0.11726507921972193, -0.04525681669652029, -0.16949598391848072, 0.13828614898684077, 0.1687281177303152, -0.13555449072076514, 0.15020493615891392, -0.15521931534389058, 0.1458979483073529, 0.10549778787595361, 0.10839356287447169, -0.024303749679157605, 0.15145646767120577, -0.1553886370551943, 0.01808649393215605, 0.03460842746091155, -0.10330292844821293, -0.11773177201789842, -0.14962151428305773, -0.1492665676979589, -0.12160909450030595, -0.08324950751983173, -0.1150309119020757, -0.009903814738605176, -0.0752827011476527, -0.00025418729642021076, 0.030196415258719207, 0.004029566877125357, -0.1189751699351573], [0.167372359871048, 0.07866097221237164, 0.0879021461816649, 0.133712887977808, -0.05030221541825836, 0.0469341502772681, -0.09705813639766525, 0.023819894546106446, 0.1724530175568442, -0.10809927152339069, 0.1020446776986216, -0.1465082266658806, 0.12566054137963487, -0.16239949262136472, 0.1298520856667562, -0.03156373676374382, 0.08688795665118845, -0.1011406889800815, 0.06844076376093913, 0.09543005348803238, -0.021021542764240963, -0.052202581483026464, 0.10504066824844502, -0.16245385422949166, -0.025766718728791427, 0.11903113696777197, -0.027985383519445923, 0.08601572117175033, 0.10528720774167542, -0.15363962701729944, 0.0722684652986138, -0.022462558931131443, 0.014754865869593053, 0.07447643015900204, -0.1592698225782816, -0.0732214262579435, 0.1645338607548604, 0.01634231082596619, -0.13855689979541302, 0.054462307570483856, -0.11925670052237963, -0.10026913817857862, 0.03917449139910106, 0.02529224608026881, 0.02204213101490592, -0.07485668598838338, 0.09204647347731833, -0.03341568936238506, 0.018356051718639424, 0.05228323010298839, 0.13909039923250857, -0.1717421741722602, -0.12488707244841876, 0.05347786150380074, 0.12075121570361139, -0.11396392899276524, -0.15042666259662224, -0.058216868359089555, -0.006424067376153651, -0.05577246710602657, -0.06383060104460912, -0.03176391831990262, 0.028882953950865015, -0.0788744999602919], [-0.15522995167957002, -0.1036400401902408, 0.012295837714712071, -0.0060731582562207976, 0.17050609000105652, -0.02001685974956774, -0.009980589737660557, -0.02993816021700354, -0.06989423655778546, 0.08817092419302175, -0.1728871312875442, -0.07399524526806926, 0.08355290765103159, -0.14411698275996862, 0.08501414709720026, -0.12975129329513693, 0.11463981744453199, -0.011015074388292426, 0.011333841872331912, -0.15880239288708017, -0.014527290573261818, 0.14597789396041166, -0.17275673718946816, 0.15347888287768066, 0.07235498607011928, -0.09922622462048601, 0.1441101175012921, 0.06183202874712702, 0.10259782330600212, 0.027705454998306935, -0.12138608838193876, -0.11665667306632972, -0.12458723659614658, -0.12390925854691466, 0.014066271671986097, -0.06920377275213972, -0.10646760468791083, 0.16104385857256462, -0.09564184962527696, 0.16072727856770766, -0.1277211027328153, -0.1638057789394192, -0.04510584506624119, -0.042337980765299654, 0.16802001226890578, -0.03129421433666185, 0.06501756437760807, -0.010251895251537977, -0.0029237905258641924, -0.06703207521604178, -0.1231182585728692, 0.064011681539852, 0.09108164124267995, -0.11352122754456127, 0.07504291251341232, -0.040454952825787246, -0.04058139515798156, 0.017356742243437445, -0.09055145387705243, 0.08227770114658478, 0.03289206190759253, 0.15305213785048466, 0.010992417940591498, -0.028655444949761296], [-0.13492155751978196, -0.15227083791814516, 0.17077260067229985, 0.0970323035769923, -0.08478052492082129, 0.10635142088445768, -0.001987459182792445, -0.0375228057311387, 0.16881838208856717, 0.04451442443793477, -0.06016552479789708, 0.08481272227202555, 0.03850564887813007, -0.003229530194515051, 0.1317920375742941, 0.1541498957586472, -0.11178433387907713, -0.09336376177665834, -0.029691989542452446, 0.06213509809896872, 0.06321414912094075, -0.11570410216560553, -0.14347066952773296, 0.1654652923971708, 0.0760234496213317, -0.1440511399738529, -0.1276596162123733, -0.02035138808031789, -0.10595582813973536, -0.06338258353235447, -0.14019420386277204, 0.15321659184768313, 0.16504273624636315, 0.09817527428484538, 0.09183134684444452, 0.08311737496831142, -0.12812681334590242, -0.12653754060209133, 0.06915014370672032, -0.0837851722234143, 0.07270824939454379, -0.14637052679856472, 0.06218727663486284, -0.12921910751384402, 0.11291353419371206, -0.127469420638262, 0.05010708659402341, -0.022420188715312428, -0.15895873445282982, -0.006569957154315215, 0.029201208460191197, -0.08366877488046541, -0.11331135994484397, -0.01719259238312104, -0.0356514076833675, 0.015031663685506458, 0.06406580130846457, -0.056307387582161764, 0.0455375637478341, 0.043041266232491854, 0.0074002650601307784, 0.05745693410374367, -0.13910638264061853, 0.03337342695964027], [-0.13798012162051287, -0.009167864838222767, -0.15970956314153278, -0.17365532223506214, -0.17305011192791334, -0.004994604423019272, -0.11852568503669725, 0.10257621748358417, -0.11066388082801874, 0.0008829565790892946, -0.1510254554443152, -0.03835557178546575, 0.00924088990517824, -0.16822190102523377, -0.13016248793444551, 0.11312751124248119, -0.16976064043531888, 0.011463229578759282, 0.09980893804864835, 0.11091178331702731, 0.13010787443017421, 0.14795497958660594, -0.03716521730462957, -0.03429461440332143, 0.17321606112837698, -0.17201793700174894, 0.07321436875970255, 0.15835365284570316, 0.007927996848757002, 0.013277789129024664, -0.022054886211283015, -0.022528046533868917, -0.11614354006548935, -0.12426387312647608, 0.009134762303908917, -0.129757893865234, 0.16802537777581325, -0.010760455695123183, 0.01155321566201678, -0.13269635659221818, 0.10093687274609867, -0.016521417453788156, -0.14379317982317408, 0.12469856550872646, 0.09817228791090135, -0.000662481557329897, 0.10834585284865769, 0.02412639574401465, -0.14008083641401353, 0.0025322066773242613, 0.04162796299106111, 0.01334625606009171, 0.07669826314895281, -0.14479855377464218, 0.08940791346489887, 0.10176148713092034, -0.114242470038766, 0.12780650177389738, -0.09026335298691596, 0.11426385175009515, -0.11660011312863847, -0.1542486415515158, -0.16175277670669158, 0.17280547521630577], [0.1109262430947711, 0.11940318614741695, 0.03817949286020309, -0.14105523062958694, 0.03295506313473505, -0.07223878192496833, -0.0572201029413544, -0.1021323363874316, -0.11904667247847318, 0.023820561962127867, 0.021014769966074005, -0.04646622208338394, -0.11827597911447726, -0.12777847308015622, -0.08103337274082471, 0.15942872259458418, 0.040175297076765495, -0.03056561572030494, 0.14774405604000776, 0.12866165356614415, -0.17496735403286012, 0.13512900019838875, 0.0007947042885156456, -0.1129330225286601, -0.0676597891652187, -0.06568673976113469, -0.11060867151821681, -0.09589298994176101, 0.11419219465646772, -0.005744292159973938, -0.04863787690346824, 0.15060428930688124, -0.11654012709191099, -0.0214822868506252, -0.06505590752273599, -0.13988155609606145, -0.09099055601671667, -0.15619558530295663, -0.16101676426760006, 0.13787298290212502, -0.03590491134929051, -0.046005721761561265, 0.10853892566037954, -0.09995386620599567, -0.02060866802609722, 0.12445659460560163, -0.14996134294045593, -0.06943016116715177, -0.1332546947318382, 0.16351559532434654, -0.051595389815797206, 0.042039969365087526, -0.02554897623180538, 0.15330646377396204, 0.11850022427122271, 0.015683855864392027, 0.09526269215549468, -0.031938220448060134, 0.08984589566811216, -0.048825977690389974, -0.11382452821830921, 0.14533348850330252, 0.11271817232950768, 0.02979089358113942], [-0.12941553072809553, 0.14502566173281026, 0.15115270093964336, 0.10016968842451511, 0.1339655756426195, 0.037238415501894384, -0.055076827446548286, 0.08916414446438105, -0.022779130267301276, 0.011827134049498976, -0.0674609031803134, -0.05790705386644178, -0.1396002388290755, -0.039080946380857184, -0.0015510497474208991, -0.14616310539061095, -0.1275349262367208, 0.10610532194876637, 0.12669840036806848, -0.08802833114216184, -0.04893702583881737, 0.010640911969295234, 0.12287247376723198, -0.06466854563914529, 0.08616474354326692, 0.03891190782228557, -0.1472309642927072, 0.0901665698574732, 0.15369073253085, -0.024753871296432587, 0.03342858832138359, -0.02706326266809527, -0.14487701260481234, -0.1616123537372765, 0.13879149046893693, 0.13575856851466162, 0.11287703605147686, 0.08844380268335597, 0.02951215482118746, -0.17459898847238725, 0.09497503552927364, 0.030898693295221377, 0.03202156368363234, -0.02781374645886195, -0.04649480842311272, -0.16752108235744598, 0.08305003492086954, -0.1327663407814078, -0.005919856726622449, -0.16714146291200935, 0.05105248431381459, 0.16190122265853343, -0.024949646451850632, -0.12302913322320919, -0.1151478348049505, 0.030506124564229777, -0.17396181681064007, 0.05012047247838322, -0.13142581309098056, -0.13042452752466013, 0.016560802045949202, 0.008227528848805206, -0.1310082932674909, 0.14794253528310267], [0.0996838049177935, -0.17037000743916766, -0.030096166849456835, 0.023346608856425876, -0.15283585037788866, 0.10639884232547149, -0.056993095209628496, -0.061477334518058285, 0.05525502431679509, 0.049103448802547994, 0.035462868382042545, -0.15870517270408577, -0.10283639192162465, -0.062032634753473107, 0.13143547387555315, -0.08310569018103263, 0.06087214427996513, 0.015476530752084485, 0.08518026408449392, -0.13461906909722587, 0.0370947311664012, 0.07791861972247346, 0.11895605063898519, 0.0869950625667433, 0.025571482756414524, 0.12559979909109065, 0.06633977300130858, -0.0489903114811017, 0.04308749928565497, -0.020027326360931498, 0.03323057178333019, 0.1532780703750724, -0.10055707149697797, -0.09098058480809403, 0.1669982369842902, 0.07719494462297237, 0.1460382649603175, -0.16172478157884257, 0.12751951238329934, -0.13901755183205883, -0.13970545226552283, 0.03593058510410018, 0.09024855442591814, -0.0507770897864121, -0.03320358856801293, -0.09113785403889631, 0.06297548377671548, -0.03351632800425537, 0.07084413420911022, 0.14543880954868435, -0.08462770966107686, -0.1020781621807792, 0.15161656809154242, 0.07662343535424496, 0.0089237419106987, -0.09938790271436267, 0.03936157680980289, -0.10642315367956806, 0.030749255417212996, 0.06045037603460563, -0.026169137323025476, -0.11572190561836093, 0.15883203371180302, 0.03044813144104225], [0.1324029262904964, 0.1755104526115557, 0.1472680418670625, 0.054100767610693, 0.12826720591324878, 0.07080300889003328, -0.06394608483544822, 0.16458426062941944, 0.08940386693158474, -0.1039419644441012, 0.15499943456526508, 0.004181599187390084, -0.07671475131677578, -0.11077717571661384, 0.1003876086342392, -0.055140541858833575, 0.1572155761417703, -0.14928644776856184, -0.06427936629363933, 0.16503061836616842, -0.04230385563982218, 0.10803021100166961, -0.09466552810723435, -0.15396983276173623, 0.11273335994380695, 0.058159214141726735, -0.16781342287359208, -0.05680467564585708, 0.10599244330626295, 0.08046470501360206, -0.1326306470235098, 0.08064626696361622, 0.05403389231146109, 0.05402061250418187, 0.13713205636269954, -0.0574564486992226, 0.06085117155939054, 0.11246426194470928, 0.1692133712375002, 0.14737896128895922, -0.07274774901429852, 0.17569226473905658, 0.0696639673049803, 0.1440750500823664, 0.13077497619986816, -0.02301945731541799, 0.025650109891650744, -0.04857467401669131, 0.15681926137211882, -0.1679862835234164, -0.15214042584331297, -0.05014003575284631, -0.030859811395340886, -0.0031368775202657295, 0.05572104455390368, -0.03938881024131832, -0.16547513260997998, -0.17653732810784198, 0.042326223661686486, 0.13567970297423554, 0.10713897477297465, 0.15533209040299165, 0.06683123694775062, 0.1355971528595749], [-0.00103779798283829, 0.17209627692286225, 0.059128676151222664, 0.15026316397103082, -0.10589060593210492, -0.13099866697686804, -0.0028069716753561604, -0.06400569116118385, 0.029873961170702724, -0.019600790101508697, -0.12086913885366021, 0.12228368895382905, -0.10190724749331116, -0.11736925323502255, -0.05921395739987379, -0.04677917322098624, 0.15400816500419534, 0.053725091953233745, -0.14619770530284282, 0.049245751118680695, 0.05508044095081113, -0.16598818782399336, 0.008534518338332464, -0.09861647809722067, 0.06530647674766162, 0.176143849536797, -0.15342625406915084, -0.17543128628617818, 0.007722885971065768, -0.0153145679805712, 0.0017941777802524047, -0.15467266458699366, 0.12395219620805673, 0.058657819332142896, 0.02209811045494631, -0.12108072098258668, 0.03928393418189452, -0.011079675452369736, -0.06643602247722409, -0.05131785670898387, 0.10810616225462803, -0.05070046011276865, -0.008532598680214564, 0.12198189261324313, 0.04194975125091511, 0.09223501500127293, 0.0177255297564124, 0.10294284584131065, 0.004178229566687475, 0.10286731538544344, 0.041439108473563996, -0.0049897753640889, 0.03921111759809512, 0.12047461304430182, 0.15908467793280057, -0.08445381185658805, 0.08906886436319535, -0.07824069840407408, 0.17218621789176675, -0.05657180764462274, -0.15564470182610668, -0.02392197669700545, -0.15639753242741733, 0.10054658832476862], [0.060990256083108374, 0.11667383618280364, -0.06977761968104294, -0.06078406161083306, 0.12889468517826252, -0.052610390794065015, 0.03766996548932319, 0.012458743503088529, 0.14538448224615372, -0.07522788783077569, 0.1267097641614521, 0.09023865961559305, 0.11447685833742824, 0.08968639276235044, 0.013503815982153389, 0.08711556493241407, -0.034863929866103545, -0.11237131603047557, 0.03418772215576937, 0.15361568678397164, 0.07218279694213538, -0.05864245394300208, 0.03786581696971558, 0.06269613364921323, 0.12376220032318876, -0.09083913022712631, 0.015106545138526273, 0.11139576533712472, -0.13330817124934202, -0.14256075328412943, -0.032941713218190796, -0.12564550047585693, -0.07352054193449467, 0.11961648533747274, -0.10007119140505523, 0.06358356420942285, -0.10725877282212874, 0.1674378685718277, 0.005282810474697876, 0.1704017339865601, -0.1652708498324066, -0.1251493301303841, 0.16610810348066654, -0.041918958049392774, -0.0951594369874814, 0.006078799793250683, 0.170116706644565, 0.05173578469766721, 0.03498355493524116, 0.04967215941329076, -0.07777475059565606, -0.14446354507777798, -0.10307282602207277, 0.03231026463754791, -0.002651545095232388, 0.09983623421943948, 0.023260800570956714, 0.14652128414444163, 0.09065559651898483, -0.005440609883902776, 0.11582235764976004, -0.06870705042019114, -0.023877761376359025, -0.02414932996148953], [0.16139085534309625, -0.010380843753597213, 0.15135930817078616, 0.08775203793247385, 0.05797962110144425, 0.054135203230752965, 0.00778288973338534, 0.1192826691986735, -0.014706830433841134, 0.06101565751088689, -0.16307843029161334, 0.0029567933422639525, 0.019235048047189868, 0.07356187337633993, -0.08990265135658294, 0.008617115308035356, -0.0016087943284865402, 0.12023129847859512, 0.12817453521355773, 0.04185429810174909, 0.05122122312302821, 0.10410342567140887, 0.0018084824050087767, -0.15153980397869496, 0.04311079791215758, -0.0899030009587469, 0.04195393816229251, -0.07581648999385956, 0.081046635504576, -0.0790538795615235, -0.09707482880592977, -0.09469681967240429, -0.09406577555576368, 0.024321192898725086, 0.009405592003774887, -0.003763317524073162, -0.01532601063649705, 0.17493238863318447, -0.12476303470336125, 0.08189964856519996, 0.14927762433613953, 0.09213307612083507, -0.024936750654698553, -0.0579300394804302, -0.15533839646669326, -0.17242717614325517, -0.07379594217105546, 0.025402481959724554, -0.028150276478730196, -0.025925602865355724, 0.02959005177454982, 0.02480347004210301, 0.15653659757125107, -0.07918036185343276, -0.1450321728470001, 0.12191812975472119, 0.04512101229718393, 0.019932521743654785, 0.10959590516542592, 0.06050889051997299, -0.1577391205760949, 0.14673685867801847, -0.08181998772309039, -0.1378291587320298], [0.009937084314640115, 0.03223095455594708, -0.0026835351633776993, 0.03392817549425681, 0.13811184571350216, -0.1562101957725195, 0.08388293534791944, 0.07803686223982556, 0.14768263833729392, 0.09076027042249049, 0.07689063484176883, 0.13313581705649527, -0.1404209790306827, -0.062018983817620166, -0.0674122223309187, 0.04061825619914419, 0.08219785179742868, 0.013491844461901308, -0.023430102139419758, 0.17619121966881277, 0.15111763622823648, -0.036902206415222266, -0.0077655130877858705, -0.17463266694931318, 0.1291918179850624, 0.10891610491089644, 0.028683217849751485, 0.06099170411132313, 0.0958775608557185, 0.15837021913689184, -0.14972212348715636, 0.05537942366889361, -0.02727198754666366, 0.0714429652492177, -0.04873002132664554, 0.1287860728759114, -0.0012197469119401656, 0.01864179693768247, 0.16746077667841747, -0.14999701237414845, 0.1740946522566292, 0.13586264353405567, -0.11067184422981492, -0.06911200464222134, -0.05317386177409848, 0.10160512227078819, 0.1322096338024236, 0.016268870111211056, -0.034357254973713364, 0.04900927693139505, 0.143290592438745, 0.023923148518386114, -0.15646312316005367, -0.14135970534819675, -0.013718981854184452, 0.09896354530309752, -0.03544052927441512, 0.13328471588866134, -0.09135295650769229, 0.1533655396407475, 0.07704388447604302, -0.04559399548630887, -0.11315450982376211, 0.17407620157980977], [0.1351173210242319, 0.08843511460273216, -0.016078346297362475, -0.03743401219225597, -0.1280579481702172, -0.11262799088644085, 0.01965302931523392, -0.10356980397007681, 0.0973728040312255, 0.1715437673934894, 0.11988162780623203, -0.14964043528928678, -0.09872251771020403, -0.005882357221735718, 0.045156479418641184, 0.10290292144586784, 0.14420327997423818, 0.05641295961948792, 0.12450566291203921, 0.12753869940275336, -0.05059287293386981, -0.09603623480425919, 0.041963396842769556, 0.10890215614153678, -0.06680355157662914, -0.011431635343487713, -0.08424382828309332, 0.03272692900828943, -0.10007565105274432, 0.16333349409593742, -0.11669255886181587, -0.1078872202367388, 0.05500566365146369, -0.1287464020819627, -0.041370196549697265, -0.037568431823660584, -0.15836403398025573, -0.1586632217340307, -0.03866951722015376, -0.14723878630613116, 0.05272338158660792, -0.07075896940895421, -0.1769174744615559, -0.14028717101351007, -0.0631509974685807, 0.14414012241433358, -0.08964886285624576, 0.06114005133321609, -0.1326944857479696, -0.1138912911616333, -0.12802002160648265, 0.0748009476939098, -0.07044183741432627, 0.047845432775988156, 0.08236337341661852, -0.12026927117271521, -0.13364517255888336, -0.05703352781482052, -0.12622233770370103, 0.15975325019039543, -0.06944405691001643, -0.11092980391521809, -0.09594261466941578, 0.08700077002156578], [-0.09732443491295877, 0.037901400035685325, 0.007068540248980979, 0.04921178003678519, -0.07502592792207453, 0.012150994136579578, 0.08722372806283014, 0.027826100618640562, -0.08458306132728952, 0.14802520000021616, -0.0736572024509947, 0.006910880875472314, -0.08503649918141581, 0.13760541187269246, 0.1588092371650554, 0.025279048116589504, 0.005091492379959848, -0.133144418261495, 0.007440861742263981, -0.14958062839885253, 0.12304297745404034, -0.02997721835621879, 0.17599443828354772, 0.06199679084005413, -0.11891819642223446, 0.1288505970627613, -0.07503975455510684, 0.040884271012089086, -0.07713158994616202, 0.1692168898467893, -0.03309364396418745, 0.046904909117390016, 0.004228288202878453, -0.13028627452232766, -0.06529421100277491, 0.03704740399723522, -0.12964786814387355, -0.09105021540478522, 0.17340828804774192, 0.04289862208104141, -0.061798587672108746, -0.16449913668452595, -0.08087618737902325, 0.08831275089796095, 0.173950297379887, -0.02095016074100356, -0.14861337276499723, -0.15122305387551038, 0.15528349814958464, 0.08361124532807929, 0.07290845338723195, -0.047275659242921014, -0.0290749201006808, 0.06966828982068726, -0.1258267165553779, -0.10573480348052759, 0.12219454688488621, -0.04244854514812593, 0.0977307550552488, 0.010869370956919215, -0.12601758879145164, -0.09388994280810534, -0.11424524106861533, 0.03025612045410551], [-0.07750948487017903, -0.17170217174001615, -0.11451552225283552, -0.12771943373568084, 0.08020592154075179, 0.13885034006249733, -0.1190667048533037, -0.007134101354310286, 0.0017683746338188844, 0.008053891217919853, -0.10057481154223888, -0.13381664446753674, -0.15217823500635694, 0.05201180814825723, 0.09316831632469653, -0.118802647340611, -0.02688937828537136, -0.12575475751479226, 0.018582267114288648, -0.050241378106525694, -0.13053484101863772, -0.11734469375401245, -0.07690423977186019, -0.1677384092775793, 0.10228673968252625, -0.1043887400112701, -0.043023637577888775, 0.054745892147774367, -0.07672195190021501, 0.16109254212129706, -0.00842492617629304, -0.05154670881269288, -0.13858901506109883, 0.10127333100451912, -0.004003701518878126, 0.029338736232398122, 0.02826506121887327, 0.04628476762843938, 0.14216650196848157, -0.06903985735818183, -0.15695093229975657, -0.08257617984651401, -0.05756654541719971, 0.0903920234792476, 0.10812443188237386, 0.08098967778106356, -0.16521503248217484, -0.07187946789959518, -0.021297360989849586, 0.12136460953658496, -0.07970560593269056, 0.03632064020218888, -0.12196295795497925, 0.018042723402145272, -0.019300635910365314, 0.08205109807935199, -0.16704953516161208, 0.10293984870931991, 0.0041505397572751505, -0.15944060692743692, -0.06133112839633978, -0.07402611743564992, -0.012808845084668952, 0.007401295809947116], [-0.079694532564116, -0.0658664117017479, -0.05514496522031981, 0.0433232609900745, 0.055076255455449814, -0.00997947596701812, -0.02730317356773774, -0.031243478550136903, -0.11822799050900977, -0.12967379473182755, 0.1574647609755137, -0.1502439112362603, 0.0281285590580635, -0.031709475363643325, -0.028629431191158287, 0.11511802940944305, 0.13313322403415664, -0.017092662824824266, -0.11975438873482862, -0.12048796076330424, -0.04001591132215738, -0.1097207246080967, -0.05173034615182971, 0.04873388492661665, 0.06875236488743698, -0.02592186307902642, 0.02656705476325559, 0.023444240045254597, 0.1308302526959782, 0.1176757900527284, 0.08924670165262757, 0.047679850571816756, -0.09998931733870325, 0.16284604887331997, 0.03496898238451528, -0.0073876619511902015, 0.08759268260769086, 0.17230019770661323, -0.036425196606864295, 0.12666552865435246, 0.13290842173368297, -0.16062894188100113, -0.045443098785688855, -0.04465106439044428, 0.13177478795580133, -0.1491468388413753, -0.07946153009263397, 0.15149331655856582, -0.13454173438793124, -0.14141559376655466, 0.037933514411893576, -0.09133685110661426, 0.16266870009462617, 0.060699977420843765, 0.10740380053524685, -0.010540091158748197, 0.06800421550104412, -0.12965553692197074, -0.14810272470743072, -0.0007826078604610653, -0.16482092153613434, 0.10188022780642138, 0.04116565506594502, 0.15365568254710685], [-0.05292554855624622, 0.10709309257768371, 0.10233059451713046, -0.03225852897452232, 0.17247441015656984, 0.12364974705818095, 0.03331275334661482, -0.015146874118916251, 0.15664221098538825, -0.006407586095059731, 0.09916182822099227, -0.12360560187102163, -0.09382855226025599, 0.005221384380834165, 0.05447034176266777, -0.045046930708638515, 0.07293829217900473, 0.04291166037655117, -0.11577746632592342, 0.07368360895860637, -0.0917360348217339, 0.012229350504015921, 0.14075226736652233, 