{"state_size": 5, "hidden_layers": [128, 64, 32], "action_size": 100, "weights": [[[0.4914515520135355, 0.0770976509834883, -0.01461629050373453, -0.010022618873582878, -0.032288712661235126, -0.19593886602496233, -0.09319575059554037, 0.3396984108785285, 0.07205403255229618, 0.4292709618375595, 0.07761004926144446, -0.029511539294650085, -0.20155392734100544, 0.41325114255187984, 0.08459678823146002, 0.033231403529529725, 0.04509470257881184, -0.035026285449994046, 0.44665874621585694, 0.31131748897165373, -0.19135210669009364, -0.13749798867263338, 0.2346376090271372, 0.3604756171392234, 0.3483301223906936, 0.40664028190387197, 0.4565078203808055, 0.4802764235103008, 0.17684686283634432, 0.05666150204423079, 0.1342933527540466, 0.14812976129226021, -0.08527342701472684, 0.4507996212794939, -0.08888440211817834, -0.21373293371175456, -0.12092729087828394, -0.13969788437462893, -0.04208125369149038, 0.20550051879029685, -0.0844310496361278, 0.1578090494867331, 0.06514141163113485, -0.18277112109156068, -0.20715843793863095, 0.2472059223598586, 0.1679244779970762, 0.5479851280785363, 0.20154393868943357, -0.09959505167843904, 0.26210041591062255, 0.3368639550578008, -0.14751477473987332, 0.015191306557588075, 0.1477604075564325, 0.3814375942840212, -0.1130495849561649, 0.19101676552003108, -0.06736778638615448, 0.023314787531218517, 0.2795649495835353, -0.05775948357727048, 0.20992698446998095, -0.09284830774539111, 0.05079227415678333, 0.402342350983804, 0.009776746669554914, 0.03722082341124858, -0.13152843209828546, 0.33310756474369313, -0.07771218963013213, 0.21203185838659488, 0.2171985143150762, -0.19768990298526076, -0.06680788751273783, 0.37062347863504924, 0.011121405543592505, 0.2748003373851198, 0.2435492782454521, 0.34637540798563793, 0.2346080609503637, 0.3302266828041852, -0.14760029055328455, 0.4141396628334283, -0.21083596656152134, -0.07620112954102876, 0.43770676054580937, 0.1631908191805137, -0.05372900734750441, 0.1553660186240534, 0.1990710651030051, -0.12702434350873054, 0.41673836415226295, 0.15416489938800515, 0.11909636467138142, -0.006255236443626704, 0.09633927953749809, 0.2304612620050182, 0.12091482454090129, 0.37906801034142634, 0.12750650222501445, 0.293779894867728, 0.005597398548892574, 0.0023584400154205913, 0.4142245572574149, 0.08508930304651298, -0.01740961324199575, 0.02263465107264498, 0.14227957303474154, 0.2962815538435629, 0.346766573664952, 0.3311284222531151, 0.3424533413911775, 0.3155309343898705, -0.01281299864301901, -0.09351383619039225, 0.1812947632558448, 0.26145318225450703, 0.1258062001241363, 0.2480631150155042, 0.03794501651527896, 0.13335661499211296, 0.21457378222629173, 0.09545449132684515, 0.4787091902877986, 0.12000746971321297, 0.10031069630638678, 0.4613711562905974], [0.10834150591520275, 0.20393119195602352, -0.11211533393272553, -0.13151394347324005, 0.06363631495552523, 0.12384814034299947, -0.1305743438244318, 0.12123940767904362, -0.17429431871718104, 0.15661284962914732, -0.0040283404429457045, -0.1758300605574028, -0.012628612748051243, 0.068418044410991, 0.06785768646288087, 0.1062892403864861, -0.17044228666483904, 0.10439911228891774, 0.2553646647114401, 0.10112604537577918, -0.10962505702158427, 0.006304876451325353, -0.18410596865716292, -0.15091706635956983, 0.09514955856872867, -0.04290594833604009, 0.06870842915770636, 0.11702412348979027, 0.05002496806461198, 0.023778568774255715, 0.2136055943764056, 0.10027451472267317, 0.0495708778827053, 0.2028571935613465, 0.17643264119673727, 0.12488641222752071, 0.05509534051217982, -0.10076395534996922, -0.17913153622440206, 0.16893150445746996, -0.0005354429182924114, -0.06160357912862425, 0.17871964456108694, 0.12181389739222367, 0.1016687206630442, -0.015919007211201618, -0.11401330885592774, 0.22753036608045293, -0.056137171277438544, 0.1758570452483332, 0.05248512069301423, 0.14083843791189402, 0.07734825495869203, -0.011751377520834827, 0.2158729849861418, 0.0282640867984124, 0.19792024522760596, 0.17828998385399894, -0.14242899452918995, 0.010568461081586822, 0.08052324706825947, 0.08230998020652243, 0.21998415040474947, -0.06803383155394485, 0.0340121845794538, -0.040799904563001664, 0.07925262366013, -0.11867425725081245, -0.08915118713901705, 0.21248054682257864, 0.06706453124936652, 0.12265067172901509, -0.09264364467210419, 0.13234650027446274, -0.17959519749152572, -0.022959065693612543, 0.08803829653132571, 0.1383194859343381, 0.14410400406874654, -0.13106992783175334, -0.05359862031850251, 0.09424754646948627, -0.05161854217944911, -0.003753461082521759, 0.1452245582225964, 0.04348149413820471, 0.1722390689571712, 0.05078654703926982, 0.009901230351513898, 0.2079776228187223, 0.15394102147141978, 0.19920334539477533, -0.0783079014774897, -0.04170488902908224, 0.09377664372595251, -0.16005396411782682, -0.10075994980658134, -0.09364557059601455, -0.11103115056663314, 0.2106951009842785, 0.22765374087980964, -0.13938749027887506, -0.14652974552675282, -0.06931021671453, 0.016995028301297177, -0.21020057643496454, -0.02859443615672211, -0.08866213562409775, 0.17348895117637486, -0.12597836460377612, -0.032700076390766865, -0.08626927795499598, -0.13244956871069394, 0.03726722696119108, 0.06233039050589092, -0.13218993969366943, 0.1564626069316061, 0.019210235497526245, -0.09986398194615931, -0.06362726189841802, -0.12125073892639401, -0.08312948417343502, 0.13020545645941098, 0.19715109285432328, 0.2062069831251195, -0.1643493788282818, 0.006230284541622066, -0.059612200566079944], [0.31586133652846177, 0.4070974079347525, 0.14641648057709258, 0.019552531698960034, 0.05453983841119444, 0.19649767343985725, -0.05960414771970868, 0.3032159871832979, -0.17558628112164576, -0.010590322186171064, 0.3809575210786894, -0.19275559543481788, 0.045941716784317715, 0.3480856194663445, 0.1678862677367119, 0.3709885465409783, 0.25261140679762323, 0.11014953531023293, -0.01532517115442175, 0.2764972372764581, -0.05922374163677366, -0.12161326599488236, -0.09571494430066856, 0.3772326525452739, 0.0740511246066105, 0.42111117876294835, 0.3657622599333823, 0.41117832606269644, 0.03840396205549306, -0.20991460186620514, 0.1375277417172189, 0.004945903287580087, 0.14494534380031643, 0.2377774910373958, 0.16685800024681194, 0.14652704679459813, 0.09948336931213905, 0.036577748714572644, -0.17437080183146192, -0.18945408804223043, -0.15828293775526078, 0.3566068738547675, 0.31862431796711577, 0.07981949651734685, 0.08640612432449143, 0.1024412377866911, -0.00792842398835616, 0.31665556857884447, 0.1521522658262417, -0.14456083834734287, 0.07070870677346973, 0.07385713428595063, -0.054408522336794565, -0.20677259172607007, 0.235118749044439, 0.22711385224539535, -0.014484771609866554, 0.18304570195788547, 0.060497566572729394, -0.08815599053648485, 0.29085133048681855, 0.040010159236412025, 0.23411093121912865, 0.052231217877891235, -0.0544762472948049, 0.14010564134399556, -0.19758710825496117, -0.18940382187702046, 0.09171082888131149, 0.35118454165811275, 0.16306308923899576, 0.40931278454968034, 0.1435113746353247, -0.09706477823371616, 0.15993357012271117, 0.07096016734687328, 0.24513112466839912, 0.3402169694377006, 0.1373806578558779, 0.051606345911723785, 0.12086327652032351, -0.001200250871383511, -0.1675280751136562, 0.17651717177827025, 0.14849892962577066, -0.10294155965804205, 0.397506947973379, -0.09639921958006474, 0.1951320877046464, 0.28461499819111485, 0.21001181795558307, -0.21193683601979355, 0.48964877141290203, 0.12817587101285122, -0.03295618879286453, -0.17212700543402162, 0.2802879473574055, 0.07777646422165453, 0.20276572099234763, 0.12026901352644236, 0.2525109644441341, 0.06394593957953872, 0.003939402029294936, 0.10251654966729185, 0.1831782919615698, 0.05392019188101037, -0.13914638136712876, -0.20951312841598396, 0.02320403671153655, 0.2734655507867674, 0.16976213836683599, 0.30573754858793906, 0.08168090574529922, 0.08464315358008463, 0.1677269336281278, -0.16364819631174013, 0.3819831358498965, 0.2980750763344275, -0.030515284297743313, 0.34082637030719987, 0.220785093115991, 0.25306497559495683, -0.013830256433668017, 0.1866988145660833, 0.25810876204356537, 0.08866621517746283, 0.36178677533554005, 0.397729622612302], [0.44880181355736853, 0.3434972328334703, -0.20993289545352878, -0.06876368745088549, -0.12582412355885098, -0.15072488120974376, 0.04211877810777123, -0.022648493088855387, 0.08095477655782359, 0.32035842004893994, 0.32687625773647394, 0.12584252754645867, -0.19158138770601005, 0.06307210776717104, 0.3459015846336641, 0.26108255244800244, 0.18766588464386788, 0.006640078445127987, 0.32213949218309945, 0.04714269731731643, 0.004396467868061804, 0.1447494061706757, 0.31662718398312584, 0.3706714456771671, 0.1820858596429717, 0.46865356781382284, 0.46411989969068357, 0.24153271583730945, 0.04704092338458181, -0.15497611118896304, 0.3610721457996762, -0.1426153626552719, -0.04551483655413573, 0.26676020378256726, -0.016127637141424792, 0.12749855083378037, -0.1488617122451104, -0.17687129566493398, -0.019533114228358378, -0.17162319892230177, -0.18782434572512374, 0.4233953179864913, 0.12641351491427583, -0.2105895158570538, 0.05189212365885906, 0.14764681562517742, -0.0980601648874956, 0.560516284596155, 0.1763391868299873, -0.19548541038236134, 0.10039674612812952, 0.5168095929311227, -0.09712355941688407, -0.18817776609804696, 0.33899933383237774, 0.2294403774424422, -0.13551933873905506, 0.3522465987388963, -0.12112562481140372, -0.14230904790235405, 0.1325344343059158, 0.025949541854352342, 0.06579136437049153, 0.09940845271751232, -0.14125383384610501, 0.37148230557123174, -0.0782467323944381, -0.19233446382810546, 0.10150684131225579, 0.3416544360497218, 0.0833757048393663, 0.10088001374185342, -0.13612691325652856, 0.10386081918723308, -0.19060620428469885, 0.16631748807903085, 0.2817846624625, 0.006983139800913183, 0.4035080208604773, 0.024626397742904406, 0.4380067245075158, 0.35755136986165703, 0.01353578831037483, 0.2843223620500785, 0.040086667633308044, 0.15368689101069882, 0.3346180050632506, -0.11007757162145933, -0.1991535296155073, 0.28564129744337446, 0.381685998182131, -0.1638619273086359, 0.4977955723706074, 0.2553365830958521, -0.13844522873787904, -0.09964598771136236, 0.04409279718473196, 0.15584563616306646, 0.2681358586790374, 0.4090550552601086, 0.3076242242102091, 0.3405592909906989, -0.035872399709662356, 0.22761950302823397, 0.21736048283522263, -0.10393245916772965, 0.08353333442298537, -0.1505697050614912, -0.13765250237410986, 0.13307363194598218, 0.3920365898968303, 0.4167430805780462, 0.005848286055596108, 0.31456197943337083, 0.353328799050821, 0.08859056506440935, 0.3368038536554445, 0.29907321050033375, -0.11333956808633112, 0.39302922190126466, 0.35118747247080623, 0.03927259450567021, -0.013257752071590771, 0.12285610016472008, 0.476068658538259, 0.18949684230851704, 0.40431569422674396, 0.467131237411619], [0.28661901278601276, 0.46689775444116455, -0.05092883399240541, 0.0031821960100487973, 0.020436165463741194, -0.04433755521847874, -0.011966403424834626, 0.4284789906422049, -0.11612119926675492, 0.5092084041066316, 0.35832961895578863, -0.08454456111735809, -0.15671951219979371, 0.2133153504866918, 0.6407406996835563, 0.4060766773421437, 0.4432994146719381, -0.13742135630992167, 0.419392154219521, 0.5830307770182195, -0.15061060483808944, -0.044252020631738775, 0.2597362826134621, 0.4168565306453545, 0.7039098593202723, 0.7311942704013479, 0.7214451380575742, 0.5539008584040482, 0.40214423987470727, -0.12067209242469171, 0.5100684047575399, -0.008382903688757555, 0.06415025083972577, 0.44516616620534866, -0.20386373356790075, -0.10769737222769141, -0.1266820377784419, -0.16243410000478103, -0.10547526778514656, -0.12461901584971918, -0.17597056400511618, 0.628953420555702, 0.6131229837889876, -0.01593490975472145, -0.15924862658789932, 0.28337713042423013, -0.14756586781976455, 0.4066096907842369, -0.021746285435309057, -0.12640099640694136, 0.039816646382664515, 0.5748723777848501, 0.138110829806822, -0.1788226568472726, 0.259578659557226, 0.5980503078449831, -0.021285499962800436, 0.5312404888727673, -0.06311261451440509, -0.12320609950717944, 0.7254114384658152, -0.09901593442438483, 0.022869601625598552, -0.11399133948163133, 0.07249818483826002, 0.5805103336808227, -0.11374342690152307, -0.08481127980925371, -0.0741324452056949, 0.5193183047139239, 0.09833626537052496, 0.5137113191404407, -0.14813658097332752, -0.19111765311803283, -0.13121283430841446, 0.6151229803477554, 0.11884059990019838, 0.3575811770956084, 0.44932868976067103, 0.004908809711571954, 0.6412633424292105, 0.22031000889949212, -0.06839143566538158, 0.5349465231546411, 0.019954419144090327, -0.054838192851221955, 0.7110377801309279, -0.08087428074912852, -0.08767894374358166, 0.4555554557805018, 0.526111672264572, -0.16436023003196926, 0.6828039595544714, 0.5954923606642385, -0.16023543504888021, 0.14904176752059842, 0.608387171161725, 0.23247009327232715, -0.02292140966570918, 0.3275924341889234, 0.6004107410433832, 0.5606710091398636, -0.13829115792001198, -0.08581330444518462, 0.42174230421535597, -0.08477956014165774, 0.016814625438023978, 0.0003974368693937146, -0.06824242153262475, 0.5603862487727251, 0.610362698289995, 0.3682539575303162, 0.5200188174001124, 0.6002887042768963, 0.24377620299784286, -0.19301990014348974, 0.5098638081401567, 0.10452904492848795, -0.06500981467585906, 0.4261390143068486, 0.15266080235312263, 0.4605962113577352, 0.3857176499603401, -0.10231103391238092, 0.5212391169253601, 0.38631266886271887, 0.6582983656378513, 0.41728505860907084]], [[0.5856864384183608, 0.11093471372841134, -0.013107502873844129, 0.262484549094616, 0.025764713307421694, -0.12637145466331084, 0.09679438698049256, 0.5925597159875539, -0.04606205236198116, -0.028618483477539564, -0.019155926716906496, 0.5377088572928356, 0.5419193733166937, 0.10471105833385566, -0.16076532464516963, 0.5813583126963718, 0.5385878864870465, 0.018435502101039874, 0.6969345512925237, 0.6211317838497833, -0.10817544092259855, 0.08711446695642168, 0.6497802272853314, 0.6121381580133721, 0.10138227989399393, -0.061782090391355515, 0.39813773473961006, 0.5345529802789873, 0.7185375657823175, 0.5931324901997036, 0.07099379534981524, 0.5872964303727245, 0.008540791917622192, 0.5016420807497539, 0.3551582648950113, 0.5999126512597451, 0.14298463643221596, 0.45688434282493645, 0.5518126404311577, -0.06922717270005009, 0.24074389002880248, 0.48276917124909074, 0.5233094449241301, 0.6684054041869062, 0.5120039744051977, 1.5432921089280625, 0.3529089794350831, 0.3746158312742643, 0.6903400277664146, 0.16222794085597456, -0.013345102989471364, -0.09681955845250462, -0.13495208223424654, -0.05237077694896842, -0.12770834249213808, 0.07672040511743436, 0.28030281182041833, 0.7153216197713809, -0.12111050461515939, 0.43411451270596463, 0.6956847037132242, 0.4874649673629364, 0.37614347723509994, 0.09216531264192959], [0.5437534225689008, -0.023339391507437975, -0.001471187494033882, 0.24449639555024197, 0.14132971851489873, 0.1664107510756312, -0.06396560592404864, 0.23138475965986186, 0.008478676505263044, -0.14412709902232376, 0.10856265696096648, 0.5325047454789077, 0.5011531794979692, -0.12392598479276515, 0.0524985511499485, 0.3664296031493807, 0.3608271773255926, -0.0019508765850773067, 0.33914991814528, 0.49260233562300243, 0.13776976188891185, -0.05797006858632427, 0.24986933354485863, 0.2409948247762886, 0.045762312549301846, -0.03978490022009302, 0.21181687792006207, 0.36314422000619845, 0.607786625583817, 0.36595636706595397, 0.10621141497530497, 0.47652159583721204, -0.152976477598192, 0.5725721101794244, 0.4242819811605502, 0.5594081051302172, -0.0738870422365039, 0.2968240778423888, 0.4637226533670307, 0.11812562850656746, 0.24241561539662634, 0.622837008372145, 0.4054738136076836, 0.3977110422388765, 0.33021686786592025, 1.2556634098797756, 0.39996729507987877, 0.2731364037586746, 0.38538892635451466, -0.0433508206326042, 0.14120498598776696, 0.17157047387224963, -0.1282051013304347, 0.11886210629133248, 0.024552025628151397, -0.15174794753945225, 0.4700289667109195, 0.593730069873155, 0.11321492191565712, 0.4774098284281339, 0.5650666338543314, 0.510136652473738, 0.2657492693052958, 0.0710901789405411], [-0.038825463878538524, 0.1654376061047829, 0.046099598287443255, -0.06859050357639243, 0.053364089542834475, -0.048717702506961974, -0.011011069702953707, -0.09901563914366412, -0.02473631743797547, -0.15883799301017457, 0.09755338984740616, 0.15415652500162746, -0.05846156247828771, 0.08241736664668656, -0.1542822959496003, -0.11362568717309264, -0.011790528440660867, -0.072198106474397, -0.05718840738640513, -0.020605151455354312, -0.09160366595883529, -0.060647166128686286, -0.06034249048366701, -0.02702605551702414, 0.13386550306240871, 0.13623908219734718, 0.17558267171898198, -0.10453614633290575, 0.13789484834684526, -0.15113928505811794, 0.003926745671211018, -0.05536319946170937, -0.06276890859508324, 0.021661210232790825, -0.09536203547276896, -0.013535747524667395, 0.035645847523911284, -0.05210280998095427, 0.029023586630239653, 0.001137843348779477, -0.1553514180725174, -0.007427558925576111, 0.16380530162592083, -0.00536026333394501, 0.12098356950040094, -0.08610719190707612, 0.024332891550517363, -0.15612092882702128, -0.11542658043210421, -0.034759232990307115, -0.13916349578533938, -0.15646988975915888, 0.1530881572727564, 0.0828100292533234, 0.03422623774735564, 0.019909969292684182, -0.16041858052608388, -0.05112642513507965, 0.1294104488883546, 0.021837589036752023, 0.03978944445577971, -0.024748120334322405, -0.06752353206568971, 0.0609063882972227], [-0.08185188751162309, 0.016248096505655146, 0.09257298606016037, 0.11000745410317544, 0.0880668069392442, 0.17676857183837094, -0.04275217908115089, -0.06778608747533467, -0.06393882955381218, 0.004487130167607406, 0.0787007433373392, 0.05225406690833467, 0.01940608671078151, 0.14477190345407778, -0.09753657706099303, 0.06446419216397037, 0.04512094227267482, 0.15368920742084466, -0.07365138347581338, -0.07861050748530349, -0.02031198798912269, -0.08401553621335903, 0.04007977795409588, -0.08343866343470578, 0.0882276040588921, -0.1434379935965818, -0.006136138529985365, -0.025193479351635923, -0.06740558223758485, -0.0299058992286212, -0.10484523246255323, 0.0038067803181073, 0.009452550865024223, -0.16467881270481835, -0.04352950708131368, 0.13716529073254896, 0.019472007671431785, -0.13014501154705213, 0.0579101289204805, 0.0016626266633590625, -0.026654072626352512, -0.023327243562774914, 0.1336303919246353, 0.11083789011866017, 0.1573729357811522, 0.08602604627084501, 0.007246609572848396, -0.17609416059225153, 0.1220878442401804, -0.10939007222801034, -0.13616680369572193, -0.09749770668853645, 0.16546123525101816, 0.11879650584793061, -0.11187603122743937, 0.052115547891025654, 0.14784507700051094, -0.15515859080154756, -0.07719732933607304, 0.04744190928929268, -0.1392595586771859, -0.16926128762295437, -0.11337874187527612, -0.049505248917986355], [-0.048356527719566056, 0.0004492347297170851, 0.009919843741933554, 0.17205622543919918, 0.05609969139323272, -0.09040568358641113, 0.02985844748596634, -0.11710127910964337, 0.1277847020053923, 0.13968445667367738, -0.027638934130771176, -0.030462812955927916, -0.10948955506625685, -0.14999654282824298, 0.07408950141676998, 0.0298313421002414, 0.10771867441493346, 0.054289506995489026, -0.13872573308771985, 0.07137424113147334, -0.04124848266038132, -0.16412689300703281, 0.15107707217587252, 0.017122453452598167, -0.07035538208915215, -0.07425014064621234, 0.04916646913073042, -0.13817275385467578, 0.00702174045133769, -0.025911382728675884, -0.12417369826952494, -0.028380312338166097, -0.14021759378264245, -0.09039421870517281, -0.09768241175870859, -0.07464557131590552, -0.15146008050226295, -0.13521236682245377, 0.1565297452780156, 0.02729834483311283, -0.07485154259814783, -0.1690303990556149, 0.03146234274863956, -0.0942744464366897, -0.16857833132317246, 0.01273644255046327, -0.013407969039218998, -0.12459866574653237, -0.1572877071294524, -0.020317631546635434, 0.02774057128247223, -0.1450235832722101, 0.014146300594141292, -0.1521878309149705, -0.132427651184756, -0.15921801497734409, 0.05712657284576085, -0.15342143735846142, 0.1261640453319998, -0.021418225621283423, -0.04637975115965791, 0.0006974957060279022, -0.12966486859478488, -0.06667521101320467], [-0.15632177198595598, 0.014564533184331152, -0.09510192603959985, 0.07975722110041544, 0.15393763042140754, 0.10525525370611885, -0.15993633821849373, 0.08440702899695555, 0.06095255284548637, -0.14405417020911565, 0.05364007240177221, -0.0781766457830046, -0.17335126586475333, 0.16790071121806696, 0.027963777440816545, -0.12619669247630302, 0.018974442586697438, -0.05659933789928846, -0.004189723827752098, 0.08174884173794333, -0.01707793799450269, -0.1581048896024935, 0.1381506250496141, 0.10612414417258027, -0.05993990279883393, 0.055846152561018575, -0.12331748175443456, 0.07636819031231551, 0.1710466477852507, 0.08221070072031168, 0.06830253608050224, -0.01960927805852921, -0.019190243976069693, 0.12505008283500268, 0.15737519865397329, -0.15943959196205726, -0.12426075751262183, -0.1283130224906334, -0.1475379640171408, -0.003388621646609191, 0.03562307123248159, 0.07439411457751094, -0.01948009062679947, 0.11380473861971395, -0.16107412047028877, -0.13420166659164554, 0.13571581774174316, -0.08733379603298615, -0.10269104462390648, -0.021727804370028386, -0.147530156480628, -0.11380499645171006, 0.08868605786862868, 0.07735155328477525, -0.13269438217699936, 0.0021412941664687435, -0.16470095902499268, 0.016357930055714443, -0.0323273992911769, 0.09325691035034994, -0.05081906996562378, -0.11862975579779307, -0.09747338585240489, 0.14227645014158044], [0.12990562017484067, -0.12944406541519446, -0.10509545207522988, 0.06282652851011841, 0.10456197883889287, -0.034587718526237654, 0.024015601113954232, 0.03990143178317715, 0.11531163212456894, -0.16723882970742293, 0.022643129821946495, -0.0634715062626805, -0.01531589684438217, 0.1263239626457374, -0.15404457701510682, -0.07744229825373303, 0.12305869571102265, -0.026628021519905953, -0.11281527514727319, 0.10863195001552481, 0.13647973803642358, -0.1317979447950275, 0.12110077344634443, -0.03304860801228712, 0.017210631376164603, 0.16125527669504439, 0.13961708105649326, 0.1530706289243133, -0.026086087222377263, -0.17397490559143722, -0.00032327291018782733, 0.03599324161388748, -0.09098821708353483, -0.11433179952448108, 0.11542046827197419, 0.056874363221184, 0.01642531431975605, 0.16561353401828025, -0.14056789551515875, 0.13080111748099457, 0.10317083624525228, -0.016633086708773753, -0.15581845928332547, -0.03135069158038925, -0.09522537222636418, 0.1653809478623479, 0.09747708094849092, 0.14515514538982652, 0.01800986384840486, -0.020937521841132595, -0.0390614679911242, -0.14577391027495146, 0.10682711076876608, -0.07948268948330475, 0.0648274944231145, -0.11348593979722296, -0.09045030705851882, 0.11036762796155278, 0.04089886788223113, 0.10629934106770536, 0.10105081834568594, 0.022732775397830085, 0.045351783586609046, 0.10067955739457876], [0.19531564384574637, -0.17373817676252848, 0.012936774066493434, 0.14157776802406022, -0.028997850596671006, -0.11466427111655271, 0.08088325237534943, 0.4296617691439786, -0.045894128179103766, -0.07535532190935681, 0.06444248090475513, 0.18063004296597832, 0.3168142984004544, 0.1727145636033178, -0.039041302958196245, 0.27747540092714673, 0.3690769743248947, -0.09118388932122755, 0.15730539742329339, 0.34535397659914746, 0.14726824457500293, -0.024211612492591753, 0.39551369205659515, 0.23791870479293684, -0.12122693235362686, -0.1558987921362121, 0.19604582375517568, 0.2345206698828934, 0.1948532948832151, 0.1794978204431226, -0.14688965279450544, 0.3544656205894078, 0.11578369173944061, 0.2590455356188659, 0.3507826219478386, 0.46796988689942887, -0.08032996176737228, 0.32524134080819533, 0.17665018148560077, 0.07302594023016687, 0.3013973539726226, 0.1819502400071988, 0.17347838088373366, 0.2833921385242284, 0.22253901180573557, 1.060883002305891, 0.26776684397159367, 0.37302296905302856, 0.20751433498665547, 0.0320788645697235, -0.05542982472239433, 0.14777833221521655, -0.0064840280958466945, 0.0022985071215408655, 0.11445463138746184, -0.02139042409388825, 0.1705743962694015, 0.41858148886729885, -0.01203650465457974, 0.3646345450361196, 0.2161382367811628, 0.2867066250429434, 0.3040089862076678, 0.13794835387384516], [0.14730412247604077, 0.16482566885827166, -0.08708023435653171, 0.13799163563678737, 0.008265352465802196, -0.1174414573325893, -0.1654058678901021, 0.07095705342809931, 0.08723382680814726, 0.04955485842018317, -0.13927137450492122, -0.17565188530417622, -0.08081367207075456, 0.0009917636202204372, -0.04015426792959001, 0.02154805573132309, -0.14802516780736744, -0.08987681486985614, -0.1688095996745488, 0.15651636738518424, -0.03349562874477165, 0.08013159700460229, 0.14941477465248246, 0.17173754531605726, -0.007829446190067202, 0.12547127741218808, -0.12007690374186845, -0.03227791146720451, -0.016379788571945178, 0.06671564678340859, 0.06304678618950108, 0.004287855304257986, -0.12373534152654589, -0.05417385966354842, -0.13495387963269986, -0.17481253090296436, 0.03207206995806183, 0.044359932175735126, -0.16911484891068454, 0.06645691269589021, -0.09542852599965966, 0.11437237641098495, 0.0902282917354733, 0.025247308608019055, 0.07460310142575081, -0.14566851666829586, 0.012760142804947356, 0.08554483897866942, -0.13282039326087527, 0.054051224503663065, -0.06646133431903777, 0.04802167189500914, -0.01819258776494731, -0.09817168745606354, 0.15706243310958382, 0.16281590542986482, -0.14828747674633116, -0.06281275653790953, -0.03494987301658217, -0.12490948577521367, -0.04292641152431077, 0.08297956345006009, -0.05341320126171161, 0.12418835254653152], [0.2728086085668062, 0.0973426155370011, 0.04328845576216117, 0.2189421497367774, -0.16038336824583185, -0.13492716781179595, -0.07280141400858624, 0.44152101428659574, 0.06691153588983076, 0.0031631565346181, -0.16820388664845218, 0.28317060029396535, 0.2625597608079736, 0.041505907520372115, -0.03892093715342779, 0.4788931119151597, 0.2849920648135038, -0.1609977807476365, 0.5916137478288865, 0.3941034496359359, 0.06017483827908326, 0.14931366227597773, 0.5208575811719216, 0.5533144272210064, -0.09678340372915771, -0.13704433691076082, 0.21923690191925876, 0.2102985998824975, 0.3599698018522278, 0.292805828457568, 0.14383285904952198, 0.5412715013781284, -0.15723050750697073, 0.6083795762457442, 0.20135227837983716, 0.41239631991610504, -0.14456830120860295, 0.4341428468318399, 0.5430310047329725, 0.0924661724907724, 0.18492256843605864, 0.5974220631241101, 0.48506630649661886, 0.5331292914632897, 0.3891387240606565, 1.0653976269242358, 0.5149406247523853, 0.5244278081558684, 0.4624430202637174, -0.09343963477393986, 0.058725205155921445, 0.1499869974515168, 0.07456498061089709, -0.10466778795702007, -0.040963217936031665, 0.009759842792995577, 0.3254169208746366, 0.4874840025736077, 0.04750217896088497, 0.6139549757097869, 0.3234878919309553, 0.3907664964387064, 0.4019732692168191, -0.10714152547223607], [0.20134441509917528, 0.14114419965146524, 0.17568254279256004, 0.22415118435104203, -0.16434014421874152, -0.06711327143322333, 0.14703043467397903, 0.4873951443227943, -0.16233157502190623, 0.09582153250657718, 0.062311000469634975, 0.18508503507699375, 0.4987739863423277, -0.1292276829914831, -0.08312388168187314, 0.41054212224432196, 0.27192306808078426, 0.11361872551054623, 0.4294158455705178, 0.3935814007317977, 0.044890865014454086, -0.07333238994133659, 0.4903107323895872, 0.30071049424930796, -0.006683969515678505, 0.0626714306140687, 0.37894431743442947, 0.22024582542265736, 0.3546962216144147, 0.504954923732872, 0.04989980707128646, 0.40119123975596016, -0.15801094026241372, 0.27203687230564944, 0.24590722006567584, 0.35728335160212854, -0.04966771696886457, 0.4393108707311646, 0.3079049846114311, 0.026345932611471435, 0.41678023857388646, 0.4868243816876946, 0.43457038190652486, 0.21720948384593758, 0.44339063494386355, 1.0162659938059229, 0.20692206385621065, 0.4404022534919214, 0.32595560252229794, -0.0003782536307374851, 0.015096966387437738, 0.1401817492417574, -0.13086368914313207, 0.043993340120316964, -0.025316014445306123, 0.13197353182607222, 0.3250097904650152, 0.4170424391486034, 0.16196397016899108, 0.41235089084754284, 0.276667603143109, 0.3125196254089544, 0.09606628349583336, -0.05784297184877196], [0.001975251136662276, -0.06641130371315129, -0.03845539111369911, 0.02035063791946423, -0.008636225938983444, -0.10494059876157218, 0.0915956377285074, -0.020182676030982033, 0.04512859439268663, -0.001422750544757323, -0.16051932273666467, 0.10692214588063034, 0.011175302134052822, -0.1405191470869136, 0.15762091756925692, -0.05192805030856906, 0.17003190839428897, -0.007695970475465497, 0.14378797363530396, 0.08469246494093799, -0.14515850953291218, -0.06288019786161238, 0.03976543171505398, -0.13241056695469938, 0.15575897733967928, 0.0371331911095929, 0.04307807169510075, -0.11675100321403085, -0.154550345734951, -0.011660513343167839, 0.1733456047384674, -0.05667038860578462, 0.08788892129442924, 0.006203336279628324, -0.05020855752059611, 0.11211779943598862, -0.05210558200661412, -0.05818460818225525, 0.16311995456851522, 0.1107450007222873, 0.019668333112466074, 0.09438715499510017, -0.07528454771493122, 0.08462940451023279, -0.0970485950643182, -0.13307276728108217, -0.09727366360625528, 0.15901196362878303, -0.11727766382663231, -0.09249859023041407, -0.1696414830061539, 0.1532597734766509, -0.12679132322110692, -0.03065723964888073, -6.945974572256097e-05, 0.057552180998128616, 0.05852946384827973, 0.08997385305995229, 0.08637831097750567, 0.11566650814092425, -0.013469696911181134, 0.07664837079539807, -0.02194569489321671, -0.08279808759933685], [-0.09074151747855594, 0.15514515945869925, 0.14303648038753522, -0.010481740155672742, 0.01016423068977701, -0.13823825444868215, 0.14355701387147127, -0.06948092717194874, 0.09508606778420584, -0.11157867951387054, 0.13833418082481683, 0.15709455104009426, -0.008985352513028871, -0.00012982808459588435, 0.1429915135344674, -0.17108742659478493, 0.10518493910630874, 0.05855681136030089, -0.1094041493961956, 0.07225589473134983, -0.16918070316911815, 0.1046961164251484, -0.12092209190527577, 0.1580599096903312, -0.04527956940366798, 0.04136356015220191, 0.09677010087852841, 0.057204327460577215, 0.07299877850857348, -0.004089609485683654, 0.16915184482081494, -0.17371529739510033, -0.024866014058179037, -0.071837128676413, -0.1601837639082171, -0.046079501833169945, -0.12515833931681447, 0.09464924059406496, 0.07980212000220446, -0.07700764300742016, 0.09185697374978505, -0.16518732106654865, -0.07153411860491252, 0.013642827156881476, -0.16380794246770847, -0.025171901143636183, 0.17459233344947564, -0.06032299068285081, -0.11374176588446921, 0.11786248230997473, -0.1535399892371909, -0.12398329125396976, -0.1339955223440318, -0.04860933721108143, -0.15157146935613988, 0.10431385483525349, 0.05893337593017062, 0.05883350111099464, -0.13556367864295377, -0.03457050872948114, -0.040877054114794004, 0.15669362332431078, 0.10884587543959237, 0.08977523721593308], [0.18705359274946512, -0.12049171374967547, 0.10343182097504997, 0.11746034294273457, -0.05779449433415001, 0.15985765568914556, -0.1046940043594621, 0.4169596354286595, -0.15814740720273832, -0.14132173432635686, 0.11282152295780348, 0.1684831965563011, 0.29465319456853795, -0.01117184857700107, 0.03853197138300746, 0.4223052232471853, 0.3071238729224733, -0.06299751313086362, 0.2365797196866111, 0.2980382728742564, 0.01012037213967607, 0.12485322536897409, 0.23978370776405508, 0.43737483751078915, -0.02477304770285179, -0.11279126446576927, 0.32657382966763665, 0.14796977379494344, 0.38492016561857495, 0.1842668080424298, -0.025389460104456547, 0.4135747744887254, -0.050139529328034865, 0.2605961874528166, 0.25378620732579377, 0.2466985057336459, 0.15667795906632656, 0.2198058944518306, 0.36560971430309147, -0.06424408269782252, 0.2671608228250539, 0.4536486389765169, 0.3002136758503022, 0.4244475015351919, 0.297512521252877, 0.9086274474727289, 0.36355646881854614, 0.23722491015229105, 0.4432290691936433, -0.06312901202751307, 0.04683185712689922, -0.03471121734868793, 0.1229733607639262, -0.08214346896572014, 0.12915979281361376, -0.04094847788128758, 0.2716199388656331, 0.4612146400890575, -0.17507445095770055, 0.21114661245782315, 0.2794191839842222, 0.28582781464781254, 0.2447487393172499, 0.17437348727790894], [0.5377350431468982, 0.05685293808539241, 0.009271675101070742, 0.23423475662453902, 0.026760219694394783, -0.1456034900943254, -0.16694000111812435, 0.32787410225327335, -0.17599415423576206, 0.16320383653534545, -0.09843674453060623, 0.4978489030705096, 0.5140538253008847, -0.08232485929380777, -0.1442250446104468, 0.4267836906029832, 0.527389288375231, 0.11854940105392864, 0.45447362825808196, 0.48677307379399776, 0.08450878049403435, -0.13013807850504328, 0.40309793077301564, 0.3637813657052313, 0.09272153411503756, -0.011872253487194166, 0.3882699345243185, 0.23981041430125777, 0.4891703747671166, 0.5798398179842424, 0.07160099423996122, 0.5536105501630558, -0.08157472152742828, 0.5698892672811297, 0.503072340095806, 0.5880819587745113, 0.12810150005445256, 0.5563566966587475, 0.3635422959736572, -0.11372460680135121, 0.17145333021019682, 0.6766776392853883, 0.3497632052853306, 0.3925296306554879, 0.5891088070835134, 1.319933118680395, 0.2535083570745052, 0.4295898785456505, 0.5720704519867, -0.12331850875111869, -0.06964377466365518, 0.13395961369698953, -0.0750900117121326, -0.15964868159241016, 0.012306039174343947, -0.02147759368248059, 0.521558512713768, 0.49244610488826984, 0.053322276954579216, 0.5886469824786057, 0.4663006360008957, 0.44677050139213986, 0.4122187409624642, 0.1450619883024298], [0.17867335284813754, -0.16356327252391603, 0.17504565992011942, 0.17548707053242077, -0.14190995500631776, -0.010345211487806873, -0.1460836416461247, 0.3028676540069601, -0.06819530484360237, -0.1336644890584204, 0.12977309738477769, 0.2286896457384305, 0.3694448859142138, 0.11854503720447249, 0.081413313117803, 0.16087493885738582, 0.28521390459572044, 0.004909633789217724, 0.18843973573545866, 0.21500348764220598, -0.17163385806661516, -0.04096014139605105, 0.1359124624263657, 0.4683482074290591, -0.013578407639464472, -0.11635262183443852, 0.36731023575710137, 0.3912400004331617, 0.20635367970023547, 0.32591225324188516, -0.08230282116559494, 0.26337567620344976, 0.09600865469207256, 0.4938968919369681, 0.1777628930967475, 0.4100309871338786, -0.004327201273905706, 0.39504130493952244, 0.424502035051004, -0.021523637598448865, 0.14737856928860307, 0.1752173320321718, 0.2676494232963817, 0.30991247040081854, 0.2560227737456981, 1.004658384965716, 0.16181336954827655, 0.18112054488761495, 0.18641727683641016, -0.13636685338177906, -0.010253264135394374, -0.10309956428793893, -0.03720349851177801, 0.06327856064894159, -0.09147909575589075, -0.1216338164566591, 0.16780420553341827, 0.3917942219611424, 0.08336591956220668, 0.4340583625625752, 0.4969604213015067, 0.4701133307481497, 0.2129724408254243, -0.004633562265935559], [0.303277546078655, 0.007190610332908354, 0.047223707651634333, 0.10173258102756826, -0.1436918024854854, 0.11735186861004335, -0.07753603550883124, 0.4136461002851831, 0.05119067208352843, 0.050306733875852994, 0.02706734782783543, 0.20235939348536774, 0.4020363335159527, -0.06693370454273823, -0.027273679450354915, 0.24425347352625176, 0.11165003015179016, -0.07436257297596487, 0.4330584714495691, 0.11739592184395371, -0.14767748242340284, 0.08783018725622602, 0.11556065390747068, 0.2068135297651031, 0.1760610050361053, 0.0898968935442178, 0.33963166883484075, 0.12676438056178968, 0.2177052988546493, 0.3617414117236456, -0.07038940709621298, 0.1550045610723324, 0.07424816696696965, 0.2348362528550486, 0.31172009174050763, 0.2625553063598075, 0.05989789444979199, 0.19627451610568564, 0.2848985980998687, -0.05629512529495566, 0.2926910151149438, 0.21041704084535134, 0.3539156792848114, 0.37521917034616925, 0.32949868464398435, 0.8260731676087614, 0.4045941980902039, 0.26589644607148577, 0.18576269148642754, 0.15109843511950508, -0.14219905525672705, -0.012573871075418158, -0.14778504716039895, -0.058730815906678224, 0.141542666552228, 0.0767667251928155, 0.38606273195464014, 0.28539594993901996, -0.13125845257805385, 0.3186297456785656, 0.3053113384390702, 0.413170362923315, 0.21298136965445902, -0.06993629501824679], [0.08811040003016801, 0.0187895869267173, -0.010128140828231907, 0.1184691004886082, 0.0354706088532761, 0.021887889640241714, -0.04245528253065754, 0.08533932485573315, -0.0875654467336851, 0.11140913567266295, -0.16064311594445344, -0.05108937885092966, 0.14395230982401913, -0.128184805470895, 0.10168365190765669, 0.1394465823968342, -0.10254873375604187, -0.010145296685758642, 0.15707830708728265, 0.0006752532425876822, -0.05843387407111353, 0.10527462272903006, -0.11006699935523467, 0.11206171629179279, 0.0961838840808998, 0.001720539316973645, -0.007268737807050275, -0.1417754695273613, 0.1561616433538139, 0.0027273541032511047, -0.15593108091213123, -0.1311055230380465, -0.16431036066954258, 0.0114284416442427, -0.05466159223887516, -0.07212112179674757, -0.0002650858076542195, -0.08976718414929066, -0.05754113463255372, -0.08202205179192952, -0.06388806070652003, 0.005774417774265893, 0.1235466721021769, -0.13725081666946984, -0.16489854970600382, -0.1481169784323364, 0.1766810043838463, 0.01829250180357858, 0.12536230083578662, 0.12792579219443098, 0.0930701488957836, -0.05990839963749012, 0.04642674706000649, -0.044821115043444416, -0.098184635081973, 0.03714356609580269, -0.08644039817990906, -0.0999313221047696, 0.005116606247388059, 0.015747763267759313, 0.0638292419601723, 0.11799464601576759, -0.13224110270466158, -0.16855615437278176], [0.47070501019055566, -0.11549948015334875, 0.15897155744246536, 0.190479781715021, -0.011982245243667844, -0.09483160353428287, -0.03141832715208762, 0.24935565125484846, -0.1039950565725748, -0.15181693970124116, -0.0984780536893307, 0.2315751245398825, 0.5383726814003343, -0.026127453138445306, 0.12752369890966583, 0.4529363318033671, 0.4948286671193426, 0.07367147677414013, 0.4290673041600873, 0.4708122483468574, -0.12580940170161473, -0.17069757508257494, 0.5189709216981547, 0.5162963163044579, -0.12111412451520229, -0.02160046668987502, 0.26470929286474154, 0.4242345687406125, 0.5232680954070691, 0.3098416352715143, 0.15380471197606005, 0.5117368242160348, 0.012279032597082379, 0.44454302233010934, 0.20838915499814442, 0.5637248128177718, 0.1628960456528553, 0.4775787089035136, 0.33831388107256843, -0.09209316764566612, 0.24038005174075416, 0.3825060924977509, 0.16732089176017595, 0.46932979683677234, 0.3122197269762319, 1.2305341045516784, 0.36998686656770974, 0.4821412488039124, 0.3335237073383107, 0.03400622415224919, 0.1242396604466375, 0.03275008859872769, -0.10865048908988509, 0.054661633164621456, 0.14071762737727275, -0.08395700968487484, 0.4942119196428971, 0.42371825575618105, 0.017176224714187338, 0.3929119021127524, 0.3665527179368476, 0.22560127241520733, 0.10598210533844292, 0.024454767922105686], [0.4621796906820573, 0.012393102458900636, -0.0361117871907852, 0.2666666321470797, -0.10606349639634662, 0.11696612680467777, 0.152276272298563, 0.3834578757979255, -0.10067661857851846, 0.039057746237219415, 0.16262525882355625, 0.5480256514567828, 0.5142436995777985, -0.011432417956768137, 0.0338833182746201, 0.41178857269725816, 0.4571581971392817, 0.10185106810350907, 0.31837237229009857, 0.45724735074538053, 0.13431076223454735, -0.011197124572808676, 0.48427129300272137, 0.22279947540982442, -0.004084435353131645, -0.11497449165237147, 0.45621043835389424, 0.18677167718314924, 0.5636657490151552, 0.3656790981769121, 0.09039090478130188, 0.5248011453467368, -0.11027049308475324, 0.25886234130662295, 0.5059416013830554, 0.3342582713516839, 0.129748725979371, 0.29806790055131244, 0.3759725825054216, -0.11566360197461541, 0.41964637414556766, 0.5690336746317498, 0.41833838861998, 0.4108483616919755, 0.3703415186189492, 1.2491402949510788, 0.3673546311402666, 0.34736294022741226, 0.40856172886679026, -0.0036756480377316825, -0.14003611416375938, -0.07635206141718472, -0.0782488038868574, 0.10423030271151418, -0.07652530907174074, -0.040881572852282805, 0.4033129219211435, 0.32993555657179235, -0.05698662335647249, 0.4366943774039051, 0.5071644218957038, 0.28686773667468884, 0.293682179265121, 0.05381929943833941], [-0.13435276044259448, 0.04497532548476438, -0.1309281719231638, 0.11439492729616654, -0.0056149880424344045, -0.01968752358445111, -0.04991670832098713, -0.040434049776917697, 0.047222963642729654, 0.09484050704814287, -0.07826414084248556, -0.16546991790239024, 0.003469239650746636, -0.033491470857066885, 0.16746859102774544, 0.11821800010209108, 0.024007494024913284, -0.00494811828228528, 0.1764500600136463, -0.11867616169658485, -0.14677711706239335, 0.05711543121655832, -0.1648827416409773, -0.07029373012980814, 0.16455686918982362, 0.07618766500642457, -0.04899940237825809, -0.05627474781385508, -0.08030672707037362, 0.09700036468901532, -0.059302879513282974, -0.048930200384476846, -0.087080771032927, 0.1318934418495221, -0.15651393187427176, 0.003854342718168091, -0.10678455262385853, -0.0864444735925699, -0.056320842014998235, 0.16581542750407482, 0.045151718607477964, 0.029634759472118605, -0.0805190523991532, 0.1560334179478636, -0.13412089559267615, -0.147729361889206, 0.07363980278044349, 0.1022420494006395, -0.1237265743973225, -0.16985413243970973, 0.024421337200023097, -0.17560022920393895, 0.14480703330341618, -0.07412762490611162, 0.11319614948550347, -0.14095352627002075, 0.11309680406356223, 0.08577765428814257, 0.017273817162962835, -0.15601234102360317, 0.12065245504855823, 0.011451848003926762, 0.012329368357933274, -0.09855798914067355], [0.17426486735993338, -0.0213647254483105, 0.15186275559481824, 0.04548932127439026, 0.16236883920994946, -0.1691738903297918, -0.014522876451704664, -0.02202957457930574, -0.07367699675345257, -0.13414694502119684, 0.0630443013877991, 0.13910563071095164, 0.13091132042524758, 0.023102661521715973, -0.03336754493612071, -0.031563876251806816, 0.040216370993076456, 0.046061851699542355, -0.1431987652163879, 0.05700411761285579, -0.10655530410446334, 0.16695100673245208, 0.10187678199072206, 0.07157273884144788, 0.09581041882640431, 0.015727818546890537, -0.15803289777429835, -0.11348480643644103, -0.051002710177684873, 0.030429119107019065, -0.082919663240335, 0.027977079412248446, 0.07580403106887837, 0.002647878489276917, 0.10184972930501832, 0.056265906475717165, -0.01878741056442318, 0.07615348888091503, 0.086968914461271, -0.15887214391196827, 0.1184836461597241, 0.12612562175442396, 0.15558233720819234, 0.04383924217683949, 0.03201088030158458, -0.17146185219807492, 0.1500568925340159, -0.1034617883253916, 0.04113277841236268, 0.10359762452886326, 0.12481071662548518, -0.06790344107317536, 0.15077468559932425, 0.03366502574308883, 0.039548606437274425, 0.03993352287790786, 0.012849675069258576, 0.0996121558786269, -0.16956848759755092, -0.15536282959672168, -0.10264040859899881, 0.045134656810431745, 0.059847673566355425, 0.014319951515691903], [0.18070066929265413, -0.13880306733741338, -0.0548174308389079, 0.09735790727526826, 0.11460731722818264, 0.0017780935459915173, -0.02455993138651644, 0.18771518189925243, -0.1331990966948346, 0.17233032692695752, -0.08930800761958485, 0.18118465966334943, 0.24234870021872948, -0.09819930064898456, 0.13908966339683668, -0.05502935959293881, 0.16929954921604815, -0.16415895998543725, 0.011655438114287367, -0.046274289601319074, -0.06441500043198428, -0.03896555541550144, 0.21614613057122836, -0.04144426781540976, -0.17225134734178205, 0.009676733403273153, 0.011514444118550514, -0.045284056746521945, -0.03780939622388414, -0.04963822585673429, -0.15464039101302363, 0.05756204153585767, -0.009057948067392463, -0.017693141007056948, 0.2473700886735747, 0.025053666425002556, 0.10281548679198596, 0.25851420516223395, 0.1666768280174503, -0.02644222464898872, -0.01226314636527879, 0.10965437092660536, 0.14729937173423288, 0.19382467975542791, 0.1915786085693896, 0.7003429735891875, 0.2620184805783307, 0.177850618275218, 0.07979923640717719, -0.11508078048079831, -0.10169993512438665, 0.10938785493886652, -0.15777951081166613, -0.05819506900409894, 0.037363097937773065, 0.007516324020815646, 0.011958285213067086, 0.16389463733715995, -0.16136499441649446, 0.2727235887072356, 0.03732453843522879, 0.08484199227282414, 0.12364531278801995, 0.15464914743374922], [0.5785492123268762, 0.1371512972522809, 0.03967263463873652, 0.18355228536026114, 0.12273524053743562, 0.014623515087439157, -0.13379356241530607, 0.3169076544520618, -0.03354782132405096, 0.05162946910997637, 0.16918895830384292, 0.4931505368453756, 0.5297750809631921, -0.1550945050696591, 0.10673944807859223, 0.291860542674205, 0.3131672005989352, 0.16938731564986592, 0.5338260047660149, 0.34513650318965194, -0.1463667679095467, -0.05607523269035169, 0.35131671538310716, 0.3403745048866118, -0.12534410757377598, -0.01668075147086687, 0.3241861675634904, 0.4623766109440719, 0.5126480484092731, 0.5516398620842867, 0.02650489587021707, 0.6124006207306883, 0.05150708682475508, 0.6041658213787301, 0.5219779486800152, 0.5478582813871228, 0.04798716546731871, 0.3669723874044435, 0.6451601020712109, 0.11059253890256555, 0.29156065713102186, 0.48867440514662397, 0.2758314775088664, 0.4785579011845965, 0.6009638131238869, 1.4196967550112107, 0.29499339853079, 0.3692458243505523, 0.517140302078842, -0.12882195494033677, 0.12245619212005168, 0.051694835139369566, -0.0036112771179361847, 0.07679262974318077, 0.170733303182083, 0.09801874487904691, 0.4853296383923239, 0.6733706799695335, -0.0005556814019455898, 0.6474172052325234, 0.5745018630201425, 0.3119405137886443, 0.42408903681197097, 0.17147546884860018], [0.5380236513441078, -0.040704444573795844, 0.15892419813261768, 0.15293522110726557, 0.07500610675451522, 0.09583213206261595, 0.1222652138943486, 0.3795243994575559, -0.08726445982063152, -0.12681647543382482, -0.0239780720642212, 0.6102588847163616, 0.35565249301510515, 0.12647429134951096, -0.09360909183120028, 0.3480327858977852, 0.47886850955918325, 0.08257500584895522, 0.5480592870836299, 0.42638211392984193, -0.1216876882480694, -0.14005127024784958, 0.4660132671279106, 0.6059175908482203, -0.10555241501623644, -0.03419213119901118, 0.5503529021293349, 0.4987260577269229, 0.6118245394479483, 0.6135250894874963, 0.055709142863176665, 0.7146854350526585, 0.02349718715950372, 0.42837870459707206, 0.4740193390199887, 0.6779530531625239, 0.06517479021019759, 0.3583618182781856, 0.4517362994841364, 0.1296310595842997, 0.35494315928195785, 0.7236716624118363, 0.26248586024193465, 0.7078530565762905, 0.3578246222394289, 1.2748306046846036, 0.45921901764729345, 0.4984202058277257, 0.46490003331888463, -0.09498989860389438, 0.0031660329102984885, 0.08434840766682825, 0.08299957429098012, 0.04809394561885545, 0.14803200843519546, -0.046575321696796235, 0.3857431363048478, 0.7407009628726094, 0.11427804943081339, 0.7208577491689531, 0.45619166785075227, 0.6251339688771828, 0.1836688554987608, -0.07742342398685813], [0.5619599150452137, -0.16097207611130426, -0.049396494507481736, 0.27641249492106784, 0.0012546256042559568, 0.04447424500137634, -0.054299468737118106, 0.5691036532967317, -0.09683491770134227, 0.04254009021134558, -0.11427632702850651, 0.743228229102354, 0.5277958752245682, -0.15767752914474864, -0.046830443022270046, 0.6357700114576768, 0.6963644991798781, -0.07130398351541074, 1.0179240655681765, 0.8244493718467301, -0.0483678678728927, 0.03761823941742584, 0.7010320183466401, 0.6035855630244451, 0.06532767641080804, -0.11613027333066585, 0.5314252251356277, 0.4684065476522267, 0.8077968720454158, 0.9360987642462859, -0.1765193201689677, 0.9083409317051769, -0.12068105225002679, 0.882537653268862, 0.640345083667959, 0.7516711741852613, 0.17612828002210765, 0.5927332021396314, 0.8696037331214135, 0.010333060758994355, 0.5188728180595539, 0.8902789039078858, 0.38837381033560686, 0.8003005820600881, 0.7773930119490395, 1.7036021638898395, 0.5147506126846775, 0.6400829209631884, 0.9250857007093414, -0.09462502003295434, 0.10746614153400688, -0.1670913334456725, 0.1038012151848143, -0.08993687039317326, 0.0052654856502303005, -0.09780363882883761, 0.7037356066913463, 0.8522995835785232, 0.05122373129305734, 0.8972466580915519, 0.8370643017996331, 0.7483753720234876, 0.5100445452998135, -0.1692939158154169], [0.6506330062245582, 0.08819590473574423, -0.17658149258879738, 0.4609591167581477, -0.02960208852183378, 0.01491262378932229, -0.05974730724350401, 0.5983581705162526, 0.16468067877152867, 0.00010493146879320125, -0.00986176784126902, 0.6786500600539571, 0.7592848435932527, 0.10461385452471597, 0.015757479172199135, 0.6609115680893463, 0.5938054676115956, 0.046687278876037255, 0.8664649011106236, 0.6752422893740577, 0.08682520227751411, 0.002120287130046989, 0.6723938279345081, 0.8109308144205161, 0.028784978973375237, 0.1114194408272516, 0.7477727661720883, 0.5548867190084508, 0.8380627099409808, 0.881387596196574, -0.006538618690938828, 0.905137900850083, -0.0629994566077639, 0.9489723442305411, 0.5960559687595612, 0.8201426212818959, -0.090790631037297, 0.8454183023048092, 0.5560544745520624, -0.027063160015436925, 0.4729832426368824, 0.9695350114384793, 0.4524662500231379, 0.8354186634414835, 0.6536087257815462, 1.7112887968196506, 0.5603892009238276, 0.5374373207729342, 0.7846821745889956, 0.022867201616765254, 0.0006196397051246028, -0.11698881904553782, -0.14986372294168337, -0.07454040694277131, -0.14246100032475106, -0.08054765270053627, 0.6251477204473648, 0.9381667480425928, -0.05621369643840518, 0.8177974459745752, 0.9861674474529762, 0.6006594300238781, 0.38836289669002255, 0.05185175945499443], [0.5112756590495929, -0.11627926316656999, -0.17443738246608215, 0.4550397941211084, 0.03859224715452423, 0.0297833768662836, 0.107424274656265, 0.5916175419633228, -0.1103478047289927, -0.1404731353869237, -0.14677761060308095, 0.5789468173086706, 0.7978282839359677, 0.10107304374416079, 0.03742862183614301, 0.6776707032494808, 0.7743072075598788, -0.15972379865161973, 0.8926552802951758, 0.7310559944670484, 0.08965141923931454, -0.15214403773554097, 0.6251683520550982, 0.4902072427948061, -0.09276606352502988, -0.07978740371803861, 0.7001486561434497, 0.37101393038380537, 0.780310738432577, 0.7056608433875878, 0.11189943223837125, 0.8752998523896675, 0.09577085938942068, 0.8938497760589449, 0.47358858013205984, 0.7540673647343777, 0.025954998452585976, 0.7690703524749886, 0.6612583814748844, 0.11283831479077482, 0.40271899970348346, 0.8807482034905735, 0.4806246386929999, 0.654042677527413, 0.6483001695661098, 1.777033090946432, 0.6041683723765713, 0.7053880365488742, 0.6582229542409087, -0.0020178171639042286, -0.06553116993076073, 0.15992298734697144, 0.16790730676737511, -0.012803536208661735, 0.02380971057288822, -0.03306996923915462, 0.666505808638984, 0.8651756869206356, -0.06192854561792817, 0.8408774680955154, 0.9097717999693818, 0.46638793065206297, 0.26169901088679637, -0.1102539950024348], [0.1584369082326042, -0.13186182440691344, -0.14626719536599572, 0.2638307247183014, -0.1755876416053501, -0.09846541580483419, -0.15338671911008148, 0.021355105880109745, -0.10635806758558139, -0.0765524614288986, -0.12751476275659768, 0.20318416881600365, 0.22778402180514867, 0.09488770113544945, 0.06385631128140506, 0.3178944600438536, 0.322956853611307, -0.09468137932405468, 0.12278766850705951, 0.25167526292747855, -0.0038033124365660096, -0.011108173759112843, 0.2889685623397428, 0.23530853920063843, -0.05948750087833542, -0.14297842647315515, 0.30713138689340225, 0.08859702947694932, 0.2878250956479249, 0.036382856542284375, 0.0399396394524821, 0.21908066832937917, -0.03590998663926387, 0.07724247806690147, -0.008216377463358657, 0.2925379777027852, 0.11566510659244791, 0.21028141422314545, 0.24564642701428263, 0.09409783771308702, 0.09175937649326975, 0.16770485465300228, 0.12317339764914716, 0.0022525415791664577, 0.29321389918660923, 0.7863652729335779, 0.31428379538659834, 0.003190735437008128, 0.18114148061743773, -0.16938953326540235, 0.07125577156292914, 0.050390944336041854, -0.1504578630277822, 0.08456047385735822, 0.08891974015457807, -0.06775128735751369, 0.12209313804856, 0.06784132762105234, -0.07141118074655356, 0.23275145885150278, 0.1114822165969337, 0.23488176850558146, 0.17781915669116344, -0.08630206610053112], [0.06402777290607325, -0.10034103675979456, 0.027882584879574845, 0.08394617589600342, 0.025785730869492596, -0.16940075501149574, -0.09644190680480007, -0.05165805409918192, -0.03421969123850471, 0.10715549195613969, 0.0924817378385612, 0.1534773785935429, -0.08391072805224434, 0.1490266948136256, 0.019090983183620014, 0.12794064847389838, -0.15663120455046944, 0.07872513042178611, 0.13777485368030654, -0.03442025974406493, -0.15490449325903535, -0.1733719794504809, -0.08684115068330883, 0.05322314127396224, -0.041952602624198254, -0.058080704076752504, 0.10033281549096226, 0.16138462654220723, 0.1538912030949093, 0.13959801906592714, 0.047556680157542, -0.044774142426009106, 0.16972357736100005, -0.025749145823514646, -0.11641264597461218, 0.06423860309155133, -0.044634442072469055, -0.15271161814256196, 0.1511206046627019, -0.09803913889476791, 0.12847588609233854, -0.14001668039764809, 0.094862863092014, 0.10014741541210762, -0.03917628924533928, 0.07695912956361042, -0.15079041261944304, 0.06317294145158256, 0.04429532208686554, -0.14690260012957204, -0.08135153439659637, 0.05988387220748417, 0.05342365557407874, 0.08789457015514132, 0.062439471258499274, 0.1527417030621355, 0.034397720267260234, -0.10263486488998373, 0.14833463410673467, 0.11408357797530841, 0.17617077446146287, 0.12441759489087759, -0.040111691453583675, 0.16036520710924848], [0.3842309386122263, 0.05372066305950214, 0.012215160032668038, 0.3474471478866065, 0.07268818094431446, 0.008211934666165148, 0.1526607721375491, 0.43447856929497125, 0.11277224481965128, -0.07894500157265935, 0.019014933680396667, 0.15970755503662368, 0.40287133106880985, -0.07506284672025008, -0.12161081427064879, 0.19379033025114387, 0.19206996079794406, -0.062157920402499484, 0.40553417405291353, 0.2812175598246495, 0.03373299986153635, -0.020228358766593603, 0.4632323411955714, 0.2627004923037392, 0.0552792159047686, 0.030599901233186157, 0.17805738455259182, 0.372633542002815, 0.4674968564821997, 0.32708953463265206, -0.03839585400520998, 0.18677693249243557, 0.08758828754043999, 0.4690330725019786, 0.18399931087491042, 0.43863578667910536, -0.00923723947398905, 0.4921211955565508, 0.42067386041356, 0.016881742226494037, 0.27046765579941673, 0.21060429836478314, 0.36021122632160857, 0.46720280433889233, 0.35856080210452806, 0.8949546498000094, 0.20100147752580402, 0.25920269531728496, 0.44183227302782696, -0.04947607575134788, 0.0627265990452184, -0.0023260439791994436, 0.17170982424316297, -0.10481004701578406, -0.08932594693257065, -0.1208626705049054, 0.27265293460146406, 0.19953551725596938, -0.16599814535068078, 0.4151563391536954, 0.2891691949563076, 0.2624906189975859, 0.3212468394415548, 0.10186702679168777], [-0.17413576950926365, -0.11091694439157389, 0.1766321256422527, 0.08522018022965848, 0.06025853753481418, -0.05820884827866669, -0.011872014141272343, -0.08231255010551985, 0.07652385119573532, 0.0843002912629954, 0.07722173193439438, -0.04039788964725002, -0.09500397659070671, -0.004054225779267812, 0.10962151692557867, -0.12090028298677441, -0.12994188057632103, -0.07902180261958366, -0.011422977713877108, 0.10738189235922202, 0.10430673392078585, 0.03156090465545863, -0.13684716872520397, 0.15183248242576028, -0.15600272200233484, -0.15744564364809344, 0.023002807772287123, 0.15077693896085265, -0.15174385735245444, -0.00257384119456904, 0.018942554153803234, -0.05708131031663157, -0.08827843467732616, -0.17304411515582263, 0.012080959613245361, 0.00897038557488633, -0.09934863339143533, -0.014768796385131684, 0.05744637042733792, 0.11684677428136671, 0.07750409858574821, -0.16115666284026822, 0.04946544031360089, -0.149212008536493, -0.17281438278115654, -0.0021730205697515245, -0.12531973856320056, -0.04705843221634124, -0.08224802900589934, -0.02167963453493199, -0.0017435163796845066, -0.09883001147276788, 0.07936781302204673, 0.04846693678575281, -0.15093199460512904, -0.01100889276959427, 0.01081426924440715, 0.17661150270954618, -0.07939700602953112, -0.07663936684290161, -0.02274211668645807, 0.08226416406650562, -0.12415673826291984, -0.08496271343290794], [-0.16070945270046477, -0.1279427473945586, 0.1345906024054788, -0.038939634683048494, 0.08162649188422294, -0.10714046612052064, 0.08616527307792801, -0.024896703641376732, -0.04929858096909445, 0.13827128409561903, -0.10143505611051384, 0.07521088947894722, -0.11896133523623244, -0.02507155782938375, 0.01575321471792268, -0.05030517015530843, 0.07600544460355432, 0.03888718322081386, -0.10803552167358611, -0.08008086475464435, 0.0998737666312296, 0.02581346476888357, -0.07677654457021205, -0.0376897792771042, 0.005332178246776565, -0.16518951876772694, -0.09819525863777448, 0.08056231737456816, -0.06708882174275416, -0.04725635363105551, -0.09621690161765896, 0.1078025884090437, -0.00479689887426224, 0.04438071299365183, 0.04269950233778376, -0.00321003172696561, -0.1620918258471533, -0.1083979808356596, 0.014177740559686458, 0.035587139814383904, 0.09802984289264353, 0.07456888411655957, 0.17308197313153376, -0.10820635402060112, 0.10314606156548897, 0.12135381141790309, -0.042967164195826656, 0.07724699593257375, -0.07707003040838012, -0.11046353446164643, 0.14542140039502646, -0.056568094534348884, -0.12570455911656134, 0.14186621094020108, -0.03379143931422099, 0.059562369120253394, 0.15027130217893042, -0.00786338986973351, 2.7244817324568582e-05, 0.012584809114644806, -0.16440180617073474, -0.11929040066253557, 0.014768577500690903, -0.010871604021847864], [0.39501457708282806, 0.08941466520308508, -0.10102645164002143, 0.2235773815678571, 0.11789707339328231, 0.05089408095125552, -0.02725152551284146, 0.5598875413387239, -0.05366500541614316, -0.1466685594025576, -0.06923749148558114, 0.5279369145150816, 0.5004647704138142, -0.1538361866671571, 0.016261443177498863, 0.3560293105576502, 0.4789253977891692, -0.1548566263898763, 0.6429321005651238, 0.5769797030084034, 0.1564290335390143, 0.12304316510163624, 0.3329281196991164, 0.3785629059032424, -0.03931347825067727, 0.05768019475450449, 0.4534075625151165, 0.2977345421778196, 0.5032597703475048, 0.6453649185843893, 0.141408639962006, 0.47670518395261985, -0.04385454912965189, 0.4749822549517304, 0.5807394433903288, 0.591410237086051, 0.09209802873310599, 0.6094690744578297, 0.330518509806597, -0.0334107501062763, 0.4032545059844529, 0.4793481444650244, 0.3480599818421306, 0.532638222523377, 0.3103480179988811, 1.4123801748053322, 0.26124974964403314, 0.5461512816626972, 0.6652586934259455, 0.020850937785956536, -0.049950529599331245, -0.12559850506324668, -0.121348653418009, -0.011911636282063064, 0.0057920181164952955, 0.1004328110114441, 0.24092828325207508, 0.5026678347349223, 0.0096538435628046, 0.44156029734000324, 0.6892688044875976, 0.35290715530113104, 0.2310639781364103, 0.04776226171763637], [-0.16192912388761324, -0.08992897494263787, -0.07346639317797403, 0.004115537720048612, 0.02384434217160467, -0.008555247027527524, -0.08004979997479526, -0.1288112498809972, 0.12493134543195614, 0.1541505946589706, 0.011926258349648777, -0.10279105205565793, 0.11999845930431088, -0.07991111202507417, -0.057069918537029724, -0.05084327881763315, -0.13995187161496864, 0.16125229976820518, -0.09730024367515144, 0.07153181770766963, 0.0802727412742392, -0.10953806507936933, 0.044384445340663645, -0.07082678255353063, 0.054978787380662544, -0.09964905565971273, 0.09075759145617511, 0.08971339895295817, 0.08933452776717195, -0.06345782110533175, 3.472371404816615e-05, -0.10506906708444506, -0.11195338018028421, -0.17129182695987796, -0.0696334636527105, -0.007410773412712635, 0.0029900221506944658, 0.11237395438539428, -0.08926179297164757, 0.03530737629295614, -0.11362065637581441, 0.12151765321378037, 0.10376660667587775, -0.006323060744976725, -0.05618920892458559, 0.034609667661432406, -0.10384059200504382, 0.00900668251026776, -0.10151270166300896, -0.09880917130977272, 0.12868546920906773, 0.04109015211570585, 0.0173191948119627, -0.09008196013813646, -0.09484662120224412, -0.010816581144760806, 0.06412598099917304, 0.16781384492955215, 0.07195036669725212, -0.15865176439731865, -0.020348575869918548, -0.06274607730133351, 0.052924354307436874, -0.08656465275810349], [0.060548720987101116, -0.14315014981616558, 0.0067279346445758, -0.15991608178318956, 0.15213561174199133, 0.09967691230636651, -0.05440612282884817, 0.10127903215689348, 0.10095566910194989, 0.043458588440742074, -0.08311356194932684, -0.09286119940500727, 0.02840878144315387, 0.05365966650902637, 0.16009382772404682, -0.1305835424593149, -0.09287490349216516, 0.0992216269265579, -0.003450613550656629, 0.12137904927321654, 0.15183564495222915, -0.04665990082110502, 0.02787556697539205, 0.12407252583264652, -0.039233369945915086, 0.035663518859548764, -0.16362241223640298, 0.04151373590900099, 0.0903068308266378, 0.019776661067252066, 0.1098396910389427, -0.17476264638616346, 0.041062511754357184, -0.0798424872893006, -0.14838550191580632, 0.12040253462819504, -0.0524650132520116, -0.0622402865380014, 0.1505952761166203, -0.13907827612152757, 0.0320035222681584, -0.16478551210591366, -0.006120558734412137, 0.03866466747581122, 0.09369128482884514, -0.0454906247932614, -0.03401631381323263, -0.06975924803513284, -0.15833611449091525, 0.1728725712357493, -0.15512894911028702, -0.13834617169755306, 0.1470780861459626, -0.016713754316207596, -0.11707227410266371, 0.050029152463203025, -0.1407042816542167, -0.1346113633609933, -0.005014252114028857, 0.0891958914350218, -0.07951659346548634, -0.14072791724702424, -0.09697372525794185, 0.1495322040367271], [0.0026332875886710683, -0.003052054203904586, 0.13281331846959013, 0.1347698635181647, 0.09263080142801164, -0.09179352220201123, -0.036783704034156456, 0.0411408716581082, -0.054031083013656805, -0.0013762764534575589, -0.03394227492923857, 0.1383482202453051, 0.01700726464106056, 0.0808692230594826, 0.1209710114419614, 0.14151024526944353, 0.15486573606239454, 0.08921071747558576, 0.17166845746041462, -0.14992352862112915, 0.1462130852072758, -0.08760133973083911, -9.447123167857785e-05, 0.12396311623611414, 0.01931702898973134, 0.05622936267790782, -0.02200132019343881, 0.05089701225620777, -0.1730131802687659, 0.11809910733810788, 0.1733372889351076, -0.11403043437815788, 0.053162167513849196, -0.07433141504389103, -0.09208813461693978, -0.16072336877958146, 0.13606778466093464, 0.0686814393144018, 0.055229807098889694, -0.02772605839997233, -0.15401893321945592, -0.05382615876286942, 0.13504128410501567, -0.09977665586310343, 0.13598329827194475, 0.03908101765800065, 0.15652233718960154, -0.0412267586774788, 0.03722000932038297, -0.06371387919813327, -0.03756798379602069, -0.054935970361358125, -0.07455418252413347, -0.03996587409324001, 0.01937027977290512, -0.06839227911969482, 0.03383227960724339, 0.1732851024053844, 0.10859198295372999, 0.05025740825834679, 0.14394128068870257, 0.1392645965872308, -0.12896936475488768, -0.12042549805043191], [-0.07905802011571433, -0.01586008840715694, -0.1132177501777159, -0.01592445310557733, 0.024312047154586264, -0.12191414659026029, 0.03126990169763316, -0.07126721187454439, 0.007411777488251531, -0.028896846871738102, -0.10583525210255505, -0.14033194941866667, -0.05309289045650181, -0.1356701322983606, 0.17121536090643838, 0.1005325182592903, 0.12780967828378484, -0.13886652593684928, 0.1640819827536256, 0.16283929459363664, -0.14248256482353208, -0.057255541007888475, 0.08330188834105176, 0.007494133513100187, 0.07787855074440284, 0.16855652106707905, 0.12612793308305606, 0.12020575442721212, -0.160216663550846, -0.14871632004897142, 0.08218656978099462, -0.0100113939127153, 0.16036065084589393, 0.022369758142251506, -0.1446601393068349, -0.06599198904088625, -0.027169279553732884, -0.05484660939388328, 0.03889808832387057, -0.07957705912620894, 0.0023977971541218057, 0.17287971551788098, 0.025419929452016182, -0.042162157388660276, -0.03486479626993991, -0.04993220071658758, 0.13091749454873172, 0.04366335404559063, 0.1345846415568985, 0.13673590451552473, -0.04854408261749396, -0.08310395975462978, 0.002900459026584229, 0.058412880186270166, 0.025537580528490506, 0.009165894375348288, -0.12845800543798913, -0.1432287481613334, -0.05868207601097436, 0.05041306560704992, 0.12708630481365588, -0.0514731025164705, 0.17294289818121836, -0.14164165726585964], [-0.06695541240352493, 0.03084440241355027, 0.00391533743326325, -0.08440653597018186, 0.008560744275594168, -0.15473472844409983, -0.12552299172751671, -0.17312405333416458, -0.06906650592589929, 0.04865863568827464, -0.08970547655039807, -0.012352277483873075, 0.08465975551156393, 0.044472041797997935, -0.09116533765470501, -0.046124707970142426, 0.10973317731542934, 0.1008256138467006, 0.03435063379986705, -0.14596811487058953, 0.04277763711490892, 0.04903497825328057, 0.013513933280072304, -0.16993478407591525, 0.07345157154094492, -0.1613617205455511, 0.1657998675824688, -0.011957332412805055, 0.09306438755549593, -0.03605672772886323, 0.05520266727679338, -0.014628663547763265, 0.07088609615045377, -0.10811668175373897, 0.1670274410075703, 0.0024381994290754994, 0.06168785263959306, -0.1056796220047322, -0.10731028933104843, 0.12197178261064792, -0.13804250329590856, 0.09380133199547389, 0.1706974011231356, -0.17606590236768446, 0.12896199171965936, -0.07256616088030934, -0.08209075244654052, 0.11149057482683503, 0.10632245572948537, 0.12580443766045282, 0.09471749481769928, -0.10751323763547926, 0.1142245748174884, 0.01965404022076675, 0.14896345499705574, -0.03436172681540195, 0.09694998742469366, 0.0514990341768925, 0.08645833809428363, 0.12247003243908852, -0.11286011667648613, -0.048837208468712756, -0.019094130593966002, -0.13374081589892872], [-0.11502620919180959, 0.03418361824598112, 0.1349389458700008, -0.15439092675446214, 0.09896521987594441, 0.1388955303680002, -0.10183732280145029, 0.04983378074123024, 0.10014232977671653, 0.07048882437746473, 0.16606898113754107, -0.1092937984318671, 0.04145454458759771, 0.03918977565611714, -0.02794272820772528, -0.11946169892676119, 0.12739718083007967, -0.13673767977505286, -0.15890634349015384, -0.06361484961178379, 0.05959209222127081, 0.15122008487133662, 0.16395160588835336, -0.031554271571988486, 0.04928517750088257, 0.039338211295808334, 0.002969450545038966, 0.09423636003617307, -0.09301581366011151, 0.012636641514676559, -0.17649374777872143, 0.09312952765266998, 0.03335536743536879, -0.03219449056609652, 0.02518908758281045, 0.06928153577812608, -0.06264293098039359, -0.1176464390865381, 0.16915868022757632, 0.08636190791244218, 0.11304761114559989, 0.0074539793338104605, -0.11908733863362109, -0.023052015111918116, -0.1330774711092846, -0.018592424451707917, 0.015704809699625955, -0.11401236341204406, 0.1547853885542605, -0.16503619091307806, -0.1479079042359474, -0.09424288190679511, -0.045868155752621514, 0.17395301893682727, -0.07226013837740496, 0.13589974387831635, -0.01078726557369692, 0.0804730263557451, -0.06407411064225416, -0.11191946739757809, -0.09713821617252263, 0.10220797286952443, 0.09060984302997035, -0.041531532184157144], [0.1693371187126271, 0.14815598655844267, -0.04411006664464681, 0.15059691352080892, 0.134150466634518, 0.08432141958963221, -0.11050982094280373, 0.06594836458278006, -0.13054431386969334, -0.16934346472902495, 0.057346064112090867, -0.10414532386696117, -0.1641753375813989, 0.04198879183620702, 0.05986363579192522, 0.0007068389732057534, -0.10242174263593021, 0.07112947005930076, 0.014049958098294707, -0.1271059538182198, -0.16560198211338045, -0.043225258861915056, 0.08019741481862322, 0.03858284451981919, 0.012191388888700222, -0.012966833464584243, -0.13676631012939924, -0.06193791146818722, -0.05460100874907545, 0.055836397668988985, 0.13868150836603163, -0.06282743612264598, -0.03316394726822913, 0.03176784504283686, -0.10027577819553174, -0.1366502113102041, 0.12011535758723371, -0.06875510641229918, -0.07081949070468038, -0.004176165157878942, 0.12830523350545706, 0.1518851613781527, -0.02403087589980943, 0.0893915957427733, 0.17013554374188541, 0.05652186451520061, 0.12041990415083662, 0.08032362443090998, -0.13869077946210043, 0.05434302819840217, 0.06890703100227263, 0.10131366607315764, -0.06721929907544345, 0.02744825774632595, -0.040688317434686094, -0.11668757599895213, 0.08760643408951721, -0.09111394772916408, 0.06817621104843191, 0.13605786854652466, -0.06310733088387815, -0.07272149381852064, 0.0552957959245573, 0.13170303019051446], [0.4684422864089764, -0.01743575151533843, -0.09384886531200577, 0.08168268015294725, 0.11776216064660744, -0.08937251573647928, 0.090484127255861, 0.585254559037754, 0.12075827020243593, -0.05981370463428065, -0.0047713267588887776, 0.6237910502002675, 0.5750518400396214, -0.12646807622974524, -0.1735139019171492, 0.34885772302306056, 0.6761535500408598, 0.12250745854789083, 0.7072588919990224, 0.6438100820950314, -0.08881203308043176, 0.08630459707031969, 0.4729007514498486, 0.3678325156829317, -0.03905855073761066, -0.036129027831375074, 0.5052533770287839, 0.45611374522319187, 0.6586794530178046, 0.5125953665749168, -0.027689936321199028, 0.5056664220485845, 0.13407821162435843, 0.4722079723433393, 0.5839607898771499, 0.5880414703982992, 0.10437846246950824, 0.5862342079175777, 0.36341136174064753, -0.16651325332023117, 0.3205818251383879, 0.7575176447396212, 0.3024525345054661, 0.616966826061053, 0.6718859613417001, 1.1976907511320365, 0.38370777372770953, 0.5952729818020177, 0.6050302928891795, -0.10139925531093157, -0.08121144279796585, -0.1576089850552896, -0.002986020055996186, 0.13927442833618997, 0.1692385115564701, -0.08559793784162095, 0.4404023874760508, 0.5215219192068721, 0.12004718167464297, 0.5111696338837877, 0.6536459439620177, 0.6672469931893366, 0.44547667973168675, 0.16014419097419627], [0.36425821826173677, -0.16039156015649436, -0.010784587452222827, 0.20152651945566233, -0.027800538454978027, 0.1633835959518265, -0.14710319039658412, 0.43773819918800994, 0.034875125954482555, 0.16151021696637155, 0.016934995384557228, 0.43799875974685487, 0.5088381471559713, -0.15840769212900538, 0.049959197156525054, 0.2617791900809461, 0.40813695078592316, 0.14481388294663355, 0.4096690672768879, 0.22794713251029933, -0.09516305721920175, 0.10174949874983667, 0.3539851642590496, 0.2704480936928759, -0.14886653623437837, -0.0904069856628601, 0.23112065166827575, 0.40046493220392543, 0.4956191258421587, 0.3418282040839584, 0.058028382180115384, 0.33003040775336046, -0.16893088805954518, 0.5876446665594608, 0.5182542036092497, 0.4101304257428252, -0.038496613090580445, 0.3628506215163082, 0.4507686747350904, -0.1184613444856262, 0.395790191005876, 0.44233784870594994, 0.2825744279445075, 0.5269108813032553, 0.3887942741564453, 1.1888040953764363, 0.42468985340821275, 0.4045929788921512, 0.3130196214657044, -0.08960687050326559, 0.15462869392835307, 0.15979969420761006, 0.06198494382831918, -0.07265145938088534, -0.13163408623839962, 0.16548340256705904, 0.4847002887808912, 0.4698991012615684, 0.025536467143289266, 0.3210895151851073, 0.5079102536895581, 0.39933823710869254, 0.08900397120697313, -0.07986083862905766], [0.012548439488706375, 0.09001956385845658, -0.029016200076405596, -0.14195213819870556, -0.16956704361270103, 0.046230011527502224, -0.15020492999128088, -0.13998257240538411, 0.14741288455069615, 0.09362682232998173, -0.15002750426699502, -0.12986105729716255, 0.17331633533146826, 0.11552234900360256, 0.09527876580782194, 0.07390614793198971, -0.09881428519532216, -0.10012496507959397, -0.07511678256748035, -0.058104082569117796, 0.08175644734940954, -0.09653673671780433, -0.16125213889593, -0.16281382699053976, 0.09589507947604006, 0.0017906214720607438, -0.1605603520490228, 0.12673346615902006, -0.10829333682361407, 0.11458315262250326, 0.14588368324307935, 0.13909983734074535, 0.06418907038279556, -0.12157843510327564, 0.048086957635204625, 0.06425433563397157, -0.04033986954725219, 0.1460155656626357, -0.04201874263420213, 0.03182916370599573, -0.09599894784796714, -0.11688920777660747, -0.055323627102767975, 0.153564864855216, -0.053450362230702445, 0.022392130846934838, -0.11620025374070825, -0.042902487257763466, 0.15378696374588832, 0.025780025435126724, 0.13799320605267237, 0.15840289421932705, -0.09159566938166584, -0.09062779879277602, 0.08996282675415004, 0.029057159092935214, -0.060884817128343385, 0.004150439093662306, -0.04243455163008969, 0.07951199904161985, 0.06847357772207138, -0.03913843502240624, 0.14395742365940953, -0.07707987985119985], [0.11054791487603069, -0.10088947555873737, -0.09407604337319195, 0.1273961049149663, -0.0646197313257076, 0.008832953174152752, 0.14849578752052003, -0.06858010147871717, 0.12502475046630682, 0.005729791141193069, -0.14543427870078568, -0.11441062487248554, -0.10166276040489569, 0.03992971690704927, 0.1599339974433062, -0.029299585197721356, -0.024843159397881814, 0.09965483531474725, -0.08996745417872665, -0.1523959101109553, -0.06833418348751019, 0.04300944573146656, -0.09118719808901977, 0.15335999607341752, -0.021250353913848413, -0.16025602709251405, 0.1280162183360418, 0.023587641216328586, -0.15792723342984094, -0.14294900341022437, -0.08315180831326542, 0.04125950109352566, 0.04550463532167817, 0.06325481746308004, -0.008187161641622726, 0.12847570100479414, -0.025707421119686047, -0.07630869023468849, 0.12774566326730027, -0.022525621445317695, -0.1658049830848854, 0.0004830783469227107, -0.09463650108875742, 0.050987970074348105, -0.10759837505916446, -0.1271651407622508, -0.15144153061214444, 0.05257297653935289, 0.05324288876646502, -0.11199986657000317, -0.1479430174126571, -0.13926892965188065, 0.08183585730882811, 0.11913823629727519, -0.12306129122884679, -0.09250747492825936, -0.003445006458365374, -0.14866279086584688, -0.028057880232136928, 0.15043770241963886, 0.021132819344405418, -0.1370267163156289, -0.04052159203283248, 0.0895950684570376], [-0.034376708407798044, -0.08594239922735258, 0.05905902487426806, -0.08944363633708469, -0.1618045963229903, -0.06996888736254853, 0.01779803305955604, 0.09746677258431868, -0.17110224231260146, 0.06426998905126088, -0.05704508611798027, 0.05257005853712581, 0.26966321684456457, -0.018627683266136896, -0.09162868712483649, 0.006214785603802302, 0.19970665357093376, 0.0007391765594287871, 0.22239967254833443, 0.08182463466973255, 0.0930614932156144, -0.10192072042957193, 0.013418709101855462, 0.26370938470824207, 0.10328650556699313, -0.03547546157778492, 0.2360376623961971, 0.1511339089120487, 0.2861325491776286, 0.22539950473238834, -0.0719643193586267, -0.012515409285598095, 0.10478510611322253, -0.005272481799836996, 0.08914159381195963, 0.0666406559803184, 0.1027903928054911, 0.09492294815481603, 0.1256645622474887, -0.1207107927356175, 0.16115823361441467, 0.012176712850899964, 0.25500460802329034, 0.31350996065616815, 0.1329182175944595, 0.5617493678531776, -0.0021551068329804975, -1.1650288252635288e-05, 0.14690586520372628, -0.10534320660550138, -0.00896647552575397, -0.004214188834348487, -0.02685026918273742, -0.08824092141289831, 0.16708106639112144, -0.1287979701616105, 0.1759823526260081, 0.30054663058155257, 0.06172947859721888, 0.10164831493232737, -0.0037620787551672545, 0.09778265272015582, 0.17649237817547447, -0.13004033958472808], [-0.011829137725346588, 0.0642138307670888, 0.11804392008666395, 0.13123606827441903, 0.02088585927460492, 0.01396664269493067, 0.0966051727447882, -0.09115648526002104, 0.11579085960714389, 0.05440983418151854, 0.13980799472782943, 0.08352424980525619, -0.1274174497566476, 0.1466087857171108, -0.12197053867488211, 0.04008517639031161, 0.13789453767421223, 0.14494995003734204, -0.03568263457185123, 0.14923678013779113, -0.01887255008671466, 0.09076757327308933, 0.07302243041755849, 0.11751718368401373, -0.0297265102398788, 0.012613040611888476, -0.020042896271578563, 0.009114039197932338, -0.0983499561809732, -0.02379429202608551, -0.002743119529990142, -0.058498819751540525, 0.09644058799269636, -0.05616747812953083, 0.12707366566645076, 0.14781602596297705, -0.0020173110110601744, 0.14130152060163576, -0.10493043460557153, -0.11819143402888274, -0.029596470304768266, 0.027072253207926104, -0.05822916654130373, -0.02076954911269567, -0.1095059884635404, -0.1341359433905577, 0.047339029224504385, 0.11816126815622374, 0.09141537320069298, 0.15883135160393128, -0.03736480966754718, -0.15120370155029447, 0.12850236237842924, -0.0690808919589814, 0.10574217519118542, -0.16093138238531063, -0.07650086927644309, -0.012767844987960335, 0.10678807661218934, 0.07085482864380366, 0.06370912989327816, 0.0653832758365443, -0.13816541269379873, 0.09097313059093451], [0.7466672757580098, 0.08940181120349767, -0.15070046007750704, 0.41583898743881836, 0.12450052564930422, 0.013350712150917892, 0.038732850548796646, 0.738511545552278, -0.11507117578174048, -0.14137690314130358, 0.06976733316197756, 0.6157080675556886, 0.5091693543589381, -0.13084783664127092, -0.10243108993267076, 0.6968526771728752, 0.7748900481026039, -0.11369327076162018, 0.9455682367662136, 0.5376683275226423, -0.014224932762261088, -0.1660646632881565, 0.7480891532203228, 0.7140476019347636, -0.13451152911175127, 0.04311465601214166, 0.6929545158399469, 0.5518659770056124, 0.9064218414740152, 0.6561423045219085, -0.04910900675946892, 0.79299304767877, 0.07640373645419499, 0.7595872466493506, 0.6371931364216922, 0.8780850319242305, -0.017398161376041332, 0.644686712134989, 0.8310918856642492, 0.05488191028695248, 0.4596165869299271, 0.8860143351577202, 0.4176986261048335, 0.666720698708997, 0.6165637627645132, 1.7477390927117367, 0.42997855469433116, 0.7233297377513838, 0.6983411747977181, 0.08078180986495573, -0.17663294407915703, -0.1337475097837476, -0.04948151277708554, 0.007494611864061458, -0.03376139069784484, -0.09632176713794652, 0.4434911369016659, 0.9324122625060093, -0.17413037487229335, 0.9028751832314078, 0.8242824035713404, 0.7619652261153075, 0.464522583829356, -0.14938385663217454], [0.047591028424424295, 0.1048036062597126, -0.17425574798774915, -0.1268981975786796, -0.015880317108117974, 0.10868128034299494, -0.028884911616750594, 0.0964169309001541, -0.05828047043688281, -0.07658792461864222, -0.0018733880070253839, -0.023092798385833235, 0.08532743973552795, -0.12345224565993225, 0.08046535800206614, -0.01746248237269338, -0.06384344515102885, 0.07483894877384545, -0.05355344593060238, -0.04524275625438909, -0.05390678448082387, 0.14022357139064015, 0.20725613887456407, 0.14269975715024402, -0.0857317838499546, 0.03349347699864145, 0.18727457413122206, 0.022021830025461323, -0.10652169643649845, 0.031815303826978295, 0.07993324887544491, 0.023576190291305015, -0.1430923387837334, 0.11713901421606251, 0.20442523068121599, -0.045805096584279226, 0.044972830317293544, 0.06669284899739802, 0.15922169280122112, 0.16188780895219754, -0.08287502225497326, 0.18312659480567234, -0.12187815374436659, 0.06458456227616696, -0.05510131295738904, 0.4960764653249525, 0.10603714326882241, -0.08232737947850127, 0.12172064123377413, 0.04596123905151081, 0.017400077485550614, 0.006596594737099587, -0.003255032863161339, -0.16878655424832642, 0.03752763990627009, -0.09003883421283025, 0.21305426362973257, 0.1720143315030171, -0.15192041363004188, -0.09620835967407904, 0.09347834830759358, -0.12554279528264461, 0.1385552629657994, 0.09187277782968209], [0.0025552850364604085, 0.003611153495660019, -0.1323888221930487, -0.17562911320898805, -0.14584779354587696, 0.07527071198229032, 0.052352695313805875, 0.02851411073686319, 0.09925429569635855, -0.04359526243456269, -0.13354510646999804, -0.03746964456277141, -0.010599737031849271, -0.015748385362019945, 0.08380543656482378, -0.04249234516264841, 0.13464172759739737, 0.030465760815276854, -0.014871669989501873, -0.09104313613556125, 0.05984991058743727, -0.08406617206740157, 0.03293300416749215, 0.06724688994852396, -0.14760225804818483, 0.09800437721379421, -0.03267390721876384, -0.10388645404443343, -0.06522807239077627, 0.0019034131499059137, -0.1542856321890754, 0.13457991084854473, -0.062075419315737845, -0.010778090369485599, 0.11642765971700711, -0.10512689739391914, -0.12057217900770856, 0.1483663133517549, 0.093266219311858, 0.07341751539046334, -0.0796005096224496, -0.16761670006496426, 0.17043215583398333, 0.034006851743206695, 0.014601267824909087, 0.033892003992265024, 0.05281468757282906, 0.12263966025792325, 0.12324073339280164, 0.17668781058766744, -0.04608135563785698, -0.10468173649837037, -0.05854111217171194, -0.0051481869255200485, 0.06544946721369962, -0.11436547010801157, -0.1584184342520929, -0.04391516606061033, 0.0796937824379085, 0.12329124483755818, -0.14304611612297316, -0.17263502445211837, 0.11803226978277129, -0.05900033639729234], [0.0938931012462884, 0.17201313138310717, 0.10796327137407483, 0.2226977707687029, -0.11218705182869254, -0.13291461900613866, -0.005627012134208148, -0.0827851591592841, 0.09194199669381362, -0.04244183882777269, -0.16736531367114973, 0.20152979115946784, 0.0834982373616001, -0.0522310163798152, -0.031000622809100986, 0.09193710233404977, -0.06058642194866775, -0.06220845507991217, 0.15820726376735483, -0.005873878363580148, 0.025351506536905242, -0.15251400891106878, -0.03369939335121105, 0.14321400604831058, -0.10349729751076495, -0.02464847101825333, -0.0764171542222493, 0.10359835242677044, 0.1076017912270723, 0.1650834423452346, 0.1647274120231138, -0.012222665414084613, 0.05058493156899782, 0.23968887289302887, -0.105312501925039, -0.011917495854600937, -0.0074440983126717875, 0.20875575051543938, -0.027667438326090837, -0.13600081917087864, 0.21305117983498573, 0.19737921508800432, 0.2047102722633488, 0.21926861750317916, 0.1924587004884799, 0.670997306897526, 0.09875829799961965, 0.17375299110267162, -0.059517161990435004, -0.060215340929759956, 0.171695441058391, 0.026568287680175662, -0.013957445609857344, -0.08553230533702989, -0.07296608481484086, -0.07937702768719627, 0.21399449019711847, 0.04284210158479292, 0.06965705289096054, 0.2106104659535717, 0.007762267419269813, -0.1066385258746582, 0.15766374162100966, 0.17198521675723735], [0.5544041902610818, -0.006055769239180948, -0.04237293207372958, 0.17397926380573298, -0.12321938913048533, -0.10390069729243338, 0.11683689600819358, 0.3461484923938358, -0.11451116085058491, -0.13501170335188478, 0.116501095936382, 0.7173593495437053, 0.669274685079981, -0.10837434788890979, -0.006673392053637706, 0.37685396855284214, 0.5868429786959205, 0.08345841880841148, 0.7419210010310503, 0.6745469035280905, 0.05564468477542084, -0.046851476121693915, 0.42164155254640334, 0.43972644626737023, -0.13897031360687317, 0.016286416429337716, 0.6580340532705814, 0.3004179613971141, 0.6655409783987815, 0.7471878877702839, 0.13767025000405747, 0.6837817297391516, 0.02538707541921839, 0.7665412821989642, 0.5218907014967874, 0.5552886370744782, 0.1501977236419151, 0.5024338906678999, 0.6078091147652217, -0.0053593847657991455, 0.5325807988514947, 0.8109744621316984, 0.38541100141339946, 0.6950281759595797, 0.4308896136182334, 1.5105187909329783, 0.482015789415702, 0.5528103658253468, 0.7662731912171116, -0.014794601203834662, 0.06870682730761629, 0.10924037877836698, 0.17421662817954722, 0.023827548993987403, 0.09499754216593578, 0.05045845668110652, 0.38373230905322797, 0.6465097725478915, 0.103650844353077, 0.5858829909964706, 0.7681759313324522, 0.4266354145729152, 0.3172901332897947, 0.043391582504995], [-0.14365970037614267, 0.02367042770483882, 0.004646706943284895, -0.10919896026706068, -0.10727063783774682, -0.10780432223985367, -0.13660447194138314, 0.01018878113981606, -0.07755882340780469, 0.12424819381272637, -0.027091743176726246, -0.06019042341637414, 0.003320226662755894, 0.04667331379990328, 0.17583013067006945, -0.08677828633513775, 0.08230711318047644, -0.09457282692940075, -0.11817772074818648, -0.05132595670003493, -0.05239622787165441, -0.136042364886279, 0.17640373685060468, 0.10042177966172762, -0.04314147667419352, 0.06607820892474146, 0.11440591945145899, -0.04301661241781788, 0.11030975856425691, 0.09626209213277158, -0.10207505825446649, 0.15700263607848514, -0.07917897388442756, -0.030363845263668855, -0.07438128573514831, 0.09409077846836052, -0.05719800048600687, 0.18110631732359528, 0.04611430625119347, -0.1656532035348932, -0.1592499421223572, 0.09264149375260176, 0.04329690397540752, 0.04343023807924109, -0.09644693468216221, 0.013725046214733468, -0.04095258577999363, -0.09233910879228029, -0.06427011987571614, 0.10782423387662846, -0.13093742774213604, -0.08584422038819538, -0.1378815404306482, -0.12272056602786603, 0.133678196604291, 0.13957992422063462, 0.005851707383581207, -0.057470762705823276, 0.04536593038460369, 0.08323040441140846, -0.13756046417133544, 0.17072906566531326, 0.08539980826621853, -0.033679537639369816], [0.06325593858675191, -0.04455101388686411, 0.04063767317355654, -0.08027662628842243, -0.17389273038436512, -0.1345520742694915, 0.0774274296297883, -0.03327097014827046, -0.008066837982127095, -0.10472160906032092, 0.004839680172328803, -0.08833091168543472, 0.15170839990836418, 0.04054206300450891, -0.07661516066656927, 0.11354698282345052, -0.049283707902382096, 0.1254334841665408, 0.07815279702536906, 0.03402531498311276, 0.0762055987447802, 0.04645329968022194, -0.08672959451099857, 0.14527641229150642, -0.11883513844411098, 0.16187085988675295, -0.10928326208575344, -0.08225506109338088, 0.13909485543399233, -0.10539254468446689, 0.11657478886701886, -0.023725910995156085, -0.08443115974574895, 0.10781001562883177, -0.07190517671210091, -0.06386554616895496, -0.09339110151426042, 0.12114834262007038, 0.07225852164021618, 0.03366107491767903, -0.052742694027902076, -0.1091553650578657, 0.14517609875035978, 0.06698316900360654, -0.07106112358896388, -0.03111710435993073, 0.029693016563063446, 0.00437643252420461, 0.08778873986567773, -0.07153140698681326, 0.14142313230316242, 0.10977912227668882, -0.16375203298206387, -0.019003080908240294, -0.11888425051469279, 0.048012591930808146, 0.056330497982868294, -0.1459506062379543, -0.04924063012391161, 0.0233832656543512, 0.06008475897033222, -0.1396256150093051, 0.05178616890298551, 0.06675282176878108], [0.3206936847173872, 0.04432015022449376, -0.046791349940638854, 0.13701141216459595, -0.024124596207183033, -0.12839485286037758, 0.09254482861323632, 0.21720631320999872, -0.12586776990421875, -0.05612539793162846, -0.020832180049817905, 0.36508577437034956, 0.3223438097368086, 0.15509378922231734, 0.14766007754219687, 0.24388060258674893, 0.059161198235585244, -0.03539713866163813, 0.17729710314385244, 0.15001168825151234, -0.031209056139041482, -0.02761179976716364, 0.4016846660338785, 0.339376357463207, 0.051249999065522786, 0.07209965261241397, 0.28763492747794, 0.3087881305906212, 0.39417597441377855, 0.19507429340296062, 0.021634232823937827, 0.3430472298878096, -0.04194263341404694, 0.4026994117868579, 0.2730547318817708, 0.09273673200902605, 0.041364722381334235, 0.17280855662693623, 0.36940166658698576, -0.06902653203117855, 0.10397407966359878, 0.10602440483401773, 0.22953594712342235, 0.0979388195042463, 0.1404578113665665, 0.7883559057012026, 0.10602126607941989, 0.360994191019466, 0.1513987711314726, -0.1226643892409318, 0.09079812378722832, -0.04757506542178927, -0.15638516330885863, -0.0225836388397057, -0.14753456040513926, -0.0411034219411959, 0.33894032542817015, 0.34906078890781217, -0.015864629958185644, 0.3299190278057667, 0.11818201976921919, 0.21824760241391433, 0.05867080841020439, -0.0015889632621180483], [0.4827405432038995, -0.11126500969676388, 0.1757139756635225, 0.31610801232199814, 0.06942508022921386, -0.1565584220816808, -0.11306247747784165, 0.5901969948189281, 0.1490583767509198, -0.04678114041334222, 0.06017523964863686, 0.3080042030647191, 0.5906658755255054, -0.10992659084802499, -0.12156105969852171, 0.36659975243302234, 0.49922424750510846, -0.17524327447750743, 0.5520481427025543, 0.3831217174385556, 0.13855121949853133, -0.1337394338816291, 0.4856060296661723, 0.3713557065757047, -0.16327348922639218, -0.012368720044469617, 0.5409135543223056, 0.19378905741352406, 0.5221023431183345, 0.6724661248506125, 0.01651443964950565, 0.48063277100322366, -0.12498722418266414, 0.37209504244867186, 0.27260524237881134, 0.46589252254795843, -0.10212929414751944, 0.6295082215675878, 0.3808329177234947, -0.09480391712740793, 0.4156605688025635, 0.5701910576546096, 0.4823459533370025, 0.636201558487923, 0.4713963182902814, 1.3636130894608134, 0.2370371999427838, 0.33029112776171177, 0.6544511732151101, -0.14532660417595958, -0.06749184274428967, 0.0034518238123028566, -0.11591084013672233, -0.028026021883462964, 0.03772418067259456, -0.03292107740757272, 0.23547480679295132, 0.5458344753832103, -0.17752931242756273, 0.5282949739966505, 0.44843197064814544, 0.4193372713448843, 0.3740442553905017, -0.08060725953032863], [-0.07321532449589423, 0.11660443613348684, -0.10883108003012738, 0.16647237700744486, -0.104996085383914, 0.08038399340461458, -0.06702048962802523, 0.05568716105284929, 0.06598863681353806, -0.1300061497849078, 0.02294090379552549, 0.13027439046366293, 0.030648422187109198, -0.08557512867055657, -0.030643813023292138, 0.09757872422594685, -0.15667456973846805, -0.043520530308351596, 0.13412683143114676, -0.10150794437898242, 0.01761766750795088, -0.1586581453975405, 0.034306693964931995, 0.09604494825818058, -0.03802048956233864, 0.009217678475070656, -0.03883240634055668, 0.12386183290796585, -0.14271665508949197, 0.0740921226047305, -0.135376166652956, -0.025189574230941453, 0.13408192373315583, -0.12890200471023924, -0.11525025118007948, 0.16817808028308465, 0.15542733757778301, 0.15894522150235238, 0.13634910610424825, -0.10307426649275302, -0.025140847616100304, -0.15778718794345983, 0.17299015975252427, 0.05197706232911764, -0.12792451439676505, -0.10976079174532646, -0.15463843102945546, -0.10755102014678684, -0.16759587669592058, -0.05488169563991449, 0.164299475359286, 0.14848943967275433, -0.01190151668415998, 0.06547180171462189, -0.10797491667562233, -0.025314686851840823, -0.10771619313322268, -0.08537446899987008, 0.07776770256042595, -0.17268542730941377, -0.09466721007103408, -0.038451895873574865, -0.1240917494037398, -0.11738848165902761], [0.5426903442560207, -0.0019459764646790987, -0.029797568825155746, 0.367828515741389, 0.15767960998992506, -0.13291642670598205, 0.030922075318933765, 0.3845574067766907, -0.10174160764751412, -0.1488623798170647, 0.11619022380997787, 0.27632925425112054, 0.3652160994336998, 0.06852005058849939, -0.13526151958369748, 0.43065979810288135, 0.311064853501574, -0.1543237191675362, 0.4621621682333855, 0.32574364196739847, 0.1644177484362578, -0.003444566484423348, 0.41600414398159336, 0.5562345729181033, -0.12362117738112965, -0.06907575487451595, 0.3090260446690931, 0.2682513966927508, 0.4785949723380585, 0.4632594977528661, 0.09281813138993493, 0.3639427121860799, -0.15664479072615625, 0.6171026212169659, 0.5151440989754861, 0.3071741715607599, 0.1046062099116856, 0.4668200946816051, 0.41595409587743226, 0.10035855639448621, 0.3337163755753555, 0.6269352210694235, 0.47778308586967266, 0.6187537718484326, 0.3510838156211955, 1.0317220440195212, 0.41433061262480275, 0.43472260583958766, 0.5374182640714293, -0.01030417695550509, -0.10888948786242517, -0.049876663239428604, 0.02620922802544659, 0.05450044096986318, 0.008080755325491601, 0.06524383197332714, 0.25746030347967785, 0.5053986105503891, 0.1617304374408962, 0.4697851062838265, 0.38955573087893813, 0.30007818289156374, 0.3058290179414225, 0.09208498420018332], [-0.04870000073580075, -0.11160774282850716, 0.12079529395340574, -0.1400370377554772, 0.05204546008997557, -0.132352185886789, -0.04677797514282872, 0.17566891001982646, 0.09707258279350253, 0.08900593696753892, 0.0680687928054832, -0.1469643157796786, -0.13087229600224592, -0.08708861116957939, -0.11371790415270493, -0.095191922532848, -0.15182988347776136, 0.1546344339590863, 0.07584247319444645, -0.04434012985123137, -0.08982153924073025, -0.15637133136077971, 0.12429522943790802, 0.0066156851697593, 0.1065884560782008, -0.0871151483052891, 0.09574211148172176, 0.027088240944939224, 0.11005119637219965, 0.10950570970403553, 0.09333702659890056, -0.0036387718780685196, 0.055210578924004966, -0.1552673521677237, -0.07549716628813986, 0.13070804893369478, -0.019210129134347137, -0.15273005203922718, -0.09123763299774192, 0.0994027761774389, 0.11384806171464648, -0.004927192355906412, -0.03186657578905294, 0.16037705140784134, -0.12079835971303203, -0.14232125815229635, -0.0506263569221157, 0.11903261774426657, -0.049258170479542146, 0.04957615867466278, 0.11745073912825457, 0.1299922675248095, -0.11452374309700597, -0.056771253731547136, 0.15690177213965642, 0.0280005897532008, 0.11460441210842712, 0.05123708127589294, 0.00292830948140152, 0.0730614895729205, 0.12443945770750173, 0.14843814405595743, 0.10375225292893389, -0.09568432456629747], [-0.16224717084971751, -0.15657405183165313, 0.07648378422021221, 0.11690275209156384, -0.11618483307593587, 0.06396744017225642, -0.025791653729366232, -0.11046741014242929, 0.02679957555519849, -0.08032553015393444, 0.13697484179836303, 0.1304907568244749, 0.04099468190801753, 0.07336802658731748, -0.06700340248769852, 0.08432406949819457, 0.03593996235302685, 0.01829103472079366, 0.008619838698540883, -0.15921267569674416, 0.009263649608034358, -0.1669804153314424, -0.0382661683194378, 0.03738793066844559, -0.14830104288524493, -0.1197675958557996, -0.015036737231624048, -0.14397507002837756, 0.13118811920601844, 0.03207169101620802, -0.1118045566375433, 0.06046599612239151, 0.067118272807531, -0.03100967597931814, -0.09985558299372709, -0.13265457135956243, -0.07822365322177577, 0.0055835887881215684, -0.07409143818743791, 0.11197710640721523, 0.14972697813675215, -0.06887637984102242, 0.1393657789707217, 0.010100323102728681, -0.10617835551722513, -0.0040600598095467955, -0.041040742766259714, 0.04947175409009111, -0.09648977718170401, 0.07577860007124662, 0.036334033725380216, 0.1485885874370306, -0.10412848432103707, -0.1539879739384794, -0.12441298725518286, -0.16136261448712844, 0.11631324641230004, 0.01668650867253879, -0.053801693797975295, -0.04150014214289302, -0.05862717976784601, 0.031355614342335136, 0.15321008158976449, 0.14021658086968122], [0.509078224379924, 0.05472682390087363, -0.11341575432284091, 0.27569065228789935, -0.09723142436702713, 0.014447851357285822, -0.14756938728251942, 0.57333732990676, 0.06524718955917183, 0.011580821056371926, 0.1378614205264592, 0.4370575578620479, 0.5412971534662195, 0.05765343697412151, 0.17589007413792254, 0.6189438166142714, 0.5554159283402741, 0.16538567546659402, 0.6795104370732542, 0.63700928324909, -0.0938895106860678, 0.16723261101174447, 0.5236236802364228, 0.6267445738408169, 0.02755838456033763, -0.052199387823637054, 0.6087464907370655, 0.3501423039517767, 0.6294683279619485, 0.7360780996981874, -0.03517928280587178, 0.705886129113858, -0.010944000021015171, 0.7755038199987357, 0.5197069189892513, 0.8251276392216566, 0.0030659593494508086, 0.5055073130973647, 0.5806481890140563, -0.11288106450997284, 0.5304439499995256, 0.7876447816815181, 0.3881508397766198, 0.6439033239282627, 0.5568564984778867, 1.3526963977138495, 0.5978643357229924, 0.4901389724290407, 0.5285259712483955, 0.1312900652700091, -0.011624159156307184, 0.1384167028244759, -0.14124764645322835, -0.048300739742167066, -0.07742297129638351, 0.14230264201171525, 0.4217090331248613, 0.7027537634406394, -0.026990243402633347, 0.6505406676348381, 0.709793784735118, 0.6954247164394786, 0.20981064047081063, 0.008872718129439627], [-0.09155389054906105, 0.05822503911936635, -0.007400781801249284, 0.11181311650908568, 0.10865623106069558, -0.13888291427176952, 0.10727094757720608, -0.07002585482413998, -0.11875113581492269, -0.06629621294653634, -0.04404487987155087, -0.14392891324760923, -0.10080253259511648, -0.006133006585664125, 0.040571680643844255, 0.1519321344535597, 0.08068327084545832, 0.02650165851491787, -0.13637077406828707, 0.06113345738350262, -0.16288000126141783, 0.10507992048081757, -0.07691312929286809, -0.010963256300036042, 0.11087007745193009, -0.11865055303082636, 0.02145995704212207, -0.04156642424684969, -0.07156979391921833, -0.07442841350672813, -0.06417751380673652, -0.10644817273669818, 0.04814756955666383, -0.01558317863939197, 0.16232314655224145, 0.1456226876968006, 0.05104279054245092, 0.17139221154962336, -0.10313546682498145, 0.11011370652789224, -0.1367902717412328, 0.009384113804894591, -0.0944567430293051, -0.052274203878871085, -0.025637849684703347, -0.09075121290280465, 0.10380742786647074, -0.040632744345670116, 0.16506216840388388, 0.14286448562981538, -0.11962221837919865, -0.14788006988368535, -0.147506233378878, 0.0807533621348583, 0.05762911460860015, -0.08122784340494481, 0.03368020513808531, -0.039336760461793935, -0.03791836500013493, -0.026923042063495474, 0.14602069379905125, -0.016459779496664273, 0.14165672657999748, 0.1559191934913999], [0.08191880231985868, 0.15309995022194667, 0.16146939352738068, 0.10331271780750531, 0.14031545426087183, 0.15809112715831333, 0.04079788266577158, -0.09189123192273699, -0.1239940243067366, -0.05701709724718343, -0.035251805150810306, -0.11002042626311045, 0.08802492239726631, -0.14497571960168543, 0.023916249276071222, 0.195576920755708, -0.0655249892510118, 0.07973022017118334, 0.1320426044577128, 0.08675701986342987, 0.08717893505277378, -0.07416533938806483, -0.07138352557730915, -0.001462723952775718, -0.06422393909529216, -0.07420410569425821, -0.00018854891896234966, -0.046775651150844214, -0.05050052232304403, 0.1542301938003617, -0.1337918671458762, -0.03359788968786684, -0.15464527705084632, 0.21622696918712006, 0.038829127629318075, -0.01534214103953892, -0.017525312298042495, 0.19684743694139448, -0.047811013086665924, -0.049680495372903324, 0.05127966633285759, 0.12623972484336182, 0.12410215743151978, -0.06936166196644919, 0.07868222521491508, 0.2847619705407906, -0.05251319387598387, 0.0632111336305301, 0.09345543685150448, -0.012181306847118045, 0.1300475226982071, 0.06640861569516876, 0.13764166892007998, -0.11687490198942087, -0.16990613657478787, 0.11024290745971269, 0.10307742411236046, 0.20286153162012313, -0.034875919508409195, 0.21881489586445477, 0.007209909650349514, 0.052528221033002045, -0.078898926914034, 0.13517868333818697], [-0.03632762479878162, -0.018094754478365793, -0.08010722853281109, -0.1181287866323368, -0.018339949865339215, -0.07367436321102186, 0.03864418106562107, -0.09925385722872733, 0.10307313436156354, 0.03720232480114005, 0.11454982560217539, 0.16934746634023082, -0.04124165845300827, -0.15473062154891717, -0.15492237292855784, -0.15199329276816778, -0.17338738824136096, -0.04976248917906645, 0.040244517595966124, 0.1772595063854335, 0.1226959762289042, -0.010900105648229417, 0.08389731934773048, -0.009085103759308051, 0.06894352292572173, 0.10241305455290237, -0.049328853114007705, 0.09879719292210652, -0.13371589539503406, 