{"state_size": 5, "hidden_layers": [128, 64, 32], "action_size": 100, "weights": [[[0.045176592991965, 0.015251908026226354, -0.08187566842984237, -0.08574034637449945, 0.008193243997053151, 0.15607287214428922, 0.11241045329026904, 0.01828046623851812, 0.005327161395558453, 0.024642039493468278, -0.02076264855343711, -0.13861316820465652, -0.17024335961484102, 0.09241601803419332, 0.03150397915832221, 0.02316070814836546, -0.1906617190003178, -0.07927866712810025, -0.0842400213662909, -0.09708486218542314, -0.024897072875786002, 0.05859027001012247, 0.1664139052216043, 0.05049766288772354, -0.18950755177184636, -0.15976908800201395, -0.12928565607550868, -0.12318714321593618, 0.05318480408883377, -0.06332023620689908, -0.10930505123687441, 0.02792517617981567, 0.041954267767789905, -0.08913386867869581, -0.03401745213948442, 0.07977699179540108, -0.04800409418694124, 0.13834670211812394, 0.14299149074681386, 0.01985031143507179, 0.12938943532217662, 0.16865719529078846, 0.11133757298686998, 0.18020199170601242, -0.20992665722460285, 0.0999959367771969, 0.06795216130871766, -0.045493767268330786, -0.1199212289795892, -0.02740506991990907, 0.10482860217530005, -0.17832649800322445, 0.061652186858872984, 0.045296750514606986, -0.019306232033759304, -0.10802411896899129, -0.1786705170841408, 0.15739051672211618, 0.07644422615312844, -0.0013230797346214947, -0.15673951053830898, 0.03913338632806467, 0.09220168190449285, 0.13924201981205978, 0.08473520780186888, 0.04453362111568132, 0.07760244587637544, -0.09192473372473763, -0.03496699351531642, -0.04995327830806807, -0.1516819628457238, 0.0624331614708406, 0.023882952870720384, 0.0950961568555273, 0.04228053952371819, 0.09762775566976194, -0.20562437269497652, 0.1642283881902237, 0.11918687810908166, -0.1658342182810239, -0.018872699964400125, 0.15671917655269674, 0.1184122347731006, -0.0444455633855586, -0.15206232900242486, 0.18103179868609717, -0.06455781447970187, -0.11593427725888125, -0.03544857401603518, -0.14165094529911093, 0.022477221481263052, -0.04054538742282257, 0.09953545087271008, -0.07083759952787164, 0.08786099199655648, -0.04469232793025877, -0.022986516367476405, 0.18412924397179356, 0.06793052652233415, 0.1044638305570714, 0.18921310345323786, 0.03905116534149551, 0.12041103268604526, -0.06644761040760032, -0.04193482600380436, 0.08042846725994843, 0.11757650797893617, -0.018111112466983117, 0.10608030825355891, 0.1244326736334869, -0.1652140325997643, -0.022445604962820526, 0.0859661889475864, -0.08063709627232593, 0.14989760502288954, -0.18033723307598545, -0.14892034316006514, 0.004098943683509766, -0.13199788481456257, -0.06228587867361124, 0.10817644597192194, 0.1618091651532291, -0.09822182783204637, -0.05649086483878704, 0.10372931480818426, -0.09764707416924102, 0.011732673817996309, -0.18562048167569736], [0.1255509067432035, -0.006274572664624342, 0.039244566436558666, 0.18210094022280407, -0.19203769033238122, -0.16246434352597286, -0.05385479185846773, 0.2146128440274209, 0.20820129497907106, -0.12952288698152228, -0.2049886698803427, -0.09629449029760624, 0.15088291203130444, 0.1092685531308667, -0.1646736559172139, 0.07876828229578889, -0.05717156667108858, 0.11699461177847717, -0.06269154344104878, -0.20371944482834636, -0.15357710889669784, -0.16243709034980106, -0.09706323282611526, 0.1750021074696664, -0.11586836531628902, 0.048673760044999, 0.0064453152561723655, 0.19871749115056841, 0.11996796765339691, 0.1481264405489928, -0.04991903787568776, 0.06880812890742202, -0.08586937855367618, 0.0628307117541466, 0.04998795443578069, -0.18141892730061324, 0.18491552567104744, -0.13075810748459787, -0.19733700960315118, -0.035780368993776145, 0.1729776166710792, -0.11769686163463647, -0.05996716065161809, 0.20792032026782883, 0.04492513939882073, -0.018541758656638735, -0.07862809298951715, 0.19316923587805046, 0.008264871194165913, -0.07320237248887498, 0.1472753196488659, 0.18748753184807931, 0.10675394157296517, 0.1929271542108943, 0.01529737494036628, -0.024800303804393423, 0.052484701929144756, 0.07307265398287582, -0.06708241584376907, -0.08643802372515429, -0.05271135037093556, -0.19688766061430607, 0.16870153725508338, 0.05161356788369977, -0.21197284474289071, -0.04893301804062482, 0.0035960359618917685, 0.02263759302056913, -0.17509229589501762, 0.14894406869103147, -0.1571902199028922, 0.19560013619693706, -0.019501873209725816, 0.14550074572082608, -0.10234536596149339, 0.08299635528581992, 0.10523239933217315, -0.16027008109993254, -0.20155419100942107, 0.14735044142314577, 0.05832886694761422, 0.08701822271861465, -0.11956227362940113, -0.13572174924011673, -0.1788296618743299, -0.12511202965360446, 0.1514338365130941, -0.11337253174468244, 0.16534877717702584, -0.20853066868585038, 0.19398466577953366, -0.1749811762254207, -0.12954246267216712, 0.01847858524929541, 0.01914644081320345, -0.02145925864920373, -0.008356162895518745, 0.1466775531544021, -0.1311896853560015, 0.006958922478594309, -0.016273299309089648, -0.19151181728266228, 0.07449602331122672, 0.07806699254045493, 0.1592377374596945, -0.1460460598371077, -0.15422852325999575, 0.16150879089987616, 0.098501399664609, -0.0689236720953834, -0.1465376916365813, 0.17247427681396274, 0.14906775021024532, 0.11744058378416354, -0.15712180591220481, -0.16007105105389904, 0.17673933510869536, -0.1468071320181799, -0.15569592062342527, -0.1379270956937548, -0.20963975554783745, 0.16946795529576242, -0.19030478891164704, 0.0759738085729113, 0.21012706752488897, 0.05511662664816533, 0.1494478164176428, -0.18392805109598107], [-0.038046861239042454, 0.09691310406504691, 0.19539015253016448, 0.1904955630371158, 0.23865875329711453, -0.15539433262247998, 0.020719668281866443, 0.11401379878634028, -0.12498115385485577, -0.04410707987832826, -0.2120554918612064, -0.16853218015971017, -0.13036920137863733, -0.18393606211681057, -0.05055720713055357, -0.019360299321303898, -0.05024828492520371, -0.09087407170071977, -0.08310037886435917, -0.07805794937306268, -0.04765786049085202, -0.0017448093140857842, -0.14920771482916187, 0.1805827228694651, -0.18781111068519082, 0.20314034300898998, -0.16725725162847488, -0.15006071660769793, -0.063604286402367, 0.17042902803154322, 0.03307528880599994, 0.01862379259270465, 0.12465472792924559, -0.19741371456731066, -0.11504306914182777, -0.18375840468225085, -0.031149754133019264, 0.22521829786232003, -0.17880712810712115, -0.13634917945544128, -0.16944809505224515, 0.02263738827398199, 0.052979865567724, 0.1449831670599938, -0.13990335200806475, -0.04885522615343078, 0.13426402453033054, -0.07028891424301745, -0.18835254056123374, 0.012615233130262304, -0.054559118736072984, 0.16000290255716415, -0.09309829886048429, 0.22754314098062, -0.14675777894044703, -0.022228002247423117, 0.05899885197000179, 0.053027664164859864, 0.13539837179862266, -0.10450965273213318, 0.09356755542499309, 0.13187646385518886, 0.09959377452142279, 0.1441389523166389, -0.19149474418074316, -0.046916206699086284, -0.22620241888700668, 0.10134142179342769, 0.1431880752718633, 0.1261653687282948, 0.0017814223326392735, -0.017929682973264506, -0.08399028474404335, -0.17062403110700997, -0.12138835707081708, -0.0796228848455592, 0.12307762091876616, 0.015934806108520074, -0.08344917318173371, -0.1776583553505412, 0.09826022612448158, 0.14927139183095647, -0.08636446704567168, 0.1474483630062795, 0.11520031303400835, 0.11961137731708986, 0.16942164982440966, -0.02276974303347093, 0.20520839495939983, -0.12339362366555102, 0.2730946021855258, 0.1874825953874211, -0.20220088933509048, -0.018751085141079094, -0.01096074962539647, 0.24140866337015573, 0.12467221983156818, -0.033034801536831866, 0.17088341608438165, -0.20248479180953421, -0.009030701466862034, -0.004708493201066275, -0.15906677651063417, 0.0672197181948648, 0.04919147915375371, 0.04610848339283358, 0.13572601509350324, -0.038855521313237266, -0.05288849197094685, 0.17941364906951981, -0.13372318827370439, -0.17454406414060877, 0.04625906677814273, 0.17818150532681468, -0.1499838239594718, -0.04139714857576937, -0.017286175891254585, 0.03861581190857444, -0.08097173693319473, -0.12479874738639438, -0.18398684458809778, -0.026786850322876705, -0.04424056321707093, -0.04399945284639694, 0.08316167002221461, -0.03742846906383118, -0.10429959837803673, -0.03518468700007413], [-0.03969730003795846, 0.049845548077365825, -0.13970123385645375, 0.06199638456100548, -0.06751939595662788, -0.037102639744300385, -0.1872525253809085, 0.1245141908759233, -0.0572304468898944, -0.007679634642869623, 0.1966441537798357, 0.10224628003075878, 0.1709124279487198, 0.19068540517117702, 0.06092667258456421, -0.1770102003877726, -0.11580253065786321, 0.05933714788571223, -0.18536765694850052, -0.18159081342257533, -0.1792686852847616, 0.20417538343442054, -0.05806103869176916, 0.16012942800534674, -0.0777787953918491, 0.09796416026766044, 0.04074664686312296, 0.07164936178663744, -0.1601337032057828, -0.12299798433014403, -0.04142860560994265, 0.14261042385207887, 0.060693157338927044, 0.20050437678718566, -0.11912494231919737, -0.016348176261013543, 0.0195275937903977, -0.09308157981753726, -0.01498462891413498, 0.07918896049649952, -0.08845983979956094, -0.04014026569561855, -0.11398508735552827, 0.005230262887137087, 0.16391049670027238, 0.020736518634432363, -0.019530009679112354, -0.06666566097966059, -0.10544881148997062, -0.16666075636966537, 0.07840333525788913, 0.05938981516523014, 0.0049127292915381, 0.21070050507463003, 0.18140051517369923, -0.13293794352319824, 0.07342799510677314, -0.07633106607158084, 0.09744813087123615, 0.16475766586481022, -0.03960698221197871, -0.12137386307670853, 0.14033569467827994, 0.0031844668294070187, 0.13545106247862315, -0.15678258642659104, 0.12027933203220831, -0.17063931387391978, -0.17497782961679567, 0.16337644333454016, 0.060476873235318154, -0.1923268608671188, 0.10741432420701148, -0.055545284613512984, 0.14346466410432643, -0.049345991773859794, 0.15292950458229837, 0.05622215440139838, -0.09511293043367819, -0.17712323146644496, -0.08056803933088146, -0.032958202774548806, -0.04848166703594427, 0.20795944556196028, -0.07593403368590221, 0.01849260295980611, -0.1446925765743695, -0.026546425900971587, -0.17957976721555646, -0.013733030875794139, -0.03487273708836551, 0.10801052349876401, 0.0866373503028714, 0.05753745031435378, -0.1604099297268846, -0.1610286173112708, -0.12902775828176846, -0.050976327938056405, 0.06081524372570669, -0.172528956265147, 0.14353583684701393, 0.055708727416404466, 0.18881786370908427, 0.1972704397135896, -0.0034463466145342237, -0.0076787916160282075, 0.1268564425783387, 0.07539108474070433, -0.07033807222807338, 0.12357528247806786, -0.08484089481659504, -0.1546426851076354, 0.06766199649036748, -0.045208032734657205, -0.12502230989131002, -0.11432147607096763, -0.1666564428616364, -0.05708351676056995, 0.028950069841144337, -0.02646513870968986, 0.15251597424421653, -0.12265813290235858, 0.1588832924890247, -0.003295878878194734, 0.18553305499174613, 0.12597428505475297, -0.16902793948544587, -0.12188421337286576], [0.0958286593303756, -0.02594263334692106, 0.016553892948837894, -0.09408130842567389, 0.06581353476776958, -0.1639568840129285, -0.14366579023571366, -0.12226394500701193, 0.0801771817609609, 0.1761627140535022, 0.28250903008538375, 0.15258526606507583, 0.1456096865757043, 0.1541241272863367, 0.05633749842404937, -0.060503276228938, 0.23294971352672275, -0.025950594314717135, 0.04782897478477277, -0.20586008568241218, 0.14503242660520205, -0.05812117041970636, 0.257672028000863, -0.11824213622573448, 0.05535117984962529, 0.11952518588302725, 0.08835277340391123, 0.08207558012954104, 0.27858589662399535, -0.08872441207511969, 0.1601387396123104, 0.060011336268345226, 0.22568904428440112, 0.1423744355946466, 0.0339911148017287, 0.2541005689030067, -0.044748841446688975, -0.19933965524154407, 0.2508835221479007, -0.03313722813530608, 0.21791549379543404, -0.1453235445237893, -0.053116891707895485, 0.0266041667074374, -0.1579488998821746, 0.09628281345481729, 0.16507025042477047, 0.1487983960755986, -0.06864256691614062, -0.060510721374970794, -0.2033436062252798, 0.025084483460766905, -0.022781048668291233, 0.08622703370652297, -0.14904319365915453, 0.030378503541408294, -0.033560029596119006, 0.14782285565356384, -0.12885093618960738, 0.17833814208208063, 0.15247510838349046, 0.21501502605764178, -0.13520644710626695, 0.18713429272843604, 0.18839293424581555, 0.2572459395437067, 0.24699056821030557, 0.08893206443142022, 0.19013273987895432, -0.0544937439925003, 0.1835869372000323, 0.07420531959762375, 0.15879470487136726, -0.03922195888003355, -0.16335308695986595, -0.11564992200137365, 0.03865281375516578, -0.1739892751003193, 0.0068827631084973275, -0.08040678738725168, 0.0837475297453281, 0.11495171888112975, 0.1024236769130262, -0.06120210987966524, -0.04287702870783512, -0.14211457170402486, -0.18561058943014783, -0.06461411620173857, 0.05025036411458248, -0.1401286835076274, -0.024094356751198216, -0.0703379420397979, 0.03544566383174056, -0.030454572050706813, -0.1062236703248474, -0.16688615351386338, -0.19432160425061842, -0.061371893779673, 0.05108129274507678, -0.062188167322034194, -0.00787630225907571, 0.07572786781946515, -0.1901703540818781, -0.18894506653445495, -0.02503198209715138, 0.09908655667067363, -0.06479850765023218, 0.016160681869408514, 0.20970492649315936, -0.10435110595488813, -0.0992431679558801, -0.025830396105740616, -0.18612215001546523, 0.038664327342532084, -0.08233506674464414, -0.048765052574268386, -0.007282572996727743, -0.07179620123973704, 0.21945036959850026, -0.15158954754644205, 0.04916824383631039, -0.14771962862557855, -0.19455830564335566, 0.18977602379100178, -0.00838782665880555, -0.20015094019087848, -0.012103610317686697, -0.023146378962105918]], [[-0.08040652545637703, -0.05000111408220545, -0.16583845704753747, -0.17328698387338923, -0.12091323452351338, -0.17326002592791254, -0.018892145934417546, -0.07462869535985651, -0.15036008783415997, -0.10875142263742235, 0.17381027817524103, 0.024821598650646287, 0.15560542774979874, 0.05441338773003829, 0.09274683564244333, 0.09124618341988638, -0.056601005910686314, -0.11177650821264927, -0.10787814412245748, -0.04109374198344186, 0.1703506847810247, 0.16746428639532385, -0.01653904126144386, -0.010643799779972152, -0.052635192940692195, -0.042598831897492154, 0.13990179705461592, -0.09691866458674346, 0.0950192889897372, 0.05227922654053317, -0.08055925719051517, 0.04606708199078996, 0.011936524754647971, 0.1251681053186651, 0.14169704113681636, 0.04637416899960818, 0.022973946884261683, -0.09582133069799173, -0.07812790023421338, -0.033779247466594185, -0.12352894431875927, -0.019297611657034076, -0.009765781411243377, 0.15886454341586528, -0.08403955400051354, -0.09826957399521183, -0.00936039610261714, -0.06489680136626261, -0.13897001734479447, 0.019037717463560724, -0.10889794154793958, 0.10546384109885609, 0.025553181997215457, -0.11634635729354534, 0.09828584996533189, -0.0659576206437733, 0.11631508408086857, -0.05430876737529795, -0.011645859075916245, 0.008232025128614406, 0.1011051926252616, 0.17010562205780275, 0.03548152622747064, 0.022007219511307068], [0.10467313817234147, 0.06990772175480792, 0.1685686327430281, 0.0436104610875469, -0.06941165372361166, -0.14641465037176324, -0.02804717969015022, -0.15792751405974143, 0.1380881080998408, 0.043831894712245224, 0.075743958794739, -0.10860916123488507, 0.11598491051525386, -0.059143686527107886, -0.04685472850390503, -0.14655877229858214, -0.17623544218740322, 0.07341929909249345, 0.10624355939195143, 0.10531635946374157, 0.07351925023581357, -0.09668511797445513, -0.08896034871167051, -0.05771947434191686, 0.032093368338081046, 0.1297034880931034, -0.050247098101868594, -0.0008891111050821636, 0.030270378456904466, 0.0459326658418316, -0.11200614316925774, -0.03293910103928577, 0.04383721671098482, -0.1441370656337557, 0.15766724774748084, -0.16469201826553653, 0.10075239694750897, -0.07400232924684072, 0.11137485775419355, 0.14463995040789066, -0.15747584824001198, -0.16488184071615566, -0.07466667645785809, 0.09991398689251177, 0.05790470219732732, 0.17408277007302977, -0.04590179223741459, -0.1309829178162322, -0.07107031205442524, -0.08313363546752585, 0.1441578281931001, 0.1358749142608616, -0.16873628887321127, 0.14005138607222492, 0.027841446230558037, 0.005271809569313313, -0.11139431020791109, -0.13265653855389553, 0.09007133832014552, -0.15836254731376453, -0.15515991085437852, 0.04332055014043732, 0.15890776618480998, 0.09310595762546174], [0.10663698444786271, 0.13305851006643402, 0.10812281422953603, 0.13302188611030027, 0.14318853706316506, -0.1642029057300798, 0.14011550162422062, -0.0652303166767683, -0.13724176262982563, 0.11161877065992007, 0.04676910443073468, 0.03481289943467533, 0.14642692997352677, -0.04689796432399307, -0.126164820854834, -0.041833288338407396, 0.14886316388036877, 0.13661358639650734, 0.06389044997946887, -0.14537935300509772, 0.0422274680378626, 0.07164891074816467, 0.14465055954069103, -0.1342204180599329, 0.09828540793130497, -0.11576132470687386, -0.04278729283490705, 0.15727694770281617, 0.07182931257763808, 0.0721544008114122, -0.1549810216286186, -0.16966915157190418, -0.028109395139865673, -0.005016106440707739, 0.16861302574215778, 0.15988655850159186, -0.09270965831024118, 0.13763518558336824, -0.16150373259540599, 0.17376602774989142, -0.1756248327926011, -0.07967826847491039, -0.12659336097053012, -0.12092566663072968, 0.06371264099293666, -0.17296192144120057, 0.062126550928623375, -0.03877160129823479, -0.0864499887697773, -0.0302843358829622, 0.0594424776636199, -0.045534613200636946, 0.08409894437080526, 0.16893459747632775, 0.04218249475032333, 0.07575406561084652, -0.14359173421184718, 0.027240453191248154, -0.12534718500011666, 0.1270059902211425, -0.04321952920716371, -0.1656155045255499, 0.17580573024967047, -0.15086533106246375], [0.13874272084273812, -0.07961514660615615, 0.06287872132460534, 0.010717755040728714, 0.016427994939479544, -0.07268539429566277, -0.050955877655640046, -0.06784463427040455, -0.17144617744062568, -0.029770945721359722, -0.08721467825156255, -0.15337702637790396, -0.062645912452241, -0.11513976919987579, -0.004943721550469558, 0.07163723383743173, -0.15221495605577917, 0.07653202933899243, 0.08006760057545301, 0.13132042686167109, -0.07408601891892685, -0.18282393384877516, -0.035505608520026606, -0.13633735715231082, -0.1662188911760365, 0.15127334848235707, -0.12539312968058736, 0.13198313289922067, 0.1083653820278732, 0.1628742896100996, -0.13172705383888134, 0.1275590183694574, 0.07621272071090149, -0.10539719969421091, -0.06701977271305011, -0.14580799773210962, -0.03567463270315658, -0.09587543765818567, -0.06436400904401754, 0.13018522137537983, -0.07948752726323234, -0.1398317684132565, 0.03536594662159664, 0.1568016885012287, 0.02570534799575861, 0.08851289385127595, -0.09573522914111565, -0.09515973802146005, -0.056713149557850694, -0.11592128477615896, 0.09288003962198685, 0.15874612388497542, 0.14241637438093965, 0.1632550049499846, 0.005489688199191669, -0.11867708312257491, 0.15317868976621613, -0.049418211899917686, -0.026924344962977187, -0.11433860347370682, 0.11246591228176131, -0.10726290561209954, 0.14249624684251874, -0.024855412235250306], [0.08331548024064045, -0.0015320417201770166, 0.056309009689794104, -0.10268750603549234, 0.08803773059156357, 0.019296017514404046, 0.002792484963192107, -0.026558373529479228, -0.09573563139069999, -0.13927933768542303, 0.11695889847612408, 0.17562681832172447, 0.05847627017514158, 0.10463425893400444, 0.09729868879191947, -0.1546509694281061, -0.06288138149086162, 0.1297988824397479, 0.12161544018570945, -0.02661293176417716, 0.10119624351703795, 0.14140244130268875, 0.04799453442266152, 0.001259777538854756, 0.012264231467712237, -0.08721718159694763, 0.03698464112850312, -0.16679166466967754, 0.14184444722460038, 0.040093225798917664, 0.030419816478851322, 0.14234531634432482, -0.11667031865633586, -0.027801909044044504, 0.0300437911585545, -0.004502853784305471, 0.06580662297619982, 0.07880517771598662, 0.1621684656340556, 0.11004210669609439, -0.06193903524859955, -0.12605443190233181, -0.13319250986091485, -0.024620564520755034, -0.03736827751478885, 0.09987254847393764, -0.08962555034922882, 0.14152215075988134, -0.1261937263961281, 0.007187965737927232, 0.10712011855168357, -0.1469388075719756, -0.08548929888672677, -0.006519249388573151, 0.17240179077523327, -0.012823841503553444, 0.16303818099428546, 0.06202046254395993, 0.09807007612711742, -0.05818137169819183, 0.02542405332207015, -0.1147474577796681, 0.02228510449726831, 0.10357244133983745], [-0.12777344159427262, -0.010117322457353809, 0.004684195734416074, 0.05647055886329225, 0.08430421542186818, -0.04980713074408855, -0.051783377421130386, 0.09509280015486024, -0.17603220750117418, -0.119307683013852, -0.05210171413019358, 0.07920068878789419, -0.009088337321587786, 0.08546470080749682, -0.14068089852771012, -0.02682037879445968, 0.04409031302823824, 0.16267482322246077, -0.0683597935377083, 0.14260523065221686, 0.07426768816343185, -0.012112884382192341, 0.09563086103151267, 0.011892473930199654, -0.024035650477948506, -0.05846833468221427, 0.15844092842944077, -0.0964226242403556, 0.16109797632416165, 0.052280190385874295, 0.17451249826351384, 0.006280534408413162, 0.014606699931689391, 0.12727049071470287, -0.056176575042833056, 0.012043085429898653, -0.014524618053080814, -0.029262896632621105, 0.17203383328851918, 0.05697248938366376, -0.16715686156030382, -0.03931746371909938, 0.11638163168310436, -0.019734222900855247, -0.05083626638873978, 0.04419857092521978, 0.07713404978223593, 0.048348148238452605, -0.08046800218531348, -0.08924843189612273, -0.09000923840486239, 0.07635172538502824, -0.14098577495334347, -0.07166568876065238, -0.0804561552250597, 0.11985797271789136, 0.0433950251224315, -0.08030998775582598, 0.16168057610143466, 0.015491474000439126, 0.08223460463858043, -0.11697674626974727, 0.12449146170539158, 0.10174334407954089], [0.021205285260533745, -0.1146112762636751, 0.013592546910722416, -0.018796986765432486, -0.017649113093771956, 0.04715408050619929, 0.05055630956878743, -0.0640109734753643, 0.10384557191291613, -0.09008311702197551, 0.01915922622776515, 0.013827042468562561, -0.10379794033129407, -0.13976751561292583, 0.17197628320674432, 0.007885957994632663, -0.09350283123418275, 0.1280216269999075, -0.12803386477688197, -0.15369655878461072, 0.10269627166433787, -0.016300177062875558, 0.0029435242854509713, 0.1667819359005924, -0.02799175936987627, -0.011869046614563845, -0.10989617975973096, 0.025991078635055613, 0.003805794872435877, -0.021082337252185362, 0.08468809045605878, 0.00895066603611786, 0.11105649964007994, -0.054298634178322626, 0.08199633484464451, 0.09018125645158101, 0.04169002056868841, -0.1261179154182401, -0.03533162579687481, -0.048923250120833456, -0.16318267986998955, -0.08601358354248072, 0.025646830286951007, -0.150882397757172, -0.08148611342138813, 0.1696086828515536, -0.044240014534730726, 0.008837213217469287, -0.02765890294768364, 0.13684836024562905, -0.10506367301969059, 0.09277748455841137, -0.047758259147253096, -0.025649418073998204, -0.10167938773148763, -0.06022919500129806, 0.10595911352914054, 0.09100524552765935, 0.050933205529385156, 0.10102953634071096, 0.025723263569677024, 0.15631956024468893, 0.16403392509186107, -0.08525684923884529], [0.15617347856076993, 0.15158051227115063, 0.13746884490524405, 0.1682263318076248, -0.00971777448244358, -0.0629199388099568, -0.0776030666771517, -0.14689356914081642, 0.01892966085770135, 0.10859874093754221, -0.10884579131889774, -0.06855206112446115, 0.029611059334303344, -0.015454791283405767, 0.11927773562334369, -0.07522317526050981, -0.1395450170731697, -0.042347863026385435, -0.13770262862588487, 0.14828655862413787, 0.09423184128977885, -0.1262331313117569, -0.010051031254373842, 0.11351309397288875, -0.12979047434762253, -0.13107104126890962, -0.12871340239797022, 0.058398853704139594, 0.056224847514227176, -0.10680405798691964, -0.03146312417059191, 0.13178127606902115, -0.16657746500920861, -0.014805909543693242, -0.07190761910507633, 0.10028215209216078, -0.15198960057124414, 0.15591669406784653, 0.059061812354788155, -0.1097309959310658, 0.16923478539658268, -0.10820260997365166, -0.009116068230663767, -0.13871263175649354, 0.08254775622122659, 0.06753716830210282, 0.05940655372432355, 0.16624942441009527, -0.03239504749277823, -0.15954865096504056, -0.027590126246256234, -0.023151970005648337, 0.065513198003775, -0.15947921372878113, 0.09502436625561096, -0.07512300593001242, 0.07681162606573955, -0.06152410550887796, 0.059775694455592734, -0.16181431160711676, -0.16340296817402486, 0.007879818732973384, 0.011083369869115262, -0.042364383573809165], [-0.15590348135730442, 0.16527893835965726, -0.08435347997461927, 0.11818684270912637, 0.12056890415115376, 0.11845283643299517, -0.07466683248469196, -0.156655922784124, 0.12853612170898546, 0.019831354141677242, 0.11640037644467364, 0.07030958763565534, -0.005459204179724522, -0.08297956336052499, 0.03455973602376733, -0.14001596870874783, -0.12528978314388256, 0.03814170422625179, -0.1268494225926231, -0.08466330723724749, -0.09040772797151891, -0.1187407114518561, -0.14365805698961445, 0.03675213164464941, 0.11533866887029673, 0.01592277981806291, -0.011516829027445642, 0.17023918114959483, 0.0947245826408256, -0.0021349955488948794, 0.17038480702346087, 0.11009370953668698, -0.018252624611936857, -0.0419057455934515, 0.15725059122803112, 0.13531375938537032, -0.11632807561998829, 0.04269817946897683, 0.15858402475879763, -0.1693384204003445, -0.12195666427979922, 0.058867868459700046, -0.004285995188646541, 0.023245387858595895, -0.13890255182324823, -0.06937296642132021, -0.0741846376522245, -0.08605828504233072, 0.015695490890510536, 0.1188623844706249, 0.1316505534713647, -0.1090896743794415, -0.1138360577143515, 0.10175782408937692, 0.0196556466241826, 0.03617912776028148, -0.11049625187377278, -0.16105962230673201, 0.05294846259130754, 0.17604106960872096, 0.025761770138745255, -0.004544591275662315, -0.16325926116803777, 0.047171530020495796], [0.011962129373064082, 0.039624071703614185, -0.06015425409322026, -0.035136182921352295, -0.08343220539469658, -0.09010965203813866, 0.13953871179273164, 0.019297613744346215, -0.07109431014973511, 0.006871377540688871, 0.025642652187079805, -0.11282325899153973, 0.008782105734601463, 0.016578877899125127, -0.14385659518601712, -0.16394831632748624, 0.15525386262284213, 0.13830689456838977, -0.17481024775779316, 0.019144536731776404, 0.06509143474323457, -0.09477293487802027, -0.004053164880706438, -0.0005229047237180762, -0.050389026094402815, 0.07899329350700729, -0.1717575561778336, 0.15577906676693407, -0.0400184962674178, 0.1719133085278746, 0.15497835865452553, -0.15089342483445187, 0.0581119304397569, -0.04337452905882389, 0.01340116635168486, 0.060628026525054675, 0.0960429279846928, -0.1308281710962791, -0.14954426445830155, -0.04442291378472723, -0.09781225748762086, -0.014210325863061233, 0.022069634584548806, 0.11195157750453141, 0.00928230379845988, 0.06691803773198779, 0.03779224272204304, 0.03461344738859882, 0.16983845366598826, 0.017350592335397617, 0.06928151911145239, 0.0017949029671819672, -0.08018350205929041, -0.09523994097526609, 0.05983549545531716, 0.1681602009664451, 0.09899271221289042, -0.07639369945057255, 0.11436847896054737, 0.0828284557996414, 0.15182758588153336, 0.08832798543157928, 0.04018924764817339, 0.11291114563454047], [-0.03411696872210607, 0.06742373392156036, 0.030729479852792584, 0.16453943894080328, -0.016422916722330552, -0.16247622890023206, 0.0568441710374374, 0.0654075674154243, -0.06925592753232966, 0.05584151914858579, -0.110245446466934, 0.04911411088704101, 0.09529469545944133, 0.018819799070627558, 0.11769863558743623, -0.048694054064904735, -0.04846912900405561, 0.09490326021685952, 0.08667055007384103, -0.14383459630921355, -0.09413038399313212, 0.1553161134082877, 0.049429796612029474, -0.128201397744271, 0.0746877871910795, 0.08727019079156499, -0.12174362523042644, 0.04138558153734666, -0.13201371496946604, -0.17170228542321175, 0.10903590213180761, -0.11782286033253392, 0.1310935402200073, -0.08027109245546049, 0.08461834207602632, -0.03236939080840816, -0.12318959699779389, -0.024760980227594067, 0.15767525441682334, 0.01691425940069836, 0.0783192488465117, -0.1320463514788849, 0.0071410973781732955, 0.0016413696600172945, 0.08348377332625635, -0.06486265244817573, -0.08627250207069335, -0.1589781014179451, -0.1597646675073227, 0.04984003048540452, 0.051305478281758764, 0.0434578172586922, 0.10321981864488614, 0.051525609515819526, -0.03899539122355034, 0.03230888958047001, 0.10403892839599578, -0.09717106548915147, 0.024758368866618252, 0.18972738841657316, 0.0029887121456569077, 0.08912684547141808, -0.15627034039380192, -0.1124367165482769], [-0.035116112513736114, 0.1688759618001983, 0.041377855009538764, -0.08588164790386929, 0.1568157061030393, -0.12166506743246715, 0.12114841706784768, -0.10501002600386855, 0.15458622125950106, -0.14061800905386573, 0.15826498752531612, -0.12552340768556142, -0.002295921986622533, 0.13834675474858085, -0.08403412578212327, -0.17130216002582377, -0.04548735729142851, 0.10231148270535254, -0.10320723995359529, -0.0676323870038075, 0.005251573551849763, -0.12060474984034338, 0.018988923400831217, 0.0802852705802102, 0.020726140213670814, 0.17286013923341634, -0.15774845595222997, 0.15644458909541342, -0.15804566198478714, 0.16591898494038876, -0.11193107357213578, -0.13225269638023368, 0.16157468437569059, 0.08724550934764431, 0.0316017852655562, 0.16988843885441526, -0.07078352966455136, -0.11639810707241863, 0.1647657906652256, 0.03674102690865343, 0.02600243400026791, -0.009551933059242013, -0.1547151144313481, -0.040351201874209736, 0.10554111094201767, -0.16997156198403537, 0.1179301742945394, 0.15601759533199572, -0.11056104040603416, 0.14098400629799437, -0.061174779397928265, -0.018217607297636145, 0.06277518779169633, 0.12503679197955006, -0.137421401270778, 0.03952030997284823, 0.06040691511755232, -0.022001228322625854, -0.07289926657024808, -0.047900755201367246, 0.05157527784818694, -0.10706788284069409, 0.006911862896989501, 0.06090112131455159], [-0.16753124994784988, -0.13668469579392256, -0.1214777757671094, -0.07952409984134916, -0.07362681812788971, 0.013341207471115585, 0.16119471451245435, 0.02626360580384154, -0.1495604058327737, 0.09625181458384098, -0.17544551086039126, 0.06629609132567665, 0.010723680285708049, -0.07504791339173655, 0.001005408236500554, -0.028183868110995828, 0.09884409343241746, 0.10699295748559294, 0.05006476846262986, 0.0063153443932604785, -0.07057717810534651, 0.09561766002358628, -0.12914411058541028, -0.1689854980822443, -0.012483322397488152, 0.1684564003782149, 0.06591079097157444, 0.03470679428112232, -0.16621843958343932, -0.11420877451138525, 0.16382559131501942, -0.13825684691192303, -0.04532558010610949, 0.16413904161415704, 0.1687842722548733, 0.003575732247695656, -0.0026382031644628223, 0.0749379665869834, -0.11437646106008441, 0.17338968884161685, -0.12129026202663358, -0.16276310906748576, 0.023908009926175918, 0.029963616437752583, 0.10220590146784447, 0.059106792855965484, 0.09799419642051932, 0.02609339926896134, -0.1740968228457145, -0.050432696771527834, -0.08128444163821799, 0.007302157077468875, -0.011442821531133546, -0.009579410430712365, -0.0736360756478636, 0.03582164761962756, 0.03974101734149294, -0.031041843773119693, 0.14125296009351973, -0.03619889572719177, -0.16367260704528702, 0.0066298649323981804, -0.15618333742584212, 0.07147285851714301], [-0.09048062816452858, -0.08402751618687657, -0.06033774653928171, -0.016209995498980164, -0.09404067965636695, 0.0882731404253131, 0.1554876275036061, -0.1153866760155687, -0.09342584565543208, -0.1405437956191011, -0.06693527902538067, -0.15670536412298244, 0.050644228390869676, -0.1493383109961936, 0.11731703563752041, 0.0523022289482186, 0.12198098029998874, 0.10597023433727946, -0.06948145738931251, 0.06455426591240591, -0.04606522770453323, 0.0031436726420528173, 0.12076205211046649, 0.04391640146591835, -0.14074051472258267, -0.13314196746241952, 0.13733803370231065, -0.11928292904941358, 0.0951422065991291, 0.16477825496695384, 0.09697671631497627, -0.04240171346320804, 0.07972251898736572, 0.02668014386168441, 0.07284641571041928, -0.0918150726974002, -0.05021039104138339, -0.012626999177346039, 0.06829819587085753, 0.06917606300920316, -0.11557629871623967, 0.05657269916193724, -0.12207742403622084, 0.11298715193816225, 0.09595244609544136, -0.07304584073050288, 0.039143752049767826, 0.1586813090501885, -0.09037755552368121, 0.010113538807965039, -0.05469973798017413, 0.031310222785038554, -0.005347739544965313, -0.14954258964459244, -0.009608245272789598, -0.1318377213520944, 0.12960296366404492, 0.16415970057513787, -0.009074552781530937, -0.015153647026867181, -0.08711561110689903, 0.04925097538413836, 0.013082171529052194, 0.03138646471096222], [0.01582539366101812, 0.04013030253682098, -0.10858133078337368, -0.17601498671711333, -0.09438659112164015, 0.08119652936495496, -0.09839333284313415, -0.15053414664882253, -0.03381881076009998, 0.04726901991208739, 0.10686980003025409, -0.16499168340977635, -0.04008013662574838, -0.061118942385167754, -0.16708022596702782, 0.17551465910503547, 0.12252597933348736, 0.05358269826798379, -0.061457100032078535, -0.0643650722720849, 0.0461627998631131, 0.151902248703263, -0.038647608857265266, 0.17168613400047064, 0.15399140922872098, -0.1662519292344381, -0.05156945105925803, -0.0625027055704956, -0.008631976000856223, -0.16381313916229506, -0.12691010322273402, 0.16924994443792327, -0.14935925609771689, -0.015365022988001182, -0.025797494604930953, 0.022550250629701056, -0.1662912020533883, 0.03547975746097973, 0.050160668462386794, 0.1283708061912424, -0.0728755296709277, 0.11694261846509314, -0.16643361499625872, -0.16463656643823538, 0.16600688457899482, 0.040438320918257276, -0.022710759867804235, -0.16320058447759178, 0.01869491251925191, 0.1195482835697403, 0.15417822689933125, 0.034196930428881986, -0.090428795851732, 0.11450164445140856, 0.02230367565593821, -0.1616315343851797, 0.17160854283935623, -0.14523411697384933, -0.09698010165448094, 0.09034689409770345, 0.05284710866411185, -0.10634984764425343, 0.08117106116399578, -0.10645436217482296], [0.06489423747883363, -0.01163179080017826, 0.15465069141527996, 0.17502615567511012, -0.15483515093181655, 0.17141091701757896, -0.0953764614883495, 0.1402653046925568, 0.17376054917794811, -0.12143212031007218, 0.11544381348515168, -0.15043141299026702, 0.010861785134125751, -0.04379857247590438, -0.10212999049641756, 0.17075106614249166, 0.13472022947968568, 0.03340464231964643, -0.045219977217120566, -0.1380273362518503, 0.010088419218825195, 0.04009750307674942, 0.13672277763834503, 0.0955056340996133, 0.14844868127457242, 0.048004151339980955, 0.032098358919199765, 0.11318614248479217, 0.16965449050146572, -0.12710752693655247, 0.11245079463228139, 0.160332614454157, -0.08961802738937759, 0.12260502246897229, -0.11325840168837958, -0.15862689579062333, 0.16688336302318904, 0.03131839806171727, 0.1212134921407351, 0.005085749167021675, -0.04898683185641689, 0.07261710797355098, 0.082118793325791, 0.07752903286487275, 0.03916281634382912, 0.09058314624852434, -0.15432753828723697, 0.03318967356400196, -0.08229881537554809, -0.07242805461092047, 0.164156473757731, -0.026020658784138534, -0.07381048762445722, -0.04501391766582599, 0.07156303623849519, -0.12259739115749876, 0.017757698406345168, -0.16450537469374338, -0.02925786158353816, -0.14618586105629355, -0.04498549646574357, 0.008341144352581098, 0.061709901928474836, -0.04541268317695038], [-0.09845389993503689, 0.09664849658295345, 0.06896069546118938, -0.012259144318894423, -0.07353341462406773, 0.029590842641262244, 0.025879543760342925, 0.04449099167347721, 0.1109953102265408, 0.1388635068386881, -0.14384446513917992, 0.1333952383652444, -0.0708262449592554, 0.003803464937214285, -0.1151419530789842, 0.13822875948543306, -0.07937979970107296, 0.163893190835503, -0.17651776489293902, 0.006279966743803614, 0.018336433671073543, -0.11616161603986602, 0.007906392888377717, 0.057511560775493714, 0.15952225338903753, -0.03880322810150864, 0.15963742722858557, -0.14894423088925998, -0.10208947154828438, -0.02909468729948718, 0.1727003368721098, -0.061854863246290595, 0.10173198570780034, 0.11656375166876187, -0.08397150719272299, 0.07209879865523297, -0.11709371773887507, 0.014393609382549117, -0.10716926231325871, -0.013903237508862304, -0.031054246450511202, -0.1547674948538838, -0.0765291627478469, -0.10965112256577195, 0.1561945127951508, -0.09363343705874407, 0.004964101696581041, 0.15054529231818767, -0.02370066009574754, 0.18993257606012104, -0.05797278925398223, -0.02021995852507696, 0.062259046545441066, -0.12452028662129355, 0.06025023986062114, 0.03935586614171598, 0.11365543127862966, 0.11479943740293005, 0.0777044747004306, 0.1944640655326563, 0.11870813536612743, 0.15540882512239437, 0.02533637082843282, 0.11078576306466902], [-0.025670111192620526, -0.11720224897546058, 0.09222560211332817, -0.1484570195654819, -0.15726580699211307, -0.007179569508306033, -0.009805020151637256, 0.03815585935421795, -0.025166301048583334, 0.0864097927243748, 0.08569083051055396, -0.11819505103120015, 0.024606501806076264, -0.1131182305732512, -0.05723028539011772, -0.017544605430834387, 0.024628837936715803, -0.16770252632893357, 0.07249414547248778, -0.05640710042712631, -0.05008973481710144, -0.14918653585022879, -0.012166523665491619, 0.16469749771621436, 0.013797858273837893, 0.09830513635323931, -0.08143621397909666, -0.025373059997867375, -0.07033693749109146, -0.14056010610962907, 0.00037197575611405687, 0.14400620004528877, -0.16482763912808465, -0.14855006171727594, 0.14896068612658683, 0.08635944995832975, 0.006628426497094414, -0.08116270272741083, -0.033377948130388135, 0.025816424719313003, 0.09319215672688566, 0.17223043209847774, 0.0032666697286547475, 0.09451257443076458, -0.16194529392953846, 0.0898826681111626, -0.11895436659152858, -0.07337581307093421, 0.1548585844930844, -0.09895872185190187, -0.08222493092841746, -0.03665639655238173, -0.0647360026589534, 0.06836442028826029, -0.0917468006538201, 0.07870058669363875, -0.0023143466813894953, -0.006812873756151111, 0.020230859973887433, 0.013982897607419775, 0.11955599201446712, 0.0014146948925084224, 0.07852825935912763, 0.14804992431406963], [-0.10445676737714502, -0.11567497008622489, -0.13371715830738687, -0.04575042151962988, -0.11374180090890097, 0.02902766793544606, -0.138400220401431, 0.17552565033439346, 0.025541215416851296, -0.049747934338350126, -0.13027453182830112, -0.15389618008583322, -0.14993286110550358, -0.1578439995538072, 0.0502345340713416, -0.12640475392888234, 0.04089585763760903, 0.003703194607050958, -0.024789572901328494, 0.133130493187812, -0.0857224835302252, 0.13987530136161094, -0.057015223304864984, -0.11744784699060709, 0.04636578843450372, 0.09455222198504135, -0.1756337451055532, 0.08830126045372103, 0.07694321041868048, -0.012874146031727207, 0.06649554317308407, -0.10147179857334532, 0.018632882355828922, 0.11870947545511704, 0.014484575402557187, 0.03148483051336244, -0.11601923434451614, 0.11538705592589435, -0.10836027838710678, -0.06694773668782028, -0.08285271320014985, 0.015260353071135435, -0.1510323859882365, 0.025944859064438663, -0.16103621238600194, -0.10484901525773967, 0.1573417812687017, -0.020775537784457475, 0.11519993046947216, -0.007368641956236506, -0.12004771662713282, -0.101325345618093, 0.11115602758342716, 0.007292264879684179, -0.158591759189875, -0.07197191530252457, 0.14448791333551447, -0.10952786192424187, -0.13668622603230798, -0.15105778976529127, 0.017005181118040696, 0.1627157361640933, 0.00960118000858734, 0.045574135914091825], [0.01152539909771913, 0.15508213220449077, 0.16013201570075822, 0.14744647908678585, 0.0706071964300409, 0.10003726927960496, 0.020831426763982752, -0.15715018853945087, -0.03855046986194524, -0.02781466520884293, -0.09509095830046366, 0.14742800410231946, 0.010940788281577934, 0.013224603886039965, 0.15348858808481755, -0.06549602635419881, -0.004610297087947385, 0.10196972637831256, 0.07700751463309727, -0.09064783412616281, -0.03794192140368602, -0.06744308010586134, 0.007371686550942419, 0.021860708894101466, -0.012350505546516427, -0.16359703978832502, -0.016644089647450316, 0.13956800431582653, -0.14210630130752105, 0.14004349049647588, 0.01238411738285497, -0.0019612276898222925, 0.017736981662808238, 0.06717895595048853, 0.1637206622007392, -0.023860357418693967, -0.0934882614303735, -0.14021954523528346, -0.1420535453712956, 0.03614464084916949, 0.15203543181475873, -0.006469855335822006, -0.1350553557050204, -0.16108116152798693, 0.1320172557797691, 0.09213928175867672, -0.1670112725388468, 0.14224560408738404, 0.09228868263766413, -0.036646733404978094, 0.1537447463489349, -0.06855457849736384, -0.007649198279145231, 0.04574775123401209, -0.14130056803640872, -0.13584753041787512, 0.144292355507064, 0.16264404025035176, 0.05774935814657284, -0.1145339670423749, 0.06148944855204161, -0.010562643582496978, 0.1663163108646086, -0.08062993139424196], [0.11382845413002066, 0.007687800928928552, -0.03638430082658607, 0.1400530876467212, 0.16523411417458178, -0.12065545260819584, -0.09320281699352274, 0.03959557972362916, -0.018681210831915474, -0.08852524321496898, -0.03713547686557806, 0.11281334137126173, -0.012463732630696986, 0.08896720912739878, -0.13349477175065644, 0.03643572861505776, -0.12094080814531624, -0.1500791675671715, -0.13279706946826134, 0.1052113158103236, -0.022249333913793932, 0.1524131756356141, 0.13322173161364306, -0.11632786512270249, -0.014217931850233763, -0.025212583907433993, -0.17616038419896082, -0.05368487024846807, 0.01933822278135844, -0.1598356964042589, -0.008866895516345572, 0.025684194413835293, 0.08839305812578234, 0.12083762734284197, 0.11940341861550002, 0.0491383863874688, -0.1025140123116854, 0.01140518261813243, -0.13107563223777516, -0.04001960496843987, -0.16326575398288964, -0.14201113790391418, -0.13213112924321935, -0.0178233931528384, 0.09432936444823913, 0.16307919958464653, 0.1489231225470379, -0.07071899862909696, -0.16944443250094796, 0.046671251379946196, 0.023644503611009424, -0.07229032117781176, -0.06557152020933425, -0.10227338743450949, -0.13379408911008553, 0.12447620844323753, -0.1539617021886157, -0.1689941971280657, -0.10114654192949146, 0.16686499012662392, 0.09166651153465585, 0.10566641134676039, 0.1279939628695644, 0.10580708850609874], [-0.02530911787548031, 0.17747727040746053, 0.14294273440904792, 0.05455521456386687, -0.05753813910384908, 0.10436855960753262, 0.10475589981729606, -0.1451217458374103, 0.004483300791954182, -0.12861910900425164, 0.08192915063253442, -0.11769910127698059, 0.15154668749736055, 0.1703347487572253, -0.044391859476019514, 0.16576159948565528, 0.04579988083238672, 0.07017476666133463, -0.08260690861496765, -0.09840656327877806, -0.14426271072312452, 0.1590995579653734, 0.013801455059264533, 0.0005373433627541557, 0.1287177649902652, 0.12381502728458908, -0.0855101580533739, -0.059702477234201703, -0.12505242918846124, 0.1600993699472563, 0.1666523286182272, -0.04187047269510194, -0.08028492872932695, -0.12329671564978031, -0.03399821662706342, -0.07393539478583633, 0.025201036405652178, -0.09973293100832097, -0.05353684275653781, 0.10020451419685006, 0.1022261289373986, 0.054897012000290374, -0.1676589520981278, -0.016925022579877352, -0.053015456442957166, -0.030755113139391305, 0.14934990672340565, -0.0035519923657864843, 0.06141781985597186, -0.11090662725906944, 0.059380583363744896, 0.01186352095454105, -0.036169460611891496, 0.09330625293653375, 0.1189854299415123, -0.15185828083846944, 0.0007179525224097458, 0.06425061567788573, -0.09362254184357566, -0.050052572064458484, -0.08156466487234457, -0.00011006520367297658, 0.1394154283570674, 0.06796471106318161], [-0.06664973627588545, -0.06241657653346268, -0.05689069018909745, 0.03211204340224724, 0.14028551375971182, 0.15558222389287255, -0.04249279612021256, 0.17887001592185425, 0.1722649502134592, 0.13520744527058684, -0.1271009362651252, -0.09738616810193138, -0.062426341542084055, 0.08342487509501503, -0.10334950272706463, 0.04892553619981574, -0.07130830499032412, -0.13597406906944987, 0.11731400960513884, 0.0008447441687028862, 0.023360246421464802, 0.1719417777449517, -0.17482443969122352, 0.05475640710729471, -0.1641815816875777, -0.041066026711738125, 0.14210349154713497, 0.1605496094072139, -0.14561940758535338, -0.1557759794393194, 0.19878166752811696, 0.10440282510417573, 0.16103864533227302, 0.14007718799100866, 0.17034132615630287, -0.03692121246613079, -0.134299942336751, -0.027723068987664596, 0.15940181708542767, 0.14542208416636207, 0.07927276482415424, -0.16630535734553373, 0.026352576835381274, 0.026210845842039754, -0.03681118053400271, 0.01920100259575233, -0.07208451892086315, 0.11369401482788208, -0.11405036614415362, 0.07434906648461709, 0.14007773696050327, 0.1573624427443817, -0.11386952862391765, -0.09421831049600733, 0.054759393519781895, -0.08293641032494796, -0.08346033020677023, 0.15720736297468993, -0.08936865650025284, 0.040128708130482194, -0.06882256373271065, 0.07760291465046186, -0.11345762033695146, -0.10014255581085499], [-0.06560105279068157, 0.038405457957562505, 0.05071702851115804, -0.11292010272984411, 0.1775257744990528, -0.14533232984876338, -0.11838329930772155, 0.05076370529720691, -0.04570508085775961, -0.0904054741822403, 0.0074117031060789845, -0.005877154386838779, -0.019661975667983216, -0.10984841726877083, -0.008467872277819958, 0.16301279283042994, 0.017141573546218147, 0.17046734020733492, 0.05131520799983558, -0.03647564348132487, -0.034125509384509374, -0.10061497013187806, -0.16332248177314568, 0.044526868282112664, -0.16824403588274484, 0.1090285030425082, 0.17461880811638558, -0.15329462511353448, -0.0888802056054164, -0.10652248851274082, 0.09107005093052874, -0.027177494346917262, 0.14492849569675864, -0.07130795216455563, 0.06434522884492856, -0.04971229767094434, -0.030710428264375297, -0.07941910329347629, 0.1456830489235783, 0.14814962510724666, -0.11203468191993383, 0.1343728515824714, -0.02556953748050194, 0.12691271121545353, 0.10825984397121677, 0.09610867062744696, 0.09593810726224251, 0.09917617229819864, 0.01187570581593389, 0.13145125371828814, 0.028499058641985646, -0.05254736506320541, -0.045801022843094175, -0.04075963704487012, 0.053730668160388, -0.011668315000162853, -0.04844194705006873, -0.12172644277430607, -0.05841572872392457, -0.09016676324340948, -0.0015546508029140038, -0.0842032087175069, -0.10119573951365311, 0.049754782682793396], [-0.02298659928333524, 0.11629074460344281, 0.0067086286064422795, -0.021997766837498163, -0.04137346913110648, 0.0346322807004554, -0.10230853535039915, -0.11747095404728995, 0.05863612332142241, -0.12395498329846309, -0.018877606598888402, -0.06303373090456603, 0.1199681003903278, 0.15309010661319947, -0.11936440243770605, -0.041940641627091345, 0.1337380702990924, -0.1556586090584937, -0.05164981756031953, 0.15532389228640822, 0.15702109657560612, 0.1212511120420455, 0.05554922179334498, 0.13984916340727935, -0.1116164832544944, -0.13743309312177535, -0.1553478160680988, 0.08528963891716294, -0.0006007957047291886, -0.049618422281199594, -0.09417744206854166, 0.00531659156787484, 0.040330045862626916, -0.03964064049438522, -0.07064080316799014, 0.09655227029998142, -0.14301465265163701, 0.06287093102932212, -0.043613113691896715, 0.13897001823398783, -0.03568208822000929, -0.09320038931026392, -0.10807229671377638, 0.002934343396805622, -0.05120002555170806, 0.03083602785945902, 0.11298686023654383, -0.01686102310027729, 0.012985877589346606, -0.11652812199202843, -0.10582321158986292, -0.11382301260829354, -0.1571988211048666, -0.022678164634899856, 0.08514725197954451, 0.009188489912306981, -0.12212609030065201, 0.1001902959431791, -0.02152508519366617, -0.0010573977779526362, 0.09041615198333844, -0.09881041398862576, -0.09712850181450715, 0.05333243942456534], [0.04794426980174932, 0.11784676594634763, -0.13697352322717718, 0.09237403271632513, 0.0976815801440407, 0.020131053375072868, 0.06278893754564256, 0.005195262178778982, -0.02191731873604562, -0.06614228606962425, 0.019743473349584845, -0.04241626675238774, 0.11206681871419932, 0.0870389909612034, 0.09294493414856424, 0.011040418320507757, 0.025966126326909117, 0.0865956082177933, 0.04136287979148043, 0.035334002638445765, 0.11182439334091913, 0.02612382850668354, -0.011877222371779341, 0.0758154896395429, -0.12901850116458471, -0.007402326951306915, 0.08147446604304744, 0.17200143321266628, -0.11825517844684884, -0.0781229805411719, -0.0758186840818622, -0.07638552322157045, 0.07294630262931909, 0.09630608794027214, 0.1658044439258035, -0.15941951761516465, -0.03381909937533379, -0.06673891661135482, -0.12482986854614975, 0.008563976023971553, 0.07130089916591861, -0.1566037287677538, 0.01593121569917183, 0.014184868530568495, -0.14833349144240066, -0.12744152761806257, 0.10734556656529934, -0.0647851394751739, 0.018604580063549054, 0.029730455170964946, -0.1175958038342963, -0.04505881611443188, -0.08378107972207738, -0.0437247512307129, 0.14567070142667585, -0.15203999750761468, 0.17543090987167145, -0.16345157604060678, -0.04877313320135206, 0.052763719770812546, -0.0783956517385892, 0.007965768158342566, -0.11352588141552727, 0.02033028911459283], [0.01056747716691564, -0.02971753782093155, 0.11191747734097915, 0.10480885517202354, -0.11027561949091755, -0.12608008265796597, -0.08437027888636534, -0.0076479505617621435, 0.05820360809395107, -0.15140198726005966, -0.16359923525576608, 0.10688620574157295, -0.11808350251431145, -0.17050653989693848, -0.043169752288708396, 0.13934777762056633, 0.17002790837880702, -0.10618059647535298, -0.14908544598680562, -0.12698992131436682, 0.06461517348252896, 0.11714717925352508, -0.06714702406169663, 0.10028895830023535, 0.11145266722349571, -0.056407637200714726, 0.1303056754723266, 0.12226536898721302, 0.07898155043293385, -0.14125286563678585, -0.00474628430536274, -0.08979952957643753, 0.1760344792619915, -0.08863984111797608, 0.10531039401398137, -0.1606238974731087, -0.10540703833078942, 0.07549264793486463, -0.060295101112777916, -0.0100217050252434, -0.028497555946259606, 0.02675659248301332, -0.12459078889194085, -0.016883978489115437, 0.07141723318551596, -0.13288627640263428, 0.01823861362646831, 0.027991047697417854, 0.12976254729025935, 0.09966552127787776, 0.11648951195727458, -0.05896587295681903, -0.09131372546220136, 0.097267781611836, 0.008512785417724357, 0.13694160835265354, 0.07951486482936448, 0.022311091339559302, 0.1577950685763218, 0.07448649403115136, 0.01108876916323262, 0.06839832050007973, 0.06272049014018849, 0.09318345157959515], [0.04995686055740231, 0.10413319019437395, 0.13694957287446435, -0.11684289218796695, 0.17528925397257686, 0.11315024948184968, -0.041761244474039894, 0.0844747795986383, 0.026830583862148694, -0.003538006732781283, 0.06368391256605584, -0.16180177105378576, -0.09127403819471222, 0.010797276625700819, -0.16382952188989855, -0.011652511266131833, -0.008075547215022513, -0.12146339333034145, -0.03303904523311893, 0.05216006344372669, 0.1481729817633046, -0.16561540558507756, 0.09931583490075224, 0.06551506644406421, -0.03954242130532905, -0.0645999588987322, 0.12914751368917515, 0.0844326045637619, -0.1299086374333129, -0.031461449723804664, -0.16075661600706273, -0.06372833954122278, -0.0491392745701905, 0.1075558868574531, -0.15005913719651714, -0.010893296437558434, -0.02228944880686553, 0.08779669588253178, 0.06550817895323982, 0.09872577184903872, -0.0723937543935686, -0.03914901322167516, -0.013233772207479906, -0.06515177351012282, -0.033808058740120314, 0.0881776017279988, 0.06857040907293102, -0.015279543379679334, 0.12551518524513808, 0.12895081950633155, 0.16126867735435596, 0.13776539614008707, -0.11559578235534697, -0.08680029803576071, -0.15851085015852107, 0.16221456446400814, 0.03210182783107068, 0.06762226054066944, -0.11584118992181518, 0.004223241030983626, 0.035091232403173606, -0.05548946487808549, 0.05343822542323043, 0.1425881897306944], [-0.03814020409335132, 0.17320697110286265, -0.11683454073338377, 0.14193920095930984, -0.008481317722967107, 0.1683651509509325, 0.009074033726463123, 0.16737709872473863, -0.16796276473797794, 0.074269731535643, -0.05241886910144379, -0.09477576326903908, 0.007863049821069574, -0.09241852993959815, -0.17317542664702532, 0.13819277989571077, -0.08980129852697227, 0.01815235492545224, -0.10908746798432872, 0.10500897662067708, 0.1085844897752126, 0.16403356287692486, 0.15695215914752897, 0.12501586000952006, -0.003530967402332653, 0.10975527195993467, -0.13826478660277974, 0.019324826772025575, 0.04349611463024628, -0.15319442408830655, 0.21339464686159532, -0.16786964087143078, 0.19055988068716082, -0.1288786390502903, -0.051903308985784755, 0.025792582934972844, 0.0205475132660064, -0.17686091533535403, 0.18604445522095797, 0.11976481555836782, -0.11969116794634173, 0.06084934134080727, 0.08234477943412406, -0.09778573512256107, -0.013533363836062984, 0.06383730789355788, -0.12031553134400816, 0.005407553797009727, 0.1553121862100947, 0.06924468583401812, -0.1593329896083876, 0.08605126694317132, -0.13309452570939886, -0.13195456394595945, 0.012408144257537565, -0.004189413765047634, -0.10848945773290807, 0.09664266835247895, -0.11425372007604238, 0.0642978187342402, -0.15688068667747468, 0.023369884549989048, 0.09661451862377576, 0.07803284623844861], [0.13453266101640754, 0.12875884554428577, 0.05701756004266768, 0.027310136705910152, 0.09408479733614857, 0.05534179631385516, 0.03793986783383391, -0.1406153620908837, -0.0919199956594169, -0.08904955014671044, -0.08826144438515447, 0.11041643685400707, 0.007355334280762485, 0.03178290811680384, -0.03551402333076383, -0.15263617137944033, -0.10633101944915449, 0.014975833440337183, 0.01223276807636394, 0.1765985075420973, -0.05894837057943612, -0.008906136524150397, -0.03778785839380089, -0.02215529407572664, 0.024197357087894375, 0.1563410997701768, 0.0694513511989427, 0.034600818212445913, 0.1350345716500596, -0.04730213694927561, 0.08323115172088207, 0.0510473669830312, 0.09032144576704373, -0.020618770972961227, -0.01803926266394674, -0.16787543469222116, 0.07047733171336025, 0.1338866693637594, -0.07065392820383562, -0.15281484265781417, -0.12470394489633777, 0.13999516717971122, 0.15672550109752156, -0.009872937985246077, -0.027495352392290746, 0.09317608693113524, 0.05974878047990184, -0.17397390179077582, -0.026973918153608452, -0.13274886859379448, -0.08021557720865265, -0.04104196371811336, -0.11044443369584248, -0.169599255622546, -0.08187261959884497, -0.032319146534180915, 0.034024945275233406, 0.04209725137043635, -0.14270913582813888, 0.07376958713586641, -0.12603001681386675, 0.1480688812438883, -0.17122545102504208, 0.10583395708816273], [0.073041564552027, -0.09439432278397282, 0.08507806018623755, -0.04581426298491065, -0.10283577088617903, -0.01873427895157745, -0.07175774320286563, -0.07366222587088224, -0.020518844470878532, 0.019666764377470336, -0.13282938048338122, 0.04666479452066635, 0.1618581501011992, -0.02878202582759226, -0.15104202090276564, -0.010251876148033365, -0.09698525172661883, -0.1618908025539732, -0.10054212870462016, 0.05433712601460982, -0.08122354117222409, 0.12713331290908456, -0.156209398575585, -0.060483081809036776, 0.15482932298071708, -0.1072007460652531, 0.07491682249302475, -0.01496703854387256, 0.16295301352346495, 0.16621622429604668, 0.11521283927932884, 0.05365241922400174, 0.17999479807902002, -0.012482744799259739, 0.07016970946787131, -0.12838186465045395, 0.042441013457240086, 0.10748292976600983, -0.07642159168266392, 0.16258842773926308, 0.1438751738057913, 0.11231962806696662, 0.05496447417309883, -0.044586011988389684, -0.13632789791365738, 0.11766972021529545, -0.11932731447277373, -0.08467590031460193, -0.14576543768455497, 0.18122470656639772, 0.08587324550147148, -0.08158942191398935, 0.1390709382520565, 0.16059638475015117, -0.07356644553192884, 0.1707870507295246, 0.05256715122872818, 0.06763873839647022, 0.10337591532862105, -0.11704600068473787, -0.14638889709163544, -0.12666462957376998, 0.01827475122215247, 0.09679891959271411], [-0.10538726492023946, -0.0575394827211369, 0.050230793776133896, -0.044816167795244784, -0.03634523339972645, -0.048405653806789205, -0.10723040774126269, 0.1402378108378168, 0.16472805622079048, 0.04940376702920058, 0.01692843242395109, 0.11883541210381146, -0.15947896891818633, 0.06403087273434604, 0.1460512323824816, 0.1047445172160708, -0.12975868869900664, 0.07139319129230344, 0.08794736781906376, 0.011823176592709175, -0.04303849164015873, 0.1112421348026035, -0.0012229845987818237, -0.11014400830214631, -0.0443145264965005, -0.09737757378903318, -0.11503846191318401, -0.12105693573910825, -0.11832900173442688, 0.1197214905577904, 0.14249592255560162, 0.173163919745438, 0.06843241418921996, 0.0066123281308611255, -0.12713673552919247, -0.06451611042557996, 0.04479650778106908, 0.01948524085851921, -0.11396577725843791, -0.09121240597273213, -0.033852020251077156, 0.07323044045973169, 0.1612889467255193, -0.09678813294223601, 0.09199104023748583, -0.10578570374753977, -0.13800670537999063, -0.07034663274217058, 0.08302618240200177, -0.060168090758982815, 0.10647332735866143, 0.0756334447253228, 0.17353347616756323, 0.16866525799911206, 0.1539542739374511, 0.03919879086868118, -0.018606608446309826, -0.1468137074609371, 0.05948119876574153, 0.1628481973632997, 0.08948838369476061, -0.10318830123321499, 0.11510547821823483, 0.10070488136905291], [-0.017464883193224343, 0.18287604119627643, -0.07619746123958972, -0.043266535993762775, 0.0400904861873339, -0.1714120061657002, -0.12849145803145706, 0.14460965916820076, 0.16025689237332114, -0.025231092012492427, -0.08190180575263355, 0.0799849052721022, -0.0672983344593122, 0.10768724440511243, -0.1059376828377531, 0.14720695570792966, 0.0885698920825327, 0.07455273568610166, -0.018580706967550948, 0.1182089604359978, 0.02193384451613988, 0.093557726870399, -0.1540788962685951, 0.06774710046588117, 0.14738904712452813, -0.01924383881502669, -0.10328854116454135, 0.04149184857526495, 0.031160504992022088, -0.1700486787953239, 0.11011399154728142, -0.14859830482221112, -0.04956700200765564, -0.07813679022574228, 0.04025749949198629, -0.004812093513597611, -0.15680610174344192, -0.11497929275444214, 0.15320588644712388, 0.021142742142292018, 0.006118938982006283, -0.12502088638491268, 0.07497743419006614, 0.043566759698747404, -0.0827536897005767, 0.07463035843115409, 0.050756058418598926, 0.13883335679640238, 0.13289142911049176, -0.12028941860890736, 0.09316698512190645, -0.09955616822030908, -0.098892607843756, -0.09848887108066753, 0.036682599730732846, 0.013548285464933427, -0.07972171437485714, -0.09089712030473523, 0.16324581565146015, -0.12189317733481693, 0.016540139946681465, -0.012269647473075069, -0.02096610123760126, 0.1330326894666785], [0.006085074183278416, 0.09469249633127115, -0.03456172793578268, 0.1412362359315589, -0.05332899440893997, -0.13765965208882597, 0.026237038613162893, 0.13222617133450365, 0.09066212903420909, -0.01877557082308802, 0.10677691632641674, -0.1161573476968819, 0.005855740053749301, -0.03436386427219523, -0.06488663264138993, -0.16874981742974426, 0.07130087708039515, 0.11262687610890605, 0.10838294322614919, 0.06940516287402637, 0.03153108343225285, -0.02727870332292696, 0.08844656060412395, -0.10651920736426315, 0.012464310445369721, 0.10924511425869438, -0.15850978911174354, -0.08527181613159517, -0.06887556361377756, -0.009818443798482126, -0.09720435799510965, 0.10636137974606705, -0.024953648069059073, -0.16891787044757106, -0.12774982467448417, 0.1323047049401677, 0.1460071613432752, -0.12006714896559997, -0.10444464905267851, 0.08170325678650904, 0.058762203436191145, -0.16076255940495612, 0.1278029103328374, 0.028324665983724878, -0.11651774609650525, -0.1734314828291081, 0.16698966612973426, 0.04121560469897248, 0.004145601673161404, -0.028398585609817818, -0.12274552627222778, -0.08352948072512303, 0.17602876226602351, 0.018572730883497923, -0.015826376703615988, 0.04313693292567059, 0.051671823767892526, -0.13452599600279969, -0.16017466368437924, 0.1266337983218667, -0.1744715912754958, -0.07830667324828065, -0.13907334141626942, 0.014693610361148936], [0.15317778686391162, -0.0008915949525242716, 0.10667035004680939, -0.12345599405345259, -0.11441151856166358, -0.1366953405415502, 0.051747539441684726, -0.0025027618615320944, -0.023591071829952435, -0.14021491096831923, -0.15885126076525788, -0.11200433532621942, -0.07033767248401754, -0.07599818058167887, 0.05970487375560615, -0.044802224324223684, -0.0772422276698108, 0.04280409220029868, -0.0766136395023965, 0.08667243585089571, -0.07565832315290606, 0.027595643119517854, 0.03213033349549299, 0.13520635260127065, -0.1278686940730496, 0.14713026756737455, -0.09389870226915988, -0.08075042301862867, 0.07644525316962344, -0.15499904416807778, -0.12498143115845389, -0.028708184759004968, -0.0008028139867975295, 0.010823305111509385, -0.0662815158468188, -0.043405829171492695, 0.1683353650184007, 0.04880428461249173, 0.011590722078338002, -0.05134533215922347, 0.049771595256866086, -0.08726045457664292, -0.07298739817598923, 0.108693127021281, 0.0777343960302673, 0.05819016043643613, -0.038561715026772636, 0.12067300571359105, 0.1541233815617323, -0.11872667175727926, 0.006684708140841667, -0.15302477580364296, 0.14970343652990872, -0.0642810085929188, -0.12278588474153217, -0.11600214662899586, -0.03298704319292531, -0.09526366151662799, -0.05079700398066317, 0.16047863546788993, -0.1680228831130722, 0.0870842560203705, -0.058886037178486936, 0.03183719888631664], [0.05519901483030964, 0.056963206163313365, -0.023125734087926845, 0.05957287181589883, -0.08656368856178483, 0.06304741907515359, -0.04526943424841426, -0.16944890948126815, -0.13948054306731228, 0.13052350827853765, -0.17572603854883173, -0.13021512880392874, 0.058555685047475894, -0.16400471995338373, -0.13284852162432528, -0.12218386839548419, -0.05867776436064329, -0.149651744126238, 0.14037877700627746, 0.06991785999919291, 0.04764521031624787, 0.11828291202175908, 0.013903275636271363, -0.01270787894463074, 0.13965029867891307, 0.0821951561439332, -0.14629649853330262, 0.1265275466562476, -0.10182310633704417, -0.08374730600149967, 0.09336763832205688, -0.017175252932563324, -0.05139892872964313, 0.0470281497145886, -0.1325738375503523, -0.07775811911767726, 0.1624809553812449, 0.12680523691883935, -0.04620989073185994, -0.06379620702995445, 0.018635491204997686, -0.04824822050813463, -0.05475328794729005, -0.11347517177553237, -0.1578037698266374, -0.1585930720006622, 0.10867773401401679, -0.012956252091923477, -0.010593802265416098, 0.009317141827592959, 0.03183821747853151, 0.11854999469326287, -0.13192882076334986, -0.0004766626350050096, -0.006774383068933469, 0.07700153813834257, 0.1592173683400968, 0.07170582156315847, -0.03678470357303776, 0.024555779210051178, 0.006911053595424516, 0.17254498101304003, -0.0035019455183614434, 0.06286434337259557], [-0.02504422189102154, 0.05632104033932564, 0.11181968736676992, -0.08400759778080999, 0.14319732983981273, -0.09008907502022448, 0.1280165555466445, -0.05160428284946464, -0.06342129820451771, 0.06604351237481648, -0.12013978836216632, 0.05268562606826768, -0.05564803263226137, 0.09559893648975562, -0.006070150366698612, -0.16245050980386694, -0.07643865597287305, 0.04501206699739099, -0.1478250210002038, 0.0326177716942484, 0.053912464369114454, -0.08573964981274232, -0.040700947352595995, -0.15970035329437068, 0.030325404319649113, -0.0932243332377925, -0.051645013009254254, -0.0922636122458011, 0.0303710535141688, -0.14240106045366666, -0.025199668743670967, 0.04854045002530674, -0.11534602945529263, -0.10072078860102449, -0.022440236813024317, 0.0583679721780862, 0.15607081880051274, 0.10060782545665067, 0.022814362745066347, 0.03667442766240564, -0.16686279615363825, -0.13158584537199602, -0.08455782478254253, 0.14516692521392852, -0.003620794098804808, 0.1238264560819313, -0.14082809196631838, 0.042027947072745986, -0.09780841260147281, 0.0895091386400034, -0.05143322833009595, 0.07375832780528133, 0.11308453965480789, 0.11058734361221603, -0.034152657505960804, -0.009857799109938198, -0.12287664321899643, 0.0605671583203026, 0.09217009361734593, -0.10582506893320733, 0.042584116798636634, -0.07374347563409492, -0.08134433388717323, -0.07383408734979967], [0.0847910721925976, 0.10084468544000434, -0.1368907512327821, -0.021487207264173084, 0.13783369730093153, 0.012308571613317332, 0.01557229062663215, 0.03703080259349661, -0.12600024607734703, 0.11927751933288054, -0.0505200430545198, -0.14178614581649368, -0.11086145024386805, -0.006101501247486041, 0.14933784106138812, -0.11254206175482084, -0.05289618614836827, 0.022284883107874538, 0.12474289911361787, -0.08320141748776373, -0.010519778028869269, 0.14077820026260798, -0.0796964873557071, -0.04921761942827471, 0.11842686053588358, -0.07397563638020552, 0.11482789907924841, -0.03415017227028463, 0.12440452975690194, -0.11295233668017018, -0.04029521699718131, -0.13686799433097982, 0.11670947805916139, 0.16403785601219173, 0.033735021732557796, -0.11189838341652242, 0.14520616318342958, -0.08444583181264745, -0.04744735059544964, 0.06922214840565005, 0.08284864720410112, -0.11269864959842789, -0.037098978046621725, 0.08440830934062363, 0.15603492354125748, 0.02792146173561777, 0.05641533628498937, 0.07113355361100127, 0.009773985124289711, -0.13926953180405183, 0.07699502189510857, 0.0925146094199478, -0.1483551373753667, -0.14290409928984227, -0.10186973140686728, 0.07658991259562128, 0.06452759199004215, -0.12410925463935478, 0.09058512587566721, -0.15302045229309344, 0.01276196233756785, -0.1663951951253388, 0.1592389584378219, -0.0445830590329574], [-0.0827156128151639, 0.05547717037157567, 0.16527614427002602, 0.04857977294693231, 0.10051114043925898, -0.0887543342244811, -0.05876289369655838, -0.10382428617976475, -0.09358184451978956, 0.10604473536724565, -0.049424782066815616, 0.0537599971629269, -0.08007229627347726, -0.0857878100845772, -0.1378687829702067, 0.08506982504876981, -0.16925025634420351, 0.02305489580781389, -0.058102569912271036, -0.14441536769682603, 0.04403528920150469, 0.15026182526150036, -0.020299188576991152, -0.015453611028752173, 0.16791372670467086, -0.09369305275680698, -0.14788638484584796, 0.024024929162266655, 0.11633551063951832, -0.07394446929049013, 0.09722919456803616, -0.047481104301194794, -0.10442915095045353, 0.08455235498196036, 0.0045446827735274135, 0.08239737288530419, 0.12900833373754464, 0.1756444533911779, 0.007949237975640693, -0.0836086517085161, 0.048369611224432056, -0.16211016831352656, -0.0027390906833676463, -0.08686593771899384, -0.05052201138976511, -0.05781201201813202, -0.17650045147718452, -0.03509447163446719, 0.03319022408327994, 0.08218951368424762, 0.11052976443586754, 0.021313119383854277, 0.12386648483497734, -0.01743095931428107, -0.07793017287383526, 0.1185326255403763, 0.13331298768245348, -0.06544855023077398, -0.0888929389817451, 0.016081627421125153, 0.09006992405957623, 0.14433816700175056, -0.03225898731459617, 0.15940814427278274], [-0.11585427453464908, -0.11573113520791967, -0.139117855736267, 0.05854592916469409, 0.09670112591904537, -0.12171560311734905, 0.017710950400061876, -0.05522723322834902, -0.12438206055600694, 0.009726635544817064, 0.09519602228517711, 0.0055499669399191875, 0.13219881426537008, 0.1009879953762585, -0.06528920725898375, -0.014808717221048408, -0.09632661706077666, -0.005414710695532086, 0.15047760392155504, 0.08694322743149242, -0.09506819687578695, 0.13246960680247105, -0.10051177526565855, 0.09601668769241531, -0.1407371838721098, 0.08277362774017505, 0.17258752027501836, 0.14003422911959307, -0.01563122714114537, 0.00945096228287247, 0.00854396332747401, -0.09253523017410975, 0.13070452157606052, -0.041877657953150405, 0.08528985068137757, -0.031889762031252766, -0.09390347920412667, 0.07924527633235348, 0.03815403545426647, -0.08209673046552034, -0.1022760231565723, 0.08352402047322961, 0.1390072074362644, 0.04476736551249161, -0.17475704126828648, 0.05904682299516609, 0.17556950518670786, 0.1502843270154566, 0.028544588869368656, 0.1591548409602003, -0.07975764097048432, -0.11515938071956397, 0.13166407706882302, 0.1535346549004575, -0.02983604571772961, -0.1269089742552764, 0.09927810872273587, -0.03744878829531306, -0.038190647587097414, -0.11574350754104537, 0.16497466360506116, 0.03248056035238725, -0.0361375757011172, -0.07116437319111768], [-0.06949838483334494, -0.02278656151706944, 0.16147285631633315, -0.11181314742942051, -0.1186017795994621, -0.035773579144777246, 0.053282773315514606, 0.11368260265395812, 0.047952470275320014, -0.16392320361773896, -0.03975825581635543, -0.08901901594285205, -0.17611156884305307, -0.13577343819235796, -0.16487101474493715, 0.02185896232022034, 0.15607599934516161, -0.06399013841605057, 0.005971925543377862, -0.02926840492512262, -0.06832041115235511, 0.20612803680796285, -0.165963834352714, 0.09817717660100642, 0.01597264670833973, -0.04598955111340163, -0.03922567957440574, 0.03671856293759897, -0.06322137644603938, -0.0676523833536111, 0.17763346226712207, -0.08477670479306107, 0.0763624365039569, -0.12350639354939943, -0.17742899152406327, 0.010336304154981558, 0.15097089511509235, -0.14648644437033895, -0.06425496496387147, 0.11977516451041091, -0.10265490741945389, -0.1729985046323431, -0.166289102817843, -0.03240328749693036, -0.05488411966439952, 0.1699248841167341, -0.08945511133895001, -0.07256597213257018, -0.15006250069081947, 0.050454445638764917, -0.07567754167840102, 0.15845930337134237, 0.04355818240730333, 0.02905898334110074, -0.030237023981045368, 0.03418034587894522, -0.08861607540327197, 0.04805897280800589, -0.011850131453118078, 0.03599153652485725, 0.10043272319915295, -0.08412913989555733, -0.09700501411334746, -0.004706617746026236], [0.1480925156194797, 0.13027842851601953, -0.0971937685315798, -0.15482450394764588, 0.07526266864779592, 0.114873963788356, 0.17372887954807975, 0.0547568631059622, 0.1680781090042998, 0.13724653800939174, -0.16369876119829296, -0.15261874554387664, 0.13714324676871262, -0.14820339996848314, 0.16074210340639686, 0.14765437517263935, -0.06680928199171532, -0.021114106842616043, 0.11677678465220895, 0.12146509200509091, -0.1665357705543801, 0.0687060411561017, -0.17177263650697416, -0.10023645312587796, 0.0489137182845004, -0.10003845785224161, 0.07698577204870344, -0.1501399680859308, -0.039146095226136185, -0.04130487789132185, 0.036121225074636776, -0.014473582339515928, 0.06540309550279462, 0.03597239350249107, -0.09309660990451472, 0.08728314640631449, 0.01193463899505007, 0.11502907458205996, -0.06660336322585213, 0.16653299104014851, 0.16992945809448154, 0.06352648268298991, -0.14776718325042493, 0.13844880836708653, 0.03668183713770537, -0.1531081633830931, -0.024372268280311155, -0.08263027760787138, 0.16103722440961607, -0.14830091224501393, -0.11548089008288799, -0.14833889641914225, 0.16681762888738397, -0.17144907943745172, 0.011024209875841242, 0.05263687884626386, 0.0897459351712552, 0.12301395693058739, 0.03986443773100196, 0.05697503769027847, -0.17349192841651365, 0.024947297769829374, 0.14218219752117303, -0.15829294810575417], [0.10323265077270337, 0.022104625893280768, 0.1322969764356729, 0.15873756003928596, 0.0013697408657211225, 0.11426782846172531, 0.16607093990190214, 0.0004306706121204312, -0.1503657461819307, 0.059668752763733915, -0.13884880720128875, -0.1397510176479209, -0.08364343973069492, -0.11313418380596268, -0.08231240833668725, -0.17403313528712736, -0.11453594618552303, -0.05304125758667327, 0.09647246563207931, 0.12248085536758971, 0.01772609361645309, 0.008213276696172563, -0.16123755457583466, -0.16528493939199518, 0.01746971621151137, -0.12417069214980675, -0.006351572402017015, -0.022515028683671848, 0.11608906555506515, -0.05651264480737491, -0.17099837476710028, -0.0009551114137600539, 0.13738823944303627, 0.15144952090949904, -0.07402357472245076, -0.1670205703372487, 0.11560008879001261, 0.016889558690420158, -0.11591310847538375, -0.1748407325733954, -0.15833132601268066, -0.15620448400540446, 0.1379168532523365, -0.03030826714933904, 0.1223175197811509, -0.006881568813864702, 0.13396944403230387, -0.06596799298030767, 0.17140182181098224, 0.11794701012486501, 0.062317812611190036, -0.05726353520643021, 0.007846462249183644, -0.147750283411933, -0.029017696905587007, -0.05760851505503105, -0.017574671822158106, -0.02692798970062607, 0.12214343378454451, -0.17994625511531911, -0.05878349705878949, -0.03874347178489061, -0.12109976394422459, 0.1748496408392039], [-0.15097793071772392, -0.06683773507017202, -0.02927263356453401, -0.11202029710825472, -0.04767842701603323, 0.014848200083396056, 0.013891654614158115, -0.11641829020293096, -0.13301478808905678, 0.14251978330799556, -0.038264555921112935, 0.1215012912209075, -0.04809783703950438, -0.07039224134808346, 0.009095355067991707, 0.08289975278572735, -0.10358099476327805, 0.03425895812294852, -0.11999389460420119, -0.09642759791502853, -0.170655463124114, -0.1218579792069092, -0.12002541744262869, -0.07224891204169105, -0.05009443477797206, 0.04219749805951598, 0.10063122322440253, -0.01588558366956714, 0.026095383824763715, -0.06146632437127519, -0.04895945458996748, -0.12608079099321298, 0.11582272646557777, -0.03510834100572155, 0.052589604032818066, -0.0875680472736447, 0.08949214591929025, 0.016469535198025388, 0.118056908815021, -0.06866090758199665, 0.0403987586992718, -0.02474996566501967, -0.09247438863122008, -0.06307527770497955, 0.1476582693456223, 0.057427027609792375, 0.04511579508119413, -0.0670956626391759, 0.13578468953444478, -0.03386375933562158, -0.12646302919076177, 0.17161539041921572, -0.11469915502742017, -0.16921519873587224, 0.06666173631992757, -0.17157911674257526, -0.031621684767597684, -0.08153446225779372, 0.08782313030605834, -0.09371781331769256, -0.024119441674097658, -0.07157687622401775, 0.03263558384841839, -0.033629511800159106], [0.016001994102495642, -0.09333222932704506, -0.09870682816590971, -0.13858336787725123, 0.03362893574824061, -0.07173191321741244, 0.09176810460970944, -0.03386477533795687, -0.04300868442459513, 0.05130865197881984, -0.0900652231961443, 0.12177065312336469, -0.09857286566599606, 0.07817923211263503, 0.1329324299207342, -0.0605440032722641, 0.013125789896969386, -0.08783936604171254, -0.15881245303445837, 0.05697487322565503, 0.1431166565923662, 0.06251518055267125, 0.046010778411756076, 0.030749740956228566, 0.12646165809429147, -0.03923221090150131, -0.0434336421559155, 0.031462332394461806, 0.02961996094437666, -0.1755888959458133, 0.029838006675316275, 0.010148440042014345, -0.06803697092964126, 0.11922118510965038, 0.04400974609395136, 0.06995926048162243, -0.0857592401939797, 0.10658448388998046, -0.07775858129079562, -0.08252205163207262, 0.07164281865614669, -0.05562146720203985, -0.0850870454409073, 0.0066542956788177565, -0.12378887226921799, -0.03933043304641268, -0.09802941661671011, -0.12420778723555592, -0.17083457148611822, 0.14700580415153494, -0.0990368783530947, 0.14730375523049447, -0.15040982767092076, 0.12407084986075076, -0.14842535881032098, -0.05209688888657793, 0.01637496565118024, -0.09153606707886842, -0.1365426784640706, 0.02516456981023915, -0.12037818737155741, -0.10625323069347525, -0.1267482707965087, -0.009134237228855951], [-0.10494930416069735, -0.028431131163581067, -0.14065527834351732, -0.16791776142477746, -0.02462550401912318, -0.13725746650706294, 0.1509860392875485, -0.12667664702129192, 0.03696590781773454, -0.06260588985957596, -0.02763131476614663, 0.1419021861423461, 0.08686360052183234, 0.14333668813303654, 0.14819985822168652, 0.027638446166119927, -0.11260055738428953, 0.07620289699697533, 0.08564672037602936, -0.05824409693422629, 0.13751031371744996, 0.09114531406838235, 0.11226741283040455, 0.07436255177385101, -0.017150872299089726, 0.037383639240468496, -0.02960043504355247, 0.15767697888589297, -0.1399374546989502, -0.06603202190225839, -0.003791289804962119, 0.08334481465574962, 0.059325623148934935, 0.07457088161262561, 0.13339355451232382, 0.11580320389985904, -0.04651168410527741, -0.16997123846172377, 0.14537961807811767, 0.17372616811094074, -0.13466114968792586, 0.15020493615891392, -0.15609487814098208, 0.1458979483073529, 0.10718735128484257, 0.10839356287447169, -0.024303749679157605, 0.15161892757195203, -0.15596513633313516, 0.0247923201390434, 0.03489890974033768, -0.10330292844821293, -0.11773177201789842, -0.14962151428305773, -0.1479210060616255, -0.12055233053944928, -0.07902418673733257, -0.1150309119020757, -0.008021373118887433, -0.06876492837552124, -0.00025418729642021076, 0.031892499805649725, 0.004029566877125357, -0.11507633101454914], [0.1673229918695411, 0.09061125994235156, 0.09024434081142517, 0.13072462428509357, -0.04464079617493655, 0.0469341502772681, -0.09705813639766525, 0.02391364195392543, 0.17213503247832831, -0.10539286894564881, 0.10867079275550241, -0.1465082266658806, 0.1237382551862601, -0.16239949262136472, 0.12978222285377586, -0.030992622018823517, 0.08505401769599158, -0.10300151120739824, 0.06844076376093913, 0.09768056641336892, -0.02435193567133701, -0.04556313163688979, 0.10504066824844502, -0.16245385422949166, -0.02713456726322501, 0.1247024514173862, -0.02503373337560392, 0.09339314101766814, 0.11430959361103267, -0.15363962701729944, 0.07803801727326602, -0.022568581639974578, 0.019313240150809187, 0.07745098546005949, -0.1499298269184788, -0.07570471137095482, 0.16008644293776442, 0.013397990844137326, -0.12164265286233791, 0.06403414225850272, -0.11766759092493174, -0.10026913817857862, 0.035599005984992556, 0.02529224608026881, 0.025967628137394113, -0.07485668598838338, 0.09204647347731833, -0.031684891189846257, 0.018332006545986934, 0.06100873307793137, 0.13871831803654638, -0.1717421741722602, -0.12488707244841876, 0.05347786150380074, 0.12389388660064668, -0.11189411582971173, -0.14532716548975075, -0.058216868359089555, -0.0021476654236159656, -0.05272686756400048, -0.06383060104460912, -0.03273600532045811, 0.028882953950865015, -0.0732525844949369], [-0.15522995167957002, -0.10896305773350946, 0.012564120557116979, -0.005729190684811021, 0.16822376256817845, -0.02001685974956774, -0.009980589737660557, -0.028478229404138636, -0.06989423655778546, 0.09019643855006942, -0.17479491413120185, -0.07399524526806926, 0.08271165281445746, -0.14411698275996862, 0.08501414709720026, -0.12410321701982621, 0.1130555349613616, -0.011028359947025284, 0.011333841872331912, -0.16091350337855126, -0.006689963252579557, 0.16374943821903745, -0.17275673718946816, 0.15347888287768066, 0.07786630197078023, -0.09476304713774453, 0.14295649956429587, 0.07119574011211637, 0.101771943348269, 0.027705454998306935, -0.10249093636527924, -0.11665667306632972, -0.11839989880684879, -0.1207726063129047, 0.010598361322667213, -0.07114452109246867, -0.1065484372878935, 0.16077857954665284, -0.09274767799506951, 0.16410583474227797, -0.127721863935836, -0.1638057789394192, -0.04499261877165361, -0.042337980765299654, 0.16895753389227058, -0.03129421433666185, 0.06501756437760807, -0.010668904934656229, -0.003022195888262522, -0.06017748138436726, -0.12241706228702852, 0.064011681539852, 0.09108164124267995, -0.11352122754456127, 0.07636821195879524, -0.039612807809107885, -0.03586122539835384, 0.017356742243437445, -0.09012434692719228, 0.0922153877688942, 0.03289206190759253, 0.15670430558007495, 0.010992417940591498, -0.024291894695554445], [-0.13492155751978196, -0.15227083791814516, 0.17077260067229985, 0.0970323035769923, -0.08478052492082129, 0.10635142088445768, -0.001987459182792445, -0.0375228057311387, 0.16881838208856717, 0.04451442443793477, -0.06016552479789708, 0.08481272227202555, 0.03850564887813007, -0.003229530194515051, 0.1317920375742941, 0.1541498957586472, -0.11178433387907713, -0.09336376177665834, -0.029691989542452446, 0.06213509809896872, 0.06321414912094075, -0.11570410216560553, -0.14347066952773296, 0.1654652923971708, 0.0760234496213317, -0.1440511399738529, -0.1276596162123733, -0.02035138808031789, -0.10595582813973536, -0.06338258353235447, -0.14019420386277204, 0.15321659184768313, 0.16504273624636315, 0.09817527428484538, 0.09183134684444452, 0.08311737496831142, -0.12812681334590242, -0.12653754060209133, 0.06915014370672032, -0.0837851722234143, 0.07270824939454379, -0.14637052679856472, 0.06218727663486284, -0.12921910751384402, 0.11291353419371206, -0.127469420638262, 0.05010708659402341, -0.022420188715312428, -0.15895873445282982, -0.006569957154315215, 0.029201208460191197, -0.08366877488046541, -0.11331135994484397, -0.01719259238312104, -0.0356514076833675, 0.015031663685506458, 0.06406580130846457, -0.056307387582161764, 0.0455375637478341, 0.043041266232491854, 0.0074002650601307784, 0.05745693410374367, -0.13910638264061853, 0.03337342695964027], [-0.13798012162051287, -0.009167864838222767, -0.15970956314153278, -0.17365532223506214, -0.17305011192791334, -0.004994604423019272, -0.11852568503669725, 0.10257621748358417, -0.11066388082801874, 0.0008829565790892946, -0.1510254554443152, -0.03835557178546575, 0.00924088990517824, -0.16822190102523377, -0.13016248793444551, 0.11312751124248119, -0.16976064043531888, 0.011463229578759282, 0.09980893804864835, 0.11091178331702731, 0.13010787443017421, 0.14795497958660594, -0.03716521730462957, -0.03429461440332143, 0.17321606112837698, -0.17201793700174894, 0.07321436875970255, 0.15835365284570316, 0.007927996848757002, 0.013277789129024664, -0.022054886211283015, -0.022528046533868917, -0.11614354006548935, -0.12426387312647608, 0.009134762303908917, -0.129757893865234, 0.16802537777581325, -0.010760455695123183, 0.01155321566201678, -0.13269635659221818, 0.10093687274609867, -0.016521417453788156, -0.14379317982317408, 0.12469856550872646, 0.09817228791090135, -0.000662481557329897, 0.10834585284865769, 0.02412639574401465, -0.14008083641401353, 0.0025322066773242613, 0.04162796299106111, 0.01334625606009171, 0.07669826314895281, -0.14479855377464218, 0.08940791346489887, 0.10176148713092034, -0.114242470038766, 0.12780650177389738, -0.09026335298691596, 0.11426385175009515, -0.11660011312863847, -0.1542486415515158, -0.16175277670669158, 0.17280547521630577], [0.11091374450406292, 0.11914615888937825, 0.03787426162851306, -0.1409662701244801, 0.03294213742402809, -0.07223878192496833, -0.0572201029413544, -0.1021323363874316, -0.11913446144804048, 0.023820561962127867, 0.021216873764533555, -0.04646622208338394, -0.11827597911447726, -0.12777847308015622, -0.08103258385903198, 0.1593209301453965, 0.040175297076765495, -0.03051655009726572, 0.14774405604000776, 0.12851191259139422, -0.17496735403286012, 0.13489502063889589, 0.0007947042885156456, -0.1129330225286601, -0.0676597891652187, -0.06570595507590914, -0.11064051819807662, -0.0960913967388972, 0.1139705252528518, -0.005744292159973938, -0.048642851141162693, 0.1505692732524936, -0.11661634623363831, -0.021625356216589568, -0.06503489972426126, -0.13988155609606145, -0.0910237747918536, -0.15619558530295663, -0.16172607732857253, 0.13759394867174574, -0.035905823629103564, -0.046005721761561265, 0.10838241437094889, -0.09995386620599567, -0.020555744603953024, 0.12445659460560163, -0.14996134294045593, -0.0694921798217944, -0.13323169529663356, 0.16323697949869934, -0.05153922826252327, 0.042039969365087526, -0.02554897623180538, 0.15330646377396204, 0.11847229672960806, 0.015683855864392027, 0.09522186817010393, -0.031938220448060134, 0.0896982896489357, -0.04882590938854894, -0.11382452821830921, 0.14552795869631963, 0.11271817232950768, 0.02964763236502022], [-0.1294201531740404, 0.15091455699418893, 0.1510893060129213, 0.09859432486614421, 0.13678585923447364, 0.037238415501894384, -0.055076827446548286, 0.08854756550523789, -0.022781053338880485, 0.012231049639794144, -0.0631578917469527, -0.05790705386644178, -0.14020563673152694, -0.039080946380857184, -0.001551794159788057, -0.14847226382620915, -0.12784283691266032, 0.10561989403837428, 0.12669840036806848, -0.08663246773141677, -0.05352847553495162, 0.006178234776543388, 0.12287247376723198, -0.06466854563914529, 0.08306825517538183, 0.03930535941966105, -0.1456952328011456, 0.08903712828439331, 0.15660001409610735, -0.024753871296432587, 0.0280310936137484, -0.02709691029101957, -0.14572830337490614, -0.1617213830230831, 0.14283778225986404, 0.13526454781173555, 0.11156090766323028, 0.08705422325184864, 0.03354916874108348, -0.17309878831063816, 0.09500283856109612, 0.030898693295221377, 0.03047154415977254, -0.02781374645886195, -0.04537980761917822, -0.16752108235744598, 0.08305003492086954, -0.13168016206866412, -0.004990239476273077, -0.1673758990858311, 0.05069868285485388, 0.16190122265853343, -0.024949646451850632, -0.12302913322320919, -0.1140755157562397, 0.031031445689323568, -0.17427204214047584, 0.05012047247838322, -0.13067167599871263, -0.13357811004265832, 0.016560802045949202, 0.00652139873675284, -0.1310082932674909, 0.14843236253945924], [0.0996838049177935, -0.17036836326710156, -0.03009502708670284, 0.023346608856425876, -0.15283535242332613, 0.10639884232547149, -0.056993095209628496, -0.061477334518058285, 0.05525320775130619, 0.049103448802547994, 0.03546195206609814, -0.15870517270408577, -0.10283639192162465, -0.062032634753473107, 0.13143547387555315, -0.08310587927779281, 0.06087214427996513, 0.01547610512238393, 0.08518026408449392, -0.13461777236972597, 0.0370947311664012, 0.07791902108484036, 0.11895605063898519, 0.0869950625667433, 0.025571482756414524, 0.1255995032766077, 0.06633977300130858, -0.04898941880698167, 0.04308985456544518, -0.020027326360931498, 0.03323057178333019, 0.1532780703750724, -0.10055702246810022, -0.09098005775056488, 0.1669994829525693, 0.07719494462297237, 0.1460382649603175, -0.16172478157884257, 0.12752353977390116, -0.13901590898360455, -0.1397054264595313, 0.03593058510410018, 0.0902485020726433, -0.0507770897864121, -0.03320450460451462, -0.09113785403889631, 0.06297548377671548, -0.03351672555073013, 0.07084340827068365, 0.14543880954868435, -0.0846286176162789, -0.1020781621807792, 0.15161656809154242, 0.07662343535424496, 0.0089233016888286, -0.09938790271436267, 0.03936212325022038, -0.10642315367956806, 0.03075093572406568, 0.06045037603460563, -0.026169137323025476, -0.11572331901235676, 0.15883203371180302, 0.030449405484135786], [0.13228543956817831, 0.19556919849755725, 0.1501229074444718, 0.05010791828793338, 0.13757710055611952, 0.07080300889003328, -0.06394608483544822, 0.16362691359985773, 0.08894227961423443, -0.10159811462805418, 0.16548219383865373, 0.004181599187390084, -0.07862920477296416, -0.11077717571661384, 0.10030372028882356, -0.05834547176401909, 0.1560188017072849, -0.15169005172637498, -0.06427936629363933, 0.16945048430348922, -0.05234401092017519, 0.10416545008782054, -0.09466552810723435, -0.15396983276173623, 0.10710113986828253, 0.06263033563193558, -0.16291422537214031, -0.053900863981017275, 0.11854001116931796, 0.08046470501360206, -0.1384541824421368, 0.08041975205609943, 0.055845217218474866, 0.05552131005495811, 0.15240655596078778, -0.05921260639618658, 0.05536251721843032, 0.10931937219416586, 0.1895201210306425, 0.15780720540976065, -0.07020674691051235, 0.17569226473905658, 0.06447580918135383, 0.1440750500823664, 0.13578349469531847, -0.02301945731541799, 0.025650109891650744, -0.04586808145229115, 0.15673349685618138, -0.16118080678444074, -0.15298996139780244, -0.05014003575284631, -0.030859811395340886, -0.0031368775202657295, 0.0588691549601008, -0.037058317282669194, -0.16190193386647664, -0.17653732810784198, 0.04778091293930333, 0.132818537740201, 0.10713897477297465, 0.1516028146290172, 0.06683123694775062, 0.13986889424689214], [-0.00103779798283829, 0.17209627692286225, 0.059128676151222664, 0.15026316397103082, -0.10589060593210492, -0.13099866697686804, -0.0028069716753561604, -0.06400569116118385, 0.029873961170702724, -0.019600790101508697, -0.12086913885366021, 0.12228368895382905, -0.10190724749331116, -0.11736925323502255, -0.05921395739987379, -0.04677917322098624, 0.15400816500419534, 0.053725091953233745, -0.14619770530284282, 0.049245751118680695, 0.05508044095081113, -0.16598818782399336, 0.008534518338332464, -0.09861647809722067, 0.06530647674766162, 0.176143849536797, -0.15342625406915084, -0.17543128628617818, 0.007722885971065768, -0.0153145679805712, 0.0017941777802524047, -0.15467266458699366, 0.12395219620805673, 0.058657819332142896, 0.02209811045494631, -0.12108072098258668, 0.03928393418189452, -0.011079675452369736, -0.06643602247722409, -0.05131785670898387, 0.10810616225462803, -0.05070046011276865, -0.008532598680214564, 0.12198189261324313, 0.04194975125091511, 0.09223501500127293, 0.0177255297564124, 0.10294284584131065, 0.004178229566687475, 0.10286731538544344, 0.041439108473563996, -0.0049897753640889, 0.03921111759809512, 0.12047461304430182, 0.15908467793280057, -0.08445381185658805, 0.08906886436319535, -0.07824069840407408, 0.17218621789176675, -0.05657180764462274, -0.15564470182610668, -0.02392197669700545, -0.15639753242741733, 0.10054658832476862], [0.060990256083108374, 0.11647631927511555, -0.06977761968104294, -0.06078487617803566, 0.12885724187976536, -0.052610390794065015, 0.03766996548932319, 0.012557651558668597, 0.14538448224615372, -0.0749785459057111, 0.1267097641614521, 0.09023865961559305, 0.11447685833742824, 0.08968639276235044, 0.013503815982153389, 0.08741484542056274, -0.03510184785928245, -0.11237131603047557, 0.03418772215576937, 0.15355169659972645, 0.07256696492312513, -0.05757711490771483, 0.03786581696971558, 0.06269613364921323, 0.12400223342731154, -0.09054563446869328, 0.015104726765780863, 0.11202826236048052, -0.13332228307670632, -0.14256075328412943, -0.03181253651320769, -0.12564550047585693, -0.07315078932556823, 0.1198609460643846, -0.10021984200913034, 0.06335648054762594, -0.10726005234955896, 0.1674378685718277, 0.005541344602988737, 0.1706243555409957, -0.1652708498324066, -0.1251493301303841, 0.16610810348066654, -0.041918958049392774, -0.09515210518655241, 0.006078799793250683, 0.170116706644565, 0.05173578469766721, 0.03498355493524116, 0.05007234574235731, -0.07775165359848604, -0.14446354507777798, -0.10307282602207277, 0.03231026463754791, -0.0024254369376321672, 0.09982429755467438, 0.023583020897869768, 0.14652128414444163, 0.09066185276166512, -0.004867966258713491, 0.11582235764976004, -0.06852922583983047, -0.023877761376359025, -0.023782056615398322], [0.16139085534309625, -0.010380843753597213, 0.15135930817078616, 0.08775203793247385, 0.05797962110144425, 0.054135203230752965, 0.00778288973338534, 0.1192826691986735, -0.014706830433841134, 0.06101565751088689, -0.16307843029161334, 0.0029567933422639525, 0.019235048047189868, 0.07356187337633993, -0.08990265135658294, 0.008617115308035356, -0.0016087943284865402, 0.12023129847859512, 0.12817453521355773, 0.04185429810174909, 0.05122122312302821, 0.10410342567140887, 0.0018084824050087767, -0.15153980397869496, 0.04311079791215758, -0.0899030009587469, 0.04195393816229251, -0.07581648999385956, 0.081046635504576, -0.0790538795615235, -0.09707482880592977, -0.09469681967240429, -0.09406577555576368, 0.024321192898725086, 0.009405592003774887, -0.003763317524073162, -0.01532601063649705, 0.17493238863318447, -0.12476303470336125, 0.08189964856519996, 0.14927762433613953, 0.09213307612083507, -0.024936750654698553, -0.0579300394804302, -0.15533839646669326, -0.17242717614325517, -0.07379594217105546, 0.025402481959724554, -0.028150276478730196, -0.025925602865355724, 0.02959005177454982, 0.02480347004210301, 0.15653659757125107, -0.07918036185343276, -0.1450321728470001, 0.12191812975472119, 0.04512101229718393, 0.019932521743654785, 0.10959590516542592, 0.06050889051997299, -0.1577391205760949, 0.14673685867801847, -0.08181998772309039, -0.1378291587320298], [0.009863335783230434, 0.04098792097314926, -0.0004647190274995936, 0.03197362534512535, 0.1422289430341744, -0.1562101957725195, 0.08388293534791944, 0.07840160199784817, 0.14736824879365398, 0.0932835884493642, 0.08134788173216713, 0.13313581705649527, -0.14193442983328217, -0.062018983817620166, -0.06747326498443673, 0.04229880915009001, 0.08061931938929756, 0.012037869914955344, -0.023430102139419758, 0.17761477254159427, 0.1500184957659084, -0.02838672475806456, -0.0077655130877858705, -0.17463266694931318, 0.12925846310113853, 0.1141929135005697, 0.030843849471768527, 0.06843219042955268, 0.10300230124441973, 0.15837021913689184, -0.14170992485093706, 0.05527957021090797, -0.022426789817068846, 0.074229893122531, -0.04166529717250006, 0.12671295450643008, -0.004512342055361531, 0.01678032280276963, 0.18160078838554228, -0.1415539391848935, 0.17576765868975097, 0.13586264353405567, -0.11350553655281632, -0.06911200464222134, -0.04972194778865487, 0.10160512227078819, 0.1322096338024236, 0.01749417180904315, -0.034804774826945904, 0.057492904364165105, 0.14318418470825617, 0.023923148518386114, -0.15646312316005367, -0.14135970534819675, -0.01123717536524394, 0.10078490593822799, -0.03039405970360515, 0.13328471588866134, -0.0876479589801509, 0.1578291626271162, 0.07704388447604302, -0.045554757069440906, -0.11315450982376211, 0.17918162701297966], [0.13505215143199678, 0.09908969237052398, -0.015113350541457635, -0.039221816656563005, -0.12293566984020224, -0.11262799088644085, 0.01965302931523392, -0.10466160592217377, 0.09707855078645587, 0.171663689305444, 0.12499192412190258, -0.14964043528928678, -0.09872499355720452, -0.005882357221735718, 0.045116331681581565, 0.09866594065478071, 0.14420327997423818, 0.05540731864098979, 0.12450566291203921, 0.13054665098815685, -0.05840785908732665, -0.10668447650163052, 0.041963396842769556, 0.10890215614153678, -0.07179123209702475, -0.012011898345311139, -0.08156677672084951, 0.029238320814519884, -0.09458292521566522, 0.16333349409593742, -0.12841256575998136, -0.10800411216423446, 0.0524785668678145, -0.12969788383137945, -0.03339933107764602, -0.037568431823660584, -0.16055397717194433, -0.15943072956439167, -0.032214967812731046, -0.1449555971275027, 0.05388235344036425, -0.07075896940895421, -0.1789123462293288, -0.14028717101351007, -0.061907701848539554, 0.14414012241433358, -0.08964886285624576, 0.06230449350720512, -0.13309081796275984, -0.11484038778615889, -0.12878748132741605, 0.0748009476939098, -0.07044183741432627, 0.047845432775988156, 0.08319707107545814, -0.1201517390984505, -0.13445797085395267, -0.05703352781482052, -0.12430044076334798, 0.1535844943243914, -0.06944405691001643, -0.11443363758208033, -0.09594261466941578, 0.08661982002761304], [-0.09732010542399931, 0.030981141448197046, 0.007884437864557814, 0.04980152702032695, -0.07807518467966541, 0.012150994136579578, 0.08722372806283014, 0.02986673164967839, -0.08458604430490434, 0.1508279226813125, -0.0765926499785755, 0.006910880875472314, -0.08619409497949862, 0.13760541187269246, 0.1588092371650554, 0.03336606801518713, 0.0030705785789664894, -0.13318623574920582, 0.007440861742263981, -0.15241687670451, 0.13394657176214808, -0.00488877350133589, 0.17599443828354772, 0.06199679084005413, -0.11096912831625284, 0.13521976061846946, -0.07659495593815682, 0.05415462594681199, -0.07786510019966254, 0.1692168898467893, -0.006567983090451782, 0.046904909117390016, 0.013096707455290997, -0.12589097853903009, -0.06967821155986581, 0.03454282170370302, -0.12984728695590414, -0.0911506212430956, 0.17833308082356553, 0.04812966305602384, -0.06148212249911027, -0.16449913668452595, -0.08077531296293834, 0.08831275089796095, 0.17547459709391122, -0.02095016074100356, -0.14861337276499723, -0.15180653751839243, 0.1548586410949849, 0.09377693199006258, 0.07392090667013179, -0.047275659242921014, -0.0290749201006808, 0.06966828982068726, -0.1241235121019144, -0.10442527084829034, 0.1290271216312356, -0.04244854514812593, 0.09872810025132278, 0.025004713040822645, -0.12601758879145164, -0.08874776934514864, -0.11424524106861533, 0.03641951588371795], [-0.07751404413071082, -0.1719705207826046, -0.11417433788983167, -0.12870812350409244, 0.08038935491823808, 0.13885034006249733, -0.1190667048533037, -0.006252517514246768, 0.0017673605346545738, 0.01028945026605831, -0.09893847190310318, -0.13381664446753674, -0.1535049011748278, 0.05201180814825723, 0.09316831632469653, -0.11529801152729698, -0.02866445942137282, -0.12609888242887313, 0.018582267114288648, -0.051104395447778846, -0.12687837066442625, -0.10382537864126513, -0.07690423977186019, -0.1677384092775793, 0.10493196030562588, -0.09971670191275676, -0.04282817542693286, 0.06291408581419478, -0.07504860989606048, 0.16109254212129706, 0.005324745572482023, -0.05154670881269288, -0.1333165695331245, 0.104220716866605, -0.003895468318678431, 0.027053996955761897, 0.026963000287731596, 0.04475803399455632, 0.1484345793932081, -0.06453500666079998, -0.1568765421971017, -0.08257617984651401, -0.05877596055856033, 0.0903920234792476, 0.10986573929448126, 0.08098967778106356, -0.16521503248217484, -0.07139761741272359, -0.020648963985891472, 0.12781404223950585, -0.07931088672600878, 0.03632064020218888, -0.12196295795497925, 0.018042723402145272, -0.01704692062953972, 0.08331046448855244, -0.16271283846773596, 0.10293984870931991, 0.005325002275857636, -0.15246861680881435, -0.06133112839633978, -0.07183994325047165, -0.012808845084668952, 0.012080030871488123], [-0.07974300685659513, -0.05671577210101313, -0.05274130910845278, 0.04059844883910403, 0.05948718524110449, -0.00997947596701812, -0.02730317356773774, -0.030555502918816733, -0.11845349985111195, -0.12613404219954882, 0.16312471389109112, -0.1502439112362603, 0.02593617542932837, -0.031709475363643325, -0.02869194461303478, 0.11802136735822459, 0.13071298948666452, -0.018735412777549785, -0.11975438873482862, -0.11921630449556136, -0.04002436254360161, -0.09576437153796542, -0.05173034615182971, 0.04873388492661665, 0.06958104521901338, -0.018655668749663377, 0.028949913302952577, 0.034380849373685136, 0.13892122436984333, 0.1176757900527284, 0.10256281983820288, 0.04761684327940082, -0.09298415874768508, 0.1670109849469519, 0.04224765410104319, -0.010557074918556831, 0.08356938834809555, 0.16941816065405882, -0.019008714748095342, 0.1371294124691448, 0.13442609397377314, -0.16062894188100113, -0.048839775737829154, -0.04465106439044428, 0.13589472168280212, -0.1491468388413753, -0.07946153009263397, 0.15309341611384938, -0.13438939058928467, -0.13026465821849284, 0.03792228416862253, -0.09133685110661426, 0.16266870009462617, 0.060699977420843765, 0.11113774591219235, -0.008141746437780685, 0.07481050092428233, -0.12965553692197074, -0.14387086853594275, 0.0062159860645818665, -0.16482092153613434, 0.10259872177589927, 0.04116565506594502, 0.16094608015113582], [-0.05302601345636471, 0.11734177494573143, 0.10343192452387362, -0.03374165684710235, 0.17740546340317073, 0.12364974705818095, 0.03331275334661482, -0.016187636810051143, 0.15633405007393544, -0.006202531239593015, 0.10376075515829707, -0.12360560187102163, -0.09385760999285526, 0.005221384380834165, 0.054433706159883806, -0.04870272181853877, 0.07293829217900473, 0.04196824064095922, -0.11577746632592342, 0.07643939637496551, -0.09890720796188263, 0.0028531468678764317, 0.14075226736652233, 