{"state_size": 5, "hidden_layers": [128, 64, 32], "action_size": 100, "weights": [[[3.0304843852971657, 2.617684182708687, -0.03484880006993755, -0.010547509995799217, -0.0374978964202181, -0.20865413564104265, -0.09319575059554037, 2.8829869345111896, 0.06202352451353362, 2.974096795742048, 2.6204618769152095, -0.029511539294650085, -0.20155392734100544, 2.9581833386936873, 2.625496963488339, 2.576945498939016, 2.5885128988660226, -0.05520508275394906, 2.991414442820806, 2.852675619708708, -0.19135210669009364, -0.13749798867263338, 2.9418788684477737, 2.905610056417038, 2.882954345139763, 2.9403842445767383, 2.990251783053674, 3.0140203861831356, 2.7716093622179816, 0.05666150204423079, 2.6782436806871575, 0.14096551266795346, -0.09759400178168123, 2.9944990981807202, -0.11555143003249574, -0.22845915334373892, -0.12092729087828394, -0.13969788437462893, -0.04208125369149038, 0.1882415677563324, -0.0844310496361278, 2.6922667030530665, 2.606379447291818, -0.1844635084412572, -0.20715843793863095, 2.8665439975584945, 3.4746919949288344, 3.0817290907513533, 3.347771280442326, -0.09959505167843904, 3.1839347315803335, 2.870607917730678, 1.7779095239465266, 0.015191306557588075, 2.691129100791932, 2.9246068597819352, -0.1130495849561649, 2.7352664090837493, -0.06736778638615448, 0.023314787531218517, 2.8133089122564128, 2.745718837668564, 3.3423746629196374, -0.09710686926716458, 0.05079227415678333, 2.936694560073254, 0.009776746669554914, 0.03722082341124858, -0.14239569566081367, 2.8736951318550723, 3.312523289842237, 2.756861242539988, 3.6772777000730206, -0.19768990298526076, -0.07096516182950927, 2.91219318972559, 3.2274510941260472, 2.8183876655845275, 2.7871445555357117, 3.639981474602523, 2.7721396377797953, 2.875596513472252, -0.14760029055328455, 2.958895631299497, -0.22632004105387157, -0.08045488456335081, 2.971450723218685, 3.921489919608859, -0.08011082147992787, 2.699130905872509, 2.7418184445780422, -0.12702434350873054, 2.9504823268251394, 2.6966615461012235, 0.1128850551189916, 2.012245653216651, 2.63882471491222, 2.828998538617778, 3.5971335623209186, 2.9235968298993784, 2.6632355822842415, 2.8376205927939195, 0.005597398548892574, 3.472592862198804, 2.9569959571729134, 0.06876415190092122, -0.01800639200472827, 0.02263465107264498, 0.12945116051091854, 2.8391606162154597, 2.880510536337827, 2.8771883300989507, 2.8854347972408942, 2.858538314993889, 2.5627698714641896, -0.09351383619039225, 2.725187440748629, 2.7989400587054716, 3.8509356764873393, 2.793331467182869, 2.5858499008104614, 2.670253857914574, 2.754184970690383, 3.4166726840082897, 3.0124531529606373, 2.659658702807317, 2.6389322574839005, 3.0052985731890995], [0.7373219898231552, 0.8323043462561422, -0.1155944137458827, -0.13154960685709277, 0.06255776568966456, 0.12033322590676199, -0.1305743438244318, 0.7499532973606918, -0.17565425564524673, 0.7860881325779098, 0.6247054493552234, -0.1758300605574028, -0.012628612748051243, 0.6974430918481339, 0.6971520822122804, 0.7350958026506921, 0.4583017574187135, 0.09943273221210919, 0.8849550012856421, 0.7296131519873189, -0.10962505702158427, 0.006304876451325353, 0.4781487754415459, 0.4787816293599485, 0.7233185404117158, 0.5850993871756339, 0.6967137646693765, 0.7450294590014622, 0.6896518188360542, 0.023778568774255715, 0.8425191413960867, 0.09943385118829741, 0.04619264518324912, 0.8324458824105113, 0.16905082290488066, 0.12127588631236068, 0.05509534051217982, -0.10076395534996922, -0.17913153622440206, 0.1664359272057118, -0.0005354429182924114, 0.5665355067846213, 0.8072252951460556, 0.12109319084614484, 0.1016687206630442, 0.6287704896506053, 0.6615250513505727, 0.8555357015921315, 0.6895574969511379, 0.1758570452483332, 0.7557170014396682, 0.7688437734235675, 0.587260156061293, -0.011751377520834827, 0.8446039413268457, 0.6577063605464283, 0.19792024522760596, 0.807623121714702, -0.14242899452918995, 0.010568461081586822, 0.7085285825799289, 0.7603402579949771, 0.9628125192169018, -0.06909388609475939, 0.0340121845794538, 0.5873202684695774, 0.07925262366013, -0.11867425725081245, -0.09230515478295297, 0.8417377584341558, 0.8592811003051392, 0.752221647592798, 0.7113040962915768, 0.13234650027446274, -0.18022080400057175, 0.606361795089681, 0.8469812209372728, 0.7672216611076353, 0.7734941098601834, 0.6427814533256949, 0.5751062145125466, 0.7233786282779534, -0.05161854217944911, 0.625719110407201, 0.1407297208609067, 0.04251560258143395, 0.8002444044688498, 0.9151463060799211, 0.00530043623105381, 0.8367838110924731, 0.7828850101167851, 0.19920334539477533, 0.5496974340341839, 0.5877100879614866, 0.09311255330603314, 0.3688445313882155, 0.5280021016393975, 0.5467980507213849, 0.6972645268089436, 0.8397176295687533, 0.856028462147172, 0.48993149929165314, -0.14652974552675282, 0.7379236544730633, 0.6457174446635848, -0.21277218917505084, -0.028356838850377115, -0.08866213562409775, 0.17095613752058894, 0.5029695943686484, 0.5953052591209088, 0.5438525662939327, 0.4962195505636098, 0.6666589738897878, 0.6981012330043085, -0.13218993969366943, 0.7853922198244517, 0.6468258914523798, 0.7576256194418033, 0.5660566451087673, 0.5087990148516675, 0.5443806398245054, 0.7582453956788769, 0.9761556607418939, 0.8342123186367975, 0.46366557602901237, 0.6351305467730085, 0.5700910363434314], [3.1355985720250614, 3.2226296965613064, 0.11541798660853231, 0.019124571092794484, 0.04196433619359167, 0.16591209626906672, -0.05960414771970868, 3.119992583684376, -0.17925256725182506, 2.810879471867654, 3.1977637155536844, -0.19275559543481788, 0.045941716784317715, 3.16612235031238, 2.9892214325435518, 3.188068336272114, 3.069502553860723, 0.090131883593685, 2.806829507702143, 3.0922776152428493, -0.05922374163677366, -0.12161326599488236, 2.8502394556462445, 3.1999706848842413, 2.890075971658492, 3.2364062012026746, 3.1810572823731094, 3.2264733485024224, 2.892239593530975, -0.20991460186620514, 2.9550855390325816, -0.0019968160291965603, 0.11840899069681127, 3.060264533458942, 0.14687512220692805, 0.11972028310835177, 0.09948336931213905, 0.036577748714572644, -0.17437080183146192, -0.1966874111520059, -0.15828293775526078, 3.1724862996940413, 3.1347803193423154, 0.07132638558832247, 0.08640612432449143, 2.9756112637255097, 3.5120921080410765, 3.131950591018571, 3.4752702741999513, -0.14456083834734287, 3.1998014344998915, 2.889152156725677, 2.2766009791071538, -0.20677259172607007, 3.051920085820399, 3.0487848849715746, -0.014484771609866554, 3.003845166409796, 0.060497566572729394, -0.08815599053648485, 3.106146352926547, 3.1314380757324902, 3.5483843918365476, 0.04673763060997115, -0.0544762472948049, 2.9558882619188678, -0.19758710825496117, -0.18940382187702046, 0.08673998039761975, 3.172315684406485, 3.6879581074712626, 3.2313399073930515, 3.7516555154460467, -0.09706477823371616, 0.15348000306508197, 2.8923489557237887, 3.6215950348609147, 3.157657496733986, 2.9586100284069596, 3.498522707908566, 2.9393408924091875, 2.8172520131846657, -0.1675280751136562, 2.9980367450314738, 0.11571550142559806, -0.10519917179573378, 3.212801970413104, 3.8171283370480524, 0.15902578094858638, 3.101683744092477, 3.0288859180168557, -0.21193683601979355, 3.3049437938526305, 2.9499582860227282, -0.038914669229471274, 2.2479777486398587, 3.0976485149570236, 2.935576637472897, 3.8177114370924032, 2.938216504762022, 3.0694563567792663, 2.884610575404697, 0.003939402029294936, 3.7095697207422167, 2.999968557443393, 0.03673057083354597, -0.13986123141216922, -0.20951312841598396, 0.010257447565934302, 3.091971135583089, 2.985057160806562, 3.130704940092844, 2.8983419790029266, 2.9062089680652967, 3.0075107825289495, -0.16364819631174013, 3.199534290693804, 3.1098801253005717, 3.827752477124882, 3.163413772257758, 3.040281627729423, 3.0644749247312837, 2.799912917394664, 3.6463461135766027, 3.0734037844832893, 2.902449797544133, 3.181255733880064, 3.2208073548221594], [2.6192045015134977, 2.51824527559328, -0.2161115611579849, -0.0687632604406282, -0.12722008151790112, -0.16207607353629414, 0.04211877810777123, 2.154963364836108, 0.07353636730376355, 2.497536669932819, 2.503563399720466, 0.12584252754645867, -0.19158138770601005, 2.24166951233429, 2.5180332429823213, 2.438878901422255, 2.365407833198859, -0.0069076163580322454, 2.4987912136953145, 2.2225542972037386, 0.004396467868061804, 0.1447494061706757, 2.626931698361976, 2.5474965131947824, 2.3490515127347495, 2.6349616382095826, 2.630427970086446, 2.4078407862331153, 2.2663830613446088, -0.15497611118896304, 2.5387345787564004, -0.14417631447164228, -0.0560214959935492, 2.441854578348154, -0.0317285778142132, 0.11557819498835081, -0.1488617122451104, -0.17687129566493398, -0.019533114228358378, -0.18248902593005215, -0.18782434572512374, 2.5902376118223644, 2.3016039058004756, -0.21164348877839118, 0.05189212365885906, 2.38689680708733, 2.6788060372310043, 2.726824354991886, 2.8370668806212427, -0.19548541038236134, 2.5817172320677977, 2.683117663326862, 1.582326349511694, -0.18817776609804696, 2.5166136731067508, 2.4043293302558943, -0.13551933873905506, 2.5290538386168406, -0.12112562481140372, -0.14230904790235405, 2.2988425047017715, 2.4003102103046348, 2.7122018547471174, 0.09541173009623484, -0.14125383384610501, 2.5382494926296153, -0.0782467323944381, -0.19233446382810546, 0.08942981586881948, 2.5134493075498265, 2.9400875549585375, 2.2777047029280766, 2.770994382465566, 0.10386081918723308, -0.19154330278264553, 2.339303416714074, 2.9977601965720533, 2.185093363907151, 2.579164822200227, 2.800366053235806, 2.607236721206908, 2.536423595862513, 0.01353578831037483, 2.461418741576214, 0.0243970411498878, 0.14775501927908408, 2.5009260754590312, 3.027016554079576, -0.20857520472441593, 2.463540029466518, 2.5576987587880256, -0.1638619273086359, 2.664103642766356, 2.42931854708924, -0.13984058190644708, 1.6695591481790253, 2.2202446400000677, 2.37841195825778, 3.1864197313505076, 2.587161096449191, 2.4754350317327742, 2.51681737736749, -0.035872399709662356, 3.142252776816745, 2.3940054120853143, -0.1098682779238758, 0.08639445623020005, -0.1505697050614912, -0.14253521675425304, 2.3092180049455133, 2.5583446602926005, 2.5935481424201563, 2.1833004289723217, 2.489326090807032, 2.5572596027296375, 0.08859056506440935, 2.5143440530683394, 2.4723931303995266, 3.002486148717448, 2.5701059406323314, 2.5325336795557862, 2.212265470285393, 2.1616870785264424, 2.923090449124235, 2.642376728934014, 2.3645068716439943, 2.574494846407585, 2.642204240821913], [2.8548630888661726, 3.057352172556176, -0.06679641253708307, 0.002973055980429778, 0.01184417811996262, -0.06555336159431634, -0.011966403424834626, 3.0180835598076907, -0.11771119596941747, 3.100492553768336, 2.9496080730013596, -0.08454456111735809, -0.15671951219979371, 2.804636364279088, 3.2132164952541045, 2.9965491494455185, 3.033053977705809, -0.13993710041432625, 3.007554476160132, 3.1732971727448676, -0.15061060483808944, -0.044252020631738775, 2.9342301634905303, 3.0045791220751483, 3.2670782354983716, 3.2936090200617336, 3.283859887717966, 3.116315608064415, 3.0012959502380823, -0.12067209242469171, 3.101703840375467, -0.009099328551188229, 0.03556066624906144, 3.027147173790652, -0.20198689259245053, -0.12165593914542897, -0.1266820377784419, -0.16243410000478103, -0.10547526778514656, -0.1265417915206345, -0.17597056400511618, 3.1919135643232193, 3.203736070650731, -0.02394709044312924, -0.15924862658789932, 2.8928484435109034, 3.24851591466031, 2.969024440444587, 3.0781092592003674, -0.12640099640694136, 2.911790090927138, 3.1372871274452234, 2.203738586416446, -0.1788226568472726, 2.849726520198122, 3.1807733377516403, -0.021285499962800436, 3.1224175918924164, -0.06311261451440509, -0.12320609950717944, 3.2878261881262043, 2.8125397825202016, 3.0961012075186845, -0.11564254063700483, 0.07249818483826002, 3.143345111276552, -0.11374342690152307, -0.08481127980925371, -0.0772465960726131, 3.0904339188364274, 3.4056367107175367, 3.102535949028413, 3.261387555836321, -0.19111765311803283, -0.13374442855406982, 3.191260458430506, 3.2547174134246877, 2.9454585533801656, 3.0350165937821325, 3.2149427058484332, 3.2079553287413853, 2.81201953565201, -0.06839143566538158, 3.1262963234420535, -0.01597959883811766, -0.05865182454719441, 3.273452529791318, 3.7148418154332368, -0.10007552714521717, 3.045992427758927, 3.117850422835361, -0.16436023003196926, 3.2452187092148588, 3.175081394765386, -0.16081626860498047, 2.402439722154207, 3.1997650539371145, 2.8346675617421897, 3.377430682398212, 2.919503259833579, 3.164709463848805, 3.1489445969908685, -0.13829115792001198, 3.304344226909872, 3.0131123557241866, -0.08759208081919795, 0.018355652620396797, 0.0003974368693937146, -0.06945802582142846, 3.1503251374602548, 3.172777447950373, 2.950987407945152, 3.109591148849764, 3.183634388536893, 2.8328819647296544, -0.19301990014348974, 3.1018513259191414, 2.688794874507574, 3.611247730360043, 3.0148384766747927, 2.7341179537263263, 3.044963131896358, 2.9721883253597783, 3.1299971632107324, 3.083653866585729, 2.973087179012434, 3.2267486125507996, 2.9974596137469725]], [[34.35904405333393, 0.11093471372841134, -0.013107502873844129, 38.10872058090354, 0.021923098688577714, -0.12637145466331084, 0.09679438698049256, 34.379410446718325, -0.04606205236198116, -0.028618483477539564, -0.019155926716906496, 34.3102282414882, 34.31044634393476, 0.10471105833385566, -0.16076532464516963, 34.387945127807036, 34.30797407141114, 0.011619294531872456, 34.45389823338324, 34.39240084920208, -0.10817544092259855, 34.264151757693966, 34.41632771042784, 34.38262492190827, 0.10138227989399393, -0.061782090391355515, 34.17270152635497, 34.33805505141982, 34.47290564446213, 34.351695819916245, 36.26295801219226, 34.34706617995662, 0.008540791917622192, 34.26089640881048, 34.145193943894746, 34.35737432975953, 0.14298463643221596, 34.22418442913661, 34.31866804168247, -0.06922717270005009, 34.16538830160195, 34.23089426518346, 34.348951283769516, 34.43005438285256, 34.28019457673577, 37.16354780088221, 34.15623904227196, 34.1465444353555, 34.45205123377308, 0.16222794085597456, -0.013770393771706524, -0.09681955845250462, -0.13495208223424654, 34.23628975106766, -0.12770834249213808, 0.07672040511743436, 34.09562886711574, 34.47216606858021, -0.12111050461515939, 34.194040556597514, 34.451463923398876, 34.260467216856085, 35.16922649505352, 0.09170019734791231], [33.5202803176164, -0.023339391507437975, -0.001471187494033882, 36.72044515627829, 0.13839027320844996, 0.1664107510756312, -0.06396560592404864, 33.220382221012656, 0.008478676505263044, -0.14412709902232376, 0.10856265696096648, 33.50820293757742, 33.47279539566202, -0.12392598479276515, 0.0524985511499485, 33.37456973953614, 33.333317167363646, -0.007968697567015102, 33.299893499634024, 33.46708393874097, 0.13776976188891185, 33.29505300109497, 33.2195368856828, 33.21458760574697, 0.045762312549301846, -0.03978490022009302, 33.189593971327895, 33.36835745511786, 33.5664344241559, 33.3281259174815, 35.14098461911705, 33.43928069314366, -0.152976477598192, 33.53500611545813, 33.416591563847675, 33.5206470274741, -0.0738870422365039, 33.267268375610726, 33.433732764789326, 0.11812562850656746, 33.349485871069575, 33.57571989290909, 33.43004672589646, 33.362135919596255, 33.30158512647094, 35.812136847728695, 33.405080256304515, 33.24819904038068, 33.349883031707236, -0.0433508206326042, 0.14087245261578826, 0.17157047387224963, -0.1282051013304347, 33.56979986339512, 0.024552025628151397, -0.15174794753945225, 33.48626801482253, 33.554353066890314, 0.11321492191565712, 33.44036519617198, 33.52491872982182, 33.4862994167522, 34.09140828589685, 0.07072823518263903], [-0.03784629824084602, 0.1654376061047829, 0.046099598287443255, -0.06775582676532166, 0.053364089542834475, -0.048717702506961974, -0.011011069702953707, -0.09803653965974593, -0.02473631743797547, -0.15883799301017457, 0.09755338984740616, 0.15513569063931992, -0.0574823968405952, 0.08241736664668656, -0.1542822959496003, -0.11268386185607251, -0.010811362802968388, -0.07220276675999114, -0.05620924174871262, -0.019625985817661822, -0.09160366595883529, -0.06057117519752246, -0.0593633248459745, -0.02604688987933165, 0.13386550306240871, 0.13623908219734718, 0.17656183735667444, -0.10359075489012044, 0.13887401398453772, -0.15016011942042548, 0.005425151554095519, -0.05438403382401686, -0.06276890859508324, 0.022640375870483315, -0.09439049102617626, -0.012556581886974914, 0.035645847523911284, -0.05112364434326177, 0.030002752267932142, 0.001137843348779477, -0.15452083185149137, -0.00644839328788361, 0.1647043372948215, -0.004381097696252509, 0.12196273513809336, -0.0848408248500811, 0.025278903490664268, -0.15514176318932882, -0.1144474147944118, -0.034759232990307115, -0.13916349578533938, -0.15646988975915888, 0.1530881572727564, 0.08291223024447393, 0.03422623774735564, 0.019909969292684182, -0.15949120520050628, -0.05014725949738715, 0.1294104488883546, 0.022816754674444512, 0.04076861009347222, -0.023768954696629915, -0.06672205887508463, 0.0609063882972227], [-0.08182272882403634, 0.016248096505655146, 0.09257298606016037, 0.1100366127907622, 0.0880668069392442, 0.17676857183837094, -0.04275217908115089, -0.06775692878774792, -0.06393882955381218, 0.004487130167607406, 0.0787007433373392, 0.05228322559592142, 0.019435245398368238, 0.14477190345407778, -0.09753657706099303, 0.06449335085155712, 0.04515010096026156, 0.15368920742084466, -0.07362222478822662, -0.07858134879771674, -0.02031198798912269, -0.08398637752577227, 0.04010893664168263, -0.08340950474711903, 0.0882276040588921, -0.1434379935965818, -0.006106979842398625, -0.025164320664049195, -0.0673764235499981, -0.029876740541034473, -0.10481607377496648, 0.0038359390056940386, 0.009452550865024223, -0.16464965401723164, -0.043500348393726934, 0.13719444942013567, 0.019472007671431785, -0.13011585285946542, 0.05793928760806725, 0.0016626266633590625, -0.026624913938765784, -0.023298084875188186, 0.133659550612222, 0.11086704880624693, 0.1574020944687389, 0.08605520495843176, 0.007275768260435135, -0.17606500190466481, 0.12211700292776716, -0.10939007222801034, -0.13616680369572193, -0.09749770668853645, 0.16546123525101816, 0.11882566453551736, -0.11187603122743937, 0.052115547891025654, 0.14787423568809765, -0.15512943211396085, -0.07719732933607304, 0.04747106797687942, -0.13923039998959919, -0.16923212893536765, -0.11334958318768937, -0.049505248917986355], [-0.04829238986425845, 0.0004492347297170851, 0.009919843741933554, 0.17212036329450686, 0.05609969139323272, -0.09040568358641113, 0.02985844748596634, -0.11703714125433576, 0.1277847020053923, 0.13968445667367738, -0.027638934130771176, -0.030398675100620307, -0.10942541721094924, -0.14999654282824298, 0.07408950141676998, 0.029895479955549007, 0.10778281227024107, 0.054289506995489026, -0.13866159523241217, 0.07143837898678095, -0.04124848266038132, -0.16412247194532523, 0.1511412100311802, 0.017186591307905775, -0.07035538208915215, -0.07425014064621234, 0.049230606986038025, -0.1381086159993681, 0.0070858783066453, -0.025847244873368275, -0.12410956041421733, -0.02831617448285849, -0.14021759378264245, -0.0903300808498652, -0.09761827390340098, -0.07458143346059791, -0.15146008050226295, -0.1351482289671461, 0.1565938831333233, 0.02729834483311283, -0.07478740474284022, -0.16896626120030722, 0.031526480603947166, -0.09421030858138209, -0.16851419346786478, 0.01280058040577087, -0.013343831183911397, -0.12453452789122477, -0.15722356927414471, -0.020317631546635434, 0.02774057128247223, -0.1450235832722101, 0.014146300594141292, -0.15218340985326292, -0.132427651184756, -0.15921801497734409, 0.05719071070106846, -0.15335729950315374, 0.1261640453319998, -0.021354087765975815, -0.0463156133043503, 0.0007616335613355086, -0.1296007307394772, -0.06667521101320467], [-0.15356360032033675, 0.014564533184331152, -0.09510192603959985, 0.08459565673697306, 0.15393763042140754, 0.10525525370611885, -0.15993633821849373, 0.08717649650518, 0.06095255284548637, -0.14405417020911565, 0.05364007240177221, -0.07541847411738531, -0.1705930941991341, 0.16790071121806696, 0.027963777440816545, -0.12348746095811192, 0.021732614252316568, -0.056659222905652944, -0.001431552162132948, 0.08450701340356262, -0.01707793799450269, -0.1555987301055887, 0.14090879671523332, 0.10888231583819954, -0.05993990279883393, 0.055846152561018575, -0.12055931008881529, 0.07908324098156402, 0.17380481945086992, 0.08496887238593095, 0.07180979462552617, -0.016851106392910077, -0.019190243976069693, 0.12780825450062203, 0.16012239798689, -0.15668142029643803, -0.12426075751262183, -0.12555485082501416, -0.14477979235152158, -0.003388621646609191, 0.038427659414297176, 0.07715228624313022, -0.016758692442016138, 0.11656291028533322, -0.15831594880466954, -0.13073294230847574, 0.13842851137293474, -0.08457562436736688, -0.0999328729582872, -0.021727804370028386, -0.147530156480628, -0.11380499645171006, 0.08868605786862868, 0.08034549297056728, -0.13269438217699936, 0.0021412941664687435, -0.16198003121068896, 0.01911610172133358, -0.0323273992911769, 0.09601508201596923, -0.04806089830000509, -0.1158715841321738, -0.09445607688928212, 0.14227645014158044], [0.12990562017484067, -0.12944406541519446, -0.10509545207522988, 0.06282652851011841, 0.10456197883889287, -0.034587718526237654, 0.024015601113954232, 0.03990143178317715, 0.11531163212456894, -0.16723882970742293, 0.022643129821946495, -0.0634715062626805, -0.01531589684438217, 0.1263239626457374, -0.15404457701510682, -0.07744229825373303, 0.12305869571102265, -0.026628021519905953, -0.11281527514727319, 0.10863195001552481, 0.13647973803642358, -0.1317979447950275, 0.12110077344634443, -0.03304860801228712, 0.017210631376164603, 0.16125527669504439, 0.13961708105649326, 0.1530706289243133, -0.026086087222377263, -0.17397490559143722, -0.00032327291018782733, 0.03599324161388748, -0.09098821708353483, -0.11433179952448108, 0.11542046827197419, 0.056874363221184, 0.01642531431975605, 0.16561353401828025, -0.14056789551515875, 0.13080111748099457, 0.10317083624525228, -0.016633086708773753, -0.15581845928332547, -0.03135069158038925, -0.09522537222636418, 0.1653809478623479, 0.09747708094849092, 0.14515514538982652, 0.01800986384840486, -0.020937521841132595, -0.0390614679911242, -0.14577391027495146, 0.10682711076876608, -0.07948268948330475, 0.0648274944231145, -0.11348593979722296, -0.09045030705851882, 0.11036762796155278, 0.04089886788223113, 0.10629934106770536, 0.10105081834568594, 0.022732775397830085, 0.045351783586609046, 0.10067955739457876], [31.66919289107539, -0.17373817676252848, 0.012936774066493434, 34.38413088127837, -0.03133426993151056, -0.11466427111655271, 0.08088325237534943, 31.91354436179742, -0.045894128179103766, -0.07535532190935681, 0.06444248090475513, 31.6537993269621, 31.78644249490116, 0.1727145636033178, -0.039041302958196245, 31.77647129047223, 31.839428257626814, -0.0959708563569144, 31.61787779506647, 31.817497551428815, 0.14726824457500293, 31.760699623994654, 31.863477994310223, 31.7092223831488, -0.12122693235362686, -0.1558987921362121, 31.670993535221037, 31.731205945184172, 31.653659588798405, 31.64121745622154, 32.94852483728317, 31.8167197141103, 0.11578369173944061, 31.721028122507306, 31.837339761136477, 31.92893246558784, -0.08032996176737228, 31.793856638572002, 31.64489835340588, 0.07302594023016687, 31.87968862744004, 31.63594678936459, 31.685412929135204, 31.74702100320775, 31.691974067290317, 33.78185311238546, 31.76436872140186, 31.845613349124548, 31.67120056704821, 0.0320788645697235, -0.05569932546951188, 0.14777833221521655, -0.0064840280958466945, 31.86480672102813, 0.11445463138746184, -0.02139042409388825, 31.676033207959712, 31.87906043826485, -0.01203650465457974, 31.8270490642873, 31.675947045750405, 31.760263855040833, 32.44767151872725, 0.13765296239825556], [0.14750593597292863, 0.16482566885827166, -0.08708023435653171, 0.1381922208073567, 0.008265352465802196, -0.1174414573325893, -0.1654058678901021, 0.07115886692498728, 0.08723382680814726, 0.04955485842018317, -0.13927137450492122, -0.17545007180728836, -0.08061185857386659, 0.0009917636202204372, -0.04015426792959001, 0.02174986922821095, -0.14782335431047958, -0.08987681486985614, -0.16860778617766095, 0.1567181808820721, -0.03349562874477165, 0.08023368332501626, 0.14961658814937032, 0.17193935881294511, -0.007829446190067202, 0.12547127741218808, -0.11987509024498048, -0.03207609797031666, -0.016177975075057315, 0.06691746028029656, 0.0632880348693937, 0.0044896688011458455, -0.12373534152654589, -0.05397204616666057, -0.134752066135812, -0.1746107174060765, 0.03207206995806183, 0.04456174567262298, -0.16891303541379668, 0.06645691269589021, -0.09521657463626947, 0.11457418990787292, 0.09043113593117437, 0.025449122104906918, 0.07480491492263878, -0.14544638526149087, 0.012961956301835198, 0.08574665247555739, -0.13261857976398742, 0.054051224503663065, -0.066461674510019, 0.04802167189500914, -0.01819258776494731, -0.0980793318949014, 0.15706243310958382, 0.16281590542986482, -0.1480856632494433, -0.06261094304102156, -0.03494987301658217, -0.1247076722783257, -0.04272459802742292, 0.08318137694694806, -0.053204772985862306, 0.12418835254653152], [32.90719375666262, 0.0973426155370011, 0.04328845576216117, 36.27991031637267, -0.16329458552638157, -0.13492716781179595, -0.07280141400858624, 33.08833045194787, 0.06691153588983076, 0.0031631565346181, -0.16820388664845218, 32.91674119261218, 32.89212223832942, 0.041505907520372115, -0.03892093715342779, 33.14608662628981, 32.915387514911075, -0.16667311275218294, 33.2101891935024, 33.02648205242014, 0.06017483827908326, 33.14380031630946, 33.148472263067774, 33.18479673118768, -0.09678340372915771, -0.13704433691076082, 32.854871971948064, 32.874455612297886, 32.97642764304868, 32.91286568924611, 34.817890723082115, 33.16198781053554, -0.15723050750697073, 33.22873174907348, 32.85180530775923, 33.03148748672186, -0.14456830120860295, 33.062530804003224, 33.170993256196034, 0.0924661724907724, 32.95279144760793, 33.20815987311435, 33.16962359003334, 33.155535475553336, 33.018443418864656, 35.25609308362733, 33.17900992557722, 33.15736358966762, 33.08491944487997, -0.09343963477393986, 0.05837716506720394, 0.1499869974515168, 0.07456498061089709, 32.98016852735432, -0.040963217936031665, 0.009759842792995577, 33.00089748458736, 33.105931752976275, 0.04750217896088497, 33.23485438328535, 32.94115991751049, 33.024791217058265, 33.87859771542028, -0.10747323667527564], [32.426754388750645, 0.14114419965146524, 0.17568254279256004, 35.5712341569614, -0.1670030041740694, -0.06711327143322333, 0.14703043467397903, 32.72395493744495, -0.16233157502190623, 0.09582153250657718, 0.062311000469634975, 32.40973956330834, 32.719675019999976, -0.1292276829914831, -0.08312388168187314, 32.66402451750265, 32.49359607059706, 0.10827990116699454, 32.6404204981524, 32.61713693183304, 0.044890865014454086, 32.49139397619653, 32.709432809967474, 32.52339637735965, -0.006683969515678505, 0.0626714306140687, 32.60549549385406, 32.47113443545978, 32.563748510393346, 32.7172709713327, 34.11109694164927, 32.614112442229846, -0.15801094026241372, 32.48464293490276, 32.485397888262135, 32.568736647008826, -0.04966771696886457, 32.659127612649165, 32.527328724243, 0.026345932611471435, 32.75961773115453, 32.69061547517942, 32.70260648564106, 32.43165542125133, 32.66407208133703, 34.651504032971665, 32.45771746705572, 32.66445090958219, 32.5404625029791, -0.0003782536307374851, 0.014794998803441544, 0.1401817492417574, -0.13086368914313207, 32.69649252074661, -0.025316014445306123, 0.13197353182607222, 32.58568634224638, 32.62793798026811, 0.16196397016899108, 32.62544418556754, 32.48683208381561, 32.53759106755411, 33.08152237707487, -0.05817318609275679], [0.001975251136662276, -0.06641130371315129, -0.03845539111369911, 0.02035063791946423, -0.008636225938983444, -0.10494059876157218, 0.0915956377285074, -0.020182676030982033, 0.04512859439268663, -0.001422750544757323, -0.16051932273666467, 0.10692214588063034, 0.011175302134052822, -0.1405191470869136, 0.15762091756925692, -0.05192805030856906, 0.17003190839428897, -0.007695970475465497, 0.14378797363530396, 0.08469246494093799, -0.14515850953291218, -0.06288019786161238, 0.03976543171505398, -0.13241056695469938, 0.15575897733967928, 0.0371331911095929, 0.04307807169510075, -0.11675100321403085, -0.154550345734951, -0.011660513343167839, 0.1733456047384674, -0.05667038860578462, 0.08788892129442924, 0.006203336279628324, -0.05020855752059611, 0.11211779943598862, -0.05210558200661412, -0.05818460818225525, 0.16311995456851522, 0.1107450007222873, 0.019668333112466074, 0.09438715499510017, -0.07528454771493122, 0.08462940451023279, -0.0970485950643182, -0.13307276728108217, -0.09727366360625528, 0.15901196362878303, -0.11727766382663231, -0.09249859023041407, -0.1696414830061539, 0.1532597734766509, -0.12679132322110692, -0.03065723964888073, -6.945974572256097e-05, 0.057552180998128616, 0.05852946384827973, 0.08997385305995229, 0.08637831097750567, 0.11566650814092425, -0.013469696911181134, 0.07664837079539807, -0.02194569489321671, -0.08279808759933685], [-0.09074151747855594, 0.15514515945869925, 0.14303648038753522, -0.010481740155672742, 0.01016423068977701, -0.13823825444868215, 0.14355701387147127, -0.06948092717194874, 0.09508606778420584, -0.11157867951387054, 0.13833418082481683, 0.15709455104009426, -0.008985352513028871, -0.00012982808459588435, 0.1429915135344674, -0.17108742659478493, 0.10518493910630874, 0.05855681136030089, -0.1094041493961956, 0.07225589473134983, -0.16918070316911815, 0.1046961164251484, -0.12092209190527577, 0.1580599096903312, -0.04527956940366798, 0.04136356015220191, 0.09677010087852841, 0.057204327460577215, 0.07299877850857348, -0.004089609485683654, 0.16915184482081494, -0.17371529739510033, -0.024866014058179037, -0.071837128676413, -0.1601837639082171, -0.046079501833169945, -0.12515833931681447, 0.09464924059406496, 0.07980212000220446, -0.07700764300742016, 0.09185697374978505, -0.16518732106654865, -0.07153411860491252, 0.013642827156881476, -0.16380794246770847, -0.025171901143636183, 0.17459233344947564, -0.06032299068285081, -0.11374176588446921, 0.11786248230997473, -0.1535399892371909, -0.12398329125396976, -0.1339955223440318, -0.04860933721108143, -0.15157146935613988, 0.10431385483525349, 0.05893337593017062, 0.05883350111099464, -0.13556367864295377, -0.03457050872948114, -0.040877054114794004, 0.15669362332431078, 0.10884587543959237, 0.08977523721593308], [32.13527177479666, -0.12049171374967547, 0.10343182097504997, 35.071421293673694, -0.060591799202616786, 0.15985765568914556, -0.1046940043594621, 32.37556538594398, -0.15814740720273832, -0.14132173432635686, 0.11282152295780348, 32.115994614254454, 32.23868956519832, -0.01117184857700107, 0.03853197138300746, 32.39538344318887, 32.251883028571484, -0.06812542541947769, 32.171310057437125, 32.24451496091877, 0.01012037213967607, 32.39156326651596, 32.18217498792282, 32.38307666147872, -0.02477304770285179, -0.11279126446576927, 32.275820700481475, 32.11875647677994, 32.31760672362203, 32.120224154504434, 33.691868596829636, 32.350423012550316, -0.050139529328034865, 32.19706855036451, 32.21479712520781, 32.18181144184403, 0.15667795906632656, 32.16282280302067, 32.308257118147104, -0.06424408269782252, 32.32704515657303, 32.38129189375548, 32.286608777502465, 32.36277620841226, 32.24132378731343, 34.214281256240554, 32.334227857033135, 32.18418678339714, 32.38160953624799, -0.06312901202751307, 0.04652193809630801, -0.03471121734868793, 0.1229733607639262, 32.26931050211313, 0.12915979281361376, -0.04094847788128758, 32.25116781428793, 32.39585499551349, -0.17507445095770055, 32.14813132671371, 32.21321946454993, 32.23373357869397, 32.93677492050445, 0.17401918722817467], [33.21685606852438, 0.05685293808539241, 0.009271675101070742, 36.38711423215835, 0.024094416783052953, -0.1456034900943254, -0.16694000111812435, 33.019651274810755, -0.17599415423576206, 0.16320383653534545, -0.09843674453060623, 33.17611827963182, 33.1881097154714, -0.08232485929380777, -0.1442250446104468, 33.14041313484893, 33.20231573166045, 0.1126430803383968, 33.11738704702272, 33.16380027429189, 0.08450878049403435, 32.932390196170005, 33.075100414496305, 33.0398472436795, 0.09272153411503756, -0.011872253487194166, 33.06872237057824, 32.95024993518916, 33.150160190282904, 33.24420190890106, 34.80055657239173, 33.21827702969237, -0.08157472152742828, 33.234294184771116, 33.19883283794961, 33.25153398667207, 0.12810150005445256, 33.22918773207161, 33.03592938193758, -0.11372460680135121, 32.98485477311557, 33.3319194944073, 33.08160538712836, 33.05884351933969, 33.262907464625215, 35.56905394764682, 32.96386411941168, 33.10718473611439, 33.23846206515057, -0.12331850875111869, -0.06996951823780853, 0.13395961369698953, -0.0750900117121326, 32.99600204355876, 0.012306039174343947, -0.02147759368248059, 33.2440080807596, 33.155225283656975, 0.053322276954579216, 33.25353307378877, 33.12844242394392, 33.1255120004181, 33.9249301726899, 0.14475187053879357], [31.962332020604766, -0.16356327252391603, 0.17504565992011942, 34.84163883415387, -0.1442932278483354, -0.010345211487806873, -0.1460836416461247, 32.09696537042757, -0.06819530484360237, -0.1336644890584204, 0.12977309738477769, 32.011621459434075, 32.14871835980996, 0.11854503720447249, 0.081413313117803, 31.97103247254945, 32.065229409842104, -5.4496925989499286e-05, 31.958318699435683, 31.99688630125953, -0.17163385806661516, 32.06494536588561, 31.91347754411724, 32.24934459702253, -0.013578407639464472, -0.11635262183443852, 32.15208226672025, 32.198954225427016, 31.974441109427158, 32.09701872354463, 33.39220711239315, 32.034958992004334, 0.09600865469207256, 32.26521121940044, 31.974696308546196, 32.18033899073841, -0.004327201273905706, 32.17327799121016, 32.202362936934215, -0.021523637598448865, 32.039922248636906, 31.938332032071816, 32.091296952131444, 32.082922569184454, 32.035110195223396, 34.08881304055457, 31.969449969119797, 31.963447248267993, 31.959487158086414, -0.13636685338177906, -0.010524542963501613, -0.10309956428793893, -0.03720349851177801, 32.25068759805082, -0.09147909575589075, -0.1216338164566591, 31.98473274487935, 32.16156863339446, 0.08336591956220668, 32.20581407109941, 32.26608124544782, 32.25344076652807, 32.69280783477511, -0.00493067525796322], [31.47480788348025, 0.007190610332908354, 0.047223707651634333, 33.89230201975026, -0.1457084589959159, 0.11735186861004335, -0.07753603550883124, 31.595021676976078, 0.05119067208352843, 0.050306733875852994, 0.02706734782783543, 31.373184095173396, 31.56925894585221, -0.06693370454273823, -0.027273679450354915, 31.441819013025746, 31.279592235710606, -0.0788533539727416, 31.59130924324651, 31.287211301343593, -0.14767748242340284, 31.563740283190374, 31.281119563375267, 31.375714815829955, 0.1760610050361053, 0.0898968935442178, 31.512269035036436, 31.321934552218817, 31.374371164584563, 31.521148274366585, 32.63583182396573, 31.314691827901395, 0.07424816696696965, 31.394311734442976, 31.49607872907396, 31.421229836480496, 0.05989789444979199, 31.362497575539702, 31.450759368897355, -0.05629512529495566, 31.565949430273978, 31.36240375254641, 31.564558824373382, 31.53623211655685, 31.496567857525815, 33.17814956420166, 31.599706553433823, 31.436109812751692, 31.346836641020285, 0.15109843511950508, -0.14244463963636841, -0.012573871075418158, -0.14778504716039895, 31.489683759660654, 0.141542666552228, 0.0767667251928155, 31.590231205988342, 31.44354202766861, -0.13125845257805385, 31.47849353286721, 31.462917051566894, 31.584373196959927, 32.009490715359426, -0.0701834938771204], [0.08905045000444813, 0.0187895869267173, -0.010128140828231907, 0.11993599390153975, 0.035469891109398, 0.021887889640241714, -0.04245528253065754, 0.08627937483001326, -0.0875654467336851, 0.11140913567266295, -0.16064311594445344, -0.05014932887664909, 0.14489235979830006, -0.128184805470895, 0.10168365190765669, 0.14038578608898916, -0.10160868378176176, -0.010146046967503142, 0.15801835706156359, 0.0016153032168681805, -0.05843387407111353, 0.10596402101135004, -0.10912694938095456, 0.1130017662660729, 0.0961838840808998, 0.001720539316973645, -0.006328687832769777, -0.14083619647357343, 0.15710169332809484, 0.003667404077531613, -0.15430706882331258, -0.13016547306376558, -0.16431036066954258, 0.012368491618523218, -0.053721542264594586, -0.07118107182246745, -0.0002650858076542195, -0.08882713417501055, -0.05660108465827315, -0.08202205179192952, -0.06295506457346432, 0.006714467748546391, 0.12448308467821967, -0.1363107666951889, -0.16395849973172288, -0.1465345134313441, 0.17762032853682228, 0.019232551777859038, 0.12630235081006755, 0.12792579219443098, 0.0930701488957836, -0.05990839963749012, 0.04642674706000649, -0.04406600974487367, -0.098184635081973, 0.03714356609580269, -0.08550222937857499, -0.09899127213048949, 0.005116606247388059, 0.01668781324203977, 0.06476929193445241, 0.1189346959900477, -0.13122060665544982, -0.16855615437278176], [32.86984329069444, -0.11549948015334875, 0.15897155744246536, 35.90861679949001, -0.014903336088958191, -0.09483160353428287, -0.03141832715208762, 32.66034299422363, -0.1039950565725748, -0.15181693970124116, -0.0984780536893307, 32.629939137230586, 32.93290842644101, -0.026127453138445306, 0.12752369890966583, 32.882909992007434, 32.89015590320363, 0.068204087014986, 32.81307782073534, 32.868046522894836, -0.12580940170161473, 32.57310124617583, 32.91167057280777, 32.912659136111735, -0.12111412451520229, -0.02160046668987502, 32.665027535432976, 32.851354974409, 32.90515728652114, 32.69529539249847, 34.53221606323991, 32.89795636994375, 0.012279032597082379, 32.830375579526624, 32.622729369014756, 32.94822249958957, 0.1628960456528553, 32.87100056156303, 32.73133200267281, -0.09209316764566612, 32.76851196882543, 32.75887867785696, 32.613797573806785, 32.857194257994784, 32.706520331451024, 35.13909219241628, 32.79701479330665, 32.879893154531494, 32.72145252837405, 0.03400622415224919, 0.1238971729586497, 0.03275008859872769, -0.10865048908988509, 32.88625768718335, 0.14071762737727275, -0.08395700968487484, 32.931987698196416, 32.80760872517033, 0.017176224714187338, 32.77929556237145, 32.74963932946188, 32.6243947902019, 33.32743758223297, 0.02412090863599348], [32.85574588612958, 0.012393102458900636, -0.0361117871907852, 35.90949118594911, -0.10866775886103124, 0.11696612680467777, 0.152276272298563, 32.78893527200362, -0.10067661857851846, 0.039057746237219415, 0.16262525882355625, 32.94077534626221, 32.902985628961765, -0.011432417956768137, 0.0338833182746201, 32.836328000919764, 32.846735240369625, 0.09623560329373018, 32.69659929028982, 32.848800432835574, 0.13431076223454735, 32.74363018382998, 32.871055129306605, 32.61346462709513, -0.004084435353131645, -0.11497449165237147, 32.85102154802033, 32.608451592198826, 32.93998308823314, 32.745226691157, 34.39014727406764, 32.90477188154676, -0.11027049308475324, 32.63856531266082, 32.914831177473374, 32.71295725518482, 0.129748725979371, 32.685631137623695, 32.76310860173915, -0.11566360197461541, 32.936308649918814, 32.93984872362678, 32.85885625409846, 32.79238407173452, 32.758819715350995, 35.10651896333894, 32.78894841720563, 32.73948099678963, 32.79016861175253, -0.0036756480377316825, -0.14034593903453857, -0.07635206141718472, -0.0782488038868574, 32.948290402387386, -0.07652530907174074, -0.040881572852282805, 32.83578197268131, 32.70804761939264, -0.05698662335647249, 32.81686544434947, 32.8845953858905, 32.68007380994926, 33.467378478309726, 0.05349893264799928], [-0.13435276044259448, 0.04497532548476438, -0.1309281719231638, 0.11439492729616654, -0.0056149880424344045, -0.01968752358445111, -0.04991670832098713, -0.040434049776917697, 0.047222963642729654, 0.09484050704814287, -0.07826414084248556, -0.16546991790239024, 0.003469239650746636, -0.033491470857066885, 0.16746859102774544, 0.11821800010209108, 0.024007494024913284, -0.00494811828228528, 0.1764500600136463, -0.11867616169658485, -0.14677711706239335, 0.05711543121655832, -0.1648827416409773, -0.07029373012980814, 0.16455686918982362, 0.07618766500642457, -0.04899940237825809, -0.05627474781385508, -0.08030672707037362, 0.09700036468901532, -0.059302879513282974, -0.048930200384476846, -0.087080771032927, 0.1318934418495221, -0.15651393187427176, 0.003854342718168091, -0.10678455262385853, -0.0864444735925699, -0.056320842014998235, 0.16581542750407482, 0.045151718607477964, 0.029634759472118605, -0.0805190523991532, 0.1560334179478636, -0.13412089559267615, -0.147729361889206, 0.07363980278044349, 0.1022420494006395, -0.1237265743973225, -0.16985413243970973, 0.024421337200023097, -0.17560022920393895, 0.14480703330341618, -0.07412762490611162, 0.11319614948550347, -0.14095352627002075, 0.11309680406356223, 0.08577765428814257, 0.017273817162962835, -0.15601234102360317, 0.12065245504855823, 0.011451848003926762, 0.012329368357933274, -0.09855798914067355], [0.17426486735993338, -0.0213647254483105, 0.15186275559481824, 0.04548932127439026, 0.16236883920994946, -0.1691738903297918, -0.014522876451704664, -0.02202957457930574, -0.07367699675345257, -0.13414694502119684, 0.0630443013877991, 0.13910563071095164, 0.13091132042524758, 0.023102661521715973, -0.03336754493612071, -0.031563876251806816, 0.040216370993076456, 0.046061851699542355, -0.1431987652163879, 0.05700411761285579, -0.10655530410446334, 0.16695100673245208, 0.10187678199072206, 0.07157273884144788, 0.09581041882640431, 0.015727818546890537, -0.15803289777429835, -0.11348480643644103, -0.051002710177684873, 0.030429119107019065, -0.082919663240335, 0.027977079412248446, 0.07580403106887837, 0.002647878489276917, 0.10184972930501832, 0.056265906475717165, -0.01878741056442318, 0.07615348888091503, 0.086968914461271, -0.15887214391196827, 0.1184836461597241, 0.12612562175442396, 0.15558233720819234, 0.04383924217683949, 0.03201088030158458, -0.17146185219807492, 0.1500568925340159, -0.1034617883253916, 0.04113277841236268, 0.10359762452886326, 0.12481071662548518, -0.06790344107317536, 0.15077468559932425, 0.03366502574308883, 0.039548606437274425, 0.03993352287790786, 0.012849675069258576, 0.0996121558786269, -0.16956848759755092, -0.15536282959672168, -0.10264040859899881, 0.045134656810431745, 0.059847673566355425, 0.014319951515691903], [31.809986765450137, -0.13880306733741338, -0.0548174308389079, 34.20136660783281, 0.11195511601318393, 0.0017780935459915173, -0.02455993138651644, 31.827935934893357, -0.1331990966948346, 0.17233032692695752, -0.08930800761958485, 31.809779078786587, 31.867446320884174, -0.09819930064898456, 0.13908966339683668, 31.60226168783284, 31.795103051354506, -0.1687281688166207, 31.62733451420633, 31.581324675667684, -0.06441500043198428, 31.915323515278462, 31.839633372589933, 31.58529474326151, -0.17225134734178205, 0.009676733403273153, 31.64186408215509, 31.60940253666868, 31.57590026881682, 31.56737772177161, 32.49308186869959, 31.67535957194536, -0.009057948067392463, 31.599725448993883, 31.890524419301453, 31.6411767841501, 0.10281548679198596, 31.882627353128118, 31.79043315317657, -0.02644222464898872, 31.734719316851393, 31.718390046140197, 31.81905840505686, 31.813117579065004, 31.816507521372376, 33.20652507879002, 31.916609683007668, 31.80586188214745, 31.699146514877537, -0.11508078048079831, -0.10200423323290203, 0.10938785493886652, -0.15777951081166613, 31.971755071594, 0.037363097937773065, 0.007516324020815646, 31.67627813781556, 31.77946374928418, -0.16136499441649446, 31.890658751363336, 31.652135851791908, 31.713811064022398, 32.40452451387837, 0.15433151049726276], [34.05286086729346, 0.1371512972522809, 0.03967263463873652, 37.445394930552766, 0.11937396616292208, 0.014623515087439157, -0.13379356241530607, 33.80434017542278, -0.03354782132405096, 0.05162946910997637, 0.16918895830384292, 33.96660886545931, 33.999136974144534, -0.1550945050696591, 0.10673944807859223, 33.79895565371264, 33.78340328796921, 0.16296039139824, 33.9917519821002, 33.81732775118097, -0.1463667679095467, 33.810244941705264, 33.818647711286914, 33.811735332327245, -0.12534410757377598, -0.01668075147086687, 33.799750778621046, 33.966436226752194, 33.96821211518825, 34.011094428936346, 35.7365066808546, 34.07273365031119, 0.05150708682475508, 34.06408123540457, 34.0127436317252, 34.00628957574672, 0.04798716546731871, 33.835089730369916, 34.112826356955395, 0.11059253890256555, 33.90684897547219, 33.9381289486856, 33.800574191631824, 33.940686676697354, 34.070000555508656, 36.60598425098577, 33.79892222779743, 33.84208755101544, 33.9793368302645, -0.12882195494033677, 0.12207408194701422, 0.051694835139369566, -0.0036112771179361847, 34.04790473552657, 0.170733303182083, 0.09801874487904691, 34.000898906246135, 34.13117459812034, -0.0005556814019455898, 34.107932322370004, 34.031386073337245, 33.785886628005315, 34.83005164381697, 0.1710628779733132], [33.55131396313216, -0.040704444573795844, 0.15892419813261768, 36.92929268518983, 0.07207684908168897, 0.09583213206261595, 0.1222652138943486, 33.40636714767689, -0.08726445982063152, -0.12681647543382482, -0.0239780720642212, 33.622654683222684, 33.363688996394714, 0.12647429134951096, -0.09360909183120028, 33.39855899370793, 33.487820400246484, 0.07618938103295415, 33.54435703325027, 33.43746134492642, -0.1216876882480694, 33.282624078687014, 33.47187704840053, 33.61605731123347, -0.10555241501623644, -0.03419213119901118, 33.56502949102796, 33.54580694988286, 33.60607966587131, 33.611326112654154, 35.29289661384043, 33.712855443781045, 0.02349718715950372, 33.42626191441399, 33.50513961932679, 33.67480426054821, 0.06517479021019759, 33.365102682776474, 33.4580075587792, 0.1296310595842997, 33.51393627938541, 33.71188246758022, 33.33335034211018, 33.7077586193513, 33.36555531213077, 35.988647636378836, 33.50619126071392, 33.51013885358372, 33.464887943552895, -0.09498989860389438, 0.00280340886292675, 0.08434840766682825, 0.08299957429098012, 33.56970732014052, 0.14803200843519546, -0.046575321696796235, 33.4458999143838, 33.736861478794516, 0.11427804943081339, 33.71925375757761, 33.451659901355356, 33.63803344034461, 34.10375294780972, -0.07776221799461304], [35.88650184807623, -0.16097207611130426, -0.049396494507481736, 40.48059086919192, -0.002865763403104118, 0.04447424500137634, -0.054299468737118106, 35.91036662743809, -0.09683491770134227, 0.04254009021134558, -0.11427632702850651, 36.06672400163851, 35.84639587423393, -0.15767752914474864, -0.046830443022270046, 36.00393558089397, 36.016038184215866, -0.07964466508538896, 36.3224657238702, 36.14636908893993, -0.0483678678728927, 35.863959778805246, 36.017084833949674, 35.92462107914019, 0.06532767641080804, -0.11613027333066585, 35.857514885190135, 35.83251976487865, 36.1096268687723, 36.24247857128709, 38.02837033903214, 36.21552716597811, -0.12068105225002679, 36.189283591684806, 35.98616598568828, 36.05684898751104, 0.17612828002210765, 35.90978998466469, 36.18610117577072, 0.010333060758994355, 36.025044965727155, 36.184696480904314, 35.78103311924334, 36.109646754154205, 36.09552642208201, 39.2314725151871, 35.87868241613588, 35.962882480613224, 36.23452172772921, -0.09462502003295434, 0.10698886121537715, -0.1670913334456725, 0.1038012151848143, 35.86900721279162, 0.0052654856502303005, -0.09780363882883761, 36.08337935578884, 36.15668619292817, 0.05122373129305734, 36.20467861634484, 36.14044640689247, 36.072484012851284, 37.02546116003895, -0.16979143498873525], [35.9857323893381, 0.08819590473574423, -0.17658149258879738, 40.693098651751086, -0.033773802724559494, 0.01491262378932229, -0.05974730724350401, 35.950213672613756, 0.16468067877152867, 0.00010493146879320125, -0.00986176784126902, 36.0127066126347, 36.08846241868858, 0.10461385452471597, 0.015757479172199135, 36.039718863935136, 35.92405332979209, 0.0383473815074253, 36.18155544566879, 36.007727585889654, 0.08682520227751411, 35.83766221421941, 35.99903298694113, 36.1425360090613, 0.028784978973375237, 0.1114194408272516, 36.08441474097934, 35.929632777808976, 36.15041010884721, 36.19832974906177, 38.22373417187339, 36.22293352229789, -0.0629994566077639, 36.26631219784541, 35.952470351087044, 36.135869874617484, -0.090790631037297, 36.17305740582876, 35.88313595799755, -0.027063160015436925, 35.99079965064833, 36.27445775591764, 35.855897771530266, 36.155387239670475, 35.98232054502935, 39.25954034558272, 35.93495300801072, 35.87080044967742, 36.10474014040875, 0.022867201616765254, 0.00013738657968599132, -0.11698881904553782, -0.14986372294168337, 35.89347815444495, -0.14246100032475106, -0.08054765270053627, 36.015443362727225, 36.25310209257306, -0.05621369643840518, 36.1358345620186, 36.300079421626606, 35.93532704264571, 36.921965360532454, 0.051351751303871714], [35.449418410585174, -0.11627926316656999, -0.17443738246608215, 40.08551434703815, 0.03452397033718818, 0.0297833768662836, 0.107424274656265, 35.54567496764235, -0.1103478047289927, -0.1404731353869237, -0.14677761060308095, 35.5160871770377, 35.73029277868326, 0.10107304374416079, 0.03742862183614301, 35.65658709928682, 35.70780069981539, -0.1677713792768357, 35.81169418190144, 35.666683534830064, 0.08965141923931454, 35.26723871361606, 35.55520167054423, 35.42500355252783, -0.09276606352502988, -0.07978740371803861, 35.63975352115488, 35.34614622590886, 35.69666631965044, 35.62643337283439, 37.81746996960609, 35.79698702054285, 0.09577085938942068, 35.815085903349036, 35.43180778305064, 35.6736877050218, 0.025954998452585976, 35.70005411555771, 35.59170545234782, 0.11283831479077482, 35.5142601737951, 35.789975414212485, 35.4826325331485, 35.577808769749275, 35.580309485542195, 38.83267961140373, 35.57911421920915, 35.641868439458385, 35.58207266191098, -0.0020178171639042286, -0.06599710198493045, 0.15992298734697144, 0.16790730676737511, 35.53452796315751, 0.02380971057288822, -0.03306996923915462, 35.656210434650085, 35.78407493709411, -0.06192854561792817, 35.762789192130064, 35.827638034964245, 35.404117290485, 36.348986724574495, -0.11075202253879929], [30.901515202636375, -0.13186182440691344, -0.14626719536599572, 33.39143573899092, -0.1776208262806867, -0.09846541580483419, -0.15338671911008148, 30.774025710084913, -0.10635806758558139, -0.0765524614288986, -0.12751476275659768, 30.94559942366468, 30.9667795566167, 0.09488770113544945, 0.06385631128140506, 31.086231235260797, 31.062628003952504, -0.09884040391774986, 30.853264253085257, 30.99314840768026, -0.0038033124365660096, 31.028658651613, 31.026409832100768, 30.97588561407975, -0.05948750087833542, -0.14297842647315515, 31.05125720419975, 30.85460005717357, 31.016745840015282, 30.76797173507095, 32.03724712526827, 30.95103166744135, -0.03590998663926387, 30.808962675506912, 30.74731615786495, 31.023412974664808, 0.11566510659244791, 30.94834257053204, 30.98336891719255, 0.09409783771308702, 30.934837317211482, 30.892196260912, 30.904307932229642, 30.73547591281011, 31.032084118795566, 32.495096503475665, 31.08022870472164, 30.74501498193142, 30.914421683838093, -0.16938953326540235, 0.0710109757416084, 0.050390944336041854, -0.1504578630277822, 31.191364040376243, 0.08891974015457807, -0.06775128735751369, 30.896772765067084, 30.798219509221035, -0.07141118074655356, 30.964859498397644, 30.841311946669954, 30.97764820714559, 31.49023379767278, -0.08654460328499522], [0.06402777290607325, -0.10034103675979456, 0.027882584879574845, 0.08394617589600342, 0.025785730869492596, -0.16940075501149574, -0.09644190680480007, -0.05165805409918192, -0.03421969123850471, 0.10715549195613969, 0.0924817378385612, 0.1534773785935429, -0.08391072805224434, 0.1490266948136256, 0.019090983183620014, 0.12794064847389838, -0.15663120455046944, 0.07872513042178611, 0.13777485368030654, -0.03442025974406493, -0.15490449325903535, -0.1733719794504809, -0.08684115068330883, 0.05322314127396224, -0.041952602624198254, -0.058080704076752504, 0.10033281549096226, 0.16138462654220723, 0.1538912030949093, 0.13959801906592714, 0.047556680157542, -0.044774142426009106, 0.16972357736100005, -0.025749145823514646, -0.11641264597461218, 0.06423860309155133, -0.044634442072469055, -0.15271161814256196, 0.1511206046627019, -0.09803913889476791, 0.12847588609233854, -0.14001668039764809, 0.094862863092014, 0.10014741541210762, -0.03917628924533928, 0.07695912956361042, -0.15079041261944304, 0.06317294145158256, 0.04429532208686554, -0.14690260012957204, -0.08135153439659637, 0.05988387220748417, 0.05342365557407874, 0.08789457015514132, 0.062439471258499274, 0.1527417030621355, 0.034397720267260234, -0.10263486488998373, 0.14833463410673467, 0.11408357797530841, 0.17617077446146287, 0.12441759489087759, -0.040111691453583675, 0.16036520710924848], [32.20045319383585, 0.05372066305950214, 0.012215160032668038, 35.111391285479804, 0.0702888926268406, 0.008211934666165148, 0.1526607721375491, 32.26161054634585, 0.11277224481965128, -0.07894500157265935, 0.019014933680396667, 31.975187974290566, 32.21459749276326, -0.07506284672025008, -0.12161081427064879, 32.03881896164333, 32.00455313336985, -0.06710793590368205, 32.20747572024663, 32.095631031966434, 0.03373299986153635, 32.120808864792984, 32.2732036203913, 32.07618753906806, 0.0552792159047686, 0.030599901233186157, 31.99544149559915, 32.21500057477937, 32.26762728899842, 32.130344548137174, 33.52284537389482, 31.990474504811342, 0.08758828754043999, 32.27245037513287, 32.01436069901627, 32.24104716309128, -0.00923723947398905, 32.302792027491556, 32.23096218735174, 0.016881742226494037, 32.201671393835234, 32.00564098214425, 32.21997868655584, 32.272382043033524, 32.17010810754755, 34.04773058875532, 32.04330407769852, 32.07405583688654, 32.24707558407623, -0.04947607575134788, 0.06244368367846832, -0.0023260439791994436, 0.17170982424316297, 32.11629430336825, -0.08932594693257065, -0.1208626705049054, 32.12493308236052, 32.00136031456661, -0.16599814535068078, 32.21903197635127, 32.09035840876439, 32.0783724039878, 32.853434405715724, 0.10158767672350856], [-0.1740419068479564, -0.11091694439157389, 0.1766321256422527, 0.08530342849538511, 0.06025853753481418, -0.05820884827866669, -0.011872014141272343, -0.0822186874442125, 0.07652385119573532, 0.0843002912629954, 0.07722173193439438, -0.040304026985942695, -0.09491011392939935, -0.004054225779267812, 0.10962151692557867, -0.12080642032546705, -0.12984801791501377, -0.07902180261958366, -0.011329115052569783, 0.10747575502052938, 0.10430673392078585, 0.03162677660639564, -0.1367533060638967, 0.15192634508706754, -0.15600272200233484, -0.15744564364809344, 0.023096670433594455, 0.1508708016221599, -0.15164999469114718, -0.002479978533261714, 0.019036416815110566, -0.05698744765532425, -0.08827843467732616, -0.17295025249451537, 0.012174822274552686, 0.009064248236193655, -0.09934863339143533, -0.01467493372382436, 0.05754023308864524, 0.11684677428136671, 0.0775950016695378, -0.16106280017896096, 0.04955930297490821, -0.14911814587518574, -0.17272052011984929, -0.0020791579084441987, -0.1252258759018933, -0.04696456955503392, -0.08215416634459198, -0.02167963453493199, -0.0017435163796845066, -0.09883001147276788, 0.07936781302204673, 0.04853622946668055, -0.15093199460512904, -0.01100889276959427, 0.010908131905714475, 0.17670536537085343, -0.07939700602953112, -0.07654550418159425, -0.02264825402515074, 0.08235802672781298, -0.12407348999719321, -0.08496271343290794], [-0.1583057549065496, -0.1279427473945586, 0.1345906024054788, -0.0340220669666148, 0.08162649188422294, -0.10714046612052064, 0.08616527307792801, -0.022487407838828716, -0.04929858096909445, 0.13827128409561903, -0.10143505611051384, 0.07761458727286166, -0.116557637442318, -0.02507155782938375, 0.01575321471792268, -0.04792669334492172, 0.07840914239746877, 0.03885642519721476, -0.10563182387967167, -0.0776771669607299, 0.0998737666312296, 0.027935781407343055, -0.0743728467762976, -0.0352860814831891, 0.005332178246776565, -0.16518951876772694, -0.09579156084386004, 0.08294403113397321, -0.06468512394883971, -0.044852655837140404, -0.0920145308455378, 0.11020628620295815, -0.00479689887426224, 0.04678441078756693, 0.045096678930517456, -0.0008063339330507655, -0.1620918258471533, -0.10599428304174516, 0.016581438353601277, 0.035587139814383904, 0.10048422719630784, 0.07697258191047401, 0.17547672154106006, -0.10580265622668668, 0.10554975935940342, 0.12501243545266016, -0.04058701447258791, 0.0796506937264882, -0.07466633261446567, -0.11046353446164643, 0.14542140039502646, -0.056568094534348884, -0.12570455911656134, 0.14413967232433703, -0.03379143931422099, 0.059562369120253394, 0.15266004353415183, -0.0054596920758186885, 2.7244817324568582e-05, 0.01498850690855963, -0.16199810837681958, -0.11688670286862113, 0.017466793034387224, -0.010871604021847864], [33.73048985456513, 0.08941466520308508, -0.10102645164002143, 37.327642979882874, 0.11455732863535646, 0.05089408095125552, -0.02725152551284146, 33.908408614110705, -0.05366500541614316, -0.1466685594025576, -0.06923749148558114, 33.86256479183778, 33.83101383652778, -0.1538361866671571, 0.016261443177498863, 33.72454157471541, 33.81034242062831, -0.16122276307530814, 33.9620776033208, 33.910351238710895, 0.1564290335390143, 33.8478327789929, 33.661455322398375, 33.7110983204871, -0.03931347825067727, 0.05768019475450449, 33.7901369991852, 33.66318894356326, 33.820066774429684, 33.96602840720039, 35.707837776476815, 33.79823609395664, -0.04385454912965189, 33.79609825079573, 33.932681750067665, 33.91105847003474, 0.09209802873310599, 33.93878372599841, 33.659385746936344, -0.0334107501062763, 33.88017706217416, 33.79010048914851, 33.73455869257918, 33.85595425817754, 33.64058001281045, 36.45382447092181, 33.62657624173969, 33.88016172300576, 33.988643446826366, 0.020850937785956536, -0.05033168247340922, -0.12559850506324668, -0.121348653418009, 33.815522378191055, 0.0057920181164952955, 0.1004328110114441, 33.617978455002365, 33.82169178506336, 0.0096538435628046, 33.763271966575864, 34.00738411836293, 33.6880181583489, 34.495234443933505, 0.047360423266406555], [-0.15855985279354454, -0.08992897494263787, -0.07346639317797403, 0.017122565928200027, 0.02377239961972276, -0.008555247027527524, -0.08004979997479526, -0.1254368098988527, 0.12493134543195614, 0.1541505946589706, 0.011926258349648777, -0.09942178096158925, 0.12336773039837956, -0.07991111202507417, -0.057069918537029724, -0.0474524495947971, -0.1365826005208999, 0.1611297338180868, -0.09393097258108277, 0.0749010888017383, 0.0802727412742392, -0.10752487985606649, 0.04775371643473271, -0.06745751145946195, 0.054978787380662544, -0.09964905565971273, 0.09412686255024379, 0.09310212629862864, 0.09270379886124062, -0.060088550011262815, 0.004521730102848302, -0.10169979599037639, -0.11195338018028421, -0.16792255586580926, -0.06625669295797582, -0.004041502318643633, 0.0029900221506944658, 0.11574322547946296, -0.0858925218775789, 0.03530737629295614, -0.11028232238262616, 0.124886924307849, 0.10715724672116257, -0.0029537896509077254, -0.05281993783051653, 0.041368186714201685, -0.10045253595229783, 0.012375953604336739, -0.09814343056894029, -0.09880917130977272, 0.1286952388776666, 0.04109015211570585, 0.0173191948119627, -0.08746368923955457, -0.09484662120224412, -0.010816581144760806, 0.06751869369587427, 0.17118311602362088, 0.07195036669725212, -0.15528249330324992, -0.016979304775849486, -0.059376806207264404, 0.06011915805380877, -0.08656823159162266], [0.060528627738661356, -0.14315014981616558, 0.0067279346445758, -0.15984911306124286, 0.15213507254744765, 0.09967691230636651, -0.05440612282884817, 0.10125893890845365, 0.10095566910194989, 0.043458588440742074, -0.08311356194932684, -0.09288129265344709, 0.028388688194714188, 0.05365966650902637, 0.16009382772404682, -0.13060363570775463, -0.09289499674060499, 0.09922954693016674, -0.0034707067990963317, 0.12135895602477671, 0.15183564495222915, -0.0467084018707305, 0.02785547372695237, 0.1240524325842067, -0.039233369945915086, 0.035663518859548764, -0.16364250548484272, 0.04149364266056123, 0.09028673757819798, 0.019756567818812385, 0.10975736969611191, -0.1747827396346032, 0.041062511754357184, -0.07986258053774042, -0.14840559516424606, 0.12038244137975522, -0.0524650132520116, -0.06226037978644117, 0.15057518286818056, -0.13907827612152757, 0.03198342901971864, -0.1648056053543534, -0.00614065198285184, 0.038644574227371456, 0.09367119158040532, -0.04545403509233449, -0.034036407061672394, -0.06977934128357266, -0.158356207739355, 0.1728725712357493, -0.15512894911028702, -0.13834617169755306, 0.1470780861459626, -0.01675529339609547, -0.11707227410266371, 0.050029152463203025, -0.14072437490265644, -0.13463145660943304, -0.005014252114028857, 0.08917579818658197, -0.07953668671392616, -0.14074801049546398, -0.09690684078950809, 0.1495322040367271], [0.0026332875886710683, -0.003052054203904586, 0.13281331846959013, 0.1347698635181647, 0.09263080142801164, -0.09179352220201123, -0.036783704034156456, 0.0411408716581082, -0.054031083013656805, -0.0013762764534575589, -0.03394227492923857, 0.1383482202453051, 0.01700726464106056, 0.0808692230594826, 0.1209710114419614, 0.14151024526944353, 0.15486573606239454, 0.08921071747558576, 0.17166845746041462, -0.14992352862112915, 0.1462130852072758, -0.08760133973083911, -9.447123167857785e-05, 0.12396311623611414, 0.01931702898973134, 0.05622936267790782, -0.02200132019343881, 0.05089701225620777, -0.1730131802687659, 0.11809910733810788, 0.1733372889351076, -0.11403043437815788, 0.053162167513849196, -0.07433141504389103, -0.09208813461693978, -0.16072336877958146, 0.13606778466093464, 0.0686814393144018, 0.055229807098889694, -0.02772605839997233, -0.15401893321945592, -0.05382615876286942, 0.13504128410501567, -0.09977665586310343, 0.13598329827194475, 0.03908101765800065, 0.15652233718960154, -0.0412267586774788, 0.03722000932038297, -0.06371387919813327, -0.03756798379602069, -0.054935970361358125, -0.07455418252413347, -0.03996587409324001, 0.01937027977290512, -0.06839227911969482, 0.03383227960724339, 0.1732851024053844, 0.10859198295372999, 0.05025740825834679, 0.14394128068870257, 0.1392645965872308, -0.12896936475488768, -0.12042549805043191], [-0.07905802011571433, -0.01586008840715694, -0.1132177501777159, -0.01592445310557733, 0.024312047154586264, -0.12191414659026029, 0.03126990169763316, -0.07126721187454439, 0.007411777488251531, -0.028896846871738102, -0.10583525210255505, -0.14033194941866667, -0.05309289045650181, -0.1356701322983606, 0.17121536090643838, 0.1005325182592903, 0.12780967828378484, -0.13886652593684928, 0.1640819827536256, 0.16283929459363664, -0.14248256482353208, -0.057255541007888475, 0.08330188834105176, 0.007494133513100187, 0.07787855074440284, 0.16855652106707905, 0.12612793308305606, 0.12020575442721212, -0.160216663550846, -0.14871632004897142, 0.08218656978099462, -0.0100113939127153, 0.16036065084589393, 0.022369758142251506, -0.1446601393068349, -0.06599198904088625, -0.027169279553732884, -0.05484660939388328, 0.03889808832387057, -0.07957705912620894, 0.0023977971541218057, 0.17287971551788098, 0.025419929452016182, -0.042162157388660276, -0.03486479626993991, -0.04993220071658758, 0.13091749454873172, 0.04366335404559063, 0.1345846415568985, 0.13673590451552473, -0.04854408261749396, -0.08310395975462978, 0.002900459026584229, 0.058412880186270166, 0.025537580528490506, 0.009165894375348288, -0.12845800543798913, -0.1432287481613334, -0.05868207601097436, 0.05041306560704992, 0.12708630481365588, -0.0514731025164705, 0.17294289818121836, -0.14164165726585964], [-0.06695541240352493, 0.03084440241355027, 0.00391533743326325, -0.08440653597018186, 0.008560744275594168, -0.15473472844409983, -0.12552299172751671, -0.17312405333416458, -0.06906650592589929, 0.04865863568827464, -0.08970547655039807, -0.012352277483873075, 0.08465975551156393, 0.044472041797997935, -0.09116533765470501, -0.046124707970142426, 0.10973317731542934, 0.1008256138467006, 0.03435063379986705, -0.14596811487058953, 0.04277763711490892, 0.04903497825328057, 0.013513933280072304, -0.16993478407591525, 0.07345157154094492, -0.1613617205455511, 0.1657998675824688, -0.011957332412805055, 0.09306438755549593, -0.03605672772886323, 0.05520266727679338, -0.014628663547763265, 0.07088609615045377, -0.10811668175373897, 0.1670274410075703, 0.0024381994290754994, 0.06168785263959306, -0.1056796220047322, -0.10731028933104843, 0.12197178261064792, -0.13804250329590856, 0.09380133199547389, 0.1706974011231356, -0.17606590236768446, 0.12896199171965936, -0.07256616088030934, -0.08209075244654052, 0.11149057482683503, 0.10632245572948537, 0.12580443766045282, 0.09471749481769928, -0.10751323763547926, 0.1142245748174884, 0.01965404022076675, 0.14896345499705574, -0.03436172681540195, 0.09694998742469366, 0.0514990341768925, 0.08645833809428363, 0.12247003243908852, -0.11286011667648613, -0.048837208468712756, -0.019094130593966002, -0.13374081589892872], [-0.11475965516647223, 0.03418361824598112, 0.1349389458700008, -0.1541446587295061, 0.09896521987594441, 0.1388955303680002, -0.10183732280145029, 0.05010033476656755, 0.10014232977671653, 0.07048882437746473, 0.16606898113754107, -0.10902724440652974, 0.04172109861293502, 0.03918977565611714, -0.02794272820772528, -0.11920024535801364, 0.1276637348554169, -0.13673767977505286, -0.1586397894648166, -0.06334829558644643, 0.05959209222127081, 0.15119737069827205, 0.1642181599136906, -0.031287717546651175, 0.04928517750088257, 0.039338211295808334, 0.0032360045703762694, 0.09449820423524302, -0.09274925963477415, 0.012903195540013854, -0.17585154853497592, 0.09339608167800734, 0.03335536743536879, -0.03192793654075921, 0.02545564160814776, 0.06954808980346344, -0.06264293098039359, -0.11737988506120074, 0.16942523425291356, 0.08636190791244218, 0.1132944202981723, 0.007720533359147764, -0.1188334811313076, -0.02278546108658081, -0.13281091708394738, -0.01813315289253701, 0.015966805689509703, -0.1137458093867067, 0.15505194257959773, -0.16503619091307806, -0.1479079042359474, -0.09424288190679511, -0.045868155752621514, 0.17391482300860056, -0.07226013837740496, 0.13589974387831635, -0.010528632368246395, 0.08073958038108246, -0.06407411064225416, -0.11165291337224073, -0.09687166214718528, 0.10247452689486179, 0.09084428322322448, -0.041531532184157144], [0.1693371187126271, 0.14815598655844267, -0.04411006664464681, 0.15059691352080892, 0.134150466634518, 0.08432141958963221, -0.11050982094280373, 0.06594836458278006, -0.13054431386969334, -0.16934346472902495, 0.057346064112090867, -0.10414532386696117, -0.1641753375813989, 0.04198879183620702, 0.05986363579192522, 0.0007068389732057534, -0.10242174263593021, 0.07112947005930076, 0.014049958098294707, -0.1271059538182198, -0.16560198211338045, -0.043225258861915056, 0.08019741481862322, 0.03858284451981919, 0.012191388888700222, -0.012966833464584243, -0.13676631012939924, -0.06193791146818722, -0.05460100874907545, 0.055836397668988985, 0.13868150836603163, -0.06282743612264598, -0.03316394726822913, 0.03176784504283686, -0.10027577819553174, -0.1366502113102041, 0.12011535758723371, -0.06875510641229918, -0.07081949070468038, -0.004176165157878942, 0.12830523350545706, 0.1518851613781527, -0.02403087589980943, 0.0893915957427733, 0.17013554374188541, 0.05652186451520061, 0.12041990415083662, 0.08032362443090998, -0.13869077946210043, 0.05434302819840217, 0.06890703100227263, 0.10131366607315764, -0.06721929907544345, 0.02744825774632595, -0.040688317434686094, -0.11668757599895213, 0.08760643408951721, -0.09111394772916408, 0.06817621104843191, 0.13605786854652466, -0.06310733088387815, -0.07272149381852064, 0.0552957959245573, 0.13170303019051446], [33.897647870108955, -0.01743575151533843, -0.09384886531200577, 37.41237561070381, 0.11459083339745789, -0.08937251573647928, 0.090484127255861, 34.028090179295376, 0.12075827020243593, -0.05981370463428065, -0.0047713267588887776, 34.05210727833452, 33.999050865965806, -0.12646807622974524, -0.1735139019171492, 33.814168537742994, 34.10106294579084, 0.11583536691293943, 34.11952680632001, 34.07081429588174, -0.08881203308043176, 33.93335009859277, 33.89476020727115, 33.79392060065138, -0.03905855073761066, -0.036129027831375074, 33.93581022515714, 33.918080065535754, 34.0687737964889, 33.92639875809106, 35.70016470483882, 33.919996126019086, 0.13407821162435843, 33.8862105203744, 34.030717184557254, 34.00085659967786, 0.10437846246950824, 34.00894272752464, 33.7856521364452, -0.16651325332023117, 33.89699329885293, 34.1614605091592, 33.78758039885908, 34.03307167097099, 34.095571817636085, 36.388164688398454, 33.845544440264966, 34.02292397837629, 34.02121219874327, -0.10139925531093157, -0.08158370435907136, -0.1576089850552896, -0.002986020055996186, 34.0928524895507, 0.1692385115564701, -0.08559793784162095, 33.91513448643393, 33.933655236620886, 0.12004718167464297, 33.92571661514141, 34.065006666253645, 34.09606598324182, 34.819516351146376, 0.1597617369591351], [32.724227213291265, -0.16039156015649436, -0.010784587452222827, 35.75666537223889, -0.030225272893288545, 0.1633835959518265, -0.14710319039658412, 32.80960634945492, 0.034875125954482555, 0.16151021696637155, 0.016934995384557228, 32.79714151268908, 32.86389034243619, -0.15840769212900538, 0.049959197156525054, 32.653182964600035, 32.76403368592872, 0.13924914450622008, 32.75417403729948, 32.58588526270017, -0.09516305721920175, 32.82511190617733, 32.70704988238393, 32.62745064572909, -0.14886653623437837, -0.0904069856628601, 32.59237046413907, 32.78896722992149, 32.83832351903412, 32.6876481252144, 34.28796080393427, 32.6760911410559, -0.16893088805954518, 32.933486968016865, 32.893681249044285, 32.755125042859035, -0.038496613090580445, 32.71671488426985, 32.80420237052762, -0.1184613444856262, 32.876939852104584, 32.77956586868335, 32.6898202732366, 32.8745117836752, 32.743598400167855, 34.9869537833529, 32.813123441887676, 32.763080026297665, 32.66069509073876, -0.08960687050326559, 0.1543381687280636, 0.15979969420761006, 0.06198494382831918, 32.73906163030884, -0.13163408623839962, 0.16548340256705904, 32.88409735971723, 32.81428378440494, 0.025536467143289266, 32.6673672317092, 32.851693380799624, 32.75893870243158, 33.20730197812863, -0.08015852391214788], [0.012621194164630476, 0.09001956385845658, -0.029016200076405596, -0.14187938352278148, -0.16956704361270103, 0.046230011527502224, -0.15020492999128088, -0.13990981772946004, 0.14741288455069615, 0.09362682232998173, -0.15002750426699502, -0.12978830262123847, 0.17338909000739233, 0.11552234900360256, 0.09527876580782194, 0.07397890260791379, -0.09874153051939809, -0.10012496507959397, -0.07504402789155627, -0.058031327893193714, 0.08175644734940954, -0.09646398204188025, -0.1611793842200059, -0.16274107231461568, 0.09589507947604006, 0.0017906214720607438, -0.16048759737309873, 0.12680622083494414, -0.10822058214769, 0.11465590729842734, 0.14595643791900342, 0.13917259201666943, 0.06418907038279556, -0.12150568042735156, 0.048159712311128706, 0.06432709030989564, -0.04033986954725219, 0.14608832033855979, -0.04194598795827805, 0.03182916370599573, -0.09592619317204307, -0.11681645310068339, -0.05525087242684389, 0.15363761953114008, -0.05337760755477836, 0.022464885522858965, -0.11612749906478417, -0.042829732581839385, 0.1538597184218124, 0.025780025435126724, 0.13799320605267237, 0.15840289421932705, -0.09159566938166584, -0.09055504411685195, 0.08996282675415004, 0.029057159092935214, -0.060812062452419303, 0.004223193769586402, -0.04243455163008969, 0.07958475371754392, 0.06854633239799546, -0.03906568034648216, 0.1440301783353336, -0.07707987985119985], [0.11054791487603069, -0.10088947555873737, -0.09407604337319195, 0.1273961049149663, -0.0646197313257076, 0.008832953174152752, 0.14849578752052003, -0.06858010147871717, 0.12502475046630682, 0.005729791141193069, -0.14543427870078568, -0.11441062487248554, -0.10166276040489569, 0.03992971690704927, 0.1599339974433062, -0.029299585197721356, -0.024843159397881814, 0.09965483531474725, -0.08996745417872665, -0.1523959101109553, -0.06833418348751019, 0.04300944573146656, -0.09118719808901977, 0.15335999607341752, -0.021250353913848413, -0.16025602709251405, 0.1280162183360418, 0.023587641216328586, -0.15792723342984094, -0.14294900341022437, -0.08315180831326542, 0.04125950109352566, 0.04550463532167817, 0.06325481746308004, -0.008187161641622726, 0.12847570100479414, -0.025707421119686047, -0.07630869023468849, 0.12774566326730027, -0.022525621445317695, -0.1658049830848854, 0.0004830783469227107, -0.09463650108875742, 0.050987970074348105, -0.10759837505916446, -0.1271651407622508, -0.15144153061214444, 0.05257297653935289, 0.05324288876646502, -0.11199986657000317, -0.1479430174126571, -0.13926892965188065, 0.08183585730882811, 0.11913823629727519, -0.12306129122884679, -0.09250747492825936, -0.003445006458365374, -0.14866279086584688, -0.028057880232136928, 0.15043770241963886, 0.021132819344405418, -0.1370267163156289, -0.04052159203283248, 0.0895950684570376], [30.58862410185424, -0.08594239922735258, 0.05905902487426806, 32.74457931596304, -0.16397095825532848, -0.06996888736254853, 0.01779803305955604, 30.729430615669504, -0.17110224231260146, 0.06426998905126088, -0.05704508611798027, 30.67496682518151, 30.888923476283406, -0.018627683266136896, -0.09162868712483649, 30.65145088946998, 30.819582089872892, -0.003133103966547031, 30.83373348807761, 30.703366892664658, 0.0930614932156144, 30.795867163330694, 30.631297829154807, 30.88441298504726, 0.10328650556699313, -0.03547546157778492, 30.859967897074366, 30.7943113616687, 30.89580102266802, 30.83782223915443, 31.66199383665749, 30.600555724726686, 0.10478510611322253, 30.60749659556952, 30.723400411739345, 30.67833180585774, 0.1027903928054911, 30.713334872861896, 30.74376900744782, -0.1207107927356175, 30.878664255386763, 30.61761634873, 30.91147402214497, 30.92782803611016, 30.75207564164378, 32.047205125720005, 30.640945986146075, 30.621836737617162, 30.761269476741465, -0.10534320660550138, -0.009209937339431646, -0.004214188834348487, -0.02685026918273742, 30.874686962076066, 0.16708106639112144, -0.1287979701616105, 30.82679443137268, 30.911793472223454, 0.06172947859721888, 30.714840659176385, 30.60683410957139, 30.72049687939033, 31.34335628867812, -0.13031155881022047], [41.16266840612326, 0.0642138307670888, 0.11804392008666395, 43.947433033920234, 0.016053067922766253, 0.01396664269493067, 0.0966051727447882, 41.109609698158934, 0.11579085960714389, 0.05440983418151854, 0.13980799472782943, 41.25650488100608, 41.038970626362854, 0.1466087857171108, -0.12197053867488211, 41.279714866061994, 41.30584721721996, 0.13769315806660792, 41.109672049319485, 41.31984146638139, -0.01887255008671466, 42.00523554158035, 41.23564476593951, 41.28737608464613, -0.0297265102398788, 0.012613040611888476, 41.156571592701326, 41.24265238182559, 41.042590094038644, 41.12429333595473, 41.406730203966205, 41.09136434987569, 0.09644058799269636, 41.09288804686442, 41.33398427048725, 41.29405285630813, -0.0020173110110601744, 41.30538216657136, 41.05831388172015, -0.11819143402888274, 41.42528636926265, 41.156759932888235, 41.21654671079338, 41.13242614818928, 41.055933304309576, 41.3847772633074, 41.28054912679089, 41.29037166519616, 41.244736766947554, 0.15883135160393128, -0.03748905031023523, -0.15120370155029447, 0.12850236237842924, 42.04127694214401, 0.10574217519118542, -0.16093138238531063, 41.18031054725317, 41.13237727583076, 0.10678807661218934, 41.22104071097482, 41.20708734047382, 41.239312053604024, 41.78772442594166, 0.09010666416408955], [35.94873884636163, 0.08940181120349767, -0.15070046007750704, 40.47329188331167, 0.12000292992297718, 0.013350712150917892, 0.038732850548796646, 35.95664203906856, -0.11507117578174048, -0.14137690314130358, 0.06976733316197756, 35.8168108950182, 35.7057553884763, -0.13084783664127092, -0.10243108993267076, 35.93930309855241, 35.97247057038437, -0.1218314624434558, 36.12867310280797, 35.73730874040255, -0.014224932762261088, 35.510930752539515, 35.94235105320856, 35.91288692303579, -0.13451152911175127, 0.04311465601214166, 35.89642142316587, 35.79055879619698, 36.086585723384424, 35.841099885341954, 38.03937081994348, 35.97924201765074, 0.07640373645419499, 35.945262996261896, 35.85924692389083, 36.061779477048994, -0.017398161376041332, 35.83984142936685, 36.02572782110699, 0.05488191028695248, 35.8420053606412, 36.058954091029925, 35.683625893409065, 35.8551431348643, 35.81270876276164, 39.15166983676101, 35.668464557212125, 35.9237957595526, 35.88683919998501, 0.08078180986495573, -0.1771344966968395, -0.1337475097837476, -0.04948151277708554, 35.81609664833497, -0.03376139069784484, -0.09632176713794652, 35.69661350615832, 36.115375080121304, -0.17413037487229335, 36.08931464254116, 36.0060602920392, 35.96363752995706, 36.879288751712814, -0.1499214008630343], [39.52170060300276, 0.1048036062597126, -0.17425574798774915, 43.59239903232146, -0.021304517117724128, 0.10868128034299494, -0.028884911616750594, 39.59370426833521, -0.05828047043688281, -0.07658792461864222, -0.0018733880070253839, 39.44968864417026, 39.55226164234163, -0.12345224565993225, 0.08046535800206614, 39.51311602117338, 39.40445949053382, 0.06540488818815203, 39.394776437212236, 39.4254718896679, -0.05390678448082387, 40.28341155263421, 39.67093438610488, 39.61268183677016, -0.0857317838499546, 0.03349347699864145, 39.663231930738924, 39.54731440307359, 39.337723342179565, 39.48263568930391, 40.543197480042856, 39.47622120640829, -0.1430923387837334, 39.568992832499625, 39.706868474600945, 39.40330632557491, 0.044972830317293544, 39.53161714131267, 39.623417491749954, 0.16188780895219754, 39.640363830598595, 39.61734205370113, 39.439472579942525, 39.520233940812425, 39.4110425877223, 41.297174560615964, 39.63102937863079, 39.38974417456959, 39.57747461208317, 0.04596123905151081, 0.016831746101468825, 0.006596594737099587, -0.003255032863161339, 40.15289016505468, 0.03752763990627009, -0.09003883421283025, 39.758489865092976, 39.62015868596506, -0.15192041363004188, 39.356700480595485, 39.53995173081616, 39.3480599657646, 40.9290861770562, 0.09107749201150704], [0.0025552850364604085, 0.003611153495660019, -0.1323888221930487, -0.17562911320898805, -0.14584779354587696, 0.07527071198229032, 0.052352695313805875, 0.02851411073686319, 0.09925429569635855, -0.04359526243456269, -0.13354510646999804, -0.03746964456277141, -0.010599737031849271, -0.015748385362019945, 0.08380543656482378, -0.04249234516264841, 0.13464172759739737, 0.030465760815276854, -0.014871669989501873, -0.09104313613556125, 0.05984991058743727, -0.08406617206740157, 0.03293300416749215, 0.06724688994852396, -0.14760225804818483, 0.09800437721379421, -0.03267390721876384, -0.10388645404443343, -0.06522807239077627, 0.0019034131499059137, -0.1542856321890754, 0.13457991084854473, -0.062075419315737845, -0.010778090369485599, 0.11642765971700711, -0.10512689739391914, -0.12057217900770856, 0.1483663133517549, 0.093266219311858, 0.07341751539046334, -0.0796005096224496, -0.16761670006496426, 0.17043215583398333, 0.034006851743206695, 0.014601267824909087, 0.033892003992265024, 0.05281468757282906, 0.12263966025792325, 0.12324073339280164, 0.17668781058766744, -0.04608135563785698, -0.10468173649837037, -0.05854111217171194, -0.0051481869255200485, 0.06544946721369962, -0.11436547010801157, -0.1584184342520929, -0.04391516606061033, 0.0796937824379085, 0.12329124483755818, -0.14304611612297316, -0.17263502445211837, 0.11803226978277129, -0.05900033639729234], [35.638695658727855, 0.17201313138310717, 0.10796327137407483, 39.08148105884205, -0.11627769850797473, -0.13291461900613866, -0.005627012134208148, 35.47888570139157, 0.09194199669381362, -0.04244183882777269, -0.16736531367114973, 35.74533106182828, 35.62269461490845, -0.0522310163798152, -0.031000622809100986, 35.677822342813, 35.479638830220566, -0.0691647609929136, 35.68354439715698, 35.53640444876911, 0.025351506536905242, 35.876977281348914, 35.50308778281005, 35.68473174540536, -0.10349729751076495, -0.02464847101825333, 35.46980978300099, 35.68564707714792, 35.629879122610404, 35.69229256794977, 36.69480342843405, 35.51637316881458, 0.05058493156899782, 35.76768728676168, 35.46018799449759, 35.51400525276896, -0.0074440983126717875, 35.74646395406744, 35.50950137553843, -0.13600081917087864, 35.9376091374724, 35.71219534032408, 35.81256225593694, 35.75010077526465, 35.73116500549563, 37.28285557237424, 35.6806011390358, 35.71692614040434, 35.47139212114568, -0.060215340929759956, 0.17125223631768563, 0.026568287680175662, -0.013957445609857344, 36.06757758506091, -0.07296608481484086, -0.07937702768719627, 35.81056252300051, 35.56803978518775, 0.06965705289096054, 35.739398916466605, 35.53170627867064, 35.43775883151159, 36.67325748745669, 0.1714148754591182], [34.27564873442495, -0.006055769239180948, -0.04237293207372958, 38.03174891803587, -0.1267116268005623, -0.10390069729243338, 0.11683689600819358, 34.08179897448656, -0.11451116085058491, -0.13501170335188478, 0.116501095936382, 34.43769831003719, 34.38523339949015, -0.10837434788890979, -0.006673392053637706, 34.136771249363505, 34.30372891624532, 0.0765695164674139, 34.44555016775756, 34.3935470907053, 0.05564468477542084, 34.100834964694286, 34.135416892124084, 34.15781045466791, -0.13897031360687317, 0.016286416429337716, 34.380660336371974, 34.056745522288566, 34.366802716434336, 34.45249105928349, 36.32017622418715, 34.389799809383206, 0.02538707541921839, 34.47215407031102, 34.26176214412426, 34.25950249358179, 0.1501977236419151, 34.21707638174101, 34.321974539784875, -0.0053593847657991455, 34.41317094115122, 34.505811303039636, 34.16703693105384, 34.402947143192804, 34.146520983411676, 37.10893715132255, 34.23820528476732, 34.2724793919602, 34.47427099103325, -0.014794601203834662, 0.06829352691751564, 0.10924037877836698, 0.17421662817954722, 34.28060838810153, 0.09499754216593578, 0.05045845668110652, 34.15367843589897, 34.34999388655997, 0.103650844353077, 34.29210909032879, 34.470799756311095, 34.1474881600068, 35.055826992293674, 0.04299233176091356], [15.931557027903521, 0.02367042770483882, 0.004646706943284895, 15.988749317371761, -0.10727063783774682, -0.10780432223985367, -0.13660447194138314, 16.08553456268738, -0.07755882340780469, 0.12424819381272637, -0.027091743176726246, 16.01502267605284, 16.078477519793232, 0.04667331379990328, 0.17583013067006945, 15.988694744869166, 16.15746753397202, -0.09458696786410616, 15.956813808432836, 16.023888631691467, -0.05239622787165441, 15.94167014065121, 16.251542475447547, 16.17559217069689, -0.04314147667419352, 0.06607820892474146, 16.18965138793391, 16.0324308238081, 16.185303330629107, 16.17125437159427, 16.0151006693076, 16.23198741256819, -0.07917897388442756, 16.04462331429945, 16.00102880933237, 16.169083263047444, -0.05719800048600687, 16.25626361045401, 16.121271599381668, -0.1656532035348932, 15.916423272466753, 16.167615519549432, 16.118753843102823, 16.118419504841253, 15.978729619135551, 16.108285334261044, 16.034505582713944, 15.982853225754871, 16.010722896582248, 0.10782423387662846, -0.13093742774213604, -0.08584422038819538, -0.1378815404306482, 15.954957031677074, 0.133678196604291, 0.13957992422063462, 16.081348619064137, 16.017520523724656, 0.04536593038460369, 16.158216291739453, 15.937433107893563, 16.245939727728445, 16.16240351271639, -0.033679537639369816], [0.06325593858675191, -0.04455101388686411, 0.04063767317355654, -0.08027662628842243, -0.17389273038436512, -0.1345520742694915, 0.0774274296297883, -0.03327097014827046, -0.008066837982127095, -0.10472160906032092, 0.004839680172328803, -0.08833091168543472, 0.15170839990836418, 0.04054206300450891, -0.07661516066656927, 0.11354698282345052, -0.049283707902382096, 0.1254334841665408, 0.07815279702536906, 0.03402531498311276, 0.0762055987447802, 0.04645329968022194, -0.08672959451099857, 0.14527641229150642, -0.11883513844411098, 0.16187085988675295, -0.10928326208575344, -0.08225506109338088, 0.13909485543399233, -0.10539254468446689, 0.11657478886701886, -0.023725910995156085, -0.08443115974574895, 0.10781001562883177, -0.07190517671210091, -0.06386554616895496, -0.09339110151426042, 0.12114834262007038, 0.07225852164021618, 0.03366107491767903, -0.052742694027902076, -0.1091553650578657, 0.14517609875035978, 0.06698316900360654, -0.07106112358896388, -0.03111710435993073, 0.029693016563063446, 0.00437643252420461, 0.08778873986567773, -0.07153140698681326, 0.14142313230316242, 0.10977912227668882, -0.16375203298206387, -0.019003080908240294, -0.11888425051469279, 0.048012591930808146, 0.056330497982868294, -0.1459506062379543, -0.04924063012391161, 0.0233832656543512, 0.06008475897033222, -0.1396256150093051, 0.05178616890298551, 0.06675282176878108], [31.412321662121787, 0.04432015022449376, -0.046791349940638854, 33.80101353590563, -0.026453311775216377, -0.12839485286037758, 0.09254482861323632, 31.31795941703238, -0.12586776990421875, -0.05612539793162846, -0.020832180049817905, 31.456084145221215, 31.410095033839294, 0.15509378922231734, 0.14766007754219687, 31.3580559217186, 31.14755397285585, -0.039695810727243715, 31.256693395252636, 31.240115429116674, -0.031209056139041482, 31.342997517928925, 31.487993043896385, 31.428629357795433, 0.051249999065522786, 0.07209965261241397, 31.380225003840504, 31.420885169496916, 31.471801650811084, 31.27563053315794, 32.636104265724214, 31.424296700838642, -0.04194263341404694, 31.483627136945916, 31.376122917852964, 31.172513010895887, 0.041364722381334235, 31.259672498172005, 31.455944011959144, -0.06902653203117855, 31.29422595454788, 31.179178765968945, 31.355408120573816, 31.180511929070722, 31.22808996499784, 33.0476836240606, 31.218041531530506, 31.451431419589188, 31.23401916332146, -0.1226643892409318, 0.09054070505668282, -0.04757506542178927, -0.15638516330885863, 31.420266005455996, -0.14753456040513926, -0.0411034219411959, 31.458837388218438, 31.428364577255888, -0.015864629958185644, 31.411296924340167, 31.19679455988241, 31.309579465224477, 31.787310138382924, -0.0018716935945458047], [33.579337025820834, -0.11126500969676388, 0.1757139756635225, 37.05861460730543, 0.06640415714663345, -0.1565584220816808, -0.11306247747784165, 33.6998084554228, 0.1490583767509198, -0.04678114041334222, 0.06017523964863686, 33.40373691475325, 33.68220917696786, -0.10992659084802499, -0.12156105969852171, 33.49720258176717, 33.59165178487035, -0.18144755719639952, 33.632189542962124, 33.4775795139782, 0.13855121949853133, 33.35284817277618, 33.575072735226456, 33.46492753909595, -0.16327348922639218, -0.012368720044469617, 33.63881642200937, 33.321247115851264, 33.60009226953525, 33.75408918026838, 35.264356210300065, 33.56284488935057, -0.12498722418266414, 33.453969689531604, 33.385933854027726, 33.546553156563704, -0.10212929414751944, 33.71979764562727, 33.47066787306386, -0.09480391712740793, 33.65055233319195, 33.64220463809053, 33.63103648530348, 33.72014450955491, 33.56263352518039, 36.10737262741799, 33.364388722168215, 33.425379444797755, 33.73846854408394, -0.14532660417595958, -0.06784942107999674, 0.0034518238123028566, -0.11591084013672233, 33.557322039545, 0.03772418067259456, -0.03292107740757272, 33.37481224014907, 33.62584886674699, -0.17752931242756273, 33.61071052034424, 33.52766195653301, 33.51555870439185, 34.35603905895883, -0.08096939909866539], [-0.07321532449589423, 0.11660443613348684, -0.10883108003012738, 0.16647237700744486, -0.104996085383914, 0.08038399340461458, -0.06702048962802523, 0.05568716105284929, 0.06598863681353806, -0.1300061497849078, 0.02294090379552549, 0.13027439046366293, 0.030648422187109198, -0.08557512867055657, -0.030643813023292138, 0.09757872422594685, -0.15667456973846805, -0.043520530308351596, 0.13412683143114676, -0.10150794437898242, 0.01761766750795088, -0.1586581453975405, 0.034306693964931995, 0.09604494825818058, -0.03802048956233864, 0.009217678475070656, -0.03883240634055668, 0.12386183290796585, -0.14271665508949197, 0.0740921226047305, -0.135376166652956, -0.025189574230941453, 0.13408192373315583, -0.12890200471023924, -0.11525025118007948, 0.16817808028308465, 0.15542733757778301, 0.15894522150235238, 0.13634910610424825, -0.10307426649275302, -0.025140847616100304, -0.15778718794345983, 0.17299015975252427, 0.05197706232911764, -0.12792451439676505, -0.10976079174532646, -0.15463843102945546, -0.10755102014678684, -0.16759587669592058, -0.05488169563991449, 0.164299475359286, 0.14848943967275433, -0.01190151668415998, 0.06547180171462189, -0.10797491667562233, -0.025314686851840823, -0.10771619313322268, -0.08537446899987008, 0.07776770256042595, -0.17268542730941377, -0.09466721007103408, -0.038451895873574865, -0.1240917494037398, -0.11738848165902761], [33.212421615034025, -0.0019459764646790987, -0.029797568825155746, 36.41556394453006, 0.1548983502441096, -0.13291642670598205, 0.030922075318933765, 33.06655663577103, -0.10174160764751412, -0.1488623798170647, 0.11619022380997787, 32.9452413419227, 33.030083993903254, 0.06852005058849939, -0.13526151958369748, 33.13252197661338, 32.97677024797296, -0.16003099903323598, 33.116169205367605, 32.99345935310843, 0.1644177484362578, 33.030097637403294, 33.07891402125008, 33.223034793961595, -0.12362117738112965, -0.06907575487451595, 32.98001657307379, 32.96714167786002, 33.13057251902112, 33.11870698178455, 34.760336048498864, 33.01991535791367, -0.15664479072615625, 33.272757634623964, 33.200692945986965, 32.96169190389252, 0.1046062099116856, 33.130508631589045, 33.07921517382574, 0.10035855639448621, 33.13288393965362, 33.273242508453045, 33.196296173437524, 33.27637560557418, 33.015699620385014, 35.23093786086746, 33.113138794905616, 33.102989986052854, 33.19511107213692, -0.01030417695550509, -0.10921648268077667, -0.049876663239428604, 0.02620922802544659, 33.17971603684396, 0.008080755325491601, 0.06524383197332714, 32.96745733352825, 33.15927953146279, 0.1617304374408962, 33.12595339438993, 33.04271237140136, 32.969445414379884, 33.79636388336588, 0.09175766169462005], [-0.04870000073580075, -0.11160774282850716, 0.12079529395340574, -0.1400370377554772, 0.05204546008997557, -0.132352185886789, -0.04677797514282872, 0.17566891001982646, 0.09707258279350253, 0.08900593696753892, 0.0680687928054832, -0.1469643157796786, -0.13087229600224592, -0.08708861116957939, -0.11371790415270493, -0.095191922532848, -0.15182988347776136, 0.1546344339590863, 0.07584247319444645, -0.04434012985123137, -0.08982153924073025, -0.15637133136077971, 0.12429522943790802, 0.0066156851697593, 0.1065884560782008, -0.0871151483052891, 0.09574211148172176, 0.027088240944939224, 0.11005119637219965, 0.10950570970403553, 0.09333702659890056, -0.0036387718780685196, 0.055210578924004966, -0.1552673521677237, -0.07549716628813986, 0.13070804893369478, -0.019210129134347137, -0.15273005203922718, -0.09123763299774192, 0.0994027761774389, 0.11384806171464648, -0.004927192355906412, -0.03186657578905294, 0.16037705140784134, -0.12079835971303203, -0.14232125815229635, -0.0506263569221157, 0.11903261774426657, -0.049258170479542146, 0.04957615867466278, 0.11745073912825457, 0.1299922675248095, -0.11452374309700597, -0.056771253731547136, 0.15690177213965642, 0.0280005897532008, 0.11460441210842712, 0.05123708127589294, 0.00292830948140152, 0.0730614895729205, 0.12443945770750173, 0.14843814405595743, 0.10375225292893389, -0.09568432456629747], [-0.16224717084971751, -0.15657405183165313, 0.07648378422021221, 0.11690275209156384, -0.11618483307593587, 0.06396744017225642, -0.025791653729366232, -0.11046741014242929, 0.02679957555519849, -0.08032553015393444, 0.13697484179836303, 0.1304907568244749, 0.04099468190801753, 0.07336802658731748, -0.06700340248769852, 0.08432406949819457, 0.03593996235302685, 0.01829103472079366, 0.008619838698540883, -0.15921267569674416, 0.009263649608034358, -0.1669804153314424, -0.0382661683194378, 0.03738793066844559, -0.14830104288524493, -0.1197675958557996, -0.015036737231624048, -0.14397507002837756, 0.13118811920601844, 0.03207169101620802, -0.1118045566375433, 0.06046599612239151, 0.067118272807531, -0.03100967597931814, -0.09985558299372709, -0.13265457135956243, -0.07822365322177577, 0.0055835887881215684, -0.07409143818743791, 0.11197710640721523, 0.14972697813675215, -0.06887637984102242, 0.1393657789707217, 0.010100323102728681, -0.10617835551722513, -0.0040600598095467955, -0.041040742766259714, 0.04947175409009111, -0.09648977718170401, 0.07577860007124662, 0.036334033725380216, 0.1485885874370306, -0.10412848432103707, -0.1539879739384794, -0.12441298725518286, -0.16136261448712844, 0.11631324641230004, 0.01668650867253879, -0.053801693797975295, -0.04150014214289302, -0.05862717976784601, 0.031355614342335136, 0.15321008158976449, 0.14021658086968122], [34.29664654805981, 0.05472682390087363, -0.11341575432284091, 38.173088967033934, -0.10043890207316375, 0.014447851357285822, -0.14756938728251942, 34.37550393984701, 0.06524718955917183, 0.011580821056371926, 0.1378614205264592, 34.223663639108906, 34.323295125940035, 0.05765343697412151, 0.17589007413792254, 34.445832010482675, 34.338399846456525, 0.15828123914613348, 34.4489937163804, 34.42218455373717, -0.0938895106860678, 34.40157400750506, 34.30327372924252, 34.41099527927112, 0.02755838456033763, -0.052199387823637054, 34.397779787603085, 34.17339103193244, 34.39676488800153, 34.50712364440581, 36.16774800930801, 34.47731850059672, -0.010944000021015171, 34.54664445628296, 34.32626595907392, 34.595183285189435, 0.0030659593494508086, 34.28610034264341, 34.360731996030054, -0.11288106450997284, 34.47323390356229, 34.54844378480486, 34.23651528382345, 34.41718194226647, 34.33848180444339, 36.99139560731939, 34.420983120439374, 34.27605503632341, 34.30189224798279, 0.1312900652700091, -0.012012085121599675, 0.1384167028244759, -0.14124764645322835, 34.29672873964215, -0.07742297129638351, 0.14230264201171525, 34.25886818022629, 34.472096805394685, -0.026990243402633347, 34.42221966300542, 34.478384510026984, 34.482582157302616, 34.982734473509154, 0.008485912275739443], [31.50536697805325, 0.05822503911936635, -0.007400781801249284, 32.164032524156525, 0.10758718510251696, -0.13888291427176952, 0.10727094757720608, 31.53701589723786, -0.11875113581492269, -0.06629621294653634, -0.04404487987155087, 31.452317416562128, 31.492049049274424, -0.006133006585664125, 0.040571680643844255, 31.773435949911498, 31.674223480763676, 0.024950361496476732, 31.447592289578598, 31.656406238096256, -0.16288000126141783, 31.927726398697683, 31.514377299074187, 31.583487200626795, 0.11087007745193009, -0.11865055303082636, 31.61938930379694, 31.577660764613665, 31.51049988475786, 31.510732405145706, 31.567933319425197, 31.479467060512842, 0.04814756955666383, 31.56999295732758, 31.771782779305564, 31.729972764805314, 0.05104279054245092, 31.763281589473305, 31.48840515961695, 0.11011370652789224, 31.563110293393496, 31.586672431720746, 31.538721082937588, 31.535045398890606, 31.567040918619984, 31.51792365890198, 31.722937524589607, 31.555052161732664, 31.752432333840833, 0.14286448562981538, -0.11962266129389645, -0.14788006988368535, -0.147506233378878, 31.97668020287102, 0.05762911460860015, -0.08122784340494481, 31.661419781466126, 31.54453346291942, -0.03791836500013493, 31.55912940461707, 31.729138685139564, 31.580153730802923, 31.89828105392824, 0.15559469643487153], [39.2539211256224, 0.15309995022194667, 0.16146939352738068, 42.85896999964267, 0.13541882581474038, 0.15809112715831333, 0.04079788266577158, 39.10253388622348, -0.1239940243067366, -0.05701709724718343, -0.035251805150810306, 39.06068625517065, 39.25302270530911, -0.14497571960168543, 0.023916249276071222, 39.42154746328187, 39.10080797113632, 0.07136865835869707, 39.27899135299995, 39.25544830683023, 0.08717893505277378, 39.75006777633979, 39.09044424941915, 39.166508938504094, -0.06422393909529216, -0.07420410569425821, 39.173606938791124, 39.17414514275151, 39.09245816523995, 39.3035694185007, 39.89501456509164, 39.117537837675144, -0.15464527705084632, 39.366598130096904, 39.23809181034201, 39.1323494887005, -0.017525312298042495, 39.35988512608624, 39.11451623872482, -0.049680495372903324, 39.46317950593517, 39.25943195051143, 39.37925425191298, 39.08468923560365, 39.24291156690491, 40.501422461369984, 39.16811354529273, 39.23322307124509, 39.247607273967645, -0.012181306847118045, 0.1295927873091792, 0.06640861569516876, 0.13764166892007998, 39.88204425191118, -0.16990613657478787, 0.11024290745971269, 39.34328044560466, 39.349635502445665, -0.034875919508409195, 39.37020822409279, 39.152338615187176, 39.22403557660401, 40.22211138998422, 0.13439472698579386], [-0.036321282488602565, -0.018094754478365793, -0.08010722853281109, -0.11807006052417102, -0.018339962571874414, -0.07367436321102186, 0.03864418106562107, -0.0992475149185483, 0.10307313436156354, 0.03720232480114005, 0.11454982560217539, 0.16935380865040978, -0.041235316142829215, -0.15473062154891717, -0.15492237292855784, -0.15198695045798882, -0.173381045931182, -0.04976248917906645, 0.04025085990614518, 0.17726584869561246, 0.1226959762289042, -0.010872259158740787, 0.08390366165790951, -0.009078761449129006, 0.06894352292572173, 0.10241305455290237, -0.04932251080382865, 0.09880353523228555, -0.1337095530848551, 0.05986042939489195, 0.07799766747024103, -0.06962917646396757, -0.15553394795926687, -0.08852233023145965, -0.014358970500083607, -0.042807418527064725, -0.007918490149428636, -0.07745972523989503, -0.05854399742085935, -0.10239403628944846, -0.034174602415213674, -0.004663523600757337, -0.17474348469215548, -0.012000805960628845, -0.07391619430714347, -0.05637312969571272, 0.054151427625555915, 0.15019399607788217, 0.17524922263323356, -0.12579322336778737, -0.012317243219255258, -0.07324308315438123, 0.09403383142533253, 0.11928957112705461, 0.10662113526775199, 0.1570259789295904, 0.00474714449047282, -0.15169520566994227, -0.12581790367531165, -0.14223508726396838, 0.17173683732054373, -0.15441291387777625, -0.07209144697292502, 0.13091781535209787], [0.14744493608483306, 0.013872206847546698, -0.10031638601942197, -0.04916192529784042, -0.0594654909139027, -0.050565786383450946, -0.0985772391939038, 0.0673441237086516, 0.09256499027639373, -0.15378623271708297, -0.13140617429894905, -0.05986093164812873, -0.03801110961374083, 0.07268534537220422, 0.050230619404826066, -0.04062188150828976, -0.01603593642023389, 0.08730194322924296, -0.1438856452344702, 0.0761420706503435, -0.14980105440475341, 0.12709046804030902, -0.09151607917610725, -0.09914287765619688, 0.1227399276214152, 0.03405970638360233, 0.11049591528697895, -0.12033749266729242, -0.09962483649274585, -0.05567315067959185, -0.028571410671838028, -0.021338304783557173, -0.0723336344964655, -0.14511396733077805, 0.02930735985858727, 0.16454425588620428, 0.15865102515572252, -0.1672726457213198, -0.013227380544973244, 0.11013495553178801, 0.06474665137022927, -0.013350845675499875, -0.1630222265633543, -0.11263903615324754, 0.0991828976268221, -0.10516917008742765, 0.04483130653234876, 0.15997275362046323, -0.15695253064286938, 0.01945368899655392, -0.050080338082663434, -0.1521062011952948, 0.017495501721894346, 0.0036039648365373753, -0.07724645649382034, -0.01743211760808236, 0.14191547705975904, 0.105099131888463, 0.1356994618449923, 0.14814902168890431, 0.10881164743908593, -0.001968241917213312, 0.016976806160758404, 0.09099916313505987], [33.99914709768542, -0.09776173759139144, 0.05221851518680895, 37.74308362120979, 0.018821721100947028, 0.10107210489769217, 0.12576754067556378, 