{"state_size": 5, "hidden_layers": [128, 64, 32], "action_size": 100, "weights": [[[0.2093339707244002, -0.16532461698114492, -0.015502589378022347, -0.010022618873582878, -0.03211253901119086, -0.1958971055790844, -0.09319575059554037, 0.13987586281922101, 0.07781883169535345, 0.19662072515932302, -0.15765799556959728, -0.029511539294650085, -0.20155392734100544, 0.18153543549604062, -0.16917799331720765, -0.17478512835191073, -0.1568728689087003, -0.013927715846710459, 0.21836407052841597, 0.08603608639688694, -0.19135210669009364, -0.13749798867263338, 0.10823052009276582, 0.10394764933015473, 0.09540995680495751, 0.09673189352035799, 0.14626911374899476, 0.16307330433948738, -0.012923722861209214, 0.05666150204423079, -0.07409415469798535, 0.177168255519403, -0.07946181502329544, 0.19877784614072996, -0.05894841361071616, -0.1932904759400672, -0.12092729087828394, -0.13969788437462893, -0.04208125369149038, 0.2047686534687512, -0.0844310496361278, -0.10004322975429045, -0.1630640309111298, -0.18277112109156068, -0.20715843793863095, 0.10851888067543485, 0.17239278350123788, 0.2219780939870498, 0.08468343008205237, -0.09959505167843904, 0.11338976061339719, 0.05849456651756302, -0.1511498211436731, 0.015191306557588075, -0.04695065817217453, 0.14153945786263383, -0.1130495849561649, -0.042362208993561135, -0.06736778638615448, 0.023314787531218517, -0.009670308201310042, -0.05453368378480947, 0.12465546886701553, -0.08124991739545247, 0.05716025846767257, 0.13788482230341811, 0.009776746669554914, 0.03722082341124858, -0.12310951410412574, 0.07371840818452462, -0.15970005317007901, -0.03285410095336453, 0.14918031823249542, -0.19768990298526076, -0.06680788751273783, 0.1256887510763625, -0.12107868394936967, 0.09533116776184826, -0.009136656187358474, 0.2040616656287406, -0.007127148050653824, 0.10269984569803761, -0.14760029055328455, 0.1792396527092448, -0.2039865418002538, -0.06575980439631791, 0.13158968118294215, 0.1611935758160241, -0.04366470006562126, -0.04019642148855444, -0.03481287883391046, -0.12702434350873054, 0.06227368955265879, -0.0830431438515793, 0.1390760930633686, -0.0007592773657496509, -0.1260815096462304, 0.06590261505633144, 0.037996393144872236, 0.1310453592325517, -0.14342734179657587, 0.061062423175516176, 0.005597398548892574, -0.09036606716885125, 0.1870950460218872, 0.08908000294072387, -0.013704566414268371, 0.02263465107264498, 0.18448957632656032, 0.07837795584591625, 0.02051763577530072, 0.06061629943579367, 0.14566688269562572, 0.07362175811785623, -0.18719659841706404, -0.09351383619039225, -0.034037274555247216, 0.07952869968787098, 0.12689916271680454, 0.014426352845849928, -0.13645282504208722, -0.06695987825026284, 0.01985803784829704, -0.0024129762125938764, 0.2056226408780643, -0.08313758078216749, -0.15394009184542534, 0.2120220079442177], [0.056321546902892365, 0.15880104354228722, -0.11183319473889403, -0.13151394347324005, 0.06369049860180016, 0.12385885668997118, -0.1305743438244318, 0.08371236837806198, -0.17288910405788385, 0.11318953173838278, -0.04804469123432743, -0.1758300605574028, -0.012628612748051243, 0.025334084181132734, 0.021245774335052252, 0.06756966853671574, -0.2084127781916408, 0.10898445264982229, 0.21299735428942992, 0.0590873714634097, -0.10962505702158427, 0.006304876451325353, -0.207431556731459, -0.19847681885655213, 0.048764921149113134, -0.09910481077540655, 0.012030826848676493, 0.05909307572787563, 0.01562824010406627, 0.023778568774255715, 0.17443758506888143, 0.10510589287895006, 0.05068200481625268, 0.15606010328846429, 0.18330698594928158, 0.12986341792799555, 0.05509534051217982, -0.10076395534996922, -0.17913153622440206, 0.16883839402030476, -0.0005354429182924114, -0.1087517389943992, 0.1360645075662704, 0.12181389739222367, 0.1016687206630442, -0.04111149454721925, -0.11260556574884045, 0.16830346044205088, -0.0783149143963004, 0.1758570452483332, 0.025252442177853964, 0.08959741576443868, 0.07792213859850693, -0.011751377520834827, 0.17911503851222296, -0.016154441527238394, 0.19792024522760596, 0.13457832366018013, -0.14242899452918995, 0.010568461081586822, 0.027473020142263806, 0.08308649902597603, 0.20458456565132843, -0.06479002714054247, 0.035055989847127315, -0.08971986293836667, 0.07925262366013, -0.11867425725081245, -0.08727816197546374, 0.1649981458409293, 0.05144779606660938, 0.07740643839559103, -0.10622842518611887, 0.13234650027446274, -0.17959519749152572, -0.06805808944755043, 0.0628867692585487, 0.10552349129413074, 0.09739100065960288, -0.15793432951793684, -0.09805332368014938, 0.051699435312580366, -0.05161854217944911, -0.04731143110114301, 0.14656985526696203, 0.04598818272664151, 0.11653293505307474, 0.05090404834492413, 0.011944405518764661, 0.17138293854445097, 0.11114540482768384, 0.19920334539477533, -0.14250659505878627, -0.08577079741795453, 0.09780057091272608, -0.15911884760616343, -0.1420186191813378, -0.12356718909928763, -0.12750640571980665, 0.16467540842288514, 0.17780798755001073, -0.18257346503207827, -0.14652974552675282, -0.08766568462218184, -0.024936808229426743, -0.20934027715444686, -0.02778496239434108, -0.08866213562409775, 0.1813115599685372, -0.1665589279843743, -0.09234498994699347, -0.13594362371397686, -0.16985998013170492, -0.007400702318638017, 0.030184982973056, -0.13218993969366943, 0.11655867932242514, -0.014456249543271077, -0.09902160261821684, -0.1069167142713948, -0.15351546398670488, -0.12067217133676261, 0.09447956852339226, 0.17829071023805476, 0.15583156485739116, -0.20285943034267842, -0.04071682698588864, -0.10568396361831], [0.09572856792605278, 0.2147593958271153, 0.14605576918889798, 0.019552531698960034, 0.05519004213002201, 0.19662626959822835, -0.05960414771970868, 0.14217836603830528, -0.17270586858127723, -0.19647020556499062, 0.1951036589057348, -0.19275559543481788, 0.045941716784317715, 0.16381300259686798, -0.032605728997838666, 0.20301628897346635, 0.0899029534550501, 0.12576175390518363, -0.1968155959080719, 0.09758051411489059, -0.05922374163677366, -0.12161326599488236, -0.20004844785898226, 0.17628786032301796, -0.12629162370717148, 0.18214891524851046, 0.12518937773300326, 0.1656520852149717, -0.1101121341617554, -0.20991460186620514, -0.02944012828100841, 0.027011784366255634, 0.1511480414939903, 0.03870636214838076, 0.197195407068702, 0.1645936567313556, 0.09948336931213905, 0.036577748714572644, -0.17437080183146192, -0.18962605198366772, -0.15828293775526078, 0.15225838571981634, 0.13598940599736312, 0.07981949651734685, 0.08640612432449143, -0.009847887168850274, -0.006979997097874075, 0.06543625429106568, 0.05855372337528003, -0.14456083834734287, -0.04556622256760295, -0.14499358225638834, -0.06265886867677974, -0.20677259172607007, 0.07685047530380888, 0.038590389844682285, -0.014484771609866554, -0.003514169294002402, 0.060497566572729394, -0.08815599053648485, 0.06460060438997921, 0.04259786719360491, 0.16087516929540704, 0.06396011985631518, -0.04719369714628232, -0.06907480417409055, -0.19758710825496117, -0.18940382187702046, 0.09880241142985377, 0.14858609941480147, 0.09659951832833812, 0.2163199176426377, 0.08784929164477681, -0.09706477823371616, 0.15993357012271117, -0.12075506714348583, 0.14447502404724114, 0.19578711431749252, -0.060123119273769295, -0.05435963513166105, -0.07140565805793228, -0.17981341982570817, -0.1675280751136562, -0.01004349271793731, 0.1545674208716552, -0.09611363093494102, 0.16067708243514733, -0.09607015935591844, 0.204728884178236, 0.12651809025730407, 0.025273988624107745, -0.21193683601979355, 0.2191345643772504, -0.061483307957112945, -0.01854346971827083, -0.16523431121603985, 0.1000625773402161, -0.053263500921594625, 0.1443553415516552, -0.07385561039698513, 0.03945717421919043, -0.11989557314787436, 0.003939402029294936, 0.035060508553231035, 0.0032385760951239473, 0.058699074462745686, -0.13730121064849288, -0.20951312841598396, 0.055198580473147206, 0.09969888165825785, -0.0804098254411903, 0.09389637629240905, -0.0789299011978379, -0.10695820546928801, 0.02652416468263829, -0.16364819631174013, 0.21100143505573882, 0.15148846331307741, -0.030214181281738826, 0.15556454285309546, 0.07955519080220422, 0.09162250710436075, -0.1693274610975425, 0.11942372394885326, 0.04400705447016109, -0.07706909602066965, 0.16110840488155145, 0.2012610604367303], [0.16619582238590488, 0.09781748549315074, -0.20962753306248927, -0.06876368745088549, -0.1256177321046638, -0.1506953008931422, 0.04211877810777123, -0.2167654285005716, 0.08750264483832687, 0.08350010621320193, 0.09142313245282874, 0.12584252754645867, -0.19158138770601005, -0.16602176330889637, 0.0897355004702149, 0.05583910017813977, -0.011597294911802966, 0.02326798627470743, 0.09203381326374853, -0.1808749951217975, 0.004396467868061804, 0.1447494061706757, 0.20268957669319543, 0.11105588555457223, -0.07443563784167245, 0.1597734914793365, 0.15426241379523148, -0.07454898692207672, -0.12548137234825735, -0.15497611118896304, 0.1507697947381572, -0.11965904822499221, -0.039464604524773496, 0.012956719195707922, 0.011222576346028672, 0.14939845329561208, -0.1488617122451104, -0.17687129566493398, -0.019533114228358378, -0.17181592807816723, -0.18782434572512374, 0.1655749044997182, -0.10520813465962639, -0.2105895158570538, 0.05189212365885906, 0.025741151319975727, -0.09482600900006687, 0.23557715919560887, 0.07288660711027206, -0.19548541038236134, -0.03549263906485239, 0.23700360191781086, -0.10229106031830064, -0.18817776609804696, 0.1483469921596444, -0.012819233980464171, -0.13551933873905506, 0.11362802100258391, -0.12112562481140372, -0.14230904790235405, -0.15799676689009604, 0.028894294820086198, -0.01144342002246126, 0.11564891115341645, -0.13495114323852708, 0.10295570256428416, -0.0782467323944381, -0.19233446382810546, 0.10985508858851498, 0.08183433944511939, 0.010907670608113573, -0.14585511982447819, -0.19104914153344868, 0.10386081918723308, -0.19060620428469885, -0.07887863803781402, 0.16699220506313855, -0.1612128478050856, 0.15177371764435382, -0.09779935062560345, 0.1935536423651431, 0.1297454796447301, 0.01353578831037483, 0.04490666534802569, 0.048134409404810195, 0.16510661742519595, 0.029963194226314226, -0.11153338921843825, -0.19373499922671392, 0.09332672837652183, 0.1469059428692357, -0.1638619273086359, 0.1484626963761449, 0.014710687959265185, -0.12370087995051328, -0.09374314706977094, -0.1833264554801553, 0.006648319713122553, 0.20172553732089715, 0.15885017438001725, 0.03535035489515435, 0.10624830675108866, -0.035872399709662356, 0.1458642276795552, -0.009506771980979234, -0.10127072786273597, 0.08873876925734728, -0.1505697050614912, -0.10354001625387625, -0.086385965946026, 0.06813329856894855, 0.14585233216370055, -0.1904709939690673, 0.06987204632051502, 0.1918148405806833, 0.08859056506440935, 0.11904047068693316, 0.12968796927306486, -0.1099734777199135, 0.15601858271741487, 0.1874475098452842, -0.1551042561134671, -0.19463809138755797, 0.03981154109516112, 0.20061739564456774, -0.009106767983304837, 0.1485819709527078, 0.21512391085284932], [-0.1785207548022496, 0.044662440824976335, -0.05132825533535465, 0.0031821960100487973, 0.025303111454284412, -0.044024351873071826, -0.011966403424834626, 0.11419566460529866, -0.11307584488412058, 0.10344350794837846, -0.023234547393361654, -0.08454456111735809, -0.15671951219979371, -0.1501486695605375, 0.20335630156239876, 0.06536972405069032, 0.11024746094338846, -0.1347019959347162, 0.030401282908581125, 0.19431202359783753, -0.15061060483808944, -0.044252020631738775, 0.08900228445001891, -0.015745537570473228, 0.24609640744852337, 0.21542043884916637, 0.19477889668983162, 0.016991921825785933, 0.14194281920844665, -0.12067209242469171, 0.16766199278386087, 0.02284932320583726, 0.08871613009386292, 0.012979631685703909, -0.18316181355638406, -0.09528603750649461, -0.1266820377784419, -0.16243410000478103, -0.10547526778514656, -0.12470602735786807, -0.17597056400511618, 0.18244507228502818, 0.21617215867780185, -0.01593490975472145, -0.15924862658789932, 0.11178245957871641, -0.14567772061432838, -0.14352442408894187, -0.12638333750150488, -0.12640099640694136, -0.12808773259685247, 0.08845689629683486, 0.0793208114679821, -0.1788226568472726, -0.04410671546119941, 0.1879552658653877, -0.021285499962800436, 0.11739132220121044, -0.06311261451440509, -0.12320609950717944, 0.22817311705630142, -0.09844118965712732, -0.08199529734081487, -0.10062696924386265, 0.12558251883818955, 0.10208632922038785, -0.11374342690152307, -0.08481127980925371, -0.07186566953900042, 0.08035728540560294, -0.007584456998421592, 0.10053492453756115, -0.1601501703988606, -0.19111765311803283, -0.13121283430841446, 0.21183947111587204, -0.003831087340035281, 0.09964925559674265, 0.04320224011501756, -0.10599957589920968, 0.21316786792396167, -0.13371212907677654, -0.06839143566538158, 0.13324706760700408, 0.026611670945686398, -0.05086132843589882, 0.20224048419941373, -0.08200058421992307, -0.0858422973667782, 0.1384034822217962, 0.13810301199203914, -0.16436023003196926, 0.10540271875409059, 0.17151514842007845, -0.15144537893922555, 0.19414292965405092, 0.202769662993146, 0.02068407200713067, -0.06926810861617642, -0.07703980379015904, 0.1355963382390992, 0.1709039875495036, -0.13829115792001198, -0.14562936673676502, 0.047133548347445715, -0.08254545994829356, 0.022661885491926208, 0.0003974368693937146, -0.04669043001290106, 0.1898234361973265, 0.07876414337193302, -0.08151389932430411, 0.1965843470459883, 0.1765004947262073, -0.006548852378624492, -0.19301990014348974, 0.14893796892123115, -0.13647870071056112, -0.0627161245031731, 0.024257935199992493, -0.09278057070231459, 0.1491796039113823, 0.08570471141731387, -0.16464712033762377, 0.058263103085600475, 0.04376093425406126, 0.21995289050340094, -0.005874462799062365]], [[0.12495502266581666, 0.11092240571708593, -0.013107502873844129, -0.006608125704971017, 0.03200636202771933, -0.12623453019397157, 0.1073022437371445, 0.12584613470016479, -0.04606205236198116, -0.028618483477539564, -0.019155926716906496, 0.05690364037714482, 0.058548984745826274, 0.10471105833385566, -0.16076532464516963, 0.16424776611617783, 0.047279378242622676, 0.01881239888910502, 0.13926415340888956, 0.13980201656215535, -0.09919295523038806, 0.08742236581626758, 0.15835481813645377, 0.1413135747985524, 0.10138227989399393, -0.0616410531685712, -0.05358789857002162, 0.12569007333138116, 0.17273333826769283, 0.041612639270586435, 0.08408550669826524, 0.060230305014476695, 0.008540791917622192, -0.035522136329539586, -0.09189608442944966, 0.041837506446182185, 0.14298463643221596, -0.045287228724356345, 0.04563191113651563, -0.06785086458083289, -0.10334127474552517, -0.08955472923310466, 0.14234420265506809, 0.13877531606252672, 0.01997175019864257, 0.13364034076157766, -0.07301402747756017, -0.10227832731142023, 0.16691602552261872, 0.16222794085597456, -0.013345102989471364, -0.09681955845250462, -0.13495208223424654, -0.05100604558693883, -0.12770834249213808, 0.07672040511743436, -0.13966460138973794, 0.16304879728728158, -0.11301687086613169, -0.10064563848141636, 0.14583725303267953, 0.0031343677582963488, 0.05842664939742849, 0.09216531264192959], [0.15574111601337878, -0.023340757461718983, -0.001471187494033882, 0.015358861649600451, 0.1437728693314829, 0.1666011218681568, -0.058158874712495555, -0.1589116272980815, 0.008478676505263044, -0.14412709902232376, 0.10856265696096648, 0.12202357768208252, 0.09303851748505299, -0.12392598479276515, 0.0524985511499485, 0.01102671440002167, -0.05085446308014266, 7.901584691997643e-06, -0.12429065821607216, 0.08981668065139174, 0.1444927695676507, -0.056082471013793996, -0.158199782846378, -0.16213207757332848, 0.045762312549301846, -0.03966061981124481, -0.17134198265996758, 0.024987562495537304, 0.15195633200742364, -0.08802834324966503, 0.11335195278040945, 0.034896251144679036, -0.152976477598192, 0.12270736920292602, 0.04841998003040652, 0.09571450088609951, -0.0738870422365039, -0.12542756173030425, 0.038875175035504035, 0.11861135586728204, -0.04862598470176289, 0.14919766390772665, 0.08919756674448857, -0.04715906547198464, -0.08166387078056347, 0.04647300232963988, 0.04053536840365621, -0.12795110488246103, -0.05370411483503565, -0.0433508206326042, 0.14120498598776696, 0.17157047387224963, -0.1282051013304347, 0.11984069292716552, 0.024552025628151397, -0.15174794753945225, 0.11999575478800155, 0.13423239883294494, 0.1224331423724919, 0.028832059242795516, 0.10964242322053806, 0.09956254053523796, -0.001168978248726644, 0.0710901789405411], [-0.038799728117716814, 0.1654376061047829, 0.046099598287443255, -0.06854661707591966, 0.053364089542834475, -0.048717702506961974, -0.0110070785695498, -0.09898884588318652, -0.02473631743797547, -0.15883799301017457, 0.09755338984740616, 0.1541761306043399, -0.058438987883425345, 0.08241736664668656, -0.1542822959496003, -0.11359738487476895, -0.011770149658070134, -0.072198106474397, -0.05716387919943128, -0.020581328694894818, -0.09159921291828961, -0.060647166128686286, -0.06031840855628075, -0.027008532615013597, 0.13386550306240871, 0.13623908219734718, 0.1756045889695376, -0.10450003634677975, 0.13791732529065412, -0.15111393312749513, 0.003928906596665144, -0.055341406028951864, -0.06276890859508324, 0.021682012479468854, -0.09533431027808317, -0.013512212308831262, 0.035645847523911284, -0.052080409459362334, 0.029047298745519784, 0.001137843348779477, -0.15531129954380596, -0.007405233477711853, 0.16384348313302113, -0.005339211256863957, 0.12100522132637906, -0.08616435307173818, 0.024367667284826977, -0.15609788461604873, -0.11540488726384646, -0.034759232990307115, -0.13916349578533938, -0.15646988975915888, 0.1530881572727564, 0.0828100292533234, 0.03422623774735564, 0.019909969292684182, -0.16038419091168502, -0.05110486932881772, 0.1294104488883546, 0.021860457642885855, 0.039813962119947366, -0.024728158956463575, -0.06748122854045362, 0.0609063882972227], [-0.08185188751162309, 0.016248096505655146, 0.09257298606016037, 0.11000745410317544, 0.0880668069392442, 0.17676857183837094, -0.04275217908115089, -0.06778608747533467, -0.06393882955381218, 0.004487130167607406, 0.0787007433373392, 0.05225406690833467, 0.01940608671078151, 0.14477190345407778, -0.09753657706099303, 0.06446419216397037, 0.04512094227267482, 0.15368920742084466, -0.07365138347581338, -0.07861050748530349, -0.02031198798912269, -0.08401553621335903, 0.04007977795409588, -0.08343866343470578, 0.0882276040588921, -0.1434379935965818, -0.006136138529985365, -0.025193479351635923, -0.06740558223758485, -0.0299058992286212, -0.10484523246255323, 0.0038067803181073, 0.009452550865024223, -0.16467881270481835, -0.04352950708131368, 0.13716529073254896, 0.019472007671431785, -0.13014501154705213, 0.0579101289204805, 0.0016626266633590625, -0.026654072626352512, -0.023327243562774914, 0.1336303919246353, 0.11083789011866017, 0.1573729357811522, 0.08602604627084501, 0.007246609572848396, -0.17609416059225153, 0.1220878442401804, -0.10939007222801034, -0.13616680369572193, -0.09749770668853645, 0.16546123525101816, 0.11879650584793061, -0.11187603122743937, 0.052115547891025654, 0.14784507700051094, -0.15515859080154756, -0.07719732933607304, 0.04744190928929268, -0.1392595586771859, -0.16926128762295437, -0.11337874187527612, -0.049505248917986355], [-0.04835920618799029, 0.0004492347297170851, 0.009919843741933554, 0.17205522403464726, 0.05609969139323272, -0.09040568358641113, 0.02985844748596634, -0.1171014981348, 0.1277847020053923, 0.13968445667367738, -0.027638934130771176, -0.03046863245340967, -0.10949345428629867, -0.14999654282824298, 0.07408950141676998, 0.029828709343751356, 0.10771695232450348, 0.05429313804560545, -0.1387280263806261, 0.07137216217979282, -0.04124848266038132, -0.1641250104246068, 0.15107477698405333, 0.017116363669574516, -0.07035538208915215, -0.07425014064621234, 0.04916111075709046, -0.13817686278457417, 0.007018414483582222, -0.025911119477420818, -0.12417370957674033, -0.028382386097230126, -0.14021759378264245, -0.09039868031203797, -0.09768330921242273, -0.07464960034300908, -0.15146008050226295, -0.1352137837178596, 0.15652555599870457, 0.02729834483311283, -0.0748560485272265, -0.16903537138871128, 0.031459296566665546, -0.09428006256054436, -0.16858299178154473, 0.012735876191394506, -0.013410339286282763, -0.12460082484067177, -0.15728945395547117, -0.020317631546635434, 0.02774057128247223, -0.1450235832722101, 0.014146300594141292, -0.1521878309149705, -0.132427651184756, -0.15921801497734409, 0.05712499765096282, -0.15342659707059866, 0.1261645263247086, -0.021422439245183795, -0.0463844516590969, 0.0006944275665256956, -0.12966660091181548, -0.06667521101320467], [-0.15632285070309715, 0.014564533184331152, -0.09510192603959985, 0.07975625376714365, 0.15393763042140754, 0.10525525370611885, -0.15993633821849373, 0.0844060950738095, 0.06095255284548637, -0.14405417020911565, 0.05364007240177221, -0.07817767505365403, -0.17335238253367413, 0.16790071121806696, 0.027963777440816545, -0.12619773968934586, 0.01897338566454715, -0.05659933789928846, -0.004190448303218436, 0.08174779358082115, -0.01707793799450269, -0.1581048896024935, 0.1381494100868859, 0.10612300450150522, -0.05993990279883393, 0.055846152561018575, -0.12331853293314124, 0.07636680809333876, 0.17104585193826446, 0.082209766503232, 0.06830253608050224, -0.019610152034044454, -0.019190243976069693, 0.1250490586109724, 0.15737418422418634, -0.1594404333923398, -0.12426075751262183, -0.12831383557589057, -0.147538996954543, -0.003388621646609191, 0.03562197399109526, 0.07439324682152884, -0.019481324849494414, 0.1138037301541823, -0.16107528053266076, -0.13420175577557936, 0.13571480694713303, -0.08733480786544917, -0.10269199725408895, -0.021727804370028386, -0.147530156480628, -0.11380499645171006, 0.08868605786862868, 0.07735155328477525, -0.13269438217699936, 0.0021412941664687435, -0.16470209705014416, 0.016356954568189197, -0.03232732482392528, 0.09325595709107179, -0.05082021756799929, -0.1186307577281826, -0.09747448800129438, 0.14227645014158044], [0.12990562017484067, -0.12944406541519446, -0.10509545207522988, 0.06282652851011841, 0.10456197883889287, -0.034587718526237654, 0.024015601113954232, 0.03990143178317715, 0.11531163212456894, -0.16723882970742293, 0.022643129821946495, -0.0634715062626805, -0.01531589684438217, 0.1263239626457374, -0.15404457701510682, -0.07744229825373303, 0.12305869571102265, -0.026628021519905953, -0.11281527514727319, 0.10863195001552481, 0.13647973803642358, -0.1317979447950275, 0.12110077344634443, -0.03304860801228712, 0.017210631376164603, 0.16125527669504439, 0.13961708105649326, 0.1530706289243133, -0.026086087222377263, -0.17397490559143722, -0.00032327291018782733, 0.03599324161388748, -0.09098821708353483, -0.11433179952448108, 0.11542046827197419, 0.056874363221184, 0.01642531431975605, 0.16561353401828025, -0.14056789551515875, 0.13080111748099457, 0.10317083624525228, -0.016633086708773753, -0.15581845928332547, -0.03135069158038925, -0.09522537222636418, 0.1653809478623479, 0.09747708094849092, 0.14515514538982652, 0.01800986384840486, -0.020937521841132595, -0.0390614679911242, -0.14577391027495146, 0.10682711076876608, -0.07948268948330475, 0.0648274944231145, -0.11348593979722296, -0.09045030705851882, 0.11036762796155278, 0.04089886788223113, 0.10629934106770536, 0.10105081834568594, 0.022732775397830085, 0.045351783586609046, 0.10067955739457876], [-0.058199308241805706, -0.1737390379521882, 0.012936774066493434, -0.025738165597742977, -0.027950120826142066, -0.11449618278669943, 0.08451374250973098, 0.17600194057763338, -0.045894128179103766, -0.07535532190935681, 0.06444248090475513, -0.08386189326028398, 0.054061060605215004, 0.1727145636033178, -0.039041302958196245, 0.03751913128843007, 0.10404084093662595, -0.08967645259940424, -0.1278385177686056, 0.08521578170462411, 0.15069075134972645, -0.022736426978565927, 0.1333002324402094, -0.023596668174697775, -0.12122693235362686, -0.15583256904217122, -0.05707792538024179, 0.0027159268443637916, -0.08687866171862538, -0.09945728788467736, -0.14387066873585355, 0.07959581192874969, 0.11578369173944061, -0.019557146188179424, 0.10156147118508321, 0.18344777066896378, -0.08032996176737228, 0.056645052708161135, -0.09222093709808271, 0.07336787537198065, 0.09564388936528985, -0.10716107221573294, -0.04628565347942826, 0.0059707501108342, -0.04194982883457239, 0.12284858537125169, 0.025864684377430947, 0.1137706487053402, -0.066799757779021, 0.0320788645697235, -0.05542982472239433, 0.14777833221521655, -0.0064840280958466945, 0.00278966117433698, 0.11445463138746184, -0.02139042409388825, -0.06615542978763624, 0.13528682490544913, -0.006853658282702786, 0.0868226224282681, -0.06457294599560544, 0.02215526800852566, 0.11280364250076756, 0.13794835387384516], [0.1465811517127484, 0.1648244583695335, -0.08708023435653171, 0.1371591975885819, 0.00830185914991627, -0.1174414573325893, -0.1652556530795023, 0.06988604820326665, 0.08723382680814726, 0.04955485842018317, -0.13927137450492122, -0.17617070864293663, -0.08168472252506787, 0.0009917636202204372, -0.04015426792959001, 0.020568274417244587, -0.14842883695242173, -0.08987681486985614, -0.16939893016507668, 0.1558777830017998, -0.033745578470337594, 0.08013159700460229, 0.14868936818238915, 0.17133612977465462, -0.007829446190067202, 0.12547127741218808, -0.12059230103383135, -0.03336335605802883, -0.01691265460012888, 0.06581593414540737, 0.06315151701862665, 0.0037335427350968955, -0.12373534152654589, -0.05480136130266269, -0.1359733320935037, -0.17552766245125478, 0.03207206995806183, 0.043948768961932456, -0.16969793144467374, 0.06645991933752546, -0.09636518288812321, 0.11365466772499591, 0.08910885459081136, 0.024758578865104276, 0.07404029386371454, -0.14756564557508067, 0.01169342433499912, 0.08470947344100245, -0.13336965477216306, 0.054051224503663065, -0.06646133431903777, 0.04802167189500914, -0.01819258776494731, -0.098166708285644, 0.15706243310958382, 0.16281590542986482, -0.14905225475333897, -0.06363272893694498, -0.03494987301658217, -0.12525752673076967, -0.04361116405230757, 0.0823956961052413, -0.05440805231849579, 0.12418835254653152], [-0.11233505046859865, 0.097335585608325, 0.04328845576216117, -0.005416154840463528, -0.15703530894738266, -0.13477168265496528, -0.06536965662919267, 0.05393144059941999, 0.06691153588983076, 0.0031631565346181, -0.16820388664845218, -0.12369180811443538, -0.1417217143172248, 0.041505907520372115, -0.03892093715342779, 0.1288287802960221, -0.12375269468486948, -0.15875107107149644, 0.12502833891149231, -0.005215359817912826, 0.06724073812412484, 0.15161076539668342, 0.11585179204706393, 0.15492369269142517, -0.09678340372915771, -0.13699014482364946, -0.16059072725935447, -0.12440700592217371, -0.09790265727977127, -0.16272014126529963, 0.15243494921326164, 0.10020812905850511, -0.15723050750697073, 0.15907124202541373, -0.17040599178168994, -0.054089533106174724, -0.14456830120860295, 0.014147536409093229, 0.12055857466103664, 0.09300622242956211, -0.10255676578652488, 0.11933990040662334, 0.1727179588110703, 0.08863537893200708, -0.019911737456990715, -0.14644474583363262, 0.15905443141878625, 0.12692174080619484, 0.025400544225441593, -0.09343963477393986, 0.058725205155921445, 0.1499869974515168, 0.07456498061089709, -0.10362465110093692, -0.040963217936031665, 0.009759842792995577, -0.021311335978408324, 0.026416482291147046, 0.05721194916257107, 0.1649896575644072, -0.13334890663221885, -0.016157622073435705, 0.13889414551892817, -0.10714152547223607], [-0.11570363770534195, 0.14114427952603986, 0.17568254279256004, 0.025251010485177694, -0.16299243269297894, -0.06702277664257468, 0.15111337003188205, 0.16939479368922447, -0.16233157502190623, 0.09582153250657718, 0.062311000469634975, -0.1450751049768814, 0.1691256436130636, -0.1292276829914831, -0.08312388168187314, 0.11517085183887638, -0.06024052594931456, 0.11429384310699418, 0.0696088633771903, 0.06721586535452066, 0.04957664457553103, -0.07270370765799947, 0.15956626852814176, -0.02532162480844932, -0.006683969515678505, 0.0627567929557569, 0.06652929454236774, -0.06272323331742648, -0.0011908419369672982, 0.14817715812435406, 0.05457462080052642, 0.053053384251632016, -0.15801094026241372, -0.08084977114562526, -0.06244698860668517, -0.002973675014705569, -0.04966771696886457, 0.10171148770860075, -0.032296815192850874, 0.026638043398204997, 0.17020713047218752, 0.12190072794852636, 0.1678170436031539, -0.1329372777973672, 0.11152901006985178, -0.05524638450955436, -0.09014205038008441, 0.11529464779991634, -0.022290549022707388, -0.0003782536307374851, 0.015096966387437738, 0.1401817492417574, -0.13086368914313207, 0.0447191031369431, -0.025316014445306123, 0.13197353182607222, 0.03375307963325877, 0.058566414472577814, 0.1675383928396606, 0.05956264601090342, -0.07967747247898235, -0.018022440236610433, -0.13229016670510668, -0.05784297184877196], [0.001975251136662276, -0.06641130371315129, -0.03845539111369911, 0.02035063791946423, -0.008636225938983444, -0.10494059876157218, 0.0915956377285074, -0.020182676030982033, 0.04512859439268663, -0.001422750544757323, -0.16051932273666467, 0.10692214588063034, 0.011175302134052822, -0.1405191470869136, 0.15762091756925692, -0.05192805030856906, 0.17003190839428897, -0.007695970475465497, 0.14378797363530396, 0.08469246494093799, -0.14515850953291218, -0.06288019786161238, 0.03976543171505398, -0.13241056695469938, 0.15575897733967928, 0.0371331911095929, 0.04307807169510075, -0.11675100321403085, -0.154550345734951, -0.011660513343167839, 0.1733456047384674, -0.05667038860578462, 0.08788892129442924, 0.006203336279628324, -0.05020855752059611, 0.11211779943598862, -0.05210558200661412, -0.05818460818225525, 0.16311995456851522, 0.1107450007222873, 0.019668333112466074, 0.09438715499510017, -0.07528454771493122, 0.08462940451023279, -0.0970485950643182, -0.13307276728108217, -0.09727366360625528, 0.15901196362878303, -0.11727766382663231, -0.09249859023041407, -0.1696414830061539, 0.1532597734766509, -0.12679132322110692, -0.03065723964888073, -6.945974572256097e-05, 0.057552180998128616, 0.05852946384827973, 0.08997385305995229, 0.08637831097750567, 0.11566650814092425, -0.013469696911181134, 0.07664837079539807, -0.02194569489321671, -0.08279808759933685], [-0.09074151747855594, 0.15514515945869925, 0.14303648038753522, -0.010481740155672742, 0.01016423068977701, -0.13823825444868215, 0.14355701387147127, -0.06948092717194874, 0.09508606778420584, -0.11157867951387054, 0.13833418082481683, 0.15709455104009426, -0.008985352513028871, -0.00012982808459588435, 0.1429915135344674, -0.17108742659478493, 0.10518493910630874, 0.05855681136030089, -0.1094041493961956, 0.07225589473134983, -0.16918070316911815, 0.1046961164251484, -0.12092209190527577, 0.1580599096903312, -0.04527956940366798, 0.04136356015220191, 0.09677010087852841, 0.057204327460577215, 0.07299877850857348, -0.004089609485683654, 0.16915184482081494, -0.17371529739510033, -0.024866014058179037, -0.071837128676413, -0.1601837639082171, -0.046079501833169945, -0.12515833931681447, 0.09464924059406496, 0.07980212000220446, -0.07700764300742016, 0.09185697374978505, -0.16518732106654865, -0.07153411860491252, 0.013642827156881476, -0.16380794246770847, -0.025171901143636183, 0.17459233344947564, -0.06032299068285081, -0.11374176588446921, 0.11786248230997473, -0.1535399892371909, -0.12398329125396976, -0.1339955223440318, -0.04860933721108143, -0.15157146935613988, 0.10431385483525349, 0.05893337593017062, 0.05883350111099464, -0.13556367864295377, -0.03457050872948114, -0.040877054114794004, 0.15669362332431078, 0.10884587543959237, 0.08977523721593308], [-0.08593863066116447, -0.12049515919144699, 0.10343182097504997, -0.06617119159968507, -0.0558488618157446, 0.15987729318628804, -0.10023551574751126, 0.14263407820573792, -0.15814740720273832, -0.14132173432635686, 0.11282152295780348, -0.10969879171929478, 0.013916738535399601, -0.01117184857700107, 0.03853197138300746, 0.16350386792666283, 0.023719723343946966, -0.06300077752235106, -0.057609184395666854, 0.017852628369208097, 0.013355703754552195, 0.12485322536897409, -0.045196129532087286, 0.16179785568348143, -0.02477304770285179, -0.1127354627579054, 0.057092597454956304, -0.10822780794076114, 0.09355189864061628, -0.11157076565425561, -0.020975415775735053, 0.12636414250465697, -0.050139529328034865, -0.029292181993096224, -0.015548594105335175, -0.04770689242178, 0.15667795906632656, -0.0642010333349384, 0.07943923606024782, -0.06365317261848419, 0.043358001135900034, 0.15685650185361455, 0.0570777494828195, 0.13533505796082093, 0.014275209330198595, -0.10447601179315655, 0.10176276646486052, -0.040825280413624, 0.15420953195039275, -0.06312901202751307, 0.04683185712689922, -0.03471121734868793, 0.1229733607639262, -0.08158502074434196, 0.12915979281361376, -0.04094847788128758, 0.012274365471610663, 0.16640680959504084, -0.1726343860079623, -0.07805677101257959, -0.014744423137526656, 0.005864993950784348, 0.0346867160782095, 0.17437348727790894], [0.12660717450066308, 0.05685293808539241, 0.009271675101070742, 0.0016341728711618245, 0.028064544416186745, -0.14543537522360261, -0.16181462814334868, -0.08423060739641874, -0.17599415423576206, 0.16320383653534545, -0.09843674453060623, 0.05530892660186815, 0.07855308425044417, -0.08232485929380777, -0.1442250446104468, 0.05303607745969256, 0.08909493544198244, 0.12245280914474445, -0.048822557734448914, 0.05980319991714244, 0.09160957558530235, -0.12649392276290825, -0.02802059028439488, -0.06926735562675615, 0.09272153411503756, -0.011735988444587252, -0.019037140382206826, -0.10764994803425618, -0.006035589311559184, 0.09223103791029397, 0.07823515834788043, 0.07660915218774747, -0.08157472152742828, 0.08306607409269531, 0.10761400782835473, 0.08479655477935126, 0.12810150005445256, 0.10370046070513539, -0.09137724809030234, -0.11368951481219895, -0.12870190911883012, 0.16152181302928, 0.026030389051802487, -0.08915274243607513, 0.1509947818886925, 0.09238859293882801, -0.12413866145898035, 0.0035591942617901316, 0.09927781109932307, -0.12331850875111869, -0.06964377466365518, 0.13395961369698953, -0.0750900117121326, -0.1587127802664156, 0.012306039174343947, -0.02147759368248059, 0.15816223375446908, -0.006015952751635045, 0.06594931087944184, 0.10172570238660306, -0.025231502335700928, 0.006789829687075184, 0.14037951908551757, 0.1450619883024298], [-0.10309000059751719, -0.16356263466619317, 0.17504565992011942, -0.0037967823981072545, -0.14088897991684138, -0.010185834537081757, -0.14260317372510697, 0.02036984254384988, -0.06819530484360237, -0.1336644890584204, 0.12977309738477769, -0.066607786044902, 0.07599374673557015, 0.11854503720447249, 0.081413313117803, -0.10272152569750578, -0.009669231156998019, 0.006531618899146395, -0.1352373581430032, -0.07457166933247733, -0.16736800538266738, -0.03938398962355952, -0.15620595247035593, 0.1769356117267341, -0.013578407639464472, -0.11628974778510819, 0.08793883492981631, 0.13952793252368476, -0.11316760448653232, 0.008756276525894674, -0.07857578756459227, -0.04823562318740906, 0.09600865469207256, 0.1774178189084765, -0.09693408935121275, 0.0861966628535502, -0.004327201273905706, 0.09404916084029334, 0.12197872793941078, -0.021283078506576087, -0.07453215458497307, -0.1540783708862929, 0.02980039346915094, -0.00378333467274643, -0.03908045546995893, 0.018119754531522203, -0.10340313814815454, -0.10798745227656151, -0.1237984168824207, -0.13636685338177906, -0.010253264135394374, -0.10309956428793893, -0.03720349851177801, 0.0639348569444334, -0.09147909575589075, -0.1216338164566591, -0.09108061337440279, 0.07055942438252343, 0.08953058278278976, 0.11870705598274876, 0.1782059489880873, 0.17500792261323847, 0.007664335102625055, -0.004633562265935559], [0.05582035474492035, 0.007190610332908354, 0.047223707651634333, -0.05889069170896044, -0.1435955590147484, 0.11744412535654043, -0.07516522753536528, 0.16661071780910436, 0.05119067208352843, 0.050306733875852994, 0.02706734782783543, -0.05834636078756061, 0.14443027282071247, -0.06693370454273823, -0.027273679450354915, 0.010356347569529207, -0.14593740482687792, -0.07232445125462499, 0.15341236777760994, -0.13579823341219915, -0.1447469750794753, 0.08970234689779616, -0.1386690655277478, -0.050859413951237414, 0.1760610050361053, 0.08996479769950091, 0.09278492377717176, -0.0938504762164031, -0.05961799075470123, 0.08902377859555195, -0.06857964945400122, -0.11597355102990378, 0.07424816696696965, -0.03973377899374456, 0.07044720366311465, -0.017121551873526184, 0.05989789444979199, -0.06672030316063139, 0.021103702901767808, -0.05629512529495566, 0.0949797454055579, -0.07291276214580876, 0.14448855402339716, 0.10184744820840093, 0.07217796431731752, -0.0769624814767194, 0.17028041881354045, 0.012496270421319804, -0.08423508809092743, 0.15109843511950508, -0.14219905525672705, -0.012573871075418158, -0.14778504716039895, -0.05827867973737299, 0.141542666552228, 0.0767667251928155, 0.1590529199794186, 0.006774644939602723, -0.1253671909001486, 0.044210354402527456, 0.03036321256122647, 0.15408712475139144, 0.03048630579581753, -0.06993629501824679], [0.08581421818236928, 0.018788124176322817, -0.010128140828231907, 0.11680673830953088, 0.035988936026061555, 0.021887889640241714, -0.042526326138410474, 0.08211362897252449, -0.0875654467336851, 0.11140913567266295, -0.16064311594445344, -0.053612987924370706, 0.14023026130554375, -0.128184805470895, 0.10168365190765669, 0.136978896459571, -0.10492482637425565, -0.010145296685758642, 0.15422398772797524, -0.0031320588136171555, -0.05875264808616863, 0.10527462272903006, -0.11367823918018603, 0.10944688647534313, 0.0961838840808998, 0.0017216479375142257, -0.010428536270517123, -0.14639839527932463, 0.15390268855496536, 5.945255683623971e-06, -0.15561086635048862, -0.1338499365886053, -0.16431036066954258, 0.008270514625791583, -0.058292228951361484, -0.07527891535718449, -0.0002650858076542195, -0.09271028271206155, -0.060508458560242236, -0.08180294207978081, -0.06674657719042124, 0.002240794932270203, 0.11931134373579698, -0.1403010145914811, -0.16827301425903735, -0.15477280212916603, 0.17351768015470245, 0.014902463210135218, 0.12291572569888977, 0.12792579219443098, 0.0930701488957836, -0.05990839963749012, 0.04642674706000649, -0.0447928664107729, -0.098184635081973, 0.03714356609580269, -0.08962820793756579, -0.10328204552825411, 0.005118477424273592, 0.014100262558248434, 0.06053073914303984, 0.11514304554735524, -0.13517228769325687, -0.16855615437278176], [0.11294144219754809, -0.11550799693216209, 0.15897155744246536, -0.02367462916919631, -0.008434218867323942, -0.09471261801529213, -0.02406937552614886, -0.11104264590805302, -0.1039950565725748, -0.15181693970124116, -0.0984780536893307, -0.1422410602796549, 0.16496704136656218, -0.026127453138445306, 0.12752369890966583, 0.12612236026895846, 0.11727247385377614, 0.07494929200845987, 0.00353224819947523, 0.10082465303598466, -0.1194456880742689, -0.16929254573749078, 0.1431537176516086, 0.14957727817791083, -0.12111412451520229, -0.02157303898121608, -0.08724142712618814, 0.10825100144558551, 0.10538779234298322, -0.10837554407241974, 0.16213565373531663, 0.1078233764913312, 0.012279032597082379, 0.033912710373812605, -0.13780360099554984, 0.1380704456049664, 0.1628960456528553, 0.0910712488698005, -0.05091454490933711, -0.09145571534100408, -0.031348328911120465, -0.05276570735357167, -0.12836978762487844, 0.06278931611208276, -0.0658269832447378, 0.06122726210346889, 0.03772462094953154, 0.1140644736862334, -0.06736921466447768, 0.03400622415224919, 0.1242396604466375, 0.03275008859872769, -0.10865048908988509, 0.05566116995564952, 0.14071762737727275, -0.08395700968487484, 0.16860368160206857, 0.002749671794639155, 0.024802519531279266, -0.01737270919317122, -0.05156311471005052, -0.14913211379868754, -0.14425745601862006, 0.024454767922105686], [0.11152884441108302, 0.012393267600029657, -0.0361117871907852, 0.057220378847654824, -0.10468600615887537, 0.11718351026743343, 0.15718932972337635, 0.03228117673623627, -0.10067661857851846, 0.039057746237219415, 0.16262525882355625, 0.1742038588853357, 0.14526679683078647, -0.011432417956768137, 0.0338833182746201, 0.08821469599211963, 0.08487122074407005, 0.10485921105338385, -0.09782682153904387, 0.0940432243512957, 0.1399087963293021, -0.008332896436742211, 0.11770350418688354, -0.14443253116772242, -0.004084435353131645, -0.11485711265645326, 0.10707588390555817, -0.11878334064298256, 0.1536632755671057, -0.03855312345176924, 0.09549327836464444, 0.1283102171937578, -0.11027049308475324, -0.14482334664049498, 0.16533447063735254, -0.08132849014556297, 0.129748725979371, -0.0833063740324996, -0.006351551425949695, -0.1153968627033251, 0.1535287528108265, 0.14459172826141217, 0.1320603453785453, 0.009931529074386724, -0.0012690925750550584, 0.12674300112327078, 0.04027128366044933, -0.014598029617706605, 0.014073054271328352, -0.0036756480377316825, -0.14003611416375938, -0.07635206141718472, -0.0782488038868574, 0.10496220097149261, -0.07652530907174074, -0.040881572852282805, 0.08671067402777359, -0.08264971022686139, -0.04734349352874649, 0.033361062961501244, 0.09985068192982693, -0.08580603931378182, 0.050496302154341234, 0.05381929943833941], [-0.13435276044259448, 0.04497532548476438, -0.1309281719231638, 0.11439492729616654, -0.0056149880424344045, -0.01968752358445111, -0.04991670832098713, -0.040434049776917697, 0.047222963642729654, 0.09484050704814287, -0.07826414084248556, -0.16546991790239024, 0.003469239650746636, -0.033491470857066885, 0.16746859102774544, 0.11821800010209108, 0.024007494024913284, -0.00494811828228528, 0.1764500600136463, -0.11867616169658485, -0.14677711706239335, 0.05711543121655832, -0.1648827416409773, -0.07029373012980814, 0.16455686918982362, 0.07618766500642457, -0.04899940237825809, -0.05627474781385508, -0.08030672707037362, 0.09700036468901532, -0.059302879513282974, -0.048930200384476846, -0.087080771032927, 0.1318934418495221, -0.15651393187427176, 0.003854342718168091, -0.10678455262385853, -0.0864444735925699, -0.056320842014998235, 0.16581542750407482, 0.045151718607477964, 0.029634759472118605, -0.0805190523991532, 0.1560334179478636, -0.13412089559267615, -0.147729361889206, 0.07363980278044349, 0.1022420494006395, -0.1237265743973225, -0.16985413243970973, 0.024421337200023097, -0.17560022920393895, 0.14480703330341618, -0.07412762490611162, 0.11319614948550347, -0.14095352627002075, 0.11309680406356223, 0.08577765428814257, 0.017273817162962835, -0.15601234102360317, 0.12065245504855823, 0.011451848003926762, 0.012329368357933274, -0.09855798914067355], [0.17426486735993338, -0.0213647254483105, 0.15186275559481824, 0.04548932127439026, 0.16236883920994946, -0.1691738903297918, -0.014522876451704664, -0.02202957457930574, -0.07367699675345257, -0.13414694502119684, 0.0630443013877991, 0.13910563071095164, 0.13091132042524758, 0.023102661521715973, -0.03336754493612071, -0.031563876251806816, 0.040216370993076456, 0.046061851699542355, -0.1431987652163879, 0.05700411761285579, -0.10655530410446334, 0.16695100673245208, 0.10187678199072206, 0.07157273884144788, 0.09581041882640431, 0.015727818546890537, -0.15803289777429835, -0.11348480643644103, -0.051002710177684873, 0.030429119107019065, -0.082919663240335, 0.027977079412248446, 0.07580403106887837, 0.002647878489276917, 0.10184972930501832, 0.056265906475717165, -0.01878741056442318, 0.07615348888091503, 0.086968914461271, -0.15887214391196827, 0.1184836461597241, 0.12612562175442396, 0.15558233720819234, 0.04383924217683949, 0.03201088030158458, -0.17146185219807492, 0.1500568925340159, -0.1034617883253916, 0.04113277841236268, 0.10359762452886326, 0.12481071662548518, -0.06790344107317536, 0.15077468559932425, 0.03366502574308883, 0.039548606437274425, 0.03993352287790786, 0.012849675069258576, 0.0996121558786269, -0.16956848759755092, -0.15536282959672168, -0.10264040859899881, 0.045134656810431745, 0.059847673566355425, 0.014319951515691903], [0.08039359378779094, -0.13880738615422236, -0.0548174308389079, 0.0205428578061625, 0.11541459325402185, 0.0018212559505296905, -0.022672144762359594, 0.08696558353631205, -0.1331990966948346, 0.17233032692695752, -0.08930800761958485, 0.07941889142612824, 0.14085802581273185, -0.09819930064898456, 0.13908966339683668, -0.1503543515610272, 0.067482717432996, -0.16347780326543962, -0.10185731996748265, -0.14704299493753564, -0.06267061961032427, -0.038134231393503346, 0.1150022932986584, -0.14195429670730011, -0.17225134734178205, 0.0095983581575078, -0.08778043390957779, -0.13967356769132, -0.1494424761554407, -0.16021583415945306, -0.1526501404561504, -0.05096884017147663, -0.009057948067392463, -0.1274540265416256, 0.14941648530617843, -0.08856129974119484, 0.10281548679198596, 0.15444447225621205, 0.0621056490066484, -0.0263500691579286, -0.10058487368795263, -0.006393581296129106, 0.05580267603732366, 0.08531113569100408, 0.08902720030702907, 0.1302027002865678, 0.16542327725890912, 0.07672864012390619, -0.02662192367681404, -0.11508078048079831, -0.10169993512438665, 0.10938785493886652, -0.15777951081166613, -0.05788989155180795, 0.037363097937773065, 0.007516324020815646, -0.08381658427785672, 0.05272358084036779, -0.15955969734209502, 0.1633826764458096, -0.07387537349800201, -0.017086532963451515, 0.039069717349185476, 0.15464914743374922], [0.15237254324247043, 0.1371440534616571, 0.03967263463873652, -0.06557569124962134, 0.127264134214869, 0.014844717321699336, -0.1251998718993125, -0.11351379904253214, -0.03354782132405096, 0.05162946910997637, 0.16918895830384292, 0.04434054423481653, 0.08173302305277573, -0.1550945050696591, 0.10673944807859223, -0.09559360028052402, -0.14207075134484104, 0.17073668430970704, 0.01611266911647997, -0.09947109587262395, -0.13806305726013435, -0.054625546620270755, -0.10070560831051784, -0.09947762190530478, -0.12534410757377598, -0.01654980597583911, -0.09593128436481613, 0.0877575772453012, 0.005425805914091345, 0.04374254817916767, 0.03698046922605375, 0.12307522773221652, 0.05150708682475508, 0.1051731462148171, 0.10853864974804504, 0.03030471382953271, 0.04798716546731871, -0.09914156715783112, 0.17660304201330318, 0.11161671826144294, -0.026845051948790753, -0.042309959485424826, -0.07358714567680806, -0.013794710022646633, 0.14575153114716125, 0.11082447148837093, -0.09935830924515435, -0.07215666509281939, 0.031572968545477954, -0.12882195494033677, 0.12245619212005168, 0.051694835139369566, -0.0036112771179361847, 0.07798705430811004, 0.170733303182083, 0.09801874487904691, 0.0988296587728039, 0.16160325859968538, 0.00890311380462728, 0.15048499527533177, 0.06611820673143437, -0.13889617863152642, 0.1310621556941297, 0.17147546884860018], [0.07776032601744445, -0.040706304816687945, 0.15892419813261768, -0.10074657756856621, 0.07782799147856083, 0.09609824343662611, 0.12981120343121644, -0.08271518230578342, -0.08726445982063152, -0.12681647543382482, -0.0239780720642212, 0.11216434649206787, -0.13387045739392753, 0.12647429134951096, -0.09360909183120028, -0.06694678641147125, -0.016027018679141657, 0.08753190089225714, -0.030458892200864174, -0.05399171020671567, -0.11294465541747628, -0.13531020869701946, -0.019531778126865584, 0.11997465599725181, -0.10555241501623644, -0.034030129617719757, 0.09312669736047104, 0.11089320759942049, 0.04499308523276246, 0.05675953472264079, 0.06472733217418199, 0.17228411445825903, 0.02349718715950372, -0.1266113735099806, 0.030913896274311427, 0.10035729975760332, 0.06517479021019759, -0.1537568621218409, -0.06174756277343021, 0.12994648857083366, 0.022675362531537183, 0.12887207882085705, -0.09736399518318962, 0.15951898442886536, -0.13673541195128106, -0.057257449866380504, 0.03737635568491753, 0.019829555476710115, -0.07099819969132437, -0.09498989860389438, 0.0031660329102984885, 0.08434840766682825, 0.08299957429098012, 0.04919222591878851, 0.14803200843519546, -0.046575321696796235, -0.01994279082482616, 0.1699026698170431, 0.12968960057563597, 0.16676643908755923, -0.10624812493028363, 0.12927551296961004, -0.11627841565433389, -0.07742342398685813], [-0.07232936789726899, -0.1609822167295423, -0.049396494507481736, -0.061168219350387555, 0.008737982963297595, 0.04499909677325883, -0.040585958262823255, -0.07282934396254913, -0.09683491770134227, 0.04254009021134558, -0.11427632702850651, 0.057914192181429784, -0.1500637644533929, -0.15767752914474864, -0.046830443022270046, 0.07189179038014502, 0.007447776865395057, -0.06561162899909674, 0.19364670089722158, 0.15632238775966287, -0.03391418323386574, 0.04332694333053369, 0.023025615911654407, -0.06302600241583418, 0.06532767641080804, -0.11588793833536574, -0.09660434845251425, -0.0674274502310729, 0.0053499584816328995, 0.14262905686194088, -0.15892677274871922, 0.14400552577625386, -0.12068105225002679, 0.09755211827153465, 0.028920830123142272, -0.07145135917384232, 0.17612828002210765, -0.1217201075262909, 0.1529665445381517, 0.011823131683032874, 0.06990878265221136, 0.03695731348658437, -0.10583237904203682, 0.029438511919851158, 0.08737578652815246, -0.006729706478517723, -0.06281606477123591, -0.0238256787070818, 0.17299706123620345, -0.09462502003295434, 0.10746614153400688, -0.1670913334456725, 0.1038012151848143, -0.08801321738178022, 0.0052654856502303005, -0.09780363882883761, 0.14483022882658805, 0.04247757736155088, 0.07204818877907274, 0.11817961583843294, 0.03638938944061083, 0.06203981072355353, 0.10415100998038522, -0.1692939158154169], [0.014587595831957954, 0.08818483770702921, -0.17658149258879738, 0.12221503153641729, -0.021903371357118607, 0.015401728123792152, -0.0457990851714693, -0.04546715810291599, 0.16468067877152867, 0.00010493146879320125, -0.00986176784126902, -0.007470653507186587, 0.07999714539732979, 0.10461385452471597, 0.015757479172199135, 0.09565455367753081, -0.0965888583416944, 0.05202618352631593, 0.04124958119633035, 0.005367876223891654, 0.10121643775209717, 0.007480343381501698, -0.0078075324491732375, 0.1435444549664221, 0.028784978973375237, 0.11166117396014491, 0.11859274234586831, 0.01684443081441997, 0.03465653476954091, 0.08598540237588778, 0.011325556727367592, 0.1397209001796033, -0.0629994566077639, 0.1630977413635688, -0.016939809865909317, -0.00397016856488465, -0.090790631037297, 0.1297249014997332, -0.16209264208891072, -0.025554421309704558, 0.02264291658032698, 0.11541170414076436, -0.04376403447472266, 0.06362986803447054, -0.03788850780597621, -0.008057498532593393, -0.018668305183265146, -0.12803187772939967, 0.03132388572771546, 0.022867201616765254, 0.0006196397051246028, -0.11698881904553782, -0.14986372294168337, -0.07261278624472613, -0.14246100032475106, -0.08054765270053627, 0.06426453601304995, 0.1271054561261464, -0.03581456415169685, 0.03760752477569084, 0.18410312360028366, -0.086642435094716, -0.019041858360626586, 0.05185175945499443], [-0.07528693766966707, -0.11628710345763363, -0.17443738246608215, 0.13430575170762196, 0.045059770898345584, 0.030116052883618412, 0.11949162243198186, -0.001122417477558346, -0.1103478047289927, -0.1404731353869237, -0.14677761060308095, -0.05004513839598267, 0.17374593857771695, 0.10107304374416079, 0.03742862183614301, 0.1519129665079151, 0.13948573707384085, -0.15617078057661143, 0.15011818626672885, 0.11420826728295956, 0.10172220429167778, -0.14868819914843032, -0.002002616535008977, -0.12312689144159773, -0.09276606352502988, -0.07950419188650854, 0.1201149198230025, -0.13145428612723672, 0.05536952097631586, -0.015005642336094385, 0.12702569238983502, 0.18162877341256137, 0.09577085938942068, 0.18326304976565091, -0.09356191968223206, 0.012695994386674198, 0.025954998452585976, 0.11490209322545758, 0.004729710286668567, 0.11414281319690893, -0.01877358372465901, 0.1153913022870196, 0.015768941287696698, -0.04549801175044857, 0.013826455756525094, 0.14588879023460682, 0.06714755478391404, 0.09338076132999303, -0.027750222939810634, -0.0020178171639042286, -0.06553116993076073, 0.15992298734697144, 0.16790730676737511, -0.011235448994524352, 0.02380971057288822, -0.03306996923915462, 0.14454408962347434, 0.13239904230662403, -0.04545272833586708, 0.1340803923577186, 0.18491764544229955, -0.16393414571775672, -0.12155229640018105, -0.1102539950024348], [-0.005195779688482868, -0.13186182440691344, -0.14626719536599572, 0.146294089797919, -0.17558728969434026, -0.09844676675181274, -0.1525182950404642, -0.1419583497350063, -0.10635806758558139, -0.0765524614288986, -0.12751476275659768, 0.03231911791239672, 0.058516472222661965, 0.09488770113544945, 0.06385631128140506, 0.15950306876758202, 0.15620365661771293, -0.09309509898717838, -0.05357647325669793, 0.08520132805941995, -0.0027175999682472274, -0.009701812346089255, 0.122972147425521, 0.06555343330317535, -0.05948750087833542, -0.14295869338802641, 0.14178696400816834, -0.0646097998507778, 0.11239237923539862, -0.13497907772816906, 0.040543626830203294, 0.04636085530968805, -0.03590998663926387, -0.09746833009783205, -0.17017939385201358, 0.11589799635388784, 0.11566510659244791, 0.03995883093135857, 0.07512192759513171, 0.09409783771308702, -0.04898812152788596, -0.010469443615757109, -0.02368464109826729, -0.17235309904210538, 0.12503204767230533, 0.05681582115149762, 0.15518470965812045, -0.1630457051424347, 0.009634236615585086, -0.16938953326540235, 0.07125577156292914, 0.050390944336041854, -0.1504578630277822, 0.0848051357353183, 0.08891974015457807, -0.06775128735751369, -0.03218956584345123, -0.1088299617051037, -0.0679255200154126, 0.059156272981385254, -0.06264423165781045, 0.06560217876121395, 0.04594954821166532, -0.08630206610053112], [0.06402777290607325, -0.10034103675979456, 0.027882584879574845, 0.08394617589600342, 0.025785730869492596, -0.16940075501149574, -0.09644190680480007, -0.05165805409918192, -0.03421969123850471, 0.10715549195613969, 0.0924817378385612, 0.1534773785935429, -0.08391072805224434, 0.1490266948136256, 0.019090983183620014, 0.12794064847389838, -0.15663120455046944, 0.07872513042178611, 0.13777485368030654, -0.03442025974406493, -0.15490449325903535, -0.1733719794504809, -0.08684115068330883, 0.05322314127396224, -0.041952602624198254, -0.058080704076752504, 0.10033281549096226, 0.16138462654220723, 0.1538912030949093, 0.13959801906592714, 0.047556680157542, -0.044774142426009106, 0.16972357736100005, -0.025749145823514646, -0.11641264597461218, 0.06423860309155133, -0.044634442072469055, -0.15271161814256196, 0.1511206046627019, -0.09803913889476791, 0.12847588609233854, -0.14001668039764809, 0.094862863092014, 0.10014741541210762, -0.03917628924533928, 0.07695912956361042, -0.15079041261944304, 0.06317294145158256, 0.04429532208686554, -0.14690260012957204, -0.08135153439659637, 0.05988387220748417, 0.05342365557407874, 0.08789457015514132, 0.062439471258499274, 0.1527417030621355, 0.034397720267260234, -0.10263486488998373, 0.14833463410673467, 0.11408357797530841, 0.17617077446146287, 0.12441759489087759, -0.040111691453583675, 0.16036520710924848], [0.0791016562892284, 0.053718758659851165, 0.012215160032668038, 0.16036687954235612, 0.07414235333202977, 0.008378500874300117, 0.15711147666225678, 0.12845751853738782, 0.11277224481965128, -0.07894500157265935, 0.019014933680396667, -0.16152507568253124, 0.08430522228705008, -0.07506284672025008, -0.12161081427064879, -0.08819941174459017, -0.12749985425156335, -0.059771567229902865, 0.04666895471746396, -0.03218702414716238, 0.038780441419421344, -0.017837726474366444, 0.1470128316239915, -0.0532278951855834, 0.0552792159047686, 0.03061134357520074, -0.12370292905351794, 0.10505154469999207, 0.11406971432387301, -0.022582630993204168, -0.03350518327139098, -0.15590267301263963, 0.08758828754043999, 0.1204952333984875, -0.11132612243622336, 0.07946909626603586, -0.00923723947398905, 0.1638601337195745, 0.09029409469472104, 0.017067860181923553, 0.0354734766415856, -0.15589953289650393, 0.10852423411507377, 0.12204013140922276, 0.03811610189622076, -0.13806365716106325, -0.08365695908711565, -0.054100553795893985, 0.1021259431991319, -0.04947607575134788, 0.0627265990452184, -0.0023260439791994436, 0.17170982424316297, -0.10400570196990461, -0.08932594693257065, -0.1208626705049054, -0.0040606010365911716, -0.15540575187237465, -0.15819919838196708, 0.06745187144447383, -0.06263333265880507, -0.05801103004292843, 0.10547030458746302, 0.10186702679168777], [-0.17348836376274465, -0.11091889251085513, 0.1766321256422527, 0.08540607574674143, 0.06043608022388904, -0.058196917429193196, -0.011704757025992727, -0.08202751556687637, 0.07652385119573532, 0.0843002912629954, 0.07722173193439438, -0.03955521058546203, -0.09454901720791382, -0.004054225779267812, 0.10962151692557867, -0.12047139250395526, -0.1295689042406707, -0.079024490982216, -0.010480606005035436, 0.10759919303857153, 0.10412121580064641, 0.03156321889523307, -0.13675729753200916, 0.15274431459234444, -0.15600272200233484, -0.1574454014187937, 0.023175186703046715, 0.1499109866033169, -0.1505727668322449, -0.0015600948942286602, 0.019251380290124208, -0.05566947491016154, -0.08827843467732616, -0.17168906494094927, 0.012050891943416112, 0.010008345179573176, -0.09934863339143533, -0.014024204367559231, 0.05830330447614544, 0.11699240297135427, 0.07741266346637207, -0.1602545726575376, 0.04891277353797734, -0.1481957444870693, -0.17259673105724357, -0.0024111764722744952, -0.125451410751195, -0.04662063786671799, -0.0810215708402305, -0.02167963453493199, -0.0017435163796845066, -0.09883001147276788, 0.07936781302204673, 0.04847623658637895, -0.15093199460512904, -0.01100889276959427, 0.010723297815039862, 0.1774421149858049, -0.07938839845405708, -0.07503728555708454, -0.021754742511856197, 0.08295909209043513, -0.12433769542332436, -0.08496271343290794], [-0.16096410020216567, -0.1279427473945586, 0.1345906024054788, -0.03875920064286529, 0.08165192076663608, -0.10706906566954005, 0.08618905143787375, -0.02543773008124795, -0.04929858096909445, 0.13827128409561903, -0.10143505611051384, 0.07409263751394189, -0.11995845776301171, -0.02507155782938375, 0.01575321471792268, -0.050606422548558565, 0.07551102694622218, 0.039395124039786594, -0.11016015090956159, -0.0806619086155691, 0.09988995403344943, 0.026297774253229485, -0.07705654341018574, -0.03858624477514834, 0.005332178246776565, -0.16518961829760903, -0.09900135341570084, 0.0803284078888413, -0.06880805890820131, -0.04842617687889151, -0.09621227751910001, 0.10630053641964402, -0.00479689887426224, 0.04251088023123849, 0.04188856559112329, -0.00539096994084512, -0.1620918258471533, -0.10936239143727719, 0.013381465296982404, 0.03559310839914547, 0.09771789455927406, 0.07183984510352434, 0.1728505690397793, -0.10988578401915909, 0.10232656207190179, 0.12099886782411425, -0.043695326868044095, 0.0764973782049492, -0.07812742171411974, -0.11046353446164643, 0.14542140039502646, -0.056568094534348884, -0.12570455911656134, 0.1418767409823209, -0.03379143931422099, 0.059562369120253394, 0.15015617894595923, -0.00982680729001316, 0.00045196071704845284, 0.011488968521053383, -0.16614529642175999, -0.12050670857044152, 0.01462177038065395, -0.010871604021847864], [-0.030832074174334312, 0.08940616203002727, -0.10102645164002143, -0.023740474985073545, 0.12258302958455385, 0.05110977096466064, -0.018362456977327975, 0.12991424320023778, -0.05366500541614316, -0.1466685594025576, -0.06923749148558114, 0.07868808714390442, 0.052331601059710256, -0.1538361866671571, 0.016261443177498863, -0.030413845961950188, 0.02412692327358763, -0.1531704530060448, 0.1235218177916577, 0.13276921439350578, 0.16459102195882794, 0.12481404655296757, -0.11858978866586652, -0.061279061379939485, -0.03931347825067727, 0.05780073400364307, 0.03328199945218066, -0.075741469353811, -0.005349371832316193, 0.13703057246006806, 0.15197367235927464, -0.013158551017538654, -0.04385454912965189, -0.02465290889885517, 0.16788732490660158, 0.07230502702522956, 0.09209802873310599, 0.14311913805417686, -0.13819500591014738, -0.0324160615618095, 0.08575456654605504, -0.05368380407412289, 6.0704646414002424e-05, 0.03924022477570482, -0.14464202376743152, 0.10296613651634354, -0.13259100574667035, 0.10507988480202474, 0.17956075614930217, 0.020850937785956536, -0.049950529599331245, -0.12559850506324668, -0.121348653418009, -0.010734269920005656, 0.0057920181164952955, 0.1004328110114441, -0.14440174511621953, -0.010672086334170213, 0.019556077549283662, -0.056179915763116185, 0.1799646538984853, -0.09796245060326535, -0.06050432443166165, 0.04776226171763637], [-0.16297803952432766, -0.08993035324519233, -0.07346639317797403, 0.004208426332097212, 0.024423790098184805, -0.008555247027527524, -0.08015462426170392, -0.13087255942043755, 0.12493134543195614, 0.1541505946589706, 0.011926258349648777, -0.1040221102353705, 0.11706890591960074, -0.07991111202507417, -0.057069918537029724, -0.05227784854913805, -0.14106792386061182, 0.16125229976820518, -0.09812138592968048, 0.06859171162990464, 0.07977079235094095, -0.10953806507936933, 0.041519920756929285, -0.07224176105227306, 0.054978787380662544, -0.09964907410967101, 0.08863611853301834, 0.08524990221089741, 0.08930013550544304, -0.06421063204876339, 0.00038901855729196294, -0.10584584132726367, -0.11195338018028421, -0.17270792933522242, -0.07256892189754086, -0.008577250232366461, 0.0029900221506944658, 0.110801800920741, -0.09091039070998778, 0.03558928650189, -0.11517364017085452, 0.11982711898295242, 0.10019388096342469, -0.007679239780725434, -0.05858080695977349, 0.033672796362434775, -0.10621368209791587, 0.006705039379578485, -0.10218301028317998, -0.09880917130977272, 0.12868546920906773, 0.04109015211570585, 0.0173191948119627, -0.09004659256926847, -0.09484662120224412, -0.010816581144760806, 0.06167935870330012, 0.16619366992896795, 0.071952819276683, -0.1579888336086647, -0.022003702002431274, -0.06447844914497108, 0.05141288975769536, -0.08656465275810349], [0.060295768446824806, -0.14315015144448204, 0.0067279346445758, -0.1594660458976604, 0.1523041761434813, 0.09967713544042599, -0.054572824218807214, 0.10073698117326539, 0.10095566910194989, 0.043458588440742074, -0.08311356194932684, -0.09347318951134251, 0.02727851199481679, 0.05365966650902637, 0.16009382772404682, -0.13071169415051984, -0.0933587607443808, 0.099222274229681, -0.004327610784799305, 0.12025893134900212, 0.15191201717480451, -0.04665990082110502, 0.026676280314633934, 0.12320138558969596, -0.039233369945915086, 0.035683284018725114, -0.16435030259946123, 0.04021195876556619, 0.0897316943715494, 0.01915273798244561, 0.10983517204512179, -0.17549560626641392, 0.041062511754357184, -0.08108159796282889, -0.1492339027226371, 0.11934925388303232, -0.0524650132520116, -0.06309443403608513, 0.1496045389349081, -0.13898473535061204, 0.03178103750887602, -0.16624727021778868, -0.007017262103379389, 0.03777208709577447, 0.0925687463935548, -0.045582676203102385, -0.03454937554584464, -0.07052644993575417, -0.15898266615481785, 0.1728725712357493, -0.15512894911028702, -0.13834617169755306, 0.1470780861459626, -0.016680420549458553, -0.11707227410266371, 0.050029152463203025, -0.14124618400909464, -0.13563609283332093, -0.004976300144623514, 0.08885000759026747, -0.08076935463823155, -0.14152018714673337, -0.09722121822184208, 0.1495322040367271], [0.0026332875886710683, -0.003052054203904586, 0.13281331846959013, 0.1347698635181647, 0.09263080142801164, -0.09179352220201123, -0.036783704034156456, 0.0411408716581082, -0.054031083013656805, -0.0013762764534575589, -0.03394227492923857, 0.1383482202453051, 0.01700726464106056, 0.0808692230594826, 0.1209710114419614, 0.14151024526944353, 0.15486573606239454, 0.08921071747558576, 0.17166845746041462, -0.14992352862112915, 0.1462130852072758, -0.08760133973083911, -9.447123167857785e-05, 0.12396311623611414, 0.01931702898973134, 0.05622936267790782, -0.02200132019343881, 0.05089701225620777, -0.1730131802687659, 0.11809910733810788, 0.1733372889351076, -0.11403043437815788, 0.053162167513849196, -0.07433141504389103, -0.09208813461693978, -0.16072336877958146, 0.13606778466093464, 0.0686814393144018, 0.055229807098889694, -0.02772605839997233, -0.15401893321945592, -0.05382615876286942, 0.13504128410501567, -0.09977665586310343, 0.13598329827194475, 0.03908101765800065, 0.15652233718960154, -0.0412267586774788, 0.03722000932038297, -0.06371387919813327, -0.03756798379602069, -0.054935970361358125, -0.07455418252413347, -0.03996587409324001, 0.01937027977290512, -0.06839227911969482, 0.03383227960724339, 0.1732851024053844, 0.10859198295372999, 0.05025740825834679, 0.14394128068870257, 0.1392645965872308, -0.12896936475488768, -0.12042549805043191], [-0.07905802011571433, -0.01586008840715694, -0.1132177501777159, -0.01592445310557733, 0.024312047154586264, -0.12191414659026029, 0.03126990169763316, -0.07126721187454439, 0.007411777488251531, -0.028896846871738102, -0.10583525210255505, -0.14033194941866667, -0.05309289045650181, -0.1356701322983606, 0.17121536090643838, 0.1005325182592903, 0.12780967828378484, -0.13886652593684928, 0.1640819827536256, 0.16283929459363664, -0.14248256482353208, -0.057255541007888475, 0.08330188834105176, 0.007494133513100187, 0.07787855074440284, 0.16855652106707905, 0.12612793308305606, 0.12020575442721212, -0.160216663550846, -0.14871632004897142, 0.08218656978099462, -0.0100113939127153, 0.16036065084589393, 0.022369758142251506, -0.1446601393068349, -0.06599198904088625, -0.027169279553732884, -0.05484660939388328, 0.03889808832387057, -0.07957705912620894, 0.0023977971541218057, 0.17287971551788098, 0.025419929452016182, -0.042162157388660276, -0.03486479626993991, -0.04993220071658758, 0.13091749454873172, 0.04366335404559063, 0.1345846415568985, 0.13673590451552473, -0.04854408261749396, -0.08310395975462978, 0.002900459026584229, 0.058412880186270166, 0.025537580528490506, 0.009165894375348288, -0.12845800543798913, -0.1432287481613334, -0.05868207601097436, 0.05041306560704992, 0.12708630481365588, -0.0514731025164705, 0.17294289818121836, -0.14164165726585964], [-0.06695541240352493, 0.03084440241355027, 0.00391533743326325, -0.08440653597018186, 0.008560744275594168, -0.15473472844409983, -0.12552299172751671, -0.17312405333416458, -0.06906650592589929, 0.04865863568827464, -0.08970547655039807, -0.012352277483873075, 0.08465975551156393, 0.044472041797997935, -0.09116533765470501, -0.046124707970142426, 0.10973317731542934, 0.1008256138467006, 0.03435063379986705, -0.14596811487058953, 0.04277763711490892, 0.04903497825328057, 0.013513933280072304, -0.16993478407591525, 0.07345157154094492, -0.1613617205455511, 0.1657998675824688, -0.011957332412805055, 0.09306438755549593, -0.03605672772886323, 0.05520266727679338, -0.014628663547763265, 0.07088609615045377, -0.10811668175373897, 0.1670274410075703, 0.0024381994290754994, 0.06168785263959306, -0.1056796220047322, -0.10731028933104843, 0.12197178261064792, -0.13804250329590856, 0.09380133199547389, 0.1706974011231356, -0.17606590236768446, 0.12896199171965936, -0.07256616088030934, -0.08209075244654052, 0.11149057482683503, 0.10632245572948537, 0.12580443766045282, 0.09471749481769928, -0.10751323763547926, 0.1142245748174884, 0.01965404022076675, 0.14896345499705574, -0.03436172681540195, 0.09694998742469366, 0.0514990341768925, 0.08645833809428363, 0.12247003243908852, -0.11286011667648613, -0.048837208468712756, -0.019094130593966002, -0.13374081589892872], [-0.11538344868094244, 0.03418292744034256, 0.1349389458700008, -0.15490136523517128, 0.09895585438460314, 0.1388955303680002, -0.10177462262853518, 0.04931944000183613, 0.10014232977671653, 0.07048882437746473, 0.16606898113754107, -0.10954736173715056, 0.041112655788396395, 0.03918977565611714, -0.02794272820772528, -0.11996880929181865, 0.12701477510759454, -0.13673767977505286, -0.15889097746838673, -0.06400245959220288, 0.059568090565047735, 0.15122008487133662, 0.16351966648692723, -0.0317041831179248, 0.04928517750088257, 0.039338211295808334, 0.0025611477732914723, 0.0935138153780241, -0.0930360687915938, 0.012415372406238133, -0.17634711692499488, 0.09316144304200193, 0.03335536743536879, -0.0321337639700452, 0.024688593441913653, 0.06924380603564156, -0.06264293098039359, -0.11770902820567813, 0.16899240419699568, 0.08636463008948567, 0.11244768699362304, 0.007496676293039471, -0.1197963710988579, -0.023163935950487425, -0.13343755712270178, -0.02062426465683252, 0.01509176749416416, -0.11445565068376731, 0.15465422167566265, -0.16503619091307806, -0.1479079042359474, -0.09424288190679511, -0.045868155752621514, 0.17395301893682727, -0.07226013837740496, 0.13589974387831635, -0.01133321101694042, 0.08034054180870036, -0.06407411064225416, -0.11193466309636174, -0.09726408085914191, 0.1019739705059993, 0.08998701968707969, -0.041531532184157144], [0.1693371187126271, 0.14815598655844267, -0.04411006664464681, 0.15059691352080892, 0.134150466634518, 0.08432141958963221, -0.11050982094280373, 0.06594836458278006, -0.13054431386969334, -0.16934346472902495, 0.057346064112090867, -0.10414532386696117, -0.1641753375813989, 0.04198879183620702, 0.05986363579192522, 0.0007068389732057534, -0.10242174263593021, 0.07112947005930076, 0.014049958098294707, -0.1271059538182198, -0.16560198211338045, -0.043225258861915056, 0.08019741481862322, 0.03858284451981919, 0.012191388888700222, -0.012966833464584243, -0.13676631012939924, -0.06193791146818722, -0.05460100874907545, 0.055836397668988985, 0.13868150836603163, -0.06282743612264598, -0.03316394726822913, 0.03176784504283686, -0.10027577819553174, -0.1366502113102041, 0.12011535758723371, -0.06875510641229918, -0.07081949070468038, -0.004176165157878942, 0.12830523350545706, 0.1518851613781527, -0.02403087589980943, 0.0893915957427733, 0.17013554374188541, 0.05652186451520061, 0.12041990415083662, 0.08032362443090998, -0.13869077946210043, 0.05434302819840217, 0.06890703100227263, 0.10131366607315764, -0.06721929907544345, 0.02744825774632595, -0.040688317434686094, -0.11668757599895213, 0.08760643408951721, -0.09111394772916408, 0.06817621104843191, 0.13605786854652466, -0.06310733088387815, -0.07272149381852064, 0.0552957959245573, 0.13170303019051446], [-0.003421167954123678, -0.017439145571659112, -0.09384886531200577, -0.18081786764303728, 0.12159494526838474, -0.08903427056819835, 0.09874986351577301, 0.10961008360659433, 0.12075827020243593, -0.05981370463428065, -0.0047713267588887776, 0.11635217641644206, 0.07375223003608282, -0.12646807622974524, -0.1735139019171492, -0.07622818780045844, 0.16883736147429146, 0.1266831034872516, 0.11306989581197467, 0.15048254465647878, -0.07913613401947764, 0.0904169044559992, -0.02643413381051049, -0.12763416333707703, -0.03905855073761066, -0.03597267006514463, 0.03789485382270483, 0.05487865615700226, 0.07749006066482356, -0.06150462000856623, -0.017161274573568287, -0.05139613627926689, 0.13407821162435843, -0.09813769018920217, 0.12887285543851548, -0.00578513690273958, 0.10437846246950824, 0.0614902618851362, -0.1633392210253759, -0.1658211679116503, -0.021417303668996607, 0.1454895508099726, -0.07007128319217024, 0.05520899119695322, 0.1640120713626765, -0.16667491361499903, -0.04877475670623746, 0.10402792006181652, 0.0551150422419373, -0.10139925531093157, -0.08121144279796585, -0.1576089850552896, -0.002986020055996186, 0.14058390596823578, 0.1692385115564701, -0.08559793784162095, 0.022133865040543394, -0.0639733106599864, 0.13472844640041173, -0.05632599296472771, 0.07476584674360123, 0.16025394290719902, 0.135025513694246, 0.16014419097419627], [0.012132971629364064, -0.16039156015649436, -0.010784587452222827, -0.006196894705498778, -0.02725332736841422, 0.16359208873871792, -0.14320305582030762, 0.08536047788637742, 0.034875125954482555, 0.16151021696637155, 0.016934995384557228, 0.059785448042660415, 0.13670881331751344, -0.15840769212900538, 0.049959197156525054, -0.06307708059548281, 0.03473948722730332, 0.14850061633803077, -0.009769827103474344, -0.13665235095170736, -0.08996878900959757, 0.1051721199792136, -0.013041851655267226, -0.10089008032848261, -0.14886653623437837, -0.09027921888391276, -0.11982212903153333, 0.0979252615185993, 0.08173956660168467, -0.06439093507499849, 0.062225187940877995, -0.07041730945017283, -0.16893088805954518, 0.1798075332346794, 0.17727322306419915, -0.009175166206747678, -0.038496613090580445, -0.02122427274924852, 0.0654007637745099, -0.11844703979587737, 0.1310674972569208, 0.014649924846277286, -0.0008917791900079779, 0.12165657076486962, 0.01578394342674928, 0.08015772320801398, 0.09736406382877666, 0.040340492512701845, -0.08524404776649452, -0.08960687050326559, 0.15462869392835307, 0.15979969420761006, 0.06198494382831918, -0.0719548320889394, -0.13163408623839962, 0.16548340256705904, 0.17011005465780443, 0.05329004413105537, 0.03612955702268834, -0.08657132029544037, 0.09795068660937466, 0.023574040588342844, -0.15164652336613804, -0.07986083862905766], [0.012548439488706375, 0.09001956385845658, -0.029016200076405596, -0.14195213819870556, -0.16956704361270103, 0.046230011527502224, -0.15020492999128088, -0.13998257240538411, 0.14741288455069615, 0.09362682232998173, -0.15002750426699502, -0.12986105729716255, 0.17331633533146826, 0.11552234900360256, 0.09527876580782194, 0.07390614793198971, -0.09881428519532216, -0.10012496507959397, -0.07511678256748035, -0.058104082569117796, 0.08175644734940954, -0.09653673671780433, -0.16125213889593, -0.16281382699053976, 0.09589507947604006, 0.0017906214720607438, -0.1605603520490228, 0.12673346615902006, -0.10829333682361407, 0.11458315262250326, 0.14588368324307935, 0.13909983734074535, 0.06418907038279556, -0.12157843510327564, 0.048086957635204625, 0.06425433563397157, -0.04033986954725219, 0.1460155656626357, -0.04201874263420213, 0.03182916370599573, -0.09599894784796714, -0.11688920777660747, -0.055323627102767975, 0.153564864855216, -0.053450362230702445, 0.022392130846934838, -0.11620025374070825, -0.042902487257763466, 0.15378696374588832, 0.025780025435126724, 0.13799320605267237, 0.15840289421932705, -0.09159566938166584, -0.09062779879277602, 0.08996282675415004, 0.029057159092935214, -0.060884817128343385, 0.004150439093662306, -0.04243455163008969, 0.07951199904161985, 0.06847357772207138, -0.03913843502240624, 0.14395742365940953, -0.07707987985119985], [0.11054791487603069, -0.10088947555873737, -0.09407604337319195, 0.1273961049149663, -0.0646197313257076, 0.008832953174152752, 0.14849578752052003, -0.06858010147871717, 0.12502475046630682, 0.005729791141193069, -0.14543427870078568, -0.11441062487248554, -0.10166276040489569, 0.03992971690704927, 0.1599339974433062, -0.029299585197721356, -0.024843159397881814, 0.09965483531474725, -0.08996745417872665, -0.1523959101109553, -0.06833418348751019, 0.04300944573146656, -0.09118719808901977, 0.15335999607341752, -0.021250353913848413, -0.16025602709251405, 0.1280162183360418, 0.023587641216328586, -0.15792723342984094, -0.14294900341022437, -0.08315180831326542, 0.04125950109352566, 0.04550463532167817, 0.06325481746308004, -0.008187161641622726, 0.12847570100479414, -0.025707421119686047, -0.07630869023468849, 0.12774566326730027, -0.022525621445317695, -0.1658049830848854, 0.0004830783469227107, -0.09463650108875742, 0.050987970074348105, -0.10759837505916446, -0.1271651407622508, -0.15144153061214444, 0.05257297653935289, 0.05324288876646502, -0.11199986657000317, -0.1479430174126571, -0.13926892965188065, 0.08183585730882811, 0.11913823629727519, -0.12306129122884679, -0.09250747492825936, -0.003445006458365374, -0.14866279086584688, -0.028057880232136928, 0.15043770241963886, 0.021132819344405418, -0.1370267163156289, -0.04052159203283248, 0.0895950684570376], [-0.16123171363288696, -0.08594603903196012, 0.05905902487426806, -0.17990099059602097, -0.16041908508811462, -0.0698176785008979, 0.02037057193445167, -0.030706849709691446, -0.17110224231260146, 0.06426998905126088, -0.05704508611798027, -0.08066770610337741, 0.1378135272631929, -0.018627683266136896, -0.09162868712483649, -0.11233200327609626, 0.06638360175485448, 0.002131789104418624, 0.06812478160061007, -0.04883467527333564, 0.09552653060552405, -0.10042494992960797, -0.1175903051153864, 0.1330749900989425, 0.10328650556699313, -0.03548732842909347, 0.10879334997346816, 0.034381196939220156, 0.1356409801297758, 0.07781714699811426, -0.0691612607147653, -0.15703208584344427, 0.10478510611322253, -0.15271650272261483, -0.035575200410872976, -0.08724287767830839, 0.1027903928054911, -0.04238639101594153, -0.011191979327559382, -0.12037927043670206, 0.05405564041220936, -0.1469640632672016, 0.14304855836794353, 0.16808672061653365, -0.001068805984466029, -0.06369518070267229, -0.1233711181113907, -0.13045316257318199, 0.0054714965132939474, -0.10534320660550138, -0.00896647552575397, -0.004214188834348487, -0.02685026918273742, -0.08791279966681174, 0.16708106639112144, -0.1287979701616105, 0.05718177520577065, 0.1498610646797509, 0.06514860078756893, -0.04417511558207759, -0.1533671299194411, -0.03576544754494302, 0.0749208669611691, -0.13004033958472808], [-0.014755974389337184, 0.06421181672711108, 0.11804392008666395, 0.12805827945011414, 0.021228373652437713, 0.01396664269493067, 0.0967007648415682, -0.09465825871173422, 0.11579085960714389, 0.05440983418151854, 0.13980799472782943, 0.08092911736143085, -0.13074380332713953, 0.1466087857171108, -0.12197053867488211, 0.036679885969454866, 0.13487971921309505, 0.14494995003734204, -0.0378501030148349, 0.14565128866977584, -0.019169004953359887, 0.09076757327308933, 0.06917272740738703, 0.11496429829203686, -0.0297265102398788, 0.012613040611888476, -0.023523528768052932, 0.003456651546175206, -0.10031242789016763, -0.026571771042249216, -0.0022996899500060852, -0.06046847446573632, 0.09644058799269636, -0.05839462565972633, 0.12306297916415257, 0.14538857614329226, -0.0020173110110601744, 0.13886063954579003, -0.10762999774363566, -0.11802480175890659, -0.033799446709497895, 0.024325866422729645, -0.06350580838461241, -0.023261680243438245, -0.11311175970804428, -0.15654380346922964, 0.04332084460916155, 0.1148448604870674, 0.08925944092045593, 0.15883135160393128, -0.03736480966754718, -0.15120370155029447, 0.12850236237842924, -0.06907859336536036, 0.10574217519118542, -0.16093138238531063, -0.0805031195587287, -0.015810567242909117, 0.10678807661218934, 0.06919280412441582, 0.061018764183180745, 0.06253695486156619, -0.1425668377815685, 0.09097313059093451], [0.14464062411155756, 0.089386545069603, -0.15070046007750704, 0.08386853321136163, 0.133087897423439, 0.013592552076164102, 0.05293770475067689, 0.1279933376744641, -0.11507117578174048, -0.14137690314130358, 0.06976733316197756, -0.02122445389127788, -0.12807355744710316, -0.13084783664127092, -0.10243108993267076, 0.15927635211900262, 0.12608003321952513, -0.11224168187925444, 0.18762664616427555, -0.09502539428809001, -0.0013341376453415651, -0.1645207087604175, 0.10225985176164984, 0.09284481715515892, -0.13451152911175127, 0.04333969996717526, 0.10208016463245194, 0.030208706025242893, 0.1672266826968812, -0.08620238698975814, -0.030837794093780055, 0.08442375095530157, 0.07640373645419499, 0.03456116502358098, 0.05577540237015741, 0.12030558594394347, -0.017398161376041332, -0.022774554878953013, 0.15913242960251786, 0.05663584485665857, 0.02546797825563954, 0.10418763617818276, -0.06500624700004874, -0.04571656837267695, -0.033110073280613765, 0.050660200135472094, -0.12027087628552102, 0.096389026503654, -0.002291083892725456, 0.08078180986495573, -0.17663294407915703, -0.1337475097837476, -0.04948151277708554, 0.009346395849317393, -0.03376139069784484, -0.09632176713794652, -0.09605077335809936, 0.1843702006649652, -0.16029527553890427, 0.182043848529801, 0.08137227954412929, 0.12124192277362018, 0.06725432044221595, -0.14938385663217454], [0.006331103575166449, 0.10479934285744452, -0.17425574798774915, -0.15919810538478002, -0.01453835807807582, 0.10868454066877829, -0.02736936343865229, 0.0531821889798208, -0.05828047043688281, -0.07658792461864222, -0.0018733880070253839, -0.06443597516117426, 0.04188975022497149, -0.12345224565993225, 0.08046535800206614, -0.05691662413912457, -0.1060155158276337, 0.07483677698608245, -0.09976761977519119, -0.0891336690433319, -0.05332938541060412, 0.14022357139064015, 0.16289598370018812, 0.1019263397890412, -0.0857317838499546, 0.033506440510600234, 0.14519936340115916, -0.02253696079064549, -0.1511530563292437, -0.01401608813295459, 0.0819499277119108, -0.020180654267605572, -0.1430923387837334, 0.0723417116544961, 0.16158987817648135, -0.09247598835284616, 0.044972830317293544, 0.02340645837896085, 0.1157385761604194, 0.16229640131839193, -0.12149023531006126, 0.13494348176011253, -0.16403273794213039, 0.0203427451134795, -0.09924868953024882, 0.11156323074824444, 0.06410950759460282, -0.12507314667284708, 0.07900562332326151, 0.04596123905151081, 0.017400077485550614, 0.006596594737099587, -0.003255032863161339, -0.1686434989330454, 0.03752763990627009, -0.09003883421283025, 0.17141822907363471, 0.12561204399206694, -0.15187635594527313, -0.13872453453103084, 0.0471257493513918, -0.16764131965985093, 0.10066246274110745, 0.09187277782968209], [0.0025552850364604085, 0.003611153495660019, -0.1323888221930487, -0.17562911320898805, -0.14584779354587696, 0.07527071198229032, 0.052352695313805875, 0.02851411073686319, 0.09925429569635855, -0.04359526243456269, -0.13354510646999804, -0.03746964456277141, -0.010599737031849271, -0.015748385362019945, 0.08380543656482378, -0.04249234516264841, 0.13464172759739737, 0.030465760815276854, -0.014871669989501873, -0.09104313613556125, 0.05984991058743727, -0.08406617206740157, 0.03293300416749215, 0.06724688994852396, -0.14760225804818483, 0.09800437721379421, -0.03267390721876384, -0.10388645404443343, -0.06522807239077627, 0.0019034131499059137, -0.1542856321890754, 0.13457991084854473, -0.062075419315737845, -0.010778090369485599, 0.11642765971700711, -0.10512689739391914, -0.12057217900770856, 0.1483663133517549, 0.093266219311858, 0.07341751539046334, -0.0796005096224496, -0.16761670006496426, 0.17043215583398333, 0.034006851743206695, 0.014601267824909087, 0.033892003992265024, 0.05281468757282906, 0.12263966025792325, 0.12324073339280164, 0.17668781058766744, -0.04608135563785698, -0.10468173649837037, -0.05854111217171194, -0.0051481869255200485, 0.06544946721369962, -0.11436547010801157, -0.1584184342520929, -0.04391516606061033, 0.0796937824379085, 0.12329124483755818, -0.14304611612297316, -0.17263502445211837, 0.11803226978277129, -0.05900033639729234], [0.025678930897295598, 0.17201113723879416, 0.10796327137407483, 0.16198086354491278, -0.11157555547882539, -0.13291461900613866, -0.004844200870004064, -0.1519233094573887, 0.09194199669381362, -0.04244183882777269, -0.16736531367114973, 0.1336821069509895, 0.014289550187476404, -0.0522310163798152, -0.031000622809100986, 0.0242684479565216, -0.128904061780447, -0.06220845507991217, 0.08976762362185696, -0.07517997055275233, 0.025484541940638355, -0.15251400891106878, -0.10358771116103782, 0.07575988123792199, -0.10349729751076495, -0.024643297755300997, -0.14479451808443666, 0.03285245298196062, 0.03977372654711445, 0.09579400823724638, 0.1657520577845885, -0.07997442042936219, 0.05058493156899782, 0.17149256583546324, -0.17471105587046784, -0.08070501777407904, -0.0074440983126717875, 0.14060429114393172, -0.09623383949792226, -0.1358630238003495, 0.14644031743329286, 0.128122714200262, 0.13533840370152161, 0.15095754393304414, 0.12317126999196472, 0.16935208383006498, 0.02972062832337738, 0.10499150871482409, -0.12732102168034734, -0.060215340929759956, 0.171695441058391, 0.026568287680175662, -0.013957445609857344, -0.08548893813208058, -0.07296608481484086, -0.07937702768719627, 0.14526647758032352, -0.02651447947118023, 0.06967026112615382, 0.14344718004238238, -0.061429636649538995, -0.17495801583240134, 0.09174436719154166, 0.17198521675723735], [0.04051064012014231, -0.006064013399124837, -0.04237293207372958, -0.1079619240863136, -0.11805262875496425, -0.10366369098097022, 0.12706038650003873, -0.1725335987775916, -0.11451116085058491, -0.13501170335188478, 0.116501095936382, 0.16782950868881163, 0.1244147267514606, -0.10837434788890979, -0.006673392053637706, -0.08307908995910325, 0.0348956169550516, 0.0869369006758719, 0.0936052903318286, 0.13729703025439866, 0.06623834182701628, -0.04337948424580242, -0.12397763321602108, -0.09610370978189457, -0.13897031360687317, 0.016426607792923098, 0.15175067757573663, -0.1363409646366449, 0.03180656602292375, 0.11773319898279158, 0.1507205520893697, 0.07694817850623079, 0.02538707541921839, 0.1456521289288383, 0.027838604064749164, -0.09286766376751839, 0.1501977236419151, -0.06825123800709315, 0.03380296671355906, -0.004550816690756276, 0.163406633840879, 0.14290742912740945, -0.019198620945998012, 0.08372203113007746, -0.12180211530841215, 0.04118083812362234, 0.013013279703782143, 0.018440198992881483, 0.16722893739633876, -0.014794601203834662, 0.06870682730761629, 0.10924037877836698, 0.17421662817954722, 0.02531382807733474, 0.09499754216593578, 0.05045845668110652, -0.07142499202482118, 0.00733205695208943, 0.11845926596910661, -0.032952570785303566, 0.13554240321232539, -0.12299871648638348, -0.017923286118627715, 0.043391582504995], [-0.15838778813446922, 0.02367042770483882, 0.004646706943284895, -0.11580530424755182, -0.10727063783774682, -0.10780421383508153, -0.13660447194138314, -0.004781375753947583, -0.07755882340780469, 0.12424819381272637, -0.027091743176726246, -0.07861383776377809, -0.014310732119938342, 0.04667331379990328, 0.17583013067006945, -0.1006334416821527, 0.06744239263315221, -0.09368760234085073, -0.13627732209023471, -0.06740195131214516, -0.05239622787165441, -0.1353585016248156, 0.161412495386741, 0.08229879418917012, -0.04314147667419352, 0.06608255985336142, 0.0975854885111022, -0.05583915745863722, 0.09236201973081744, 0.08107054807797294, -0.10193026638809093, 0.14000197870852535, -0.07917897388442756, -0.04815841655667132, -0.08936536979658302, 0.07560394686440956, -0.05719800048600687, 0.16388377054954537, 0.028950339305830523, -0.1656532035348932, -0.17022542513303174, 0.0737674961273267, 0.03243654696786416, 0.02499133629948757, -0.11292813734620903, -0.04504539936459086, -0.055382963154268855, -0.10822068629344674, -0.08056326513577715, 0.10782423387662846, -0.13093742774213604, -0.08584422038819538, -0.1378815404306482, -0.12271785928930236, 0.133678196604291, 0.13957992422063462, -0.005915786859409959, -0.07602877178414426, 0.04664102611366697, 0.066158793426234, -0.15447428987460965, 0.15355738279365194, 0.07636083945810306, -0.033679537639369816], [0.06325593858675191, -0.04455101388686411, 0.04063767317355654, -0.08027662628842243, -0.17389273038436512, -0.1345520742694915, 0.0774274296297883, -0.03327097014827046, -0.008066837982127095, -0.10472160906032092, 0.004839680172328803, -0.08833091168543472, 0.15170839990836418, 0.04054206300450891, -0.07661516066656927, 0.11354698282345052, -0.049283707902382096, 0.1254334841665408, 0.07815279702536906, 0.03402531498311276, 0.0762055987447802, 0.04645329968022194, -0.08672959451099857, 0.14527641229150642, -0.11883513844411098, 0.16187085988675295, -0.10928326208575344, -0.08225506109338088, 0.13909485543399233, -0.10539254468446689, 0.11657478886701886, -0.023725910995156085, -0.08443115974574895, 0.10781001562883177, -0.07190517671210091, -0.06386554616895496, -0.09339110151426042, 0.12114834262007038, 0.07225852164021618, 0.03366107491767903, -0.052742694027902076, -0.1091553650578657, 0.14517609875035978, 0.06698316900360654, -0.07106112358896388, -0.03111710435993073, 0.029693016563063446, 0.00437643252420461, 0.08778873986567773, -0.07153140698681326, 0.14142313230316242, 0.10977912227668882, -0.16375203298206387, -0.019003080908240294, -0.11888425051469279, 0.048012591930808146, 0.056330497982868294, -0.1459506062379543, -0.04924063012391161, 0.0233832656543512, 0.06008475897033222, -0.1396256150093051, 0.05178616890298551, 0.06675282176878108], [0.10373095091861408, 0.04431702727248909, -0.046791349940638854, -0.015150883275498298, -0.02289831420736453, -0.12836718644542153, 0.09560712504519264, -0.0007302696841691944, -0.12586776990421875, -0.05612539793162846, -0.020832180049817905, 0.1460855790595514, 0.10109466876732541, 0.15509378922231734, 0.14766007754219687, 0.036693337202556374, -0.16192223678952028, -0.03539166327905129, -0.054236399141072825, -0.0701318869847866, -0.028611493207554305, -0.02759845714331347, 0.17883431766333488, 0.12181614340064058, 0.051249999065522786, 0.07209183272007545, 0.07420415252718243, 0.1045085518068162, 0.16455598504671198, -0.037160085027901454, 0.024680868648232077, 0.11582687220881856, -0.04194263341404694, 0.17363820623919365, 0.059815317790645466, -0.13956935694346306, 0.041364722381334235, -0.050378038144856044, 0.1439404425820938, -0.06871721068099997, -0.07835998975177226, -0.12773936625043297, 0.03426327481076514, -0.12954938504225802, -0.08166339297703537, -0.09042348074409932, -0.10239533579433074, 0.1414085907139867, -0.07569734411086076, -0.1226643892409318, 0.09079812378722832, -0.04757506542178927, -0.15638516330885863, -0.02203570072690738, -0.14753456040513926, -0.0411034219411959, 0.13230447526420233, 0.11769978708811399, -0.014035652478529871, 0.10181331920949459, -0.11314150949915967, -0.0017261134945253962, -0.11318891761867657, -0.0015889632621180483], [0.061524251951171935, -0.11127020181407463, 0.1757139756635225, 0.07583538348987517, 0.07308688580839293, -0.15625290810515458, -0.10507005860175579, 0.16591756122509718, 0.1490583767509198, -0.04678114041334222, 0.06017523964863686, -0.14253730278346108, 0.1450155493827673, -0.10992659084802499, -0.12156105969852171, -0.015126098961741186, 0.047901605525706645, -0.17159831024888428, 0.02928150555661292, -0.05618769011856866, 0.14684874664790296, -0.1301010481859716, 0.041005189806921805, -0.06908471169688206, -0.16327348922639218, -0.012255207690951763, 0.1229371255925482, -0.16933073662117454, 0.010459605166830265, 0.16690552982524445, 0.025864683118068894, -0.010211390064867017, -0.12498722418266414, -0.12963161934203027, -0.13496276380325897, -0.05620116656329806, -0.10212929414751944, 0.16427780148019075, -0.08576168492399763, -0.09407952282683596, 0.10459983320118027, 0.03268517350351995, 0.14439065537104986, 0.14070754835603733, 0.019819705334132694, 0.09081815588225164, -0.15175938761401722, -0.10696331624721882, 0.1692565702667422, -0.14532660417595958, -0.06749184274428967, 0.0034518238123028566, -0.11591084013672233, -0.026898358821247206, 0.03772418067259456, -0.03292107740757272, -0.1414230156063687, 0.03057885789565197, -0.1650091989219878, 0.028684706802659332, -0.061065220739420015, -0.031100360958144706, 0.09065956184103895, -0.08060725953032863], [-0.07321532449589423, 0.11660443613348684, -0.10883108003012738, 0.16647237700744486, -0.104996085383914, 0.08038399340461458, -0.06702048962802523, 0.05568716105284929, 0.06598863681353806, -0.1300061497849078, 0.02294090379552549, 0.13027439046366293, 0.030648422187109198, -0.08557512867055657, -0.030643813023292138, 0.09757872422594685, -0.15667456973846805, -0.043520530308351596, 0.13412683143114676, -0.10150794437898242, 0.01761766750795088, -0.1586581453975405, 0.034306693964931995, 0.09604494825818058, -0.03802048956233864, 0.009217678475070656, -0.03883240634055668, 0.12386183290796585, -0.14271665508949197, 0.0740921226047305, -0.135376166652956, -0.025189574230941453, 0.13408192373315583, -0.12890200471023924, -0.11525025118007948, 0.16817808028308465, 0.15542733757778301, 0.15894522150235238, 0.13634910610424825, -0.10307426649275302, -0.025140847616100304, -0.15778718794345983, 0.17299015975252427, 0.05197706232911764, -0.12792451439676505, -0.10976079174532646, -0.15463843102945546, -0.10755102014678684, -0.16759587669592058, -0.05488169563991449, 0.164299475359286, 0.14848943967275433, -0.01190151668415998, 0.06547180171462189, -0.10797491667562233, -0.025314686851840823, -0.10771619313322268, -0.08537446899987008, 0.07776770256042595, -0.17268542730941377, -0.09466721007103408, -0.038451895873574865, -0.1240917494037398, -0.11738848165902761], [0.16457168025650168, -0.001948340409543381, -0.029797568825155746, 0.1461756753084537, 0.15989036272685478, -0.132757717199621, 0.03672784053356138, 0.004756280533040335, -0.10174160764751412, -0.1488623798170647, 0.11619022380997787, -0.12435948351403375, -0.03219630599024844, 0.06852005058849939, -0.13526151958369748, 0.08515776363926032, -0.08943218131858517, -0.15194564882395667, 0.008969992463866231, -0.06581841762785122, 0.17095806664836513, -0.001128066666120099, 0.01958724122987989, 0.1631400138280091, -0.12362117738112965, -0.06899228653635923, -0.06425157796408451, -0.05891593015485929, 0.03272995966954352, 0.020487895995248154, 0.09975631243259292, -0.0671774862092582, -0.15664479072615625, 0.17807171148580175, 0.15008013714451604, -0.14621947941408056, 0.1046062099116856, 0.05526895259795799, 0.0017960323625331193, 0.1006777620334968, 0.05123140875451911, 0.16368084906339603, 0.17194633466828335, 0.18421351718840254, -0.04964523189337463, -0.15294304754272187, 0.06476156003018452, 0.044429393010280975, 0.10932918479569688, -0.01030417695550509, -0.10888948786242517, -0.049876663239428604, 0.02620922802544659, 0.05545688105226037, 0.008080755325491601, 0.06524383197332714, -0.082122401716971, 0.05650793307985517, 0.1713560577629004, 0.031115771330387478, -0.054897108026131645, -0.09997317944070139, 0.047560262622886325, 0.09208498420018332], [-0.04870000073580075, -0.11160774282850716, 0.12079529395340574, -0.1400370377554772, 0.05204546008997557, -0.132352185886789, -0.04677797514282872, 0.17566891001982646, 0.09707258279350253, 0.08900593696753892, 0.0680687928054832, -0.1469643157796786, -0.13087229600224592, -0.08708861116957939, -0.11371790415270493, -0.095191922532848, -0.15182988347776136, 0.1546344339590863, 0.07584247319444645, -0.04434012985123137, -0.08982153924073025, -0.15637133136077971, 0.12429522943790802, 0.0066156851697593, 0.1065884560782008, -0.0871151483052891, 0.09574211148172176, 0.027088240944939224, 0.11005119637219965, 0.10950570970403553, 0.09333702659890056, -0.0036387718780685196, 0.055210578924004966, -0.1552673521677237, -0.07549716628813986, 0.13070804893369478, -0.019210129134347137, -0.15273005203922718, -0.09123763299774192, 0.0994027761774389, 0.11384806171464648, -0.004927192355906412, -0.03186657578905294, 0.16037705140784134, -0.12079835971303203, -0.14232125815229635, -0.0506263569221157, 0.11903261774426657, -0.049258170479542146, 0.04957615867466278, 0.11745073912825457, 0.1299922675248095, -0.11452374309700597, -0.056771253731547136, 0.15690177213965642, 0.0280005897532008, 0.11460441210842712, 0.05123708127589294, 0.00292830948140152, 0.0730614895729205, 0.12443945770750173, 0.14843814405595743, 0.10375225292893389, -0.09568432456629747], [-0.16224717084971751, -0.15657405183165313, 0.07648378422021221, 0.11690275209156384, -0.11618483307593587, 0.06396744017225642, -0.025791653729366232, -0.11046741014242929, 0.02679957555519849, -0.08032553015393444, 0.13697484179836303, 0.1304907568244749, 0.04099468190801753, 0.07336802658731748, -0.06700340248769852, 0.08432406949819457, 0.03593996235302685, 0.01829103472079366, 0.008619838698540883, -0.15921267569674416, 0.009263649608034358, -0.1669804153314424, -0.0382661683194378, 0.03738793066844559, -0.14830104288524493, -0.1197675958557996, -0.015036737231624048, -0.14397507002837756, 0.13118811920601844, 0.03207169101620802, -0.1118045566375433, 0.06046599612239151, 0.067118272807531, -0.03100967597931814, -0.09985558299372709, -0.13265457135956243, -0.07822365322177577, 0.0055835887881215684, -0.07409143818743791, 0.11197710640721523, 0.14972697813675215, -0.06887637984102242, 0.1393657789707217, 0.010100323102728681, -0.10617835551722513, -0.0040600598095467955, -0.041040742766259714, 0.04947175409009111, -0.09648977718170401, 0.07577860007124662, 0.036334033725380216, 0.1485885874370306, -0.10412848432103707, -0.1539879739384794, -0.12441298725518286, -0.16136261448712844, 0.11631324641230004, 0.01668650867253879, -0.053801693797975295, -0.04150014214289302, -0.05862717976784601, 0.031355614342335136, 0.15321008158976449, 0.14021658086968122], [-0.005355766014071162, 0.054727299377340916, -0.11341575432284091, -0.004864235832456922, -0.09426473187783539, 0.014747092335865814, -0.1396667625117376, 0.05654979262529827, 0.06524718955917183, 0.011580821056371926, 0.1378614205264592, -0.12139294031496035, -0.007504362848002959, 0.05765343697412151, 0.17589007413792254, 0.1553115602370033, 7.30462901686826e-05, 0.1707246471046231, 0.03103179488619245, 0.09842854538907925, -0.08419067185555922, 0.172222178393528, -0.021160289054233665, 0.08192018046997981, 0.02755838456033763, -0.051944680607295485, 0.09739231539160358, -0.08244477795020487, -0.005808284208322974, 0.11167745829532487, -0.0254187309774808, 0.09781989719427409, -0.010944000021015171, 0.1527056444914604, 0.023758808290196352, 0.1778308351078842, 0.0030659593494508086, -0.06865307781223742, 0.005095492325386125, -0.11250700798214279, 0.1617718486485175, 0.12085322561934364, -0.012695556152469518, 0.029094932824212428, 0.0023635206513140648, -0.08755229805245067, 0.12691253294879168, -0.04601722531738045, -0.07297849788662375, 0.1312900652700091, -0.011624159156307184, 0.1384167028244759, -0.14124764645322835, -0.047142780003337346, -0.07742297129638351, 0.14230264201171525, -0.03101657965231063, 0.062105577173933155, -0.009874476689903043, 0.02939607689660507, 0.07877776471282753, 0.1392701585458965, -0.12267282346680664, 0.008872718129439627], [-0.09149426295539068, 0.05822504650897274, -0.007400781801249284, 0.11180173617117947, 0.10867051985292019, -0.13888291427176952, 0.10725229206908031, -0.06999432066898331, -0.11875113581492269, -0.06629621294653634, -0.04404487987155087, -0.14385107398870184, -0.10074929407363784, -0.006133006585664125, 0.040571680643844255, 0.15191120931068378, 0.08079829916940226, 0.02650165851491787, -0.13616132546695983, 0.061187985771956284, -0.16290760591633258, 0.10507992048081757, -0.07683698092376597, -0.010910508149731171, 0.11087007745193009, -0.11865055303082636, 0.02148236338215745, -0.041627071788508115, -0.07137811794824588, -0.0742474120552772, -0.06417781841468437, -0.10629650819258117, 0.04814756955666383, -0.015440179303598664, 0.16233062858876693, 0.145808565346533, 0.05104279054245092, 0.17148370926739823, -0.103059572631038, 0.11010802800395092, -0.1368322116286855, 0.009562553793238435, -0.09451854322661456, -0.0521411782703825, -0.025577482456356233, -0.09097365308956112, 0.10380418727531984, -0.040587479235550346, 0.16519999191934287, 0.14286448562981538, -0.11962221837919865, -0.14788006988368535, -0.147506233378878, 0.08075302582848239, 0.05762911460860015, -0.08122784340494481, 0.03369627491591298, -0.03916738980359951, -0.03791836500013493, -0.02674166878569065, 0.14622320671612415, -0.016377947624471284, 0.1416318568513408, 0.1559191934913999], [0.02501835023354352, 0.15309425076791325, 0.16146939352738068, 0.06490465634082264, 0.14262597486991263, 0.15816937954505023, 0.043393720537967265, -0.15167219638806254, -0.1239940243067366, -0.05701709724718343, -0.035251805150810306, -0.1682782073755783, 0.027282073482041168, -0.14497571960168543, 0.023916249276071222, 0.14419824112308233, -0.12670388090268006, 0.07974094975908633, 0.05975113199105148, 0.025102613795602975, 0.08869422786455905, -0.07412520633525457, -0.13442880873192853, -0.05825325713854225, -0.06422393909529216, -0.07418183141958308, 