{"state_size": 5, "hidden_layers": [128, 64, 32], "action_size": 100, "weights": [[[4.171805581104774, 3.759005378516322, -0.03484880006993755, -0.010547509995799217, -0.0374978964202181, -0.21047191998949732, -0.09319575059554037, 4.024308130318805, 0.06102134418494439, 4.115417991549658, 3.7617830727228445, -0.029511539294650085, -0.20155392734100544, 4.099504534501278, 3.766818159295974, 3.718266694746651, 3.7298340946736577, -0.057020951541266095, 4.132735638628406, 3.993996815516343, -0.19135210669009364, -0.13749798867263338, 4.083200064255388, 4.0469312522246215, 4.024275540947379, 4.081705440384352, 4.131572978861273, 4.155341581990745, 3.9129305580256166, 0.05666150204423079, 3.8195648764947925, 0.14096551266795346, -0.09843389582817559, 4.1358202939883215, -0.11626118240240133, -0.2293889888536174, -0.12092729087828394, -0.13969788437462893, -0.04208125369149038, 0.18811195718697857, -0.0844310496361278, 3.8335878988607015, 3.747700643099453, -0.18303615047745064, -0.20715843793863095, 4.0078651933661265, 4.616013190736485, 4.223050286558968, 4.489092476249969, -0.09959505167843904, 4.325255927387921, 4.011929113538289, 2.919230719754165, 0.015191306557588075, 3.832450296599567, 4.0659280555895645, -0.1130495849561649, 3.8765876048913843, -0.06736778638615448, 0.023314787531218517, 3.954630108064048, 3.887040033476199, 4.483695858727279, -0.09710686926716458, 0.05079227415678333, 4.078015755880863, 0.009776746669554914, 0.03722082341124858, -0.1426638680908991, 4.015016327662695, 4.453844485649872, 3.898182438347623, 4.818598895880727, -0.19768990298526076, -0.07213783687377621, 4.053514385533186, 4.368772289933654, 3.9597088613921625, 3.9284657513433467, 4.7813026704102235, 3.9134608335874304, 4.016917709279867, -0.14760029055328455, 4.100216827107092, -0.2262915717817397, -0.08019481980889122, 4.112771919026295, 5.062811115416582, -0.08011082147992787, 3.840452101680144, 3.8831396403856773, -0.12702434350873054, 4.09180352263276, 3.8379827419088586, 0.1128850551189916, 3.153566849024286, 3.780145910719855, 3.970319734425413, 4.738454758128599, 4.064918025707003, 3.8045567780918765, 3.9789417886015546, 0.005597398548892574, 4.6139140580064515, 4.098317152980506, 0.06977686086581487, -0.0186934274239095, 0.02263465107264498, 0.13056330318007037, 3.9804818120230947, 4.021831732145434, 4.01850952590657, 4.026755993048512, 3.999859510801523, 3.7040910672718246, -0.09351383619039225, 3.866508636556264, 3.9402612545131066, 4.9922568722950516, 3.934652662990504, 3.7271710966180964, 3.811575053722209, 3.895506166498018, 4.55799387981591, 4.153774348768245, 3.800979898614952, 3.7802534532915355, 4.146619768996701], [1.101498678923076, 1.1964810353560662, -0.1155944137458827, -0.13154960685709277, 0.06255776568966456, 0.11988360278990633, -0.1305743438244318, 1.1141299864606065, -0.17578546988899665, 1.1502648216778264, 0.9888821384551627, -0.1758300605574028, -0.012628612748051243, 1.0616197809480552, 1.0613287713122046, 1.0992724917506116, 0.8224784465186572, 0.09866752777730028, 1.2491316903855532, 1.093789841087242, -0.10962505702158427, 0.006304876451325353, 0.8423254645414846, 0.8429583184598881, 1.0874952295116345, 0.9492760762755732, 1.0608904537693002, 1.1092061481013815, 1.0538285079359764, 0.023778568774255715, 1.2066958304960076, 0.09943385118829741, 0.045868447394195565, 1.1966225715104353, 0.1687824355629318, 0.12090684402596633, 0.05509534051217982, -0.10076395534996922, -0.17913153622440206, 0.16642290225602083, -0.0005354429182924114, 0.9307121958845606, 1.1714019842459826, 0.12170784413512549, 0.1016687206630442, 0.9929471787505446, 1.025701740450513, 1.2197123906920486, 1.0537341860510596, 0.1758570452483332, 1.1198936905395829, 1.133020462523479, 0.9514368451612323, -0.011751377520834827, 1.208780630426767, 1.0218830496463687, 0.19792024522760596, 1.1717998108146281, -0.14242899452918995, 0.010568461081586822, 1.0727052716798482, 1.124516947094892, 1.3269892083168104, -0.06909388609475939, 0.0340121845794538, 0.9514969575695167, 0.07925262366013, -0.11867425725081245, -0.09245252043360468, 1.2059144475340766, 1.2234577894050533, 1.116398336692715, 1.0754807853914976, 0.13234650027446274, -0.18037501820825566, 0.9705384841896203, 1.2111579100371948, 1.1313983502075484, 1.137670798960097, 1.0069581424256346, 0.9392829036124859, 1.0875553173778727, -0.05161854217944911, 0.9898957995071402, 0.14075601161079476, 0.04256257755975564, 1.1644210935687649, 1.2793229951798304, 0.00530043623105381, 1.2009605001923964, 1.1470616992167033, 0.19920334539477533, 0.9138741231341232, 0.9518867770614259, 0.09311255330603314, 0.7330212204881508, 0.8921787907393368, 0.9109747398213242, 1.0614412159088686, 1.2038943186686752, 1.220205151247087, 0.8541081883915933, -0.14652974552675282, 1.1021003435729841, 1.0098941337635248, -0.2126447243478523, -0.028335595806531368, -0.08866213562409775, 0.1713978619725703, 0.8671462834685877, 0.9594819482208481, 0.908029255393872, 0.8603962396635481, 1.0308356629897237, 1.0622779221042278, -0.13218993969366943, 1.1495689089243675, 1.0110025805523202, 1.121802308541718, 0.9302333342087066, 0.8729757039516066, 0.9085573289244446, 1.1224220847787916, 1.3403323498418007, 1.1983890077367214, 0.8278422651289556, 0.9993072358729472, 0.9342677254433707], [4.879570414776438, 4.966601539312692, 0.11541798660853231, 0.019124571092794484, 0.04196433619359167, 0.16289872155368823, -0.05960414771970868, 4.86396442643575, -0.17952840437435302, 4.554851314618993, 4.941735558305078, -0.19275559543481788, 0.045941716784317715, 4.910094193063755, 4.733193275294879, 4.932040179023484, 4.813474396612051, 0.08828640085940423, 4.550801350453466, 4.83624945799419, -0.05922374163677366, -0.12161326599488236, 4.594211298397607, 4.943942527635636, 4.634047814409839, 4.98037804395404, 4.925029125124474, 4.970445191253804, 4.6362114362823235, -0.20991460186620514, 4.699057381783915, -0.0019968160291965603, 0.11602005810995997, 4.80423637621027, 0.1461501300419885, 0.11968916385696973, 0.09948336931213905, 0.036577748714572644, -0.17437080183146192, -0.19673069962468992, -0.15828293775526078, 4.916458142445406, 4.878752162093691, 0.08076649890808958, 0.08640612432449143, 4.719583106476841, 5.256063950792474, 4.875922433769946, 5.219242116951354, -0.14456083834734287, 4.9437732772512835, 4.633123999477025, 4.020572821858444, -0.20677259172607007, 4.79589192857172, 4.792756727722897, -0.014484771609866554, 4.747817009161117, 0.060497566572729394, -0.08815599053648485, 4.850118195677888, 4.875409918483869, 5.292356234587948, 0.04673763060997115, -0.0544762472948049, 4.6998601046702, -0.19758710825496117, -0.18940382187702046, 0.08761022852796838, 4.91628752715785, 5.431929950222665, 4.975311750144429, 5.495627358197449, -0.09706477823371616, 0.1518083620776626, 4.636320798475135, 5.365566877612314, 4.901629339485364, 4.7025818711582925, 5.242494550659969, 4.683312735160536, 4.561223855936029, -0.1675280751136562, 4.742008587782797, 0.11658665892194342, -0.10510634241748196, 4.956773813164494, 5.561100179799431, 0.15902578094858638, 4.84565558684382, 4.772857760768177, -0.21193683601979355, 5.048915636604027, 4.693930128774069, -0.038914669229471274, 3.991949591391144, 4.841620357708364, 4.679548480224244, 5.5616832798437805, 4.682188347513369, 4.813428199530594, 4.62858241815605, 0.003939402029294936, 5.4535415634936255, 4.743940400194717, 0.03779474277220855, -0.13986403591734403, -0.20951312841598396, 0.011274101928630473, 4.83594297833443, 4.729029003557894, 4.874676782844221, 4.6423138217542785, 4.650180810816636, 4.751482625280273, -0.16364819631174013, 4.943506133445193, 4.853851968051926, 5.571724319876273, 4.907385615009136, 4.784253470480748, 4.808446767482613, 4.543884760145972, 5.39031795632801, 4.817375627234616, 4.6464216402954746, 4.925227576631428, 4.964779197573548], [3.6890471155562437, 3.588087889636026, -0.2161115611579849, -0.0687632604406282, -0.12722008151790112, -0.163187433967882, 0.04211877810777123, 3.224805978878854, 0.0728047593062307, 3.567379283975565, 3.5734060137632118, 0.12584252754645867, -0.19158138770601005, 3.311512126377036, 3.5878758570250673, 3.508721515465001, 3.435250447241605, -0.008346273618370306, 3.5686338277380605, 3.2923969112464846, 0.004396467868061804, 0.1447494061706757, 3.696774312404722, 3.6173391272375284, 3.4188941267774955, 3.7048042522523286, 3.700270584129192, 3.477683400275861, 3.3362256753873547, -0.15497611118896304, 3.6085771927991463, -0.14417631447164228, -0.056890823919551414, 3.5116971923909, -0.03221870189445457, 0.115423968278842, -0.1488617122451104, -0.17687129566493398, -0.019533114228358378, -0.18256031174107226, -0.18782434572512374, 3.6600802258651104, 3.3714465198432215, -0.2114856212831778, 0.05189212365885906, 3.456739421130076, 3.7486486512737502, 3.7966669690346317, 3.9069094946639886, -0.19548541038236134, 3.6515598461105436, 3.752960277369608, 2.652168963554466, -0.18817776609804696, 3.5864562871494967, 3.4741719442986403, -0.13551933873905506, 3.5988964526595866, -0.12112562481140372, -0.14230904790235405, 3.3686851187445175, 3.4701528243473807, 3.7820444687898633, 0.09541173009623484, -0.14125383384610501, 3.6080921066723612, -0.0782467323944381, -0.19233446382810546, 0.08960681143915163, 3.5832919215925725, 4.009930169001285, 3.3475473169708225, 3.840836996508312, 0.10386081918723308, -0.1918201162014347, 3.40914603075682, 4.067602810614766, 3.2549359779498968, 3.649007436242973, 3.870208667278552, 3.677079335249654, 3.606266209905259, 0.01353578831037483, 3.53126135561896, 0.024161469481943032, 0.14801102980193184, 3.570768689501777, 4.096859168122291, -0.20857520472441593, 3.533382643509264, 3.6275413728307715, -0.1638619273086359, 3.733946256809102, 3.499161161131986, -0.13984058190644708, 2.73940176222177, 3.2900872540428137, 3.448254572300526, 4.256262345393217, 3.657003710491937, 3.54527764577552, 3.5866599914102357, -0.035872399709662356, 4.212095390859465, 3.46384802612806, -0.10957453370517617, 0.08662283031960565, -0.1505697050614912, -0.14199717732448827, 3.3790606189882593, 3.6281872743353465, 3.6633907564629022, 3.2531430430150676, 3.5591687048497778, 3.6271022167723834, 0.08859056506440935, 3.5841866671110854, 3.5422357444422725, 4.072328762760156, 3.6399485546750774, 3.602376293598532, 3.282108084328139, 3.2315296925691883, 3.992933063166981, 3.71221934297676, 3.4343494856867403, 3.644337460450331, 3.712046854864659], [4.30514555412873, 4.507634637818679, -0.06679641253708307, 0.002973055980429778, 0.01184417811996262, -0.06627471530683976, -0.011966403424834626, 4.468366025070248, -0.11780797933106472, 4.55077501903084, 4.399890538263887, -0.08454456111735809, -0.15671951219979371, 4.254918829541685, 4.663498960516617, 4.446831614708046, 4.483336442968355, -0.14001156439766138, 4.457836941422669, 4.623579638007355, -0.15061060483808944, -0.044252020631738775, 4.3845126287530665, 4.45486158733769, 4.717360700760849, 4.743891485324212, 4.734142352980448, 4.566598073326931, 4.451578415500624, -0.12067209242469171, 4.55198630563797, -0.009099328551188229, 0.034084926934509485, 4.477429639053196, -0.20201241901993836, -0.12072047185817757, -0.1266820377784419, -0.16243410000478103, -0.10547526778514656, -0.12655475257756987, -0.17597056400511618, 4.642196029585731, 4.654018535913241, -0.01376865763720101, -0.15924862658789932, 4.343130908773454, 4.698798379922808, 4.419306905707106, 4.528391724462878, -0.12640099640694136, 4.362072556189702, 4.5875695927077365, 3.6540210516790292, -0.1788226568472726, 4.300008985460684, 4.631055803014136, -0.021285499962800436, 4.57270005715493, -0.06311261451440509, -0.12320609950717944, 4.73810865338869, 4.262822247782792, 4.546383672781195, -0.11564254063700483, 0.07249818483826002, 4.593627576539073, -0.11374342690152307, -0.08481127980925371, -0.07613598391371772, 4.5407163840989355, 4.85591917598001, 4.552818414290917, 4.711670021098813, -0.19111765311803283, -0.13429809734440823, 4.641542923693013, 4.704999878687191, 4.395741018642688, 4.485299059044674, 4.66522517111094, 4.6582377940038935, 4.262302000914602, -0.06839143566538158, 4.5765787887045635, -0.015094260813161304, -0.05863227278277963, 4.723734995053796, 5.165124280695714, -0.10007552714521717, 4.496274893021468, 4.568132888097878, -0.16436023003196926, 4.695501174477351, 4.625363860027876, -0.16081626860498047, 3.85272218741679, 4.650047519199632, 4.284950027004787, 4.827713147660682, 4.369785725096133, 4.614991929111288, 4.599227062253363, -0.13829115792001198, 4.754626692172359, 4.463394820986733, -0.0874999259127761, 0.01578365325216661, 0.0003974368693937146, -0.06949311397811828, 4.600607602722756, 4.623059913212864, 4.401269873207677, 4.559873614112276, 4.633916853799387, 4.2831644299922536, -0.19301990014348974, 4.552133791181647, 4.139077339770157, 5.061530195622503, 4.465120941937347, 4.184400418988908, 4.495245597158899, 4.422470790622302, 4.580279628473245, 4.533936331848242, 4.423369644274962, 4.6770310778133055, 4.447742079009505]], [[72.76407093425864, 0.11093471372841134, -0.013107502873844129, 76.51374746182829, 0.021923098688577714, -0.12637145466331084, 0.09679438698049256, 72.78443732764295, -0.04606205236198116, -0.028618483477539564, -0.019155926716906496, 72.71525512241278, 72.71547322485937, 0.10471105833385566, -0.16076532464516963, 72.79297200873167, 72.7130009523358, 0.011619294531872456, 72.85892511430795, 72.7974277301267, -0.10817544092259855, 72.66917863861865, 72.82135459135252, 72.78765180283288, 0.10138227989399393, -0.061782090391355515, 72.57772840727971, 72.74308193234451, 72.87793252538681, 72.75672270084091, 74.66798489311678, 72.75209306088134, 0.008540791917622192, 72.66592328973518, 72.55022082481936, 72.76240121068425, 0.14298463643221596, 72.62921131006122, 72.72369492260721, -0.06922717270005009, 72.57041518252673, 72.635921146108, 72.7539781646942, 72.83508126377724, 72.68522145766043, 75.56857468180691, 72.56126592319664, 72.55157131628012, 72.85707811469776, 0.16222794085597456, -0.013770393771706524, -0.09681955845250462, -0.13495208223424654, 72.64131663199232, -0.12770834249213808, 0.07672040511743436, 72.50065574804053, 72.87719294950487, -0.12111050461515939, 72.59906743752218, 72.85649080432354, 72.66549409778078, 73.5742533759781, 0.09170019734791231], [71.64517242971264, -0.023339391507437975, -0.001471187494033882, 74.84533726837485, 0.13839027320844996, 0.1664107510756312, -0.06396560592404864, 71.34527433310895, 0.008478676505263044, -0.14412709902232376, 0.10856265696096648, 71.63309504967368, 71.5976875077583, -0.12392598479276515, 0.0524985511499485, 71.49946185163243, 71.45820927945995, -0.007968697567015102, 71.42478561173034, 71.59197605083726, 0.13776976188891185, 71.41994511319128, 71.3444289977791, 71.33947971784328, 0.045762312549301846, -0.03978490022009302, 71.3144860834242, 71.49324956721414, 71.69132653625213, 71.45301802957785, 73.26587673121323, 71.56417280523989, -0.152976477598192, 71.6598982275544, 71.54148367594401, 71.64553913957035, -0.0738870422365039, 71.39216048770702, 71.55862487688562, 0.11812562850656746, 71.4743779831659, 71.70061200500534, 71.55493883799274, 71.48702803169253, 71.42647723856727, 73.93702895982507, 71.52997236840078, 71.37309115247696, 71.47477514380351, -0.0433508206326042, 0.14087245261578826, 0.17157047387224963, -0.1282051013304347, 71.69469197549135, 0.024552025628151397, -0.15174794753945225, 71.61116012691882, 71.67924517898653, 0.11321492191565712, 71.56525730826822, 71.64981084191804, 71.6111915288485, 72.21630039799298, 0.07072823518263903], [-0.03784629824084602, 0.1654376061047829, 0.046099598287443255, -0.06775582676532166, 0.053364089542834475, -0.048717702506961974, -0.011011069702953707, -0.09803653965974593, -0.02473631743797547, -0.15883799301017457, 0.09755338984740616, 0.15513569063931992, -0.0574823968405952, 0.08241736664668656, -0.1542822959496003, -0.11268386185607251, -0.010811362802968388, -0.07220276675999114, -0.05620924174871262, -0.019625985817661822, -0.09160366595883529, -0.06057117519752246, -0.0593633248459745, -0.02604688987933165, 0.13386550306240871, 0.13623908219734718, 0.17656183735667444, -0.10359075489012044, 0.13887401398453772, -0.15016011942042548, 0.005425151554095519, -0.05438403382401686, -0.06276890859508324, 0.022640375870483315, -0.09439049102617626, -0.012556581886974914, 0.035645847523911284, -0.05112364434326177, 0.030002752267932142, 0.001137843348779477, -0.15452083185149137, -0.00644839328788361, 0.1647043372948215, -0.004381097696252509, 0.12196273513809336, -0.0848408248500811, 0.025278903490664268, -0.15514176318932882, -0.1144474147944118, -0.034759232990307115, -0.13916349578533938, -0.15646988975915888, 0.1530881572727564, 0.08291223024447393, 0.03422623774735564, 0.019909969292684182, -0.15949120520050628, -0.05014725949738715, 0.1294104488883546, 0.022816754674444512, 0.04076861009347222, -0.023768954696629915, -0.06672205887508463, 0.0609063882972227], [-0.08182272882403634, 0.016248096505655146, 0.09257298606016037, 0.1100366127907622, 0.0880668069392442, 0.17676857183837094, -0.04275217908115089, -0.06775692878774792, -0.06393882955381218, 0.004487130167607406, 0.0787007433373392, 0.05228322559592142, 0.019435245398368238, 0.14477190345407778, -0.09753657706099303, 0.06449335085155712, 0.04515010096026156, 0.15368920742084466, -0.07362222478822662, -0.07858134879771674, -0.02031198798912269, -0.08398637752577227, 0.04010893664168263, -0.08340950474711903, 0.0882276040588921, -0.1434379935965818, -0.006106979842398625, -0.025164320664049195, -0.0673764235499981, -0.029876740541034473, -0.10481607377496648, 0.0038359390056940386, 0.009452550865024223, -0.16464965401723164, -0.043500348393726934, 0.13719444942013567, 0.019472007671431785, -0.13011585285946542, 0.05793928760806725, 0.0016626266633590625, -0.026624913938765784, -0.023298084875188186, 0.133659550612222, 0.11086704880624693, 0.1574020944687389, 0.08605520495843176, 0.007275768260435135, -0.17606500190466481, 0.12211700292776716, -0.10939007222801034, -0.13616680369572193, -0.09749770668853645, 0.16546123525101816, 0.11882566453551736, -0.11187603122743937, 0.052115547891025654, 0.14787423568809765, -0.15512943211396085, -0.07719732933607304, 0.04747106797687942, -0.13923039998959919, -0.16923212893536765, -0.11334958318768937, -0.049505248917986355], [-0.04829238986425845, 0.0004492347297170851, 0.009919843741933554, 0.17212036329450686, 0.05609969139323272, -0.09040568358641113, 0.02985844748596634, -0.11703714125433576, 0.1277847020053923, 0.13968445667367738, -0.027638934130771176, -0.030398675100620307, -0.10942541721094924, -0.14999654282824298, 0.07408950141676998, 0.029895479955549007, 0.10778281227024107, 0.054289506995489026, -0.13866159523241217, 0.07143837898678095, -0.04124848266038132, -0.16412247194532523, 0.1511412100311802, 0.017186591307905775, -0.07035538208915215, -0.07425014064621234, 0.049230606986038025, -0.1381086159993681, 0.0070858783066453, -0.025847244873368275, -0.12410956041421733, -0.02831617448285849, -0.14021759378264245, -0.0903300808498652, -0.09761827390340098, -0.07458143346059791, -0.15146008050226295, -0.1351482289671461, 0.1565938831333233, 0.02729834483311283, -0.07478740474284022, -0.16896626120030722, 0.031526480603947166, -0.09421030858138209, -0.16851419346786478, 0.01280058040577087, -0.013343831183911397, -0.12453452789122477, -0.15722356927414471, -0.020317631546635434, 0.02774057128247223, -0.1450235832722101, 0.014146300594141292, -0.15218340985326292, -0.132427651184756, -0.15921801497734409, 0.05719071070106846, -0.15335729950315374, 0.1261640453319998, -0.021354087765975815, -0.0463156133043503, 0.0007616335613355086, -0.1296007307394772, -0.06667521101320467], [-0.15343057455257894, 0.014564533184331152, -0.09510192603959985, 0.08472868250473077, 0.15393763042140754, 0.10525525370611885, -0.15993633821849373, 0.08730952227293771, 0.06095255284548637, -0.14405417020911565, 0.05364007240177221, -0.0752854483496276, -0.1704600684313763, 0.16790071121806696, 0.027963777440816545, -0.1233544351903542, 0.021865640020074305, -0.056659222905652944, -0.0012985263943752466, 0.08464003917132033, -0.01707793799450269, -0.15546570433783088, 0.14104182248299113, 0.10901534160595726, -0.05993990279883393, 0.055846152561018575, -0.12042628432105758, 0.07921626674932174, 0.17393784521862773, 0.08510189815368867, 0.07194282039328388, -0.01671808062515234, -0.019190243976069693, 0.12794128026837984, 0.16025542375464782, -0.15654839452868022, -0.12426075751262183, -0.12542182505725635, -0.14464676658376377, -0.003388621646609191, 0.03856068518205484, 0.07728531201088794, -0.0166256666742584, 0.11669593605309093, -0.15818292303691173, -0.13059991654071793, 0.13856153714069255, -0.08444259859960916, -0.09979984719052949, -0.021727804370028386, -0.147530156480628, -0.11380499645171006, 0.08868605786862868, 0.080478518738325, -0.13269438217699936, 0.0021412941664687435, -0.16184700544293115, 0.019249127489091317, -0.0323273992911769, 0.09614810778372694, -0.04792787253224742, -0.11573855836441609, -0.0943230511215244, 0.14227645014158044], [0.12990562017484067, -0.12944406541519446, -0.10509545207522988, 0.06282652851011841, 0.10456197883889287, -0.034587718526237654, 0.024015601113954232, 0.03990143178317715, 0.11531163212456894, -0.16723882970742293, 0.022643129821946495, -0.0634715062626805, -0.01531589684438217, 0.1263239626457374, -0.15404457701510682, -0.07744229825373303, 0.12305869571102265, -0.026628021519905953, -0.11281527514727319, 0.10863195001552481, 0.13647973803642358, -0.1317979447950275, 0.12110077344634443, -0.03304860801228712, 0.017210631376164603, 0.16125527669504439, 0.13961708105649326, 0.1530706289243133, -0.026086087222377263, -0.17397490559143722, -0.00032327291018782733, 0.03599324161388748, -0.09098821708353483, -0.11433179952448108, 0.11542046827197419, 0.056874363221184, 0.01642531431975605, 0.16561353401828025, -0.14056789551515875, 0.13080111748099457, 0.10317083624525228, -0.016633086708773753, -0.15581845928332547, -0.03135069158038925, -0.09522537222636418, 0.1653809478623479, 0.09747708094849092, 0.14515514538982652, 0.01800986384840486, -0.020937521841132595, -0.0390614679911242, -0.14577391027495146, 0.10682711076876608, -0.07948268948330475, 0.0648274944231145, -0.11348593979722296, -0.09045030705851882, 0.11036762796155278, 0.04089886788223113, 0.10629934106770536, 0.10105081834568594, 0.022732775397830085, 0.045351783586609046, 0.10067955739457876], [68.96167413912792, -0.17373817676252848, 0.012936774066493434, 71.67661212933123, -0.03133426993151056, -0.11466427111655271, 0.08088325237534943, 69.20602560985031, -0.045894128179103766, -0.07535532190935681, 0.06444248090475513, 68.9462805750147, 69.07892374295395, 0.1727145636033178, -0.039041302958196245, 69.06895253852477, 69.13190950567957, -0.0959708563569144, 68.91035904311929, 69.10997879948158, 0.14726824457500293, 69.05318087204722, 69.15595924236305, 69.00170363120134, -0.12122693235362686, -0.1558987921362121, 68.96347478327363, 69.02368719323673, 68.94614083685101, 68.93369870427429, 70.2410060853365, 69.10920096216307, 0.11578369173944061, 69.01350937055986, 69.12982100918921, 69.22141371364074, -0.08032996176737228, 69.08633788662468, 68.93737960145859, 0.07302594023016687, 69.17216987549287, 68.92842803741735, 68.97789417718775, 69.03950225126033, 68.98445531534287, 71.07433436043829, 69.05684996945442, 69.13809459717737, 68.96368181510081, 0.0320788645697235, -0.05569932546951188, 0.14777833221521655, -0.0064840280958466945, 69.15728796908093, 0.11445463138746184, -0.02139042409388825, 68.96851445601231, 69.17154168631768, -0.01203650465457974, 69.11953031234006, 68.96842829380299, 69.0527451030934, 69.7401527667802, 0.13765296239825556], [0.14754170626244847, 0.16482566885827166, -0.08708023435653171, 0.13822799109687656, 0.008265352465802196, -0.1174414573325893, -0.1654058678901021, 0.07119463721450721, 0.08723382680814726, 0.04955485842018317, -0.13927137450492122, -0.17541430151776852, -0.08057608828434666, 0.0009917636202204372, -0.04015426792959001, 0.02178563951773086, -0.14778758402095973, -0.08987681486985614, -0.1685720158881411, 0.15675395117159194, -0.03349562874477165, 0.08026945361453619, 0.14965235843889016, 0.17197512910246496, -0.007829446190067202, 0.12547127741218808, -0.11983931995546056, -0.03204032768079676, -0.016142204785537406, 0.06695323056981649, 0.06332380515891363, 0.004525439090665752, -0.12373534152654589, -0.05393627587714067, -0.13471629584629216, -0.17457494711655666, 0.03207206995806183, 0.04459751596214288, -0.16887726512427684, 0.06645691269589021, -0.09518080434674954, 0.11460996019739285, 0.0904669062206943, 0.025484892394426827, 0.07484068521215871, -0.14541061497197103, 0.012997726591355107, 0.08578242276507732, -0.13258280947446757, 0.054051224503663065, -0.066461674510019, 0.04802167189500914, -0.01819258776494731, -0.09804356160538147, 0.15706243310958382, 0.16281590542986482, -0.14804989295992346, -0.06257517275150164, -0.03494987301658217, -0.12467190198880578, -0.04268882773790302, 0.08321714723646799, -0.05316900269634241, 0.12418835254653152], [70.68228108492669, 0.0973426155370011, 0.04328845576216117, 74.05499764463686, -0.16329458552638157, -0.13492716781179595, -0.07280141400858624, 70.86341778021195, 0.06691153588983076, 0.0031631565346181, -0.16820388664845218, 70.69182852087617, 70.66720956659348, 0.041505907520372115, -0.03892093715342779, 70.9211739545538, 70.69047484317507, -0.16667311275218294, 70.98527652176647, 70.80156938068417, 0.06017483827908326, 70.91888764457345, 70.92355959133177, 70.95988405945177, -0.09678340372915771, -0.13704433691076082, 70.62995930021215, 70.64954294056197, 70.75151497131269, 70.68795301751014, 72.59297805134632, 70.93707513879959, -0.15723050750697073, 71.00381907733761, 70.6268926360233, 70.80657481498586, -0.14456830120860295, 70.83761813226722, 70.94608058446009, 0.0924661724907724, 70.72787877587196, 70.9832472013784, 70.94471091829739, 70.93062280381737, 70.79353074712866, 73.03118041189161, 70.95409725384128, 70.93245091793166, 70.86000677314404, -0.09343963477393986, 0.05837716506720394, 0.1499869974515168, 0.07456498061089709, 70.75525585561833, -0.040963217936031665, 0.009759842792995577, 70.77598481285132, 70.88101908124035, 0.04750217896088497, 71.00994171154944, 70.71624724577451, 70.79987854532227, 71.65368504368446, -0.10747323667527564], [70.13728406712951, 0.14114419965146524, 0.17568254279256004, 73.2817638353406, -0.1670030041740694, -0.06711327143322333, 0.14703043467397903, 70.43448461582409, -0.16233157502190623, 0.09582153250657718, 0.062311000469634975, 70.12026924168717, 70.43020469837916, -0.1292276829914831, -0.08312388168187314, 70.37455419588173, 70.20412574897617, 0.10827990116699454, 70.35095017653148, 70.3276666102121, 0.044890865014454086, 70.20192365457564, 70.41996248834664, 70.23392605573869, -0.006683969515678505, 0.0626714306140687, 70.31602517223308, 70.18166411383882, 70.27427818877246, 70.42780064971191, 71.82162662002804, 70.32464212060893, -0.15801094026241372, 70.19517261328181, 70.19592756664122, 70.27926632538791, -0.04966771696886457, 70.36965729102823, 70.23785840262204, 0.026345932611471435, 70.47014740953361, 70.40114515355853, 70.41313616402022, 70.14218509963024, 70.37460175971611, 72.36203371135045, 70.16824714543466, 70.37498058796129, 70.25099218135819, -0.0003782536307374851, 0.014794998803441544, 0.1401817492417574, -0.13086368914313207, 70.40702219912575, -0.025316014445306123, 0.13197353182607222, 70.29621602062556, 70.33846765864718, 0.16196397016899108, 70.33597386394658, 70.19736176219467, 70.24812074593319, 70.79205205545378, -0.05817318609275679], [0.001975251136662276, -0.06641130371315129, -0.03845539111369911, 0.02035063791946423, -0.008636225938983444, -0.10494059876157218, 0.0915956377285074, -0.020182676030982033, 0.04512859439268663, -0.001422750544757323, -0.16051932273666467, 0.10692214588063034, 0.011175302134052822, -0.1405191470869136, 0.15762091756925692, -0.05192805030856906, 0.17003190839428897, -0.007695970475465497, 0.14378797363530396, 0.08469246494093799, -0.14515850953291218, -0.06288019786161238, 0.03976543171505398, -0.13241056695469938, 0.15575897733967928, 0.0371331911095929, 0.04307807169510075, -0.11675100321403085, -0.154550345734951, -0.011660513343167839, 0.1733456047384674, -0.05667038860578462, 0.08788892129442924, 0.006203336279628324, -0.05020855752059611, 0.11211779943598862, -0.05210558200661412, -0.05818460818225525, 0.16311995456851522, 0.1107450007222873, 0.019668333112466074, 0.09438715499510017, -0.07528454771493122, 0.08462940451023279, -0.0970485950643182, -0.13307276728108217, -0.09727366360625528, 0.15901196362878303, -0.11727766382663231, -0.09249859023041407, -0.1696414830061539, 0.1532597734766509, -0.12679132322110692, -0.03065723964888073, -6.945974572256097e-05, 0.057552180998128616, 0.05852946384827973, 0.08997385305995229, 0.08637831097750567, 0.11566650814092425, -0.013469696911181134, 0.07664837079539807, -0.02194569489321671, -0.08279808759933685], [-0.09074151747855594, 0.15514515945869925, 0.14303648038753522, -0.010481740155672742, 0.01016423068977701, -0.13823825444868215, 0.14355701387147127, -0.06948092717194874, 0.09508606778420584, -0.11157867951387054, 0.13833418082481683, 0.15709455104009426, -0.008985352513028871, -0.00012982808459588435, 0.1429915135344674, -0.17108742659478493, 0.10518493910630874, 0.05855681136030089, -0.1094041493961956, 0.07225589473134983, -0.16918070316911815, 0.1046961164251484, -0.12092209190527577, 0.1580599096903312, -0.04527956940366798, 0.04136356015220191, 0.09677010087852841, 0.057204327460577215, 0.07299877850857348, -0.004089609485683654, 0.16915184482081494, -0.17371529739510033, -0.024866014058179037, -0.071837128676413, -0.1601837639082171, -0.046079501833169945, -0.12515833931681447, 0.09464924059406496, 0.07980212000220446, -0.07700764300742016, 0.09185697374978505, -0.16518732106654865, -0.07153411860491252, 0.013642827156881476, -0.16380794246770847, -0.025171901143636183, 0.17459233344947564, -0.06032299068285081, -0.11374176588446921, 0.11786248230997473, -0.1535399892371909, -0.12398329125396976, -0.1339955223440318, -0.04860933721108143, -0.15157146935613988, 0.10431385483525349, 0.05893337593017062, 0.05883350111099464, -0.13556367864295377, -0.03457050872948114, -0.040877054114794004, 0.15669362332431078, 0.10884587543959237, 0.08977523721593308], [69.63594958400148, -0.12049171374967547, 0.10343182097504997, 72.57209910287887, -0.060591799202616786, 0.15985765568914556, -0.1046940043594621, 69.87624319514904, -0.15814740720273832, -0.14132173432635686, 0.11282152295780348, 69.61667242345922, 69.73936737440332, -0.01117184857700107, 0.03853197138300746, 69.89606125239379, 69.75256083777646, -0.06812542541947769, 69.67198786664204, 69.74519277012377, 0.01012037213967607, 69.8922410757209, 69.68285279712768, 69.88375447068375, -0.02477304770285179, -0.11279126446576927, 69.77649850968658, 69.61943428598474, 69.81828453282722, 69.6209019637092, 71.19254640603452, 69.85110082175544, -0.050139529328034865, 69.69774635956932, 69.71547493441267, 69.68248925104888, 0.15667795906632656, 69.6635006122255, 69.80893492735225, -0.06424408269782252, 69.82772296577821, 69.88196970296053, 69.78728658670752, 69.86345401761733, 69.7420015965184, 71.71495906544584, 69.83490566623828, 69.68486459260203, 69.88228734545302, -0.06312901202751307, 0.04652193809630801, -0.03471121734868793, 0.1229733607639262, 69.76998831131817, 0.12915979281361376, -0.04094847788128758, 69.75184562349293, 69.89653280471845, -0.17507445095770055, 69.64880913591853, 69.71389727375478, 69.73441138789889, 70.4374527297096, 0.17401918722817467], [71.13346714806471, 0.05685293808539241, 0.009271675101070742, 74.30372531169837, 0.024094416783052953, -0.1456034900943254, -0.16694000111812435, 70.93626235435113, -0.17599415423576206, 0.16320383653534545, -0.09843674453060623, 71.09272935917215, 71.10472079501176, -0.08232485929380777, -0.1442250446104468, 71.05702421438929, 71.11892681120077, 0.1126430803383968, 71.033998126563, 71.08041135383218, 0.08450878049403435, 70.84900127571032, 70.99171149403668, 70.95645832321983, 0.09272153411503756, -0.011872253487194166, 70.98533345011859, 70.8668610147295, 71.06677126982322, 71.16081298844131, 72.71716765193173, 71.13488810923272, -0.08157472152742828, 71.15090526431138, 71.11544391748993, 71.16814506621228, 0.12810150005445256, 71.14579881161191, 70.95254046147795, -0.11372460680135121, 70.90146585265589, 71.24853057394739, 70.99821646666874, 70.97545459888005, 71.17951854416552, 73.48566502718683, 70.88047519895204, 71.0237958156547, 71.15507314469082, -0.12331850875111869, -0.06996951823780853, 0.13395961369698953, -0.0750900117121326, 70.9126131230991, 0.012306039174343947, -0.02147759368248059, 71.16061916029986, 71.07183636319729, 0.053322276954579216, 71.170144153329, 71.04505350348424, 71.0421230799584, 71.84154125222994, 0.14475187053879357], [69.46574214369502, -0.16356327252391603, 0.17504565992011942, 72.34504895724339, -0.1442932278483354, -0.010345211487806873, -0.1460836416461247, 69.60037549351784, -0.06819530484360237, -0.1336644890584204, 0.12977309738477769, 69.51503158252427, 69.65212848290031, 0.11854503720447249, 0.081413313117803, 69.47444259563969, 69.56863953293245, -5.4496925989499286e-05, 69.46172882252597, 69.50029642434981, -0.17163385806661516, 69.56835548897595, 69.41688766720745, 69.7527547201127, -0.013578407639464472, -0.11635262183443852, 69.6554923898106, 69.70236434851722, 69.4778512325174, 69.60042884663491, 70.89561723548354, 69.53836911509455, 0.09600865469207256, 69.76862134249066, 69.47810643163643, 69.6837491138287, -0.004327201273905706, 69.67668811430048, 69.7057730600244, -0.021523637598448865, 69.5433323717271, 69.4417421551621, 69.59470707522175, 69.58633269227474, 69.5385203183136, 71.59222316364463, 69.47286009221003, 69.46685737135823, 69.46289728117668, -0.13636685338177906, -0.010524542963501613, -0.10309956428793893, -0.03720349851177801, 69.75409772114097, -0.09147909575589075, -0.1216338164566591, 69.48814286796957, 69.66497875648486, 0.08336591956220668, 69.70922419418946, 69.76949136853804, 69.75685088961828, 70.19621795786554, -0.00493067525796322], [68.62352346189687, 0.007190610332908354, 0.047223707651634333, 71.04101759816561, -0.1457084589959159, 0.11735186861004335, -0.07753603550883124, 68.74373725539286, 0.05119067208352843, 0.050306733875852994, 0.02706734782783543, 68.52189967359001, 68.71797452426907, -0.06693370454273823, -0.027273679450354915, 68.5905345914424, 68.42830781412715, -0.0788533539727416, 68.7400248216633, 68.4359268797601, -0.14767748242340284, 68.7124558616072, 68.42983514179181, 68.5244303942466, 0.1760610050361053, 0.0898968935442178, 68.66098461345314, 68.47065013063539, 68.52308674300122, 68.66986385278335, 69.78454740238226, 68.46340740631797, 0.07424816696696965, 68.54302731285964, 68.64479430749063, 68.56994541489718, 0.05989789444979199, 68.51121315395622, 68.59947494731398, -0.05629512529495566, 68.71466500869079, 68.51111933096291, 68.7132744027902, 68.68494769497363, 68.64528343594247, 70.32686514261707, 68.74842213185059, 68.58482539116832, 68.49555221943677, 0.15109843511950508, -0.14244463963636841, -0.012573871075418158, -0.14778504716039895, 68.63839933807728, 0.141542666552228, 0.0767667251928155, 68.73894678440513, 68.59225760608527, -0.13125845257805385, 68.62720911128383, 68.6116326299836, 68.73308877537676, 69.158206293776, -0.0701834938771204], [0.0892786505274236, 0.0187895869267173, -0.010128140828231907, 0.12016419442451523, 0.035469891109398, 0.021887889640241714, -0.04245528253065754, 0.08650757535298874, -0.0875654467336851, 0.11140913567266295, -0.16064311594445344, -0.04992112835367363, 0.14512056032127552, -0.128184805470895, 0.10168365190765669, 0.14061398661196461, -0.10138048325878628, -0.010146046967503142, 0.15824655758453904, 0.0018435037398435185, -0.05843387407111353, 0.10619222153432552, -0.10889874885797908, 0.11322996678904838, 0.0961838840808998, 0.001720539316973645, -0.006100487309794459, -0.14060799595059797, 0.1573298938510703, 0.003895604600506943, -0.15407886830033712, -0.12993727254079013, -0.16431036066954258, 0.01259669214149856, -0.05349334174161913, -0.07095287129949197, -0.0002650858076542195, -0.08859893365203507, -0.05637288413529769, -0.08202205179192952, -0.06272686405048884, 0.006942668271521709, 0.12471128520119515, -0.13608256617221345, -0.16373029920874743, -0.14630631290836865, 0.17784852905979773, 0.01946075230083437, 0.126530551333043, 0.12792579219443098, 0.0930701488957836, -0.05990839963749012, 0.04642674706000649, -0.043837809221898213, -0.098184635081973, 0.03714356609580269, -0.08527402885559951, -0.098763071607514, 0.005116606247388059, 0.0169160137650151, 0.06499749245742789, 0.11916289651302318, -0.13099240613247437, -0.16855615437278176], [70.51229860100139, -0.11549948015334875, 0.15897155744246536, 73.55107210979867, -0.014903336088958191, -0.09483160353428287, -0.03141832715208762, 70.30279830453057, -0.1039950565725748, -0.15181693970124116, -0.0984780536893307, 70.27239444753761, 70.57536373674799, -0.026127453138445306, 0.12752369890966583, 70.52536530231447, 70.53261121351062, 0.068204087014986, 70.45553313104233, 70.51050183320183, -0.12580940170161473, 70.21555655648277, 70.55412588311475, 70.55511444641871, -0.12111412451520229, -0.02160046668987502, 70.30748284573988, 70.49381028471603, 70.54761259682812, 70.33775070280538, 72.17467137354802, 70.54041168025071, 0.012279032597082379, 70.4728308898336, 70.26518467932178, 70.59067780989653, 0.1628960456528553, 70.51345587186998, 70.37378731297974, -0.09209316764566612, 70.41096727913242, 70.40133398816394, 70.25625288411374, 70.4996495683018, 70.34897564175796, 72.78154750272483, 70.43947010361364, 70.5223484648385, 70.363907838681, 0.03400622415224919, 0.1238971729586497, 0.03275008859872769, -0.10865048908988509, 70.52871299749037, 0.14071762737727275, -0.08395700968487484, 70.57444300850341, 70.45006403547737, 0.017176224714187338, 70.42175087267844, 70.3920946397688, 70.26685010050895, 70.96989289254023, 0.02412090863599348], [70.6309338134141, 0.012393102458900636, -0.0361117871907852, 73.68467911323471, -0.10866775886103124, 0.11696612680467777, 0.152276272298563, 70.56412319928823, -0.10067661857851846, 0.039057746237219415, 0.16262525882355625, 70.71596327354679, 70.6781735562463, -0.011432417956768137, 0.0338833182746201, 70.6115159282043, 70.62192316765417, 0.09623560329373018, 70.47178721757432, 70.62398836012012, 0.13431076223454735, 70.51881811111464, 70.64624305659116, 70.38865255437996, -0.004084435353131645, -0.11497449165237147, 70.62620947530486, 70.38363951948362, 70.71517101551773, 70.52041461844168, 72.16533520135279, 70.67995980883127, -0.11027049308475324, 70.41375323994559, 70.69001910475792, 70.48814518246941, 0.129748725979371, 70.46081906490825, 70.53829652902378, -0.11566360197461541, 70.71149657720339, 70.71503665091136, 70.634044181383, 70.56757199901911, 70.53400764263564, 72.88170689062419, 70.56413634449025, 70.51466892407429, 70.56535653903715, -0.0036756480377316825, -0.14034593903453857, -0.07635206141718472, -0.0782488038868574, 70.72347832967198, -0.07652530907174074, -0.040881572852282805, 70.61096989996584, 70.48323554667722, -0.05698662335647249, 70.59205337163398, 70.65978331317503, 70.45526173723378, 71.24256640559442, 0.05349893264799928], [-0.13435276044259448, 0.04497532548476438, -0.1309281719231638, 0.11439492729616654, -0.0056149880424344045, -0.01968752358445111, -0.04991670832098713, -0.040434049776917697, 0.047222963642729654, 0.09484050704814287, -0.07826414084248556, -0.16546991790239024, 0.003469239650746636, -0.033491470857066885, 0.16746859102774544, 0.11821800010209108, 0.024007494024913284, -0.00494811828228528, 0.1764500600136463, -0.11867616169658485, -0.14677711706239335, 0.05711543121655832, -0.1648827416409773, -0.07029373012980814, 0.16455686918982362, 0.07618766500642457, -0.04899940237825809, -0.05627474781385508, -0.08030672707037362, 0.09700036468901532, -0.059302879513282974, -0.048930200384476846, -0.087080771032927, 0.1318934418495221, -0.15651393187427176, 0.003854342718168091, -0.10678455262385853, -0.0864444735925699, -0.056320842014998235, 0.16581542750407482, 0.045151718607477964, 0.029634759472118605, -0.0805190523991532, 0.1560334179478636, -0.13412089559267615, -0.147729361889206, 0.07363980278044349, 0.1022420494006395, -0.1237265743973225, -0.16985413243970973, 0.024421337200023097, -0.17560022920393895, 0.14480703330341618, -0.07412762490611162, 0.11319614948550347, -0.14095352627002075, 0.11309680406356223, 0.08577765428814257, 0.017273817162962835, -0.15601234102360317, 0.12065245504855823, 0.011451848003926762, 0.012329368357933274, -0.09855798914067355], [0.17426486735993338, -0.0213647254483105, 0.15186275559481824, 0.04548932127439026, 0.16236883920994946, -0.1691738903297918, -0.014522876451704664, -0.02202957457930574, -0.07367699675345257, -0.13414694502119684, 0.0630443013877991, 0.13910563071095164, 0.13091132042524758, 0.023102661521715973, -0.03336754493612071, -0.031563876251806816, 0.040216370993076456, 0.046061851699542355, -0.1431987652163879, 0.05700411761285579, -0.10655530410446334, 0.16695100673245208, 0.10187678199072206, 0.07157273884144788, 0.09581041882640431, 0.015727818546890537, -0.15803289777429835, -0.11348480643644103, -0.051002710177684873, 0.030429119107019065, -0.082919663240335, 0.027977079412248446, 0.07580403106887837, 0.002647878489276917, 0.10184972930501832, 0.056265906475717165, -0.01878741056442318, 0.07615348888091503, 0.086968914461271, -0.15887214391196827, 0.1184836461597241, 0.12612562175442396, 0.15558233720819234, 0.04383924217683949, 0.03201088030158458, -0.17146185219807492, 0.1500568925340159, -0.1034617883253916, 0.04113277841236268, 0.10359762452886326, 0.12481071662548518, -0.06790344107317536, 0.15077468559932425, 0.03366502574308883, 0.039548606437274425, 0.03993352287790786, 0.012849675069258576, 0.0996121558786269, -0.16956848759755092, -0.15536282959672168, -0.10264040859899881, 0.045134656810431745, 0.059847673566355425, 0.014319951515691903], [69.05329638726461, -0.13880306733741338, -0.0548174308389079, 71.44467622964682, 0.11195511601318393, 0.0017780935459915173, -0.02455993138651644, 69.07124555670786, -0.1331990966948346, 0.17233032692695752, -0.08930800761958485, 69.05308870060107, 69.11075594269862, -0.09819930064898456, 0.13908966339683668, 68.84557130964718, 69.0384126731691, -0.1687281688166207, 68.87064413602074, 68.824634297482, -0.06441500043198428, 69.15863313709296, 69.08294299440455, 68.82860436507583, -0.17225134734178205, 0.009676733403273153, 68.88517370396953, 68.85271215848307, 68.81920989063117, 68.810687343586, 69.73639149051395, 68.91866919375981, -0.009057948067392463, 68.84303507080823, 69.13383404111595, 68.88448640596452, 0.10281548679198596, 69.12593697494266, 69.0337427749911, -0.02644222464898872, 68.97802893866593, 68.96169966795462, 69.06236802687131, 69.0564272008795, 69.05981714318686, 70.449834700604, 69.15991930482214, 69.04917150396197, 68.94245613669197, -0.11508078048079831, -0.10200423323290203, 0.10938785493886652, -0.15777951081166613, 69.2150646934084, 0.037363097937773065, 0.007516324020815646, 68.91958775963, 69.0227733710987, -0.16136499441649446, 69.13396837317784, 68.89544547360639, 68.95712068583681, 69.64783413569272, 0.15433151049726276], [72.35719096685287, 0.1371512972522809, 0.03967263463873652, 75.74972503011028, 0.11937396616292208, 0.014623515087439157, -0.13379356241530607, 72.10867027498227, -0.03354782132405096, 0.05162946910997637, 0.16918895830384292, 72.27093896501884, 72.30346707370401, -0.1550945050696591, 0.10673944807859223, 72.10328575327213, 72.08773338752869, 0.16296039139824, 72.29608208165973, 72.1216578507404, -0.1463667679095467, 72.11457504126469, 72.12297781084635, 72.11606543188668, -0.12534410757377598, -0.01668075147086687, 72.10408087818053, 72.27076632631173, 72.27254221474783, 72.3154245284959, 74.04083678041266, 72.37706374987064, 0.05150708682475508, 72.36841133496404, 72.31707373128472, 72.3106196753063, 0.04798716546731871, 72.13941982992935, 72.41715645651496, 0.11059253890256555, 72.2111790750318, 72.2424590482452, 72.1049042911913, 72.24501677625693, 72.37433065506809, 74.91031435054393, 72.10325232735693, 72.14641765057493, 72.28366692982414, -0.12882195494033677, 0.12207408194701422, 0.051694835139369566, -0.0036112771179361847, 72.35223483508597, 0.170733303182083, 0.09801874487904691, 72.30522900580561, 72.43550469767993, -0.0005556814019455898, 72.41226242192954, 72.33571617289664, 72.09021672756475, 73.13438174337605, 0.1710628779733132], [71.58313044836497, -0.040704444573795844, 0.15892419813261768, 74.96110917042365, 0.07207684908168897, 0.09583213206261595, 0.1222652138943486, 71.43818363290966, -0.08726445982063152, -0.12681647543382482, -0.0239780720642212, 71.65447116845552, 71.39550548162741, 0.12647429134951096, -0.09360909183120028, 71.43037547894069, 71.51963688547936, 0.07618938103295415, 71.57617351848306, 71.46927783015924, -0.1216876882480694, 71.31444056391986, 71.50369353363338, 71.6478737964663, -0.10555241501623644, -0.03419213119901118, 71.59684597626078, 71.57762343511565, 71.63789615110416, 71.64314259788698, 73.32471309907392, 71.74467192901388, 0.02349718715950372, 71.45807839964691, 71.5369561045596, 71.70662074578108, 0.06517479021019759, 71.39691916800918, 71.48982404401208, 0.1296310595842997, 71.54575276461826, 71.74369895281306, 71.365166827343, 71.73957510458409, 71.39737179736348, 74.02046412161225, 71.53800774594673, 71.54195533881658, 71.49670442878575, -0.09498989860389438, 0.00280340886292675, 0.08434840766682825, 0.08299957429098012, 71.60152380537336, 0.14803200843519546, -0.046575321696796235, 71.47771639961657, 71.76867796402742, 0.11427804943081339, 71.75107024281051, 71.48347638658818, 71.66984992557742, 72.13556943304282, -0.07776221799461304], [75.18175084013538, -0.16097207611130426, -0.049396494507481736, 79.77583986125211, -0.002865763403104118, 0.04447424500137634, -0.054299468737118106, 75.2056156194972, -0.09683491770134227, 0.04254009021134558, -0.11427632702850651, 75.36197299369778, 75.14164486629303, -0.15767752914474864, -0.046830443022270046, 75.29918457295327, 75.3112871762751, -0.07964466508538896, 75.61771471592917, 75.44161808099884, -0.0483678678728927, 75.15920877086438, 75.31233382600891, 75.2198700711993, 0.06532767641080804, -0.11613027333066585, 75.15276387724927, 75.12776875693777, 75.40487586083128, 75.53772756334595, 77.32361933109189, 75.510776158037, -0.12068105225002679, 75.48453258374371, 75.28141497774749, 75.35209797957026, 0.17612828002210765, 75.20503897672378, 75.48135016782967, 0.010333060758994355, 75.32029395778636, 75.47994547296324, 75.07628211130233, 75.40489574621319, 75.39077541414119, 78.52672150724698, 75.17393140819499, 75.2581314726724, 75.5297707197881, -0.09462502003295434, 0.10698886121537715, -0.1670913334456725, 0.1038012151848143, 75.16425620485074, 0.0052654856502303005, -0.09780363882883761, 75.37862834784801, 75.45193518498715, 0.05122373129305734, 75.49992760840371, 75.4356953989514, 75.3677330049106, 76.32071015209866, -0.16979143498873525], [75.26544421021981, 0.08819590473574423, -0.17658149258879738, 79.97281047263272, -0.033773802724559494, 0.01491262378932229, -0.05974730724350401, 75.22992549349544, 0.16468067877152867, 0.00010493146879320125, -0.00986176784126902, 75.29241843351639, 75.3681742395703, 0.10461385452471597, 0.015757479172199135, 75.3194306848169, 75.20376515067377, 0.0383473815074253, 75.4612672665508, 75.28743940677137, 0.08682520227751411, 75.11737403510105, 75.27874480782287, 75.42224782994322, 0.028784978973375237, 0.1114194408272516, 75.36412656186107, 75.20934459869068, 75.43012192972907, 75.47804156994371, 77.50344599275516, 75.50264534317986, -0.0629994566077639, 75.54602401872737, 75.23218217196873, 75.41558169549941, -0.090790631037297, 75.4527692267107, 75.16284777887935, -0.027063160015436925, 75.27051147153006, 75.55416957679958, 75.13560959241198, 75.43509906055235, 75.2620323659111, 78.53925216646459, 75.21466482889244, 75.1505122705592, 75.38445196129067, 0.022867201616765254, 0.00013738657968599132, -0.11698881904553782, -0.14986372294168337, 75.17318997532666, -0.14246100032475106, -0.08054765270053627, 75.29515518360893, 75.53281391345499, -0.05621369643840518, 75.41554638290052, 75.57979124250849, 75.21503886352741, 76.20167718141434, 0.051351751303871714], [74.52262254490925, -0.11627926316656999, -0.17443738246608215, 79.15871848136187, 0.03452397033718818, 0.0297833768662836, 0.107424274656265, 74.61887910196653, -0.1103478047289927, -0.1404731353869237, -0.14677761060308095, 74.58929131136186, 74.80349691300746, 0.10107304374416079, 0.03742862183614301, 74.72979123361101, 74.78100483413964, -0.1677713792768357, 74.88489831622577, 74.73988766915427, 0.08965141923931454, 74.34044284794025, 74.6284058048684, 74.49820768685193, -0.09276606352502988, -0.07978740371803861, 74.71295765547909, 74.41935036023294, 74.76987045397466, 74.69963750715858, 76.89067410393018, 74.87019115486713, 0.09577085938942068, 74.88829003767337, 74.50501191737469, 74.74689183934599, 0.025954998452585976, 74.77325824988192, 74.66490958667204, 0.11283831479077482, 74.58746430811924, 74.86317954853679, 74.5558366674726, 74.65101290407348, 74.65351361986642, 77.9058837457274, 74.65231835353337, 74.71507257378256, 74.65527679623521, -0.0020178171639042286, -0.06599710198493045, 0.15992298734697144, 0.16790730676737511, 74.60773209748167, 0.02380971057288822, -0.03306996923915462, 74.72941456897429, 74.85727907141838, -0.06192854561792817, 74.8359933264543, 74.90084216928834, 74.47732142480912, 75.42219085889862, -0.11075202253879929], [67.75979647051783, -0.13186182440691344, -0.14626719536599572, 70.24971700687364, -0.1776208262806867, -0.09846541580483419, -0.15338671911008148, 67.6323069779664, -0.10635806758558139, -0.0765524614288986, -0.12751476275659768, 67.80388069154624, 67.82506082449835, 0.09488770113544945, 0.06385631128140506, 67.94451250314246, 67.92090927183405, -0.09884040391774986, 67.7115455209668, 67.85142967556187, -0.0038033124365660096, 67.88693991949462, 67.88469109998236, 67.83416688196137, -0.05948750087833542, -0.14297842647315515, 67.90953847208131, 67.71288132505511, 67.87502710789686, 67.62625300295248, 68.89552839315071, 67.80931293532295, -0.03590998663926387, 67.6672439433883, 67.60559742574658, 67.8816942425464, 0.11566510659244791, 67.80662383841359, 67.84165018507416, 0.09409783771308702, 67.79311858509307, 67.75047752879341, 67.7625892001111, 67.59375718069175, 67.8903653866772, 69.3533777713583, 67.9385099726032, 67.60329624981306, 67.77270295171958, -0.16938953326540235, 0.0710109757416084, 0.050390944336041854, -0.1504578630277822, 68.04964530825798, 0.08891974015457807, -0.06775128735751369, 67.75505403294848, 67.65650077710241, -0.07141118074655356, 67.82314076627931, 67.6995932145514, 67.83592947502719, 68.34851506555488, -0.08654460328499522], [0.06402777290607325, -0.10034103675979456, 0.027882584879574845, 0.08394617589600342, 0.025785730869492596, -0.16940075501149574, -0.09644190680480007, -0.05165805409918192, -0.03421969123850471, 0.10715549195613969, 0.0924817378385612, 0.1534773785935429, -0.08391072805224434, 0.1490266948136256, 0.019090983183620014, 0.12794064847389838, -0.15663120455046944, 0.07872513042178611, 0.13777485368030654, -0.03442025974406493, -0.15490449325903535, -0.1733719794504809, -0.08684115068330883, 0.05322314127396224, -0.041952602624198254, -0.058080704076752504, 0.10033281549096226, 0.16138462654220723, 0.1538912030949093, 0.13959801906592714, 0.047556680157542, -0.044774142426009106, 0.16972357736100005, -0.025749145823514646, -0.11641264597461218, 0.06423860309155133, -0.044634442072469055, -0.15271161814256196, 0.1511206046627019, -0.09803913889476791, 0.12847588609233854, -0.14001668039764809, 0.094862863092014, 0.10014741541210762, -0.03917628924533928, 0.07695912956361042, -0.15079041261944304, 0.06317294145158256, 0.04429532208686554, -0.14690260012957204, -0.08135153439659637, 0.05988387220748417, 0.05342365557407874, 0.08789457015514132, 0.062439471258499274, 0.1527417030621355, 0.034397720267260234, -0.10263486488998373, 0.14833463410673467, 0.11408357797530841, 0.17617077446146287, 0.12441759489087759, -0.040111691453583675, 0.16036520710924848], [69.64974063066003, 0.05372066305950214, 0.012215160032668038, 72.56067872230312, 0.0702888926268406, 0.008211934666165148, 0.1526607721375491, 69.71089798317013, 0.11277224481965128, -0.07894500157265935, 0.019014933680396667, 69.42447541111477, 69.6638849295874, -0.07506284672025008, -0.12161081427064879, 69.48810639846758, 69.45384057019407, -0.06710793590368205, 69.65676315707083, 69.54491846879083, 0.03373299986153635, 69.5700963016173, 69.72249105721548, 69.52547497589242, 0.0552792159047686, 0.030599901233186157, 69.44472893242337, 69.6642880116035, 69.7169147258227, 69.57963198496128, 70.97213281071916, 69.43976194163557, 0.08758828754043999, 69.72173781195707, 69.46364813584049, 69.69033459991556, -0.00923723947398905, 69.75207946431564, 69.68024962417599, 0.016881742226494037, 69.65095883065939, 69.45492841896848, 69.66926612338, 69.72166947985772, 69.61939554437171, 71.49701802557948, 69.49259151452279, 69.52334327371088, 69.69636302090052, -0.04947607575134788, 0.06244368367846832, -0.0023260439791994436, 0.17170982424316297, 69.56558174019258, -0.08932594693257065, -0.1208626705049054, 69.57422051918473, 69.45064775139085, -0.16599814535068078, 69.66831941317545, 69.53964584558872, 69.52765984081216, 70.3027218425402, 0.10158767672350856], [-0.1740419068479564, -0.11091694439157389, 0.1766321256422527, 0.08530342849538511, 0.06025853753481418, -0.05820884827866669, -0.011872014141272343, -0.0822186874442125, 0.07652385119573532, 0.0843002912629954, 0.07722173193439438, -0.040304026985942695, -0.09491011392939935, -0.004054225779267812, 0.10962151692557867, -0.12080642032546705, -0.12984801791501377, -0.07902180261958366, -0.011329115052569783, 0.10747575502052938, 0.10430673392078585, 0.03162677660639564, -0.1367533060638967, 0.15192634508706754, -0.15600272200233484, -0.15744564364809344, 0.023096670433594455, 0.1508708016221599, -0.15164999469114718, -0.002479978533261714, 0.019036416815110566, -0.05698744765532425, -0.08827843467732616, -0.17295025249451537, 0.012174822274552686, 0.009064248236193655, -0.09934863339143533, -0.01467493372382436, 0.05754023308864524, 0.11684677428136671, 0.0775950016695378, -0.16106280017896096, 0.04955930297490821, -0.14911814587518574, -0.17272052011984929, -0.0020791579084441987, -0.1252258759018933, -0.04696456955503392, -0.08215416634459198, -0.02167963453493199, -0.0017435163796845066, -0.09883001147276788, 0.07936781302204673, 0.04853622946668055, -0.15093199460512904, -0.01100889276959427, 0.010908131905714475, 0.17670536537085343, -0.07939700602953112, -0.07654550418159425, -0.02264825402515074, 0.08235802672781298, -0.12407348999719321, -0.08496271343290794], [-0.15834887081688498, -0.1279427473945586, 0.1345906024054788, -0.03406518287694982, 0.08162649188422294, -0.10714046612052064, 0.08616527307792801, -0.022530523749163783, -0.04929858096909445, 0.13827128409561903, -0.10143505611051384, 0.07757147136252691, -0.11660075335265274, -0.02507155782938375, 0.01575321471792268, -0.04796980925525674, 0.07836602648713402, 0.03885642519721476, -0.10567493979000642, -0.07772028287106465, 0.0998737666312296, 0.027892665497007987, -0.07441596268663235, -0.035329197393524116, 0.005332178246776565, -0.16518951876772694, -0.09583467675419478, 0.08290091522363846, -0.06472823985917446, -0.04489577174747542, -0.09205764675587255, 0.1101631702926234, -0.00479689887426224, 0.04674129487723191, 0.04505356302018244, -0.0008494498433858295, -0.1620918258471533, -0.1060373989520799, 0.01653832244326621, 0.035587139814383904, 0.10044111128597309, 0.07692946600013927, 0.1754336056307247, -0.10584577213702143, 0.10550664344906867, 0.12496931954232483, -0.04063013038292293, 0.07960757781615345, -0.07470944852480042, -0.11046353446164643, 0.14542140039502646, -0.056568094534348884, -0.12570455911656134, 0.14409655641400165, -0.03379143931422099, 0.059562369120253394, 0.15261692762381646, -0.005502807986153756, 2.7244817324568582e-05, 0.014945390998224584, -0.16204122428715495, -0.11692981877895588, 0.017423677124052156, -0.010871604021847864], [71.93003326499488, 0.08941466520308508, -0.10102645164002143, 75.5271863903128, 0.11455732863535646, 0.05089408095125552, -0.02725152551284146, 72.10795202454023, -0.05366500541614316, -0.1466685594025576, -0.06923749148558114, 72.06210820226747, 72.03055724695747, -0.1538361866671571, 0.016261443177498863, 71.92408498514519, 72.00988583105789, -0.16122276307530814, 72.16162101375028, 72.10989464914041, 0.1564290335390143, 72.04737618942255, 71.86099873282811, 71.91064173091692, -0.03931347825067727, 0.05768019475450449, 71.98968040961483, 71.86273235399304, 72.01961018485929, 72.16557181762988, 73.90738118690689, 71.99777950438624, -0.04385454912965189, 71.99564166122533, 72.13222516049709, 72.11060188046426, 0.09209802873310599, 72.13832713642782, 71.85892915736608, -0.0334107501062763, 72.07972047260378, 71.98964389957814, 71.93410210300894, 72.05549766860725, 71.84012342324019, 74.65336788135232, 71.82611965216944, 72.0797051334354, 72.18818685725586, 0.020850937785956536, -0.05033168247340922, -0.12559850506324668, -0.121348653418009, 72.01506578862066, 0.0057920181164952955, 0.1004328110114441, 71.8175218654321, 72.021235195493, 0.0096538435628046, 71.96281537700554, 72.20692752879239, 71.88756156877864, 72.69477785436257, 0.047360423266406555], [-0.15855798871459043, -0.08992897494263787, -0.07346639317797403, 0.01712443000715414, 0.02377239961972276, -0.008555247027527524, -0.08004979997479526, -0.12543494581989859, 0.12493134543195614, 0.1541505946589706, 0.011926258349648777, -0.09941991688263513, 0.12336959447733369, -0.07991111202507417, -0.057069918537029724, -0.04745058551584298, -0.1365807364419458, 0.1611297338180868, -0.09392910850212864, 0.07490295288069243, 0.0802727412742392, -0.10752301577711236, 0.04775558051368683, -0.06745564738050783, 0.054978787380662544, -0.09964905565971273, 0.09412872662919791, 0.09310399037758277, 0.09270566294019475, -0.060086685932308696, 0.004523594181802413, -0.10169793191142226, -0.11195338018028421, -0.16792069178685515, -0.06625482887902169, -0.004039638239689522, 0.0029900221506944658, 0.11574508955841709, -0.08589065779862477, 0.03530737629295614, -0.11028045830367203, 0.12488878838680313, 0.1071591108001167, -0.0029519255719536136, -0.05281807375156241, 0.0413700507931558, -0.10045067187334371, 0.01237781768329085, -0.09814156648998616, -0.09880917130977272, 0.1286952388776666, 0.04109015211570585, 0.0173191948119627, -0.08746182516060044, -0.09484662120224412, -0.010816581144760806, 0.06752055777482839, 0.171184980102575, 0.07195036669725212, -0.1552806292242958, -0.01697744069689537, -0.059374942128310286, 0.06012102213276289, -0.08656823159162266], [0.06055164546912991, -0.14315014981616558, 0.0067279346445758, -0.15982609533077427, 0.15213507254744765, 0.09967691230636651, -0.05440612282884817, 0.10128195663892219, 0.10095566910194989, 0.043458588440742074, -0.08311356194932684, -0.09285827492297856, 0.02841170592518274, 0.05365966650902637, 0.16009382772404682, -0.13058061797728604, -0.09287197901013645, 0.09922954693016674, -0.003447689068627786, 0.12138197375524525, 0.15183564495222915, -0.046685384140261944, 0.02787849145742092, 0.12407545031467523, -0.039233369945915086, 0.035663518859548764, -0.16361948775437413, 0.04151666039102978, 0.09030975530866651, 0.019779585549280936, 0.10978038742658044, -0.1747597219041346, 0.041062511754357184, -0.07983956280727189, -0.14838257743377747, 0.12040545911022375, -0.0524650132520116, -0.06223736205597261, 0.15059820059864915, -0.13907827612152757, 0.03200644675018719, -0.1647825876238848, -0.006117634252383293, 0.03866759195784001, 0.09369420931087385, -0.04543101736186594, -0.03401338933120384, -0.06975632355310413, -0.1583331900088864, 0.1728725712357493, -0.15512894911028702, -0.13834617169755306, 0.1470780861459626, -0.01673227566562692, -0.11707227410266371, 0.050029152463203025, -0.14070135717218785, -0.13460843887896445, -0.005014252114028857, 0.0891988159170505, -0.07951366898345763, -0.1407249927649954, -0.09688382305903956, 0.1495322040367271], [0.0026332875886710683, -0.003052054203904586, 0.13281331846959013, 0.1347698635181647, 0.09263080142801164, -0.09179352220201123, -0.036783704034156456, 0.0411408716581082, -0.054031083013656805, -0.0013762764534575589, -0.03394227492923857, 0.1383482202453051, 0.01700726464106056, 0.0808692230594826, 0.1209710114419614, 0.14151024526944353, 0.15486573606239454, 0.08921071747558576, 0.17166845746041462, -0.14992352862112915, 0.1462130852072758, -0.08760133973083911, -9.447123167857785e-05, 0.12396311623611414, 0.01931702898973134, 0.05622936267790782, -0.02200132019343881, 0.05089701225620777, -0.1730131802687659, 0.11809910733810788, 0.1733372889351076, -0.11403043437815788, 0.053162167513849196, -0.07433141504389103, -0.09208813461693978, -0.16072336877958146, 0.13606778466093464, 0.0686814393144018, 0.055229807098889694, -0.02772605839997233, -0.15401893321945592, -0.05382615876286942, 0.13504128410501567, -0.09977665586310343, 0.13598329827194475, 0.03908101765800065, 0.15652233718960154, -0.0412267586774788, 0.03722000932038297, -0.06371387919813327, -0.03756798379602069, -0.054935970361358125, -0.07455418252413347, -0.03996587409324001, 0.01937027977290512, -0.06839227911969482, 0.03383227960724339, 0.1732851024053844, 0.10859198295372999, 0.05025740825834679, 0.14394128068870257, 0.1392645965872308, -0.12896936475488768, -0.12042549805043191], [-0.07905802011571433, -0.01586008840715694, -0.1132177501777159, -0.01592445310557733, 0.024312047154586264, -0.12191414659026029, 0.03126990169763316, -0.07126721187454439, 0.007411777488251531, -0.028896846871738102, -0.10583525210255505, -0.14033194941866667, -0.05309289045650181, -0.1356701322983606, 0.17121536090643838, 0.1005325182592903, 0.12780967828378484, -0.13886652593684928, 0.1640819827536256, 0.16283929459363664, -0.14248256482353208, -0.057255541007888475, 0.08330188834105176, 0.007494133513100187, 0.07787855074440284, 0.16855652106707905, 0.12612793308305606, 0.12020575442721212, -0.160216663550846, -0.14871632004897142, 0.08218656978099462, -0.0100113939127153, 0.16036065084589393, 0.022369758142251506, -0.1446601393068349, -0.06599198904088625, -0.027169279553732884, -0.05484660939388328, 0.03889808832387057, -0.07957705912620894, 0.0023977971541218057, 0.17287971551788098, 0.025419929452016182, -0.042162157388660276, -0.03486479626993991, -0.04993220071658758, 0.13091749454873172, 0.04366335404559063, 0.1345846415568985, 0.13673590451552473, -0.04854408261749396, -0.08310395975462978, 0.002900459026584229, 0.058412880186270166, 0.025537580528490506, 0.009165894375348288, -0.12845800543798913, -0.1432287481613334, -0.05868207601097436, 0.05041306560704992, 0.12708630481365588, -0.0514731025164705, 0.17294289818121836, -0.14164165726585964], [-0.06695541240352493, 0.03084440241355027, 0.00391533743326325, -0.08440653597018186, 0.008560744275594168, -0.15473472844409983, -0.12552299172751671, -0.17312405333416458, -0.06906650592589929, 0.04865863568827464, -0.08970547655039807, -0.012352277483873075, 0.08465975551156393, 0.044472041797997935, -0.09116533765470501, -0.046124707970142426, 0.10973317731542934, 0.1008256138467006, 0.03435063379986705, -0.14596811487058953, 0.04277763711490892, 0.04903497825328057, 0.013513933280072304, -0.16993478407591525, 0.07345157154094492, -0.1613617205455511, 0.1657998675824688, -0.011957332412805055, 0.09306438755549593, -0.03605672772886323, 0.05520266727679338, -0.014628663547763265, 0.07088609615045377, -0.10811668175373897, 0.1670274410075703, 0.0024381994290754994, 0.06168785263959306, -0.1056796220047322, -0.10731028933104843, 0.12197178261064792, -0.13804250329590856, 0.09380133199547389, 0.1706974011231356, -0.17606590236768446, 0.12896199171965936, -0.07256616088030934, -0.08209075244654052, 0.11149057482683503, 0.10632245572948537, 0.12580443766045282, 0.09471749481769928, -0.10751323763547926, 0.1142245748174884, 0.01965404022076675, 0.14896345499705574, -0.03436172681540195, 0.09694998742469366, 0.0514990341768925, 0.08645833809428363, 0.12247003243908852, -0.11286011667648613, -0.048837208468712756, -0.019094130593966002, -0.13374081589892872], [-0.11473309999647259, 0.03418361824598112, 0.1349389458700008, -0.1541181035595065, 0.09896521987594441, 0.1388955303680002, -0.10183732280145029, 0.05012688993656717, 0.10014232977671653, 0.07048882437746473, 0.16606898113754107, -0.1090006892365301, 0.04174765378293464, 0.03918977565611714, -0.02794272820772528, -0.119173690188014, 0.12769029002541651, -0.13673767977505286, -0.158613234294817, -0.0633217404164468, 0.05959209222127081, 0.15122392586827166, 0.1642447150836902, -0.03126116237665155, 0.04928517750088257, 0.039338211295808334, 0.0032625597403758986, 0.09452475940524266, -0.09272270446477451, 0.012929750710013482, -0.1758249933649763, 0.09342263684800697, 0.03335536743536879, -0.03190138137075959, 0.02548219677814739, 0.06957464497346308, -0.06264293098039359, -0.1173533298912011, 0.16945178942291317, 0.08636190791244218, 0.11332097546817194, 0.007747088529147394, -0.11880692596130796, -0.02275890591658118, -0.13278436191394777, -0.01810659772253738, 0.015993360859509333, -0.11371925421670706, 0.15507849774959734, -0.16503619091307806, -0.1479079042359474, -0.09424288190679511, -0.045868155752621514, 0.17394137817860017, -0.07226013837740496, 0.13589974387831635, -0.010502077198246767, 0.0807661355510821, -0.06407411064225416, -0.1116263582022411, -0.09684510697718564, 0.10250108206486143, 0.09087083839322412, -0.041531532184157144], [0.1693371187126271, 0.14815598655844267, -0.04411006664464681, 0.15059691352080892, 0.134150466634518, 0.08432141958963221, -0.11050982094280373, 0.06594836458278006, -0.13054431386969334, -0.16934346472902495, 0.057346064112090867, -0.10414532386696117, -0.1641753375813989, 0.04198879183620702, 0.05986363579192522, 0.0007068389732057534, -0.10242174263593021, 0.07112947005930076, 0.014049958098294707, -0.1271059538182198, -0.16560198211338045, -0.043225258861915056, 0.08019741481862322, 0.03858284451981919, 0.012191388888700222, -0.012966833464584243, -0.13676631012939924, -0.06193791146818722, -0.05460100874907545, 0.055836397668988985, 0.13868150836603163, -0.06282743612264598, -0.03316394726822913, 0.03176784504283686, -0.10027577819553174, -0.1366502113102041, 0.12011535758723371, -0.06875510641229918, -0.07081949070468038, -0.004176165157878942, 0.12830523350545706, 0.1518851613781527, -0.02403087589980943, 0.0893915957427733, 0.17013554374188541, 0.05652186451520061, 0.12041990415083662, 0.08032362443090998, -0.13869077946210043, 0.05434302819840217, 0.06890703100227263, 0.10131366607315764, -0.06721929907544345, 0.02744825774632595, -0.040688317434686094, -0.11668757599895213, 0.08760643408951721, -0.09111394772916408, 0.06817621104843191, 0.13605786854652466, -0.06310733088387815, -0.07272149381852064, 0.0552957959245573, 0.13170303019051446], [72.23148560271953, -0.01743575151533843, -0.09384886531200577, 75.74621334331515, 0.11459083339745789, -0.08937251573647928, 0.090484127255861, 72.36192791190616, 0.12075827020243593, -0.05981370463428065, -0.0047713267588887776, 72.38594501094526, 72.33288859857659, -0.12646807622974524, -0.1735139019171492, 72.14800627035358, 72.43490067840149, 0.11583536691293943, 72.4533645389307, 72.40465202849249, -0.08881203308043176, 72.26718783120343, 72.22859793988174, 72.1277583332619, -0.03905855073761066, -0.036129027831375074, 72.26964795776779, 72.25191779814627, 72.40261152909962, 72.26023649070164, 74.03400243744964, 72.25383385862959, 0.13407821162435843, 72.220048252985, 72.36455491716806, 72.33469433228869, 0.10437846246950824, 72.34278046013536, 72.11948986905573, -0.16651325332023117, 72.23083103146352, 72.49529824176985, 72.12141813146961, 72.3669094035818, 72.42940955024669, 74.72200242100935, 72.17938217287552, 72.35676171098707, 72.35504993135403, -0.10139925531093157, -0.08158370435907136, -0.1576089850552896, -0.002986020055996186, 72.42669022216133, 0.1692385115564701, -0.08559793784162095, 72.24897221904449, 72.26749296923155, 0.12004718167464297, 72.25955434775197, 72.3988443988644, 72.42990371585243, 73.15335408375724, 0.1597617369591351], [70.53718627760323, -0.16039156015649436, -0.010784587452222827, 73.56962443655168, -0.030225272893288545, 0.1633835959518265, -0.14710319039658412, 70.62256541376682, 0.034875125954482555, 0.16151021696637155, 0.016934995384557228, 70.61010057700098, 70.67684940674805, -0.15840769212900538, 0.049959197156525054, 70.46614202891193, 70.57699275024062, 0.13924914450622008, 70.56713310161142, 70.39884432701218, -0.09516305721920175, 70.63807097048924, 70.52000894669582, 70.44040971004107, -0.14886653623437837, -0.0904069856628601, 70.40532952845108, 70.6019262942334, 70.651282583346, 70.50060718952638, 72.10091986824641, 70.48905020536783, -0.16893088805954518, 70.74644603232865, 70.70664031335615, 70.56808410717098, -0.038496613090580445, 70.52967394858173, 70.6171614348395, -0.1184613444856262, 70.68989891641642, 70.59252493299523, 70.50277933754855, 70.68747084798706, 70.55655746447975, 72.79991284766528, 70.62608250619958, 70.5760390906096, 70.47365415505065, -0.08960687050326559, 0.1543381687280636, 0.15979969420761006, 0.06198494382831918, 70.55202069462077, -0.13163408623839962, 0.16548340256705904, 70.69705642402904, 70.62724284871685, 0.025536467143289266, 70.48032629602109, 70.66465244511149, 70.5718977667435, 71.0202610424404, -0.08015852391214788], [0.012384612909882077, 0.09001956385845658, -0.029016200076405596, -0.14211596477752972, -0.16956704361270103, 0.046230011527502224, -0.15020492999128088, -0.14014639898420828, 0.14741288455069615, 0.09362682232998173, -0.15002750426699502, -0.1300248838759867, 0.1731525087526441, 0.11552234900360256, 0.09527876580782194, 0.07374232135316529, -0.09897811177414659, -0.10012496507959397, -0.07528060914630477, -0.05826790914794205, 0.08175644734940954, -0.09670056329662875, -0.16141596547475415, -0.16297765356936392, 0.09589507947604006, 0.0017906214720607438, -0.16072417862784696, 0.1265696395801959, -0.1084571634024385, 0.11441932604367884, 0.1457198566642552, 0.1389360107619212, 0.06418907038279556, -0.12174226168210006, 0.04792313105638037, 0.06409050905514714, -0.04033986954725219, 0.14585173908381155, -0.042182569213026384, 0.03182916370599573, -0.09616277442679157, -0.11705303435543189, -0.055487453681592226, 0.15340103827639184, -0.053614188809526696, 0.022228304268110614, -0.11636408031953267, -0.04306631383658772, 0.15362313716706416, 0.025780025435126724, 0.13799320605267237, 0.15840289421932705, -0.09159566938166584, -0.09079162537160045, 0.08996282675415004, 0.029057159092935214, -0.06104864370716764, 0.003986612514838015, -0.04243455163008969, 0.07934817246279542, 0.06830975114324696, -0.039302261601230494, 0.14379359708058537, -0.07707987985119985], [0.11054791487603069, -0.10088947555873737, -0.09407604337319195, 0.1273961049149663, -0.0646197313257076, 0.008832953174152752, 0.14849578752052003, -0.06858010147871717, 0.12502475046630682, 0.005729791141193069, -0.14543427870078568, -0.11441062487248554, -0.10166276040489569, 0.03992971690704927, 0.1599339974433062, -0.029299585197721356, -0.024843159397881814, 0.09965483531474725, -0.08996745417872665, -0.1523959101109553, -0.06833418348751019, 0.04300944573146656, -0.09118719808901977, 0.15335999607341752, -0.021250353913848413, -0.16025602709251405, 0.1280162183360418, 0.023587641216328586, -0.15792723342984094, -0.14294900341022437, -0.08315180831326542, 0.04125950109352566, 0.04550463532167817, 0.06325481746308004, -0.008187161641622726, 0.12847570100479414, -0.025707421119686047, -0.07630869023468849, 0.12774566326730027, -0.022525621445317695, -0.1658049830848854, 0.0004830783469227107, -0.09463650108875742, 0.050987970074348105, -0.10759837505916446, -0.1271651407622508, -0.15144153061214444, 0.05257297653935289, 0.05324288876646502, -0.11199986657000317, -0.1479430174126571, -0.13926892965188065, 0.08183585730882811, 0.11913823629727519, -0.12306129122884679, -0.09250747492825936, -0.003445006458365374, -0.14866279086584688, -0.028057880232136928, 0.15043770241963886, 0.021132819344405418, -0.1370267163156289, -0.04052159203283248, 0.0895950684570376], [67.37620573717132, -0.08594239922735258, 0.05905902487426806, 69.5321609512809, -0.16397095825532848, -0.06996888736254853, 0.01779803305955604, 67.51701225098657, -0.17110224231260146, 0.06426998905126088, -0.05704508611798027, 67.46254846049865, 67.67650511160068, -0.018627683266136896, -0.09162868712483649, 67.43903252478702, 67.6071637251901, -0.003133103966547031, 67.62131512339482, 67.4909485279818, 0.0930614932156144, 67.58344879864788, 67.4188794644719, 67.67199462036456, 0.10328650556699313, -0.03547546157778492, 67.64754953239162, 67.58189299698589, 67.68338265798533, 67.62540387447169, 68.44957547197521, 67.38813736004371, 0.10478510611322253, 67.39507823088653, 67.51098204705639, 67.46591344117488, 0.1027903928054911, 67.50091650817902, 67.53135064276498, -0.1207107927356175, 67.66624589070389, 67.4051979840471, 67.69905565746217, 67.71540967142732, 67.53965727696098, 68.8347867610378, 67.42852762146313, 67.40941837293428, 67.54885111205866, -0.10534320660550138, -0.009209937339431646, -0.004214188834348487, -0.02685026918273742, 67.66226859739325, 0.16708106639112144, -0.1287979701616105, 67.61437606668986, 67.69937510754065, 0.06172947859721888, 67.50242229449353, 67.39441574488842, 67.50807851470739, 68.13093792399593, -0.13031155881022047], [83.43462837851874, 0.0642138307670888, 0.11804392008666395, 86.21939300631593, 0.016053067922766253, 0.01396664269493067, 0.0966051727447882, 83.38156967055446, 0.11579085960714389, 0.05440983418151854, 0.13980799472782943, 83.52846485340152, 83.31093059875849, 0.1466087857171108, -0.12197053867488211, 83.55167483845742, 83.57780718961538, 0.13769315806660792, 83.381632021715, 83.5918014387768, -0.01887255008671466, 84.27719551397573, 83.50760473833495, 83.55933605704155, -0.0297265102398788, 0.012613040611888476, 83.42853156509682, 83.51461235422101, 83.31455006643426, 83.39625330835025, 83.67869017636164, 83.36332432227118, 0.09644058799269636, 83.36484801925991, 83.60594424288269, 83.56601282870355, -0.0020173110110601744, 83.57734213896677, 83.33027385411577, -0.11819143402888274, 83.69724634165809, 83.42871990528374, 83.48850668318883, 83.4043861205848, 83.32789327670517, 83.65673723570282, 83.5525090991863, 83.56233163759157, 83.51669673934299, 0.15883135160393128, -0.03748905031023523, -0.15120370155029447, 0.12850236237842924, 84.3132369145394, 0.10574217519118542, -0.16093138238531063, 83.45227051964864, 83.40433724822628, 0.10678807661218934, 83.49300068337027, 83.47904731286926, 83.51127202599946, 84.05968439833705, 0.09010666416408955], [75.08987238378577, 0.08940181120349767, -0.15070046007750704, 79.61442542073686, 0.12000292992297718, 0.013350712150917892, 0.038732850548796646, 75.09777557649272, -0.11507117578174048, -0.14137690314130358, 0.06976733316197756, 74.95794443244245, 74.84688892590066, -0.13084783664127092, -0.10243108993267076, 75.0804366359765, 75.11360410780856, -0.1218314624434558, 75.26980664023228, 74.87844227782688, -0.014224932762261088, 74.65206428996396, 75.08348459063274, 75.05402046045984, -0.13451152911175127, 0.04311465601214166, 75.03755496058989, 74.9316923336211, 75.22771926080875, 74.98223342276617, 77.1805043573691, 75.12037555507496, 0.07640373645419499, 75.08639653368607, 75.00038046131499, 75.20291301447327, -0.017398161376041332, 74.98097496679108, 75.16686135853115, 0.05488191028695248, 74.98313889806542, 75.20008762845421, 74.82475943083341, 74.99627667228845, 74.95384230018587, 78.29280337418652, 74.80959809463647, 75.06492929697669, 75.02797273740913, 0.08078180986495573, -0.1771344966968395, -0.1337475097837476, -0.04948151277708554, 74.95723018575922, -0.03376139069784484, -0.09632176713794652, 74.83774704358268, 75.25650861754556, -0.17413037487229335, 75.23044817996546, 75.14719382946336, 75.10477106738122, 76.0204222891372, -0.1499214008630343], [80.92163096346862, 0.1048036062597126, -0.17425574798774915, 84.99232939278848, -0.021304517117724128, 0.10868128034299494, -0.028884911616750594, 80.99363462880108, -0.05828047043688281, -0.07658792461864222, -0.0018733880070253839, 80.8496190046361, 80.95219200280748, -0.12345224565993225, 0.08046535800206614, 80.91304638163923, 80.8043898509997, 0.06540488818815203, 80.79470679767807, 80.8254022501337, -0.05390678448082387, 81.68334191310022, 81.07086474657076, 81.01261219723604, -0.0857317838499546, 0.03349347699864145, 81.06316229120479, 80.94724476353944, 80.73765370264537, 80.88256604976975, 81.943127840509, 80.8761515668741, -0.1430923387837334, 80.96892319296548, 81.10679883506678, 80.80323668604079, 0.044972830317293544, 80.93154750177852, 81.02334785221582, 0.16188780895219754, 81.04029419106446, 81.01727241416701, 80.83940294040839, 80.92016430127829, 80.81097294818817, 82.69710492108261, 81.03095973909667, 80.78967453503545, 80.97740497254902, 0.04596123905151081, 0.016831746101468825, 0.006596594737099587, -0.003255032863161339, 81.55282052552072, 0.03752763990627009, -0.09003883421283025, 81.15842022555886, 81.02008904643093, -0.15192041363004188, 80.75663084106135, 80.93988209128203, 80.7479903262305, 82.32901653752289, 0.09107749201150704], [0.0025552850364604085, 0.003611153495660019, -0.1323888221930487, -0.17562911320898805, -0.14584779354587696, 0.07527071198229032, 0.052352695313805875, 0.02851411073686319, 0.09925429569635855, -0.04359526243456269, -0.13354510646999804, -0.03746964456277141, -0.010599737031849271, -0.015748385362019945, 0.08380543656482378, -0.04249234516264841, 0.13464172759739737, 0.030465760815276854, -0.014871669989501873, -0.09104313613556125, 0.05984991058743727, -0.08406617206740157, 0.03293300416749215, 0.06724688994852396, -0.14760225804818483, 0.09800437721379421, -0.03267390721876384, -0.10388645404443343, -0.06522807239077627, 0.0019034131499059137, -0.1542856321890754, 0.13457991084854473, -0.062075419315737845, -0.010778090369485599, 0.11642765971700711, -0.10512689739391914, -0.12057217900770856, 0.1483663133517549, 0.093266219311858, 0.07341751539046334, -0.0796005096224496, -0.16761670006496426, 0.17043215583398333, 0.034006851743206695, 0.014601267824909087, 0.033892003992265024, 0.05281468757282906, 0.12263966025792325, 0.12324073339280164, 0.17668781058766744, -0.04608135563785698, -0.10468173649837037, -0.05854111217171194, -0.0051481869255200485, 0.06544946721369962, -0.11436547010801157, -0.1584184342520929, -0.04391516606061033, 0.0796937824379085, 0.12329124483755818, -0.14304611612297316, -0.17263502445211837, 0.11803226978277129, -0.05900033639729234], [74.96238128741346, 0.17201313138310717, 0.10796327137407483, 78.4051666875276, -0.11627769850797473, -0.13291461900613866, -0.005627012134208148, 74.80257133007736, 0.09194199669381362, -0.04244183882777269, -0.16736531367114973, 75.06901669051392, 74.9463802435941, -0.0522310163798152, -0.031000622809100986, 75.00150797149858, 74.80332445890635, -0.0691647609929136, 75.00723002584256, 74.8600900774549, 0.025351506536905242, 75.2006629100345, 74.82677341149581, 75.00841737409097, -0.10349729751076495, -0.02464847101825333, 74.79349541168678, 75.0093327058335, 74.95356475129618, 75.01597819663534, 76.01848905711911, 74.84005879750036, 0.05058493156899782, 75.09137291544731, 74.78387362318337, 74.83769088145472, -0.0074440983126717875, 75.07014958275307, 74.83318700422414, -0.13600081917087864, 75.26129476615795, 75.03588096900965, 75.13624788462262, 75.07378640395028, 75.0548506341812, 76.60654120105927, 75.00428676772138, 75.04061176908989, 74.79507774983146, -0.060215340929759956, 0.17125223631768563, 0.026568287680175662, -0.013957445609857344, 75.39126321374634, -0.07296608481484086, -0.07937702768719627, 75.13424815168621, 74.89172541387343, 0.06965705289096054, 75.0630845451522, 74.85539190735643, 74.76144446019744, 75.99694311614176, 0.1714148754591182], [72.64128514446774, -0.006055769239180948, -0.04237293207372958, 76.39738532807739, -0.1267116268005623, -0.10390069729243338, 0.11683689600819358, 72.44743538452961, -0.11451116085058491, -0.13501170335188478, 0.116501095936382, 72.80333472007983, 72.75086980953269, -0.10837434788890979, -0.006673392053637706, 72.50240765940656, 72.66936532628777, 0.0765695164674139, 72.81118657780023, 72.75918350074782, 0.05564468477542084, 72.46647137473737, 72.50105330216711, 72.52344686471089, -0.13897031360687317, 0.016286416429337716, 72.7462967464145, 72.42238193233159, 72.73243912647699, 72.81812746932614, 74.6858126342289, 72.75543621942573, 0.02538707541921839, 72.83779048035369, 72.62739855416713, 72.62513890362463, 0.1501977236419151, 72.58271279178392, 72.6876109498274, -0.0053593847657991455, 72.77880735119378, 72.8714477130823, 72.53267334109684, 72.76858355323536, 72.5121573934547, 75.47457356136432, 72.60384169481021, 72.63811580200304, 72.8399074010759, -0.014794601203834662, 0.06829352691751564, 0.10924037877836698, 0.17421662817954722, 72.64624479814431, 0.09499754216593578, 0.05045845668110652, 72.51931484594199, 72.71563029660258, 0.103650844353077, 72.65774550037146, 72.83643616635375, 72.51312457004978, 73.42146340233613, 0.04299233176091356], [44.554648108304235, 0.02367042770483882, 0.004646706943284895, 44.611840397772426, -0.10727063783774682, -0.10780432223985367, -0.13660447194138314, 44.70862564308817, -0.07755882340780469, 0.12424819381272637, -0.027091743176726246, 44.63811375645352, 44.70156860019402, 0.04667331379990328, 0.17583013067006945, 44.611785825269834, 44.78055861437288, -0.09458696786410616, 44.57990488883354, 44.646979712092175, -0.05239622787165441, 44.564761221051924, 44.874633555848376, 44.79868325109773, -0.04314147667419352, 0.06607820892474146, 44.81274246833475, 44.6555219042088, 44.80839441102995, 44.79434545199513, 44.63819174970827, 44.855078492968985, -0.07917897388442756, 44.66771439470021, 44.62411988973305, 44.79217434344831, -0.05719800048600687, 44.87935469085484, 44.74436267978247, -0.1656532035348932, 44.53951435286743, 44.7907065999503, 44.741844923503606, 44.74151058524204, 44.60182069953618, 44.73137641466185, 44.65759666311462, 44.605944306155536, 44.63381397698289, 0.10782423387662846, -0.13093742774213604, -0.08584422038819538, -0.1378815404306482, 44.57804811207778, 0.133678196604291, 0.13957992422063462, 44.70443969946493, 44.64061160412534, 0.04536593038460369, 44.78130737214032, 44.56052418829428, 44.86903080812925, 44.78549459311725, -0.033679537639369816], [0.06325593858675191, -0.04455101388686411, 0.04063767317355654, -0.08027662628842243, -0.17389273038436512, -0.1345520742694915, 0.0774274296297883, -0.03327097014827046, -0.008066837982127095, -0.10472160906032092, 0.004839680172328803, -0.08833091168543472, 0.15170839990836418, 0.04054206300450891, -0.07661516066656927, 0.11354698282345052, -0.049283707902382096, 0.1254334841665408, 0.07815279702536906, 0.03402531498311276, 0.0762055987447802, 0.04645329968022194, -0.08672959451099857, 0.14527641229150642, -0.11883513844411098, 0.16187085988675295, -0.10928326208575344, -0.08225506109338088, 0.13909485543399233, -0.10539254468446689, 0.11657478886701886, -0.023725910995156085, -0.08443115974574895, 0.10781001562883177, -0.07190517671210091, -0.06386554616895496, -0.09339110151426042, 0.12114834262007038, 0.07225852164021618, 0.03366107491767903, -0.052742694027902076, -0.1091553650578657, 0.14517609875035978, 0.06698316900360654, -0.07106112358896388, -0.03111710435993073, 0.029693016563063446, 0.00437643252420461, 0.08778873986567773, -0.07153140698681326, 0.14142313230316242, 0.10977912227668882, -0.16375203298206387, -0.019003080908240294, -0.11888425051469279, 0.048012591930808146, 0.056330497982868294, -0.1459506062379543, -0.04924063012391161, 0.0233832656543512, 0.06008475897033222, -0.1396256150093051, 0.05178616890298551, 0.06675282176878108], [68.48545826940247, 0.04432015022449376, -0.046791349940638854, 70.87415014318648, -0.026453311775216377, -0.12839485286037758, 0.09254482861323632, 68.39109602431307, -0.12586776990421875, -0.05612539793162846, -0.020832180049817905, 68.52922075250189, 68.48323164111997, 0.15509378922231734, 0.14766007754219687, 68.43119252899928, 68.22069058013628, -0.039695810727243715, 68.32983000253333, 68.3132520363973, -0.031209056139041482, 68.41613412520971, 68.56112965117705, 68.50176596507615, 0.051249999065522786, 0.07209965261241397, 68.45336161112115, 68.49402177677763, 68.54493825809175, 68.34876714043861, 69.70924087300503, 68.49743330811938, -0.04194263341404694, 68.55676374422657, 68.44925952513361, 68.24564961817643, 0.041364722381334235, 68.3328091054527, 68.52908061923983, -0.06902653203117855, 68.36736256182857, 68.25231537324947, 68.42854472785453, 68.25364853635125, 68.30122657227841, 70.12082023134167, 68.29117813881109, 68.52456802686987, 68.3071557706021, -0.1226643892409318, 0.09054070505668282, -0.04757506542178927, -0.15638516330885863, 68.4934026127367, -0.14753456040513926, -0.0411034219411959, 68.5319739954991, 68.50150118453658, -0.015864629958185644, 68.48443353162082, 68.26993116716295, 68.38271607250516, 68.8604467456633, -0.0018716935945458047], [71.67995583459998, -0.11126500969676388, 0.1757139756635225, 75.15923341608527, 0.06640415714663345, -0.1565584220816808, -0.11306247747784165, 71.80042726420186, 0.1490583767509198, -0.04678114041334222, 0.06017523964863686, 71.50435572353246, 71.78282798574693, -0.10992659084802499, -0.12156105969852171, 71.59782139054639, 71.69227059364948, -0.18144755719639952, 71.73280835174126, 71.57819832275737, 0.13855121949853133, 71.45346698155535, 71.67569154400562, 71.56554634787508, -0.16327348922639218, -0.012368720044469617, 71.73943523078847, 71.42186592463048, 71.70071107831438, 71.85470798904763, 73.36497501907903, 71.66346369812973, -0.12498722418266414, 71.55458849831075, 71.48655266280693, 71.64717196534289, -0.10212929414751944, 71.8204164544064, 71.57128668184302, -0.09480391712740793, 71.75117114197107, 71.74282344686966, 71.73165529408257, 71.82076331833406, 71.66325233395955, 74.20799143619712, 71.46500753094745, 71.52599825357694, 71.83908735286315, -0.14532660417595958, -0.06784942107999674, 0.0034518238123028566, -0.11591084013672233, 71.65794084832419, 0.03772418067259456, -0.03292107740757272, 71.47543104892827, 71.72646767552615, -0.17752931242756273, 71.7113293291234, 71.62828076531218, 71.61617751317101, 72.4566578677379, -0.08096939909866539], [-0.07321532449589423, 0.11660443613348684, -0.10883108003012738, 0.16647237700744486, -0.104996085383914, 0.08038399340461458, -0.06702048962802523, 0.05568716105284929, 0.06598863681353806, -0.1300061497849078, 0.02294090379552549, 0.13027439046366293, 0.030648422187109198, -0.08557512867055657, -0.030643813023292138, 0.09757872422594685, -0.15667456973846805, -0.043520530308351596, 0.13412683143114676, -0.10150794437898242, 0.01761766750795088, -0.1586581453975405, 0.034306693964931995, 0.09604494825818058, -0.03802048956233864, 0.009217678475070656, -0.03883240634055668, 0.12386183290796585, -0.14271665508949197, 0.0740921226047305, -0.135376166652956, -0.025189574230941453, 0.13408192373315583, -0.12890200471023924, -0.11525025118007948, 0.16817808028308465, 0.15542733757778301, 0.15894522150235238, 0.13634910610424825, -0.10307426649275302, -0.025140847616100304, -0.15778718794345983, 0.17299015975252427, 0.05197706232911764, -0.12792451439676505, -0.10976079174532646, -0.15463843102945546, -0.10755102014678684, -0.16759587669592058, -0.05488169563991449, 0.164299475359286, 0.14848943967275433, -0.01190151668415998, 0.06547180171462189, -0.10797491667562233, -0.025314686851840823, -0.10771619313322268, -0.08537446899987008, 0.07776770256042595, -0.17268542730941377, -0.09466721007103408, -0.038451895873574865, -0.1240917494037398, -0.11738848165902761], [71.10402287196155, -0.0019459764646790987, -0.029797568825155746, 74.30716520145742, 0.1548983502441096, -0.13291642670598205, 0.030922075318933765, 70.95815789269858, -0.10174160764751412, -0.1488623798170647, 0.11619022380997787, 70.83684259885021, 70.92168525083079, 0.06852005058849939, -0.13526151958369748, 71.02412323354093, 70.86837150490052, -0.16003099903323598, 71.00777046229521, 70.88506061003594, 0.1644177484362578, 70.92169889433083, 70.97051527817769, 71.11463605088909, -0.12362117738112965, -0.06907575487451595, 70.87161783000136, 70.85874293478747, 71.02217377594869, 71.01030823871213, 72.65193730542649, 70.91151661484119, -0.15664479072615625, 71.16435889155144, 71.09229420291453, 70.85329316081999, 0.1046062099116856, 71.02210988851661, 70.97081643075333, 0.10035855639448621, 71.02448519658117, 71.16484376538051, 71.08789743036505, 71.16797686250155, 70.90730087731254, 73.1225391177947, 71.00474005183318, 70.99459124298045, 71.08671232906443, -0.01030417695550509, -0.10921648268077667, -0.049876663239428604, 0.02620922802544659, 71.07131729377147, 0.008080755325491601, 0.06524383197332714, 70.85905859045573, 71.05088078839026, 0.1617304374408962, 71.01755465131754, 70.93431362832888, 70.86104667130738, 71.6879651402933, 0.09175766169462005], [-0.04870000073580075, -0.11160774282850716, 0.12079529395340574, -0.1400370377554772, 0.05204546008997557, -0.132352185886789, -0.04677797514282872, 0.17566891001982646, 0.09707258279350253, 0.08900593696753892, 0.0680687928054832, -0.1469643157796786, -0.13087229600224592, -0.08708861116957939, -0.11371790415270493, -0.095191922532848, -0.15182988347776136, 0.1546344339590863, 0.07584247319444645, -0.04434012985123137, -0.08982153924073025, -0.15637133136077971, 0.12429522943790802, 0.0066156851697593, 0.1065884560782008, -0.0871151483052891, 0.09574211148172176, 0.027088240944939224, 0.11005119637219965, 0.10950570970403553, 0.09333702659890056, -0.0036387718780685196, 0.055210578924004966, -0.1552673521677237, -0.07549716628813986, 0.13070804893369478, -0.019210129134347137, -0.15273005203922718, -0.09123763299774192, 0.0994027761774389, 0.11384806171464648, -0.004927192355906412, -0.03186657578905294, 0.16037705140784134, -0.12079835971303203, -0.14232125815229635, -0.0506263569221157, 0.11903261774426657, -0.049258170479542146, 0.04957615867466278, 0.11745073912825457, 0.1299922675248095, -0.11452374309700597, -0.056771253731547136, 0.15690177213965642, 0.0280005897532008, 0.11460441210842712, 0.05123708127589294, 0.00292830948140152, 0.0730614895729205, 0.12443945770750173, 0.14843814405595743, 0.10375225292893389, -0.09568432456629747], [-0.16224717084971751, -0.15657405183165313, 0.07648378422021221, 0.11690275209156384, -0.11618483307593587, 0.06396744017225642, -0.025791653729366232, -0.11046741014242929, 0.02679957555519849, -0.08032553015393444, 0.13697484179836303, 0.1304907568244749, 0.04099468190801753, 0.07336802658731748, -0.06700340248769852, 0.08432406949819457, 0.03593996235302685, 0.01829103472079366, 0.008619838698540883, -0.15921267569674416, 0.009263649608034358, -0.1669804153314424, -0.0382661683194378, 0.03738793066844559, -0.14830104288524493, -0.1197675958557996, -0.015036737231624048, -0.14397507002837756, 0.13118811920601844, 0.03207169101620802, -0.1118045566375433, 0.06046599612239151, 0.067118272807531, -0.03100967597931814, -0.09985558299372709, -0.13265457135956243, -0.07822365322177577, 0.0055835887881215684, -0.07409143818743791, 0.11197710640721523, 0.14972697813675215, -0.06887637984102242, 0.1393657789707217, 0.010100323102728681, -0.10617835551722513, -0.0040600598095467955, -0.041040742766259714, 0.04947175409009111, -0.09648977718170401, 0.07577860007124662, 0.036334033725380216, 0.1485885874370306, -0.10412848432103707, -0.1539879739384794, -0.12441298725518286, -0.16136261448712844, 0.11631324641230004, 0.01668650867253879, -0.053801693797975295, -0.04150014214289302, -0.05862717976784601, 0.031355614342335136, 0.15321008158976449, 0.14021658086968122], [72.8037931413042, 0.05472682390087363, -0.11341575432284091, 76.68023556027768, -0.10043890207316375, 0.014447851357285822, -0.14756938728251942, 72.88265053309146, 0.06524718955917183, 0.011580821056371926, 0.1378614205264592, 72.73081023235326, 72.83044171918439, 0.05765343697412151, 0.17589007413792254, 72.95297860372688, 72.84554643970085, 0.15828123914613348, 72.95614030962457, 72.9293311469815, -0.0938895106860678, 72.90872060074949, 72.81042032248692, 72.91814187251552, 0.02755838456033763, -0.052199387823637054, 72.90492638084751, 72.68053762517695, 72.90391148124596, 73.01427023765004, 74.67489460255155, 72.98446509384087, -0.010944000021015171, 73.05379104952709, 72.83341255231826, 73.10232987843352, 0.0030659593494508086, 72.79324693588777, 72.86787858927445, -0.11288106450997284, 72.98038049680648, 73.05559037804892, 72.74366187706781, 72.92432853551082, 72.8456283976877, 75.49854220056287, 72.92812971368369, 72.78320162956771, 72.80903884122716, 0.1312900652700091, -0.012012085121599675, 0.1384167028244759, -0.14124764645322835, 72.80387533288652, -0.07742297129638351, 0.14230264201171525, 72.7660147734706, 72.97924339863886, -0.026990243402633347, 72.92936625624975, 72.98553110327111, 72.98972875054682, 73.48988106675301, 0.008485912275739443], [68.82787158429876, 0.05822503911936635, -0.007400781801249284, 69.48653713040245, 0.10758718510251696, -0.13888291427176952, 0.10727094757720608, 68.8595205034835, -0.11875113581492269, -0.06629621294653634, -0.04404487987155087, 68.77482202280756, 68.81455365551982, -0.006133006585664125, 0.040571680643844255, 69.09594055615726, 68.99672808700926, 0.024950361496476732, 68.77009689582404, 68.97891084434183, -0.16288000126141783, 69.25023100494361, 68.83688190531977, 68.90599180687254, 0.11087007745193009, -0.11865055303082636, 68.94189391004262, 68.9001653708594, 68.83300449100342, 68.83323701139129, 68.8904379256709, 68.80197166675818, 0.04814756955666383, 68.89249756357329, 69.09428738555125, 69.05247737105095, 0.05104279054245092, 69.085786195719, 68.81090976586232, 0.11011370652789224, 68.88561489963921, 68.90917703796647, 68.86122568918326, 68.85755000513625, 68.88954552486565, 68.84042826514757, 69.04544213083516, 68.87755676797836, 69.07493694008654, 0.14286448562981538, -0.11962266129389645, -0.14788006988368535, -0.147506233378878, 69.29918480911688, 0.05762911460860015, -0.08122784340494481, 68.98392438771172, 68.86703806916508, -0.03791836500013493, 68.88163401086281, 69.05164329138519, 68.90265833704866, 69.22078566017409, 0.15559469643487153], [80.54194086228509, 0.15309995022194667, 0.16146939352738068, 84.1469897363057, 0.13541882581474038, 0.15809112715831333, 0.04079788266577158, 80.39055362288624, -0.1239940243067366, -0.05701709724718343, -0.035251805150810306, 80.3487059918333, 80.54104244197177, -0.14497571960168543, 0.023916249276071222, 80.70956719994453, 80.38882770779907, 0.07136865835869707, 80.56701108966263, 80.54346804349294, 0.08717893505277378, 81.03808751300232, 80.37846398608187, 80.45452867516678, -0.06422393909529216, -0.07420410569425821, 80.4616266754538, 80.46216487941422, 80.38047790190268, 80.59158915516346, 81.18303430175428, 80.40555757433788, -0.15464527705084632, 80.65461786675968, 80.52611154700463, 80.42036922536326, -0.017525312298042495, 80.64790486274902, 80.40253597538756, -0.049680495372903324, 80.75119924259783, 80.54745168717412, 80.66727398857577, 80.37270897226631, 80.53093130356754, 81.78944219803296, 80.4561332819554, 80.52124280790775, 80.5356270106303, -0.012181306847118045, 0.1295927873091792, 0.06640861569516876, 0.13764166892007998, 81.17006398857379, -0.16990613657478787, 0.11024290745971269, 80.63130018226744, 80.63765523910843, -0.034875919508409195, 80.65822796075557, 80.44035835184991, 80.51205531326667, 81.51013112664708, 0.13439472698579386], [-0.036321282488602565, -0.018094754478365793, -0.08010722853281109, -0.11807006052417102, -0.018339962571874414, -0.07367436321102186, 0.03864418106562107, -0.0992475149185483, 0.10307313436156354, 0.03720232480114005, 0.11454982560217539, 0.16935380865040978, -0.041235316142829215, -0.15473062154891717, -0.15492237292855784, -0.15198695045798882, -0.173381045931182, -0.04976248917906645, 0.04025085990614518, 0.17726584869561246, 0.1226959762289042, -0.010872259158740787, 0.08390366165790951, -0.009078761449129006, 0.06894352292572173, 0.10241305455290237, -0.04932251080382865, 0.09880353523228555, -0.1337095530848551, 0.05986042939489195, 0.07799766747024103, -0.06962917646396757, -0.15553394795926687, -0.08852233023145965, -0.014358970500083607, -0.042807418527064725, -0.007918490149428636, -0.07745972523989503, -0.05854399742085935, -0.10239403628944846, -0.034174602415213674, -0.004663523600757337, -0.17474348469215548, -0.012000805960628845, -0.07391619430714347, -0.05637312969571272, 0.054151427625555915, 0.15019399607788217, 0.17524922263323356, -0.12579322336778737, -0.012317243219255258, -0.07324308315438123, 0.09403383142533253, 0.11928957112705461, 0.10662113526775199, 0.1570259789295904, 0.00474714449047282, -0.15169520566994227, -0.12581790367531165, -0.14223508726396838, 0.17173683732054373, -0.15441291387777625, -0.07209144697292502, 0.13091781535209787], [0.14744493608483306, 0.013872206847546698, -0.10031638601942197, -0.04916192529784042, -0.0594654909139027, -0.050565786383450946, -0.0985772391939038, 0.0673441237086516, 0.09256499027639373, -0.15378623271708297, -0.13140617429894905, -0.05986093164812873, -0.03801110961374083, 0.07268534537220422, 0.050230619404826066, -0.04062188150828976, -0.01603593642023389, 0.08730194322924296, -0.1438856452344702, 0.0761420706503435, -0.14980105440475341, 0.12709046804030902, -0.09151607917610725, -0.09914287765619688, 0.1227399276214152, 0.03405970638360233, 0.11049591528697895, -0.12033749266729242, -0.09962483649274585, -0.05567315067959185, -0.028571410671838028, -0.021338304783557173, -0.0723336344964655, -0.14511396733077805, 0.02930735985858727, 0.16454425588620428, 0.15865102515572252, -0.1672726457213198, -0.013227380544973244, 0.11013495553178801, 0.06474665137022927, -0.013350845675499875, -0.1630222265633543, -0.11263903615324754, 0.0991828976268221, -0.10516917008742765, 0.04483130653234876, 0.15997275362046323, -0.15695253064286938, 0.01945368899655392, -0.050080338082663434, -0.1521062011952948, 0.017495501721894346, 0.0036039648365373753, -0.07724645649382034, -0.01743211760808236, 0.14191547705975904, 0.105099131888463, 0.1356994618449923, 0.14814902168890431, 0.10881164743908593, -0.001968241917213312, 0.016976806160758404, 0.09099916313505987], [72.25439801123834, -0.09776173759139144, 0.05221851518680895, 75.99833453476366, 0.018821721100947028, 0.10107210489769217, 0.12576754067556378, 72.24194972108204, -0.005226408590523257, -0.09455137603514936, 0.0826193699320282, 72.36634424914432, 72.39468340342783, -0.1111250389343274, 0.15318870186521957, 72.33962887828578, 72.1515796497725, -0.05763293580813863, 72.43788708510898, 72.12635808742739, -0.16571375704090657, 71.99720446495174, 72.42322065889913, 72.29277009128465, 0.018096880238400673, 0.14424945244830786, 72.32885990574023, 72.28216416741888, 72.41029946942574, 72.26316280287519, 74.16886138784137, 72.42565385658428, -0.05851476086737549, 72.18800322725791, 72.22413526621513, 72.51122995750627, 0.1461392425646881, 72.21285875396394, 72.42119527685774, 0.06290318483756882, 72.29564382634287, 72.38000044619223, 