{"state_size": 5, "hidden_layers": [128, 64, 32], "action_size": 100, "weights": [[[1.0958019510446708, 0.6830017484560861, -0.033311398161354956, -0.010022618873582878, -0.0356463303390504, -0.2028273719735581, -0.09319575059554037, 0.9483045002586349, 0.062320885904217804, 1.039414361489498, 0.6857794426626074, -0.029511539294650085, -0.20155392734100544, 1.0235009044411394, 0.6908145292357392, 0.6422630646864078, 0.6538304646134153, -0.05160064419249399, 1.0567320085682572, 0.9179931854561533, -0.19135210669009364, -0.13749798867263338, 1.0071964341952284, 0.9709276221644828, 0.9482719108872083, 1.005701810324192, 1.0555693488011284, 1.0793379519306214, 0.8369269279654261, 0.05666150204423079, 0.7435612464345771, 0.14274312510899861, -0.09236254786443772, 1.0598166639281723, -0.1074471279614772, -0.22412144005900678, -0.12092729087828394, -0.13969788437462893, -0.04208125369149038, 0.18815006258223163, -0.0844310496361278, 0.757584268800495, 0.6716970130392178, -0.18277112109156068, -0.20715843793863095, 0.9318615633059385, 1.5400095606763387, 1.147046656498862, 1.4130888461898201, -0.09959505167843904, 1.2492522973278384, 0.935925483478122, -0.14662058258169774, 0.015191306557588075, 0.7564466665393605, 0.9899244255293829, -0.1130495849561649, 0.8005839748311923, -0.06736778638615448, 0.023314787531218517, 0.8786264780038564, 0.8110364034160102, 1.4076922286671332, -0.09517188693281874, 0.05079227415678333, 1.0020121258207073, 0.009776746669554914, 0.03722082341124858, -0.1391995882285469, 0.9390126976025162, 1.3778408555897355, 0.8221788082874314, 1.7425952658205213, -0.19768990298526076, -0.0692785720170857, 0.977510755473036, 1.2927686598735506, 0.8837052313319708, 0.8524621212831567, 1.7052990403500192, 0.8374572035272405, 0.9409140792196972, -0.14760029055328455, 1.02421319704695, -0.21743672212444312, -0.08075284645937882, 1.0367682889661345, 1.9868074853563424, -0.07841306251514221, 0.7644484716199417, 0.8071360103254853, -0.12702434350873054, 1.0157998925725893, 0.761979111848657, 0.1128850551189916, 0.07756321896403838, 0.7041422806596266, 0.8943161043652204, 1.6624511280684262, 0.9889143956468266, 0.7285531480316471, 0.9029381585413633, 0.005597398548892574, 1.5379104279463058, 1.022313522920365, 0.07346416913078781, -0.01740961324199575, 0.02263465107264498, 0.13144938973361883, 0.9044781819629041, 0.9458281020852728, 0.9425058958463974, 0.9507523629883393, 0.9238558807413337, 0.6280874372115878, -0.09351383619039225, 0.7905050064960689, 0.8642576244529129, 1.9162532422348357, 0.8586490329303138, 0.6511674665578535, 0.7355714236619819, 0.8195025364378244, 1.4819902497557844, 1.0777707187081216, 0.7249762685547183, 0.7042498232313072, 1.0706161389365594], [0.223423612238199, 0.31840596867117904, -0.11530122943764233, -0.13151394347324005, 0.06297589830987343, 0.12279831230681257, -0.1305743438244318, 0.23605491977573467, -0.17562721756136743, 0.27218975499295045, 0.11080707177026619, -0.1758300605574028, -0.012628612748051243, 0.18354471426317936, 0.18325370462732565, 0.22119742506573642, -0.05559662016624284, 0.10081488046709669, 0.37105662370067993, 0.21571477440236458, -0.10962505702158427, 0.006304876451325353, -0.03574960214341184, -0.035116748225009514, 0.20942016282675857, 0.07120100959067413, 0.18281538708442152, 0.23113108141650546, 0.17575344125110015, 0.023778568774255715, 0.3286207638111231, 0.09964458392312874, 0.0482273914783618, 0.3185475048255481, 0.17219977662067668, 0.12227056731031226, 0.05509534051217982, -0.10076395534996922, -0.17913153622440206, 0.16642804923554172, -0.0005354429182924114, 0.05263712919966382, 0.2933269175610914, 0.12181389739222367, 0.1016687206630442, 0.11487211206564699, 0.14762667376561867, 0.3416373240071676, 0.17565911936618367, 0.1758570452483332, 0.2418186238547116, 0.25494539583860865, 0.07710346157621165, -0.011751377520834827, 0.3307055637418819, 0.14380798296147373, 0.19792024522760596, 0.29372474412973787, -0.14242899452918995, 0.010568461081586822, 0.19463020499497485, 0.24644188041001952, 0.4489141416319471, -0.06857964180245547, 0.0340121845794538, 0.07342189088461817, 0.07925262366013, -0.11867425725081245, -0.09089716886845789, 0.327839380849192, 0.3453827227201756, 0.2383232700078411, 0.1974057187066225, 0.13234650027446274, -0.17998239839703076, 0.0924634175047207, 0.33308284335230903, 0.25332328352267675, 0.25959573227522403, 0.1288830757407386, 0.06120783692758677, 0.20948025069299597, -0.05161854217944911, 0.1118207328222432, 0.14365336073412188, 0.042506410639473934, 0.2863460268838861, 0.40124792849496044, 0.005624200383165143, 0.3228854335075096, 0.26898663253182625, 0.19920334539477533, 0.03579905644922503, 0.07381171037652651, 0.09311255330603314, -0.14505384619673456, 0.014103724054443618, 0.03289967313642659, 0.1833661492239883, 0.32581925198378964, 0.3421300845622082, -0.02396687829330469, -0.14652974552675282, 0.22402527688810708, 0.13181906707863006, -0.21221274085378744, -0.02859443615672211, -0.08866213562409775, 0.1713722803817299, -0.010928783216306668, 0.08140688153594752, 0.029954188708976162, -0.017678827021347286, 0.1527605963048338, 0.18420285541935383, -0.13218993969366943, 0.27149384223949236, 0.1329275138674253, 0.24372724185684563, 0.052158267523810475, -0.005099362733288494, 0.03048226223954808, 0.2443470180939199, 0.4622572831569388, 0.3203139410518336, -0.05023280155594338, 0.1212321691880511, 0.05619265875847228], [0.8075063419990265, 0.8945374665352723, 0.1189361983074168, 0.019552531698960034, 0.04672645041841827, 0.18727728311090652, -0.05960414771970868, 0.7919003536583376, -0.1792483264771009, 0.4827872418416037, 0.8696714855276458, -0.19275559543481788, 0.045941716784317715, 0.8380301202863436, 0.6611292025175127, 0.859976106246074, 0.7414103238346845, 0.093885188107987, 0.47873727767609275, 0.7641853852168105, -0.05922374163677366, -0.12161326599488236, 0.5221472256201974, 0.871878454858202, 0.5619837416324504, 0.9083139711766381, 0.8529650523470726, 0.8983811184763864, 0.5641473635049346, -0.20991460186620514, 0.6269933090065305, -0.00020825039674705328, 0.13516977539669228, 0.7321723034329022, 0.15570078001926452, 0.13458375075486803, 0.09948336931213905, 0.036577748714572644, -0.17437080183146192, -0.19671457633445552, -0.15828293775526078, 0.8443940696680055, 0.8066880893162806, 0.07981949651734685, 0.08640612432449143, 0.6475190336994617, 1.1839998780150793, 0.803858360992534, 1.1471780441739585, -0.14456083834734287, 0.8717092044738525, 0.5610599266996348, -0.05086951948572037, -0.20677259172607007, 0.7238278557943579, 0.7206926549455285, -0.014484771609866554, 0.6757529363837418, 0.060497566572729394, -0.08815599053648485, 0.7780541229005085, 0.8033458457064524, 1.2202921618105513, 0.049699955728190234, -0.0544762472948049, 0.6277960318928157, -0.19758710825496117, -0.18940382187702046, 0.0948056740180939, 0.8442234543804497, 1.359865877445262, 0.9032476773670144, 1.4235632854200468, -0.09706477823371616, 0.1556803942854597, 0.5642567256977478, 1.2935028048349164, 0.8295652667079506, 0.630517798380906, 1.1704304778825723, 0.6112486623831348, 0.48915978315861575, -0.1675280751136562, 0.6699445150054242, 0.14001669758435428, -0.10516399265961333, 0.8847097403870691, 1.4890361070220588, 0.16291095077392237, 0.7735915140664389, 0.7007936879908103, -0.21193683601979355, 0.9768515638265873, 0.6218660559966782, -0.038914669229471274, -0.08011448138620578, 0.769556284930986, 0.6074844074468421, 1.4896192070664098, 0.6101242747359681, 0.7413641267532275, 0.5565183453786562, 0.003939402029294936, 1.3814774907162173, 0.6718763274173402, 0.04143479246462077, -0.13914638136712876, -0.20951312841598396, 0.012230708201116674, 0.7638789055570501, 0.6569649307805226, 0.802612710066806, 0.5702497489768821, 0.5781167380392478, 0.6794185525028973, -0.16364819631174013, 0.8714420606677645, 0.7817878952745345, 1.4996602470988731, 0.8353215422317218, 0.7121893977033779, 0.7363826947052438, 0.47182068736861393, 1.318253883550605, 0.745311554457253, 0.5743575675180876, 0.8531635038540273, 0.8927151247961256], [0.9124260981876162, 0.8114668722673808, -0.21581570302203693, -0.06876368745088549, -0.1266491444167718, -0.1536907114229554, 0.04211877810777123, 0.44818496151012105, 0.07360139064318696, 0.7907582666069155, 0.7967849963945641, 0.12584252754645867, -0.19158138770601005, 0.5348911090083093, 0.811254839656422, 0.7321004980963354, 0.6586294298729112, -0.003963455190729832, 0.7920128103694113, 0.5157758938777569, 0.004396467868061804, 0.1447494061706757, 0.9201532950360929, 0.8407181098688897, 0.6422731094087936, 0.9281832348837014, 0.923649566760562, 0.7010623829071845, 0.5596046580186269, -0.15497611118896304, 0.8319561754305056, -0.14385041885745065, -0.04921238106270595, 0.7350761750222384, -0.025284159695574467, 0.1200027202823179, -0.1488617122451104, -0.17687129566493398, -0.019533114228358378, -0.18253935377430777, -0.18782434572512374, 0.8834592084964764, 0.5948255024744915, -0.2105895158570538, 0.05189212365885906, 0.6801184037613828, 0.972027633905135, 1.0200459516660334, 1.1302884772953994, -0.19548541038236134, 0.8749388287419098, 0.9763392600009971, -0.10320214334688646, -0.18817776609804696, 0.809835269780849, 0.6975509269299622, -0.13551933873905506, 0.8222754352909435, -0.12112562481140372, -0.14230904790235405, 0.5920641013757875, 0.6935318069786975, 1.0054234514212628, 0.09735907421320567, -0.14125383384610501, 0.8314710893037205, -0.0782467323944381, -0.19233446382810546, 0.0940953056294408, 0.8066709042239251, 1.2333091516327057, 0.5709262996020988, 1.064215979139714, 0.10386081918723308, -0.19117791930522698, 0.6325250133880911, 1.2909817932462155, 0.4783149605811705, 0.8723864188743365, 1.0935876499099568, 0.9004583178810277, 0.8296451925366183, 0.01353578831037483, 0.7546403382503067, 0.03384014716627847, 0.14779882684384357, 0.7941476721331291, 1.3202381507537393, -0.20824848821447073, 0.7567616261406114, 0.8509203554621362, -0.1638619273086359, 0.9573252394404825, 0.7225401437633178, -0.13984058190644708, -0.03721925514696479, 0.5134662366740854, 0.6716335549318334, 1.4796413280246425, 0.8803826931233005, 0.7686566284068689, 0.8100389740415886, -0.035872399709662356, 1.435474373490888, 0.6872270087593775, -0.10856671256710439, 0.08353333442298537, -0.1505697050614912, -0.14195052351823137, 0.6024396016195279, 0.8515662569667104, 0.8867697390942659, 0.47652202564634016, 0.7825476874811278, 0.8504811994037476, 0.08859056506440935, 0.8075656497424382, 0.7656147270736202, 1.2957077453916115, 0.863327537306444, 0.8257552762298895, 0.5054870669594116, 0.4549086752004649, 1.2163120457984062, 0.9355983256081363, 0.6577284683180449, 0.8677164430816965, 0.935425837496035], [0.8006109781919544, 1.003100061881962, -0.06478351686718045, 0.0031821960100487973, 0.014883558141556456, -0.047941857174109516, -0.011966403424834626, 0.9638314491334813, -0.11748037094060923, 1.0462404430941126, 0.8953559623271437, -0.08454456111735809, -0.15671951219979371, 0.7503842536048622, 1.158964384579859, 0.9422970387713098, 0.9788018670316017, -0.13971501948286047, 0.9533023654859217, 1.1190450620706212, -0.15061060483808944, -0.044252020631738775, 0.8799780528163138, 0.950327011400939, 1.2128261248241228, 1.2393569093874874, 1.2296077770437133, 1.062063497390186, 0.9470438395638736, -0.12067209242469171, 1.0474517297012456, -0.008921567307083711, 0.05048350082902369, 0.9728950631164468, -0.20116804223293058, -0.1104194455631253, -0.1266820377784419, -0.16243410000478103, -0.10547526778514656, -0.1265509420380446, -0.17597056400511618, 1.137661453648976, 1.1494839599764868, -0.01593490975472145, -0.15924862658789932, 0.8385963328366862, 1.1942638039860605, 0.914772329770376, 1.0238571485261396, -0.12640099640694136, 0.8575379802529283, 1.0830350167709883, 0.15467028513233938, -0.1788226568472726, 0.7954744095239036, 1.126521227077394, -0.021285499962800436, 1.068165481218182, -0.06311261451440509, -0.12320609950717944, 1.2335740774519544, 0.7582876718459735, 1.0418490968444607, -0.11431697384706614, 0.07249818483826002, 1.0890930006023072, -0.11374342690152307, -0.08481127980925371, -0.07194483947070247, 1.0361818081622018, 1.351384600043285, 1.0482838383541917, 1.2071354451620737, -0.19111765311803283, -0.13311339967203661, 1.137008347756263, 1.2004653027504395, 0.8912064427059502, 0.9807644831079252, 1.160690595174188, 1.1537032180671403, 0.7577674249777812, -0.06839143566538158, 1.07204421276782, 0.002562609840805944, -0.058079487563322846, 1.219200419117067, 1.6605897047590132, -0.09785268804908137, 0.9917403170847214, 1.0635983121611337, -0.16436023003196926, 1.1909665985406093, 1.1208292840911407, -0.16081626860498047, 0.3481876114799766, 1.1455129432628701, 0.7804154510679713, 1.3231785717239626, 0.8652511491593676, 1.110457353174562, 1.0946924863166236, -0.13829115792001198, 1.2500921162356267, 0.9588602450499698, -0.08711205717921106, 0.016814625438023978, 0.0003974368693937146, -0.06930519976841591, 1.09607302678601, 1.1185253372761306, 0.8967352972709373, 1.0553390381755432, 1.1293822778626483, 0.7786298540554378, -0.19301990014348974, 1.0475992152449194, 0.634542763833343, 1.5569956196858004, 0.9605863660005768, 0.6798658430520906, 0.990711021222153, 0.917936214685569, 1.0757450525365042, 1.0294017559115018, 0.9188350683382263, 1.1724965018765523, 0.9432075030727639]], [[3.390993808725957, 0.11093471372841134, -0.013107502873844129, 7.141995500961711, 0.021923098688577714, -0.12637145466331084, 0.09679438698049256, 3.4113602021103406, -0.04606205236198116, -0.028618483477539564, -0.019155926716906496, 3.342177996880126, 3.342396099326678, 0.10471105833385566, -0.16076532464516963, 3.4198948831990204, 3.339923826803061, 0.011619294531872456, 3.4858479887752503, 3.424350604594086, -0.10817544092259855, 3.296101513085843, 3.448277465819874, 3.4145746773002634, 0.10138227989399393, -0.061782090391355515, 3.2046512817468273, 3.370004806811845, 3.5048553998541654, 3.3836455753082784, 5.302932891837483, 3.379015935348668, 0.008540791917622192, 3.2928461642023534, 3.177143699286607, 3.389324085151553, 0.14298463643221596, 3.2561341845285, 3.3506177970744253, -0.06922717270005009, 3.1973380569938175, 3.2628440205753324, 3.3809010391615586, 3.4620041382445916, 3.312144332127683, 6.1940591044452695, 3.1881887976638272, 3.1784941907473585, 3.4840009891651076, 0.16222794085597456, -0.013770393771706524, -0.09681955845250462, -0.13495208223424654, 3.2682395064595595, -0.12770834249213808, 0.07672040511743436, 3.1275786225075994, 3.5041158239722425, -0.12111050461515939, 3.225990311989379, 3.4834136787908982, 3.2924169722479646, 4.209201374698726, 0.09170019734791231], [3.134417636796305, -0.023339391507437975, -0.001471187494033882, 6.334994515675515, 0.13839027320844996, 0.1664107510756312, -0.06396560592404864, 2.8345195401925385, 0.008478676505263044, -0.14412709902232376, 0.10856265696096648, 3.122340256757345, 3.086932714841937, -0.12392598479276515, 0.0524985511499485, 2.988707058716091, 2.947454486543583, -0.007968697567015102, 2.9140308188139366, 3.081221257920888, 0.13776976188891185, 2.9091903202748717, 2.8336742048626875, 2.8287249249268718, 0.045762312549301846, -0.03978490022009302, 2.803731290507782, 2.982494774297797, 3.180571743335815, 2.9422632366614354, 4.762268094097173, 3.053418012323562, -0.152976477598192, 3.149143434638057, 3.0307288830276202, 3.1347843466540106, -0.0738870422365039, 2.881405694790613, 3.0478700839692148, 0.11812562850656746, 2.9636231902495287, 3.1898572120890063, 3.044184045076372, 2.9762732387761974, 2.915722445650849, 5.424693913157739, 3.01921757548445, 2.8623363595605826, 2.9640203508871967, -0.0433508206326042, 0.14087245261578826, 0.17157047387224963, -0.1282051013304347, 3.1839371825750296, 0.024552025628151397, -0.15174794753945225, 3.100405334002438, 3.168490386070221, 0.11321492191565712, 3.05450251535189, 3.1390560490017285, 3.1004367359321177, 3.712691760876973, 0.07072823518263903], [-0.037873087831891555, 0.1654376061047829, 0.046099598287443255, -0.06778261635636723, 0.053364089542834475, -0.048717702506961974, -0.011011069702953707, -0.0980633292507915, -0.02473631743797547, -0.15883799301017457, 0.09755338984740616, 0.15510890104827438, -0.05750918643164074, 0.08241736664668656, -0.1542822959496003, -0.11271065144711809, -0.01083815239401393, -0.07220276675999114, -0.05623603133975816, -0.01965277540870736, -0.09160366595883529, -0.060597964788568, -0.05939011443702004, -0.026073679470377188, 0.13386550306240871, 0.13623908219734718, 0.1765350477656289, -0.10361754448116602, 0.13884722439349217, -0.15018690901147103, 0.0053983619630499765, -0.0544108234150624, -0.06276890859508324, 0.022613586279437776, -0.09441728061722184, -0.012583371478020456, 0.035645847523911284, -0.05115043393430731, 0.029975962676886604, 0.001137843348779477, -0.15454762144253692, -0.006475182878929153, 0.16467754770377596, -0.004407887287298052, 0.12193594554704779, -0.08486761444112667, 0.02525211389961873, -0.15516855278037436, -0.11447420438545737, -0.034759232990307115, -0.13916349578533938, -0.15646988975915888, 0.1530881572727564, 0.08288544065342836, 0.03422623774735564, 0.019909969292684182, -0.15951799479155182, -0.05017404908843269, 0.1294104488883546, 0.022789965083398974, 0.04074182050242668, -0.023795744287675454, -0.0667488484661302, 0.0609063882972227], [-0.08185188751162309, 0.016248096505655146, 0.09257298606016037, 0.11000745410317544, 0.0880668069392442, 0.17676857183837094, -0.04275217908115089, -0.06778608747533467, -0.06393882955381218, 0.004487130167607406, 0.0787007433373392, 0.05225406690833467, 0.01940608671078151, 0.14477190345407778, -0.09753657706099303, 0.06446419216397037, 0.04512094227267482, 0.15368920742084466, -0.07365138347581338, -0.07861050748530349, -0.02031198798912269, -0.08401553621335903, 0.04007977795409588, -0.08343866343470578, 0.0882276040588921, -0.1434379935965818, -0.006136138529985365, -0.025193479351635923, -0.06740558223758485, -0.0299058992286212, -0.10484523246255323, 0.0038067803181073, 0.009452550865024223, -0.16467881270481835, -0.04352950708131368, 0.13716529073254896, 0.019472007671431785, -0.13014501154705213, 0.0579101289204805, 0.0016626266633590625, -0.026654072626352512, -0.023327243562774914, 0.1336303919246353, 0.11083789011866017, 0.1573729357811522, 0.08602604627084501, 0.007246609572848396, -0.17609416059225153, 0.1220878442401804, -0.10939007222801034, -0.13616680369572193, -0.09749770668853645, 0.16546123525101816, 0.11879650584793061, -0.11187603122743937, 0.052115547891025654, 0.14784507700051094, -0.15515859080154756, -0.07719732933607304, 0.04744190928929268, -0.1392595586771859, -0.16926128762295437, -0.11337874187527612, -0.049505248917986355], [-0.048296810925965966, 0.0004492347297170851, 0.009919843741933554, 0.17211594223279927, 0.05609969139323272, -0.09040568358641113, 0.02985844748596634, -0.11704156231604326, 0.1277847020053923, 0.13968445667367738, -0.027638934130771176, -0.030403096162327822, -0.10942983827265675, -0.14999654282824298, 0.07408950141676998, 0.029891058893841492, 0.10777839120853357, 0.054289506995489026, -0.13866601629411976, 0.07143395792507344, -0.04124848266038132, -0.16412689300703281, 0.1511367889694726, 0.01718217024619826, -0.07035538208915215, -0.07425014064621234, 0.04922618592433051, -0.1381130370610757, 0.007081457244937783, -0.02585166593507579, -0.12411398147592484, -0.028320595544566004, -0.14021759378264245, -0.0903345019115727, -0.09762269496510849, -0.07458585452230541, -0.15146008050226295, -0.13515265002885368, 0.1565894620716157, 0.02729834483311283, -0.07479182580454773, -0.1689706822620148, 0.03152205954223965, -0.09421472964308959, -0.16851861452957237, 0.012796159344063363, -0.013348252245618905, -0.12453894895293227, -0.1572279903358523, -0.020317631546635434, 0.02774057128247223, -0.1450235832722101, 0.014146300594141292, -0.1521878309149705, -0.132427651184756, -0.15921801497734409, 0.05718628963936094, -0.15336172056486133, 0.1261640453319998, -0.02135850882768333, -0.04632003436605782, 0.0007572124996279945, -0.1296051518011848, -0.06667521101320467], [-0.15570262956824374, 0.014564533184331152, -0.09510192603959985, 0.08245662748906592, 0.15393763042140754, 0.10525525370611885, -0.15993633821849373, 0.08503746725727286, 0.06095255284548637, -0.14405417020911565, 0.05364007240177221, -0.07755750336529245, -0.17273212344704109, 0.16790071121806696, 0.027963777440816545, -0.12562649020601852, 0.019593585004409657, -0.056659222905652944, -0.0035705814100398556, 0.08236798415565548, -0.01707793799450269, -0.15773775935349568, 0.13876976746732633, 0.1067432865902924, -0.05993990279883393, 0.055846152561018575, -0.12269833933672243, 0.07694421173365688, 0.17166579020296294, 0.08282984313802381, 0.06967076537761902, -0.018990135640816988, -0.019190243976069693, 0.12566922525271504, 0.15798336873898303, -0.15882044954434502, -0.12426075751262183, -0.12769388007292115, -0.14691882159942857, -0.003388621646609191, 0.036288630166390695, 0.07501325699522308, -0.01889772168992305, 0.11442388103742608, -0.16045497805257652, -0.13287197155638272, 0.13628948212502776, -0.08671465361527401, -0.10207190220619435, -0.021727804370028386, -0.147530156480628, -0.11380499645171006, 0.08868605786862868, 0.07820646372266013, -0.13269438217699936, 0.0021412941664687435, -0.16411906045859595, 0.01697707247342667, -0.0323273992911769, 0.09387605276806209, -0.050199927547911576, -0.11801061338008094, -0.09659510613718926, 0.14227645014158044], [0.12990562017484067, -0.12944406541519446, -0.10509545207522988, 0.06282652851011841, 0.10456197883889287, -0.034587718526237654, 0.024015601113954232, 0.03990143178317715, 0.11531163212456894, -0.16723882970742293, 0.022643129821946495, -0.0634715062626805, -0.01531589684438217, 0.1263239626457374, -0.15404457701510682, -0.07744229825373303, 0.12305869571102265, -0.026628021519905953, -0.11281527514727319, 0.10863195001552481, 0.13647973803642358, -0.1317979447950275, 0.12110077344634443, -0.03304860801228712, 0.017210631376164603, 0.16125527669504439, 0.13961708105649326, 0.1530706289243133, -0.026086087222377263, -0.17397490559143722, -0.00032327291018782733, 0.03599324161388748, -0.09098821708353483, -0.11433179952448108, 0.11542046827197419, 0.056874363221184, 0.01642531431975605, 0.16561353401828025, -0.14056789551515875, 0.13080111748099457, 0.10317083624525228, -0.016633086708773753, -0.15581845928332547, -0.03135069158038925, -0.09522537222636418, 0.1653809478623479, 0.09747708094849092, 0.14515514538982652, 0.01800986384840486, -0.020937521841132595, -0.0390614679911242, -0.14577391027495146, 0.10682711076876608, -0.07948268948330475, 0.0648274944231145, -0.11348593979722296, -0.09045030705851882, 0.11036762796155278, 0.04089886788223113, 0.10629934106770536, 0.10105081834568594, 0.022732775397830085, 0.045351783586609046, 0.10067955739457876], [2.491782712348997, -0.17373817676252848, 0.012936774066493434, 5.207400739530222, -0.03133426993151056, -0.11466427111655271, 0.08088325237534943, 2.7361341830710715, -0.045894128179103766, -0.07535532190935681, 0.06444248090475513, 2.476389148235707, 2.6090323161747455, 0.1727145636033178, -0.039041302958196245, 2.599061111745811, 2.6620180789004233, -0.0959708563569144, 2.4404676163400567, 2.640087372702403, 0.14726824457500293, 2.5832894452682384, 2.6860678155838564, 2.531812204422399, -0.12122693235362686, -0.1558987921362121, 2.4935833564946432, 2.5537957664577724, 2.476249410072007, 2.4638072774951563, 3.77791514947107, 2.639309535383893, 0.11578369173944061, 2.5436179437809057, 2.659929582410086, 2.7515222868614972, -0.08032996176737228, 2.616446459845599, 2.4674881746794965, 0.07302594023016687, 2.702278448713655, 2.4585366106381996, 2.5080027504088354, 2.5696108244813556, 2.514563888563941, 4.603189802031508, 2.5869585426754447, 2.6682031703981495, 2.4937903883218167, 0.0320788645697235, -0.05569932546951188, 0.14777833221521655, -0.0064840280958466945, 2.6873965423017663, 0.11445463138746184, -0.02139042409388825, 2.4986230292333276, 2.7016502595384684, -0.01203650465457974, 2.649638885560917, 2.4985368670240233, 2.5828536763144156, 3.277061830915041, 0.13765296239825556], [0.14745001888980436, 0.16482566885827166, -0.08708023435653171, 0.13813630372423244, 0.008265352465802196, -0.1174414573325893, -0.1654058678901021, 0.0711029498418629, 0.08723382680814726, 0.04955485842018317, -0.13927137450492122, -0.17550598889041263, -0.08066777565699097, 0.0009917636202204372, -0.04015426792959001, 0.021693952145086563, -0.14787927139360385, -0.08987681486985614, -0.16866370326078522, 0.15666226379894782, -0.03349562874477165, 0.08017776624189188, 0.14956067106624604, 0.17188344172982084, -0.007829446190067202, 0.12547127741218808, -0.11993100732810487, -0.03213201505344103, -0.016233892158181704, 0.06686154319717218, 0.06323211778626932, 0.004433751718021468, -0.12373534152654589, -0.05402796324978494, -0.13480798321893628, -0.17466663448920078, 0.03207206995806183, 0.04450582858949861, -0.16896895249692095, 0.06645691269589021, -0.09527249171939385, 0.11451827282474854, 0.09037521884804998, 0.02539320502178253, 0.0747489978395144, -0.14550230234461514, 0.012906039218710839, 0.085690735392433, -0.1326744968471117, 0.054051224503663065, -0.066461674510019, 0.04802167189500914, -0.01819258776494731, -0.09813524897802578, 0.15706243310958382, 0.16281590542986482, -0.14814158033256758, -0.06266686012414595, -0.03494987301658217, -0.12476358936145009, -0.04278051511054729, 0.08312545986382368, -0.05326069006898668, 0.12418835254653152], [2.856412595689205, 0.0973426155370011, 0.04328845576216117, 6.229273129947894, -0.16329458552638157, -0.13492716781179595, -0.07280141400858624, 3.037549290974462, 0.06691153588983076, 0.0031631565346181, -0.16820388664845218, 2.8659600316387484, 2.8413410773560037, 0.041505907520372115, -0.03892093715342779, 3.0953054653164167, 2.8646063539376425, -0.16667311275218294, 3.159408032528956, 2.9757008914467336, 0.06017483827908326, 3.0930191553360653, 3.097691102094378, 3.1340155702142583, -0.09678340372915771, -0.13704433691076082, 2.804090810974689, 2.823674451324513, 2.925646482075272, 2.8620845282726743, 4.77444729960768, 3.111206649562136, -0.15723050750697073, 3.177950588100043, 2.801024146785848, 2.9807063257484434, -0.14456830120860295, 3.011749643029822, 3.1202120952226546, 0.0924661724907724, 2.902010286634527, 3.1573787121409045, 3.11884242905994, 3.1047543145799437, 2.9676622578912464, 5.203709479528155, 3.1282287646038527, 3.1065824286942214, 3.034138283906572, -0.09343963477393986, 0.05837716506720394, 0.1499869974515168, 0.07456498061089709, 2.9293873663809102, -0.040963217936031665, 0.009759842792995577, 2.950116323613955, 3.0551505920028776, 0.04750217896088497, 3.184073222311914, 2.8903787565370993, 2.9740100560848624, 3.8351542919455848, -0.10747323667527564], [2.6413412752661474, 0.14114419965146524, 0.17568254279256004, 5.786375757632856, -0.1670030041740694, -0.06711327143322333, 0.14703043467397903, 2.9385418239603824, -0.16233157502190623, 0.09582153250657718, 0.062311000469634975, 2.6243264498238874, 2.9342619065153936, -0.1292276829914831, -0.08312388168187314, 2.8786114040181126, 2.7081829571125073, 0.10827990116699454, 2.855007384667867, 2.831723818348511, 0.044890865014454086, 2.705980862711969, 2.924019696482933, 2.7379832638751243, -0.006683969515678505, 0.0626714306140687, 2.8200823803695014, 2.6857213219752474, 2.778335396908812, 2.9318578578481267, 4.332652785731505, 2.8286993287453246, -0.15801094026241372, 2.6992298214182266, 2.699984774777593, 2.7833235335242934, -0.04966771696886457, 2.873714499164623, 2.7419156107584692, 0.026345932611471435, 2.9742046176699652, 2.905202361694866, 2.917193372156497, 2.6462423077668404, 2.878658967852502, 4.8646065294786975, 2.6723043535711843, 2.8790377960976548, 2.7550493894945864, -0.0003782536307374851, 0.014794998803441544, 0.1401817492417574, -0.13086368914313207, 2.911079407262042, -0.025316014445306123, 0.13197353182607222, 2.8002732287618386, 2.842524866783579, 0.16196397016899108, 2.840031072083023, 2.7014189703310665, 2.7521779540695714, 3.303078221157029, -0.05817318609275679], [0.001975251136662276, -0.06641130371315129, -0.03845539111369911, 0.02035063791946423, -0.008636225938983444, -0.10494059876157218, 0.0915956377285074, -0.020182676030982033, 0.04512859439268663, -0.001422750544757323, -0.16051932273666467, 0.10692214588063034, 0.011175302134052822, -0.1405191470869136, 0.15762091756925692, -0.05192805030856906, 0.17003190839428897, -0.007695970475465497, 0.14378797363530396, 0.08469246494093799, -0.14515850953291218, -0.06288019786161238, 0.03976543171505398, -0.13241056695469938, 0.15575897733967928, 0.0371331911095929, 0.04307807169510075, -0.11675100321403085, -0.154550345734951, -0.011660513343167839, 0.1733456047384674, -0.05667038860578462, 0.08788892129442924, 0.006203336279628324, -0.05020855752059611, 0.11211779943598862, -0.05210558200661412, -0.05818460818225525, 0.16311995456851522, 0.1107450007222873, 0.019668333112466074, 0.09438715499510017, -0.07528454771493122, 0.08462940451023279, -0.0970485950643182, -0.13307276728108217, -0.09727366360625528, 0.15901196362878303, -0.11727766382663231, -0.09249859023041407, -0.1696414830061539, 0.1532597734766509, -0.12679132322110692, -0.03065723964888073, -6.945974572256097e-05, 0.057552180998128616, 0.05852946384827973, 0.08997385305995229, 0.08637831097750567, 0.11566650814092425, -0.013469696911181134, 0.07664837079539807, -0.02194569489321671, -0.08279808759933685], [-0.09074151747855594, 0.15514515945869925, 0.14303648038753522, -0.010481740155672742, 0.01016423068977701, -0.13823825444868215, 0.14355701387147127, -0.06948092717194874, 0.09508606778420584, -0.11157867951387054, 0.13833418082481683, 0.15709455104009426, -0.008985352513028871, -0.00012982808459588435, 0.1429915135344674, -0.17108742659478493, 0.10518493910630874, 0.05855681136030089, -0.1094041493961956, 0.07225589473134983, -0.16918070316911815, 0.1046961164251484, -0.12092209190527577, 0.1580599096903312, -0.04527956940366798, 0.04136356015220191, 0.09677010087852841, 0.057204327460577215, 0.07299877850857348, -0.004089609485683654, 0.16915184482081494, -0.17371529739510033, -0.024866014058179037, -0.071837128676413, -0.1601837639082171, -0.046079501833169945, -0.12515833931681447, 0.09464924059406496, 0.07980212000220446, -0.07700764300742016, 0.09185697374978505, -0.16518732106654865, -0.07153411860491252, 0.013642827156881476, -0.16380794246770847, -0.025171901143636183, 0.17459233344947564, -0.06032299068285081, -0.11374176588446921, 0.11786248230997473, -0.1535399892371909, -0.12398329125396976, -0.1339955223440318, -0.04860933721108143, -0.15157146935613988, 0.10431385483525349, 0.05893337593017062, 0.05883350111099464, -0.13556367864295377, -0.03457050872948114, -0.040877054114794004, 0.15669362332431078, 0.10884587543959237, 0.08977523721593308], [2.594806179250578, -0.12049171374967547, 0.10343182097504997, 5.532241287730055, -0.060591799202616786, 0.15985765568914556, -0.1046940043594621, 2.835099790397954, -0.15814740720273832, -0.14132173432635686, 0.11282152295780348, 2.575529018708366, 2.698223969652221, -0.01117184857700107, 0.03853197138300746, 2.8549178476429127, 2.711417433025379, -0.06812542541947769, 2.6308444618910602, 2.704049365372672, 0.01012037213967607, 2.85109767096999, 2.641709392376777, 2.842611065932717, -0.02477304770285179, -0.11279126446576927, 2.735355104935384, 2.578290881233852, 2.7771411280759937, 2.57975855895835, 4.1586508708494945, 2.8099574170042763, -0.050139529328034865, 2.6566029548184558, 2.674331529661724, 2.641345846297976, 0.15667795906632656, 2.6223572074746047, 2.767791522601054, -0.06424408269782252, 2.786579561027012, 2.8408262982094703, 2.746143181956369, 2.8223106128662296, 2.700858191767346, 4.672638882038481, 2.7937622614871165, 2.643721187851079, 2.841143940701981, -0.06312901202751307, 0.04652193809630801, -0.03471121734868793, 0.1229733607639262, 2.7288449065670424, 0.12915979281361376, -0.04094847788128758, 2.710702218741826, 2.8553893999675326, -0.17507445095770055, 2.607665731167625, 2.6727538690038424, 2.693267983147857, 3.4035571945243133, 0.17401918722817467], [3.0884989499121804, 0.05685293808539241, 0.009271675101070742, 6.258455926927604, 0.024094416783052953, -0.1456034900943254, -0.16694000111812435, 2.89129415619856, -0.17599415423576206, 0.16320383653534545, -0.09843674453060623, 3.0477611610196185, 3.059752596859191, -0.08232485929380777, -0.1442250446104468, 3.0120560162367456, 3.073958613048257, 0.1126430803383968, 2.9890299284105355, 3.035443155679678, 0.08450878049403435, 2.8040330775578113, 2.9467432958841133, 2.9114901250673215, 0.09272153411503756, -0.011872253487194166, 2.940365251966054, 2.821892816576951, 3.021803071670706, 3.11584479028887, 4.679136581459374, 3.089919911080174, -0.08157472152742828, 3.1059370661589263, 3.0704757193374084, 3.123176868059881, 0.12810150005445256, 3.100830613459424, 2.907572263325396, -0.11372460680135121, 2.8564976545033556, 3.203562375795105, 2.9532482685161767, 2.9304864007274976, 3.1345503460130075, 5.439012701764754, 2.8355070007994794, 2.978827617502195, 3.1101049465383808, -0.12331850875111869, -0.06996951823780853, 0.13395961369698953, -0.0750900117121326, 2.8676449249465517, 0.012306039174343947, -0.02147759368248059, 3.1156509621474084, 3.026868165044781, 0.053322276954579216, 3.125175955176588, 3.0000853053317496, 2.997154881805928, 3.803510181757419, 0.14475187053879357], [2.5173949479678432, -0.16356327252391603, 0.17504565992011942, 5.39706886664426, -0.1442932278483354, -0.010345211487806873, -0.1460836416461247, 2.652028297790612, -0.06819530484360237, -0.1336644890584204, 0.12977309738477769, 2.566684386797178, 2.7037812871730518, 0.11854503720447249, 0.081413313117803, 2.526095399912551, 2.6202923372051714, -5.4496925989499286e-05, 2.513381626798786, 2.5519492286226075, -0.17163385806661516, 2.620008293248681, 2.468540471480333, 2.8044075243855993, -0.013578407639464472, -0.11635262183443852, 2.7071451940833375, 2.7540171527900954, 2.529504036790259, 2.6520816509076743, 3.9539741437492184, 2.590021919367424, 0.09600865469207256, 2.8202741467635466, 2.529759235909297, 2.7354019181015055, -0.004327201273905706, 2.72834091857328, 2.7574258642973106, -0.021523637598448865, 2.5949851759999856, 2.493394959434898, 2.6463598794945113, 2.6379854965475245, 2.5901731225864832, 4.64236810991684, 2.524512896482907, 2.5185101756310724, 2.514550085449506, -0.13636685338177906, -0.010524542963501613, -0.10309956428793893, -0.03720349851177801, 2.8057505254139006, -0.09147909575589075, -0.1216338164566591, 2.539795672242432, 2.716631560757569, 0.08336591956220668, 2.7608769984624972, 2.8211441728109605, 2.808503693891174, 3.25457486613125, -0.00493067525796322], [2.5295229341561534, 0.007190610332908354, 0.047223707651634333, 4.947099345750794, -0.1457084589959159, 0.11735186861004335, -0.07753603550883124, 2.6497367276519803, 0.05119067208352843, 0.050306733875852994, 0.02706734782783543, 2.427899145849304, 2.6239739965280915, -0.06693370454273823, -0.027273679450354915, 2.4965340637016418, 2.3343072863865064, -0.0788533539727416, 2.6460242939224115, 2.3419263520194935, -0.14767748242340284, 2.6184553338662626, 2.3358346140511683, 2.4304298665058637, 0.1760610050361053, 0.0898968935442178, 2.566984085712358, 2.3766496028947106, 2.4290862152604715, 2.5758633250424685, 3.697014325988758, 2.3694068785772826, 0.07424816696696965, 2.4490267851188854, 2.5507937797498936, 2.4759448871563876, 0.05989789444979199, 2.4172126262156066, 2.505474419573231, -0.05629512529495566, 2.6206644809498645, 2.417118803222319, 2.619273875049272, 2.5909471672327387, 2.5512829082017463, 4.231426832844987, 2.654421604109727, 2.4908248634275703, 2.4015516916961834, 0.15109843511950508, -0.14244463963636841, -0.012573871075418158, -0.14778504716039895, 2.5443988103365713, 0.141542666552228, 0.0767667251928155, 2.6449462566642463, 2.4982570783445075, -0.13125845257805385, 2.533208583543116, 2.5176321022427848, 2.6390882476358053, 3.070673217382379, -0.0701834938771204], [0.08830332836547107, 0.0187895869267173, -0.010128140828231907, 0.1191888722625627, 0.035469891109398, 0.021887889640241714, -0.04245528253065754, 0.0855322531910362, -0.0875654467336851, 0.11140913567266295, -0.16064311594445344, -0.05089645051562649, 0.14414523815932231, -0.128184805470895, 0.10168365190765669, 0.1396386644500114, -0.10235580542073881, -0.010146046967503142, 0.15727123542258584, 0.0008681815778908296, -0.05843387407111353, 0.10521689937237298, -0.10987407101993162, 0.11225464462709585, 0.0961838840808998, 0.001720539316973645, -0.007075809471747134, -0.14158331811255118, 0.1563545716891171, 0.0029202824385542517, -0.15505419046229033, -0.13091259470274333, -0.16431036066954258, 0.011621369979545859, -0.05446866390357199, -0.07192819346144451, -0.0002650858076542195, -0.0895742558139876, -0.05734820629725055, -0.08202205179192952, -0.06370218621244138, 0.005967346109569034, 0.12373596303924261, -0.13705788833416666, -0.16470562137070063, -0.14728163507032185, 0.17687320689784453, 0.01848543013888172, 0.1255552291710898, 0.12792579219443098, 0.0930701488957836, -0.05990839963749012, 0.04642674706000649, -0.044813131383851075, -0.098184635081973, 0.03714356609580269, -0.08624935101755205, -0.09973839376946654, 0.005116606247388059, 0.01594069160306245, 0.06402217029547536, 0.11818757435107065, -0.13196772829442757, -0.16855615437278176], [3.0066745440666303, -0.11549948015334875, 0.15897155744246536, 6.045774264101115, -0.014903336088958191, -0.09483160353428287, -0.03141832715208762, 2.797174247595816, -0.1039950565725748, -0.15181693970124116, -0.0984780536893307, 2.7667703906027725, 3.069739679813215, -0.026127453138445306, 0.12752369890966583, 3.01974124537963, 3.026987156575803, 0.068204087014986, 2.9499090741075324, 3.0048777762670316, -0.12580940170161473, 2.7099324995480005, 3.0485018261799883, 3.0494903894839496, -0.12111412451520229, -0.02160046668987502, 2.801858788805152, 2.988186227781169, 3.0419885398933424, 2.832126645870617, 4.676385916903972, 3.0347876233159212, 0.012279032597082379, 2.9672068328988113, 2.7595606223869433, 3.085053752961767, 0.1628960456528553, 3.007831814935221, 2.8681632560449772, -0.09209316764566612, 2.9053432221975797, 2.895709931229141, 2.750628827178998, 2.9940255113669565, 2.843351584823158, 5.2743299171316655, 2.933846046678804, 3.0167244079036797, 2.8582837817461924, 0.03400622415224919, 0.1238971729586497, 0.03275008859872769, -0.10865048908988509, 3.0230889405555352, 0.14071762737727275, -0.08395700968487484, 3.0688189515685975, 2.9444399785425395, 0.017176224714187338, 2.916126815743591, 2.886470582834062, 2.761226043574079, 3.4716074358969884, 0.02412090863599348], [2.953503698217288, 0.012393102458900636, -0.0361117871907852, 6.007564366958984, -0.10866775886103124, 0.11696612680467777, 0.152276272298563, 2.8866930840913065, -0.10067661857851846, 0.039057746237219415, 0.16262525882355625, 3.0385331583499227, 3.0007434410495097, -0.011432417956768137, 0.0338833182746201, 2.9340858130074636, 2.944493052457342, 0.09623560329373018, 2.794357102377475, 2.946558244923292, 0.13431076223454735, 2.8413879959176445, 2.968812941394307, 2.711222439182765, -0.004084435353131645, -0.11497449165237147, 2.9487793601080323, 2.7062094042864704, 3.0377409003208635, 2.842984503244666, 4.494910093315671, 3.002529693634501, -0.11027049308475324, 2.7363231247484734, 3.0125889895611193, 2.810715067272456, 0.129748725979371, 2.783388949711375, 2.860866413826832, -0.11566360197461541, 3.0340664620065354, 3.037606535714499, 2.9566140661861535, 2.8901418838221877, 2.8565775274386764, 5.202909629219187, 2.8867062292933188, 2.837238808877296, 2.887926423840204, -0.0036756480377316825, -0.14034593903453857, -0.07635206141718472, -0.0782488038868574, 3.046048214475161, -0.07652530907174074, -0.040881572852282805, 2.9335397847690157, 2.8058054314803034, -0.05698662335647249, 2.914623256437169, 2.9823531979782416, 2.7778316220369383, 3.572141297557728, 0.05349893264799928], [-0.13435276044259448, 0.04497532548476438, -0.1309281719231638, 0.11439492729616654, -0.0056149880424344045, -0.01968752358445111, -0.04991670832098713, -0.040434049776917697, 0.047222963642729654, 0.09484050704814287, -0.07826414084248556, -0.16546991790239024, 0.003469239650746636, -0.033491470857066885, 0.16746859102774544, 0.11821800010209108, 0.024007494024913284, -0.00494811828228528, 0.1764500600136463, -0.11867616169658485, -0.14677711706239335, 0.05711543121655832, -0.1648827416409773, -0.07029373012980814, 0.16455686918982362, 0.07618766500642457, -0.04899940237825809, -0.05627474781385508, -0.08030672707037362, 0.09700036468901532, -0.059302879513282974, -0.048930200384476846, -0.087080771032927, 0.1318934418495221, -0.15651393187427176, 0.003854342718168091, -0.10678455262385853, -0.0864444735925699, -0.056320842014998235, 0.16581542750407482, 0.045151718607477964, 0.029634759472118605, -0.0805190523991532, 0.1560334179478636, -0.13412089559267615, -0.147729361889206, 0.07363980278044349, 0.1022420494006395, -0.1237265743973225, -0.16985413243970973, 0.024421337200023097, -0.17560022920393895, 0.14480703330341618, -0.07412762490611162, 0.11319614948550347, -0.14095352627002075, 0.11309680406356223, 0.08577765428814257, 0.017273817162962835, -0.15601234102360317, 0.12065245504855823, 0.011451848003926762, 0.012329368357933274, -0.09855798914067355], [0.17426486735993338, -0.0213647254483105, 0.15186275559481824, 0.04548932127439026, 0.16236883920994946, -0.1691738903297918, -0.014522876451704664, -0.02202957457930574, -0.07367699675345257, -0.13414694502119684, 0.0630443013877991, 0.13910563071095164, 0.13091132042524758, 0.023102661521715973, -0.03336754493612071, -0.031563876251806816, 0.040216370993076456, 0.046061851699542355, -0.1431987652163879, 0.05700411761285579, -0.10655530410446334, 0.16695100673245208, 0.10187678199072206, 0.07157273884144788, 0.09581041882640431, 0.015727818546890537, -0.15803289777429835, -0.11348480643644103, -0.051002710177684873, 0.030429119107019065, -0.082919663240335, 0.027977079412248446, 0.07580403106887837, 0.002647878489276917, 0.10184972930501832, 0.056265906475717165, -0.01878741056442318, 0.07615348888091503, 0.086968914461271, -0.15887214391196827, 0.1184836461597241, 0.12612562175442396, 0.15558233720819234, 0.04383924217683949, 0.03201088030158458, -0.17146185219807492, 0.1500568925340159, -0.1034617883253916, 0.04113277841236268, 0.10359762452886326, 0.12481071662548518, -0.06790344107317536, 0.15077468559932425, 0.03366502574308883, 0.039548606437274425, 0.03993352287790786, 0.012849675069258576, 0.0996121558786269, -0.16956848759755092, -0.15536282959672168, -0.10264040859899881, 0.045134656810431745, 0.059847673566355425, 0.014319951515691903], [2.5457291170280483, -0.13880306733741338, -0.0548174308389079, 4.937587093863606, 0.11195511601318393, 0.0017780935459915173, -0.02455993138651644, 2.5636782864712533, -0.1331990966948346, 0.17233032692695752, -0.08930800761958485, 2.545521430364495, 2.603188672462042, -0.09819930064898456, 0.13908966339683668, 2.338004039410718, 2.5308454029323944, -0.1687281688166207, 2.363076865784204, 2.31706702724557, -0.06441500043198428, 2.6510658668563414, 2.5753757241678406, 2.3210370948393964, -0.17225134734178205, 0.009676733403273153, 2.3776064337329785, 2.3451448882465638, 2.311642620394709, 2.303120073349505, 3.2359312103886237, 2.411101923523244, -0.009057948067392463, 2.335467800571773, 2.626266770879333, 2.3769191357279835, 0.10281548679198596, 2.6183697047059864, 2.526175504754466, -0.02644222464898872, 2.4704616684292926, 2.454132397718081, 2.5548007566347666, 2.548859930642913, 2.5522498729502825, 3.9407271987128523, 2.6523520345855367, 2.5416042337253586, 2.434888866455429, -0.11508078048079831, -0.10200423323290203, 0.10938785493886652, -0.15777951081166613, 2.707497423171854, 0.037363097937773065, 0.007516324020815646, 2.412020489393444, 2.5152061008620823, -0.16136499441649446, 2.6264011029412186, 2.3878782033697936, 2.449553415600273, 3.1473738555674187, 0.15433151049726276], [3.3038561783992146, 0.1371512972522809, 0.03967263463873652, 6.697357029829858, 0.11937396616292208, 0.014623515087439157, -0.13379356241530607, 3.055335486528517, -0.03354782132405096, 0.05162946910997637, 0.16918895830384292, 3.217604176565072, 3.250132285250283, -0.1550945050696591, 0.10673944807859223, 3.0499509648183794, 3.0343985990749736, 0.16296039139824, 3.242747293205961, 3.06832306228671, -0.1463667679095467, 3.061240252811015, 3.069643022392649, 3.0627306434329884, -0.12534410757377598, -0.01668075147086687, 3.050746089726791, 3.217431537857958, 3.219207426294022, 3.2620897400421023, 4.995169367493272, 3.323728961416974, 0.05150708682475508, 3.315076546510325, 3.2637389428309524, 3.257284886852481, 0.04798716546731871, 3.0860850414756773, 3.3638216680611506, 0.11059253890256555, 3.1578442865779537, 3.1891242597913743, 3.0515695027375647, 3.1916819878031233, 3.3209958666144312, 5.8555879350787965, 3.0499175389031747, 3.093082862121188, 3.2303321413702695, -0.12882195494033677, 0.12207408194701422, 0.051694835139369566, -0.0036112771179361847, 3.298900046632325, 0.170733303182083, 0.09801874487904691, 3.251894217351888, 3.3821699092260977, -0.0005556814019455898, 3.358927633475751, 3.2823813844429934, 3.0368819391110597, 4.088714330455881, 0.1710628779733132], [3.185459856560348, -0.040704444573795844, 0.15892419813261768, 6.563267760667468, 0.07207684908168897, 0.09583213206261595, 0.1222652138943486, 3.040513041105056, -0.08726445982063152, -0.12681647543382482, -0.0239780720642212, 3.2568005766508383, 2.997834889822885, 0.12647429134951096, -0.09360909183120028, 3.032704887136111, 3.121966293674663, 0.07618938103295415, 3.1785029266784512, 3.0716072383545754, -0.1216876882480694, 2.9167699721151825, 3.1060229418286838, 3.2502032046616227, -0.10555241501623644, -0.03419213119901118, 3.199175384456143, 3.179952843311044, 3.240225559299473, 3.2454720060823323, 4.934271954041732, 3.3470013372091287, 0.02349718715950372, 3.0604078078421457, 3.1392855127549746, 3.3089501539763004, 0.06517479021019759, 2.999248576204642, 3.09215345220737, 0.1296310595842997, 3.1480821728135933, 3.346028361008294, 2.967496235538345, 3.341904512779391, 2.9997012055589414, 5.621245725742351, 3.140337154142104, 3.1442847470119073, 3.099033836981067, -0.09498989860389438, 0.00280340886292675, 0.08434840766682825, 0.08299957429098012, 3.2038532135687054, 0.14803200843519546, -0.046575321696796235, 3.0800458078119606, 3.3710073722225893, 0.11427804943081339, 3.353399651005695, 3.0858057947835187, 3.2721793337726837, 3.7451282880113013, -0.07776221799461304], [3.6702319456575494, -0.16097207611130426, -0.049396494507481736, 8.264931702337389, -0.002865763403104118, 0.04447424500137634, -0.054299468737118106, 3.694096725019427, -0.09683491770134227, 0.04254009021134558, -0.11427632702850651, 3.8504540992199456, 3.630125971815295, -0.15767752914474864, -0.046830443022270046, 3.787665678475429, 3.7997682817973026, -0.07964466508538896, 4.1061958214517045, 3.9300991865213573, -0.0483678678728927, 3.6476898763866203, 3.8008149315311157, 3.7083511767215485, 0.06532767641080804, -0.11613027333066585, 3.641244982771503, 3.6162498624600024, 3.893356966353679, 4.026208668868575, 5.82025700000275, 3.9992572635595427, -0.12068105225002679, 3.9730136892662524, 3.7698960832697375, 3.8405790850924695, 0.17612828002210765, 3.6935200822460232, 3.969831273352171, 0.010333060758994355, 3.8087750633085977, 3.968426578485762, 3.564763216824724, 3.8933768517355687, 3.8792565196634023, 7.013649680400539, 3.6624125137172183, 3.7466125781946666, 4.01825182531068, -0.09462502003295434, 0.10698886121537715, -0.1670913334456725, 0.1038012151848143, 3.6527373103729635, 0.0052654856502303005, -0.09780363882883761, 3.8671094533702584, 3.9404162905095954, 0.05122373129305734, 3.9884087139262774, 3.924176504473904, 3.856214110432705, 4.817347821009498, -0.16979143498873525], [3.7685287477713505, 0.08819590473574423, -0.17658149258879738, 8.47649844433637, -0.033773802724559494, 0.01491262378932229, -0.05974730724350401, 3.7330100310470797, 0.16468067877152867, 0.00010493146879320125, -0.00986176784126902, 3.7955029710678945, 3.8712587771218248, 0.10461385452471597, 0.015757479172199135, 3.822515222368345, 3.7068496882253488, 0.0383473815074253, 3.9643518041022388, 3.7905239443228407, 0.08682520227751411, 3.6204585726526224, 3.7818293453743363, 3.9253323674946285, 0.028784978973375237, 0.1114194408272516, 3.8672110994125726, 3.712429136242215, 3.9332064672805345, 3.981126107495249, 6.01474210812713, 4.005729880731382, -0.0629994566077639, 4.049108556278932, 3.7352667095203502, 3.918666233050816, -0.090790631037297, 3.955853764262157, 3.6659323164307906, -0.027063160015436925, 3.7735960090815475, 4.057254114351147, 3.63869412996352, 3.9381835981038353, 3.7651169034626024, 7.040755589493282, 3.7177493664439636, 3.6535968081106818, 3.8875364988420067, 0.022867201616765254, 0.00013738657968599132, -0.11698881904553782, -0.14986372294168337, 3.6762745128782237, -0.14246100032475106, -0.08054765270053627, 3.798239721160421, 4.035898451006562, -0.05621369643840518, 3.9186309204519416, 4.082875780060112, 3.718123401078949, 4.712973296786096, 0.051351751303871714], [3.547822817987418, -0.11627926316656999, -0.17443738246608215, 8.184905996622165, 0.03452397033718818, 0.0297833768662836, 0.107424274656265, 3.644079375044569, -0.1103478047289927, -0.1404731353869237, -0.14677761060308095, 3.6144915844399077, 3.8286971860854497, 0.10107304374416079, 0.03742862183614301, 3.7549915066890516, 3.8062051072176, -0.1677713792768357, 3.9100985893035305, 3.7650879422322725, 0.08965141923931454, 3.3656431210182984, 3.653606077946432, 3.5234079599300707, -0.09276606352502988, -0.07978740371803861, 3.7381579285571083, 3.4445506333111156, 3.79507072705264, 3.724837780236627, 5.924060628529915, 3.895391427944945, 0.09577085938942068, 3.913490310751144, 3.5302121904528803, 3.772092112424002, 0.025954998452585976, 3.798458522959916, 3.690109859750064, 0.11283831479077482, 3.6126645811973126, 3.8883798216145977, 3.581036940550731, 3.6762131771515008, 3.6787138929444496, 6.929719302636418, 3.6775186266114077, 3.740272846860625, 3.680477069313237, -0.0020178171639042286, -0.06599710198493045, 0.15992298734697144, 0.16790730676737511, 3.6329323705597214, 0.02380971057288822, -0.03306996923915462, 3.7546148420523164, 3.8824793444962515, -0.06192854561792817, 3.8611935995322146, 3.926042442366336, 3.502521697887263, 4.455577383498223, -0.11075202253879929], [2.318619717331659, -0.13186182440691344, -0.14626719536599572, 4.80862821692796, -0.1776208262806867, -0.09846541580483419, -0.15338671911008148, 2.191130224780184, -0.10635806758558139, -0.0765524614288986, -0.12751476275659768, 2.362703938359954, 2.3838840713119627, 0.09488770113544945, 0.06385631128140506, 2.5033357499560536, 2.479732518647774, -0.09884040391774986, 2.2703687677805418, 2.410252922375525, -0.0038033124365660096, 2.4457631663082555, 2.4435143467960296, 2.3929901287750175, -0.05948750087833542, -0.14297842647315515, 2.4683617188950038, 2.2717045718688595, 2.433850354710553, 2.1850762497662117, 3.460834928997323, 2.3681361821366167, -0.03590998663926387, 2.226067190202172, 2.164420672560221, 2.4405174893600705, 0.11566510659244791, 2.3654470852273066, 2.400473431887818, 0.09409783771308702, 2.351941831906772, 2.309300775607295, 2.321412446924933, 2.1525804275053755, 2.4491886334908237, 3.910771297469097, 2.497333219416886, 2.1621194966266852, 2.3315261985334077, -0.16938953326540235, 0.0710109757416084, 0.050390944336041854, -0.1504578630277822, 2.6084685550714486, 0.08891974015457807, -0.06775128735751369, 2.313877279762367, 2.2153240239162955, -0.07141118074655356, 2.3819640130929063, 2.258416461365229, 2.3947527218408586, 2.9138216014019864, -0.08654460328499522], [0.06402777290607325, -0.10034103675979456, 0.027882584879574845, 0.08394617589600342, 0.025785730869492596, -0.16940075501149574, -0.09644190680480007, -0.05165805409918192, -0.03421969123850471, 0.10715549195613969, 0.0924817378385612, 0.1534773785935429, -0.08391072805224434, 0.1490266948136256, 0.019090983183620014, 0.12794064847389838, -0.15663120455046944, 0.07872513042178611, 0.13777485368030654, -0.03442025974406493, -0.15490449325903535, -0.1733719794504809, -0.08684115068330883, 0.05322314127396224, -0.041952602624198254, -0.058080704076752504, 0.10033281549096226, 0.16138462654220723, 0.1538912030949093, 0.13959801906592714, 0.047556680157542, -0.044774142426009106, 0.16972357736100005, -0.025749145823514646, -0.11641264597461218, 0.06423860309155133, -0.044634442072469055, -0.15271161814256196, 0.1511206046627019, -0.09803913889476791, 0.12847588609233854, -0.14001668039764809, 0.094862863092014, 0.10014741541210762, -0.03917628924533928, 0.07695912956361042, -0.15079041261944304, 0.06317294145158256, 0.04429532208686554, -0.14690260012957204, -0.08135153439659637, 0.05988387220748417, 0.05342365557407874, 0.08789457015514132, 0.062439471258499274, 0.1527417030621355, 0.034397720267260234, -0.10263486488998373, 0.14833463410673467, 0.11408357797530841, 0.17617077446146287, 0.12441759489087759, -0.040111691453583675, 0.16036520710924848], [2.7555292941585705, 0.05372066305950214, 0.012215160032668038, 5.666385637502467, 0.0702888926268406, 0.008211934666165148, 0.1526607721375491, 2.816686646668609, 0.11277224481965128, -0.07894500157265935, 0.019014933680396667, 2.5302640746133296, 2.769673593086, -0.07506284672025008, -0.12161081427064879, 2.593895061966119, 2.559629233692627, -0.06710793590368205, 2.7625518205693576, 2.650707132289174, 0.03373299986153635, 2.675884965115757, 2.8282797207140673, 2.63126363939081, 0.0552792159047686, 0.030599901233186157, 2.5505175959219244, 2.7700766751021124, 2.8227033893211626, 2.6854206484599565, 4.084669144132133, 2.5455506051341104, 0.08758828754043999, 2.827526475455638, 2.569436799339055, 2.796123263414005, -0.00923723947398905, 2.8578681278142746, 2.7860382876744794, 0.016881742226494037, 2.7567474941579615, 2.560717082467016, 2.7750547868785818, 2.827458143356294, 2.7251842078703232, 4.601113289787579, 2.5983801780213076, 2.629131937209288, 2.8021516843989636, -0.04947607575134788, 0.06244368367846832, -0.0023260439791994436, 0.17170982424316297, 2.6713704036910118, -0.08932594693257065, -0.1208626705049054, 2.6800091826833086, 2.5564364148893963, -0.16599814535068078, 2.7741080766740067, 2.645434509087125, 2.6334485043105555, 3.4152581759529275, 0.10158767672350856], [-0.1740844152536155, -0.11091694439157389, 0.1766321256422527, 0.08526092008972597, 0.06025853753481418, -0.05820884827866669, -0.011872014141272343, -0.08226119584987164, 0.07652385119573532, 0.0843002912629954, 0.07722173193439438, -0.040346535391601816, -0.0949526223350585, -0.004054225779267812, 0.10962151692557867, -0.1208489287311262, -0.12989052632067288, -0.07902180261958366, -0.0113716234582289, 0.10743324661487023, 0.10430673392078585, 0.031584268200736516, -0.13679581446955583, 0.15188383668140842, -0.15600272200233484, -0.15744564364809344, 0.02305416202793533, 0.1508282932165008, -0.1516925030968063, -0.0025224869389208343, 0.018993908409451442, -0.05702995606098337, -0.08827843467732616, -0.17299276090017449, 0.012132313868893569, 0.009021739830534538, -0.09934863339143533, -0.014717442129483477, 0.05749772468298612, 0.11684677428136671, 0.07755249326387866, -0.16110530858462008, 0.04951679456924909, -0.14916065428084485, -0.1727630285255084, -0.002121666314103319, -0.1252683843075524, -0.04700707796069304, -0.08219667475025112, -0.02167963453493199, -0.0017435163796845066, -0.09883001147276788, 0.07936781302204673, 0.04849372106102143, -0.15093199460512904, -0.01100889276959427, 0.010865623500055358, 0.17666285696519432, -0.07939700602953112, -0.0765880125872534, -0.022690762430809863, 0.08231551832215384, -0.12411599840285235, -0.08496271343290794], [-0.1599674306062085, -0.1279427473945586, 0.1345906024054788, -0.03568374266627349, 0.08162649188422294, -0.10714046612052064, 0.08616527307792801, -0.02414908353848727, -0.04929858096909445, 0.13827128409561903, -0.10143505611051384, 0.07595291157320345, -0.1182193131419762, -0.02507155782938375, 0.01575321471792268, -0.049588369044580416, 0.07674746669781056, 0.03885642519721476, -0.10729349957932988, -0.07933884266038811, 0.0998737666312296, 0.026274105707684504, -0.07603452247595581, -0.03694775718284779, 0.005332178246776565, -0.16518951876772694, -0.09745323654351824, 0.081282355434315, -0.06634679964849792, -0.0465143315367991, -0.09367620654519601, 0.10854461050329994, -0.00479689887426224, 0.04512273508790823, 0.04343500323085876, -0.002468009632709337, -0.1620918258471533, -0.10765595874140337, 0.014919762653942702, 0.035587139814383904, 0.09882255149664963, 0.0753109062108158, 0.17381504584140117, -0.10746433192634489, 0.10388808365974521, 0.12335075975300203, -0.042248690172246604, 0.07798901802682999, -0.07632800831412388, -0.11046353446164643, 0.14542140039502646, -0.056568094534348884, -0.12570455911656134, 0.1424779966246781, -0.03379143931422099, 0.059562369120253394, 0.1509983678344929, -0.007121367775477244, 2.7244817324568582e-05, 0.01332683120890105, -0.16365978407647847, -0.11854837856827934, 0.01580511733472867, -0.010871604021847864], [3.1040463701887373, 0.08941466520308508, -0.10102645164002143, 6.701985802954219, 0.11455732863535646, 0.05089408095125552, -0.02725152551284146, 3.281965129734242, -0.05366500541614316, -0.1466685594025576, -0.06923749148558114, 3.2361213074613286, 3.2045703521513293, -0.1538361866671571, 0.016261443177498863, 3.098098090339008, 3.18389893625188, -0.16122276307530814, 3.3356341189443586, 3.2839077543344355, 0.1564290335390143, 3.2213892946164564, 3.035011838022037, 3.084654836110715, -0.03931347825067727, 0.05768019475450449, 3.163693514808775, 3.0367454591869145, 3.193623290053248, 3.339584922823946, 5.08904432736851, 3.171792609580201, -0.04385454912965189, 3.169654766419295, 3.306238265691196, 3.284614985658283, 0.09209802873310599, 3.3123402416219423, 3.0329422625599842, -0.0334107501062763, 3.2537335777976994, 3.1636570047720807, 3.108115208202762, 3.2295107738010986, 3.014136528434093, 5.825930554792858, 3.0001327573633314, 3.2537182386293106, 3.362199962449911, 0.020850937785956536, -0.05033168247340922, -0.12559850506324668, -0.121348653418009, 3.189078893814615, 0.0057920181164952955, 0.1004328110114441, 2.9915349706259904, 3.195248300686916, 0.0096538435628046, 3.1368284821994235, 3.380940633986477, 3.061574673972539, 3.8764409948250855, 0.047360423266406555], [-0.15859213319116827, -0.08992897494263787, -0.07346639317797403, 0.01709028553057632, 0.02377239961972276, -0.008555247027527524, -0.08004979997479526, -0.12546909029647643, 0.12493134543195614, 0.1541505946589706, 0.011926258349648777, -0.09945406135921303, 0.12333545000075578, -0.07991111202507417, -0.057069918537029724, -0.04748472999242081, -0.13661488091852364, 0.1611297338180868, -0.09396325297870654, 0.07486880840411453, 0.0802727412742392, -0.10755716025369026, 0.047721436037109, -0.06748979185708573, 0.054978787380662544, -0.09964905565971273, 0.09409458215262001, 0.09306984590100487, 0.09267151846361685, -0.06012083040888652, 0.004489449705224586, -0.10173207638800016, -0.11195338018028421, -0.167954836263433, -0.06628897335559959, -0.004073782716267349, 0.0029900221506944658, 0.11571094508183918, -0.08592480227520267, 0.03530737629295614, -0.11031460278024993, 0.12485464391022523, 0.1071249663235388, -0.0029860700485314405, -0.052852218228140235, 0.04133590631657798, -0.10048481634992161, 0.012343673206713025, -0.09817571096656406, -0.09880917130977272, 0.1286952388776666, 0.04109015211570585, 0.0173191948119627, -0.08749596963717834, -0.09484662120224412, -0.010816581144760806, 0.06748641329825049, 0.17115083562599714, 0.07195036669725212, -0.15531477370087365, -0.017011585173473193, -0.05940908660488811, 0.06008687765618506, -0.08656823159162266], [0.060590423978519284, -0.14315014981616558, 0.0067279346445758, -0.15978731682138492, 0.15213507254744765, 0.09967691230636651, -0.05440612282884817, 0.10132073514831154, 0.10095566910194989, 0.043458588440742074, -0.08311356194932684, -0.0928194964135892, 0.028450484434572036, 0.05365966650902637, 0.16009382772404682, -0.1305418394678967, -0.0928332005007471, 0.09922954693016674, -0.0034089105592384605, 0.1214207522646346, 0.15183564495222915, -0.04664660563087257, 0.027917269966810217, 0.12411422882406459, -0.039233369945915086, 0.035663518859548764, -0.16358070924498477, 0.041555438900419156, 0.09034853381805587, 0.019818364058670233, 0.1098191659359698, -0.17472094339474525, 0.041062511754357184, -0.07980078429788254, -0.14834379892438812, 0.1204442376196131, -0.0524650132520116, -0.06219858354658323, 0.1506369791080385, -0.13907827612152757, 0.032045225259576565, -0.16474380911449546, -0.006078855742993971, 0.038706370467229384, 0.09373298782026321, -0.04539223885247656, -0.033974610821814466, -0.06971754504371477, -0.15829441149949705, 0.1728725712357493, -0.15512894911028702, -0.13834617169755306, 0.1470780861459626, -0.01669349715623762, -0.11707227410266371, 0.050029152463203025, -0.1406625786627985, -0.1345696603695751, -0.005014252114028857, 0.08923759442643986, -0.07947489047406828, -0.14068621425560604, -0.0968450445496502, 0.1495322040367271], [0.0026332875886710683, -0.003052054203904586, 0.13281331846959013, 0.1347698635181647, 0.09263080142801164, -0.09179352220201123, -0.036783704034156456, 0.0411408716581082, -0.054031083013656805, -0.0013762764534575589, -0.03394227492923857, 0.1383482202453051, 0.01700726464106056, 0.0808692230594826, 0.1209710114419614, 0.14151024526944353, 0.15486573606239454, 0.08921071747558576, 0.17166845746041462, -0.14992352862112915, 0.1462130852072758, -0.08760133973083911, -9.447123167857785e-05, 0.12396311623611414, 0.01931702898973134, 0.05622936267790782, -0.02200132019343881, 0.05089701225620777, -0.1730131802687659, 0.11809910733810788, 0.1733372889351076, -0.11403043437815788, 0.053162167513849196, -0.07433141504389103, -0.09208813461693978, -0.16072336877958146, 0.13606778466093464, 0.0686814393144018, 0.055229807098889694, -0.02772605839997233, -0.15401893321945592, -0.05382615876286942, 0.13504128410501567, -0.09977665586310343, 0.13598329827194475, 0.03908101765800065, 0.15652233718960154, -0.0412267586774788, 0.03722000932038297, -0.06371387919813327, -0.03756798379602069, -0.054935970361358125, -0.07455418252413347, -0.03996587409324001, 0.01937027977290512, -0.06839227911969482, 0.03383227960724339, 0.1732851024053844, 0.10859198295372999, 0.05025740825834679, 0.14394128068870257, 0.1392645965872308, -0.12896936475488768, -0.12042549805043191], [-0.07905802011571433, -0.01586008840715694, -0.1132177501777159, -0.01592445310557733, 0.024312047154586264, -0.12191414659026029, 0.03126990169763316, -0.07126721187454439, 0.007411777488251531, -0.028896846871738102, -0.10583525210255505, -0.14033194941866667, -0.05309289045650181, -0.1356701322983606, 0.17121536090643838, 0.1005325182592903, 0.12780967828378484, -0.13886652593684928, 0.1640819827536256, 0.16283929459363664, -0.14248256482353208, -0.057255541007888475, 0.08330188834105176, 0.007494133513100187, 0.07787855074440284, 0.16855652106707905, 0.12612793308305606, 0.12020575442721212, -0.160216663550846, -0.14871632004897142, 0.08218656978099462, -0.0100113939127153, 0.16036065084589393, 0.022369758142251506, -0.1446601393068349, -0.06599198904088625, -0.027169279553732884, -0.05484660939388328, 0.03889808832387057, -0.07957705912620894, 0.0023977971541218057, 0.17287971551788098, 0.025419929452016182, -0.042162157388660276, -0.03486479626993991, -0.04993220071658758, 0.13091749454873172, 0.04366335404559063, 0.1345846415568985, 0.13673590451552473, -0.04854408261749396, -0.08310395975462978, 0.002900459026584229, 0.058412880186270166, 0.025537580528490506, 0.009165894375348288, -0.12845800543798913, -0.1432287481613334, -0.05868207601097436, 0.05041306560704992, 0.12708630481365588, -0.0514731025164705, 0.17294289818121836, -0.14164165726585964], [-0.06695541240352493, 0.03084440241355027, 0.00391533743326325, -0.08440653597018186, 0.008560744275594168, -0.15473472844409983, -0.12552299172751671, -0.17312405333416458, -0.06906650592589929, 0.04865863568827464, -0.08970547655039807, -0.012352277483873075, 0.08465975551156393, 0.044472041797997935, -0.09116533765470501, -0.046124707970142426, 0.10973317731542934, 0.1008256138467006, 0.03435063379986705, -0.14596811487058953, 0.04277763711490892, 0.04903497825328057, 0.013513933280072304, -0.16993478407591525, 0.07345157154094492, -0.1613617205455511, 0.1657998675824688, -0.011957332412805055, 0.09306438755549593, -0.03605672772886323, 0.05520266727679338, -0.014628663547763265, 0.07088609615045377, -0.10811668175373897, 0.1670274410075703, 0.0024381994290754994, 0.06168785263959306, -0.1056796220047322, -0.10731028933104843, 0.12197178261064792, -0.13804250329590856, 0.09380133199547389, 0.1706974011231356, -0.17606590236768446, 0.12896199171965936, -0.07256616088030934, -0.08209075244654052, 0.11149057482683503, 0.10632245572948537, 0.12580443766045282, 0.09471749481769928, -0.10751323763547926, 0.1142245748174884, 0.01965404022076675, 0.14896345499705574, -0.03436172681540195, 0.09694998742469366, 0.0514990341768925, 0.08645833809428363, 0.12247003243908852, -0.11286011667648613, -0.048837208468712756, -0.019094130593966002, -0.13374081589892872], [-0.11473522342269228, 0.03418361824598112, 0.1349389458700008, -0.15412022698572614, 0.09896521987594441, 0.1388955303680002, -0.10183732280145029, 0.05012476651034751, 0.10014232977671653, 0.07048882437746473, 0.16606898113754107, -0.10900281266274979, 0.04174553035671498, 0.03918977565611714, -0.02794272820772528, -0.1191758136142337, 0.12768816659919688, -0.13673767977505286, -0.15861535772103663, -0.06332386384266649, 0.05959209222127081, 0.15122180244205202, 0.16424259165747057, -0.031263285802871216, 0.04928517750088257, 0.039338211295808334, 0.003260436314156238, 0.09452263597902297, -0.0927248278909942, 0.012927627283793824, -0.17582711679119595, 0.09342051342178728, 0.03335536743536879, -0.03190350479697925, 0.025480073351927732, 0.06957252154724339, -0.06264293098039359, -0.1173554533174208, 0.16944966599669353, 0.08636190791244218, 0.11331885204195224, 0.007744965102927733, -0.11880904938752765, -0.022761029342800835, -0.1327864853401674, -0.018108721148757036, 0.015991237433289677, -0.11372137764292675, 0.1550763743233777, -0.16503619091307806, -0.1479079042359474, -0.09424288190679511, -0.045868155752621514, 0.17393925475238053, -0.07226013837740496, 0.13589974387831635, -0.010504200624466425, 0.08076401212486241, -0.06407411064225416, -0.11162848162846079, -0.09684723040340533, 0.10249895863864174, 0.09086871496700442, -0.041531532184157144], [0.1693371187126271, 0.14815598655844267, -0.04411006664464681, 0.15059691352080892, 0.134150466634518, 0.08432141958963221, -0.11050982094280373, 0.06594836458278006, -0.13054431386969334, -0.16934346472902495, 0.057346064112090867, -0.10414532386696117, -0.1641753375813989, 0.04198879183620702, 0.05986363579192522, 0.0007068389732057534, -0.10242174263593021, 0.07112947005930076, 0.014049958098294707, -0.1271059538182198, -0.16560198211338045, -0.043225258861915056, 0.08019741481862322, 0.03858284451981919, 0.012191388888700222, -0.012966833464584243, -0.13676631012939924, -0.06193791146818722, -0.05460100874907545, 0.055836397668988985, 0.13868150836603163, -0.06282743612264598, -0.03316394726822913, 0.03176784504283686, -0.10027577819553174, -0.1366502113102041, 0.12011535758723371, -0.06875510641229918, -0.07081949070468038, -0.004176165157878942, 0.12830523350545706, 0.1518851613781527, -0.02403087589980943, 0.0893915957427733, 0.17013554374188541, 0.05652186451520061, 0.12041990415083662, 0.08032362443090998, -0.13869077946210043, 0.05434302819840217, 0.06890703100227263, 0.10131366607315764, -0.06721929907544345, 0.02744825774632595, -0.040688317434686094, -0.11668757599895213, 0.08760643408951721, -0.09111394772916408, 0.06817621104843191, 0.13605786854652466, -0.06310733088387815, -0.07272149381852064, 0.0552957959245573, 0.13170303019051446], [3.166275460497043, -0.01743575151533843, -0.09384886531200577, 6.68122761207117, 0.11459083339745789, -0.08937251573647928, 0.090484127255861, 3.2967177696834717, 0.12075827020243593, -0.05981370463428065, -0.0047713267588887776, 3.320734868722628, 3.2676784563539183, -0.12646807622974524, -0.1735139019171492, 3.08279612813108, 3.3696905361789096, 0.11583536691293943, 3.3881543967080727, 3.3394418862698565, -0.08881203308043176, 3.2019776889808513, 3.1633877976592286, 3.0625481910394745, -0.03905855073761066, -0.036129027831375074, 3.204437815545223, 3.186707655923839, 3.3374013868770085, 3.1950263484791472, 4.976093144726807, 3.188623716407167, 0.13407821162435843, 3.1548381107624843, 3.2993447749453555, 3.2694841900659704, 0.10437846246950824, 3.2775703179127396, 3.0542797268332915, -0.16651325332023117, 3.1656208892410094, 3.430088099547273, 3.0562079892471736, 3.301699261359099, 3.3641994080241515, 5.655198010376603, 3.1141720306530543, 3.291551568764403, 3.289839789131383, -0.10139925531093157, -0.08158370435907136, -0.1576089850552896, -0.002986020055996186, 3.361480079938782, 0.1692385115564701, -0.08559793784162095, 3.183762076822017, 3.2022828270089665, 0.12004718167464297, 3.1943442055294957, 3.3336342566417487, 3.3646935736298857, 4.095444791034446, 0.1597617369591351], [2.8271113598635647, -0.16039156015649436, -0.010784587452222827, 5.8594807302730585, -0.030225272893288545, 0.1633835959518265, -0.14710319039658412, 2.9124904960272837, 0.034875125954482555, 0.16151021696637155, 0.016934995384557228, 2.9000256592614186, 2.9667744890085292, -0.15840769212900538, 0.049959197156525054, 2.7560671111723463, 2.866917832501016, 0.13924914450622008, 2.8570581838717843, 2.688769409272519, -0.09516305721920175, 2.92799605274968, 2.809934028956205, 2.730334792301409, -0.14886653623437837, -0.0904069856628601, 2.6952546107114075, 2.8918513764938347, 2.941207665606481, 2.7905322717867143, 4.397595156833389, 2.7789752876281972, -0.16893088805954518, 3.0363711145892416, 2.9965653956166434, 2.8580091894313413, -0.038496613090580445, 2.8195990308421535, 2.9070865170999842, -0.1184613444856262, 2.9798239986769404, 2.8824500152556882, 2.7927044198089006, 2.9773959302475475, 2.846482546740147, 5.088317357689946, 2.9160075884600496, 2.865964172869956, 2.7635792373110806, -0.08960687050326559, 0.1543381687280636, 0.15979969420761006, 0.06198494382831918, 2.8419457768811447, -0.13163408623839962, 0.16548340256705904, 2.9869815062895833, 2.917167930977319, 0.025536467143289266, 2.7702513782815132, 2.95457752737197, 2.8618228490038704, 3.316936331027778, -0.08015852391214788], [0.012548439488706375, 0.09001956385845658, -0.029016200076405596, -0.14195213819870556, -0.16956704361270103, 0.046230011527502224, -0.15020492999128088, -0.13998257240538411, 0.14741288455069615, 0.09362682232998173, -0.15002750426699502, -0.12986105729716255, 0.17331633533146826, 0.11552234900360256, 0.09527876580782194, 0.07390614793198971, -0.09881428519532216, -0.10012496507959397, -0.07511678256748035, -0.058104082569117796, 0.08175644734940954, -0.09653673671780433, -0.16125213889593, -0.16281382699053976, 0.09589507947604006, 0.0017906214720607438, -0.1605603520490228, 0.12673346615902006, -0.10829333682361407, 0.11458315262250326, 0.14588368324307935, 0.13909983734074535, 0.06418907038279556, -0.12157843510327564, 0.048086957635204625, 0.06425433563397157, -0.04033986954725219, 0.1460155656626357, -0.04201874263420213, 0.03182916370599573, -0.09599894784796714, -0.11688920777660747, -0.055323627102767975, 0.153564864855216, -0.053450362230702445, 0.022392130846934838, -0.11620025374070825, -0.042902487257763466, 0.15378696374588832, 0.025780025435126724, 0.13799320605267237, 0.15840289421932705, -0.09159566938166584, -0.09062779879277602, 0.08996282675415004, 0.029057159092935214, -0.060884817128343385, 0.004150439093662306, -0.04243455163008969, 0.07951199904161985, 0.06847357772207138, -0.03913843502240624, 0.14395742365940953, -0.07707987985119985], [0.11054791487603069, -0.10088947555873737, -0.09407604337319195, 0.1273961049149663, -0.0646197313257076, 0.008832953174152752, 0.14849578752052003, -0.06858010147871717, 0.12502475046630682, 0.005729791141193069, -0.14543427870078568, -0.11441062487248554, -0.10166276040489569, 0.03992971690704927, 0.1599339974433062, -0.029299585197721356, -0.024843159397881814, 0.09965483531474725, -0.08996745417872665, -0.1523959101109553, -0.06833418348751019, 0.04300944573146656, -0.09118719808901977, 0.15335999607341752, -0.021250353913848413, -0.16025602709251405, 0.1280162183360418, 0.023587641216328586, -0.15792723342984094, -0.14294900341022437, -0.08315180831326542, 0.04125950109352566, 0.04550463532167817, 0.06325481746308004, -0.008187161641622726, 0.12847570100479414, -0.025707421119686047, -0.07630869023468849, 0.12774566326730027, -0.022525621445317695, -0.1658049830848854, 0.0004830783469227107, -0.09463650108875742, 0.050987970074348105, -0.10759837505916446, -0.1271651407622508, -0.15144153061214444, 0.05257297653935289, 0.05324288876646502, -0.11199986657000317, -0.1479430174126571, -0.13926892965188065, 0.08183585730882811, 0.11913823629727519, -0.12306129122884679, -0.09250747492825936, -0.003445006458365374, -0.14866279086584688, -0.028057880232136928, 0.15043770241963886, 0.021132819344405418, -0.1370267163156289, -0.04052159203283248, 0.0895950684570376], [2.0979619073600313, -0.08594239922735258, 0.05905902487426806, 4.254541578727843, -0.16397095825532848, -0.06996888736254853, 0.01779803305955604, 2.2387684211753216, -0.17110224231260146, 0.06426998905126088, -0.05704508611798027, 2.184304630687307, 2.39826128178922, -0.018627683266136896, -0.09162868712483649, 2.1607886949757695, 2.3289198953787205, -0.003133103966547031, 2.343071293583444, 2.21270469817045, 0.0930614932156144, 2.305204968836522, 2.140635634660594, 2.393750790553078, 0.10328650556699313, -0.03547546157778492, 2.3693057025801814, 2.3036491671745223, 2.405138828173836, 2.347160044660262, 3.177960359095784, 2.1098935302324664, 0.10478510611322253, 2.116834401075301, 2.2327382172451635, 2.1876696113635417, 0.1027903928054911, 2.2226726783676938, 2.2531068129536456, -0.1207107927356175, 2.3880020608925863, 2.126954154235788, 2.4208118276507795, 2.4371658416159754, 2.2614134471495992, 3.555154270765974, 2.1502837916518667, 2.1311745431229365, 2.2706072822472816, -0.10534320660550138, -0.009209937339431646, -0.004214188834348487, -0.02685026918273742, 2.38402476758188, 0.16708106639112144, -0.1287979701616105, 2.3361322368785142, 2.4211312777292644, 0.06172947859721888, 2.22417846468218, 2.1161719150771754, 2.2298346848961357, 2.8593228111163596, -0.13031155881022047], [4.360714308998293, 0.0642138307670888, 0.11804392008666395, 7.147641253900645, 0.016053067922766253, 0.01396664269493067, 0.0966051727447882, 4.307655601033984, 0.11579085960714389, 0.05440983418151854, 0.13980799472782943, 4.454550783881125, 4.237016529237858, 0.1466087857171108, -0.12197053867488211, 4.477760768937005, 4.50389312009499, 0.13769315806660792, 4.30771795219454, 4.517887369256437, -0.01887255008671466, 5.203281444455397, 4.433690668814579, 4.48542198752113, -0.0297265102398788, 0.012613040611888476, 4.354617495576379, 4.440698284700652, 4.240635996913644, 4.322339238829777, 4.6156617042345776, 4.28941025275072, 0.09644058799269636, 4.29093394973944, 4.532030173362296, 4.492098759183126, -0.0020173110110601744, 4.503428069446391, 4.25635978459516, -0.11819143402888274, 4.62333227213769, 4.35480583576329, 4.414592613668404, 4.330472051064342, 4.253979207184569, 4.581528703075177, 4.478595029665886, 4.488417568071172, 4.442782669822588, 0.15883135160393128, -0.03748905031023523, -0.15120370155029447, 0.12850236237842924, 5.239322845018968, 0.10574217519118542, -0.16093138238531063, 4.3783564501282175, 4.33042317870582, 0.10678807661218934, 4.419086613849853, 4.405133243348853, 4.4373579564791115, 4.996655926210256, 0.09010666416408955], [3.8566343972524866, 0.08940181120349767, -0.15070046007750704, 8.382412650935947, 0.12000292992297718, 0.013350712150917892, 0.038732850548796646, 3.8645375899593555, -0.11507117578174048, -0.14137690314130358, 0.06976733316197756, 3.724706445909023, 3.6136509393671377, -0.13084783664127092, -0.10243108993267076, 3.8471986494432846, 3.880366121275215, -0.1218314624434558, 4.036568653698906, 3.645204291293404, -0.014224932762261088, 3.418826303430259, 3.8502466040994463, 3.820782473926638, -0.13451152911175127, 0.04311465601214166, 3.804316974056724, 3.6984543470877993, 3.9944812742753557, 3.7489954362328124, 5.955793955223971, 3.887137568541588, 0.07640373645419499, 3.853158547152746, 3.7671424747817177, 3.96967502793992, -0.017398161376041332, 3.747736980257698, 3.9336233719978537, 0.05488191028695248, 3.749900911532068, 3.9668496419208354, 3.5915214442999277, 3.763038685755176, 3.7206043136524425, 7.058000665355446, 3.5763601081029632, 3.8316913104434525, 3.7947347508759, 0.08078180986495573, -0.1771344966968395, -0.1337475097837476, -0.04948151277708554, 3.7239921992257905, -0.03376139069784484, -0.09632176713794652, 3.6045090570491682, 4.023270631012225, -0.17413037487229335, 3.997210193432079, 3.913955842930064, 3.8715330808478745, 4.795711886992792, -0.1499214008630343], [4.032893658784608, 0.1048036062597126, -0.17425574798774915, 8.105783040907365, -0.021304517117724128, 0.10868128034299494, -0.028884911616750594, 4.104897324117035, -0.05828047043688281, -0.07658792461864222, -0.0018733880070253839, 3.960881699952099, 4.063454698123523, -0.12345224565993225, 0.08046535800206614, 4.024309076955285, 3.9156525463157537, 0.06540488818815203, 3.905969492994165, 3.9366649454497646, -0.05390678448082387, 4.794604608415856, 4.18212744188664, 4.123874892551896, -0.0857317838499546, 0.03349347699864145, 4.174424986520685, 4.058507458855514, 3.8489163979614456, 3.9938287450857, 5.064696853681504, 3.9874142621901263, -0.1430923387837334, 4.080185888281546, 4.218061530382664, 3.914499381356842, 0.044972830317293544, 4.042810197094547, 4.134610547531729, 0.16188780895219754, 4.151556886380359, 4.1285351094828915, 3.9506656357243384, 4.031426996594253, 3.922235643504186, 5.806963090427686, 4.142222434412551, 3.9009372303515337, 4.08866766786507, 0.04596123905151081, 0.016831746101468825, 0.006596594737099587, -0.003255032863161339, 4.664083220836268, 0.03752763990627009, -0.09003883421283025, 4.2696829208747005, 4.131351741746835, -0.15192041363004188, 3.867893536377385, 4.051144786598077, 3.8592530215465177, 5.450585550694827, 0.09107749201150704], [0.0025552850364604085, 0.003611153495660019, -0.1323888221930487, -0.17562911320898805, -0.14584779354587696, 0.07527071198229032, 0.052352695313805875, 0.02851411073686319, 0.09925429569635855, -0.04359526243456269, -0.13354510646999804, -0.03746964456277141, -0.010599737031849271, -0.015748385362019945, 0.08380543656482378, -0.04249234516264841, 0.13464172759739737, 0.030465760815276854, -0.014871669989501873, -0.09104313613556125, 0.05984991058743727, -0.08406617206740157, 0.03293300416749215, 0.06724688994852396, -0.14760225804818483, 0.09800437721379421, -0.03267390721876384, -0.10388645404443343, -0.06522807239077627, 0.0019034131499059137, -0.1542856321890754, 0.13457991084854473, -0.062075419315737845, -0.010778090369485599, 0.11642765971700711, -0.10512689739391914, -0.12057217900770856, 0.1483663133517549, 0.093266219311858, 0.07341751539046334, -0.0796005096224496, -0.16761670006496426, 0.17043215583398333, 0.034006851743206695, 0.014601267824909087, 0.033892003992265024, 0.05281468757282906, 0.12263966025792325, 0.12324073339280164, 0.17668781058766744, -0.04608135563785698, -0.10468173649837037, -0.05854111217171194, -0.0051481869255200485, 0.06544946721369962, -0.11436547010801157, -0.1584184342520929, -0.04391516606061033, 0.0796937824379085, 0.12329124483755818, -0.14304611612297316, -0.17263502445211837, 0.11803226978277129, -0.05900033639729234], [3.265466939082154, 0.17201313138310717, 0.10796327137407483, 6.709864474165725, -0.11627769850797473, -0.13291461900613866, -0.005627012134208148, 3.1056569817458386, 0.09194199669381362, -0.04244183882777269, -0.16736531367114973, 3.3721023421825342, 3.2494658952627424, -0.0522310163798152, -0.031000622809100986, 3.304593623167246, 3.106410110574831, -0.0691647609929136, 3.3103156775112246, 3.1631757291233495, 0.025351506536905242, 3.503748561703216, 3.1298590631643024, 3.311503025759595, -0.10349729751076495, -0.02464847101825333, 3.0965810633552606, 3.3124183575021617, 3.2566504029646848, 3.319063848304008, 4.330359613929785, 3.143144449168831, 0.05058493156899782, 3.3944585671159433, 3.086959274851862, 3.1407765331232063, -0.0074440983126717875, 3.373235234421695, 3.1362726558926677, -0.13600081917087864, 3.5643804178266456, 3.3389666206783404, 3.4393335362912443, 3.376872055618905, 3.3579362858498896, 4.908266176814346, 3.3073724193900502, 3.343697420758605, 3.0981634014999533, -0.060215340929759956, 0.17125223631768563, 0.026568287680175662, -0.013957445609857344, 3.6943488654152916, -0.07296608481484086, -0.07937702768719627, 3.437333803354799, 3.1948110655419817, 0.06965705289096054, 3.3661701968208715, 3.1584775590248833, 3.0645301118658517, 4.308813672952432, 0.1714148754591182], [3.356799068855222, -0.006055769239180948, -0.04237293207372958, 7.112984231839914, -0.1267116268005623, -0.10390069729243338, 0.11683689600819358, 3.162949308916789, -0.11451116085058491, -0.13501170335188478, 0.116501095936382, 3.5188486444675227, 3.4663837339204595, -0.10837434788890979, -0.006673392053637706, 3.2179215837937716, 3.384879250675685, 0.0765695164674139, 3.526700502187874, 3.4746974251356266, 0.05564468477542084, 3.1819852991245265, 3.2165672265543335, 3.2389607890981558, -0.13897031360687317, 0.016286416429337716, 3.461810670802278, 3.137895856718798, 3.4479530508646614, 3.533641393713816, 5.408977859368739, 3.4709501438135146, 0.02538707541921839, 3.5533044047413154, 3.342912478554546, 3.3406528280120686, 0.1501977236419151, 3.298226716171271, 3.4031248742152136, -0.0053593847657991455, 3.494321275581568, 3.586961637469923, 3.2481872654840855, 3.484097477623132, 3.227671317841932, 6.188349531521339, 3.319355619197586, 3.3536297263904875, 3.5554213254635454, -0.014794601203834662, 0.06829352691751564, 0.10924037877836698, 0.17421662817954722, 3.361758722531786, 0.09499754216593578, 0.05045845668110652, 3.2348287703292216, 3.431144220990307, 0.103650844353077, 3.3732594247590924, 3.551950090741412, 3.2286384944370448, 4.144628627475546, 0.04299233176091356], [-0.12744238592869592, 0.02367042770483882, 0.004646706943284895, -0.07178971154661883, -0.10727063783774682, -0.10780432223985367, -0.13660447194138314, 0.026535148855182437, -0.07755882340780469, 0.12424819381272637, -0.027091743176726246, -0.043976737779382616, 0.019478105961020443, 0.04667331379990328, 0.17583013067006945, -0.07030466896304972, 0.09846812013984295, -0.09458696786410616, -0.10218560539938266, -0.03511078214076044, -0.05239622787165441, -0.11732927318100593, 0.19254306161539225, 0.1165927568647188, -0.04314147667419352, 0.06607820892474146, 0.1306519741017378, -0.026568590024127762, 0.1263039167969352, 0.11225495776209744, -0.043723735406398886, 0.17298799873601262, -0.07917897388442756, -0.014376099532768692, -0.05797060449984184, 0.11008384921526888, -0.05719800048600687, 0.19726419662186045, 0.06227218554945812, -0.1656532035348932, -0.14257614136546734, 0.1086161057172541, 0.05975442927061682, 0.05942009100904422, -0.08026979469666808, 0.04805803840361397, -0.024493831118280195, -0.07614618807734551, -0.04827651724997377, 0.10782423387662846, -0.13093742774213604, -0.08584422038819538, -0.1378815404306482, -0.10404238215514429, 0.133678196604291, 0.13957992422063462, 0.022349205231934986, -0.041478890107567376, 0.04536593038460369, 0.09921687790727064, -0.12156630593865708, 0.1869403138962887, 0.10357910800244018, -0.033679537639369816], [0.06325593858675191, -0.04455101388686411, 0.04063767317355654, -0.08027662628842243, -0.17389273038436512, -0.1345520742694915, 0.0774274296297883, -0.03327097014827046, -0.008066837982127095, -0.10472160906032092, 0.004839680172328803, -0.08833091168543472, 0.15170839990836418, 0.04054206300450891, -0.07661516066656927, 0.11354698282345052, -0.049283707902382096, 0.1254334841665408, 0.07815279702536906, 0.03402531498311276, 0.0762055987447802, 0.04645329968022194, -0.08672959451099857, 0.14527641229150642, -0.11883513844411098, 0.16187085988675295, -0.10928326208575344, -0.08225506109338088, 0.13909485543399233, -0.10539254468446689, 0.11657478886701886, -0.023725910995156085, -0.08443115974574895, 0.10781001562883177, -0.07190517671210091, -0.06386554616895496, -0.09339110151426042, 0.12114834262007038, 0.07225852164021618, 0.03366107491767903, -0.052742694027902076, -0.1091553650578657, 0.14517609875035978, 0.06698316900360654, -0.07106112358896388, -0.03111710435993073, 0.029693016563063446, 0.00437643252420461, 0.08778873986567773, -0.07153140698681326, 0.14142313230316242, 0.10977912227668882, -0.16375203298206387, -0.019003080908240294, -0.11888425051469279, 0.048012591930808146, 0.056330497982868294, -0.1459506062379543, -0.04924063012391161, 0.0233832656543512, 0.06008475897033222, -0.1396256150093051, 0.05178616890298551, 0.06675282176878108], [2.5351357434982447, 0.04432015022449376, -0.046791349940638854, 4.924391334989507, -0.026453311775216377, -0.12839485286037758, 0.09254482861323632, 2.4407734984088654, -0.12586776990421875, -0.05612539793162846, -0.020832180049817905, 2.5788982265976923, 2.53290911521575, 0.15509378922231734, 0.14766007754219687, 2.480870003095082, 2.2703680542322804, -0.039695810727243715, 2.379507476629092, 2.362929510493114, -0.031209056139041482, 2.465811599305404, 2.6108071252728804, 2.5514434391718996, 0.051249999065522786, 0.07209965261241397, 2.5030390852169813, 2.543699250873397, 2.5946157321875685, 2.3984446145344007, 3.7656060310750323, 2.5471107822151087, -0.04194263341404694, 2.606441218322413, 2.49893699922944, 2.295327092272334, 0.041364722381334235, 2.3824865795484618, 2.5787580933356162, -0.06902653203117855, 2.4170400359243454, 2.3019928473453897, 2.4782222019503006, 2.3033260104471625, 2.350904046374284, 4.16894786707645, 2.3408556129069495, 2.5742455009656533, 2.3568332446978966, -0.1226643892409318, 0.09054070505668282, -0.04757506542178927, -0.15638516330885863, 2.5430800868324646, -0.14753456040513926, -0.0411034219411959, 2.581651469594907, 2.551178658632357, -0.015864629958185644, 2.5341110057166203, 2.3196086412588564, 2.4323935466009594, 2.916811903733568, -0.0018716935945458047], [3.134957227351098, -0.11126500969676388, 0.1757139756635225, 6.6146070244546955, 0.06640415714663345, -0.1565584220816808, -0.11306247747784165, 3.255428656953095, 0.1490583767509198, -0.04678114041334222, 0.06017523964863686, 2.9593571162834555, 3.2378293784981826, -0.10992659084802499, -0.12156105969852171, 3.0528227832974366, 3.1472719864006216, -0.18144755719639952, 3.187809744492448, 3.03319971550844, 0.13855121949853133, 2.90846837430641, 3.130692936756721, 3.020547740626194, -0.16327348922639218, -0.012368720044469617, 3.1944366235397137, 2.8768673173815076, 3.155712471065539, 3.3097093817986964, 4.827344895251688, 3.1184650908808216, -0.12498722418266414, 3.009589891061866, 2.9415540555579227, 3.1021733580939843, -0.10212929414751944, 3.275417847157553, 3.0262880745941123, -0.09480391712740793, 3.2061725347223486, 3.197824839620921, 3.1866566868337793, 3.2757647110852037, 3.1182537267106474, 5.6615325548241895, 2.9200089236984255, 2.9809996463279917, 3.29408874561425, -0.14532660417595958, -0.06784942107999674, 0.0034518238123028566, -0.11591084013672233, 3.1129422410752525, 0.03772418067259456, -0.03292107740757272, 2.9304324416792538, 3.1814690682772957, -0.17752931242756273, 3.1663307218745427, 3.0832821580632697, 3.0711789059221086, 3.919027743910684, -0.08096939909866539], [-0.07321532449589423, 0.11660443613348684, -0.10883108003012738, 0.16647237700744486, -0.104996085383914, 0.08038399340461458, -0.06702048962802523, 0.05568716105284929, 0.06598863681353806, -0.1300061497849078, 0.02294090379552549, 0.13027439046366293, 0.030648422187109198, -0.08557512867055657, -0.030643813023292138, 0.09757872422594685, -0.15667456973846805, -0.043520530308351596, 0.13412683143114676, -0.10150794437898242, 0.01761766750795088, -0.1586581453975405, 0.034306693964931995, 0.09604494825818058, -0.03802048956233864, 0.009217678475070656, -0.03883240634055668, 0.12386183290796585, -0.14271665508949197, 0.0740921226047305, -0.135376166652956, -0.025189574230941453, 0.13408192373315583, -0.12890200471023924, -0.11525025118007948, 0.16817808028308465, 0.15542733757778301, 0.15894522150235238, 0.13634910610424825, -0.10307426649275302, -0.025140847616100304, -0.15778718794345983, 0.17299015975252427, 0.05197706232911764, -0.12792451439676505, -0.10976079174532646, -0.15463843102945546, -0.10755102014678684, -0.16759587669592058, -0.05488169563991449, 0.164299475359286, 0.14848943967275433, -0.01190151668415998, 0.06547180171462189, -0.10797491667562233, -0.025314686851840823, -0.10771619313322268, -0.08537446899987008, 0.07776770256042595, -0.17268542730941377, -0.09466721007103408, -0.038451895873574865, -0.1240917494037398, -0.11738848165902761], [3.0965583493214925, -0.0019459764646790987, -0.029797568825155746, 6.299776369905609, 0.1548983502441096, -0.13291642670598205, 0.030922075318933765, 2.9506933700585414, -0.10174160764751412, -0.1488623798170647, 0.11619022380997787, 2.8293780762101717, 2.9142207281907773, 0.06852005058849939, -0.13526151958369748, 3.0166587109009013, 2.86090698226044, -0.16003099903323598, 3.0003059396551253, 2.8775960873959336, 0.1644177484362578, 2.91423437169081, 2.963050755537596, 3.1071715282490597, -0.12362117738112965, -0.06907575487451595, 2.8641533073612857, 2.851278412147505, 3.014709253308638, 3.0028437160720713, 4.651575665518771, 2.9040520922011908, -0.15664479072615625, 3.1568943689114217, 3.084829680274426, 2.845828638180002, 0.1046062099116856, 3.0146453658765635, 2.9633519081132462, 0.10035855639448621, 3.017020673941137, 3.1573792427404985, 3.0804329077249877, 3.1605123398616373, 2.89983635467253, 5.113428521150403, 2.9972755291931295, 2.9871267203403704, 3.0792478064243882, -0.01030417695550509, -0.10921648268077667, -0.049876663239428604, 0.02620922802544659, 3.0638527711314687, 0.008080755325491601, 0.06524383197332714, 2.8515940678157383, 3.043416265750321, 0.1617304374408962, 3.010090128677459, 2.9268491056888664, 2.8535821486673685, 3.6876035003857437, 0.09175766169462005], [-0.04870000073580075, -0.11160774282850716, 0.12079529395340574, -0.1400370377554772, 0.05204546008997557, -0.132352185886789, -0.04677797514282872, 0.17566891001982646, 0.09707258279350253, 0.08900593696753892, 0.0680687928054832, -0.1469643157796786, -0.13087229600224592, -0.08708861116957939, -0.11371790415270493, -0.095191922532848, -0.15182988347776136, 0.1546344339590863, 0.07584247319444645, -0.04434012985123137, -0.08982153924073025, -0.15637133136077971, 0.12429522943790802, 0.0066156851697593, 0.1065884560782008, -0.0871151483052891, 0.09574211148172176, 0.027088240944939224, 0.11005119637219965, 0.10950570970403553, 0.09333702659890056, -0.0036387718780685196, 0.055210578924004966, -0.1552673521677237, -0.07549716628813986, 0.13070804893369478, -0.019210129134347137, -0.15273005203922718, -0.09123763299774192, 0.0994027761774389, 0.11384806171464648, -0.004927192355906412, -0.03186657578905294, 0.16037705140784134, -0.12079835971303203, -0.14232125815229635, -0.0506263569221157, 0.11903261774426657, -0.049258170479542146, 0.04957615867466278, 0.11745073912825457, 0.1299922675248095, -0.11452374309700597, -0.056771253731547136, 0.15690177213965642, 0.0280005897532008, 0.11460441210842712, 0.05123708127589294, 0.00292830948140152, 0.0730614895729205, 0.12443945770750173, 0.14843814405595743, 0.10375225292893389, -0.09568432456629747], [-0.16224717084971751, -0.15657405183165313, 0.07648378422021221, 0.11690275209156384, -0.11618483307593587, 0.06396744017225642, -0.025791653729366232, -0.11046741014242929, 0.02679957555519849, -0.08032553015393444, 0.13697484179836303, 0.1304907568244749, 0.04099468190801753, 0.07336802658731748, -0.06700340248769852, 0.08432406949819457, 0.03593996235302685, 0.01829103472079366, 0.008619838698540883, -0.15921267569674416, 0.009263649608034358, -0.1669804153314424, -0.0382661683194378, 0.03738793066844559, -0.14830104288524493, -0.1197675958557996, -0.015036737231624048, -0.14397507002837756, 0.13118811920601844, 0.03207169101620802, -0.1118045566375433, 0.06046599612239151, 0.067118272807531, -0.03100967597931814, -0.09985558299372709, -0.13265457135956243, -0.07822365322177577, 0.0055835887881215684, -0.07409143818743791, 0.11197710640721523, 0.14972697813675215, -0.06887637984102242, 0.1393657789707217, 0.010100323102728681, -0.10617835551722513, -0.0040600598095467955, -0.041040742766259714, 0.04947175409009111, -0.09648977718170401, 0.07577860007124662, 0.036334033725380216, 0.1485885874370306, -0.10412848432103707, -0.1539879739384794, -0.12441298725518286, -0.16136261448712844, 0.11631324641230004, 0.01668650867253879, -0.053801693797975295, -0.04150014214289302, -0.05862717976784601, 0.031355614342335136, 0.15321008158976449, 0.14021658086968122], [3.294554179739224, 0.05472682390087363, -0.11341575432284091, 7.171085163370071, -0.10043890207316375, 0.014447851357285822, -0.14756938728251942, 3.373411571526364, 0.06524718955917183, 0.011580821056371926, 0.1378614205264592, 3.2215712707883073, 3.32120275761943, 0.05765343697412151, 0.17589007413792254, 3.4437396421620434, 3.3363074781359536, 0.15828123914613348, 3.4469013480597592, 3.420092185416488, -0.0938895106860678, 3.3994816391843994, 3.3011813609219374, 3.408902910950461, 0.02755838456033763, -0.052199387823637054, 3.395687419282443, 3.1712986636117453, 3.3946725196808716, 3.50503127608515, 5.173072003503032, 3.4752261322760916, -0.010944000021015171, 3.5445520879622627, 3.324173590753335, 3.593090916868758, 0.0030659593494508086, 3.2840079743227735, 3.3586396277094535, -0.11288106450997284, 3.47114153524163, 3.5463514164841534, 3.234422915502753, 3.415089573945803, 3.336389436122823, 5.9878435993293415, 3.4188907521186946, 3.2739626680027714, 3.2997998796622108, 0.1312900652700091, -0.012012085121599675, 0.1384167028244759, -0.14124764645322835, 3.294636371321551, -0.07742297129638351, 0.14230264201171525, 3.256775811905623, 3.470004437074026, -0.026990243402633347, 3.4201272946847503, 3.4762921417063595, 3.4804897889819912, 3.988058467703852, 0.008485912275739443], [2.25940855499647, 0.05822503911936635, -0.007400781801249284, 2.918934896697165, 0.10758718510251696, -0.13888291427176952, 0.10727094757720608, 2.2910574741810845, -0.11875113581492269, -0.06629621294653634, -0.04404487987155087, 2.206358993505352, 2.2460906262176423, -0.006133006585664125, 0.040571680643844255, 2.527477526854645, 2.4282650577068767, 0.024950361496476732, 2.2016338665218194, 2.4104478150394546, -0.16288000126141783, 2.6817679756407755, 2.268418876017409, 2.337528777570022, 0.11087007745193009, -0.11865055303082636, 2.3734308807401567, 2.331702341556895, 2.2645414617010773, 2.264773982088926, 2.328902663555008, 2.2335086374560578, 0.04814756955666383, 2.324034534270805, 2.5258243562487066, 2.4840143417484906, 0.05104279054245092, 2.5173231664164564, 2.2424467365601815, 0.11011370652789224, 2.3171518703367124, 2.3407140086639715, 2.2927626598808133, 2.289086975833826, 2.321082495563205, 2.270577170165343, 2.4769791015327907, 2.3090937386758754, 2.5064739107840075, 0.14286448562981538, -0.11962266129389645, -0.14788006988368535, -0.147506233378878, 2.730721779814145, 0.05762911460860015, -0.08122784340494481, 2.4154613584093165, 2.2985750398626315, -0.03791836500013493, 2.3131709815602775, 2.483180262082741, 2.334195307746176, 2.6592503980579223, 0.15559469643487153], [3.987817123996571, 0.15309995022194667, 0.16146939352738068, 7.595136456192396, 0.13541882581474038, 0.15809112715831333, 0.04079788266577158, 3.8364298845976377, -0.1239940243067366, -0.05701709724718343, -0.035251805150810306, 3.794582253544828, 3.986918703683264, -0.14497571960168543, 0.023916249276071222, 4.155443461656102, 3.834703969510466, 0.07136865835869707, 4.012887351374046, 3.9893443052043738, 0.08717893505277378, 4.48396377471399, 3.8243402477932937, 3.9004049368782363, -0.06422393909529216, -0.07420410569425821, 3.9075029371653303, 3.9080411411257057, 3.8263541636140976, 4.037465416874784, 4.63903510612721, 3.8514338360493214, -0.15464527705084632, 4.100494128471027, 3.971987808716163, 3.866245487074657, -0.017525312298042495, 4.093781124460359, 3.8484122370990113, -0.049680495372903324, 4.197075504309389, 3.993327948885576, 4.113150250287074, 3.8185852339777977, 3.9768075652790476, 5.233940115672567, 3.902009543666873, 3.9671190696192804, 3.981503272341743, -0.012181306847118045, 0.1295927873091792, 0.06640861569516876, 0.13764166892007998, 4.615940250285412, -0.16990613657478787, 0.11024290745971269, 4.077176443978729, 4.083531500819765, -0.034875919508409195, 4.104104222466912, 3.8862346135613883, 3.957931574978188, 4.966131931019843, 0.13439472698579386], [-0.03632317266573352, -0.018094754478365793, -0.08010722853281109, -0.11807195070130197, -0.018339962571874414, -0.07367436321102186, 0.03864418106562107, -0.09924940509567926, 0.10307313436156354, 0.03720232480114005, 0.11454982560217539, 0.16935191847327882, -0.04123720631996017, -0.15473062154891717, -0.15492237292855784, -0.15198884063511978, -0.17338293610831296, -0.04976248917906645, 0.040248969729014226, 0.1772639585184815, 0.1226959762289042, -0.01087414933587174, 0.08390177148077856, -0.00908065162625996, 0.06894352292572173, 0.10241305455290237, -0.0493244009809596, 0.0988016450551546, -0.13371144326198606, 0.059858539217761, 0.07799577729311008, -0.06963106664109853, -0.15553394795926687, -0.0885242204085906, -0.01436086067721456, -0.04280930870419568, -0.007918490149428636, -0.07746161541702598, -0.0585458875979903, -0.10239403628944846, -0.03417649259234463, -0.004665413777888288, -0.17474537486928643, -0.012002696137759799, -0.07391808448427442, -0.05637501987284367, 0.05414953744842496, 0.15019210590075122, 0.1752473324561026, -0.12579322336778737, -0.012317243219255258, -0.07324308315438123, 0.09403383142533253, 0.11928768094992366, 0.10662113526775199, 0.1570259789295904, 0.00474525431334187, -0.15169709584707322, -0.12581790367531165, -0.14223697744109934, 0.17173494714341278, -0.1544148040549072, -0.07209333715005597, 0.13091781535209787], [0.14744493608483306, 0.013872206847546698, -0.10031638601942197, -0.04916192529784042, -0.0594654909139027, -0.050565786383450946, -0.0985772391939038, 0.0673441237086516, 0.09256499027639373, -0.15378623271708297, -0.13140617429894905, -0.05986093164812873, -0.03801110961374083, 0.07268534537220422, 0.050230619404826066, -0.04062188150828976, -0.01603593642023389, 0.08730194322924296, -0.1438856452344702, 0.0761420706503435, -0.14980105440475341, 0.12709046804030902, -0.09151607917610725, -0.09914287765619688, 0.1227399276214152, 0.03405970638360233, 0.11049591528697895, -0.12033749266729242, -0.09962483649274585, -0.05567315067959185, -0.028571410671838028, -0.021338304783557173, -0.0723336344964655, -0.14511396733077805, 0.02930735985858727, 0.16454425588620428, 0.15865102515572252, -0.1672726457213198, -0.013227380544973244, 0.11013495553178801, 0.06474665137022927, -0.013350845675499875, -0.1630222265633543, -0.11263903615324754, 0.0991828976268221, -0.10516917008742765, 