{"state_size": 5, "hidden_layers": [128, 64, 32], "action_size": 100, "weights": [[[2.0206095163388906, 1.607809313750359, -0.03484880006993755, -0.01048333017472775, -0.037185268782630995, -0.20641758782772718, -0.09319575059554037, 1.8731120655529128, 0.06254131356298744, 1.9642219267837682, 1.6105870079568814, -0.029511539294650085, -0.20155392734100544, 1.9483084697354096, 1.6156220945300113, 1.5670706299806911, 1.578638029907696, -0.05493045018251347, 1.9815395738625274, 1.8428007507504345, -0.19135210669009364, -0.13749798867263338, 1.9320039994894986, 1.8957351874587625, 1.8730794761814862, 1.9305093756184621, 1.9803769140953986, 2.0041455172248566, 1.7617344932597034, 0.05666150204423079, 1.6683688117288529, 0.14274760272220025, -0.09620547385999363, 1.9846242292224425, -0.11555143003249574, -0.22845915334373892, -0.12092729087828394, -0.13969788437462893, -0.04208125369149038, 0.18810882710720586, -0.0844310496361278, 1.6823918340947719, 1.5965045783334915, -0.18343923580431937, -0.20715843793863095, 1.8566691286002193, 2.4648171259705594, 2.071854221793078, 2.337896411484051, -0.09959505167843904, 2.1740598626220584, 1.8607330487724025, 0.7680346549881742, 0.015191306557588075, 1.6812542318336374, 1.9147319908236566, -0.1130495849561649, 1.7253915401254696, -0.06736778638615448, 0.023314787531218517, 1.8034340432981353, 1.735843968710288, 2.3324997939613623, -0.09710686926716458, 0.05079227415678333, 1.9268196911149775, 0.009776746669554914, 0.03722082341124858, -0.1413471500258672, 1.8638202628967966, 2.302648420883962, 1.7469863735817095, 2.6674028311147455, -0.19768990298526076, -0.06947433702568628, 1.9023183207673138, 2.217576225167772, 1.8085127966262498, 1.777269686577433, 2.630106605644248, 1.7622647688215176, 1.8657216445139762, -0.14760029055328455, 1.9490207623412201, -0.225474259952957, -0.08052444973136566, 1.9615758542604047, 2.911615050650584, -0.08011082147992787, 1.6892560369142182, 1.7319435756197632, -0.12702434350873054, 1.9406074578668595, 1.6867866771429338, 0.1128850551189916, 1.0023707842583105, 1.6289498459538991, 1.8191236696594988, 2.5872586933626436, 1.9137219609411, 1.6533607133259227, 1.827745723835641, 0.005597398548892574, 2.462717993240529, 1.9471210882146353, 0.07182365638391307, -0.01767751083358487, 0.02263465107264498, 0.1329511170984208, 1.8292857472571817, 1.870635667379551, 1.8673134611406756, 1.875559928282617, 1.8486634460356148, 1.552895002505863, -0.09351383619039225, 1.7153125717903466, 1.7890651897471908, 2.841060807529064, 1.783456598224591, 1.5759750318521344, 1.6603789889562575, 1.744310101732102, 2.4067978150500147, 2.002578284002353, 1.649783833848994, 1.62905738852558, 1.9954237042308198], [0.439760578566585, 0.5347429349995655, -0.1155944137458827, -0.13151900511432976, 0.06271276218827, 0.1215385628305671, -0.1305743438244318, 0.45239188610411885, -0.17556083426169056, 0.48852672132133523, 0.3271440380986511, -0.1758300605574028, -0.012628612748051243, 0.3998816805915647, 0.3995906709557111, 0.4375343913941223, 0.16074034616214314, 0.09953409852934594, 0.5873935900290653, 0.43205174073075003, -0.10962505702158427, 0.006304876451325353, 0.18058736418497492, 0.1812202181033772, 0.4257571291551443, 0.28753797591905905, 0.3991523534128071, 0.44746804774489, 0.3920904075794849, 0.023778568774255715, 0.54495773013951, 0.09964511473606281, 0.04671488238927013, 0.5348844711539346, 0.16905082290488066, 0.12127588631236068, 0.05509534051217982, -0.10076395534996922, -0.17913153622440206, 0.16642390536062185, -0.0005354429182924114, 0.26897409552804785, 0.5096638838894787, 0.12155264249199166, 0.1016687206630442, 0.33120907839403213, 0.36396364009400284, 0.5579742903355547, 0.39199608569456823, 0.1758570452483332, 0.4581555901830954, 0.4712823621669935, 0.2896987448047188, -0.011751377520834827, 0.5470425300702688, 0.36014494928985863, 0.19792024522760596, 0.5100617104581251, -0.14242899452918995, 0.010568461081586822, 0.41096717132336025, 0.4627788467384043, 0.665251107960325, -0.06909388609475939, 0.0340121845794538, 0.28975885721300354, 0.07925262366013, -0.11867425725081245, -0.09191722699780348, 0.5441763471775789, 0.5617196890485624, 0.4546602363362252, 0.413742685035008, 0.13234650027446274, -0.18002464245581, 0.30880038383310593, 0.5494198096806959, 0.4696602498510616, 0.4759326986036089, 0.3452200420691237, 0.277544803255971, 0.42581721702138187, -0.05161854217944911, 0.3281576991506281, 0.14102770716490554, 0.04250926845668479, 0.5026829932122729, 0.6175848948233443, 0.00530043623105381, 0.5392223998358964, 0.48532359886021104, 0.19920334539477533, 0.2521360227776111, 0.29014867670491196, 0.09311255330603314, 0.07128312013164909, 0.23044069038282952, 0.2492366394648128, 0.3997031155523738, 0.5421562183121764, 0.5584670508905951, 0.19237008803508185, -0.14652974552675282, 0.44036224321649287, 0.34815603340701484, -0.2124158606056406, -0.028479027897852994, -0.08866213562409775, 0.17150203599682884, 0.2054081831120784, 0.2977438478643325, 0.24629115503736213, 0.19865813930703854, 0.369097562633218, 0.4005398217477395, -0.13218993969366943, 0.4878308085678772, 0.3492644801958098, 0.46006420818522986, 0.26849523385219454, 0.21123760359509688, 0.24681922856793406, 0.4606839844223033, 0.678594249485317, 0.5366509073802207, 0.1661041647724428, 0.33756913551643686, 0.27252962508685663], [1.7914818247114006, 1.878512949247648, 0.11541798660853231, 0.01949179201704443, 0.04382429420592162, 0.17772681788864367, -0.05960414771970868, 1.7758758363707123, -0.17906814769702328, 1.4667627245539931, 1.8536469682400218, -0.19275559543481788, 0.045941716784317715, 1.8220056029987186, 1.645104685229889, 1.8439515889584495, 1.725385806547058, 0.09042397341114201, 1.462712760388482, 1.748160867929184, -0.05922374163677366, -0.12161326599488236, 1.5061227083325874, 1.8558539375705787, 1.5459592243448326, 1.8922894538890147, 1.8369405350594483, 1.8823566011887616, 1.5481228462173167, -0.20991460186620514, 1.610968791718912, -0.00020374519364264637, 0.12381708180562842, 1.716147786145276, 0.14687512220692805, 0.11972028310835177, 0.09948336931213905, 0.036577748714572644, -0.17437080183146192, -0.1967283485194183, -0.15828293775526078, 1.8283695523803802, 1.7906635720286548, 0.07683980532393381, 0.08640612432449143, 1.6314945164118397, 2.1679753607274135, 1.7878338437049084, 2.1311535268862882, -0.14456083834734287, 1.855684687186229, 1.5450354094120178, 0.9324842317934511, -0.20677259172607007, 1.7078033385067324, 1.7046681376579038, -0.014484771609866554, 1.6597284190961186, 0.060497566572729394, -0.08815599053648485, 1.7620296056128826, 1.7873213284188274, 2.2042676445228846, 0.04673763060997115, -0.0544762472948049, 1.6117715146051972, -0.19758710825496117, -0.18940382187702046, 0.0888242902475639, 1.8281989370928244, 2.3438413601575996, 1.8872231600793903, 2.4075387681323837, -0.09706477823371616, 0.1552681241383416, 1.54823220841013, 2.2774782875472517, 1.813540749420325, 1.6144932810932873, 2.154405960594903, 1.595224145095517, 1.4731352658710064, -0.1675280751136562, 1.6539199977178018, 0.11879898883633963, -0.10520062896211074, 1.8686852230994448, 2.4730115897343894, 0.15902578094858638, 1.7575669967788128, 1.6847691707031833, -0.21193683601979355, 1.960827046538963, 1.6058415387090594, -0.038914669229471274, 0.9038610013261579, 1.7535317676433595, 1.5914598901592243, 2.47359468977874, 1.59409975744835, 1.7253396094656008, 1.54049382809104, 0.003939402029294936, 2.3654529734285537, 1.655851810129717, 0.03977502237443567, -0.14004716595511937, -0.20951312841598396, 0.013815153674844946, 1.7478543882694235, 1.640940413492898, 1.7865881927791811, 1.5542252316892649, 1.5620922207516303, 1.6633940352152747, -0.16364819631174013, 1.8554175433801412, 1.7657633779869084, 2.483635729811219, 1.819297024944097, 1.6961648804157534, 1.720358177417617, 1.455796170081003, 2.3022293662629396, 1.7292870371696263, 1.5583330502304693, 1.837138986566403, 1.876690607508501], [1.7217792134908936, 1.6208199875706588, -0.2161115611579849, -0.06873224019340719, -0.12705754005420336, -0.15801143329280534, 0.04211877810777123, 1.257538076813404, 0.07404516439411112, 1.6001113819101944, 1.6061381116978424, 0.12584252754645867, -0.19158138770601005, 1.3442442243115977, 1.6206079549597001, 1.541453613399619, 1.467982545176207, -0.006920291592803488, 1.60136592567269, 1.3251290091810461, 0.004396467868061804, 0.1447494061706757, 1.729506410339369, 1.6500712251721663, 1.451626224712093, 1.7375363501869776, 1.7330026820638387, 1.5104154982104734, 1.3689577733219256, -0.15497611118896304, 1.6413092907337827, -0.14384959796169702, -0.05459244034941295, 1.5444292903255212, -0.0317285778142132, 0.11557819498835081, -0.1488617122451104, -0.17687129566493398, -0.019533114228358378, -0.18256203328489604, -0.18782434572512374, 1.692812323799752, 1.4041786177777937, -0.21111963992872015, 0.05189212365885906, 1.489471519064683, 1.7813807492084048, 1.8293990669693025, 1.9396415925986685, -0.19548541038236134, 1.6842919440451865, 1.785692375304266, 0.6849010614889789, -0.18817776609804696, 1.6191883850841269, 1.506904042233254, -0.13551933873905506, 1.6316285505942207, -0.12112562481140372, -0.14230904790235405, 1.40141721667909, 1.5028849222819922, 1.814776566724532, 0.09541173009623484, -0.14125383384610501, 1.6408242046069976, -0.0782467323944381, -0.19233446382810546, 0.09094365018640573, 1.616024019527203, 2.042662266935966, 1.3802794149053967, 1.8735690944429833, 0.10386081918723308, -0.1912704355819477, 1.4418781286913918, 2.100334908549482, 1.2876680758844543, 1.6817395341776133, 1.902940765213226, 1.7098114331843037, 1.6389983078398955, 0.01353578831037483, 1.5639934535535873, 0.02496542501023846, 0.14773122486901338, 1.6035007874364076, 2.129591266057005, -0.20857520472441593, 1.566114741443892, 1.6602734707654117, -0.1638619273086359, 1.7666783547437552, 1.5318932590666008, -0.13984058190644708, 0.7721338601563043, 1.3228193519773739, 1.480986670235134, 2.2889944433279363, 1.6897358084265777, 1.5780097437101488, 1.6193920893448668, -0.035872399709662356, 2.244827488794174, 1.4965801240626688, -0.10918017927559656, 0.08569375036702151, -0.1505697050614912, -0.14162779193407726, 1.4117927169228315, 1.6609193722699858, 1.6961228543975406, 1.2858751409496239, 1.5919008027844068, 1.659834314707023, 0.08859056506440935, 1.6169187650457162, 1.5749678423769005, 2.1050608606948766, 1.6726806526097187, 1.6351083915331668, 1.3148401822626985, 1.264261790503748, 2.0256651611016636, 1.7449514409114102, 1.4670815836213416, 1.6770695583849744, 1.7447789527993087], [1.828359737241934, 2.030848820931944, -0.06679641253708307, 0.0032811191260103015, 0.013482048046748619, -0.05540684952001868, -0.011966403424834626, 1.991580208183462, -0.11767430585760444, 2.073989202144104, 1.9231047213771213, -0.08454456111735809, -0.15671951219979371, 1.7781330126548416, 2.1867131436298726, 1.9700457978212886, 2.006550626081577, -0.1399083391781041, 1.9810511245359026, 2.1467938211206357, -0.15061060483808944, -0.044252020631738775, 1.9077268118662911, 1.9780757704509198, 2.2405748838741397, 2.2671056684375017, 2.257356536093734, 2.089812256440183, 1.974792598613854, -0.12067209242469171, 2.075200488751235, -0.008921119545763549, 0.04031817315430358, 2.0006438221664196, -0.20198689259245053, -0.12165593914542897, -0.1266820377784419, -0.16243410000478103, -0.10547526778514656, -0.12655506558554716, -0.17597056400511618, 2.1654102126989874, 2.1772327190264993, -0.018685177013884894, -0.15924862658789932, 1.8663450918866638, 2.222012563036078, 1.9425210888203537, 2.0516059075761355, -0.12640099640694136, 1.885286739302905, 2.1107837758209915, 1.1772352347921813, -0.1788226568472726, 1.8232231685738833, 2.1542699861274084, -0.021285499962800436, 2.0959142402681845, -0.06311261451440509, -0.12320609950717944, 2.2613228365019724, 1.7860364308959524, 2.0695978558944526, -0.11564254063700483, 0.07249818483826002, 2.11684175965232, -0.11374342690152307, -0.08481127980925371, -0.07618044405896865, 2.0639305672121955, 2.379133359093305, 2.076032597404181, 2.234884204212089, -0.19111765311803283, -0.1333191250395261, 2.1647571068062743, 2.228214061800456, 1.9189552017559282, 2.0085132421579006, 2.1884393542242013, 2.1814519771171534, 1.7855161840277602, -0.06839143566538158, 2.0997929718178217, -0.013567886808156373, -0.058583126865638525, 2.2469491781670863, 2.688338463809005, -0.10007552714521717, 2.019489076134695, 2.0913470712111293, -0.16436023003196926, 2.218715357590627, 2.1485780431411543, -0.16081626860498047, 1.3759363705299594, 2.1732617023128826, 1.8081642101179511, 2.35092733077398, 1.8929999082093456, 2.138206112224573, 2.1224412453666366, -0.13829115792001198, 2.2778408752856403, 1.986609004099951, -0.08730787428827556, 0.021320674208793224, 0.0003974368693937146, -0.06914705559540256, 2.123821785836023, 2.1462740963261413, 1.924484056320915, 2.083087797225532, 2.157131036912661, 1.8063786131054178, -0.19301990014348974, 2.0753479742949095, 1.6622915228833248, 2.5847443787358113, 1.9883351250505599, 1.7076146021020715, 2.018459780272126, 1.945684973735545, 2.1034938115865005, 2.057150514961497, 1.9465838273882012, 2.2002452609265677, 1.9709562621227432]], [[14.149839261604074, 0.11093471372841134, -0.013107502873844129, 17.89951578917374, 0.021923098688577714, -0.12637145466331084, 0.09679438698049256, 14.170205654988466, -0.04606205236198116, -0.028618483477539564, -0.019155926716906496, 14.10102344975824, 14.101241552204792, 0.10471105833385566, -0.16076532464516963, 14.17874033607715, 14.098769279681173, 0.011619294531872456, 14.244693441653377, 14.183196057472214, -0.10817544092259855, 14.05494696596397, 14.207122918697978, 14.173420130178398, 0.10138227989399393, -0.061782090391355515, 13.963496734624945, 14.128850259689953, 14.263700852732276, 14.14249102818639, 16.05375322046249, 14.13786138822678, 0.008540791917622192, 14.051691617080484, 13.935989152164732, 14.148169538029672, 0.14298463643221596, 14.014979637406617, 14.109463249952539, -0.06922717270005009, 13.95618350987194, 14.021689473453444, 14.139746492039668, 14.220849591122706, 14.070989785005812, 16.95434300915224, 13.947034250541948, 13.937339643625483, 14.242846442043229, 0.16222794085597456, -0.013770393771706524, -0.09681955845250462, -0.13495208223424654, 14.027084959337673, -0.12770834249213808, 0.07672040511743436, 13.886424075385735, 14.262961276850353, -0.12111050461515939, 13.984835764867496, 14.242259131669021, 14.051262425126092, 14.960021703323681, 0.09170019734791231], [13.607697428448656, -0.023339391507437975, -0.001471187494033882, 16.807862267110192, 0.13839027320844996, 0.1664107510756312, -0.06396560592404864, 13.307799331844958, 0.008478676505263044, -0.14412709902232376, 0.10856265696096648, 13.595620048409689, 13.560212506494278, -0.12392598479276515, 0.0524985511499485, 13.461986850368444, 13.420734278195951, -0.007968697567015102, 13.387310610466333, 13.55450104957323, 0.13776976188891185, 13.382470111927272, 13.306953996515105, 13.302004716579283, 0.045762312549301846, -0.03978490022009302, 13.277011082160204, 13.455774565950154, 13.653851534988174, 13.415543028313806, 15.228401729949272, 13.526697803975914, -0.152976477598192, 13.622423226290405, 13.504008674679973, 13.60806413830636, -0.0738870422365039, 13.354685486443024, 13.521149875621568, 0.11812562850656746, 13.436902981901891, 13.663137003741369, 13.51746383672872, 13.449553030428557, 13.389002237303245, 15.899553958560887, 13.492497367136796, 13.335616151212996, 13.43730014253956, -0.0433508206326042, 0.14087245261578826, 0.17157047387224963, -0.1282051013304347, 13.657216974227389, 0.024552025628151397, -0.15174794753945225, 13.57368512565478, 13.64177017772258, 0.11321492191565712, 13.527782307004237, 13.612335840654087, 13.573716527584459, 14.178825396729067, 0.07072823518263903], [-0.03784629824084602, 0.1654376061047829, 0.046099598287443255, -0.06775582676532166, 0.053364089542834475, -0.048717702506961974, -0.011011069702953707, -0.09803653965974593, -0.02473631743797547, -0.15883799301017457, 0.09755338984740616, 0.15513569063931992, -0.0574823968405952, 0.08241736664668656, -0.1542822959496003, -0.11268386185607251, -0.010811362802968388, -0.07220276675999114, -0.05620924174871262, -0.019625985817661822, -0.09160366595883529, -0.06057117519752246, -0.0593633248459745, -0.02604688987933165, 0.13386550306240871, 0.13623908219734718, 0.17656183735667444, -0.10359075489012044, 0.13887401398453772, -0.15016011942042548, 0.005425151554095519, -0.05438403382401686, -0.06276890859508324, 0.022640375870483315, -0.09439049102617626, -0.012556581886974914, 0.035645847523911284, -0.05112364434326177, 0.030002752267932142, 0.001137843348779477, -0.15452083185149137, -0.00644839328788361, 0.1647043372948215, -0.004381097696252509, 0.12196273513809336, -0.0848408248500811, 0.025278903490664268, -0.15514176318932882, -0.1144474147944118, -0.034759232990307115, -0.13916349578533938, -0.15646988975915888, 0.1530881572727564, 0.08291223024447393, 0.03422623774735564, 0.019909969292684182, -0.15949120520050628, -0.05014725949738715, 0.1294104488883546, 0.022816754674444512, 0.04076861009347222, -0.023768954696629915, -0.06672205887508463, 0.0609063882972227], [-0.08182274492594353, 0.016248096505655146, 0.09257298606016037, 0.110036596688855, 0.0880668069392442, 0.17676857183837094, -0.04275217908115089, -0.06775694488965511, -0.06393882955381218, 0.004487130167607406, 0.0787007433373392, 0.052283209494014216, 0.019435229296461035, 0.14477190345407778, -0.09753657706099303, 0.06449333474964992, 0.04515008485835436, 0.15368920742084466, -0.07362224089013382, -0.07858136489962393, -0.02031198798912269, -0.08398639362767947, 0.040108920539775425, -0.08340952084902623, 0.0882276040588921, -0.1434379935965818, -0.006106995944305827, -0.025164336765956398, -0.06737643965190529, -0.029876756642941676, -0.10481608987687367, 0.0038359229037868365, 0.009452550865024223, -0.16464967011913884, -0.04350036449563414, 0.13719443331822848, 0.019472007671431785, -0.13011586896137262, 0.057939271506160045, 0.0016626266633590625, -0.026624930040672987, -0.02329810097709539, 0.13365953451031481, 0.11086703270433973, 0.1574020783668317, 0.08605518885652456, 0.007275752158527934, -0.176065018006572, 0.12211698682585996, -0.10939007222801034, -0.13616680369572193, -0.09749770668853645, 0.16546123525101816, 0.11882564843361017, -0.11187603122743937, 0.052115547891025654, 0.14787421958619046, -0.15512944821586805, -0.07719732933607304, 0.04747105187497222, -0.13923041609150638, -0.16923214503727485, -0.11334959928959656, -0.049505248917986355], [-0.04829576218720505, 0.0004492347297170851, 0.009919843741933554, 0.17211699097156025, 0.05609969139323272, -0.09040568358641113, 0.02985844748596634, -0.11704051357728237, 0.1277847020053923, 0.13968445667367738, -0.027638934130771176, -0.030402047423566916, -0.10942878953389586, -0.14999654282824298, 0.07408950141676998, 0.0298921076326024, 0.10777943994729446, 0.054289506995489026, -0.1386649675553588, 0.07143500666383433, -0.04124848266038132, -0.16412584426827184, 0.15113783770823358, 0.017183218984959166, -0.07035538208915215, -0.07425014064621234, 0.049227234663091424, -0.13811198832231472, 0.007082505983698693, -0.025850617196314884, -0.12411293273716395, -0.028319546805805097, -0.14021759378264245, -0.09033345317281181, -0.0976216462263476, -0.07458480578354452, -0.15146008050226295, -0.1351516012900927, 0.15659051081037667, 0.02729834483311283, -0.07479077706578684, -0.16896963352325384, 0.031523108281000564, -0.0942136809043287, -0.1685175657908114, 0.012797208082824264, -0.013347203506858004, -0.12453790021417138, -0.15722694159709133, -0.020317631546635434, 0.02774057128247223, -0.1450235832722101, 0.014146300594141292, -0.15218678217620954, -0.132427651184756, -0.15921801497734409, 0.05718733837812186, -0.15336067182610036, 0.1261640453319998, -0.021357460088922423, -0.0463189856272969, 0.0007582612383889019, -0.12960410306242381, -0.06667521101320467], [-0.1550017061448635, 0.014564533184331152, -0.09510192603959985, 0.08315755091244673, 0.15393763042140754, 0.10525525370611885, -0.15993633821849373, 0.08573839068065367, 0.06095255284548637, -0.14405417020911565, 0.05364007240177221, -0.07685657994191164, -0.17203120002366085, 0.16790071121806696, 0.027963777440816545, -0.12492556678263833, 0.020294508427790067, -0.056659222905652944, -0.00286965798665943, 0.08306890757903629, -0.01707793799450269, -0.15703683593011544, 0.13947069089070657, 0.10744421001367321, -0.05993990279883393, 0.055846152561018575, -0.12199741591334162, 0.07764513515703769, 0.17236671362634318, 0.08353076656140462, 0.07037168880099984, -0.01828921221743658, -0.019190243976069693, 0.12637014867609528, 0.15868429216236327, -0.15811952612096478, -0.12426075751262183, -0.1269929566495409, -0.14621789817604833, -0.003388621646609191, 0.036989553589770914, 0.0757141804186039, -0.01819679826654264, 0.11512480446080689, -0.15975405462919628, -0.13217104813300248, 0.136990405548408, -0.0860137301918932, -0.10137097878281354, -0.021727804370028386, -0.147530156480628, -0.11380499645171006, 0.08868605786862868, 0.07890738714604095, -0.13269438217699936, 0.0021412941664687435, -0.1634181370352157, 0.01767799589680708, -0.0323273992911769, 0.0945769761914429, -0.04949900412453136, -0.11730968995670013, -0.09589418271380845, 0.14227645014158044], [0.12990562017484067, -0.12944406541519446, -0.10509545207522988, 0.06282652851011841, 0.10456197883889287, -0.034587718526237654, 0.024015601113954232, 0.03990143178317715, 0.11531163212456894, -0.16723882970742293, 0.022643129821946495, -0.0634715062626805, -0.01531589684438217, 0.1263239626457374, -0.15404457701510682, -0.07744229825373303, 0.12305869571102265, -0.026628021519905953, -0.11281527514727319, 0.10863195001552481, 0.13647973803642358, -0.1317979447950275, 0.12110077344634443, -0.03304860801228712, 0.017210631376164603, 0.16125527669504439, 0.13961708105649326, 0.1530706289243133, -0.026086087222377263, -0.17397490559143722, -0.00032327291018782733, 0.03599324161388748, -0.09098821708353483, -0.11433179952448108, 0.11542046827197419, 0.056874363221184, 0.01642531431975605, 0.16561353401828025, -0.14056789551515875, 0.13080111748099457, 0.10317083624525228, -0.016633086708773753, -0.15581845928332547, -0.03135069158038925, -0.09522537222636418, 0.1653809478623479, 0.09747708094849092, 0.14515514538982652, 0.01800986384840486, -0.020937521841132595, -0.0390614679911242, -0.14577391027495146, 0.10682711076876608, -0.07948268948330475, 0.0648274944231145, -0.11348593979722296, -0.09045030705851882, 0.11036762796155278, 0.04089886788223113, 0.10629934106770536, 0.10105081834568594, 0.022732775397830085, 0.045351783586609046, 0.10067955739457876], [12.395123825300447, -0.17373817676252848, 0.012936774066493434, 15.110061815503643, -0.03133426993151056, -0.11466427111655271, 0.08088325237534943, 12.639475296022527, -0.045894128179103766, -0.07535532190935681, 0.06444248090475513, 12.379730261187158, 12.51237342912619, 0.1727145636033178, -0.039041302958196245, 12.502402224697258, 12.56535919185187, -0.0959708563569144, 12.343808729291512, 12.54342848565385, 0.14726824457500293, 12.486630558219685, 12.589408928535308, 12.435153317373844, -0.12122693235362686, -0.1558987921362121, 12.396924469446093, 12.457136879409218, 12.379590523023458, 12.367148390446607, 13.674455771508482, 12.542650648335337, 0.11578369173944061, 12.446959056732352, 12.563270695361537, 12.654863399812951, -0.08032996176737228, 12.519787572797044, 12.370829287630949, 0.07302594023016687, 12.60561956166511, 12.361877723589652, 12.411343863360282, 12.472951937432802, 12.417905001515388, 14.507784046610807, 12.49029965562689, 12.571544283349597, 12.397131501273266, 0.0320788645697235, -0.05569932546951188, 0.14777833221521655, -0.0064840280958466945, 12.590737655253216, 0.11445463138746184, -0.02139042409388825, 12.401964142184775, 12.604991372489925, -0.01203650465457974, 12.552979998512361, 12.401877979975472, 12.486194789265861, 13.17360245295241, 0.13765296239825556], [0.14747553574671612, 0.16482566885827166, -0.08708023435653171, 0.1381618205811442, 0.008265352465802196, -0.1174414573325893, -0.1654058678901021, 0.07112846669877462, 0.08723382680814726, 0.04955485842018317, -0.13927137450492122, -0.17548047203350087, -0.08064225880007925, 0.0009917636202204372, -0.04015426792959001, 0.021719469001998313, -0.14785375453669208, -0.08987681486985614, -0.16863818640387346, 0.1566877806558596, -0.03349562874477165, 0.0802032830988036, 0.1495861879231578, 0.1719089585867326, -0.007829446190067202, 0.12547127741218808, -0.11990549047119314, -0.0321064981965293, -0.016208375301269954, 0.0668870600540839, 0.06325763464318104, 0.004459268574933209, -0.12373534152654589, -0.05400244639287321, -0.1347824663620245, -0.174641117632289, 0.03207206995806183, 0.04453134544641034, -0.1689434356400092, 0.06645691269589021, -0.09524697486248213, 0.11454378968166026, 0.09040073570496171, 0.02541872187869428, 0.07477451469642613, -0.14547678548770338, 0.012931556075622568, 0.08571625224934473, -0.13264897999019992, 0.054051224503663065, -0.066461674510019, 0.04802167189500914, -0.01819258776494731, -0.09810973212111405, 0.15706243310958382, 0.16281590542986482, -0.1481160634756558, -0.06264134326723422, -0.03494987301658217, -0.12473807250453836, -0.04275499825363556, 0.0831509767207354, -0.053235173212074945, 0.12418835254653152], [13.224955983790032, 0.0973426155370011, 0.04328845576216117, 16.597672543500497, -0.16329458552638157, -0.13492716781179595, -0.07280141400858624, 13.406092679075279, 0.06691153588983076, 0.0031631565346181, -0.16820388664845218, 13.234503419739571, 13.209884465456827, 0.041505907520372115, -0.03892093715342779, 13.463848853417229, 13.233149742038467, -0.16667311275218294, 13.527951420629783, 13.344244279547556, 0.06017483827908326, 13.461562543436877, 13.466234490195191, 13.502558958315081, -0.09678340372915771, -0.13704433691076082, 13.17263419907551, 13.192217839425336, 13.294189870176087, 13.230627916373503, 15.135652950209685, 13.47975003766296, -0.15723050750697073, 13.546493976200875, 13.169567534886667, 13.349249713849268, -0.14456830120860295, 13.380293031130638, 13.48875548332348, 0.0924661724907724, 13.270553674735346, 13.525922100241733, 13.487385817160764, 13.473297702680764, 13.336205645992074, 15.573855310755157, 13.49677215270468, 13.475125816795046, 13.402681672007386, -0.09343963477393986, 0.05837716506720394, 0.1499869974515168, 0.07456498061089709, 13.297930754481726, -0.040963217936031665, 0.009759842792995577, 13.318659711714773, 13.423693980103693, 0.04750217896088497, 13.552616610412741, 13.258922144637918, 13.342553444185683, 14.196359942547584, -0.10747323667527564], [12.829813578947032, 0.14114419965146524, 0.17568254279256004, 15.974293347157861, -0.1670030041740694, -0.06711327143322333, 0.14703043467397903, 13.127014127641242, -0.16233157502190623, 0.09582153250657718, 0.062311000469634975, 12.812798753504765, 13.122734210196256, -0.1292276829914831, -0.08312388168187314, 13.067083707698977, 12.896655260793395, 0.10827990116699454, 13.043479688348732, 13.020196122029379, 0.044890865014454086, 12.894453166392864, 13.112492000163794, 12.926455567556026, -0.006683969515678505, 0.0626714306140687, 13.008554684050377, 12.87419362565614, 12.966807700589701, 13.120330161528987, 14.514156131845652, 13.01717163242619, -0.15801094026241372, 12.887702125099118, 12.888457078458487, 12.971795837205182, -0.04966771696886457, 13.062186802845488, 12.930387914439368, 0.026345932611471435, 13.162676921350826, 13.09367466537573, 13.105665675837365, 12.834714611447726, 13.067131271533366, 15.054563223168085, 12.860776657252071, 13.06751009977852, 12.943521693175477, -0.0003782536307374851, 0.014794998803441544, 0.1401817492417574, -0.13086368914313207, 13.099551710942904, -0.025316014445306123, 0.13197353182607222, 12.988745532442724, 13.030997170464445, 0.16196397016899108, 13.028503375763886, 12.889891274011962, 12.940650257750466, 13.484581567271185, -0.05817318609275679], [0.001975251136662276, -0.06641130371315129, -0.03845539111369911, 0.02035063791946423, -0.008636225938983444, -0.10494059876157218, 0.0915956377285074, -0.020182676030982033, 0.04512859439268663, -0.001422750544757323, -0.16051932273666467, 0.10692214588063034, 0.011175302134052822, -0.1405191470869136, 0.15762091756925692, -0.05192805030856906, 0.17003190839428897, -0.007695970475465497, 0.14378797363530396, 0.08469246494093799, -0.14515850953291218, -0.06288019786161238, 0.03976543171505398, -0.13241056695469938, 0.15575897733967928, 0.0371331911095929, 0.04307807169510075, -0.11675100321403085, -0.154550345734951, -0.011660513343167839, 0.1733456047384674, -0.05667038860578462, 0.08788892129442924, 0.006203336279628324, -0.05020855752059611, 0.11211779943598862, -0.05210558200661412, -0.05818460818225525, 0.16311995456851522, 0.1107450007222873, 0.019668333112466074, 0.09438715499510017, -0.07528454771493122, 0.08462940451023279, -0.0970485950643182, -0.13307276728108217, -0.09727366360625528, 0.15901196362878303, -0.11727766382663231, -0.09249859023041407, -0.1696414830061539, 0.1532597734766509, -0.12679132322110692, -0.03065723964888073, -6.945974572256097e-05, 0.057552180998128616, 0.05852946384827973, 0.08997385305995229, 0.08637831097750567, 0.11566650814092425, -0.013469696911181134, 0.07664837079539807, -0.02194569489321671, -0.08279808759933685], [-0.09074151747855594, 0.15514515945869925, 0.14303648038753522, -0.010481740155672742, 0.01016423068977701, -0.13823825444868215, 0.14355701387147127, -0.06948092717194874, 0.09508606778420584, -0.11157867951387054, 0.13833418082481683, 0.15709455104009426, -0.008985352513028871, -0.00012982808459588435, 0.1429915135344674, -0.17108742659478493, 0.10518493910630874, 0.05855681136030089, -0.1094041493961956, 0.07225589473134983, -0.16918070316911815, 0.1046961164251484, -0.12092209190527577, 0.1580599096903312, -0.04527956940366798, 0.04136356015220191, 0.09677010087852841, 0.057204327460577215, 0.07299877850857348, -0.004089609485683654, 0.16915184482081494, -0.17371529739510033, -0.024866014058179037, -0.071837128676413, -0.1601837639082171, -0.046079501833169945, -0.12515833931681447, 0.09464924059406496, 0.07980212000220446, -0.07700764300742016, 0.09185697374978505, -0.16518732106654865, -0.07153411860491252, 0.013642827156881476, -0.16380794246770847, -0.025171901143636183, 0.17459233344947564, -0.06032299068285081, -0.11374176588446921, 0.11786248230997473, -0.1535399892371909, -0.12398329125396976, -0.1339955223440318, -0.04860933721108143, -0.15157146935613988, 0.10431385483525349, 0.05893337593017062, 0.05883350111099464, -0.13556367864295377, -0.03457050872948114, -0.040877054114794004, 0.15669362332431078, 0.10884587543959237, 0.08977523721593308], [12.661858204730695, -0.12049171374967547, 0.10343182097504997, 15.598007723608031, -0.060591799202616786, 0.15985765568914556, -0.1046940043594621, 12.902151815878081, -0.15814740720273832, -0.14132173432635686, 0.11282152295780348, 12.642581044188482, 12.765275995132342, -0.01117184857700107, 0.03853197138300746, 12.92196987312304, 12.77846945850549, -0.06812542541947769, 12.697896487371189, 12.771101390852788, 0.01012037213967607, 12.918149696450115, 12.708761417856902, 12.909663091412842, -0.02477304770285179, -0.11279126446576927, 12.8024071304155, 12.645342906713967, 12.844193153556112, 12.646810584438466, 14.218455026763845, 12.877009442484404, -0.050139529328034865, 12.723654980298583, 12.741383555141855, 12.708397871778104, 0.15667795906632656, 12.68940923295473, 12.834843548081167, -0.06424408269782252, 12.853631586507131, 12.907878323689594, 12.813195207436486, 12.889362638346359, 12.767910217247458, 14.740867686174848, 12.860814286967255, 12.710773213331205, 12.908195966182106, -0.06312901202751307, 0.04652193809630801, -0.03471121734868793, 0.1229733607639262, 12.795896932047157, 0.12915979281361376, -0.04094847788128758, 12.777754244221939, 12.922441425447659, -0.17507445095770055, 12.674717756647748, 12.739805894483972, 12.760320008627986, 13.463361350438635, 0.17401918722817467], [13.480104444326928, 0.05685293808539241, 0.009271675101070742, 16.6503626079611, 0.024094416783052953, -0.1456034900943254, -0.16694000111812435, 13.282899650613297, -0.17599415423576206, 0.16320383653534545, -0.09843674453060623, 13.439366655434368, 13.451358091273937, -0.08232485929380777, -0.1442250446104468, 13.403661510651494, 13.465564107462997, 0.1126430803383968, 13.38063542282528, 13.427048650094433, 0.08450878049403435, 13.195638571972571, 13.33834879029885, 13.303095619482056, 0.09272153411503756, -0.011872253487194166, 13.331970746380792, 13.213498310991712, 13.413408566085453, 13.507450284703607, 15.063804948194386, 13.481525405494919, -0.08157472152742828, 13.497542560573665, 13.462081213752148, 13.514782362474618, 0.12810150005445256, 13.492436107874157, 13.29917775774013, -0.11372460680135121, 13.24810314891811, 13.595167870209837, 13.344853762930923, 13.322091895142238, 13.52615584042775, 15.832302323449232, 13.227112495214234, 13.37043311191695, 13.50171044095312, -0.12331850875111869, -0.06996951823780853, 0.13395961369698953, -0.0750900117121326, 13.2592504193613, 0.012306039174343947, -0.02147759368248059, 13.507256456562148, 13.418473659459528, 0.053322276954579216, 13.516781449591322, 13.391690799746497, 13.388760376220672, 14.188178548492397, 0.14475187053879357], [12.540525295939736, -0.16356327252391603, 0.17504565992011942, 15.419832109489063, -0.1442932278483354, -0.010345211487806873, -0.1460836416461247, 12.675158645762528, -0.06819530484360237, -0.1336644890584204, 0.12977309738477769, 12.58981473476907, 12.726911635144964, 0.11854503720447249, 0.081413313117803, 12.549225747884444, 12.643422685177073, -5.4496925989499286e-05, 12.536511974770677, 12.575079576594499, -0.17163385806661516, 12.643138641220583, 12.491670819452226, 12.827537872357516, -0.013578407639464472, -0.11635262183443852, 12.730275542055248, 12.777147500762014, 12.552634384762152, 12.675211998879588, 13.97040038772816, 12.613152267339318, 0.09600865469207256, 12.843404494735468, 12.552889583881187, 12.758532266073429, -0.004327201273905706, 12.7514712665452, 12.78055621226923, -0.021523637598448865, 12.618115523971882, 12.516525307406786, 12.669490227466428, 12.661115844519435, 12.613303470558376, 14.667006315889678, 12.547643244454799, 12.541640523602966, 12.537680433421398, -0.13636685338177906, -0.010524542963501613, -0.10309956428793893, -0.03720349851177801, 12.828880873385822, -0.09147909575589075, -0.1216338164566591, 12.562926020214325, 12.739761908729479, 0.08336591956220668, 12.784007346434416, 12.844274520782884, 12.831634041863099, 13.271001110110179, -0.00493067525796322], [12.33874526531393, 0.007190610332908354, 0.047223707651634333, 14.75623940158385, -0.1457084589959159, 0.11735186861004335, -0.07753603550883124, 12.458959058809766, 0.05119067208352843, 0.050306733875852994, 0.02706734782783543, 12.237121477007085, 12.433196327685875, -0.06693370454273823, -0.027273679450354915, 12.30575639485942, 12.143529617544283, -0.0788533539727416, 12.455246625080195, 12.15114868317727, -0.14767748242340284, 12.427677665024044, 12.145056945208944, 12.239652197663643, 0.1760610050361053, 0.0898968935442178, 12.376206416870138, 12.185871934052487, 12.238308546418251, 12.385085656200252, 13.499769205799419, 12.178629209735059, 0.07424816696696965, 12.258249116276664, 12.360016110907674, 12.285167218314166, 0.05989789444979199, 12.226434957373387, 12.314696750731008, -0.05629512529495566, 12.429886812107645, 12.226341134380098, 12.428496206207052, 12.40016949839052, 12.360505239359524, 14.042086946035285, 12.46364393526751, 12.300047194585348, 12.210774022853967, 0.15109843511950508, -0.14244463963636841, -0.012573871075418158, -0.14778504716039895, 12.353621141494349, 0.141542666552228, 0.0767667251928155, 12.45416858782203, 12.307479409502283, -0.13125845257805385, 12.342430914700893, 12.326854433400564, 12.44831057879359, 12.873428097193086, -0.0701834938771204], [0.08893970631221347, 0.0187895869267173, -0.010128140828231907, 0.1198252502093051, 0.035469891109398, 0.021887889640241714, -0.04245528253065754, 0.0861686311377786, -0.0875654467336851, 0.11140913567266295, -0.16064311594445344, -0.050260072568883964, 0.14478161610606513, -0.128184805470895, 0.10168365190765669, 0.14027504239675423, -0.10171942747399641, -0.010146046967503142, 0.15790761336932865, 0.0015045595246333762, -0.05843387407111353, 0.10585327731911538, -0.10923769307318922, 0.11289102257383825, 0.0961838840808998, 0.001720539316973645, -0.006439431525004577, -0.14094694016580836, 0.1569909496358599, 0.0035566603852968033, -0.1544178125155475, -0.1302762167560005, -0.16431036066954258, 0.012257747926288406, -0.05383228595682946, -0.07129181551470211, -0.0002650858076542195, -0.0889378778672452, -0.056711828350508024, -0.08202205179192952, -0.06306580826569898, 0.006603724056311591, 0.12437234098598501, -0.13642151038742384, -0.16406924342395782, -0.14664525712357904, 0.17750958484458734, 0.019121808085624227, 0.12619160711783262, 0.12792579219443098, 0.0930701488957836, -0.05990839963749012, 0.04642674706000649, -0.04417675343710855, -0.098184635081973, 0.03714356609580269, -0.08561297307080964, -0.09910201582272414, 0.005116606247388059, 0.01657706954980496, 0.06465854824221776, 0.11882395229781305, -0.13133135034768476, -0.16855615437278176], [13.278050644941139, -0.11549948015334875, 0.15897155744246536, 16.316824153736214, -0.014903336088958191, -0.09483160353428287, -0.03141832715208762, 13.068550348470303, -0.1039950565725748, -0.15181693970124116, -0.0984780536893307, 13.03814649147726, 13.341115780687701, -0.026127453138445306, 0.12752369890966583, 13.291117346254126, 13.298363257450301, 0.068204087014986, 13.22128517498204, 13.276253877141539, -0.12580940170161473, 12.981308600422498, 13.319877927054481, 13.32086649035844, -0.12111412451520229, -0.02160046668987502, 13.07323488967964, 13.259562328655672, 13.313364640767837, 13.103502746745107, 14.94042341748656, 13.306163724190416, 0.012279032597082379, 13.238582933773312, 13.03093672326143, 13.356429853836254, 0.1628960456528553, 13.279207915809732, 13.139539356919467, -0.09209316764566612, 13.176719323072088, 13.167086032103647, 13.022004928053487, 13.265401612241458, 13.114727685697648, 15.547299546662611, 13.2052221475533, 13.288100508778182, 13.129659882620683, 0.03400622415224919, 0.1238971729586497, 0.03275008859872769, -0.10865048908988509, 13.294465041430033, 0.14071762737727275, -0.08395700968487484, 13.340195052443086, 13.215816079417039, 0.017176224714187338, 13.1875029166181, 13.157846683708552, 13.03260214444856, 13.735644936479638, 0.02412090863599348], [13.219029584143751, 0.012393102458900636, -0.0361117871907852, 16.272774883963166, -0.10866775886103124, 0.11696612680467777, 0.152276272298563, 13.15221897001777, -0.10067661857851846, 0.039057746237219415, 0.16262525882355625, 13.304059044276368, 13.266269326975948, -0.011432417956768137, 0.0338833182746201, 13.199611698933921, 13.210018938383797, 0.09623560329373018, 13.059882988303933, 13.212084130849746, 0.13431076223454735, 13.106913881844108, 13.234338827320752, 12.976748325109227, -0.004084435353131645, -0.11497449165237147, 13.214305246034485, 12.971735290212937, 13.303266786247313, 13.108510389171126, 14.753430972081961, 13.26805557956094, -0.11027049308475324, 13.001849010674928, 13.27811487548756, 13.076240953198916, 0.129748725979371, 13.04891483563783, 13.126392299753295, -0.11566360197461541, 13.299592347932979, 13.30313242164095, 13.222139952112613, 13.155667769748653, 13.122103413365139, 15.469802661353185, 13.152232115219782, 13.102764694803756, 13.153452309766667, -0.0036756480377316825, -0.14034593903453857, -0.07635206141718472, -0.0782488038868574, 13.31157410040159, -0.07652530907174074, -0.040881572852282805, 13.199065670695472, 13.071331317406763, -0.05698662335647249, 13.180149142363629, 13.247879083904682, 13.043357507963393, 13.830662176324008, 0.05349893264799928], [-0.13435276044259448, 0.04497532548476438, -0.1309281719231638, 0.11439492729616654, -0.0056149880424344045, -0.01968752358445111, -0.04991670832098713, -0.040434049776917697, 0.047222963642729654, 0.09484050704814287, -0.07826414084248556, -0.16546991790239024, 0.003469239650746636, -0.033491470857066885, 0.16746859102774544, 0.11821800010209108, 0.024007494024913284, -0.00494811828228528, 0.1764500600136463, -0.11867616169658485, -0.14677711706239335, 0.05711543121655832, -0.1648827416409773, -0.07029373012980814, 0.16455686918982362, 0.07618766500642457, -0.04899940237825809, -0.05627474781385508, -0.08030672707037362, 0.09700036468901532, -0.059302879513282974, -0.048930200384476846, -0.087080771032927, 0.1318934418495221, -0.15651393187427176, 0.003854342718168091, -0.10678455262385853, -0.0864444735925699, -0.056320842014998235, 0.16581542750407482, 0.045151718607477964, 0.029634759472118605, -0.0805190523991532, 0.1560334179478636, -0.13412089559267615, -0.147729361889206, 0.07363980278044349, 0.1022420494006395, -0.1237265743973225, -0.16985413243970973, 0.024421337200023097, -0.17560022920393895, 0.14480703330341618, -0.07412762490611162, 0.11319614948550347, -0.14095352627002075, 0.11309680406356223, 0.08577765428814257, 0.017273817162962835, -0.15601234102360317, 0.12065245504855823, 0.011451848003926762, 0.012329368357933274, -0.09855798914067355], [0.17426486735993338, -0.0213647254483105, 0.15186275559481824, 0.04548932127439026, 0.16236883920994946, -0.1691738903297918, -0.014522876451704664, -0.02202957457930574, -0.07367699675345257, -0.13414694502119684, 0.0630443013877991, 0.13910563071095164, 0.13091132042524758, 0.023102661521715973, -0.03336754493612071, -0.031563876251806816, 0.040216370993076456, 0.046061851699542355, -0.1431987652163879, 0.05700411761285579, -0.10655530410446334, 0.16695100673245208, 0.10187678199072206, 0.07157273884144788, 0.09581041882640431, 0.015727818546890537, -0.15803289777429835, -0.11348480643644103, -0.051002710177684873, 0.030429119107019065, -0.082919663240335, 0.027977079412248446, 0.07580403106887837, 0.002647878489276917, 0.10184972930501832, 0.056265906475717165, -0.01878741056442318, 0.07615348888091503, 0.086968914461271, -0.15887214391196827, 0.1184836461597241, 0.12612562175442396, 0.15558233720819234, 0.04383924217683949, 0.03201088030158458, -0.17146185219807492, 0.1500568925340159, -0.1034617883253916, 0.04113277841236268, 0.10359762452886326, 0.12481071662548518, -0.06790344107317536, 0.15077468559932425, 0.03366502574308883, 0.039548606437274425, 0.03993352287790786, 0.012849675069258576, 0.0996121558786269, -0.16956848759755092, -0.15536282959672168, -0.10264040859899881, 0.045134656810431745, 0.059847673566355425, 0.014319951515691903], [12.527638928262435, -0.13880306733741338, -0.0548174308389079, 14.919018770645538, 0.11195511601318393, 0.0017780935459915173, -0.02455993138651644, 12.545588097705638, -0.1331990966948346, 0.17233032692695752, -0.08930800761958485, 12.527431241598885, 12.585098483696422, -0.09819930064898456, 0.13908966339683668, 12.319913850645113, 12.512755214166782, -0.1687281688166207, 12.344986677018598, 12.298976838479964, -0.06441500043198428, 12.632975678090725, 12.557285535402224, 12.30294690607379, -0.17225134734178205, 0.009676733403273153, 12.359516244967372, 12.327054699480959, 12.293552431629104, 12.285029884583897, 13.210734031512056, 12.393011734757637, -0.009057948067392463, 12.317377611806167, 12.608176582113709, 12.358828946962378, 0.10281548679198596, 12.600279515940366, 12.508085315988852, -0.02644222464898872, 12.452371479663684, 12.436042208952474, 12.536710567869155, 12.530769741877302, 12.53415968418467, 13.924177241602548, 12.63426184581992, 12.523514044959748, 12.416798677689824, -0.11508078048079831, -0.10200423323290203, 0.10938785493886652, -0.15777951081166613, 12.68940723440623, 0.037363097937773065, 0.007516324020815646, 12.393930300627838, 12.49711591209647, -0.16136499441649446, 12.608310914175592, 12.369788014604188, 12.431463226834667, 13.12217667669085, 0.15433151049726276], [13.962536775021736, 0.1371512972522809, 0.03967263463873652, 17.35507083828034, 0.11937396616292208, 0.014623515087439157, -0.13379356241530607, 13.714016083151044, -0.03354782132405096, 0.05162946910997637, 0.16918895830384292, 13.876284773187592, 13.908812881872805, -0.1550945050696591, 0.10673944807859223, 13.708631561440907, 13.693079195697482, 0.16296039139824, 13.901427889828483, 13.727003658909243, -0.1463667679095467, 13.719920849433535, 13.728323619015182, 13.72141124005551, -0.12534410757377598, -0.01668075147086687, 13.709426686349321, 13.87611213448048, 13.87788802291654, 13.920770336664624, 15.646182588582612, 13.982409558039478, 0.05150708682475508, 13.97375714313285, 13.922419539453475, 13.915965483475002, 0.04798716546731871, 13.744765638098201, 14.022502264683649, 0.11059253890256555, 13.816524883200469, 13.847804856413884, 13.710250099360092, 13.850362584425636, 13.979676463236942, 16.515660158713757, 13.708598135525701, 13.75176345874371, 13.889012737992786, -0.12882195494033677, 0.12207408194701422, 0.051694835139369566, -0.0036112771179361847, 13.957580643254847, 0.170733303182083, 0.09801874487904691, 13.91057481397441, 14.040850505848585, -0.0005556814019455898, 14.017608230098261, 13.94106198106552, 13.695562535733579, 14.739727551545101, 0.1710628779733132], [13.707714995087443, -0.040704444573795844, 0.15892419813261768, 17.08569371714479, 0.07207684908168897, 0.09583213206261595, 0.1222652138943486, 13.562768179632176, -0.08726445982063152, -0.12681647543382482, -0.0239780720642212, 13.779055715177936, 13.520090028350008, 0.12647429134951096, -0.09360909183120028, 13.554960025663231, 13.644221432201775, 0.07618938103295415, 13.700758065205555, 13.593862376881692, -0.1216876882480694, 13.43902511064228, 13.628278080355802, 13.772458343188717, -0.10555241501623644, -0.03419213119901118, 13.72143052298324, 13.702207981838143, 13.762480697826561, 13.767727144609413, 15.449297645795497, 13.869256475736233, 0.02349718715950372, 13.582662946369265, 13.661540651282074, 13.831205292503398, 0.06517479021019759, 13.521503714731768, 13.614408590734485, 0.1296310595842997, 13.670337311340692, 13.868283499535398, 13.489751374065449, 13.864159651306487, 13.521956344086068, 16.14504866833394, 13.662592292669203, 13.666539885539002, 13.621288975508175, -0.09498989860389438, 0.00280340886292675, 0.08434840766682825, 0.08299957429098012, 13.726108352095807, 0.14803200843519546, -0.046575321696796235, 13.602300946339078, 13.893262510749693, 0.11427804943081339, 13.875654789532799, 13.608060933310643, 13.794434472299788, 14.260153979764947, -0.07776221799461304], [15.041078369909432, -0.16097207611130426, -0.049396494507481736, 19.635167391025455, -0.002865763403104118, 0.04447424500137634, -0.054299468737118106, 15.064943149271308, -0.09683491770134227, 0.04254009021134558, -0.11427632702850651, 15.221300523471864, 15.000972396067183, -0.15767752914474864, -0.046830443022270046, 15.1585121027273, 15.170614706049182, -0.07964466508538896, 15.477042245703622, 15.300945610773269, -0.0483678678728927, 15.018536300638502, 15.171661355782998, 15.079197600973423, 0.06532767641080804, -0.11613027333066585, 15.012091407023398, 14.987096286711896, 15.264203390605616, 15.397055093120493, 17.18294686086564, 15.370103687811458, -0.12068105225002679, 15.343860113518161, 15.140742507521601, 15.21142550934438, 0.17612828002210765, 15.064366506497901, 15.340677697604079, 0.010333060758994355, 15.179621487560478, 15.33927300273767, 14.935609641076617, 15.264223275987508, 15.250102943915333, 18.38604903702079, 15.033258937969102, 15.117459002446537, 15.389098249562597, -0.09462502003295434, 0.10698886121537715, -0.1670913334456725, 0.1038012151848143, 15.02358373462485, 0.0052654856502303005, -0.09780363882883761, 15.237955877622195, 15.3112627147615, 0.05122373129305734, 15.359255138178199, 15.29502292872581, 15.227060534684636, 16.180037681872562, -0.16979143498873525], [15.14330928913689, 0.08819590473574423, -0.17658149258879738, 19.85067555155063, -0.033773802724559494, 0.01491262378932229, -0.05974730724350401, 15.107790572412625, 0.16468067877152867, 0.00010493146879320125, -0.00986176784126902, 15.170283512433478, 15.246039318487412, 0.10461385452471597, 0.015757479172199135, 15.19729576373393, 15.08163022959091, 0.0383473815074253, 15.339132345467831, 15.16530448568842, 0.08682520227751411, 14.995239114018197, 15.1566098867399, 15.300112908860221, 0.028784978973375237, 0.1114194408272516, 15.24199164077816, 15.087209677607778, 15.307987008646123, 15.355906648860845, 17.381311071672783, 15.380510422096972, -0.0629994566077639, 15.42388909764453, 15.110047250885891, 15.293446774416406, -0.090790631037297, 15.330634305627747, 15.040712857796354, -0.027063160015436925, 15.1483765504471, 15.432034655716734, 15.013474671329085, 15.312964139469429, 15.139897444828136, 18.417117245381817, 15.09252990780952, 15.028377349476248, 15.262317040207574, 0.022867201616765254, 0.00013738657968599132, -0.11698881904553782, -0.14986372294168337, 15.051055054243786, -0.14246100032475106, -0.08054765270053627, 15.173020262526002, 15.41067899237217, -0.05621369643840518, 15.29341146181753, 15.457656321425716, 15.092903942444508, 16.079542260331742, 0.051351751303871714], [14.760908754178281, -0.11627926316656999, -0.17443738246608215, 19.39700469063114, 0.03452397033718818, 0.0297833768662836, 0.107424274656265, 14.857165311235477, -0.1103478047289927, -0.1404731353869237, -0.14677761060308095, 14.827577520630808, 15.041783122276339, 0.10107304374416079, 0.03742862183614301, 14.968077442879924, 15.019291043408469, -0.1677713792768357, 15.123184525494441, 14.97817387842315, 0.08965141923931454, 14.578729057209195, 14.866692014137342, 14.73649389612094, -0.09276606352502988, -0.07978740371803861, 14.951243864747987, 14.657636569501989, 15.008156663243525, 14.937923716427509, 17.12896031319904, 15.108477364135833, 0.09577085938942068, 15.126576246942061, 14.743298126643747, 14.985178048614888, 0.025954998452585976, 15.011544459150805, 14.903195795940945, 0.11283831479077482, 14.825750517388219, 15.101465757805492, 14.794122876741625, 14.889299113342396, 14.891799829135344, 18.14416995499661, 14.890604562802306, 14.953358783051502, 14.893563005504127, -0.0020178171639042286, -0.06599710198493045, 0.15992298734697144, 0.16790730676737511, 14.846018306750626, 0.02380971057288822, -0.03306996923915462, 14.967700778243191, 15.095565280687143, -0.06192854561792817, 15.074279535723104, 15.13912837855726, 14.715607634078133, 15.660477068167413, -0.11075202253879929], [11.967705992422765, -0.13186182440691344, -0.14626719536599572, 14.457626528777105, -0.1776208262806867, -0.09846541580483419, -0.15338671911008148, 11.840216499871286, -0.10635806758558139, -0.0765524614288986, -0.12751476275659768, 12.01179021345105, 12.032970346403058, 0.09488770113544945, 0.06385631128140506, 12.152422025047148, 12.12881879373887, -0.09884040391774986, 11.919455042871647, 12.05933919746662, -0.0038033124365660096, 12.094849441399354, 12.09260062188713, 12.042076403866112, -0.05948750087833542, -0.14297842647315515, 12.1174479939861, 11.920790846959964, 12.082936629801651, 11.834162524857316, 13.103437915054403, 12.017222457227714, -0.03590998663926387, 11.875153465293277, 11.813506947651323, 12.08960376445117, 0.11566510659244791, 12.014533360318403, 12.049559706978911, 0.09409783771308702, 12.001028106997872, 11.958387050698398, 11.970498722016032, 11.801666702596485, 12.09827490858192, 13.561287293261707, 12.146419494507981, 11.811205771717788, 11.980612473624504, -0.16938953326540235, 0.0710109757416084, 0.050390944336041854, -0.1504578630277822, 12.257554830162555, 0.08891974015457807, -0.06775128735751369, 11.962963554853474, 11.8644102990074, -0.07141118074655356, 12.031050288184002, 11.907502736456333, 12.043838996931953, 12.556424587459077, -0.08654460328499522], [0.06402777290607325, -0.10034103675979456, 0.027882584879574845, 0.08394617589600342, 0.025785730869492596, -0.16940075501149574, -0.09644190680480007, -0.05165805409918192, -0.03421969123850471, 0.10715549195613969, 0.0924817378385612, 0.1534773785935429, -0.08391072805224434, 0.1490266948136256, 0.019090983183620014, 0.12794064847389838, -0.15663120455046944, 0.07872513042178611, 0.13777485368030654, -0.03442025974406493, -0.15490449325903535, -0.1733719794504809, -0.08684115068330883, 0.05322314127396224, -0.041952602624198254, -0.058080704076752504, 0.10033281549096226, 0.16138462654220723, 0.1538912030949093, 0.13959801906592714, 0.047556680157542, -0.044774142426009106, 0.16972357736100005, -0.025749145823514646, -0.11641264597461218, 0.06423860309155133, -0.044634442072469055, -0.15271161814256196, 0.1511206046627019, -0.09803913889476791, 0.12847588609233854, -0.14001668039764809, 0.094862863092014, 0.10014741541210762, -0.03917628924533928, 0.07695912956361042, -0.15079041261944304, 0.06317294145158256, 0.04429532208686554, -0.14690260012957204, -0.08135153439659637, 0.05988387220748417, 0.05342365557407874, 0.08789457015514132, 0.062439471258499274, 0.1527417030621355, 0.034397720267260234, -0.10263486488998373, 0.14833463410673467, 0.11408357797530841, 0.17617077446146287, 0.12441759489087759, -0.040111691453583675, 0.16036520710924848], [12.808604006802167, 0.05372066305950214, 0.012215160032668038, 15.719542098446396, 0.0702888926268406, 0.008211934666165148, 0.1526607721375491, 12.8697613593122, 0.11277224481965128, -0.07894500157265935, 0.019014933680396667, 12.583338787256931, 12.822748305729593, -0.07506284672025008, -0.12161081427064879, 12.646969774609722, 12.612703946336229, -0.06710793590368205, 12.81562653321295, 12.70378184493277, 0.03373299986153635, 12.728959677759349, 12.881354433357668, 12.684338352034409, 0.0552792159047686, 0.030599901233186157, 12.603592308565528, 12.823151387745707, 12.875778101964759, 12.73849536110355, 14.130996186861392, 12.598625317777714, 0.08758828754043999, 12.880601188099234, 12.622511511982658, 12.849197976057585, -0.00923723947398905, 12.910942840457881, 12.839113000318072, 0.016881742226494037, 12.809822206801552, 12.613791795110622, 12.828129499522174, 12.880532855999892, 12.778258920513917, 14.655881401721754, 12.651454890664915, 12.682206649852887, 12.855226397042543, -0.04947607575134788, 0.06244368367846832, -0.0023260439791994436, 0.17170982424316297, 12.724445116334604, -0.08932594693257065, -0.1208626705049054, 12.7330838953269, 12.609511127532997, -0.16599814535068078, 12.8271827893176, 12.69850922173072, 12.686523216954154, 13.461585218682167, 0.10158767672350856], [-0.1740477951236681, -0.11091694439157389, 0.1766321256422527, 0.0852975402196734, 0.06025853753481418, -0.05820884827866669, -0.011872014141272343, -0.08222457571992421, 0.07652385119573532, 0.0843002912629954, 0.07722173193439438, -0.04030991526165441, -0.09491600220511107, -0.004054225779267812, 0.10962151692557867, -0.12081230860117877, -0.12985390619072548, -0.07902180261958366, -0.011335003328281495, 0.10746986674481766, 0.10430673392078585, 0.031620888330683924, -0.13675919433960843, 0.15192045681135583, -0.15600272200233484, -0.15744564364809344, 0.023090782157882742, 0.1508649133464482, -0.1516558829668589, -0.0024858668089734266, 0.019030528539398853, -0.05699333593103596, -0.08827843467732616, -0.17295614077022708, 0.012168933998840973, 0.009058359960481942, -0.09934863339143533, -0.014680821999536072, 0.05753434481293353, 0.11684677428136671, 0.07758911339382608, -0.16106868845467268, 0.049553414699196496, -0.14912403415089745, -0.172726408395561, -0.002085046184155911, -0.125231764177605, -0.04697045783074563, -0.0821600546203037, -0.02167963453493199, -0.0017435163796845066, -0.09883001147276788, 0.07936781302204673, 0.048530341190968836, -0.15093199460512904, -0.01100889276959427, 0.010902243630002762, 0.17669947709514172, -0.07939700602953112, -0.07655139245730597, -0.02265414230086245, 0.08235213845210126, -0.12407937827290492, -0.08496271343290794], [-0.158800886984198, -0.1279427473945586, 0.1345906024054788, -0.03451719904426294, 0.08162649188422294, -0.10714046612052064, 0.08616527307792801, -0.022982539916476776, -0.04929858096909445, 0.13827128409561903, -0.10143505611051384, 0.07711945519521352, -0.11705276951996614, -0.02507155782938375, 0.01575321471792268, -0.04842182542256986, 0.07791401031982062, 0.03885642519721476, -0.10612695595731982, -0.07817229903837805, 0.0998737666312296, 0.027440649329694995, -0.07486797885394575, -0.03578121356083724, 0.005332178246776565, -0.16518951876772694, -0.09628669292150818, 0.08244889905632506, -0.06518025602648786, -0.045347787914788544, -0.09250966292318595, 0.10971115412531, -0.00479689887426224, 0.04628927870991879, 0.044601546852869316, -0.0013014660106988683, -0.1620918258471533, -0.1064894151193933, 0.016086306275953213, 0.035587139814383904, 0.0999890951186597, 0.07647744983282587, 0.17498158946341166, -0.10629778830433483, 0.10505462728175527, 0.12451730337501209, -0.04108214655023605, 0.07915556164884005, -0.07516146469211382, -0.11046353446164643, 0.14542140039502646, -0.056568094534348884, -0.12570455911656134, 0.1436445402466886, -0.03379143931422099, 0.059562369120253394, 0.1521649114565034, -0.005954824153466784, 2.7244817324568582e-05, 0.014493374830911536, -0.16249324045446797, -0.11738183494626928, 0.016971660956739163, -0.010871604021847864], [13.713305092491149, 0.08941466520308508, -0.10102645164002143, 17.310458217809003, 0.11455732863535646, 0.05089408095125552, -0.02725152551284146, 13.891223852036708, -0.05366500541614316, -0.1466685594025576, -0.06923749148558114, 13.845380029763787, 13.813829074453787, -0.1538361866671571, 0.016261443177498863, 13.70735681264143, 13.793157658554312, -0.16122276307530814, 13.944892841246803, 13.893166476636901, 0.1564290335390143, 13.83064801691892, 13.64427056032446, 13.69391355841316, -0.03931347825067727, 0.05768019475450449, 13.772952237111204, 13.64600418148934, 13.80288201235569, 13.94884364512639, 15.690653014402764, 13.781051331882635, -0.04385454912965189, 13.778913488721729, 13.915496987993661, 13.893873707960745, 0.09209802873310599, 13.921598963924408, 13.642200984862408, -0.0334107501062763, 13.862992300100162, 13.77291572707451, 13.717373930505177, 13.838769496103557, 13.623395250736516, 16.436639708847945, 13.609391479665755, 13.862976960931773, 13.971458684752369, 0.020850937785956536, -0.05033168247340922, -0.12559850506324668, -0.121348653418009, 13.798337616117058, 0.0057920181164952955, 0.1004328110114441, 13.600793692928411, 13.804507022989357, 0.0096538435628046, 13.746087204501864, 13.990199356288928, 13.670833396274967, 14.478049681859515, 0.047360423266406555], [-0.15855985279354454, -0.08992897494263787, -0.07346639317797403, 0.017122565928200027, 0.02377239961972276, -0.008555247027527524, -0.08004979997479526, -0.1254368098988527, 0.12493134543195614, 0.1541505946589706, 0.011926258349648777, -0.09942178096158925, 0.12336773039837956, -0.07991111202507417, -0.057069918537029724, -0.0474524495947971, -0.1365826005208999, 0.1611297338180868, -0.09393097258108277, 0.0749010888017383, 0.0802727412742392, -0.10752487985606649, 0.04775371643473271, -0.06745751145946195, 0.054978787380662544, -0.09964905565971273, 0.09412686255024379, 0.09310212629862864, 0.09270379886124062, -0.060088550011262815, 0.004521730102848302, -0.10169979599037639, -0.11195338018028421, -0.16792255586580926, -0.06625669295797582, -0.004041502318643633, 0.0029900221506944658, 0.11574322547946296, -0.0858925218775789, 0.03530737629295614, -0.11028232238262616, 0.124886924307849, 0.10715724672116257, -0.0029537896509077254, -0.05281993783051653, 0.041368186714201685, -0.10045253595229783, 0.012375953604336739, -0.09814343056894029, -0.09880917130977272, 0.1286952388776666, 0.04109015211570585, 0.0173191948119627, -0.08746368923955457, -0.09484662120224412, -0.010816581144760806, 0.06751869369587427, 0.17118311602362088, 0.07195036669725212, -0.15528249330324992, -0.016979304775849486, -0.059376806207264404, 0.06011915805380877, -0.08656823159162266], [0.060528627738661356, -0.14315014981616558, 0.0067279346445758, -0.15984911306124286, 0.15213507254744765, 0.09967691230636651, -0.05440612282884817, 0.10125893890845365, 0.10095566910194989, 0.043458588440742074, -0.08311356194932684, -0.09288129265344709, 0.028388688194714188, 0.05365966650902637, 0.16009382772404682, -0.13060363570775463, -0.09289499674060499, 0.09922954693016674, -0.0034707067990963317, 0.12135895602477671, 0.15183564495222915, -0.0467084018707305, 0.02785547372695237, 0.1240524325842067, -0.039233369945915086, 0.035663518859548764, -0.16364250548484272, 0.04149364266056123, 0.09028673757819798, 0.019756567818812385, 0.10975736969611191, -0.1747827396346032, 0.041062511754357184, -0.07986258053774042, -0.14840559516424606, 0.12038244137975522, -0.0524650132520116, -0.06226037978644117, 0.15057518286818056, -0.13907827612152757, 0.03198342901971864, -0.1648056053543534, -0.00614065198285184, 0.038644574227371456, 0.09367119158040532, -0.04545403509233449, -0.034036407061672394, -0.06977934128357266, -0.158356207739355, 0.1728725712357493, -0.15512894911028702, -0.13834617169755306, 0.1470780861459626, -0.01675529339609547, -0.11707227410266371, 0.050029152463203025, -0.14072437490265644, -0.13463145660943304, -0.005014252114028857, 0.08917579818658197, -0.07953668671392616, -0.14074801049546398, -0.09690684078950809, 0.1495322040367271], [0.0026332875886710683, -0.003052054203904586, 0.13281331846959013, 0.1347698635181647, 0.09263080142801164, -0.09179352220201123, -0.036783704034156456, 0.0411408716581082, -0.054031083013656805, -0.0013762764534575589, -0.03394227492923857, 0.1383482202453051, 0.01700726464106056, 0.0808692230594826, 0.1209710114419614, 0.14151024526944353, 0.15486573606239454, 0.08921071747558576, 0.17166845746041462, -0.14992352862112915, 0.1462130852072758, -0.08760133973083911, -9.447123167857785e-05, 0.12396311623611414, 0.01931702898973134, 0.05622936267790782, -0.02200132019343881, 0.05089701225620777, -0.1730131802687659, 0.11809910733810788, 0.1733372889351076, -0.11403043437815788, 0.053162167513849196, -0.07433141504389103, -0.09208813461693978, -0.16072336877958146, 0.13606778466093464, 0.0686814393144018, 0.055229807098889694, -0.02772605839997233, -0.15401893321945592, -0.05382615876286942, 0.13504128410501567, -0.09977665586310343, 0.13598329827194475, 0.03908101765800065, 0.15652233718960154, -0.0412267586774788, 0.03722000932038297, -0.06371387919813327, -0.03756798379602069, -0.054935970361358125, -0.07455418252413347, -0.03996587409324001, 0.01937027977290512, -0.06839227911969482, 0.03383227960724339, 0.1732851024053844, 0.10859198295372999, 0.05025740825834679, 0.14394128068870257, 0.1392645965872308, -0.12896936475488768, -0.12042549805043191], [-0.07905802011571433, -0.01586008840715694, -0.1132177501777159, -0.01592445310557733, 0.024312047154586264, -0.12191414659026029, 0.03126990169763316, -0.07126721187454439, 0.007411777488251531, -0.028896846871738102, -0.10583525210255505, -0.14033194941866667, -0.05309289045650181, -0.1356701322983606, 0.17121536090643838, 0.1005325182592903, 0.12780967828378484, -0.13886652593684928, 0.1640819827536256, 0.16283929459363664, -0.14248256482353208, -0.057255541007888475, 0.08330188834105176, 0.007494133513100187, 0.07787855074440284, 0.16855652106707905, 0.12612793308305606, 0.12020575442721212, -0.160216663550846, -0.14871632004897142, 0.08218656978099462, -0.0100113939127153, 0.16036065084589393, 0.022369758142251506, -0.1446601393068349, -0.06599198904088625, -0.027169279553732884, -0.05484660939388328, 0.03889808832387057, -0.07957705912620894, 0.0023977971541218057, 0.17287971551788098, 0.025419929452016182, -0.042162157388660276, -0.03486479626993991, -0.04993220071658758, 0.13091749454873172, 0.04366335404559063, 0.1345846415568985, 0.13673590451552473, -0.04854408261749396, -0.08310395975462978, 0.002900459026584229, 0.058412880186270166, 0.025537580528490506, 0.009165894375348288, -0.12845800543798913, -0.1432287481613334, -0.05868207601097436, 0.05041306560704992, 0.12708630481365588, -0.0514731025164705, 0.17294289818121836, -0.14164165726585964], [-0.06695541240352493, 0.03084440241355027, 0.00391533743326325, -0.08440653597018186, 0.008560744275594168, -0.15473472844409983, -0.12552299172751671, -0.17312405333416458, -0.06906650592589929, 0.04865863568827464, -0.08970547655039807, -0.012352277483873075, 0.08465975551156393, 0.044472041797997935, -0.09116533765470501, -0.046124707970142426, 0.10973317731542934, 0.1008256138467006, 0.03435063379986705, -0.14596811487058953, 0.04277763711490892, 0.04903497825328057, 0.013513933280072304, -0.16993478407591525, 0.07345157154094492, -0.1613617205455511, 0.1657998675824688, -0.011957332412805055, 0.09306438755549593, -0.03605672772886323, 0.05520266727679338, -0.014628663547763265, 0.07088609615045377, -0.10811668175373897, 0.1670274410075703, 0.0024381994290754994, 0.06168785263959306, -0.1056796220047322, -0.10731028933104843, 0.12197178261064792, -0.13804250329590856, 0.09380133199547389, 0.1706974011231356, -0.17606590236768446, 0.12896199171965936, -0.07256616088030934, -0.08209075244654052, 0.11149057482683503, 0.10632245572948537, 0.12580443766045282, 0.09471749481769928, -0.10751323763547926, 0.1142245748174884, 0.01965404022076675, 0.14896345499705574, -0.03436172681540195, 0.09694998742469366, 0.0514990341768925, 0.08645833809428363, 0.12247003243908852, -0.11286011667648613, -0.048837208468712756, -0.019094130593966002, -0.13374081589892872], [-0.11472576005736307, 0.03418361824598112, 0.1349389458700008, -0.154110763620397, 0.09896521987594441, 0.1388955303680002, -0.10183732280145029, 0.05013422987567669, 0.10014232977671653, 0.07048882437746473, 0.16606898113754107, -0.10899334929742058, 0.041754993722044165, 0.03918977565611714, -0.02794272820772528, -0.11916635024890448, 0.12769762996452602, -0.13673767977505286, -0.1586058943557075, -0.06331440047733727, 0.05959209222127081, 0.15123126580738117, 0.16425205502279971, -0.03125382243754203, 0.04928517750088257, 0.039338211295808334, 0.0032698996794854203, 0.09453209934435218, -0.09271536452566499, 0.012937090649123007, -0.1758176534258668, 0.0934299767871165, 0.03335536743536879, -0.03189404143165007, 0.025489536717256907, 0.0695819849125726, -0.06264293098039359, -0.11734598995209158, 0.16945912936202268, 0.08636190791244218, 0.11332831540728146, 0.007754428468256917, -0.11879958602219844, -0.02275156597747166, -0.13277702197483826, -0.01809925778342786, 0.01600070079861885, -0.11371191427759754, 0.15508583768870685, -0.16503619091307806, -0.1479079042359474, -0.09424288190679511, -0.045868155752621514, 0.17394871811770968, -0.07226013837740496, 0.13589974387831635, -0.010494737259137242, 0.08077347549019162, -0.06407411064225416, -0.11161901826313157, -0.09683776703807612, 0.10250842200397095, 0.09087817833233364, -0.041531532184157144], [0.1693371187126271, 0.14815598655844267, -0.04411006664464681, 0.15059691352080892, 0.134150466634518, 0.08432141958963221, -0.11050982094280373, 0.06594836458278006, -0.13054431386969334, -0.16934346472902495, 0.057346064112090867, -0.10414532386696117, -0.1641753375813989, 0.04198879183620702, 0.05986363579192522, 0.0007068389732057534, -0.10242174263593021, 0.07112947005930076, 0.014049958098294707, -0.1271059538182198, -0.16560198211338045, -0.043225258861915056, 0.08019741481862322, 0.03858284451981919, 0.012191388888700222, -0.012966833464584243, -0.13676631012939924, -0.06193791146818722, -0.05460100874907545, 0.055836397668988985, 0.13868150836603163, -0.06282743612264598, -0.03316394726822913, 0.03176784504283686, -0.10027577819553174, -0.1366502113102041, 0.12011535758723371, -0.06875510641229918, -0.07081949070468038, -0.004176165157878942, 0.12830523350545706, 0.1518851613781527, -0.02403087589980943, 0.0893915957427733, 0.17013554374188541, 0.05652186451520061, 0.12041990415083662, 0.08032362443090998, -0.13869077946210043, 0.05434302819840217, 0.06890703100227263, 0.10131366607315764, -0.06721929907544345, 0.02744825774632595, -0.040688317434686094, -0.11668757599895213, 0.08760643408951721, -0.09111394772916408, 0.06817621104843191, 0.13605786854652466, -0.06310733088387815, -0.07272149381852064, 0.0552957959245573, 0.13170303019051446], [13.825293855213623, -0.01743575151533843, -0.09384886531200577, 17.340021595808448, 0.11459083339745789, -0.08937251573647928, 0.090484127255861, 13.95573616440004, 0.12075827020243593, -0.05981370463428065, -0.0047713267588887776, 13.979753263439175, 13.926696851070478, -0.12646807622974524, -0.1735139019171492, 13.741814522847665, 14.028708930895466, 0.11583536691293943, 14.047172791424636, 13.99846028098639, -0.08881203308043176, 13.860996083697433, 13.822406192375812, 13.721566585756069, -0.03905855073761066, -0.036129027831375074, 13.863456210261802, 13.845726050640415, 13.996419781593548, 13.854044743195725, 15.627810689943374, 13.847642111123747, 0.13407821162435843, 13.813856505479066, 13.958363169661919, 13.928502584782535, 0.10437846246950824, 13.936588712629302, 13.71329812154988, -0.16651325332023117, 13.824639283957591, 14.089106494263842, 13.715226383963756, 13.960717656075651, 14.023217802740707, 16.315810673503083, 13.77319042536963, 13.950569963480962, 13.948858183847943, -0.10139925531093157, -0.08158370435907136, -0.1576089850552896, -0.002986020055996186, 14.02049847465533, 0.1692385115564701, -0.08559793784162095, 13.842780471538592, 13.861301221725547, 0.12004718167464297, 13.853362600246072, 13.992652651358295, 14.02371196834644, 14.747162336250945, 0.1597617369591351], [13.08486297432689, -0.16039156015649436, -0.010784587452222827, 16.117301133274662, -0.030225272893288545, 0.1633835959518265, -0.14710319039658412, 13.17024211049061, 0.034875125954482555, 0.16151021696637155, 0.016934995384557228, 13.157777273724745, 13.224526103471861, -0.15840769212900538, 0.049959197156525054, 13.01381872563566, 13.124669446964345, 0.13924914450622008, 13.114809798335111, 12.946521023735828, -0.09516305721920175, 13.185747667213013, 13.067685643419532, 12.98808640676472, -0.14886653623437837, -0.0904069856628601, 12.95300622517472, 13.149602990957161, 13.198959280069813, 13.048283886250031, 14.648596564969898, 13.03672690209151, -0.16893088805954518, 13.29412272905258, 13.254317010079982, 13.115760803894668, -0.038496613090580445, 13.077350645305481, 13.16483813156331, -0.1184613444856262, 13.237575613140278, 13.140201629719014, 13.050456034272221, 13.235147544710886, 13.104234161203474, 15.347589544388649, 13.173759202923373, 13.123715787333284, 13.021330851774396, -0.08960687050326559, 0.1543381687280636, 0.15979969420761006, 0.06198494382831918, 13.099697391344469, -0.13163408623839962, 0.16548340256705904, 13.24473312075292, 13.17491954544064, 0.025536467143289266, 13.02800299274483, 13.2123291418353, 13.119574463467197, 13.567937739164362, -0.08015852391214788], [0.012539275936935022, 0.09001956385845658, -0.029016200076405596, -0.14196130175047691, -0.16956704361270103, 0.046230011527502224, -0.15020492999128088, -0.13999173595715547, 0.14741288455069615, 0.09362682232998173, -0.15002750426699502, -0.1298702208489339, 0.1733071717796969, 0.11552234900360256, 0.09527876580782194, 0.07389698438021834, -0.09882344874709353, -0.10012496507959397, -0.07512594611925172, -0.05811324612088917, 0.08175644734940954, -0.0965459002695757, -0.16126130244770134, -0.1628229905423111, 0.09589507947604006, 0.0017906214720607438, -0.16056951560079416, 0.1267243026072487, -0.10830250037538544, 0.1145739890707319, 0.145874519691308, 0.139090673788974, 0.06418907038279556, -0.12158759865504701, 0.04807779408343325, 0.0642451720822002, -0.04033986954725219, 0.14600640211086435, -0.042027906185973504, 0.03182916370599573, -0.09600811139973851, -0.11689837132837884, -0.055332790654539346, 0.15355570130344465, -0.053459525782473816, 0.022382967295163505, -0.11620941729247962, -0.04291165080953484, 0.15377780019411696, 0.025780025435126724, 0.13799320605267237, 0.15840289421932705, -0.09159566938166584, -0.09063696234454739, 0.08996282675415004, 0.029057159092935214, -0.060893980680114757, 0.00414127554189095, -0.04243455163008969, 0.07950283548984848, 0.06846441417030001, -0.039147598574177614, 0.14394826010763817, -0.07707987985119985], [0.11054791487603069, -0.10088947555873737, -0.09407604337319195, 0.1273961049149663, -0.0646197313257076, 0.008832953174152752, 0.14849578752052003, -0.06858010147871717, 0.12502475046630682, 0.005729791141193069, -0.14543427870078568, -0.11441062487248554, -0.10166276040489569, 0.03992971690704927, 0.1599339974433062, -0.029299585197721356, -0.024843159397881814, 0.09965483531474725, -0.08996745417872665, -0.1523959101109553, -0.06833418348751019, 0.04300944573146656, -0.09118719808901977, 0.15335999607341752, -0.021250353913848413, -0.16025602709251405, 0.1280162183360418, 0.023587641216328586, -0.15792723342984094, -0.14294900341022437, -0.08315180831326542, 0.04125950109352566, 0.04550463532167817, 0.06325481746308004, -0.008187161641622726, 0.12847570100479414, -0.025707421119686047, -0.07630869023468849, 0.12774566326730027, -0.022525621445317695, -0.1658049830848854, 0.0004830783469227107, -0.09463650108875742, 0.050987970074348105, -0.10759837505916446, -0.1271651407622508, -0.15144153061214444, 0.05257297653935289, 0.05324288876646502, -0.11199986657000317, -0.1479430174126571, -0.13926892965188065, 0.08183585730882811, 0.11913823629727519, -0.12306129122884679, -0.09250747492825936, -0.003445006458365374, -0.14866279086584688, -0.028057880232136928, 0.15043770241963886, 0.021132819344405418, -0.1370267163156289, -0.04052159203283248, 0.0895950684570376], [11.683408787652045, -0.08594239922735258, 0.05905902487426806, 13.83936400176098, -0.16397095825532848, -0.06996888736254853, 0.01779803305955604, 11.824215301467337, -0.17110224231260146, 0.06426998905126088, -0.05704508611798027, 11.769751510979319, 11.983708162081246, -0.018627683266136896, -0.09162868712483649, 11.746235575267782, 11.914366775670736, -0.003133103966547031, 11.92851817387546, 11.798151578462463, 0.0930614932156144, 11.890651849128535, 11.726082514952608, 11.979197670845103, 0.10328650556699313, -0.03547546157778492, 11.954752582872207, 11.889096047466538, 11.990585708465858, 11.932606924952278, 12.756778522455367, 11.69534041052448, 0.10478510611322253, 11.702281281367313, 11.818185097537178, 11.773116491655554, 0.1027903928054911, 11.808119558659708, 11.838553693245657, -0.1207107927356175, 11.97344894118461, 11.712401034527801, 12.006258707942802, 12.022612721908, 11.846860327441615, 13.141989811517899, 11.73573067194388, 11.71662142341495, 11.856054162539298, -0.10534320660550138, -0.009209937339431646, -0.004214188834348487, -0.02685026918273742, 11.969471647873906, 0.16708106639112144, -0.1287979701616105, 11.92157911717053, 12.006578158021288, 0.06172947859721888, 11.809625344974194, 11.701618795369189, 11.815281565188151, 12.438140974475957, -0.13031155881022047], [17.91662050794359, 0.0642138307670888, 0.11804392008666395, 20.70138513574046, 0.016053067922766253, 0.01396664269493067, 0.0966051727447882, 17.863561799979294, 0.11579085960714389, 0.05440983418151854, 0.13980799472782943, 18.010456982826426, 17.79292272818317, 0.1466087857171108, -0.12197053867488211, 18.03366696788232, 18.0597993190403, 0.13769315806660792, 17.863624151139845, 18.07379356820175, -0.01887255008671466, 18.759187643400658, 17.989596867759886, 18.041328186466444, -0.0297265102398788, 0.012613040611888476, 17.91052369452168, 17.996604483645953, 17.796542195858954, 17.878245437775085, 18.160682305786572, 17.84531645169603, 0.09644058799269636, 17.84684014868475, 18.08793637230761, 18.048004958128438, -0.0020173110110601744, 18.0593342683917, 17.81226598354047, -0.11819143402888274, 18.179238471082996, 17.910712034708588, 17.970498812613698, 17.88637825000965, 17.80988540612988, 18.138729365127745, 18.034501228611205, 18.04432376701648, 17.998688868767893, 0.15883135160393128, -0.03748905031023523, -0.15120370155029447, 0.12850236237842924, 18.795229043964234, 0.10574217519118542, -0.16093138238531063, 17.93426264907351, 17.886329377651123, 0.10678807661218934, 17.974992812795158, 17.961039442294144, 17.993264155424413, 18.541676527762228, 0.09010666416408955], [15.16068967744689, 0.08940181120349767, -0.15070046007750704, 19.68524271439759, 0.12000292992297718, 0.013350712150917892, 0.038732850548796646, 15.16859287015377, -0.11507117578174048, -0.14137690314130358, 0.06976733316197756, 15.028761726103415, 14.917706219561527, -0.13084783664127092, -0.10243108993267076, 15.15125392963769, 15.184421401469642, -0.1218314624434558, 15.340623933893298, 14.949259571487794, -0.014224932762261088, 14.72288158362467, 15.15430188429385, 15.124837754121046, -0.13451152911175127, 0.04311465601214166, 15.108372254251119, 15.002509627282183, 15.298536554469763, 15.053050716427201, 17.25132165102925, 15.191192848736012, 0.07640373645419499, 15.157213827347153, 15.071197754976101, 15.27373030813433, -0.017398161376041332, 15.051792260452089, 15.237678652192258, 0.05488191028695248, 15.053956191726453, 15.270904922115253, 14.895576724494308, 15.06709396594956, 15.024659593846827, 18.36362066784666, 14.880415388297347, 15.135746590637858, 15.098790031070276, 0.08078180986495573, -0.1771344966968395, -0.1337475097837476, -0.04948151277708554, 15.028047479420177, -0.03376139069784484, -0.09632176713794652, 14.908564337243554, 15.327325911206614, -0.17413037487229335, 15.301265473626483, 15.218011123124484, 15.17558836104229, 16.091239582798327, -0.1499214008630343], [16.945669203793965, 0.1048036062597126, -0.17425574798774915, 21.01636763311244, -0.021304517117724128, 0.10868128034299494, -0.028884911616750594, 17.017672869126397, -0.05828047043688281, -0.07658792461864222, -0.0018733880070253839, 16.873657244961432, 16.97623024313285, -0.12345224565993225, 0.08046535800206614, 16.937084621964605, 16.828428091325033, 0.06540488818815203, 16.818745038003453, 16.849440490459106, -0.05390678448082387, 17.707380153425238, 17.094902986896, 17.036650437561274, -0.0857317838499546, 0.03349347699864145, 17.087200531530033, 16.971283003864837, 16.76169194297076, 16.906604290095043, 17.967166080833888, 16.900189807199443, -0.1430923387837334, 16.99296143329084, 17.130837075392034, 16.82727492636612, 0.044972830317293544, 16.955585742103924, 17.047386092541107, 0.16188780895219754, 17.064332431389726, 17.04131065449226, 16.863441180733684, 16.944202541603612, 16.835011188513516, 18.721143161406918, 17.05499797942193, 16.81371277536081, 17.00144321287438, 0.04596123905151081, 0.016831746101468825, 0.006596594737099587, -0.003255032863161339, 17.576858765845667, 0.03752763990627009, -0.09003883421283025, 17.182458465884093, 17.044127286756204, -0.15192041363004188, 16.780669081386673, 16.963920331607415, 16.772028566555807, 18.353054777847245, 0.09107749201150704], [0.0025552850364604085, 0.003611153495660019, -0.1323888221930487, -0.17562911320898805, -0.14584779354587696, 0.07527071198229032, 0.052352695313805875, 0.02851411073686319, 0.09925429569635855, -0.04359526243456269, -0.13354510646999804, -0.03746964456277141, -0.010599737031849271, -0.015748385362019945, 0.08380543656482378, -0.04249234516264841, 0.13464172759739737, 0.030465760815276854, -0.014871669989501873, -0.09104313613556125, 0.05984991058743727, -0.08406617206740157, 0.03293300416749215, 0.06724688994852396, -0.14760225804818483, 0.09800437721379421, -0.03267390721876384, -0.10388645404443343, -0.06522807239077627, 0.0019034131499059137, -0.1542856321890754, 0.13457991084854473, -0.062075419315737845, -0.010778090369485599, 0.11642765971700711, -0.10512689739391914, -0.12057217900770856, 0.1483663133517549, 0.093266219311858, 0.07341751539046334, -0.0796005096224496, -0.16761670006496426, 0.17043215583398333, 0.034006851743206695, 0.014601267824909087, 0.033892003992265024, 0.05281468757282906, 0.12263966025792325, 0.12324073339280164, 0.17668781058766744, -0.04608135563785698, -0.10468173649837037, -0.05854111217171194, -0.0051481869255200485, 0.06544946721369962, -0.11436547010801157, -0.1584184342520929, -0.04391516606061033, 0.0796937824379085, 0.12329124483755818, -0.14304611612297316, -0.17263502445211837, 0.11803226978277129, -0.05900033639729234], [14.700334473564576, 0.17201313138310717, 0.10796327137407483, 18.143119873678817, -0.11627769850797473, -0.13291461900613866, -0.005627012134208148, 14.540524516228247, 0.09194199669381362, -0.04244183882777269, -0.16736531367114973, 14.806969876664963, 14.684333429745168, -0.0522310163798152, -0.031000622809100986, 14.739461157649666, 14.54127764505724, -0.0691647609929136, 14.745183211993643, 14.598043263605772, 0.025351506536905242, 14.938616096185635, 14.56472659764672, 14.746370560242015, -0.10349729751076495, -0.02464847101825333, 14.531448597837668, 14.74728589198458, 14.691517937447111, 14.753931382786428, 15.75644224327077, 14.57801198365125, 0.05058493156899782, 14.829326101598367, 14.521826809334266, 14.575644067605628, -0.0074440983126717875, 14.808102768904122, 14.571140190375091, -0.13600081917087864, 14.99924795230906, 14.773834155160758, 14.87420107077366, 14.811739590101334, 14.792803820332308, 16.344494387211032, 14.742239953872469, 14.778564955241022, 14.533030935982362, -0.060215340929759956, 0.17125223631768563, 0.026568287680175662, -0.013957445609857344, 15.129216399897713, -0.07296608481484086, -0.07937702768719627, 14.872201337837216, 14.629678600024414, 0.06965705289096054, 14.80103773130329, 14.593345093507304, 14.499397646348255, 15.734896302293427, 0.1714148754591182], [14.136954211249902, -0.006055769239180948, -0.04237293207372958, 17.893054394860858, -0.1267116268005623, -0.10390069729243338, 0.11683689600819358, 13.943104451311472, -0.11451116085058491, -0.13501170335188478, 0.116501095936382, 14.299003786862203, 14.246538876315155, -0.10837434788890979, -0.006673392053637706, 13.998076726188435, 14.16503439307038, 0.0765695164674139, 14.306855644582567, 14.254852567530312, 0.05564468477542084, 13.962140441519194, 13.996722368949003, 14.019115931492825, -0.13897031360687317, 0.016286416429337716, 14.241965813196979, 13.918050999113484, 14.228108193259361, 14.3137965361085, 16.181481701011673, 14.25110528620821, 0.02538707541921839, 14.333459547136018, 14.123067620949223, 14.120807970406743, 0.1501977236419151, 14.078381858565953, 14.183280016609904, -0.0053593847657991455, 14.27447641797624, 14.367116779864615, 14.028342407878748, 14.264252620017812, 14.007826460236595, 16.970242628147258, 14.099510761592265, 14.133784868785161, 14.335576467858248, -0.014794601203834662, 0.06829352691751564, 0.10924037877836698, 0.17421662817954722, 14.141913864926464, 0.09499754216593578, 0.05045845668110652, 14.014983912723883, 14.211299363385, 0.103650844353077, 14.153414567153783, 14.332105233136117, 14.00879363683171, 14.917132469118625, 0.04299233176091356], [3.5146745515148887, 0.02367042770483882, 0.004646706943284895, 3.5718668409831307, -0.10727063783774682, -0.10780432223985367, -0.13660447194138314, 3.6686520862987746, -0.07755882340780469, 0.12424819381272637, -0.027091743176726246, 3.5981401996642073, 3.661595043404611, 0.04667331379990328, 0.17583013067006945, 3.5718122684805365, 3.7405850575834267, -0.09458696786410616, 3.5399313320442034, 3.6070061553028316, -0.05239622787165441, 3.5247876642625786, 3.834659999058976, 3.7587096943083043, -0.04314147667419352, 0.06607820892474146, 3.7727689115453225, 3.615548347419464, 3.7684208542405204, 3.7543718952056824, 3.598218192918964, 3.8151049361795972, -0.07917897388442756, 3.6277408379108214, 3.5841463329437437, 3.752200786658855, -0.05719800048600687, 3.839381134065443, 3.7043891229930437, -0.1656532035348932, 3.49954079607812, 3.750733043160839, 3.701871366714203, 3.701537028452631, 3.561847142746919, 3.6914028578724296, 3.617623106325311, 3.5659707493662416, 3.5938404201936147, 0.10782423387662846, -0.13093742774213604, -0.08584422038819538, -0.1378815404306482, 3.5380745552884414, 0.133678196604291, 0.13957992422063462, 3.664466142675527, 3.6006380473360227, 0.04536593038460369, 3.741333815350855, 3.520550631504928, 3.829057251339871, 3.745521036327798, -0.033679537639369816], [0.06325593858675191, -0.04455101388686411, 0.04063767317355654, -0.08027662628842243, -0.17389273038436512, -0.1345520742694915, 0.0774274296297883, -0.03327097014827046, -0.008066837982127095, -0.10472160906032092, 0.004839680172328803, -0.08833091168543472, 0.15170839990836418, 0.04054206300450891, -0.07661516066656927, 0.11354698282345052, -0.049283707902382096, 0.1254334841665408, 0.07815279702536906, 0.03402531498311276, 0.0762055987447802, 0.04645329968022194, -0.08672959451099857, 0.14527641229150642, -0.11883513844411098, 0.16187085988675295, -0.10928326208575344, -0.08225506109338088, 0.13909485543399233, -0.10539254468446689, 0.11657478886701886, -0.023725910995156085, -0.08443115974574895, 0.10781001562883177, -0.07190517671210091, -0.06386554616895496, -0.09339110151426042, 0.12114834262007038, 0.07225852164021618, 0.03366107491767903, -0.052742694027902076, -0.1091553650578657, 0.14517609875035978, 0.06698316900360654, -0.07106112358896388, -0.03111710435993073, 0.029693016563063446, 0.00437643252420461, 0.08778873986567773, -0.07153140698681326, 0.14142313230316242, 0.10977912227668882, -0.16375203298206387, -0.019003080908240294, -0.11888425051469279, 0.048012591930808146, 0.056330497982868294, -0.1459506062379543, -0.04924063012391161, 0.0233832656543512, 0.06008475897033222, -0.1396256150093051, 0.05178616890298551, 0.06675282176878108], [12.28986055831233, 0.04432015022449376, -0.046791349940638854, 14.67855243209626, -0.026453311775216377, -0.12839485286037758, 0.09254482861323632, 12.195498313222945, -0.12586776990421875, -0.05612539793162846, -0.020832180049817905, 12.333623041411776, 12.287633930029834, 0.15509378922231734, 0.14766007754219687, 12.235594817909163, 12.025092869046372, -0.039695810727243715, 12.134232291443176, 12.117654325307196, -0.031209056139041482, 12.220536414119483, 12.365531940086967, 12.30616825398598, 0.051249999065522786, 0.07209965261241397, 12.257763900031065, 12.298424065687481, 12.349340547001656, 12.153169429348484, 13.513643161914995, 12.301835597029193, -0.04194263341404694, 12.361166033136499, 12.253661814043522, 12.050051907086424, 0.041364722381334235, 12.137211394362545, 12.333482908149701, -0.06902653203117855, 12.17176485073843, 12.056717662159478, 12.232947016764381, 12.058050825261255, 12.105628861188368, 13.92522252025131, 12.095580427721035, 12.328970315779738, 12.111558059511982, -0.1226643892409318, 0.09054070505668282, -0.04757506542178927, -0.15638516330885863, 12.297804901646547, -0.14753456040513926, -0.0411034219411959, 12.336376284408992, 12.305903473446438, -0.015864629958185644, 12.288835820530704, 12.074333456072946, 12.187118361415038, 12.66484903457356, -0.0018716935945458047], [13.668979481933897, -0.11126500969676388, 0.1757139756635225, 17.14825706341846, 0.06640415714663345, -0.1565584220816808, -0.11306247747784165, 13.789450911535925, 0.1490583767509198, -0.04678114041334222, 0.06017523964863686, 13.493379370866256, 13.771851633081004, -0.10992659084802499, -0.12156105969852171, 13.58684503788024, 13.681294240983421, -0.18144755719639952, 13.72183199907525, 13.567221970091248, 0.13855121949853133, 13.442490628889205, 13.66471519133952, 13.554569995208999, -0.16327348922639218, -0.012368720044469617, 13.728458878122519, 13.410889571964296, 13.689734725648345, 13.843731636381525, 15.353998666413053, 13.652487345463635, -0.12498722418266414, 13.543612145644667, 13.475576310140726, 13.636195612676781, -0.10212929414751944, 13.80944010174038, 13.560310329176916, -0.09480391712740793, 13.740194789305155, 13.731847094203724, 13.720678941416582, 13.80978696566803, 13.652275981293458, 16.19701508353103, 13.454031178281225, 13.515021900910794, 13.828111000197074, -0.14532660417595958, -0.06784942107999674, 0.0034518238123028566, -0.11591084013672233, 13.64696449565806, 0.03772418067259456, -0.03292107740757272, 13.464454696262058, 13.715491322860101, -0.17752931242756273, 13.700352976457348, 13.61730441264608, 13.605201160504917, 14.445681515071906, -0.08096939909866539], [-0.07321532449589423, 0.11660443613348684, -0.10883108003012738, 0.16647237700744486, -0.104996085383914, 0.08038399340461458, -0.06702048962802523, 0.05568716105284929, 0.06598863681353806, -0.1300061497849078, 0.02294090379552549, 0.13027439046366293, 0.030648422187109198, -0.08557512867055657, -0.030643813023292138, 0.09757872422594685, -0.15667456973846805, -0.043520530308351596, 0.13412683143114676, -0.10150794437898242, 0.01761766750795088, -0.1586581453975405, 0.034306693964931995, 0.09604494825818058, -0.03802048956233864, 0.009217678475070656, -0.03883240634055668, 0.12386183290796585, -0.14271665508949197, 0.0740921226047305, -0.135376166652956, -0.025189574230941453, 0.13408192373315583, -0.12890200471023924, -0.11525025118007948, 0.16817808028308465, 0.15542733757778301, 0.15894522150235238, 0.13634910610424825, -0.10307426649275302, -0.025140847616100304, -0.15778718794345983, 0.17299015975252427, 0.05197706232911764, -0.12792451439676505, -0.10976079174532646, -0.15463843102945546, -0.10755102014678684, -0.16759587669592058, -0.05488169563991449, 0.164299475359286, 0.14848943967275433, -0.01190151668415998, 0.06547180171462189, -0.10797491667562233, -0.025314686851840823, -0.10771619313322268, -0.08537446899987008, 0.07776770256042595, -0.17268542730941377, -0.09466721007103408, -0.038451895873574865, -0.1240917494037398, -0.11738848165902761], [13.471141037134998, -0.0019459764646790987, -0.029797568825155746, 16.674283366631578, 0.1548983502441096, -0.13291642670598205, 0.030922075318933765, 13.325276057872038, -0.10174160764751412, -0.1488623798170647, 0.11619022380997787, 13.203960764023677, 13.288803416004267, 0.06852005058849939, -0.13526151958369748, 13.391241398714406, 13.235489670073942, -0.16003099903323598, 13.374888627468625, 13.25217877520943, 0.1644177484362578, 13.2888170595043, 13.337633443351091, 13.481754216062566, -0.12362117738112965, -0.06907575487451595, 13.238735995174785, 13.225861099961012, 13.389291941122146, 13.377426403885579, 15.019055470599888, 13.27863478001468, -0.15664479072615625, 13.531477056724935, 13.459412368087936, 13.220411325993506, 0.1046062099116856, 13.389228053690069, 13.337934595926743, 0.10035855639448621, 13.391603361754644, 13.531961930554012, 13.455015595538494, 13.535095027675151, 13.27441904248602, 15.489657282968608, 13.37185821700663, 13.361709408153867, 13.453830494237895, -0.01030417695550509, -0.10921648268077667, -0.049876663239428604, 0.02620922802544659, 13.43843545894497, 0.008080755325491601, 0.06524383197332714, 13.226176755629243, 13.41799895356382, 0.1617304374408962, 13.384672816490962, 13.301431793502356, 13.228164836480875, 14.055083305466933, 0.09175766169462005], [-0.04870000073580075, -0.11160774282850716, 0.12079529395340574, -0.1400370377554772, 0.05204546008997557, -0.132352185886789, -0.04677797514282872, 0.17566891001982646, 0.09707258279350253, 0.08900593696753892, 0.0680687928054832, -0.1469643157796786, -0.13087229600224592, -0.08708861116957939, -0.11371790415270493, -0.095191922532848, -0.15182988347776136, 0.1546344339590863, 0.07584247319444645, -0.04434012985123137, -0.08982153924073025, -0.15637133136077971, 0.12429522943790802, 0.0066156851697593, 0.1065884560782008, -0.0871151483052891, 0.09574211148172176, 0.027088240944939224, 0.11005119637219965, 0.10950570970403553, 0.09333702659890056, -0.0036387718780685196, 0.055210578924004966, -0.1552673521677237, -0.07549716628813986, 0.13070804893369478, -0.019210129134347137, -0.15273005203922718, -0.09123763299774192, 0.0994027761774389, 0.11384806171464648, -0.004927192355906412, -0.03186657578905294, 0.16037705140784134, -0.12079835971303203, -0.14232125815229635, -0.0506263569221157, 0.11903261774426657, -0.049258170479542146, 0.04957615867466278, 0.11745073912825457, 0.1299922675248095, -0.11452374309700597, -0.056771253731547136, 0.15690177213965642, 0.0280005897532008, 0.11460441210842712, 0.05123708127589294, 0.00292830948140152, 0.0730614895729205, 0.12443945770750173, 0.14843814405595743, 0.10375225292893389, -0.09568432456629747], [-0.16224717084971751, -0.15657405183165313, 0.07648378422021221, 0.11690275209156384, -0.11618483307593587, 0.06396744017225642, -0.025791653729366232, -0.11046741014242929, 0.02679957555519849, -0.08032553015393444, 0.13697484179836303, 0.1304907568244749, 0.04099468190801753, 0.07336802658731748, -0.06700340248769852, 0.08432406949819457, 0.03593996235302685, 0.01829103472079366, 0.008619838698540883, -0.15921267569674416, 0.009263649608034358, -0.1669804153314424, -0.0382661683194378, 0.03738793066844559, -0.14830104288524493, -0.1197675958557996, -0.015036737231624048, -0.14397507002837756, 0.13118811920601844, 0.03207169101620802, -0.1118045566375433, 0.06046599612239151, 0.067118272807531, -0.03100967597931814, -0.09985558299372709, -0.13265457135956243, -0.07822365322177577, 0.0055835887881215684, -0.07409143818743791, 0.11197710640721523, 0.14972697813675215, -0.06887637984102242, 0.1393657789707217, 0.010100323102728681, -0.10617835551722513, -0.0040600598095467955, -0.041040742766259714, 0.04947175409009111, -0.09648977718170401, 0.07577860007124662, 0.036334033725380216, 0.1485885874370306, -0.10412848432103707, -0.1539879739384794, -0.12441298725518286, -0.16136261448712844, 0.11631324641230004, 0.01668650867253879, -0.053801693797975295, -0.04150014214289302, -0.05862717976784601, 0.031355614342335136, 0.15321008158976449, 0.14021658086968122], [14.09845966639652, 0.05472682390087363, -0.11341575432284091, 17.974902085370797, -0.10043890207316375, 0.014447851357285822, -0.14756938728251942, 14.177317058183666, 0.06524718955917183, 0.011580821056371926, 0.1378614205264592, 14.0254767574456, 14.125108244276719, 0.05765343697412151, 0.17589007413792254, 14.247645128819352, 14.140212964793244, 0.15828123914613348, 14.250806834717066, 14.223997672073791, -0.0938895106860678, 14.203387125841703, 14.105086847579235, 14.212808397607768, 0.02755838456033763, -0.052199387823637054, 14.199592905939737, 13.975204150269056, 14.198578006338169, 14.308936762742471, 15.969561127644885, 14.279131618933397, -0.010944000021015171, 14.348457574619603, 14.128079077410623, 14.396996403526105, 0.0030659593494508086, 14.087913460980078, 14.162545114366749, -0.11288106450997284, 14.275047021898937, 14.350256903141497, 14.03832840216006, 14.218995060603104, 14.140294922780113, 16.79320872565631, 14.222796238776, 14.077868154660079, 14.103705366319508, 0.1312900652700091, -0.012012085121599675, 0.1384167028244759, -0.14124764645322835, 14.09854185797885, -0.07742297129638351, 0.14230264201171525, 14.060681298562942, 14.273909923731333, -0.026990243402633347, 14.224032781342055, 14.280197628363664, 14.2843952756393, 14.78454759184575, 0.008485912275739443], [12.186236267526716, 0.05822503911936635, -0.007400781801249284, 12.844901813629836, 0.10758718510251696, -0.13888291427176952, 0.10727094757720608, 12.217885186711332, -0.11875113581492269, -0.06629621294653634, -0.04404487987155087, 12.133186706035602, 12.172918338747891, -0.006133006585664125, 0.040571680643844255, 12.454305239384887, 12.355092770237121, 0.024950361496476732, 12.128461579052068, 12.337275527569698, -0.16288000126141783, 12.608595688171018, 12.195246588547654, 12.264356490100262, 0.11087007745193009, -0.11865055303082636, 12.3002585932704, 12.258530054087135, 12.191369174231323, 12.191601694619173, 12.24880260889866, 12.160336349986306, 0.04814756955666383, 12.250862246801049, 12.45265206877895, 12.410842054278735, 0.05104279054245092, 12.4441508789467, 12.16927444909043, 0.11011370652789224, 12.243979582866956, 12.267541721194213, 12.219590372411059, 12.215914688364073, 12.247910208093451, 12.198792948375445, 12.403806814063035, 12.23592145120612, 12.43330162331425, 0.14286448562981538, -0.11962266129389645, -0.14788006988368535, -0.147506233378878, 12.657549492344394, 0.05762911460860015, -0.08122784340494481, 12.342289070939561, 12.225402752392881, -0.03791836500013493, 12.239998694090524, 12.410007974612984, 12.261023020276415, 12.57915034340158, 0.15559469643487153], [16.774360509218837, 0.15309995022194667, 0.16146939352738068, 20.37940938323883, 0.13541882581474038, 0.15809112715831333, 0.04079788266577158, 16.6229732698199, -0.1239940243067366, -0.05701709724718343, -0.035251805150810306, 16.58112563876705, 16.77346208890554, -0.14497571960168543, 0.023916249276071222, 16.94198684687843, 16.621247354732724, 0.07136865835869707, 16.79943073659637, 16.775887690426657, 0.08717893505277378, 17.2705071599363, 16.610883633015547, 16.686948322100484, -0.06422393909529216, -0.07420410569425821, 16.694046322387564, 16.694584526347946, 16.612897548836344, 16.824008802097126, 17.41545394868811, 16.637977221271576, -0.15464527705084632, 16.8870375136934, 16.75853119393844, 16.652788872296924, -0.017525312298042495, 16.88032450968273, 16.63495562232125, -0.049680495372903324, 16.983618889531698, 16.779871334107852, 16.899693635509458, 16.605128619200052, 16.763350950501334, 18.02186184496643, 16.68855292888911, 16.753662454841525, 16.768046657564078, -0.012181306847118045, 0.1295927873091792, 0.06640861569516876, 0.13764166892007998, 17.402483635507686, -0.16990613657478787, 0.11024290745971269, 16.86371982920111, 16.870074886042147, -0.034875919508409195, 16.89064760768929, 16.672777998783637, 16.744474960200435, 17.742550773580746, 0.13439472698579386], [-0.036321282488602565, -0.018094754478365793, -0.08010722853281109, -0.11807006052417102, -0.018339962571874414, -0.07367436321102186, 0.03864418106562107, -0.0992475149185483, 0.10307313436156354, 0.03720232480114005, 0.11454982560217539, 0.16935380865040978, -0.041235316142829215, -0.15473062154891717, -0.15492237292855784, -0.15198695045798882, -0.173381045931182, -0.04976248917906645, 0.04025085990614518, 0.17726584869561246, 0.1226959762289042, -0.010872259158740787, 0.08390366165790951, -0.009078761449129006, 0.06894352292572173, 0.10241305455290237, -0.04932251080382865, 0.09880353523228555, -0.1337095530848551, 0.05986042939489195, 0.07799766747024103, -0.06962917646396757, -0.15553394795926687, -0.08852233023145965, -0.014358970500083607, -0.042807418527064725, -0.007918490149428636, -0.07745972523989503, -0.05854399742085935, -0.10239403628944846, -0.034174602415213674, -0.004663523600757337, -0.17474348469215548, -0.012000805960628845, -0.07391619430714347, -0.05637312969571272, 0.054151427625555915, 0.15019399607788217, 0.17524922263323356, -0.12579322336778737, -0.012317243219255258, -0.07324308315438123, 0.09403383142533253, 0.11928957112705461, 0.10662113526775199, 0.1570259789295904, 0.00474714449047282, -0.15169520566994227, -0.12581790367531165, -0.14223508726396838, 0.17173683732054373, -0.15441291387777625, -0.07209144697292502, 0.13091781535209787], [0.14744493608483306, 0.013872206847546698, -0.10031638601942197, -0.04916192529784042, -0.0594654909139027, -0.050565786383450946, -0.0985772391939038, 0.0673441237086516, 0.09256499027639373, -0.15378623271708297, -0.13140617429894905, -0.05986093164812873, -0.03801110961374083, 0.07268534537220422, 0.050230619404826066, -0.04062188150828976, -0.01603593642023389, 0.08730194322924296, -0.1438856452344702, 0.0761420706503435, -0.14980105440475341, 0.12709046804030902, -0.09151607917610725, -0.09914287765619688, 0.1227399276214152, 0.03405970638360233, 0.11049591528697895, -0.12033749266729242, -0.09962483649274585, -0.05567315067959185, -0.028571410671838028, -0.021338304783557173, -0.0723336344964655, -0.14511396733077805, 0.02930735985858727, 0.16454425588620428, 0.15865102515572252, 